{"layers": [{"units": 32, "activation": "selu", "weights": [[-0.01506637961476166, -0.002555082036375546, 0.008242732675815186, 0.002892984061101529, 0.00017751813320402197, -0.022132531909353423, 0.013175429716774836, -0.02421347796984801, 0.009800023128382003, -0.002124153525038038, -0.01713387177690086, -0.014298377749967358, -0.00576993228583442, 0.0026058438716793026, 0.014370329193999592, 0.0009008515269469439, -0.004818851679914273, 0.019980091889174486, -0.0004733012192900121, -0.009137725906591062, -0.0009127644901218958, -0.008251966086703097, -0.015085532570176488, 0.0016862267314556672, 0.003917710384227987, -0.0013466775039604605, 0.007068855580405329, -0.021397819992746734, 0.008310410843628348, 0.006599157847987413, 0.0071933969276618435, -0.01427890550810274], [-0.017447380933543657, -0.022042873716543315, 0.009182221730180764, 0.00361205201234248, -0.0047941485547561054, -0.025364399126175996, 0.012699885812583028, -0.003295198772552669, 0.016919565726897765, 0.016581973071704344, -0.004391128624714694, -0.005501698088084969, -0.004604807752434298, 0.008436111694646479, 0.007523353296104383, -0.025441614385379206, -0.014717331012728596, 0.02316343390285248, -0.012691548363347772, 0.021244688770143013, 0.009731830010881078, -0.01648848389634819, 0.012146706711710972, 0.02880496508786249, 0.005942801654994303, 0.027900447936865226, 0.005725156091046249, 0.016463220700136828, 0.01854147505933674, 0.014551087430647093, -0.020357908562058415, -0.009228060329551892], [-0.03251270596083576, -0.004150561402459044, 0.027127251100312156, 0.02468292318174553, -0.012379190567890944, -0.012504020771778632, 0.01871182111679135, 0.0015210250751272393, -0.0006935932738506337, 0.031005490398248788, -0.002703128153214841, -0.005187825059439861, -0.026382767700343833, 0.019528235362687066, 0.0022381700868443076, -0.03427788495475341, -0.018642652027580076, 0.004679497434738702, -0.014864221517604543, 0.0043072628464249675, 0.006838503007093399, -0.014236969644396379, 0.014759605915444557, 0.005931970094594896, 0.016775727693241062, 0.021311835921783623, 0.0031725178404030515, 0.04583718896124322, 0.018787924849679255, 0.006662027159344762, -0.007306519356421209, -0.011037482244011442], [-0.01666681909364211, -0.002320034235695761, -0.0008143268604336671, 0.0368059338531979, -0.020282163660573067, -0.014130965692623466, 0.01148291109105837, -0.011916081602197688, 0.010296241298668376, 0.004686117049930612, -0.0002081257619832421, -0.03271862924446331, -0.01177950183553015, 0.022425096055730325, 0.02874494440877789, -0.0117758530623993, -0.0026679081810655194, 0.0238227292211085, -0.008200270865225009, 0.010079111103947555, 0.0035238334874375227, 0.006486056400959663, 0.020978449705173357, 0.007024121634791223, 0.015312634943279444, 0.005134624979203361, 0.026407418172407087, 0.026046609136667107, -0.019352820747212465, 0.023891457512261672, -0.004051485267763928, -0.02426245805784163], [-0.03487440655432702, 0.0014692832532372275, 0.009234654726997926, 0.01685623715280143, -0.006583493033322871, -0.02874738028889694, 0.008905529555871778, -0.018296613727933404, 0.022340932815547023, 0.017228057743050126, -0.014920693850860336, -0.011436905588580355, -0.014927518865217438, 0.0003367106906923134, 0.003942165569504079, -0.006502152112532265, -0.024674288790721196, 0.014523228673600001, -0.017226008485936205, 0.006796640381238196, 0.019974778562631603, -0.015009530527904758, 0.02089515429677014, 0.02281821203683628, 0.021467403788370396, 0.025510869427259976, 0.02392349555214937, 0.029243085407855432, 0.005745740461915493, -0.004958505472462147, -0.0016125470182073217, -0.018689515506009086], [0.007085511618785789, 0.006914758509981486, 0.02665388625374929, -0.010064915399634623, -0.019971324684740915, -0.0009793174130490565, 0.015633766589477415, 0.01143696743974069, 0.02316422314853704, -0.013022993450340761, 0.010346785185035103, -0.013703181841660105, -0.0210899373234446, 0.01648314263924019, 0.009756719174306957, 0.011311688905345653, -0.03762383757630101, 0.00715277417243778, -0.014386674047421064, -9.253391302944601e-05, 0.007900326522850673, 0.001165195582546841, -0.0037642209992031894, 0.004924635792855314, -0.0018369852156305015, -0.009548579906997609, 0.0013387278567969728, 0.023560129939167306, 0.01599127195630173, 0.02824210805496563, -0.014893004595486106, 0.003361443184356445], [0.0011737474211784898, -0.012418076265468531, 0.0011904337975638267, 0.0034057331607307804, -0.0037406690011452318, -0.004030438943932938, 0.0014951244901363853, 0.014068914480632924, -0.001973243663895865, 0.002736087392798162, 0.021714116205566517, 0.0029208922227784745, 0.007919752855984468, -0.016013414565942068, -0.004378114493244128, 0.0016589495607713216, 0.0037596779781746727, -0.0026664516597564576, -0.007814289978989614, -0.0018593786018865509, 0.0037068651130736812, 0.00710749456823139, -0.011161766560157193, -0.004509258176337562, 0.006998451193104596, -0.01175517380142899, -0.0013664120271751601, 0.01617919847573668, 0.011914113463637912, -0.008355384883444783, 0.00845611034237516, 0.0012472991586381544], [-0.018371795484586843, -0.00940864766570365, 0.014332670129694478, 0.004374253698909759, -0.01350546194280241, -0.010955466063048468, 0.03288590010158, -0.007487320202436515, 0.02773911024173444, 0.03200792065812257, -0.020548416745687165, 0.002461788185081686, -0.03729363012231522, 0.009619932726517098, 0.028338782850910325, -0.010493558725518028, -0.01739742700667385, 0.032680516933516826, -0.017721917537883655, 0.039995270320633824, 0.022528971427386857, -0.033482963157144295, 0.015244789132866891, 0.01794327690565925, 0.021487898498844662, 0.03729498550950298, 0.02863188763240667, 0.029868981120907086, 0.009266647801658317, 0.005484438515992762, -0.011200715535673441, -0.022404028076337297], [-0.028249997262288076, -0.013499806966124763, 0.04655184441910724, 0.024357170165646397, 0.001010674091570001, -0.021334037315511343, 0.018921793359979497, -0.023737820999746657, 0.01910418520898439, 0.03419154316028993, -0.020076643305031196, -0.019074004472282923, -0.014164059942033501, 0.013761637751757838, 0.01617849266789799, -0.02700011907359463, -0.020655647937735756, -0.006558575177402381, -0.025434991204671784, 0.015191921606861643, 0.011884469363345687, -0.012943600977196034, 0.017022000276015737, 0.027341295088783756, 0.027199464043152648, 0.026135586163312307, 0.013404100634951389, 0.0024662763397068532, -0.00033256301118665915, 0.019192387100742486, -0.008447299420894635, -0.0161443208842599], [-0.00404385867356161, 0.00033019287789225367, -0.009617818667556451, -0.010929169135485502, 0.0005315387349176102, -0.003603208992235925, 0.01081669707752247, -0.0011727371649951066, 0.004373416429339698, -0.012036391342316563, -0.0010718256117868323, 0.004686280401345221, 0.009530878120904486, -0.010500971170007572, 0.0035880298708043747, 0.009763429595701902, 0.006020383694050617, 0.0024725152254056926, 0.0043467466741538225, -0.005143651241072757, 0.0015992103204307225, -0.013793686929874894, 0.008548956537233624, -0.006983962996673262, 0.018034559923726306, 0.007945041701655041, 0.005158847844520552, 0.004067436041363119, 0.004670702418338471, -0.009338042333207886, 0.0029374986331004048, -0.015134678179077984], [0.01120464882967471, 0.005504594869459538, -0.011405033159621082, -0.010640983022292695, 0.009208598117242561, 0.02310589514441782, -0.008764283852088266, 0.026824676935952415, -0.01515843457699909, -0.006941143828071836, -0.0004087844510323095, 0.0023940249202758683, 0.02172141186375929, -0.007004926963661941, -0.007083389788931199, -0.0034506724409031127, 0.02320882552840874, -0.027766682631351982, -0.005402699868775664, -0.01355536308818774, -0.03808627817499917, 0.024058602225078992, -0.012564512176124884, -0.0026810380437551923, -0.0338119354409831, -0.005799206321735812, -0.024256949887488333, -0.0025554824320590222, -0.021942465728143082, -0.025360737046030896, 0.014374578456710908, 0.026157953491429367], [-0.02395050994974514, -0.013614246380487428, 0.02818875490022185, 0.030717302714661707, -0.015730871709574785, -0.010389469648204922, 0.0375326997792872, -0.013890896057058434, 0.030218793783452127, 0.015049381553499115, -0.005638368091418536, -0.024234701171890055, -0.018068690689685953, 0.02995996088988856, 0.019432686920998185, -0.028443742798468993, -0.016964398511992315, 0.017687532935117357, -0.003536521784946005, 0.032866340146980574, 0.026505597527799366, -0.034609982776984786, 0.007888141638171753, 0.030297282490634785, 0.0015550185870527413, 0.03646651742538881, 0.03701996520793302, 0.019267952739001226, 0.029001852364028167, 0.007804061317977332, -0.004277289633701813, -0.01315261874993177], [0.008328014217446616, 0.007197694242238609, -0.015920943159122063, 0.0030386273852259687, 0.0010042425455921112, 0.009451194425312332, 0.023285761578889116, -0.0026956937410081696, 0.008900182745372926, 0.017912110142156396, -0.0015594663033142574, 0.0022356026680057685, 0.0016450082161654361, -0.009674726436557222, -0.0018381908003954166, -0.009710637941631295, -0.004434856272412908, -0.0010145158954730474, 0.0048508656641208245, 0.0145889256872752, -0.0030413257153042265, 0.006370073165672544, 0.0046686842981076134, 0.007334343515193719, -0.00043969192479710524, 0.002018412255800967, -0.01586911676770576, -0.014831077024770703, -0.0022261913604015196, 0.00680287824449591, -0.004574635381068748, -0.0012401580356416618], [-0.018992487902321113, -0.0252000052381255, 0.022278030580786964, 0.03256856531694181, -0.02844035079203022, -0.023690378228352245, 0.018921003074661064, -0.028779223404313232, 0.03449998524819613, 0.029277226128326537, -0.012294646056315415, -0.005303026898239559, -0.003764724644510144, 0.037306703827437455, -0.006520156835317993, -0.016953267063877623, -0.03176719573337782, 0.013149514466979898, -0.010636463639575319, 0.03727882143958696, 0.017814557464171165, -0.037738206283996635, 0.008058480596311406, 0.020455727315301146, 0.03944190124926546, 0.01964004504868951, 0.009889969419543943, 0.02159602408512872, 0.022763289304534827, 0.020991691992673436, -0.023667658625896624, -0.015617184884559317], [-0.014287488743701175, 0.008124821435954933, 0.014887432061929488, 0.03187364106423927, -0.025237206160015846, -0.007934565030426114, 0.012946515002725421, -0.023011392233697563, 0.02876962395459216, 0.025820943258420315, -0.025051200580117623, -0.02318915692833828, -0.03032115230550456, 0.03816087042091703, -0.002917554485806358, -0.032687243363548134, -0.004889037795468498, 0.011830064631058531, 0.0031170175672577817, 0.01613892623816343, 0.022920882378923115, -0.036218846337557134, 0.014093481664507058, 0.029602319014554148, 0.016671233887093108, 0.02479799647428644, 0.012748069405143425, 0.02022785721154608, 0.02130892986618265, 0.01413345095900903, -0.003037171457959326, -0.0044209515744435745], [0.013750501954445452, 0.014055993365204215, -0.009175619715591202, 0.000692549184213365, -0.012819525392500156, -0.008380571353759865, 0.0019668505294911623, -0.009219709893873971, 0.008012026304402267, -0.009127857528298006, 0.009788899827006406, 0.021611538131421696, 0.004411380195031247, -0.01383396209156095, 0.005413212007894285, 0.004227402086975939, 0.0077146209142632555, 0.0033938176764310092, 0.016522870398877013, 0.0011523022237919765, 0.006184346892874429, 0.011174068364929481, -0.00320726227211096, 0.017008883631596406, 0.009368385465082429, 0.005787269325591424, -0.01861281768712436, -0.0038070093230484804, -0.004503388007343211, 0.003170770134694455, -0.0032095085418857947, 0.004524901468272948], [0.02896420204109168, 0.00917395491233097, -0.021036312983549528, -0.010195401059119851, 0.021717380073925534, 0.030063335966195443, -0.016158161392887314, 0.0053475723331711696, -0.04292474246575906, -0.00621401584724361, 0.02163301202450103, 0.009588237542753295, 0.015156286054342227, -0.021721326596018768, -0.007831760059997315, 0.01771832894138432, 0.01138743775320965, -0.01323970339539505, 0.02564817229859343, -0.0036127059980872508, -0.02960113568949461, 0.034901356085644535, 0.0028413022660440635, 0.003561943576267608, -0.017733923120914794, -0.006862616065538047, -0.02085760326578892, -0.02675241105090146, 0.009623845493901984, -0.008796261433336764, 0.004338592125247703, 0.009936283359782963], [0.007291320108464035, -0.007220428718259151, -0.017749658545815145, 0.0005074169975918945, 0.033090384001014855, 0.012735578014451528, -0.012094561993527313, 0.01883015237095724, -0.0012745591358020456, -0.011840928228292523, 0.0011632765485149702, 0.017179546486032128, 0.0012054106515143079, -0.003924078130504194, -0.006412264256731391, 0.0009311172852968917, 0.013319554184773945, 0.004812056940658171, 0.012973406690337873, -0.014977872661901207, 0.005378742830784091, 0.013899116364951131, 0.003646399117732573, 0.0023797219027446815, -0.0016363735304040625, 0.0005209423851315012, -0.019657186964011985, -0.003933809441793605, 0.013085883311191222, 0.008874502539383534, 0.015174925603188647, -0.008802536279683172], [-0.006578999199790636, -0.00216177830135307, 0.023625034640293235, 0.02393613763739541, -0.011308199668018085, 0.0006810906006156433, 0.009869130216590805, -0.0041429566984102556, 0.0019777754243503858, 0.012378292723524675, 0.0050145888139886755, 0.009439271996197991, -0.003510826417740768, 0.018867389669297942, -0.0015468523025328445, -0.016684132224608607, -0.004265946571831299, 0.006093113939023324, 0.0018058354019399273, -0.012522188838025923, 0.015754498418507998, -0.007553580667980707, 0.016186037891066457, 0.008168397331404209, 0.015623487781818718, 0.009863405487126229, 0.023975825916717642, -0.0033827849119717588, 0.012053248490204109, 0.02529936600354683, -0.0029860333708290722, -0.010980859137703759], [0.015961350534688678, -0.006817611215791505, 0.009820709628383462, -0.027006084346278037, 0.022478287911894556, 0.023445421570382968, -0.009293056762527846, 0.015952021169449604, -0.009933331884573288, -0.01938508851078715, -0.0018483507475055838, 0.01492654963031132, 0.031604665047687254, -0.01254462230637138, -0.002979679678664612, 0.01370747983078842, 0.001309855047256903, -0.030394745186366503, -6.690890392419883e-05, 0.0003562918921631522, -0.014300488125001032, 0.01546855552047852, -0.0024582223946200644, -0.006648321382482962, -0.008098135067484117, 0.006830631368274137, -0.005812803532695236, -0.0029759269531926856, 0.0017496098379690848, -0.00824182722100444, -0.005092965311671666, 0.005118380392889575], [0.022447644022423996, 0.004424794815367778, -0.0033881851339496367, -0.0072926351003970435, 0.013914176354224216, -0.006445105846977294, -0.008113516536465559, 0.031151534592865165, -0.012611346925176868, -0.024957493299476784, 0.02243789470139919, 0.02943864923249099, 0.030044443776773823, -0.017135219886608197, -0.00906977046941993, 0.022668793964085037, 0.01116015391368339, -0.013860310007572879, 0.005523497643321358, -0.023085463145733617, -0.018597099917352027, 0.00769999320811769, -0.024331907339613195, -0.015946908148973055, -0.013727008965701748, -0.015328529260484046, -0.008648652689972794, 0.012331350914753387, -0.00355269845747672, -0.02513001268449151, 0.012235488812719063, 0.024320335274807463], [-0.030850906656027063, -0.007798272012952428, 0.03137566817980895, 0.03113780504241635, -0.04517326935896838, -0.026168132541588215, 0.019351915846420726, -0.009796832032121191, 0.019951851740824648, 0.01840499950618158, -0.03192614961622232, -0.01382944446300565, -0.021341816941599097, 0.03389884691246705, 0.015613698021655544, -0.03438527998898487, 4.060487548520966e-05, 0.0157060749899273, -0.02096684712378904, 0.02163459321915595, 0.026483323594703553, -0.026173123837299164, 0.008107799411633898, 0.03940466368823178, 0.010242260106755292, 0.020773173337121042, 0.022212166994075376, 0.025228957449178954, 0.01291962051408471, 0.02192506361520899, -0.009994353985824418, -0.0023447348126431804], [-0.02689044493491058, -0.004018693284709999, 0.011877285811116505, 0.0031933086615826252, -0.02193866981777674, -0.015579028271135274, 0.033520049917245276, -0.038964045456459206, 0.018828765781091866, 0.03956592492908901, -0.014516055717220177, -0.041991230488355756, -0.040216763130400575, 0.02306001381562962, 0.024923390764875042, -0.009509527073102438, -0.02339546209939171, 0.036699665285347884, -0.011875275588807627, 0.02301066517209061, 0.025329499893981616, -0.022384342339795985, 0.017494500155943643, 0.006085194744983674, 0.022807663223161165, 0.024432473873534775, 0.013306868432814305, 0.019737558715505046, 0.02961000107936647, 0.021793612030660426, -0.010758023430889416, -0.010104451347512243], [-0.010459863568893711, -0.002241456729268991, 0.026920751794738133, 0.03173227590618529, -0.024905193132087125, -0.018523721978535964, 0.011193239548757842, -0.021235181966768334, 0.04417351890345604, 0.026691020590810605, -0.035753764381496383, -0.031621584250118615, -0.029892886295920153, 0.014853016700299246, 0.032874513348051984, -0.022112364997452234, -0.014820563193342786, 0.005518831945461626, -0.022207624933149584, 0.029233299009567858, 0.024419813179851552, 0.001027516725666263, 0.0172578510234404, 0.02127915274296305, 0.029663326907554386, 0.03613093730068512, 0.006178547878020541, 0.01664438456767515, -0.018461759056252948, 0.029808987210175525, -0.013428017853217391, -0.003094691760533041], [-0.015512718296970183, -0.004996973097409646, 0.01641584202960007, 0.029203104839824866, -0.010339504067985858, -0.02501650343585523, -0.0026742004682346696, -0.007448582846202688, 0.028286076192202317, 0.027717557736878663, -0.02080782131503077, -0.017349963084152924, -0.029006873088657358, 0.012729899153659857, 0.0233287630266891, -0.020859205296009334, -0.016929178793997524, 0.029495958749417666, -0.005901785433220583, 0.004484507381674403, 0.015477488433904896, -0.012922226873184254, 0.01751202376414721, 0.011919988822771508, 0.013355052275972324, 0.008879512802717423, -0.010086163267178639, 0.002099751785084821, 0.02418830578224016, 0.0018500236811550682, -0.030344692002344777, -0.009267573291043616], [-0.017791581914035338, -0.022013712441295654, 0.026124982578164778, 0.03134772105702321, -0.018897343402028983, -0.0073233260120169645, 0.01920160234149766, -0.02068084392978568, 0.01628586619673049, 0.0400877968926872, -0.03498281882076851, -0.022246144914546823, -0.021689046901413774, 0.012518522796085549, 0.01787136951258686, -0.02281710580883277, -0.017423451976933024, 0.032683720845595676, 0.0048315535114784765, 0.0148178362288406, 0.01829713711546543, -0.013444438271132193, 0.0232216186500673, 0.038723293632613134, 0.0353836866638424, 0.012685081979628799, 0.02194700339111298, 0.01573929290383023, 0.010828143779434243, 0.023616898677244577, 0.00685387130411828, 0.0021955246456464095], [-0.0018596561443437643, 0.0007896494132297679, 0.0021789371108095097, 0.011776555157160971, -0.007366768185228677, -0.029275766551665937, 0.00037450754239270605, -0.020195985944045123, 0.013049267784769688, -0.005041116976354179, 0.003957989842323914, -0.003988150011177005, 0.001276362506845244, -0.003555755540002681, 0.003606230878237548, -0.00274770033604463, -0.009185544272486138, 0.023268212423111664, -0.0036254526634068337, 0.0074455122803621385, 0.0015659000408707819, 0.003047857510615901, 0.0039811097801225204, -0.0005865629979732576, 0.016133567962261532, 0.016750987464213846, 0.0051744430542655295, -0.014958279406531398, -0.005583613743585336, 0.00433985964862887, 0.004003656060476836, -0.001993741264549458], [-0.008186829250221307, 0.006402232708194792, 0.015628158221753854, 0.011632391903752478, -0.02992730221273326, -0.007784460626879517, 0.02686665315922676, -0.03525768628135739, 0.029951100317066024, 0.03347305165703887, -0.023842149046083668, -0.000727594323727535, -0.037368657066887814, 0.01498918258174412, 0.009172107276302846, -0.011849019307807039, -0.016808079612406712, 0.02828350774874697, -0.019632363563884037, 0.01068980900050902, 0.008393879371690305, -0.015718282817813442, 0.01741709159453545, 0.026363986360076287, 0.004598524576800688, 5.323611954606371e-05, 0.015535616399065068, 0.013274103129886288, -0.0033159769388877015, 0.014200230242335462, -0.025113793697782865, -0.009584888972349964], [-0.01831753779883048, -0.011707145467179943, 0.021450394379004107, 0.03612537010827672, -0.03736941443554478, -0.020615984024446685, 0.01620664612954197, -0.02211262456318976, 0.025746886672531815, 0.014173870518274704, -0.022905971576122296, -0.015614156929724371, -0.01923198894466028, 0.020343045115662328, 0.01564937862029181, -0.03398361056558527, -0.024756753207041248, -0.005488876973766717, -0.007761198362777762, 0.024078343251960246, 0.027787095012706303, -0.038736870987763405, 0.01704010037806342, 0.018844427287911348, 0.016456088776793776, 0.011985542189718652, 0.01783441955331637, 0.005449156663343709, 0.0178173561766615, 0.011612786951746987, -0.032053895061160485, -0.016070961050157345], [-0.033173976259067914, 0.0019326581832454365, 0.02908559881907338, 0.012422119550811775, -0.027633337506139773, -0.010813811516537875, 0.014891556704726609, -0.01890926397900018, 0.03387125031243537, 0.023287242289215918, -0.015311575220290082, -0.017431773791600814, -0.022421807738024303, 0.01568931573659356, 0.005678099939288692, -0.03830393839895559, -0.0068163609013306755, 0.029366405107356913, -0.017071152539043837, 0.026215178550895005, 0.0037825349867166, -0.009410272535678362, 0.015679322889723842, 0.02164166323513034, 0.03245881392801679, 0.03363863270821475, 0.01185461049876088, 0.018103485052892346, 0.016858109081290918, 0.03849313877959091, -0.012584923033581158, -0.02148231078579225], [-0.004385810217693698, -0.002333268093766333, 0.015228960760016312, 0.010166483369123297, -0.018945363454277237, -0.008533679085310782, 0.006551348929177097, 0.015334667569629964, -0.002627036659099457, 0.008813084967531241, -0.0191141509242858, -0.009349208264832263, -0.008905115474809253, -0.002056605542745422, -0.014898336676528175, -0.014534187933449624, -0.021428116756733007, 0.005879903058102552, -0.013943308972248625, 0.008992026570879363, 0.009267317930381793, -0.008900328118578084, 0.010220695420027803, 0.010629000262620196, 0.0018785413603034024, 0.0011522126109901108, -0.009454663577703505, 0.012636191798823315, 0.0025150573707399876, 0.015833584927685055, -0.0031195367747168987, 0.007255445323202455]], "biases": [[0.00761729886092183, 0.006911372652899284, -0.007806227968949332, -0.006706567726780781, 0.005745265044269679, 0.008020790963782113, -0.007791580740276776, 0.006839622758513636, -0.0061541466346060995, -0.006934676612514984, 0.007440117697988748, 0.008093237934520834, 0.007578793340183207, -0.007631541819964695, -0.007749105979728848, 0.007369904417952792, 0.007982537097296542, -0.007647595187983057, 0.00806795912748997, -0.00781197517394568, -0.0077084878442789445, 0.007422251143095329, -0.008289197147109044, -0.006283803673430927, -0.007761804905562302, -0.007585079947108956, -0.007817769471556104, -0.008217735565526648, -0.008239060021469232, -0.008133012322999253, 0.007154230109369093, 0.0072863277967490925]]}, {"units": 16, "activation": "selu", "weights": [[0.014564488344321192, -0.11576354897397619, -0.16442205668022938, 0.21774132723693324, -0.009424930689290612, -0.032530210826395296, 0.02594848357746792, -0.3511225632971617, -0.18447669164749536, 0.017489466853778095, -0.08827910759783371, 0.1774037157487449, 0.2633375266231887, -0.15630695871840583, 0.17045868152138094, 0.06436773331546951], [0.08506186172557906, 0.05476965960938797, 0.11593716525915936, -0.10878193506764895, 0.052201372858757845, -0.10760630162628426, -0.29343080566270197, 0.24681943184161192, 0.016830016958539817, -0.008325749614149731, -0.08331653583702012, -0.11816627965580441, 0.31205669108882594, 0.39250795146999307, -0.0629101418610008, -0.12216778822424204], [0.027615270751710382, 0.06362870632251869, -0.0028855302821829765, 0.19185128710480562, 0.10771401364537929, -0.024674943245675086, -0.24689016854945067, 0.15766346950885343, -0.03874892250843775, 0.07066123066091977, -0.08154092376258881, 0.3799894514791312, -0.025337313410409144, 0.10103566224939547, 0.10724540282121302, -0.17066045556406978], [-0.3497857253350709, -0.14678347045961074, -0.2208232333519532, -0.0870939483504026, 0.045373854028989406, 0.05037859338230967, -0.03949835092561719, -0.00792299806981586, -0.22011245558019255, 0.14793391125822375, 0.0008199499905018614, 0.21686749401705496, -0.250013651252329, -0.1627436417255873, -0.18775541231791484, -0.11523139648256468], [0.2865681008731978, 0.16234254787947808, -0.04713135941942901, 0.16666073548425675, 0.07488096426418324, -0.099043407109341, 0.4602268651105404, -0.7572039874225298, -0.08922732620507604, 0.04709221118928899, 0.28385652033673003, -0.16648232115593148, -0.24826891526359077, 0.06220416957606323, 0.21247276289007128, 0.04306464041480946], [-0.22265913940620521, 0.3121680390950629, -0.07726908992681354, -0.019864081938330832, -0.05180271549548693, -0.29573656824961186, 0.10879598892771285, -0.04205414962193026, -0.1225215491848537, 0.05109286762232647, 0.08584912294174034, -0.2003458275916481, -0.16357636852940133, -0.2407579565747773, 0.32507540281379166, 0.010451820591359419], [0.1253375571616297, 0.07373300753737626, -0.09937754100737221, -0.013354335597700351, -0.13876929947185107, 0.16361971245088977, -0.05994052512751508, 0.20179200338786138, 0.08108326412062238, -0.2703800361111622, 0.06367866930118173, 0.045694409154406375, -0.34393926541576314, 0.06923337583661723, 0.004383442777820778, 0.15291467969428363], [0.1812633858240436, -0.11975877123328298, 0.09223067779965843, 0.01800729487551623, -0.3336271626387955, 0.12080739034420122, 0.03449470067020667, -0.32374912809327827, 0.406943656809243, 0.14518305832395875, -0.2017576010526585, 0.1123975980260112, 0.2518132255288663, 0.10316485513084211, 0.08715207398660872, -0.136072716104627], [-0.11108831109188405, -0.0014068510844370738, -0.3543545910765788, 0.06994172503847218, 0.05786107593503848, -0.2605467281555551, -0.4126165926381345, 0.032963478211101876, -0.1228314516533726, 0.24630136170731035, -0.09609343744722311, -0.332688127833868, -0.18773194776901567, -0.1274110969911053, -0.48225835985087506, -0.4850173606441941], [-0.06810030862965309, -0.2380862232638423, 0.10088945538352524, 0.04257894434720508, -0.23366670660132635, 0.29891313982008283, 0.1620685701769921, 0.24482410270935065, 0.1969985565503831, 0.026892344741820073, 0.07195739144752453, 0.13761825463704944, -0.3124006027036714, -0.11556388962602142, -0.12476079248800429, 0.024398047545791883], [0.17428459038353708, 0.19692224875405556, 0.12444930928461395, 0.03578403768698557, -0.11717006654211733, -0.04887625671095661, -0.010938244194323772, -0.06558570180571517, 0.5131433615988134, 0.0450271014002992, 0.20645472054375605, 0.03602881210642567, 0.09261980209948031, -0.10144253651911293, 0.4001823155736611, 0.10862340559692342], [-0.05982270896988427, -0.2952405205403288, 0.09096331947605636, -0.024146514031989516, -0.06346795024877774, 0.15428528141680964, 0.046873585422624695, -0.28257895214111395, -0.0856651061067058, 0.018097717750178172, -0.20105962295760582, -0.15502299657990307, -0.132595408442398, 0.18648915252378662, 0.10274926055516446, -0.08344074307853012], [-0.23063135248693598, 0.13902750193137658, 0.22045428530045919, -0.12517915772383242, -0.21174392286012939, 0.029427358198551412, 0.16272776565082023, -0.18773800106196536, -0.05344000698795613, 0.08835826975201222, -0.12904257600736585, 0.027820307509865118, -0.21540505860481052, 0.2436898003964295, -0.06919707245867641, 0.29693875795327573], [0.22072692439763258, 0.15154757821481787, 0.13036389700786427, 0.3104070689611375, -0.06875199202354573, 0.23209248910307448, -0.25627327325411675, 0.0825996389439807, 0.17459448890109117, -0.030524431152818138, 0.0004827721878947206, 0.030493088613640012, -0.09321832623947143, -0.0018004439571676337, -0.2899324349223226, -0.0850248321684822], [0.028157925714509098, 0.12504023833202518, 0.04219582913955008, -0.08500257159323428, -0.17418773650505875, -0.23650376430170694, 0.18436679009836862, 0.14736871960253572, -0.18549096677191415, -0.06776891409061053, -0.14334225927825306, 0.3274048731830208, 0.1342857195207262, 0.015721121550298017, -0.11831500031862313, -0.244917716142874], [0.11364780702056344, 0.4405472081704989, -0.027081677375770417, -0.09869427618973366, -0.34813782643067176, 0.0699442134246985, 0.09388650203221297, 0.29290535185529637, 0.11364846608758841, 0.03681351299478042, -0.026562177517350266, -0.12715780066607058, 0.07311873747837071, 0.1791322549116975, 0.2749266662080382, 0.14017241201824487], [0.16393207341271282, 0.23836717196038773, -0.018128650128973516, 0.03764370425085405, 0.1686770237575214, -0.2586902571746831, -0.07690824776678769, 0.04607738161288663, -0.2126170372940595, -0.02301114808809072, 0.06616899309665487, 0.1311170935024566, 0.27265835516140796, -0.114910923717539, 0.1531431872278799, -0.012025455766852478], [-0.08675437583168467, -0.4592699706017684, 0.1245333120986005, 0.03377942498868826, 0.13784273816187223, -0.09564694236717741, -0.028816911725930486, 0.3001965299506435, -0.35214119573007924, 0.06595026957908048, 0.08354172594849298, -0.22078730365349183, 0.02371922037745626, 0.08820804461868065, 0.13322895989405092, -0.2742450309945104], [0.00893522951363399, -0.000588499270532682, -0.049597223776572864, -0.14427629169659564, -0.09644639266228566, 0.05734755734022397, -0.22345286393874955, 0.2492319178967689, 0.11427865168817895, 0.10150249296588924, -0.1890067384260653, -0.012519976629390927, 0.25202237159655216, 0.01317259756900762, 0.17918815377287295, 0.19537615143711937], [0.08270678242619628, -0.12699952933341233, -0.12444081551415052, 0.060840189551742786, 0.19683746605981148, 0.10773797726926497, 0.026024562779956323, -0.08172990150112325, -0.2802173849377686, -0.2036972264828445, -0.04647127851936242, 0.3975237942046956, -0.05613775446172555, -0.09087056449144641, 0.07693423055893774, -0.19541601181527885], [-0.16644154458914348, -0.029770560832088233, -0.2188919645052854, 0.18725774292311706, -0.08406039313974997, -0.14577989562531285, -0.06391666353328634, 0.15689897136591305, -0.14359074401273114, 0.28185438037964267, -0.18280254929924342, 0.1321244771021257, -0.19545143393065337, 0.11484092777525051, -0.22209616060163406, -0.032824846207693326], [0.3891770765172624, 0.09393666043814218, 0.3959318384506012, -0.09209335912587538, 0.1751325435545021, 0.16907018239692906, 0.1712552247947251, -0.13819013771459246, -0.054089011352038474, -0.04190029639356628, 0.22675147493682496, -0.16672836130463367, 0.08024313065694941, -0.21474897540190985, 0.3277303006514577, -0.03393849084102001], [0.05654961196979296, 0.07803913543528397, 0.06255787327203254, -0.0203529549496234, -0.39872230062327446, 0.005159837590201824, 0.1638105258841303, -0.04843377172688526, 0.07526241658847448, 0.08311830060429724, 0.15486035415404759, 0.1412786363538043, 0.17419841038729486, 0.16649656258257037, -0.2969429361963768, -0.46333050660309244], [-0.28883048911792514, -0.2118449663194532, -0.2460156224749814, -0.2172186804560027, 0.27744024104753034, -0.19833070494801786, -0.030934395981956728, 0.01403446209439367, -0.3111006491146162, -0.3450580339536582, 0.42451243133565036, 0.08807300143318614, -0.4058616248916945, 0.10697310648913426, -0.1504287979618958, 0.20110201462401], [-0.08583474493589971, -0.04180479653936706, -0.1933089759822421, 0.25978619474373416, -0.15871939270619095, 0.449204195645722, -0.1394800349685269, 0.149545569994475, -0.07542749056686698, 0.1164220183056037, -0.01596446077855142, -0.042466337190013935, 0.09640589715753996, -0.1036064551043739, -0.04848332505243531, -0.08468458175954473], [-0.003752253035935967, -0.14550367401075964, -0.2484389641914692, -0.030730788099653714, 0.35398554868794296, -0.16229475106184016, 3.23617369850643e-05, 0.13015248041588995, 0.053966099332631814, -0.1555555199009548, -0.023831901771422036, -0.14935691888438066, -0.21279895502845858, -0.011014131748512321, -0.01909666031050634, -0.10996153471453293], [-0.1008718967893632, 0.024269763794344895, -0.18429291866863481, -0.0249221422482785, 0.12115923985843183, 0.13036497575142192, 0.04668216743156802, 0.06510758493650184, -0.11290222499403112, 0.04973791634447739, 0.1871547839297885, -0.07276769970256021, -0.24665295921492822, 0.10586207778354989, 0.04545642680173744, -0.08936645814459504], [-0.1946542412798794, 0.006082913224191468, 0.1805464760835979, 0.23639595394208573, -0.04593534311224607, 0.10224393097788906, 0.3397391472226962, -0.22364164416434046, 0.1260418052394429, -0.2936412668838723, 0.05725208391313042, 0.055891751130539645, -0.2997121432759328, -0.03699149015583901, 0.06525489110644762, -0.24975065580502234], [-0.061747937739661814, 0.3867990632165407, -0.16408181960807877, 0.039622411502582146, -0.06018369014708455, -0.08174077377215135, 0.16430421740046777, 0.3197277849385911, 0.2372378524662407, 0.11409482885649909, 0.22014742211579136, -0.09478299743246456, 0.12972129147331932, 0.0466551834244188, -0.15723827612397276, -0.028296370767904158], [0.10202278083741266, 0.06594333506724934, 0.019434794413486858, 0.19313135983732177, 0.036596072774122516, 0.02078508588837009, 0.024279290017535676, -0.06342453913597915, 0.314651431088386, 0.11030838667885261, -0.16664623705062453, 0.22613204769868092, -0.11026077975159498, -0.19276884403314437, -0.3401526497311875, 0.004497046050527053], [-0.23873614884603658, 0.11813206380353566, 0.059662169528823444, -0.12734456929506577, 0.19001974550065084, -0.229724943390145, -0.3927450837757927, 0.09198030280816966, -0.03676008807599159, -0.09327016378550608, -0.08641285856121467, -0.04509125833474279, 0.24325234144742472, -0.24693661577234366, 0.15176228881347845, 0.24647259924609033], [0.003517599037902911, -0.006288788262967058, -0.17499138346377385, 0.07028394345154276, 0.08254999411042863, 0.0635696656495502, -0.0955226892359139, -0.2704449004488877, -0.054036383052768366, -0.2475035761056646, -0.031615463626081176, 0.11883646647348024, 0.06923083762256103, -0.18699667811187232, 0.04335257337140925, 0.13053480034161258]], "biases": [[0.007837844646382354, 0.00796752668564637, 0.006434227308073752, -0.00815898356920589, -0.008017575186473672, -0.008005298867719274, 0.007563906306280071, -0.006060910896406615, -0.008193626054691842, 0.0080843660253693, -0.007451710169616514, -0.007922104829445276, 0.006788467098057982, 0.008038846063259993, 0.006969820788706845, 0.006947161631691838]]}, {"units": 16, "activation": "selu", "weights": [[0.3353917034160171, 0.0366044788094283, 0.002891381859963304, 0.16763404793897543, 0.31618493326605035, 0.47120464590828887, 0.11033429885721885, -0.2200839698405858, 0.14652338024184536, -0.3116210381453463, -0.2986401440126615, 0.1368415798915771, 0.25832561980300317, 0.05524614947064272, -0.2937619769415615, 0.1456920261786327], [-0.06422250545462745, -0.020627240691452164, 0.10740514416897044, 0.2720257609823987, -0.0013921180777168069, -0.08590286449019723, 0.3316859785357725, -0.29094150334327673, -0.2149429607912788, -0.2308860434199861, 0.21211344433088278, -0.34791455868629884, -0.33760412774378323, -0.07678171778291842, -0.05319863373840358, -0.22525359919936783], [0.14909878637708662, -0.35183581927644736, -0.28650264689061256, 0.3579102836756756, -0.3416762630516493, -0.1329034608456083, 0.28225009934193346, -0.42648291338856414, -0.048908565495115484, -0.05962642492750467, -0.2829345112780094, 0.18006800191609074, 0.044826243363377885, -0.32259342847711314, 0.08338523554762084, 0.09626321426954566], [0.0071401688215209334, -0.1466168345381564, 0.10732281877590676, 0.1776502371239347, 0.1137126253494264, -0.08970622927599743, -0.1726128890074158, -0.23689679625983034, 0.14807987013519308, -0.16208251165728085, 0.40844589022875777, 0.10908015310896489, -0.4034889898043985, -0.3061997696498311, -0.12268788592406017, -0.13597251312862868], [0.04263414098670308, -0.052555579395204104, -0.04438396797288693, -0.006089980009363469, -0.034656233312523654, 0.1641738034796636, -0.20886503582110627, 0.030095485201514015, 0.006735481263660415, 0.17065564485577078, 0.3731472401060331, 0.25935508935351753, 0.36831206375144276, -0.04311062487155868, -0.4782286052992714, -0.032957153384070695], [0.08140028161686472, -0.10406751242176024, 0.017059576688232724, -0.020854199343593383, -0.09216446159412968, -0.1243103766143859, -0.06309960871929851, -0.1261901078762196, -0.10545151672251064, 0.15941292236569948, 0.46209698384967574, 0.16445288654453208, 0.01929743689831425, 0.08184744310156895, 0.3734831965433261, -0.15497692077386965], [-0.5195843282516187, -0.6784562639111147, 0.014544622700623268, -0.2007950875900649, 0.002288337741582499, 0.14823525280202243, 0.19063479141139802, 0.2813587807533182, 0.08346079581829874, -0.3467488451701954, 0.10662645653661663, -0.5399170620246416, 0.20399794855899372, 0.47250425921469796, 0.17741530969355684, 0.2744729129720652], [0.42754654860713515, 0.0027526868658655397, 0.3273800639681511, -0.017108109191531586, -0.26125546171184305, -0.3451472708208669, -0.03700472992461921, -0.22266785812532502, 0.11918348634397706, 0.1316102306448482, 0.14218313785616854, 0.41916312853626464, 0.03473164206277309, -0.15530845359320952, -0.06927632417389307, 0.029977725229959465], [-0.20552534173243167, 0.02975943878289058, 0.17955447882897735, 0.17149465016010323, 0.3193057597814374, -0.023538903551946003, 0.26557890076970714, 0.159975190631467, 0.18905427699698374, 0.08955029186103, -0.5303492746411469, -0.09095094823304349, 0.18270609861585685, -0.02888896759886061, -0.4286184202891058, 0.157378404122], [0.1980530101178536, 0.23764078148704984, 0.17031969945643446, 0.15053550308832334, 0.058815343762225546, 0.09724029673975591, 0.18998596600221274, -0.26813780267422643, 0.41028794683623354, 0.27496970316910524, -0.22610923139951628, -0.3326086909488761, -0.10204448986668901, 0.15660002134764558, 0.21873095716464316, -0.15371384173900435], [-0.032924552623805545, -0.05440572639618202, -0.009720360385054673, -0.23028070274112566, -0.4768547517664701, -0.39169029097619446, -0.36203732673015004, -0.14905007258488673, -0.03233692637405176, -0.0492667270842073, 0.209285293394117, 0.03479868164180585, 0.4700731738375553, -0.03855960578950679, -0.18326737477498486, -0.016785001060087918], [0.1861495202826754, 0.13544792008717882, 0.03504278289946495, -0.008535264941811962, 0.2582651819212282, 0.010433852141764078, 0.06839196416688277, 0.02967977935796212, -0.07890868761384853, 0.4577045984028217, -0.07150647902686412, 0.4644874311709357, 0.1320249438852098, 0.15509573547021394, 0.2994220007584314, 0.3412334823361539], [-0.5585431146881559, -0.06027928740386924, -0.09322714469914636, 0.10741549407347957, -0.0013353398473726788, 0.3413518908347661, 0.13474195684982704, 0.13042379241368895, 0.20055179597082012, -0.3830660461253676, -0.20857784859730383, -0.07801273021568447, -0.42389774601246627, -0.0852254790547493, 0.3598655195498974, 0.25431817649594024], [0.09359438925856778, 0.25121148242904145, 0.018023496891785007, 0.3246475283024251, 0.12134868563307, -0.06410889715750219, -0.07803091171867475, -0.026368424667918285, 0.05256662108619721, -0.5359756228856322, 0.026201902339182008, -0.15900130390893527, 0.0699800807148713, 0.2065595456943405, -0.08885851579123882, 0.1523298565770238], [-0.04530169680677589, 0.082915806717681, -0.4653501105232148, 0.08472725007255939, -0.10268266519424327, 0.2666729660059499, 0.15803379207062568, 0.1431089785431803, 0.07793809622680753, 0.06404442810160746, -0.06750227333712477, -0.23025796344899158, -0.021119607209222138, 0.05504521487450747, 0.17061184095182058, 0.25268869086628326], [0.281380836116389, 0.09467616340011711, 0.24411005493976753, 0.43523117141753825, -0.08157054524949851, 0.620669377425359, 0.4528792296301852, -0.29396109461188746, 0.29458354334629844, 0.4407275890674, 0.06425255555224728, -0.06447698468837648, -0.025910789227938092, 0.190068769971265, -0.10991417578771513, -0.07491068419185898]], "biases": [[-0.008083958476308146, 0.00861762970645859, -0.007026416049827782, 0.007171902948802018, -0.008265474269745922, 0.006395901762147705, 0.007975389026366547, -0.008468376081050532, -0.008342866387560967, -0.008153867649667537, -0.008195270575289309, -0.00800451429119745, -0.007530538459161316, 0.007551068624570695, 0.007665321995915179, -0.008322383057625737]]}, {"units": 16, "activation": "selu", "weights": [[0.5119517278547616, 0.01716199485751468, 0.254158954029466, -0.3842093043119517, 0.3709974532285076, 0.16578290883106625, 0.19981074146118227, 0.05532517221174039, -0.07341283712198764, -0.15479084776314436, 0.07623054048625619, -0.3204821190052578, -0.5160990816548089, -0.25167540927638854, -0.3104586232291784, -0.17712240588984815], [-0.05145448850297335, 0.11640983518083449, 0.012993253959154238, 0.2935245859721361, -0.24952502384441724, 0.2625535143165038, -0.019410216455484967, 0.28598024656079096, 0.09880478873448266, 0.30048042285242144, 0.6896740114115975, -0.21173600609267051, 0.23462691656629206, -0.8637450712269032, -0.31485288221488084, 0.21929574580005345], [0.45169303346787754, 0.11869136647351863, -0.08593012164599638, -0.16219736159650855, 0.5282078144642028, -0.05916371748475214, -0.49950876740175465, 0.2950391223612548, 0.02705212454955724, 0.06713411561375095, 0.1831671172342133, -0.17121398513860747, 0.384917885171559, 0.0012592516399540297, 0.08391080437414893, 0.21871661394179825], [-0.37569958863707137, -0.2658081412167603, -0.03316725208587628, -0.197042357710938, 0.37921350188501995, -0.143648502007296, 0.2939725397211953, -0.13232757845777332, 0.1779852273398112, -0.17178400990614137, 0.04774836465022384, 0.6058891127851337, -0.1502199549571018, 0.252978908211757, -0.17945302752960704, -0.1926098080307876], [0.11035911066726076, 0.1800044159398394, 0.005458495300500942, 0.3052186386131798, 0.242658954845397, 0.170981212355644, -0.0754595650967163, -0.014601448950348275, 0.11914169761816375, 0.08399695044419474, -0.12305701505780689, 0.155308743107542, -0.14322293562002117, -0.19883181725867174, -0.06415443705036997, 0.12481435188939688], [-0.2356830950924529, -0.04152250889855598, -0.10851587822200918, -0.0025087140168387617, 0.06593505590736568, 0.07624419063630294, 0.5046711522952332, -0.6279177186846573, -0.3257781775187055, -0.015103200188833972, -0.24511460573371024, 0.3253574066722854, 0.18788880272102915, -0.21783026340441342, -0.09604700833539896, -0.2134783331752899], [0.06482995291124838, 0.19533948355114492, -0.6770147895830314, -0.600814751303343, -0.08957280752526961, -0.14065597511574932, 0.0928439847766196, 0.6435165576164076, -0.3245607524884085, -0.15133065097562218, -0.10251271353218466, -0.017363160494798795, -0.008575622344439043, -0.0820076499981557, -0.18237168754838556, -0.11824707675887092], [-0.1372836620295922, 0.40132874885387765, 0.053366452579265374, 0.10105916782785389, -0.230679263095702, -0.3340569627763226, -0.15305948118765836, -0.2511153149054363, 0.044891490042291204, -0.1394354019971045, -0.2911431789831707, 0.11078934160796931, -0.048087681865167944, -0.09231290771359826, 0.013365855562260706, -0.45968106018694205], [0.2297077394652, -0.03365412756494131, -0.18107714034866237, 0.18988761738821772, -0.20546318310542813, -0.8084517459545258, 0.34037625385779774, -0.03919857329109293, -0.2621788925728121, -0.5109587877652672, 0.23284167472924938, -0.1592440136378542, 0.32247844271061504, 0.06489878049420962, 0.31780972331756874, 0.19198511006510013], [-0.2713361959309562, 0.21963758963502647, -0.634431429533975, 0.5955322763299606, -0.08578946776886909, 0.10531998559547602, 0.22124742806347486, -0.11731809380024423, -0.26142991294815937, 0.24851596332254364, 0.5303436726219625, -0.2521491960151111, -0.02048479960135336, 0.5369408243008308, 0.20322814622472038, 0.3735773451339242], [0.2685946867582848, 0.022605988192590742, 0.003397987304383961, -0.05197531357240973, 0.39659581752452416, 0.013172739753020876, -0.3017227458793678, -0.2405612283535706, -0.355352287115401, 0.020532928650206648, 0.20356227161000817, -0.26860707447168164, 0.25620914857103383, -0.17925585546948922, -0.34237780183653155, -0.14847090909120345], [-0.045943414279103256, 0.19285248676711939, -0.4049592124966856, -0.35207631307023296, 0.11727925789287455, -0.29132403184584904, -0.0018495714923196412, 0.1375786018634882, -0.22490268876315328, -0.010161032765689448, -0.06855164268744923, -0.013206268222539203, -0.2032648948997061, 0.0988806639108314, 0.268826972384777, 0.13091042193968777], [-0.028031339888054913, -0.01302427072371267, -0.0047851890001242995, -0.05878654477899592, 0.14051365575324704, -0.10996736743819695, 0.11137031425694609, -0.3093931568747974, -0.287878486823365, -0.15926506934016224, 0.017967969027323373, 0.39773685397575925, -0.16444750138232223, 0.2223601883758336, 0.47198339153034874, -0.06130390779940703], [0.12465549392975032, -0.2723131435184656, -0.5034598350365252, 0.03134096752380198, -0.22487791458647433, -0.0478188052326169, 0.10806068020523127, 0.07872251477767327, -0.07320328833051906, 0.028434819046253113, -0.07426442277467685, -0.073495831241056, -0.02062886415822187, 0.19149647250448332, -0.1969675698925146, -0.04568671175041138], [-0.4042844007474761, 0.018386686270040174, -0.20278708001386672, 0.1876850660448064, 0.1458233227844545, 0.4849542169644098, -0.0836257590369961, 0.11438607633468596, -0.4599955214642391, 0.39324906803049536, -0.054064342093401364, 0.09945445861779455, 0.24133476342760138, 0.21490675018589617, 0.12267096007869321, 0.4178415077853449], [-0.038642246544732986, 0.25044805290030864, -0.10106423422053143, -0.24924601159755633, -0.3093367965266086, 0.01548963449885288, -0.08046086411378238, 0.18427445592577332, 0.06953561136262361, 0.024264209516254638, 0.39262786905449704, -0.09973639792107346, 0.09552902136056056, -0.25341387284659117, 0.25559787411422047, -0.04497189937349139]], "biases": [[-0.0025725219241336866, -0.006678149285583454, -0.008350658714369835, 0.003480148500744449, -0.00792820820712023, 0.008135368182157033, 0.0071713731359656, 0.0052600987803381625, -0.007191865498598885, 0.008484484247760547, -0.008332771101361883, 0.0069817445764378296, 0.007836062999766533, -0.008054039898108791, -0.007307564070100737, -0.008174965840639745]]}, {"units": 2, "activation": "softmax", "weights": [[0.4179112079593201, 0.46921662996838714], [-0.3924356522261563, 0.5843391237224298], [-0.40261245757337055, -0.1334679836125827], [-0.24764361309639552, -0.22492443675162035], [-0.36286593769626285, 0.18321795739145227], [0.05727828558563823, -0.03931307401717514], [0.3274457105013599, -0.49114997932112325], [0.07415548440133965, 0.07508942124506893], [0.3014286308808703, 0.3758975287198097], [-0.20582341216669306, -0.4543261703033831], [-0.3394862224418446, -0.09872638852729777], [0.3327639583706013, -0.5479807679125748], [0.30941353647358616, -0.2734242887749169], [-0.0954100581444306, 0.04166000592710856], [-0.26313507209581927, 0.5067021598740318], [-0.33078171984921395, -0.15242806434606856]], "biases": [[0.006590600933229066, -0.006590600933229048]]}]}