{"layers": [{"units": 16, "activation": "selu", "weights": [[0.16495871319363997, 0.08991671439282369, 0.10404243017590475, -0.041192127074734707, 0.036301322099762466, 0.13397919363209682, 0.3078672273991631, 0.304571239125247, 0.06267369786307755, 0.008113422509935318, 0.3977471338030592, 0.08763446418962587, 0.09652295912013792, -0.18795860664262576, -0.18038230530442284, 0.08251618702493549], [-0.017580288720573992, -0.09767008787682327, -0.03212895332377654, 0.10317393960336739, 0.23066607318783194, 0.14670316485830207, -0.05599509094674913, 0.04905754948475401, 0.18311858094859781, 0.12708745451280345, -0.02825242324348038, 0.2753006696300458, 0.21934246426971304, -0.11668798850076366, -0.1130704513769518, 0.1654348190914462], [0.17031287050120303, -0.19623338711467028, -0.0751846264951128, -0.1275530744069682, 0.14957284591520298, -0.15452058656514905, -0.07448581323330643, 0.12192262677041642, 0.07203175195706857, 0.19816655148951592, -0.08023947547307282, 0.2345833277242059, 0.007544847851796795, -0.07741797793291177, 0.038482222349056655, -0.20318674101935558], [-0.21643772699859834, 0.008939046857806105, -0.05170985952014665, -0.0960546778775967, -0.04003313355380024, -0.17473213515639588, 0.07747017868028207, 0.04736006944107721, 0.06804261098199385, 0.18275741171784954, 0.03988768205891905, 0.05860633237283131, 0.053928261208956635, -0.19667808743212994, -0.22317705055208673, -0.0040330105372974375], [-0.020010762802608766, -0.07060866850628013, 0.1226162789598165, -0.06611157093949731, 0.1378049865355903, -0.09229114998363952, -0.16088402740128313, -0.024549853969169862, 0.24726251246266573, 0.11477211599113814, -0.0643051580426796, 0.06896705519183784, -0.04913659592376642, -0.05130007841038067, -0.0187348860870194, 0.1125200545022099], [-0.2726114241949539, 0.24942387486878365, 0.03816949886519191, 0.10604441358177867, 0.17944041005088746, -0.06115667968702977, -0.03644227895251083, -0.146216487031938, -0.0010033150611205317, -0.2442623742817546, 0.07344758950036921, 0.22540487830732378, 0.1767288959519204, 0.06604096609076586, -0.4051507914238267, -0.3184075716089643], [0.1622264453583844, 0.23275890913809297, 0.09283511363964314, -0.0989289506756962, -0.11558582178662408, -0.05339768446798896, -0.05877467549672699, -0.07772120364490351, -0.1388464362004605, -0.37028436838049866, 0.30585956032127554, -0.24919657983706864, 0.008641782835045516, 0.10878026348080119, -0.10551877929141763, 0.2975883985197809], [0.19162314078942488, -0.04981205647990627, 0.14445890498879674, -0.07236382951322669, -0.24099354646303756, -0.1068684909142486, 0.1144652513563768, 0.05978111409622691, -0.04663492639671149, 0.1557790447283927, -0.16712937170308406, -0.004531030612760233, 0.09067352039561977, -0.013561956169802413, 0.08798764367747908, 0.1844932996566776], [-0.11923109961881258, -0.10984865584304795, 0.06947455834724904, -0.22872780925762193, -0.03434777250895113, 0.0202105096562869, -0.08447175722925213, -0.2908357218083902, -0.08600690441555138, -0.04744945884786882, -0.013360133029042471, -0.04270935967045765, 0.20714671787357886, 0.08815690930131564, 0.01666716426157822, 0.022294400748378077], [-0.5563700157744651, -0.052528092751177854, 0.2867670973210017, 0.11203771586138424, 0.07084277541339992, 0.016443469436225735, 0.1416874994439143, -0.053266360600681226, -0.011342615614667605, 0.08995868549844242, 0.05529784147424498, 0.2241626562645252, -0.08183078086970498, -0.02663377365071755, -0.12401057114327102, 0.13119133894211885], [-0.14707007816653198, 0.11487042620177788, -0.21483997642145225, 0.3958408894077698, 0.1832628553365646, 0.4471044903400804, -0.014275655615222677, -0.0854673434297566, -0.2950559829854958, -0.07039293765800819, -0.33617400476033116, 0.09731578117771655, -0.28599806145382256, -0.0854804686238291, 0.2822063145389944, 0.10488811731576868], [-0.03632142954818161, -0.15527771649937144, 0.11051939322443198, 0.31275848467224066, 0.047015469293566134, -0.25654144736955437, -0.03901273204057226, -0.09341294989831668, 0.10529990513277973, 0.11582985095128777, -0.37017943709614826, -0.1471139035946134, 0.25923551268785083, 0.09503402819885626, -0.12053927499203689, -0.06919877142418239], [0.1597214288648483, -0.15011015533082292, -0.2307702186654077, 0.10668441765905455, -0.19457020902882136, 0.22989420170403319, 0.338252512889077, -0.1226620023689829, -0.37452608190899606, -0.003290330389147189, 0.03610443712643804, -0.08222266694092464, -0.10754097026628548, 0.08951159136248674, 0.04749974351834947, 0.2575756010925579], [-0.1423654361658839, 0.3133106433792256, 0.23557978418096953, 0.1348598503667697, -0.09847934137320694, -0.5647068213809854, 0.07433767441237046, -0.18419804361698516, 0.05237032829217648, 0.15172124677768759, 0.23430737469620933, 0.1322982188918783, 0.1996706524841513, -0.24854784317502707, 0.023090565054507677, 0.13963448745798654], [-0.003979774715096372, -0.18525898357027323, -0.17202490768000758, -0.012431409453096539, 0.18058099112685935, -0.16982983561183163, 0.2562787750521239, 0.04023735835430747, 0.2861483004807103, 0.2559534050506418, -0.03531773617386391, 0.1405525819371073, -0.15626013274578118, 0.14267794791431876, 0.004860175985111655, 0.23806730419089955], [0.007064479553942769, 0.12859616942812788, -0.6857691115855015, -0.27374827397630724, -0.06260317299890505, -0.1653331015710954, 0.11237144703888371, -0.20709139799574833, -0.2892944135822026, -0.010698549133463233, -0.11349175674325052, 0.23139043515845836, 0.0692677382332303, 0.1868904616910335, 0.21928548777610735, 0.23134252848230458], [0.13209845864490585, -0.2373197308789991, -0.28247463564235087, -0.19816483727784992, -0.11125710352252616, 0.2400075256824858, 0.2746580040635954, 0.33329028577790865, 0.0755971342127778, 0.2080086361366854, 0.05777544129618091, -0.13833198026834703, 0.29695588375927995, 0.07431285566877588, -0.13125658280026642, -0.018163904259249353], [0.08608253853951393, 0.03419595922178601, -0.16630357915905153, 0.09667856218298312, -0.16246932361789276, -0.09223702650148738, 0.1869156318493853, 0.010891328725894895, -0.17537336751726726, -0.0528644538359597, -0.31514114151721606, 0.12938078193015665, -0.1414256750553137, 0.3008054653068087, -0.050472408732398215, -0.005874141137298297], [-0.22595714970609418, 0.04941160646176187, 0.0469018389772036, 0.015528168944030774, 0.37505534012728875, -0.32676781717364883, -0.2053101446823394, -0.3444642703570232, -0.17631277850123106, 0.21261574735912253, -0.35825439596071973, -0.030707352320810698, -0.18867853531661377, -0.21005471194943212, -0.2895627783372522, -0.1064223837842532], [0.027124465454579107, -0.05741386733693357, 0.03716742602478002, -0.2820130093892922, -0.2348814106868205, 0.27787585374135193, -0.060908717012703534, 0.1952398294645459, -0.09082656470805986, -0.3318876437339378, -0.2727144024252894, -0.029631724310951773, -0.14373847514324203, -0.15555712301668903, 0.01529869510493549, 0.1848301031050016], [-0.06024444270120411, 0.49084823526786814, -0.005017561754129815, 0.025863861214340925, -0.13310609552891256, -0.027304714568593694, -0.4967326657649155, -0.22206553292626266, 0.12370206536969806, 0.009281432790029232, -0.006715378778365989, -0.24867354578857284, -0.16055527465106834, 0.3385637514869412, -0.05842741429402167, -0.34818045804536335], [-0.04298616150871674, 0.09219483122675658, -0.29853006305157886, 0.1815164841668196, -0.07747819055737545, -0.06932765261701848, 0.0545085264797801, -0.2632567465008147, 0.025862558959538044, -0.034139230382911515, -0.03464766391941422, 0.15596656076101845, -0.2725878650423906, -0.28101188092807267, -0.07804737851043202, 0.07056626025370069], [-0.09454876788816156, 0.07017482903886026, -0.27187804757629347, 0.1450301898751234, -0.030606530782883588, -0.19308597174160144, -0.021316020212697736, -0.2610719772998168, 0.1724293732407243, -0.2850470097279697, 0.02255049068063689, 0.08301974668543567, 0.3070326328138655, -0.013051764724040339, 0.036326212298540085, 0.5533941346128379], [-0.14249781748498488, 0.12947645993248888, 0.07804255439064176, 0.18241120766988692, -0.25802361182267564, -0.05948104727892078, 0.22297932266431358, -0.0631555035047294, -0.307000286962675, -0.049152917869047005, -0.04623667334664836, 0.05092984419672949, 0.2126130922729469, 0.015230403883736848, -0.15296966401833154, -0.20860619170890343], [-0.31123155785123624, -0.10869130668012791, 0.1657863811843468, 0.1105449777230753, -0.2841849361153683, 0.0031473304803470367, -0.1530249741676603, 0.08905650365362676, -0.014558951138003805, 0.10082012735610303, 0.19467168628689482, -0.10453269257952255, -0.13270543424547793, 0.1855622091277906, -0.03625511721189908, -0.06797682247812331], [-0.008979850760655593, 0.18719518092153853, 0.1969214022609219, -0.5518117912123106, 0.1805344316248296, -0.13046869180589118, -0.17456524286768976, -0.08540109899456452, 0.38451014937736827, -0.23434761596718875, -0.04244580276542416, 0.17562749479461842, -0.08537315340845975, -0.12296462874106141, 0.2021935510427249, 0.009867614856972465], [0.10566602614474273, 0.27798438939481884, -0.02241568711846789, 0.23530000700643855, 0.049546666251222476, 0.05173718789006874, 0.026464509402116355, 0.1932332104225051, -0.04682056918359342, -0.006419922572050683, -0.017432161547776773, 0.10816800214439043, 0.13320382010806048, 0.17648781102735306, 0.028739108997084824, 0.10495748730059631], [0.08456547447587005, 0.07537047747534042, 0.18685547539242517, 0.2871063778068008, -0.17841214011141188, -0.4135055498728327, 0.11171594646531131, -0.2177432868350665, -0.06491332165034978, -0.03222886987338262, 0.16437695133568847, 0.16204273895492688, 0.16668514062628018, -0.0013902915055079158, 0.319623590450019, 0.011495635293204349], [-0.008433031648925787, 0.050110871071581534, 0.20423375080925105, 0.23481644775255583, -0.3373809584676036, -0.06097667763209757, 0.0745019518159529, -0.06500239354212717, 0.029925424683764912, -0.09199146818229142, 0.02275531654668831, 0.10483609759100257, -0.12120929621392154, -0.15872109957285344, -0.12202690230943292, -0.30780797706439744], [0.10646578213061085, -0.10536184327228146, -0.12997922236440046, 0.03785074283891266, 0.06690588015981228, -0.18864691508070966, -0.10313251471993613, 0.010107123632692408, 0.2576421302431205, 0.17580078021367868, 0.4321571787965758, -0.16749754077549778, 0.023224888306755183, -0.3546884359092923, -0.006344143890280771, 0.10149778526226891], [-0.2534353978434886, 0.02473650421833469, -0.273740214215169, 0.15749033662302014, -0.16771706667599984, -0.05807058225187695, -0.13185042288844367, 0.14060461201336877, -0.21127622995605877, -0.0649190442889522, 0.08502219607410275, 0.23284166854410995, -0.3275235963185979, 0.09243029467878609, 0.3243633456010754, -0.11958524170619492]], "biases": [[0.01846102860021867, -0.016373971384540977, -0.015869128746340683, -0.012789684783705133, 0.014292456430569365, 0.0044198189960254946, -0.01535386748177191, 0.010868701414082112, -0.01415388351687066, -0.017503368226544736, -0.017472093919920034, 0.0235590679969151, -0.013045211924907487, 0.007426073726199916, 0.015317081056121, -0.012701065471067826]]}, {"units": 16, "activation": "selu", "weights": [[-0.3023499407403666, -0.2393875236018607, -0.06173184467343522, 0.15944305311402057, 0.09415364489251593, -0.0447475187000151, -0.34749097182512856, 0.0709991974864895, 0.3814028646530506, -0.039229188870238754, -0.33264229043425525, 0.3643610623096493, -0.26089389087162657, -0.2846956407537549, 0.049068400982939894, 0.3109269388229427], [-0.02769785258308823, 0.35401650208109675, -0.555546426992214, 0.07055606790389962, -0.16650931458796492, 0.052357575286705274, 0.2898898768394467, -0.07180518154206897, 0.07578295575110837, 0.6391279411394767, -0.2580305719483008, 0.017702171773697088, -0.10949369020744774, 0.037318878302784804, 0.2157001685078404, -0.29761725701207903], [0.02845178696260092, -0.2507874606647177, 0.14767516048654405, 0.11568093368257935, -0.12581480198154354, 0.03354100671791836, 0.04614622726809722, -0.3067637951455181, 0.47823790534503413, 0.053166044585019105, 0.1648731309035544, -0.10763253449739803, 0.33477104882432246, 0.23307738855816607, -0.0832390978773901, 0.2356586311964851], [-0.025094758974568223, -0.04275258767147849, 0.05870396008429167, -0.2022490396755957, -0.3261582083016349, -0.3105940172150901, -0.05737716796706677, -0.03657424833720354, 0.09036119752651837, -0.03906108270003838, -0.051480893394358185, 0.10484145911995295, -0.2188715213588013, 0.37904949529250964, 0.046620615415415886, -0.15646381163588344], [-0.23949078874239468, -0.009344192690116219, -0.07473684177476421, -0.20635117124186392, -0.0833175276057279, -0.32788935721880413, 0.30873454812965156, -0.33983256015454427, -0.09633484450830825, -0.10916606139583868, -0.004598241941809132, 0.21148267782118405, -0.2892594690961498, -0.34013329260105585, -0.047208016070894344, -0.166641252066606], [-0.22980707118713237, -0.1274394074031298, -0.29369493098834804, 0.14863267747859277, 0.08437693598982332, 0.2301326879032269, 0.2306343670185238, -0.08917375582332819, -0.26726250697126896, -0.2749353058528796, -0.0010648782687078511, -0.1331870944072351, 0.3363543225386158, -0.03325611107652378, -0.22414100388336847, 0.2938712135781721], [0.08616526164424741, -0.207668913841582, -0.0428371819293329, -0.08313410664099051, 0.00358820291728134, -0.2824261445679516, -0.3279400031471757, 0.2184969626427146, -0.16713245756594838, -0.03346412894211374, -0.09516492688929319, -0.2768616493743927, -0.19793551102129578, 0.04075985403702466, 0.44594366503104294, -0.024249617984910744], [-0.062316199323344604, -0.33778398993695374, -0.36428225240170276, 0.1474419243933664, -0.004457524062041723, -0.08800217561363598, 0.012567078019791162, -0.02409335638300865, 0.19671931224703532, -0.7535598054839742, 0.21125116459912488, -0.0032984927339232955, -0.03177311230831513, -0.16932595831776118, 0.11967739610209262, -0.3902780951054356], [0.5351062545858296, 0.014033864123538704, -0.3305996089277105, 0.007152971525361962, -0.23556610304048567, -0.04840889594939731, 0.07414366520386359, -0.10116911728342366, 0.0490440179046416, 0.14730506543220112, 0.13516039231308757, -0.19050401571125747, -0.059392785415600724, 0.12961608457831506, 0.16441554199325975, 0.021045070709280463], [-0.11113406317673571, 0.10110350896729475, 0.19021834995745082, -0.09912872901315169, 0.22323351248047077, -0.08975162240148679, 0.7422625199705208, 0.14573612800806426, 0.0434192294040066, -0.033130229999468484, 0.07832652213898156, 0.08084797773444737, 0.611139929547192, 0.11258566743926562, -0.24580982803272922, -0.6238488854912584], [0.1785636836999866, 0.5431603246418619, -0.4114980959741631, -0.2899328869675195, -0.2995838363682782, -0.18143461341643677, -0.16735353734443956, 0.02211173669960279, -0.34832236217376755, -0.21051227424158908, 0.1380341648648254, 0.12789524892849952, 0.030817975396762655, -0.14724288733680024, 0.005625531777707758, -0.12553180296669875], [0.4597297172618161, 0.13147045218329248, 0.09872001256754596, -0.10164522945055286, 0.09972850981580449, -0.12075406723739188, -0.32225363838951654, -0.3119722191016178, 0.09370884172503118, -0.031459847607782365, -0.12784395692241363, 0.06903025626611677, -0.03887631739807358, 0.07220078364793199, -0.07947715137427619, -0.4448105115492082], [0.19454742918035767, -0.06226271011838937, -0.1327381660832349, -0.1965711295532411, 0.23146822111947862, -0.41511447068982626, 0.3737718474298304, 0.0466347547506086, -0.022311641874997373, -0.15026524937813357, -0.2790778635298858, -0.1674537446796315, 0.09522417284971656, 0.08008598199122567, -0.05889614217534331, 0.4406254917228097], [-0.05876209978910551, -0.6122048154700493, -0.2521401328885476, 0.043510899283150155, 0.08346255981024289, 0.0036244035764056476, 0.13278087699527413, -0.2781515001505002, -0.2103609176846487, -0.283100325904018, 0.09764848564362463, 0.4637421936909399, 0.12389219065452238, -0.05973490180567411, 0.5021223230365579, -0.3923955253880057], [-0.0725288400598095, -0.20868387359870705, 0.2853077115890327, -0.3797201599342796, 0.4025612684565788, 0.033198554503124304, 0.23900849774930605, 0.1328750914003413, -0.3643910542373674, 0.19728712697230957, -0.3087735311155109, 0.14122416899348003, 0.1895281453435334, -0.07608518000391212, -0.3359107588125635, 0.10830182436585557], [-0.14247391843482712, 0.4004265763926814, -0.21413881327371134, 0.07056353377819093, -0.31174362534736444, -0.19466805109764762, 0.3933306344735209, -0.10590168484836268, 0.1044921278527265, 0.21862988405581982, -0.049887268335430605, 0.00487614380420883, -0.2391904031110689, 0.11463658665122863, -0.2602403720853814, -0.49570966601489647]], "biases": [[-0.0096439810164351, -0.014129251975351548, 0.016555665213438864, 0.011083224652911153, 0.0197484478419342, 0.011245381481402278, -0.01888893954550599, -0.015150857328819265, -0.009481446724449184, -0.012525251610172143, -0.019975047386844916, 0.01681963837064185, -0.017679657994458822, -0.013174189070572676, -0.0038181783993474004, -0.017482075751524075]]}, {"units": 16, "activation": "selu", "weights": [[-0.27311953255462773, 0.07045114691071001, -0.016395244209438886, 0.3678114591751797, 0.33210591351022417, 0.17005209736490673, 0.5320234891737541, -0.18241202999853273, -0.16486828242638538, -0.22075175991578666, 0.12092412258200416, -0.2442368910622153, 0.20622427520135578, 0.40408185572792865, -0.4247927640227389, -0.3123934511536125], [0.19966268162790363, 0.18440532515585467, 0.2007449688995029, 0.025139088626952917, -0.001617746685291064, 0.5663927683128487, -0.18120370837999417, 0.13146329589821085, -0.027590632399496464, -0.2564897121412203, -0.18592795982062243, 0.2874805671797721, 0.10570000637200976, -0.05357343773966247, 0.13629604955037256, -0.0481366388115049], [0.19333478925818665, -0.04740215700251428, -0.3489024697112645, -0.08764037886929696, -0.5015484533170903, 0.0035327270039971215, 0.3059514796528156, -0.14641810953100634, -0.2834398420590481, 0.24106187647868382, -0.38346090703190844, 0.3054810813573458, -0.0309820977612425, 0.2452482079978165, 0.13820153558589995, -0.03347967566769014], [-0.2223497489521011, 0.274394955099615, -1.0307633602880728, 0.054282334187260216, -0.22504129707599344, -0.18813559141917688, -0.013202216699021753, -0.09159248902208532, -0.3729506968098412, 0.3597942291851902, -0.41765982278323177, -0.18713524041547452, -0.15402413862787745, -0.03763992996840864, 0.2225844819274182, 0.14464066720194085], [-0.00954743547864086, -0.20674641615577735, -0.16923300184524728, -0.17761037580593209, -0.2926341676255832, -0.03877371311723479, 0.6068976804987367, -0.1579872877693998, -0.07861664399380212, -0.23962026381203885, 0.17326042278169865, -0.17749279428770753, 0.09369435756104762, 0.3099419090116614, 0.428181344992823, 0.21804230934502375], [0.38013444854333206, -0.05041078308893126, -0.2467845857935095, -0.09360194086304353, 0.014206540320589465, -0.3371772705234942, 0.02320482430011917, 0.09356088426565802, 0.05052483412988854, 0.10556000435700207, 0.5066680709397461, 0.4956197565527447, 0.2720166758674299, 0.11645396253852741, 0.5393379561149069, 0.3320591129774656], [-0.03780420114458379, -0.020998931354981886, 0.005516281947123404, -0.07064178087369465, 0.10329598109979707, -0.3355702902259063, -0.06882898779347019, 0.23031491746721394, 0.24591015571634092, -0.21817384687105626, -0.17382820457550602, 0.34236994184533004, 0.19552490265868488, 0.01787648128234813, 0.03226923452466552, -0.18248114329171428], [0.38163429899652745, -0.12191640665726008, 0.3252414413165648, -0.10818333839525504, -0.20288771002243874, -0.21204308222234178, -0.3306471287179757, 0.1036183284002161, -0.29557691095849237, 0.17536894138579237, 0.1587078384394246, 0.0005800107194024547, -0.013550365902899418, 0.3170643716646457, 0.07900974183481549, -0.21861823481995327], [-0.1542736788387134, -0.15672309379064317, 0.15216449167159823, 0.5380430888907293, -0.45539140594718003, -0.2079199838954725, -0.265772580690568, -0.40873945294381353, -0.05059311062811599, -0.3210597519691356, 0.5872574262255836, -0.359410749757422, -0.2764336018407122, 0.133265956118451, -0.0009058841864594215, 0.012371211304337004], [0.25592303963281887, 0.16736676978253168, 0.6440239396107414, 0.36623010309230924, -0.0021356203259751717, -0.22569387887555495, -0.046450006275793945, 0.014924547690817082, 0.09187751703882159, -0.01650847610652205, 0.36053664384085654, 0.27965691841799867, 0.21197881170877353, 0.029084164374645543, 0.28776253231586396, 0.33067571290816966], [0.27293703847601947, -0.47265539119175753, 0.16402060150018336, 0.12089108217114815, 0.339744629053953, -0.13857603215294423, -0.20977220711728556, -0.04370342170594586, -0.12154000396526238, 0.013561043052945613, 0.03457361581510902, 0.45425720107890977, 0.012748413824096038, 0.2052284508643355, -0.06457845505567936, -0.28109888996822946], [-0.14662289644644447, 0.1600768157967091, 0.5466889374492728, -0.3063499019122514, 0.22171637897731142, 0.1948971599071999, -0.018409200864655695, 0.3258746962979375, -0.26226505135710987, 0.21974697566192247, 0.14686326854283688, 0.12926145317679286, -0.09488627596594061, -0.06397926353509098, 0.11407620439203635, 0.3799756116794017], [0.2222155614622729, -0.28765960031049465, -0.14409884484643004, 0.07903059753135891, 0.006639293943086325, 0.31697320455460964, -0.15486375168291674, -0.06795752952851129, -0.4080531525065005, -0.09607054860822598, 0.21937080625933203, 0.21461465143305394, 0.44785614250237954, 0.004533341161102978, 0.03253483400129672, -0.3316779754610591], [0.4726373131756967, -0.1940030392985334, 0.2548946916411147, -0.18860500867889501, -0.15262544583327076, 0.01221879882249676, 0.04948620714653825, 0.08125995496068579, -0.10173536063747433, -0.03836254022665588, -0.27033020509372063, 0.14253033355828557, 0.3388777501445047, 0.4704021309838042, -0.267169367885524, -0.12689401364510045], [-0.260577353833107, 0.017908979267316064, 0.05941364675579161, -0.17685705237505028, 0.17361911083513074, 0.26930598181804766, -0.044320505952615226, 0.568906838076772, 0.5735792758959467, 0.0740389173407865, -0.36464283793280894, 0.023921598598266185, 0.18206249741101888, 0.0692337019493648, 0.18108712300350535, 0.04714546097286222], [0.3175437389107627, -0.07076908577401736, 0.3379829248024499, 0.18319270356205297, 0.30636203701529374, -0.1830454494883925, -0.2550243204204028, -0.012824211899876533, -0.07671296798592471, 0.0026034468050293537, 0.22942529255729477, -0.2732293675507469, -0.22782384377323595, -0.2714945679331238, -0.22762451703516887, -0.2442141100025718]], "biases": [[-0.015263463547620874, -0.011258531116546785, -0.010480419451970344, -0.012523681755270251, 0.01115686806968443, -0.013547087351150067, -0.012757536452999685, 0.013367872044384426, -0.016641664736054537, 0.010530054782451833, -0.01508203487641416, -0.00514689496312561, 0.013826038772414707, -0.00999121338551306, 0.014293507910004867, 0.016182546246891985]]}, {"units": 16, "activation": "selu", "weights": [[0.4794897220501587, 0.4883293788441056, 0.15693306194431986, 0.12523890230191326, -0.1816142831911606, 0.05511804049789203, 0.05824553399906184, 0.19489664402695842, -0.1320239358401475, -0.07683482261170244, 0.25854512781220584, -0.21398085311211168, 0.2081997903665008, -0.06730653885149696, 0.342526457959464, 0.07647937026421585], [-0.33037384017762295, 0.49394992328745985, 0.400742888079289, 0.20955158059735632, 0.14682248305141193, 0.07092465857905614, -0.5760167209950647, -0.15764514064417146, -0.41517332567825554, -0.3045962279028956, 0.6545834386433532, -0.09083090621913661, 0.18626481882350762, 0.25647623682489545, 0.053258284126402426, -0.3326626808706062], [-0.000866714918087664, 0.4776162375022899, -0.6513658308404723, -0.5361962378839572, 0.5178375479596644, -0.29089941184097723, -0.17150141529637025, 0.24334027452045023, 0.17316185467401388, 0.5635855402966923, 0.024085683211607013, -0.31402297301687926, -0.196171183007121, 0.7302275263219682, -0.0011765084754795853, 0.01837747419044579], [0.09652691869172526, -0.1518565934893444, 0.2932338634192545, -0.1631783112440777, -0.2583485177234589, 0.06359021072819251, 0.2169178432733342, -0.027526446229911867, -0.32665324232066084, 0.2627430793493815, -0.31464411248787705, -0.5023074212000612, -0.0813443871506251, 0.6631617450683436, -0.288468765111192, 0.0032631365292144473], [-0.17453577552688296, -0.00388859386311366, 0.24263557623672422, 0.2917199928255689, 0.20097454997365274, 0.15422118791354283, 0.7675020614159516, -0.17418323333797148, -0.08641736676064195, -0.3344819809679431, 0.1796507534762078, -0.19644980966671652, -0.5224337317353175, -0.08329479087599918, -0.22247452848499266, 0.24960072272061254], [0.015738323836670138, 0.16518829704238705, -0.00209397080750181, -0.2166788305347577, 0.11516002291422762, -0.09046633517137456, -0.038216071935799456, -0.45742202912546076, -0.20386703353083932, 0.1463256349184856, 0.33055134978873213, -0.0011816115001914737, 0.15433133528788667, 0.06579895417380813, 0.15475206365623806, 0.0034071165196654443], [-0.300207926268132, -0.1747312279139621, 0.06271964035632452, 0.16215596968482307, -0.5418372004211255, 0.27800626876448586, -0.36643979033841445, -0.22469286137386796, -0.25542986756118347, 0.3901672966008288, -0.11816851317695458, 0.014628979403129181, 0.28485276543339627, 0.4313863052268978, 0.06573954053544774, 0.24224535884450682], [0.281210601598976, 0.23118780308804301, 0.06539436258444625, 0.02519756083875474, -0.0008685226054354888, -0.11236652792975654, 0.3106454535537432, -0.013236600542698615, 0.04427294710097947, -0.036881037719279634, 0.310691686897137, -0.1400936738012992, -0.23304642954893562, -0.09207724821601924, 0.021113034204621586, 0.22813295681517098], [0.23578552564584068, 0.03854746416695963, 0.03178496564375713, -0.1964259380798226, -0.2030588737800097, -0.3796025715567947, 0.13335087745902255, -0.17192056840309183, 0.1470082029000608, 0.09307922137462322, -0.3724816916673454, -0.19909295615981368, 0.1825365069120748, 0.21486400825041033, 0.1375095431592963, 0.02218358272472545], [0.41203342231381695, 0.01662421199735544, -0.2779772817724712, -0.00212863082572469, 0.24648760324605792, 0.1100727426534851, -0.2930530135680168, -0.4753886858307202, 0.11847106223769668, -0.07256334971160847, 0.15984768939621244, 0.29771110794758754, -0.5246496417960234, -0.07588709323527044, 0.026360393177003914, 0.2340168563121826], [-0.11594129531336134, 0.37002597967578793, -0.2467384358117887, 0.19922433367901396, -0.1608494308859847, -0.04755301110026307, 0.09090913811935297, 0.09281606106318818, 0.0967423884024529, 0.20805181103361128, -0.23820569124612018, 0.19694516622483507, -0.2657134284115383, 0.24287764921365387, 0.10466795099346178, -0.1546116030953701], [-0.06817895527806916, -0.5806137737003729, 0.07007408066830227, 0.36261443538812504, -0.17279795293171576, -0.1988285556420003, -0.043391625834791704, 0.28258892438915145, 0.035711412880072624, 0.12398124720779546, -0.3538529346944836, -0.2551837717595157, -0.22089769691551694, 0.23716632856891837, -0.16346920206551818, -0.10951286974718868], [-0.026869930693563148, 0.45460047508044127, 0.23015895832288039, 0.2666005817955769, -0.2050505279199289, -0.25254823660840076, -0.060693090035827055, -0.10997463095803461, -0.10258895269514155, 0.08192977139353103, -0.0700462685776279, -0.04799575586047828, -0.41982174234149494, 0.047386512843561476, -0.13175971334740674, 0.2860275221978194], [0.3129843708814073, 0.31377795102962763, 0.188232567463313, 0.5713203426945761, -0.34656155656772175, 0.40003468188308033, 0.16093442728552357, -0.02189518547616343, -0.15716116222436835, 0.3430585307687458, 0.050555486065861605, 0.1523352675853732, 0.3449594174992814, 0.42359588332935344, 0.36806864907866677, -0.24687112646122347], [-0.019820106987222797, 0.1561225344674965, 0.03291325023661231, -0.1408641957915943, 0.20169951999810035, -0.23234975802020832, 0.0470771299043312, -0.3631720740005378, 0.107446204759585, -0.2556966676610543, 0.2180680888947655, -0.0728153829507939, -0.43510735149378416, -0.07514295003900907, 0.15286977252353112, -0.12083152724264304], [-0.3805735446255787, 0.3052062443256978, 0.401382969423652, 0.09902904084193992, 0.005617234630355099, -0.30581983717989236, -0.12751612629350645, -0.26885049178724085, -0.029642939858795063, 0.13581104821856113, 0.4070958138030389, 0.329540492965959, 0.22164902358645047, 0.08641950257516458, -0.3496250643779102, -0.10060489567041973]], "biases": [[-0.015140360700124644, -0.01505577660818671, 0.014396150453412372, 0.009145183768894182, -0.015552814552571218, -0.014034357873605727, 0.014718381187748904, 0.015265041845439312, 0.011360746661752746, -0.01485912144299153, 0.015738798670261414, 0.01423604112709869, -0.013366947258859218, -0.01372337000625388, -0.015562868318437176, 0.012428491352461208]]}, {"units": 2, "activation": "softmax", "weights": [[-0.3214620381322447, 0.15503315745793955], [-0.33741076834147493, 0.16468122351723466], [0.5139232172919401, -0.10192358088966465], [-0.22000410901373219, -0.25990689128769573], [-0.1735367009342721, 0.2119700236238748], [-0.36532956666845273, 0.3106801780213905], [0.3821721492862692, -0.14624949061402664], [-0.14452210773893187, -0.5100185562164655], [0.6185893137901353, -0.5241507389129895], [-0.18865758506121127, 0.3049734056590853], [0.31690554261645504, -0.01029904136769637], [0.40251671273661654, -0.2526934303569356], [-0.20378765452451705, 0.5958348346616049], [-0.5313034862863271, 0.20250839049712413], [0.13531719253183302, 0.37083804487907135], [0.4777542096031608, -0.4892980979261841]], "biases": [[0.012218549261575366, -0.012218549261575383]]}]}