{"layers": [{"units": 32, "activation": "selu", "weights": [[0.007086654790267058, 0.008903800766430246, 0.0012584636896498134, -0.0006520576296087588, 0.012295402419368684, -0.015594281082199535, -0.005524455153599182, 0.010100772564003121, -0.02604291533506131, 0.0014879537405173458, 0.011981038840752082, -0.005481394368522591, 0.022284508865082944, -0.012554293351703614, 0.0021023941280673988, 0.010866640208736294, -0.022203903847466126, -0.0018261001088185588, -0.0018758925991016612, -0.015058349490665594, -0.00964649391204967, 0.011673997743741206, 0.001353292749428693, 0.019662303237625026, 0.0021055432782682098, -0.007710218762116445, -0.0025749278614692634, 0.017884400833948773, -0.0049061047985247686, 0.0016215346119828047, -0.015093427868857806, 0.008150000647857864], [-0.0061510722087859465, -0.016897609886546948, -0.012534560201931734, -0.0020741949883662106, -0.007372362243824716, 0.01025157431512919, 0.009401670934621376, 0.028329208432339312, 0.0064603649975219345, 0.009636844534171005, -0.008791878408540512, -0.003662970579983123, -0.013864969271465258, -0.002060927033497999, -0.02306023591711953, 0.013181612405410235, -0.009465975490194943, -0.00872749047979719, -0.018242616294411502, 0.003973670743661487, 0.009510888564095852, 0.017030753080626827, 0.017280022842117087, -0.004144222491509093, 0.0024068059317537915, -0.0038453522971892587, -0.0003212684202052637, -0.008208654562737743, 0.0009965741277931073, 0.013832319235157651, 0.012169861424764169, 0.0018097350064248128], [1.2978615062595138e-06, -0.021983348528657454, -0.011981832207065606, 0.014540757447494416, 0.0121411587483548, 0.0008006530675044294, 0.0030324775192481146, -0.009705648661944765, -0.0022806739464748343, 0.008517250210145953, 0.004837680610430736, -0.0022268566527957074, -0.0033673648005849636, -0.021768949761018834, -0.011464499092453092, 0.011880915738403107, -0.0012224742176989065, -0.007501466849360996, -0.011126608779993854, 0.008084242339800868, -0.0005254993113447949, 0.004649863976104998, 0.004294579457007265, -0.0014857582064761693, 0.019011137759981884, 0.005271012024012706, -0.0054194314686023355, -0.0091783979460267, 0.0007521788411906899, -0.003915042504559604, -0.0021815711605247742, 0.002366704232891637], [0.0024610346632917765, -0.014023821466479144, 0.0038918588865644536, -0.006540494503634022, 0.0041133069835229494, -0.0018424225097485234, 0.005830547670344873, 0.023597705644206345, -0.004831988926346552, 0.003249874250546703, -0.009762585817535752, -0.01104535215626056, -0.022377933096245854, -0.0029324363193011654, -0.016284367209091384, -0.0035210681655992162, -0.003870511777918614, 0.008888587546663187, -0.019694076768836867, -0.006106373927390088, 0.014414754024407938, 0.006005163539415069, -0.002243563287386662, 0.0011194878560106545, 0.012455737942748513, -0.010600475729173784, 0.007162947051481349, 0.01687200890835381, 0.0008003000440274109, 0.03125928353472119, -0.011893184089928528, 0.005249823737355361], [-0.01805625561757146, -0.004716980798242286, -0.018069675293301796, 0.0011307683291660602, 0.014120181763054521, -0.01453820569545566, 0.007539436053379766, 0.006667757267430657, -0.008213584234128503, -0.005630711437738771, 0.001644898259036384, -0.01035783840750689, 0.01834412573625859, -0.020816593848108775, -0.01063438545011743, 0.002532233801686994, 0.007295563428842383, 0.015187302444376284, 0.027819063930260676, 0.0068468186347676405, 0.0025263271457151995, 0.0029431593708429344, 0.0015410988204830256, 0.01827526441233517, 0.006722465429816894, 0.01613900216860428, 0.012235431900490434, 0.006774996534267725, -0.005267576058845106, -0.008260274150696014, 0.010849373393466036, -0.00025462819120471733], [-0.0017337348760576097, 0.005087692969918283, -0.012522489251067125, -0.01683133053017263, 0.0006648343448178897, 0.00018666699628265145, -9.25238172479939e-05, 0.013435912657161568, 0.0030078355268602056, -0.002193450422796819, 0.0001542285464913592, -0.010092171755920483, -0.0076467257468550215, 0.0003277812223935927, 0.0011139051583852451, -0.0010462554346559207, 0.004572406294061074, 0.008204513128088814, 0.005240173071381909, 0.006441508045525474, 0.0070609581082842505, 0.01784123486655498, 0.012581020043197888, -0.003283205215455067, -0.017222748862658233, 0.0022770217268741713, -0.024128906602597897, 0.014230644619827147, 0.005387257514865546, 0.008918469687330649, -0.002335767235542012, 0.00230325141850758], [-0.002627819685648336, -0.01123598555789806, 0.008351573365007817, 0.007579402372795911, -0.0029600696061135114, 0.003325598669872837, 0.004339549818845719, -0.007986654478895188, 0.0017542033106025389, -0.004443501136738962, -0.009922627118337293, 0.004432540698200142, 0.0014960648936329416, -0.011968263155663466, 0.011602179570140148, -0.01549058743988471, 0.012457608215879386, -0.00678964166355192, -0.006978285211878989, -0.005733917337371108, 0.00635255156956915, 0.008930926550382032, 0.014095583931544468, 0.0132781624657626, -0.010985741442499182, 0.0025663668996432514, -0.0001873186738309936, 0.0027333302352463267, -0.005904248633974694, -0.00608581413421239, 0.004753089679272106, -0.00897570544206901], [-0.0041625892644235616, -0.007262248719442259, -0.01242932806975608, 0.013051367979909996, -0.019777365280562186, 0.020380996636519502, -0.0034585711854226665, -0.011584729838240698, -0.007378154173251567, 0.00367400811954031, -0.012884056379705052, -0.010113771309579484, -0.012458619664071994, -0.008924921685971926, -0.022496816704329507, -0.0036792787451696983, -6.810721420451664e-05, 0.002356911331228396, 0.000648418837430348, -0.008573825550302486, 0.0056343209182724025, 0.008277401284677847, -0.0014412686285465734, -0.0002183171344188657, 0.009549018748788623, 0.006237224592015511, 0.027034648464538864, 0.016053163350608777, -0.010751526377175063, 0.007381480175356159, 0.004014095784090266, 0.016401255962227333], [-0.015515710159707582, -0.0131741629931693, -0.008487812166489915, 0.02735968012892754, 0.004918337605473174, 0.006521099790160822, 0.006426973677854582, 0.00043292318240332166, -0.00499533287124076, 0.008235912341915449, 0.010662921551735007, -0.018442312852771994, -0.009060634057993431, 0.003847857877817948, -0.011856297727384765, 0.008426098554669834, -0.0004313037093486314, -0.0022429456176712393, 0.006397831976260881, 0.019096540685261853, 0.0023762657790324946, 0.0019223572937853142, 0.004116799174083165, -0.01800105784624583, 0.01508702457947204, -0.0013508236724774753, 0.03001045498402026, 0.029430129898636862, -0.022811014903443987, 0.009307412697690006, 0.0015317110274341184, 0.005614315953853537], [0.007187859466248684, 0.02372359520234194, -0.019134640483405862, 0.005457140654165026, 0.0017511206980731669, -0.00934664348062178, 0.03471261548822477, 0.01117129696033261, -0.016465793858699087, -0.004880303990445357, -0.015535039050088607, -0.014509504658171636, -0.004075005316606726, -0.0038494534753635862, 0.015942207089866264, 0.009523320757927565, 0.005675722369261889, -0.010072322041031898, -0.0041720208178202345, 0.004269078830104707, -0.015330228092141723, -0.009357785895238325, -0.000994736155677078, 0.00204385509894929, 0.015978922909645712, 0.0015935270444472406, 0.017648665517721027, 0.011830656337287544, 0.0019592896554471925, -0.00850044799286762, -0.0027244073613584925, 0.003803425498153033], [-0.005146540731901147, 0.006601268147628116, 0.019167551141630445, -0.014961888309493597, 0.010849586028530013, -0.02330732318587267, 0.0010558795488840099, 0.006321058236961472, 0.014273246309284589, 0.01270956069150793, -0.004705366216103935, 0.01831450372259397, 0.011372263357810459, 0.01498949700874974, 0.01697997401973125, -0.013767599152623213, -0.017931778837202466, -0.005886549437259648, -0.023223944147201424, 0.02181127978562717, -0.014677787392195172, -0.004979127988993586, -0.004347373206136358, 0.018166853400950655, 0.006499875790807597, 0.0018515979185156964, -0.005757053430095309, 0.007204719789555956, 0.01960302542214783, 0.011481216499616108, 0.0019875533143722673, 5.9166244389712686e-05], [-0.012181277972557742, -0.019713535954012533, -0.012424808224147965, 0.0041841387668927026, 0.008890251528090391, 0.027287813526556556, -0.0088674101525087, 0.007991752393296575, -0.0020559311574003493, 0.016244315296510884, 0.017532571568886924, -0.010207406939404067, -0.006806705029469292, -0.005536262694580024, -0.007263974230045156, 0.021201378323734366, 0.0008063323263825691, 0.015500493566173402, 0.0031437706127837414, 0.010252985802565465, 0.0027956018506132443, 0.028608578215429167, 0.0029649913673967343, -0.0057728480293888626, -0.0026405156912828963, 0.005401109324304313, 0.014676475048060841, 0.020717067161777188, -0.013966034354632003, 0.02865943799006091, 0.01420907996426022, 0.0032655901382790628], [0.01926250999988513, -0.0036589203892583824, 0.012777037851670902, -0.0006581370975850365, -0.017718291548641425, 0.0012535473405934064, 0.007044485620195257, -0.00280302722620421, -0.017209213148125426, -0.0010640021160571087, -0.0055362755648425375, 0.004479226334681754, -0.0024743891199703293, 0.0006172543570013808, -0.010784416968978723, 0.0029071589022095497, -0.013039609269731573, 0.007146445432473124, -0.009000637423988914, -0.003911171939426751, 0.0038469861940433367, -0.004204278247183186, -0.005622945774183069, -0.008614035666848445, -0.009297886020436415, -0.012616874838424828, 0.0025919949011105965, 0.0006541973782714213, 0.007452603503323029, -0.01562725301427066, 0.0075029999863950965, -0.008440272401991642], [0.004742321237148687, -0.010397388624962183, 0.0026757601828787067, 0.008647579965264137, -0.02304166755184949, 0.000907205384492724, -0.012296914528321894, -0.000459915808481569, -0.012342607914106801, 0.00961326456335537, -0.021540450022949246, -0.011002080613709834, -0.011121175904735039, 0.002922050938996148, 0.003757856837303583, -0.014955451993339796, 0.01828080658990162, 0.006735640436561737, -0.0008334620958227065, -5.99007030137503e-05, 0.01549616722533703, 0.009316233106881816, 0.01684402876612344, -0.0016682121318655882, 0.004426148838171553, 0.0037156424489422934, 0.013766179589103936, 0.037633885106195406, -0.0079002585547279, 0.0030001369012863563, -0.0004991439161955781, -0.005839421926134339], [-0.006337008366403429, -0.007920106902717338, 0.005430910731737329, 0.0031871489674638303, 0.015201512973710501, 0.020742837016849903, -0.006378487069217465, 0.0071742327568701005, 0.0027479677451447567, 0.0043827140268396896, -0.011940506677349586, -0.005998954359301273, -0.01018233406535662, -0.007332794529157136, -0.011795696159731393, 0.003993807879958506, -0.018253088982912037, 0.00010468395419684723, 0.013717006983339108, -0.0010093352214075033, -0.01548089910481029, 0.007609514223096628, -0.0023911789854705826, -0.015932310091630316, 0.005628551768799712, 0.0054720995909794, -0.0002525599512454233, -0.0036117628041960337, -0.01728210324221094, 0.019772631653901036, 0.018105519459769612, 0.004311804659626101], [0.006533297913855692, 0.026611125394472773, 0.009190106124080083, -0.008360519600245381, 0.002607461516316724, 0.0028895931672651364, 0.0068818406780801365, -0.003432315635251994, 0.0021814369301064638, -0.018170151271816266, -0.0007076754433971553, 0.006452669138661456, -0.012860702012863694, -0.0012455999981377302, -0.016133100220786394, -0.0159193065441447, 0.009839861883885177, -0.00022645550329692974, 0.007076896712032405, -0.024901859504405606, -0.007925724831165631, 0.021897757738773803, 0.007149898476946872, -0.004395513050801938, 0.003350535505408239, 0.006090429969764821, -0.019082821709812, -0.008722342490522915, -0.0005844761829610712, -0.024608245495397692, 0.0038009339332220806, 0.005572644931025984], [0.010192159790573273, -0.0002687488784627008, -0.002486989359191932, -0.003705766024420345, -0.004547074980767874, -0.0278958270662874, 0.0033110494047973254, -0.007394374543612501, 0.013575511084636283, 0.020875631282517872, 0.0014121541275075337, -0.006684217560130351, 0.001896658067818629, 0.005598210613472234, 0.0018698120438590826, -0.002767538951426144, 0.002300317052549035, -0.012657620544079993, 0.0226505030737563, -0.007306842728718683, 0.0024715325633567807, -0.007949832737096665, -0.0005333784220710855, 0.006679743771774886, -0.0011299458638544132, -0.0037403648606694215, -0.01198735469095712, -0.014898070267969417, 0.005023418904932079, 0.012679308064221769, -0.005478351388858504, -0.006284781714456911], [0.002837677237206581, 0.023741895482781588, -0.004124485237025263, 0.0038932673467213675, 0.01848382331450917, 0.0025709685511018827, -0.002715182204928645, -0.005542804006825528, 0.01257165577562668, 0.014224249140888117, -0.004030537222411361, -0.014861315484455, 0.005346324335989964, -0.008961483573072531, 0.012483575862382499, 0.01964115226095997, -0.003410359585539056, -0.004670201482245957, -0.0015697200255414333, -0.0011583299360673394, -0.005732367640606456, -0.0017915711462969516, -0.006923439648858156, 0.01302868567014093, 0.020181409831415517, 0.010934215788552063, -0.005276014792588159, 0.012766777654366472, 0.000867659639295924, -0.007422661465323625, 0.009737112173456203, -0.007847507335435936], [0.012774576276389523, -0.011013908124321256, -0.01718284626985914, 0.0026337941358732485, -0.01098012573039629, 0.008914068721992552, 0.008638215030898963, -0.00555764152038762, 0.006773759367050366, -0.008735160492137376, -0.020220827955762438, 0.00017140789287736714, 0.0018201275576705104, 0.005850107274565634, -0.009698073295755446, 0.008087310364587107, 0.012345877599194977, -0.007970243633836624, -0.005049554394462133, -0.007129024577993465, -0.005819616384527401, 0.003113030602516572, -0.0014339587006981839, 0.010622104475303547, 0.014549286927306346, 0.009500542003885986, -0.004601503053719344, 0.012504926432295078, 0.011803759186627967, 0.00439349574708999, 0.008407785794910532, 0.005895697581660465], [0.014592756167472753, 0.0169398544843142, -0.003379336299233822, 0.003380225816777727, 0.01821786291245817, -0.014910563681239518, 0.00933450415762495, -0.008824189065873681, 0.004123578417450658, 0.02346600285713452, 0.009846782191088334, -0.01593450430388871, -0.018810028683031353, -0.008899464428154435, 0.02026835170942053, -0.00385771214130697, 0.005319288584348004, -0.010563862467608567, 0.0084183755006914, -0.018894184451858854, -0.003357128156885408, -0.009723599297556174, 0.02005095576373427, 0.0014509997658391253, 0.00716438424284972, -0.005483979179414212, 0.014496041657427758, 0.000816895625240671, 0.004908690495671726, -0.010490004684331382, -0.00791500232793558, -0.010565495192588734], [0.013685766795480177, -0.009201023247385882, 0.006818552579550824, -0.013318801187343486, -0.0009969912467765213, -0.006800248371190121, -0.0039474680323525755, 0.004459069937035205, -0.0030987075304334576, 0.003760162305303809, -0.0025780241869778875, -0.0013163492669451202, -0.002270373305777619, 0.0018382605016062062, -0.00028051858602759256, -0.019144078936617768, -0.010361991864694865, -0.005904846579347324, -1.1821476160996328e-05, -0.021283142950775727, 0.0036818954216968408, -0.0061873537649825205, 8.447509741123468e-05, 3.596677641934544e-05, -0.013694183189334349, -0.0010175044432854763, 0.0032714163229065605, -0.013999277351639068, 0.006183008243473832, -0.005393094755554733, -0.005929226517746724, -0.016341146000078115], [0.0020058391563686074, -0.015018190164368223, -0.015725340001532834, 0.011464457094902967, 0.01028938889022031, 0.007685900666443261, -0.0021200409939108886, 0.013843507596572262, -0.002359932033602913, -0.013176398299872234, 0.0052389346213762384, -0.015429233287672045, -0.0006172003645501322, 0.007585689857572465, -0.0050458828214123485, 0.005952880532601793, 0.01358947958917394, 0.011539978851496881, -0.0113354295112608, 0.03697234375305196, -0.007282176031187745, 0.005905041757636984, 0.0024953557965370467, -0.014385651992759945, 0.017029269500323258, 0.030705167775900738, 0.008011932209750227, 0.012078431888765524, -0.004069291005884792, 0.010713618157155607, 0.0003062118676234306, -0.006715257464442044], [0.002378419711165643, -0.013298026791481392, -0.007993073986670507, 0.013647242683692684, -0.007120829561711702, 0.010957877768045486, 0.009913397684554454, 0.005431353282611657, -0.017980402179953673, -0.0012534586911929558, -0.014968541175042462, -0.021190564795438065, -0.011288275244217612, -0.0007223268187568872, -0.013663169420233035, 0.004198415553684207, 0.003836075481227648, 0.009351277201378726, 0.005409552423330692, 0.003737117568443536, -0.011649294380612728, 0.018250774295874343, 0.011150780038267477, -0.018106827497516877, 0.01611493283421906, 0.0020441285588954014, 0.005637200089085868, 0.02056957426601823, -0.0002174809307383111, -0.013171169028882183, 0.002163320791887423, -0.00901579052461801], [0.0005818206583287264, 0.006485196251099957, -0.012925215011531654, 0.02523632279725131, -0.00042025519523590255, 0.019169386998529693, -0.004746181117665129, 0.021268258157795532, -0.00021411055406348145, -0.0024453899041837653, -0.003638293025447536, -0.012576059593432371, -0.013463674535749995, 0.007453592946241021, -0.002427314289192514, 0.02241529984994398, 0.01375014605583629, 0.007755228961001478, -0.012079622327102708, 0.0072533276601554385, 0.00856640010565274, -0.00460571599617327, -0.007133646804583748, -0.011832342273085354, 0.003448763079883774, 0.007774380456027524, 0.014448180751667988, 0.021695074105068934, 0.00035164426828737774, 0.01224665024011514, -0.009156141209914216, 0.01236571100045834], [-0.00392242817155169, -0.011262928106019343, -0.0011049132481045292, 0.025594526516815645, 0.0013448612553061973, 0.0038755474832489, -0.00215107586823696, 0.003227932354916146, 0.00030240867698117896, -0.020977987929998703, 0.0025988799688487305, -0.00832863704963582, 0.00274140875951946, 0.01583311954213092, -0.009350858784074748, 0.0025166698368633113, 0.012011302204009363, 0.004013223605069671, -0.0074758228425802235, 0.004946140328814457, 0.0041176009583029135, 0.004762840189987212, 0.013422403062425628, 0.0037894055014523393, -0.00035129787876531907, -0.009706255101716247, 0.0006851790403416843, 0.009383416565931314, -0.010615263452619926, 0.007349014090367539, -0.00809231682183542, 0.003960774832823759], [-0.0063474627894081585, 0.004550260756589122, 0.005218686009712019, 0.010617420334815376, 0.0055159947343920235, 0.008287124124123467, -0.010426617490902318, 0.025426355575984022, -0.019644874299276874, -0.0004571833932526303, -0.0058317523472676885, -0.03148104268714182, 0.01199189081432636, -0.008794269601191337, 0.0051096648014104145, 0.001744480436567158, -0.0028201264954729605, 0.007728381072336473, -0.011303222192889262, 0.020474004062584185, 0.010754833437948804, 0.013847548873503446, -0.0012570215569967552, -0.013122066906529319, 0.01469507276479173, -0.007010903187787743, -0.0037306673193708067, 0.008227524965218332, -0.0223266450770743, 0.007663764270046829, -0.012538017835380083, 0.017441276486859763], [0.0006097542962646277, -0.008033282125110076, 0.009655837156018083, 0.007523968667178741, -0.014039348342778592, -0.01342181236327358, -0.005039819758931808, 0.008627109673400022, -0.0010515891647653152, 0.02088369377201961, -0.018263086297506562, 0.013491315604536522, -0.004306032170411525, 0.007825363624719903, 0.004265031545488744, 0.014656980173613275, -0.0019890742601043564, 0.009433755359668321, 0.0024095732166530587, -0.0010046891524574358, -0.006457595692279708, 0.0017953648795192606, 0.00023325021076870157, -0.003864820326168692, 0.008020515427140181, 0.008499625425628349, -0.004459908088776874, 0.015441829527968862, -0.02094226346060556, 0.00953766901488865, 0.011277608695826313, -0.0017764002609001023], [-0.013868028271386012, -0.0051507537437361145, -0.005368366895280961, 0.0011627258863887474, 0.005137691655210519, -0.0017256184788874392, -0.012621903320343943, 0.007583548288121379, -0.010798439952556431, 0.006390170970643155, -0.009788331997780945, -0.004838033114716286, -0.002783615973212644, -0.025534476439720746, 0.0018895470405241135, 0.023122873724972386, 0.0010710210673811457, 0.0017053593269727818, -0.02164997470093743, -0.009526219222141412, 0.001820196698594308, 0.01654591432529918, 0.010532774106689699, 0.01503245852629627, 0.004152477271290083, -0.003120890062789044, -0.009669378768417615, -0.009815140648842063, -0.021625580660972258, 0.013484493450370564, 0.003484590976941731, 0.0075915395440576145], [-0.023250994334248574, -0.007643180053580058, -0.00954918090976305, -0.010244065385000741, 0.0027283905962392466, 0.012037660797363922, -0.014520243492805857, -0.008868221045284832, 0.007803404921098661, -0.0010507421614209815, -0.007485576131189396, -0.021627845403756844, -0.017281979154679234, -0.009492925564818525, -0.014030662600794159, 0.012940639213790543, 0.0028496590631387356, -0.005799427480911432, -0.010244637573873281, 0.018313589376594663, 0.00693729629542309, 0.014258819867138702, 0.005611988372276835, -0.0044756576182453075, 0.01095342313353263, 0.006915217218602479, 0.01172419185247697, 0.011723812495861933, -0.005535470197090351, 0.006800539800087577, 0.007567478018266612, -0.008315616913057211], [0.007446249825326769, -0.006081609282973128, -0.012105286746755518, 0.0018338482896733239, -0.0067135488073503105, -0.0022467700630645912, -0.03216935147088918, 0.006433490856147362, -0.006140853144790658, 0.016799774254907758, 0.009566822752851499, -0.0021088655916149703, 0.00117650412373914, -0.008355861726036347, 0.003447585670926096, 0.009832075504902987, -0.001498186708776949, 8.713971257862205e-06, -0.005108366074341067, 0.0038137393368517904, 0.004568959835291708, 0.015830130684553596, 0.012614076769811296, -0.02131941603428791, 0.009736257817186799, -0.014973823313434186, -0.008582439145638226, 0.008340471676204945, -0.008134803933041402, 0.009834205755189703, 0.014140514555711636, 0.020608683434782237], [0.0016290046840809948, -0.010311610490988197, 0.0014494941685274164, 0.0015001531060237659, -0.005103660792170341, -0.007983010596364533, -0.005074601287287667, 0.0016631851649804212, -0.004590459224814146, 0.00913454288931207, 0.006617013181185713, 0.004776411110687987, 0.007319707253956434, 0.005025681771521667, -0.011298734133822784, 0.013534415078486583, 0.005229960620533647, -0.008024453879712823, -0.003980123498967087, 0.006455014386383753, 0.00021099779384436507, 0.007311530634957175, 0.0116563340282029, 0.00724719801769813, -9.761177672022945e-05, -0.0003950603828289109, -0.0045072173045742625, 0.003577870758611595, 0.0014432598208063176, 0.0019991290357397693, -0.0021886830236746077, 0.00013926253008910293]], "biases": [[0.0026129516422577674, 0.003262908298949144, 0.002598529991392324, -0.0034877645969401904, -0.002589027316576003, -0.003317830955261987, 0.002858935764503694, -0.0033761026752228626, 0.0033356778378996837, -0.0016232331588183523, 0.002359999049816799, 0.0029535645328600687, 0.0025266473316681477, 0.0030066674525676984, 0.0038141430262198087, -0.0032513800663466464, -0.0027108913268532697, -0.0032433220491753737, 0.0028480596742387113, -0.0027669870381457976, -0.0026897341693468196, -0.0029990812619793586, -0.003002252011483844, 0.0028750479544609815, -0.003203342309428881, -0.0007700161047560078, -0.003232200422448569, -0.004186964311547397, 0.0031270545013412855, -0.0030028117883425685, -0.0026027413212994987, -0.002420330176479428]]}, {"units": 16, "activation": "selu", "weights": [[-0.3763838346752304, 0.059911461625610944, 0.049171664319586375, -0.12403179799959371, 0.02788703337419489, -0.06738237314616577, 0.12121663158345482, -0.024507237514418544, 0.14166580063889328, 0.025441222653016647, 0.20386531937424499, 0.01382650978088309, -0.0605317847917545, 0.10040232287186251, -0.09694064925353231, 0.028258505296847473], [0.02844147678749331, 0.08421830111825396, 0.15794225940615234, 0.12443547573698878, 0.09526628237479544, -0.09490109941825858, -0.1114782072862439, -0.32318541030484405, 0.12820769342267568, 0.1983265526566268, -0.19142262948747704, 0.021235036328969076, -0.15926125896966564, -0.1857335821464481, 0.11819070493591516, -0.03148574970502286], [0.28738768719287855, -0.15638966157133702, -0.025848556166270204, -0.10354096210318195, -0.031301541146022745, 0.004173094183875964, -0.016730563088101478, -0.18686821698328476, -0.11985843790114642, 0.02424962708166352, -0.28404870973524826, 0.07350321926614084, 0.04790846622055001, 0.004736585119382899, -0.10053381247385827, -0.2871636852429463], [-0.07114849971882138, -0.1785775227098306, 0.021821950564169777, -0.0027934938171167434, -0.1783700703884496, -0.008231249882115618, 0.36619874878611625, 0.2395279948897199, -0.17578515263217562, -0.4435047095323217, -0.012068073735120857, -0.02427119265397756, -0.2753431263853622, 0.15378921878539603, 0.015274178505027112, -0.10794561508326626], [-0.15557371185556568, 0.16272581757795834, -0.08897017954940876, -0.038282292236683134, -0.07615896211212639, 0.04194177044882018, -0.16933632180854954, 0.10545200530768867, -0.18325646818397343, 0.024661632637443812, 0.24477582060517086, 0.1514701862468472, 0.023159551380160764, 0.1280195229046578, 0.15327585324822074, 0.060222881782740684], [0.046192979480647836, -0.26116549338383427, -0.06118075484076561, 0.05590298446374464, 0.2614198721753683, 0.25885648670794725, 0.09502364379386789, 0.07847418403437147, 0.008476609455668157, 0.04875789292399631, 0.03610766341992588, 0.04763603684492186, -0.1819157432748612, -0.12009899178497606, -0.11377301053847547, 0.13347947267921934], [-0.09624898147697404, 0.06554487470162035, 0.02157242400159666, 0.029932252808025736, -0.08897659974895765, 0.16047418857510173, -0.5552619058959418, -0.1485239213815876, -0.02525938097511089, 0.052570936490915765, -0.1602485453792905, 0.08180706062907978, 0.2783620918365557, -0.07594062028158989, -0.0288363330178938, -0.03400983333344111], [-0.14202934928318664, -0.0064799137787839994, 0.12492716000831819, -0.07537983022671761, 0.2911486961538739, 0.0929385851268224, 0.12247781852070544, 0.5316895822473355, 0.13821859435362335, -0.07106303372594062, 0.32980574591807205, -0.217541026324663, 0.016349867476529757, 0.06747814460830118, -0.10269120733494339, 0.12181230919769398], [0.1788927783358173, -0.3550217790013914, -0.2544104571256809, 0.3097904119699909, 0.02127240930212444, 0.042677787685357314, 0.11252425890527121, -0.2230262160367029, -0.029999771140880267, 0.07994801430727468, -0.09044996904704773, 0.18473891248216454, 0.1261970676866516, 0.34489427296308667, -0.03848944335942111, -0.3057066590168448], [0.06080019261546554, 0.07566155495992319, 0.33262528455693574, 0.21460102047818863, -0.14389562216151422, 0.13804065973843438, 0.1541333170693595, -0.054635181821383265, 0.16615028129203627, -0.06628338464453856, -0.007204995965445835, 0.21446108773437403, -0.18224609388819454, 0.14956053633116007, -0.13338051232912265, -0.11332976563634033], [-0.048408874864425334, -0.026168868237906324, -0.15249824045139498, 0.24418747809553312, 0.16820323209286153, 0.03131416815025281, 0.09765999850022852, -0.2199362186357794, 0.05352409636552325, -0.020885654952066297, -0.04200166405762829, 0.14406997180684564, -0.231490139815021, 0.07962259930628644, 0.28053764112909646, 0.09021293920368084], [0.12286511431655514, 0.009172819554580876, 0.1709559981587455, 0.18225547130295885, -0.1115393355160951, -0.22268767000759884, -0.05989413670359795, -0.10334062828315539, -0.10089359680841758, 0.016337388201557647, 0.25354977474781126, -0.17906032928846918, 0.0049546450605922185, 0.01157185276677958, 0.05929924884425873, -0.008752222010471497], [0.002421372497586664, -0.24321349148103055, 0.04093535506540106, 0.4203546119803556, 0.005930379110419909, -0.06733932083459843, -0.09301791999047451, 0.1050605892692715, 0.16656008561625557, -0.2236672320108981, -0.16195193021806928, -0.3205148513487155, 0.32670500775479505, -0.003180576894162493, 0.10357176631504178, 0.09167704411203226], [-0.0325601071168613, 0.017891547604947294, -0.1088123700266676, 0.10570912598015174, 0.026178604782925895, 0.13664276476645887, -0.16999478089720377, -0.11233357718069055, 0.04355894580369092, -0.06936830175450932, -0.0840555099070905, 0.09000527777144426, 0.005694403577859666, -0.09524947513645234, -0.3511248189882357, -0.30611157971583186], [-0.16708433851766075, -0.009872982830033942, 0.013316762825940482, 0.15031210550080598, -0.16084270305676404, -0.09348304929857448, -0.0024180919876719774, -0.33727450417524996, 0.4012062867498601, -0.1049077089277887, 0.06522366477088147, -0.3040302982281072, 0.029349932198795083, -0.034166968798575933, 0.1468231555158566, -0.14706646144717667], [-0.1605320284853719, -0.09069751028442401, -0.17989768270619477, -0.1238001372449821, 0.19700566505390485, 0.1127067649739781, -0.03494096896217753, 0.22920567042694787, -0.11760755654371335, -0.37247447878476303, 0.04830992067438724, -0.14200056174469433, 0.14097049283153024, 0.13642109079211945, 0.05389316520002488, 0.052175155077271065], [-0.36129716486211216, 0.18404798388003166, -0.161352859416719, 0.14050929758184086, -0.08485205821122144, -0.1924352847253873, -0.07152868556805611, 0.218199156345156, -0.19662124344690846, 0.07429237570232342, -0.2562043970182141, 0.07196069680863958, 0.010648134797003434, 0.02998711962496527, 0.13780571933838706, 0.1506856889552234], [-0.17119937580413516, 0.03894108613606895, 0.06605728986467557, -0.06914628880289007, -0.014342796159903212, 0.28959466522283117, 0.029647847816371184, 0.18334852433506818, 0.10478134343747801, -0.1225362949693133, 0.05895267695401372, 0.038678324872357984, 0.2976275785456722, 0.3168139786412414, -0.0013583098025804405, 0.3228996562780629], [0.06138549336913401, -0.03767527260742567, -0.1378288283437616, 0.2073246265845471, 0.34072403750584584, -0.22195698455151325, 0.15759167188886716, 0.05065947655731194, 0.011268099704088892, 0.22583682824909915, 0.07209366500859855, 0.2126464003445204, 0.03346043504838274, -0.055496701418078, -0.007500900656780741, -0.007014788487981389], [0.12374290416886687, -0.1651571283882254, 0.4678597216047222, -0.059854620645007746, -0.3051828698668447, 0.0596300725341368, -0.021388703435685594, 0.12365961880146663, 0.08755950811675992, 0.22966806903685208, -0.11981954356004094, -0.0801203001259214, -0.0262474644360927, 0.07946184089444056, -0.20593613071527053, 0.02878475079455529], [0.04353597114838447, 0.11196332531535612, 0.02416345979236777, -0.0888725886173404, -0.02094995771249081, 0.34932052016833187, 0.11169967046320788, -0.30424934180037083, -0.07854059620565296, 0.15535032037624102, -0.14030150294659127, -0.25270082827680995, -0.059599792534365106, 0.3703453419386516, -0.21154249872984823, 0.17540507265319097], [-0.13919917903950618, -0.18817494820878203, -0.17169449764050468, 0.04697764218821225, -0.08058621243353341, 0.0340638540549282, 0.11789031465635509, 0.3314301775237722, 0.04326381134805033, -0.190262281377322, -0.19574640982112185, -0.2369240400596912, 0.20602451281735634, 0.10696203974222313, -0.15378554417060059, 0.07835928367500893], [-0.18825064059322386, 0.24993721364559873, 0.09828736823821901, 0.00524104159951679, -0.05360487915228948, 0.014726208414497972, 0.22162355860633012, 0.02263275329998529, -0.03859156597289133, -0.17769062399079277, 0.18452264826694367, 0.15243776730287542, 0.2578839123431544, -0.12676446603434577, 0.22956974983905917, -0.13424067046051189], [-0.11979676964911364, -0.022923575628186036, -0.07885645469859255, 0.12154196475199959, 0.03637510672693265, 0.13271132025261861, 0.16422056914351815, -0.25928805226357243, -0.036595147568862826, 0.1566587610304019, 0.17298395696046792, -0.22096588517435647, -0.2527124383591121, 0.40111619344961036, -0.0377112215845405, -0.06226699236067692], [-0.1269990245214441, -0.36567540920904135, 0.15898621323479567, -0.4316255309371689, -0.07102467808616256, -0.15472241742877804, -0.15934940663996586, 0.23051200055914417, -0.06091941311935288, -0.4764798110652352, -0.08952889662764826, -0.09619457735080057, 0.01348891289602584, 0.03363528703072845, 0.05614583225032365, 0.15718565147817715], [0.004553021002238496, -0.2203950637694591, 0.05854147526051996, -0.07237448183643679, -0.6225508972659481, -0.0785778245407373, 0.03484313701187744, 0.0033856821220027977, -0.15577114716611018, -0.0221948768701044, -0.1145135331176173, 0.20026456294857856, -0.03254548950252281, -0.007916365673051116, 0.007281585203029975, -0.19744536007922198], [0.17143986176467846, 0.02108226357108619, -0.1383923173185732, -0.27100593026896636, 0.08840540101446843, 0.2824963013599992, -0.01569179109936727, 0.13423575984876937, -0.014364401338707016, -0.02025623986180097, 0.1341534100146038, -0.20966742172013914, 0.11337621136821711, 0.10608389155010588, -0.17713982171603576, 0.3080133599788131], [0.10207949898448211, 0.05228029747003876, -0.21469694922234384, -0.21797300861187355, -0.06831450771042522, 0.2263526893816286, 0.45482008426495674, 0.3536189407736877, -0.37549347392773175, 0.11719173631464123, 0.09688365607490518, -0.3264466086822619, 0.16562290193507503, -0.1576199796722541, -0.062438539387694864, 0.11451779917318754], [0.02975470504045441, 0.010628200765725173, -0.17780709723364094, 0.3253654908620749, -0.046315236381624374, 0.010152107875456048, 0.20106798286963362, -0.25807943343739836, 0.03513076358081389, 0.0707789688279961, 0.011265067454525582, -0.49421540215015797, -0.0018295857952470153, 0.0033215353638252963, -0.10022392752025383, -0.08471240566326382], [0.10515087082881021, -0.31481245586093326, -0.023713100799063958, 0.1482577803349501, 0.008353675730586874, -0.13000067389530517, 0.10772230477045999, -0.0015266741918821903, -0.23387519152902564, 0.0169848043571113, 0.06862624204152416, 0.02972721819223476, 0.08667369408337619, -0.1959820061492858, 0.30290860601412484, -0.04459363975800577], [-0.025989433065070185, 0.14655502098588938, 0.07456374038839746, -0.033911549339242834, -0.00940572848598844, -0.10242652275929727, -0.0780503408369989, 0.1679066719246448, -0.3234923822088648, 0.040297305940676965, -0.11669303956213117, 0.20769205243873848, -0.11710659698902331, 0.44924147710623635, 0.29298141063519434, -0.18967113002674607], [0.007700570926557241, -0.1956535113897715, -0.04920901480459472, -0.2811798733110451, 0.21942226203998275, 0.36759785964753283, 0.08402273435138326, -0.2261575409557133, 0.1147497649549832, 0.03262327796052287, 0.02884042770821791, -0.21003850760230752, 0.21067017865849327, 0.16764281505960116, 0.05795506650538606, -0.02148474676951481]], "biases": [[0.0027310724335974524, 0.0025647050406592633, -0.003347403091075679, 0.001287511132325759, -0.0024198970839844317, -0.004011497330643667, -0.0034910801548940517, -0.003718870251421436, 0.004138845243815828, 0.0027386855838325975, 0.002713540865690232, -0.0017527510751011177, 0.0013105617318725604, 0.003299567429902124, -0.0027143021773307807, -0.0032755519294028223]]}, {"units": 16, "activation": "selu", "weights": [[0.046104281245388117, -0.6326861233186837, -0.09306989063668099, 0.16027122854981474, 0.1798150871570826, 0.3207726274520995, 0.3448202512445092, 0.38294347879345625, 0.07290711524928827, 0.21240153126191877, -0.2519691931880476, 0.06006838099290474, -0.10090069517507416, 0.2939868207474148, 0.28299879901400565, -0.11334548242050028], [0.03600874467717319, -0.3712751178448509, 0.3907347336212918, 0.17313685837993556, -0.19688557835804332, -0.16850392816967144, 0.09706024722481203, 0.11918027379552441, 0.18319145170405762, 0.23842212814724684, 0.24524270323867287, -0.0683043768452279, -0.007927973024628504, -0.2945013340935557, -0.3310890806696055, 0.21002538015556022], [0.1615962992543688, -0.3229474448192941, 0.2642583175604479, 0.28952989475418134, -0.2805770591345192, 0.19424524767198195, -0.20322728451979968, -0.15954564872614205, 0.06512891796502826, -0.010861503632266466, 0.2394521967245728, 0.003642490746827783, -0.4241190128238599, -0.44416078943848936, 0.3647520651113159, 0.4134211496968333], [-0.07549365706954886, 0.04634889911169118, 0.027798195506373958, 0.3752943704809337, 0.08448590680231507, 0.23064565394616326, 0.20502954532486234, 0.34304741498011687, -0.33453517785445475, -0.057497550957413594, -0.15522336163434958, -0.053029847643733134, -0.21692636366799442, -0.4396452256547593, -0.24915768000738445, -0.3011021169429605], [0.05755969854577373, 0.027585233408696643, 0.034565190384042245, -0.11084643260805703, 0.05377956724229809, 0.021423280520039722, 0.1702027195291012, 0.014247730689771018, -0.05976529145476411, -0.3422210554956267, -0.1942927197177705, -0.011609827091265235, 0.20389343939195892, 0.39255941107727166, -0.1842819090128239, -0.46690044813355924], [-0.12848633076192753, 0.09707391930415038, 0.40535375910651317, 0.0862988433095469, -0.16430454160217434, -0.09324433210045796, -0.13361402994331517, -0.34944786025947067, 0.03587926214293505, -0.281634653298435, 0.04865996640949569, 0.14093241071445778, -0.5741017909417223, 0.21832022657247419, -0.20586425551745308, 0.01728213129923152], [0.2592479324338351, 0.27193253017029545, 0.233223954714066, 0.1677610053945619, -0.10032628629001356, -0.09784026889942256, -0.2133107633903399, -0.3581342592531386, 0.06088626332435561, -0.20824982865369837, 0.09145184936594904, 0.1376090667797165, -0.3510379305829902, 0.08822698526522856, -0.156369360234221, -0.3575468059357317], [-0.1210657072398331, -0.047559566255920636, 0.3354274297848444, -0.0446193552439332, -0.3517378140555301, 0.05899083976291556, -0.1589885080278475, 0.13785757684358702, -0.31684459701767703, 0.006378241288565085, -0.3875912313936845, -0.059153993085899755, 0.1815106961196228, 0.18329800876448585, 0.002978980634612607, 0.3032462920170733], [0.32591164339216994, 0.31742198545053524, 0.14877890710261416, 0.3628422225758733, 0.3272327455458224, 0.155864203846546, 0.19357646051486163, -0.24610817669626103, -0.0310183745642475, -0.06558500262509342, 0.3113598514880615, 0.1632166738179502, 0.3306993791785905, -0.2671744763321435, -0.4268484374026823, 0.06589661551490968], [0.08265325994042158, -0.023536197132943568, -0.06013834086773745, 0.11909256388072934, -0.047407336256507164, -0.2594829870211726, -0.06583061154601343, 0.375254134353822, -0.13919353230855747, 0.341409573593782, 0.24056149642556532, -0.2906036747298203, -0.33908698649640184, -0.22834261719522875, -0.023144701392076635, 0.2176539297299118], [-0.25758384239165955, -0.4472654021937742, 0.21120244560542786, -0.07798899176463038, -0.03177922378137362, 0.13343299081678275, 0.6275316372243912, 0.524920253129164, -0.016822703880688576, 0.026573999910334545, -0.20371817979362636, 0.10681215877500337, -0.15085298013631057, -0.3610594428412569, 0.02516994925986508, 0.018802582127157963], [0.03741104304302051, 0.21158041874286207, 0.15447704273221224, 0.47993570823250375, 0.21274305765652118, 0.21037893480877612, -0.2154926681899881, -0.10520381746569847, 0.1302111150998761, -0.13727037298473785, 0.20292540306608584, -0.02178466638237262, -0.24374257916719871, 0.12554636341034195, -0.009284269527774934, -0.19645914002010093], [0.06276443022526701, 0.25471322370801774, -0.38434147415967757, 0.28423700981241684, 0.08081134940260455, -0.2032511329582463, -0.2533890874659961, 0.13423614503910186, -0.4349434186091682, 0.21355811184673412, -0.16497178193129286, 0.12429188057429601, -0.3601216794229015, 0.05704106194908572, -0.4178835437157091, -0.12240104445574934], [0.12435048003644583, -0.20669819428111597, -0.5267859936029604, -0.015192492851054923, 0.023902067306432486, -0.015727556968708832, -0.38187804422586225, -0.10484381301961408, -0.20578299040127818, 0.01819282417389235, 0.1636948457539778, -0.10361628202358879, 0.1482039743776994, -0.24564738588766283, -0.4508110732874031, 0.27011967958307254], [0.06875108026666352, -0.3324503760019697, -0.20371205987547594, -0.4929334140975275, -0.008485052791672583, 0.6274605466272728, 0.2713606791145026, 0.06917247521619233, 0.24869314616576083, -0.2408756113468586, -0.39562856007113584, -0.3645161081879903, 0.2462367221742228, -0.20360170248678103, 0.2148720070786667, 0.31133976241778955], [-0.12351227180329494, 0.43742504187467, -0.3763814317242957, 0.08682193676356996, -0.37225210571617023, 0.4142324364878856, -0.36454944556862384, 0.08533210373987246, -0.027997474885721487, 0.1749409086962786, 0.05245627216677653, 0.17391231677132085, 0.3306168547072058, -0.01847431714236798, 0.03345901321848143, -0.0013063289118066446]], "biases": [[0.002895585700023321, -0.0025005519862488423, -0.0031771795703580004, 0.003308210338105563, 0.004377741561854205, -0.0034237457394158104, 0.0032773375180441045, 0.003126923465660288, 0.00011201719450925649, 0.0016110639024918957, 0.0032757531341036485, 0.002690373050921704, 0.0038014272472683846, -0.003394736959059747, 0.0013300188726813383, 0.0028423246515413363]]}, {"units": 16, "activation": "selu", "weights": [[0.4982221993592835, 0.03782876791089468, -0.04324372010641731, 0.0893590204491577, 0.3134822979550223, 0.12048364204672461, 0.33431461493819925, 0.3049072482389198, 0.3205816186611277, 0.05145831603962829, -0.0004730085490567018, -0.07817681059417814, -0.5708387490003558, 0.15949144897441686, 0.10490144815259776, -0.04166466302083258], [-0.21286165348064312, -0.19832629043805314, -0.09080193779231208, 0.17499167095687937, -0.18543343054340833, -0.1412056089957263, 0.10026615090713813, -0.5435541977423242, -0.11163520223324007, -0.0023380961385732024, 0.35228684559364226, -0.18313443407344476, -0.3197253353929313, -0.17463763993639705, -0.11632144823934551, 0.013910964894607258], [-0.18892295207138066, 0.36258820068323305, -0.13814886977018853, -0.14232236343590388, -0.059420903561563126, 0.18718495738717955, 0.04989472604940297, 0.01690520055797671, -0.16815260267592236, -0.4591621216097721, 0.27275082161542447, 0.2780876408714976, -0.021781270401612846, -0.2352168286952436, -0.3024458935995911, 0.029701683258788376], [0.031206460688435682, 0.07443075890789128, 0.09450009520703688, 0.46906943149271113, 0.15296519115255644, -0.0868952880093205, -0.23174067224809025, -0.015900027272663576, 0.034544475732694334, -0.002406227958327014, 0.125328719346546, -0.2630729251457622, -0.10461891599668713, -0.3324113265980484, -0.049239489109933865, -0.12214148765328453], [-0.0239116932500626, -0.3941073977244144, -0.2887791472860261, -0.08456069635093054, 0.11374763186518252, 0.18110801767360077, -0.24090073997194175, -0.3660098656875865, 0.1462325367137564, -0.043917441210887184, -0.2896737209182063, 0.2909346871690364, -0.17695181705733667, -0.3461552036815792, 0.3297711542571996, -0.07280776152077369], [-0.00551484498693894, -0.1667990685376926, -0.1325516226055171, 0.11255939944210265, -0.1702585679799698, 0.4861080225689988, -0.13746225731257727, 0.3296925364106129, -0.4569459018603474, -0.027872488954805884, -0.3248724880189042, -0.27800363363483055, -0.21047762166046124, -0.20904158352931448, -0.36511769642556813, 0.39454537999860123], [0.20860692700195993, 0.19557494418076368, 0.15756083447118555, -0.022887163027228895, 0.10437017935307394, 0.4309635136306244, -0.22126444525394584, 0.11420646078904091, 0.07802059310178612, -0.0221489803832554, -0.14576235896251113, -0.01054995213837516, -0.07014250467040986, -0.18490019151587087, -0.1319624472609826, -0.16130947561692818], [0.1567214351780167, -0.19056770480084417, 0.11530937774137998, 0.24454112858923985, 0.04508043726553616, -0.09075080227653118, -0.4583779138155549, -0.3898092058318525, 0.14169277576494058, -0.10265939271991346, 0.18306671585453754, 0.05026467083129413, 0.2373760997769504, -0.11265617317567404, -0.162081642823068, -0.17392297943297574], [-0.34955724182073744, 0.17033521407285965, 0.30385582135196215, 0.4379976658239285, 0.2103042700364945, -0.35959354775779767, -0.24514889934694808, 0.5056937326973162, -0.29559222134675645, -0.2598367143038088, -0.307567754571002, -0.11943859410644583, -0.19762368407590108, -0.20660783513343847, -0.48553386225294975, -0.3354695939628318], [-0.22426743414615585, -0.21727357698022146, 0.16880842555473483, 0.03604159352514189, 0.3640430133494658, -0.25441546546514465, 0.0527063118099548, 0.11504376954373423, -0.12738338262899004, -0.4315297502691476, 0.02277886177816467, 0.41718127579617414, 0.33452015141726443, 0.06120161054122565, 0.32241953934293777, 0.3110440166379827], [0.19383362929101702, 0.27568957063750327, -0.16040805179720516, 0.3802104582638262, -0.2172207024730368, -0.3282540807521187, 0.8221871484045101, 0.06730928978216759, 0.18456235071219684, 0.1862429942912465, -0.23859158182654153, -0.13225787472332595, -0.5478745839025918, -0.03112688293594454, -0.08872977377640566, -0.19171929301291996], [0.010477988990478965, 0.13001711633840746, 0.5013366454963736, -0.039428233742768125, -0.04477819173063064, -0.29591715093933096, -0.509688526261137, -0.04295435181832366, 0.199669064065982, 0.13369762892122916, -0.14786626834824634, 0.457781909073827, 0.01991692966883711, 0.3625823990504823, 0.08547672932124792, -0.014481230624078], [0.6949757301082827, -0.29187592259544365, 0.17547310336671687, 0.16153741179159684, -0.2346804370298494, 0.12314505800321036, -0.43348359500712763, 0.09467199180248674, -0.20471124292879042, 0.10512262858992581, 0.288716127235737, 0.07882144044172885, -0.13402707503890712, -0.16335481773203203, 0.34272090941260747, -0.039706548500632634], [-0.3210912471050124, -0.22435691947363193, -0.4715223996334094, -0.06718436327568181, 0.18989500902516931, -0.43474896709300326, 0.057591912712490874, -0.005549059264080393, -0.1736520819497802, -0.48589919716158336, -0.01499723636028874, 0.2978958766952781, 0.10799555076209477, 0.21300924625973808, -0.19812930844385668, -0.08282634568734121], [0.2500340768440342, 0.1733785303216671, -0.11923855532949579, 0.21298915016893347, 0.07894086686194626, -0.10589353666407951, 0.2849511075555487, 0.06851023178830927, 0.10393623908956837, 0.04603048448737006, -0.045063677249339934, 0.2721385599357705, 0.292706343939586, 0.19958070373299636, 0.038021700659286096, -0.034391084591430025], [0.12733912066384576, -0.19535177595506195, -0.0990611140507098, -0.5289187720366456, 0.31725720476463887, -0.32425195605995766, 0.28826706939591107, 0.24344043510919064, -0.2381747465060621, 0.47292005543525933, 0.007529720936145094, -0.05078246704077376, 0.4431143416641455, -0.2403949905610158, 0.09412013180621473, -0.09602571092184797]], "biases": [[0.0033800706528614582, -0.00284883452601831, 0.002731269549814942, 0.0024722500919029515, -0.002396298185999017, -0.0026626755022613863, -0.0024101953545240845, -0.002905867781699251, 0.0033169657601788568, -0.0025809721148570383, -0.003687179585859932, 0.0031872358668787815, -0.0028650615527906994, -0.0043874178645325005, 0.003996764374439987, -0.00383449266474073]]}, {"units": 16, "activation": "selu", "weights": [[-0.16586914527109856, -0.40354719521600063, 0.18761357856592847, 0.1623099274021963, 0.6369472095174565, 0.07870947067635291, -0.12854168489419118, -0.5144854283952578, 0.5408479057032628, -0.014417558373584625, -0.10120414755225515, -0.15544689176021706, 0.5922446872078393, 0.1948618413132529, -0.06718583809654559, 0.21045346146577995], [0.21598442110094554, -0.03822157576489086, 0.320254957518931, -0.08563648914115368, 0.17903582485855432, 0.03390539418782555, 0.23756017906697652, -0.004746778660550343, 0.3740092152214865, 0.04716638098112923, 0.22721154709214614, -0.12985366354166317, -0.577039539899191, 0.040114871394524125, 0.0028658654497546094, 0.0347638224771815], [-0.3244400849328135, -0.3649945358954769, -0.3065797796662285, -0.1682367510491499, -0.23088958237639462, -0.04778026969022834, -0.04844368296673153, -0.1998380541003694, -0.2988296245750787, 0.08804980021580185, 0.04569155645011061, -0.05461716783385342, 0.210711930878205, 0.0130390382630437, 0.00534336557828411, -0.09960286910299107], [0.12275361959114675, -0.23475515213583772, 0.4385473426399762, 0.13723986249568104, -0.20662416655597216, -0.20191881033620507, -0.08360044881246025, -0.1279246303736217, -0.4129382913167958, -0.04284007702971271, 0.012333104461301798, -0.3115034088360411, -0.346483665512963, 0.05140703388710674, -0.004143465098032423, 0.5759326446935493], [-0.11546448295883074, -0.20927860045052538, 0.05687758109356606, 0.036000046846628636, -0.14387258162697344, -0.2518519502420812, -0.21118083958391323, 0.11925870687865375, -0.36413071484412624, 0.03187843783404268, 0.18490213947409884, -0.14541289838127244, 0.12145389951558348, 0.14023533267686558, -0.19452115770439676, -0.1334440163695505], [0.36131007432900286, 0.19315885059127222, -0.15119775756838436, 0.05181942723425358, 0.09580852706314207, 0.023630212408121985, 0.3265329245261113, -0.3603521696278804, 0.1659315705944914, 0.08865187327980549, 0.14460161987262415, -0.18375803235422725, 0.20775223401365023, 0.03858220159939295, -0.3456922387159138, -0.2269067678562544], [0.3736241207675045, -0.22808577548395276, -0.17537406569514183, -0.07322951564593384, -0.1818335203705986, -0.2534673657420109, -0.1139489554403066, 0.15087381223466248, 0.15866088625850355, -0.07704325305442729, 0.017696779634732988, -0.106391878588091, -0.10811834814386588, 0.13857035101521742, 0.2648455986096994, 0.07568105553497337], [0.1807391849094657, -0.2970245880254861, -0.414172624025115, 0.3532647991079157, -0.22430347836987624, -0.29846891377548296, -0.5074336378744724, -0.5356429724376731, -0.003569761213644045, -0.029044532080166878, 0.05925072560190616, -0.1865185331568747, 0.03082824748865029, -0.2153147354676501, -0.28133944597920085, -0.2676854553168535], [-0.2587916107107358, -0.41453348547078156, 0.17823862813820776, -0.29909423167020116, -0.13293398948676796, 0.059168032510679466, -0.22143231229587418, -0.1759966734890001, 0.543506770512478, -0.22285896357658758, -0.2032907800373725, 0.21891025465364838, 0.3343237837595478, 0.024943095511808427, 0.42376324268886134, 0.22283054197822252], [-0.3052668366019148, 0.279685472638315, -0.7428901548624565, -0.20396043668540967, 0.038631837622307055, -0.45156195482199774, 0.4412118002943277, -0.11763048945004395, -0.841354119194892, 0.2877662005271362, 0.1570430800196436, 0.04409388854681822, 0.07732400806121838, 0.08068541819035259, -0.5911118931445412, 0.06692371695691458], [-0.26781886234396785, -0.28179901069544877, 0.15299150727439575, 0.03399047348482389, 0.07954652908377126, 0.06782589634497599, -0.04395375118999619, 0.5163199883550311, 0.0885759088979698, -0.16020433816539117, -0.2829995916359929, -0.256167743571646, -0.2452447481496741, 0.11464993691120708, -0.2069137591860988, 0.1764647590751125], [-0.11024381896573769, 0.3765923350266305, -0.2837074715338576, 0.22348742810488856, -0.07196260603258718, -0.09502546252718382, 0.07616502300374534, -0.48199973499071863, -0.2598078888963181, -0.16302542743504606, -0.22574922271173115, -0.18079367846628475, -0.03299091945552476, -0.23918030213706012, -0.19662471897550365, 0.22790424528201803], [0.22593569307708553, -0.08518496357326574, -0.3405119741983265, -0.008330194119815183, 0.132550724220627, 0.09417466575825302, -0.25026907389394387, -0.3879587504164692, -0.4696403227924593, -0.18008887295458806, -0.3447363038507736, 0.2785942517128533, -0.438569878683468, 0.06447213402820459, 0.11031024073500646, -0.048218524169889976], [0.0854194789629547, 0.13636089869347054, -0.16938703387731907, 0.08856624554265656, -0.02145499811845327, 0.30004056208432256, -0.5096649995114646, 0.21844046068857248, 0.07631122294989927, 0.038592684194185004, -0.10213357627120663, 0.1742728175354212, -0.2368236256439616, -0.17275504303636913, -0.5770462891464158, -0.007153761148697694], [0.10088420853510918, -0.08546161621638299, -0.012296937925587385, -0.24460260190818853, -0.34834007942337775, 0.17893525641065033, 0.1232955469251846, -0.09842573945193003, -0.05437786740298643, -0.4745403827132294, 0.28376308983805554, -0.1664955101474692, -0.07852867423866322, -0.12892835006328088, 0.37999228284553027, -0.3038116100118927], [0.12370861836482923, -0.11033830464861091, -0.1387732778292326, -0.11796039219314956, 0.3683002516700546, -0.05463452013230154, -0.25649801932353106, 0.023665485774784147, 0.14371481594761246, -0.1534327467491428, -0.4928369374201375, -0.2089785662789819, 0.05979958816609196, 0.042570054532127824, -0.2921536755062924, 0.2941402374135187]], "biases": [[-0.003461224179199656, 0.00299934597041442, -0.000989528858866124, 0.003217975557898279, 0.003015468044015524, -0.002592482544444001, 0.003214956158111379, -0.0035365683427562274, -0.0030652830602515262, -0.003992426939771354, 0.00422876272952489, -0.0017696708870190397, 0.003445483217310589, -0.002452294085136441, 0.004216105781361022, 0.0030553877852682932]]}, {"units": 16, "activation": "selu", "weights": [[0.2610202861741604, -0.1629924360891878, -0.2617819920446851, -0.026507223741999153, -0.27089360299793985, 0.12376887505885903, 0.06831820566034101, -0.15430731124800826, 0.10107057992625426, 0.01745704680164078, -0.1950320800056436, -0.09996585322830989, 0.01739399650323469, -0.07470997928780496, 0.14872975676812245, -0.11037234836084284], [0.2503204883116681, 0.02596127220963649, -0.054222014277856265, -0.11876802991890278, 0.1902806057927064, -0.08773169834298923, -0.20944248969198145, -0.11799437115468522, 0.3740364190731224, 0.23773460589511972, -0.20365538537393854, 0.2750966915756596, 0.2384772993218803, -0.38832565595052243, -0.2402162075457847, 0.5620367763076289], [-0.16636417626183037, -0.03589214310481557, 0.40168911094714027, 0.037474130327699924, 0.06267969009842847, -0.07734629678759192, 0.10429864856706426, 0.09392734181613664, 0.1302792883158468, -0.062062706110304344, 0.016588054545228267, 0.13760752775872695, -0.07440282827823937, 0.08730947806411607, 0.052495957701635086, -0.4244651625948032], [-0.30999344271371265, 0.17737598991446535, 0.18722339478694375, -0.010901049493229745, 0.003912313212415044, -0.5289615808503239, 0.20616730987786266, 0.4742929524615356, -0.1024890904535481, 0.17861488665294073, -0.40482699218313034, 0.4544085616950987, 0.04012417081154088, -0.49345785807334747, 0.25040951863483474, 0.3884374919767095], [-0.24559871680614942, 0.40762109706335936, 0.5028711208299167, -0.23691738730552173, 0.17897909958108177, -0.04918218520735937, 0.3163467054551102, -0.06250460436314165, -0.1414002986085007, 0.23512468684442708, -0.16767273384388692, -0.0449475853354867, -0.4221612138460533, 0.2177417687649577, -0.0904697427375316, 0.22806876440365462], [-0.0587301861822494, -0.17735204526072804, 0.34922035566370413, 0.23028227533216017, -0.012897452623109245, -0.21053485650087322, -0.1718190690988735, -0.001874737873991596, -0.15390398624263432, 0.3151013348962138, -0.4676928747286294, -0.1996439430864533, -0.16756044016579047, -0.07623683441905789, -0.35983082373845, -0.4999736173143843], [0.4357719542454129, 0.05917904427953537, 0.4365022828431573, 0.1834150246743586, -0.1701225650829348, 0.31854546981363285, 0.37415401371436174, 0.2329474469307291, -0.19365173847451256, 0.08615608559380371, 0.08898815176901746, 0.11898655859047703, -0.06845795306550875, -0.21303429674318006, 0.09112163252178772, -0.2962050214060096], [-0.13895955850922728, 0.2545911977312934, -0.15104218844564224, -0.12768037289720097, -0.24395108052124265, -0.15453902220398566, -0.28667195281679125, -0.21763323535497348, -0.3877348594252828, -0.1373173797588666, -0.01885526393442367, -0.25961116656878863, 0.08412576505335413, -0.059060670991519446, 0.015926249388391368, -0.16698850844831373], [0.08087388339460815, 0.33078742903183833, -0.687807080485104, 0.013167808440248455, -0.038113799634461404, -0.7886601386946542, -0.40115208669222163, 0.2092013665411362, 0.017767257812673413, -0.05477374821767159, 0.18059877407122552, 0.009990672133481709, 0.10895105064241924, 0.06344166358784886, 0.08275233490405896, 0.565541940988485], [0.060837339543844134, 0.05576460915410046, 0.11879682001070986, -0.06149326461985345, 0.19317113873023725, 0.06205111795841604, 0.01598480885285369, -0.00198774129953747, -0.2798850333073549, -0.27200117107736166, -0.2589535167417379, -0.314074938550975, -0.037029500575848105, 0.15331512417308849, -0.1434113071142123, -0.11459525227736538], [-0.04629877106845449, 0.05464580782475643, 0.07743499550914519, 0.16760875965400318, -0.020100019101294907, 0.01264012683351983, -0.06279736630404541, 0.08973845250220001, 0.1738945888419323, 0.578439374736532, 0.2333485482394379, 0.1889742354167613, 0.1424356423981107, -0.5075970601874262, -0.060113389689633305, -0.20514611685452636], [0.04259279181300282, -0.10527598292131363, -0.07730818045580252, 0.2869237975412815, 0.10466905156960622, -0.17385070011779677, -0.3848757498216238, 0.026746034183925117, 0.7623614828661813, 0.3195595800340486, 0.011958254998649262, -0.2042435617120878, -0.27778514464716997, -0.3003438967179235, 0.023447359433436822, 0.14448873002889862], [-0.3074706151767051, 0.010523051701509958, -0.003846694436053675, 0.48260207362846286, 0.1665592005215197, -0.03423628819100856, 0.17599063857027525, -0.2240684332764652, -0.03067606235247019, -0.1635009405622147, 0.36724656083259327, -0.02190016219039199, 0.15147930420021027, 0.3567149201871696, -0.020659601819219293, 0.10320990632276665], [-0.15205776178312763, 0.29668285087005747, 0.23847701840021696, -0.28507062515542825, -0.01769542518151345, -0.02960339139976697, 0.010576963198597428, 0.14774450034568662, -0.16546400727711022, 0.15193725768454944, 0.01664510211562122, -0.2455805529846816, 0.18038984823823806, 0.11975706098276265, 0.07957293178352175, -0.017667258074105078], [-0.21356516484236426, -0.37750388460728584, 0.15879903848222013, -0.003954805505276491, -0.5829315588894208, -0.41989490486337067, 0.3266907504992205, 0.19063635528875295, -0.22513659598746305, -0.25153509899394755, 0.08052584747445424, 0.5044767188935266, -0.32258133710367776, -0.06436848675730865, -0.4255608102719076, 0.15267025292360545], [-0.14059338182831238, -0.33388902851426705, 0.3165713460823494, 0.00010567437603114438, -0.007942993348061849, -0.24110447454995695, -0.13779132945658956, -0.012947306684460359, -0.297766551509762, -0.2988272547455095, -0.04517594365435684, 0.18528128422877185, 0.10520812281077285, -0.19191524020984613, -0.46507727840702306, 0.06039380144224629]], "biases": [[-0.0035854029932726244, -0.002969113415291495, 0.0027516528524118705, 0.003219858097120824, -0.0033150266822182676, 0.003280274705310028, 0.0028873935122425377, 0.0031748247410073203, -0.002893663978206224, 0.004313921684360843, 0.004200158516377578, 0.004176451140024921, 0.0020578515024067988, 0.0026479471656075094, -0.003706828321702102, 0.003190528222032579]]}, {"units": 16, "activation": "selu", "weights": [[0.35736987975768003, 0.23943741399820614, -0.3353900863711622, 0.08773696423515354, 0.28337354322074215, -0.41201525698831476, -0.1793361806008458, 0.05783130405682965, 0.14163467240577488, 0.2650857862865852, 0.22761149018146928, -0.18627153057742055, 0.15867048525118357, -0.3584667036522069, 0.1556533937398505, -0.07453253757684557], [0.2033010037466137, 0.07172601208412746, 0.16747894809737043, -0.10613534274397775, 0.3063730780841955, -0.02699917811118412, 0.5357883744023442, -0.032980963184135174, 0.4501172416726922, 0.12414440572974596, -0.15647738850147244, -0.2123865498329636, -0.16983313613648135, -0.5419432445078138, -0.02237636852852374, -0.09066987306477178], [-0.03359966917621993, 0.2859686055573204, 0.3758234619130156, -0.20087191704012447, 0.3619695102101583, -0.20608983923165827, -0.2061217095235599, -0.19405195050319404, 0.16423775765289386, 0.06247888043781153, 0.1518678475943729, -0.3978668257770957, -0.32276023817524147, -0.19180875294896707, 0.16556315885397235, -0.22985082292294362], [0.1667686816529274, -0.10689506426601741, -0.20304884069460832, -0.27542870358832167, 0.44201641791496704, -0.15704035897016758, -0.21664669882837806, -0.26202091247498377, -0.18713566148333166, -0.24543273281994746, 0.14695235057868278, 0.009168926693878579, -0.14976379976182405, 0.25866150585783865, -0.1370646397459073, 0.13163762112147], [0.06508359201295146, 0.3832455480549315, -0.18098817839620052, 0.23891485147954739, 0.14548192415974398, -0.2424177642244469, 0.15425367310971055, 0.46634646933021984, -0.06998643355665646, -0.014875648824603193, -0.28017402065964664, 0.008186363326079402, -0.22115929441140778, 0.16635489290306382, 0.29649492508191133, 0.017231633908025425], [-0.16030206443135137, 0.09084460902462482, -0.04893901394454142, 0.10968438851288091, 0.028298058442197963, 0.19626509332242686, 0.06492463564236035, -0.15010245940131442, -0.016879387025885057, -0.11020213196136497, 0.1296317282740667, 0.18294972740316612, -0.1438458378065691, 0.33129979481641986, -0.06126023916975784, 0.21406256832701576], [0.23686087866149988, -0.13502499577382615, -0.011865535307886628, 0.2994401124794599, 0.15666283259166705, 0.251390674908587, 0.1945684865140588, 0.0891657812658365, -0.05314671466448244, 0.1572823876839649, 0.44017889673290583, -0.27208302570370396, 0.4619873434018707, 0.1752464954352001, 0.05948184399925227, 0.0063394675980594], [-0.3192865524383687, -0.06619937499864113, 0.23226150416031677, 0.45540567891188544, 0.006114920573843344, 0.38640627445193015, -0.07316800209242846, 0.14460930772317307, -0.22594444428186733, 0.3250484023449827, 0.05384153351698186, -0.044309765601466, -0.5426352639358231, 0.3275373810337884, 0.06340210804456918, 0.30261695994357923], [0.2418999455777824, 0.34779474692040796, 0.46797539561265566, 0.04090770808119183, 0.27261587641641505, -0.19820486871569487, 0.5684447307931709, 0.06992502758028775, 0.3828272552499504, 0.06255791120393345, 0.09144783600560485, -0.14669045055043733, 0.43661299914335233, -0.2555889933752955, -0.1787866994815495, -0.17949870498804077], [0.2808970614244461, 0.4078964877840247, 0.10532969052968114, -0.3428277533197071, 0.012799927071410092, 0.06533172186150023, -0.1924692940174612, -0.15345089162338502, 0.09182051651279434, 0.10298939705382049, 0.5024656606022175, -0.2806972069106844, 0.08568457354293234, 0.2551012678247812, 0.3920406363430299, 0.26042283970839375], [0.13400732542798227, -0.1557751586050177, 0.21021475460546424, -0.24597624833504947, 0.34484369355346606, -0.08113119521066793, -0.40004817922906993, 0.06898966981405265, 0.5144058154470368, -0.3545884027094442, -0.155599722507312, -0.5584255011395162, -0.6745676813007261, 0.39059756421109554, 0.26494194936317744, 0.33051340605351587], [0.035677388501724194, -0.025444907894953392, -0.08887657454326343, -0.48610529672900954, -0.24062715821435696, 0.021801439669170954, 0.3845108856386523, -0.02537824566230439, 0.08906686082657796, 0.029621694465462284, 0.2013557028709149, -0.1471906369337071, 0.10272446838362255, 0.370624759927627, 0.42477628017034136, 0.2537244390910333], [0.4702555595451336, -0.09965091627533983, 0.1415102976308647, -0.10478243911379247, 0.07016855049580271, 0.19913464506926296, 0.26893716336908197, 0.03108944584127378, -0.09803843533150365, 0.49169385462629983, -0.07541295055758257, 0.039971118065666444, 0.4955358562751453, 0.03731226442044736, -0.3046703417444236, 0.05881901353796391], [0.8115210406614678, 0.24362529648738113, -0.1393458151777971, -0.4408767794354068, -0.38581026548341074, -0.09345601091475633, 0.1682775555793908, 0.04785186279875862, -0.19566254903390223, 0.3846863108103683, -0.17401239375701946, -0.19879065952869812, 0.22009107782974335, -0.6718700091323382, 0.2596487549319331, 0.2283790044159705], [0.11139008188658153, -0.16071998267832005, -0.00856322728601156, -0.3008168856249934, 0.43633241287421526, 0.19216742015410887, -0.19602640493132953, 0.24989287400214627, 0.24701586596879083, 0.22956427863759143, -0.06867062088389596, -0.2782752064862556, -0.3204461469604323, -0.125510507848194, 0.008687294268241916, -0.7893144280139007], [-0.10863062696349847, 0.07598589983627042, -0.037873079998471844, 0.06524492121482446, -0.06756529657912617, 0.524577910569772, -0.5033228774824015, 0.5528952748032195, -0.20629299326894504, 0.2288888729047155, 0.18693010616420208, -0.01867890584648862, -0.20938354489042504, 0.35916839075947454, -0.03071425472198694, 0.17701012195775667]], "biases": [[-0.002457202374836471, 0.002503660789641876, 0.0033681086722125823, -0.0037291264385925964, -0.0024401378790912614, 0.003512337548878722, 0.0018450147193243593, -0.0033476011503587497, -0.001684782159454639, -0.0030835934087959744, 0.0027492718763796812, -0.0035825859836504576, 0.0027135841544982226, 0.0035104079377538447, 0.0032531689508996154, 0.004140655350972852]]}, {"units": 16, "activation": "selu", "weights": [[-0.47956983829713057, -0.3637462270147286, 0.19459247785978265, -0.16462808045407076, -0.07036410286918031, -0.43491163579714875, -0.33908385803863994, -0.49670390469151704, 0.030421400360158796, -0.02064522296740384, 0.04455649794174607, 0.5390607869809922, -0.0030183455034869014, -0.3481978484959719, -0.23502873099370286, 0.2005227119450402], [-0.004895698031214218, 0.18894380271886285, -0.13794699108647307, -0.11247363040241666, -0.2512015204320447, 0.06481515080594406, -0.09855072623330659, 0.06736753586946591, -0.2224539559069338, 0.017018855112900463, -0.09994789864113379, 0.1909573407529087, 0.13838002148283024, 0.24972012191391324, 0.03711778392051847, -0.5745350342321127], [0.4472656451832936, -0.08812460729038053, -0.06125332825424991, 0.12163195649032311, 0.03250048307719008, -0.01585760242524657, 0.45065023369990076, -0.2222600959897872, -0.06929180456704528, 0.25050685272518375, -0.3762417805017124, 0.32789578638929073, -0.09877478753147458, -0.2470518130891902, 0.12430047525228756, 0.18000171948079316], [0.5547291787569872, -0.06093786772183394, 0.20696269908614462, 0.48038224701612875, -0.25242144771263403, 0.665914503705191, -0.1199575052255185, 0.2859587048908137, -0.12774326301651953, 0.292437576311828, 0.22575325404030744, -0.04689052971005121, 0.29923373386274493, 0.012461128810159112, -0.3388739583024848, 0.02511014394377973], [0.14222391640347423, -0.3305518282036924, 0.27457766090624514, 0.003226437543496177, 0.549225107378398, -0.004057928036906922, 0.14263477061267912, -0.08282923347729482, -0.15449001971550919, -0.013368747714736113, -0.34403721960079914, 0.20254732930362035, -0.012682182629340004, -0.2080051343800766, -0.4541031642817565, 0.21299463033731436], [0.42569115631403004, 0.28792111069063225, -0.1903774767970902, -0.11516365217633885, -0.13861305905949786, 0.001208866739463083, -0.45019079160159164, 0.2576009134785445, 0.4335946359161745, -0.28894131856573274, 0.1408974065780573, -0.2450563947546862, 0.11057680640838478, 0.10260059922659116, 0.07066183904942142, 0.17112616091045046], [-0.003330334362775022, 0.29172002309402395, -0.2015298401954393, -0.1385473565146878, -0.3455684136293927, -0.06547957023423749, 0.09377157020280448, 0.17739579804031408, 0.15982081406174578, -0.29262166662133027, 0.43070488418247155, 0.1433154768016776, -0.015353927198396488, 0.07642030836909615, 0.15594804719751462, 0.39966500955413886], [0.023615518695822194, -0.13053336793540785, -0.14729612987367124, 0.5527096938409531, -0.14339685115195136, 0.13636878113078416, -0.4724492218479814, 0.24800597787102144, -0.08997780690309341, 0.2993372327303359, -0.13235293828525274, -0.4446104029369273, -0.1750066108678709, -0.2505380861133151, -0.5234630400160353, 0.28628997351447083], [0.18404722652422056, -0.4897602681210971, -0.18498046327302003, -0.18836847423258693, 0.11281133547382595, 0.5419493437015083, -0.009641767377145718, -0.1906104347579846, -0.1633923413711658, -0.28890727144740064, 0.24529960082316346, 0.4431898229651212, -0.28067293324317377, 0.05563328242641334, -0.08030958113991031, -0.3226086373325169], [0.2076121161402016, -0.04063929921542543, 0.24749480937446686, -0.02303520620675029, 0.15291002112018462, 0.008022579805785943, 0.13056260675914405, 0.030363065194662413, -0.3240321414987345, -0.0832140671910198, -0.6127364204810904, 0.18811303454077544, 0.08023611441911369, -0.33424820013894097, -0.04611003376973882, 0.30329367411937275], [0.16460631350264424, -0.1728140803169743, 0.19763278001230392, -0.14493699867419205, -0.4971743578503438, -0.0495172022159291, -0.2882832267354176, -0.06030789364592795, 0.36467026711532713, -0.3661070383532747, 0.35880660785003105, -0.1633775056396704, -0.29510196467246547, 0.07814973595642438, 0.6718290999529666, -0.09232526806994158], [0.05082622185991631, 0.4971368472750928, -0.2048645356511452, 0.2179012181477547, -0.03450646867455275, 0.44192478639264576, 0.19887192377247626, -0.43367867489674566, -0.055263376264738893, 0.5911887747228511, 0.3270514438668957, -0.19522486780645595, 0.21060453571175694, 0.09733719129351147, -0.1051684644861288, 0.5177356208169678], [-0.1303452306837844, 0.14288494675357594, 0.23056339119003644, -0.23319276100001224, -0.1564079642648387, -0.16887874060927446, -0.2951419873028467, -0.3454993977669929, 0.18020316408423767, -0.44896057787808247, -0.3001088650218244, -0.2219877099556914, 0.2229266684316663, 0.1713036910118041, -0.3665195817171461, -0.4651060349279348], [-0.008232554821006422, 0.029394493494080725, 0.10225856466917307, -0.03986386175510831, -0.027580778580350504, -0.44251115161709814, -0.23826714233933158, 0.17921099735828244, 0.2864859524325468, 0.2780800664503296, -0.17940210326690448, -0.04295228946329983, -0.12643768128980393, -0.3872903614770793, -0.16745709645128481, -0.09092578131787037], [0.4073346787544366, 0.10527974370583844, 0.012546891783853976, -0.45873437700900166, 0.4900144786911686, 0.14270696269236935, 0.5080230173490985, 0.2577994859503964, -0.03217705481350143, -0.17536526541963499, -0.052817817177675024, 0.017810758212305357, -0.12996644930953927, -0.024147250870162222, 0.2079121332017382, -0.32833852418604553], [0.10738481719915792, -0.5513176144490355, -0.15064425554040736, -0.24343102605405803, 0.539573307160157, -0.0393329325813385, -0.1227201863044259, 0.02875339007729563, 0.6952119505335539, -0.15935207655984515, 0.20039411941789764, -0.2696050616110971, -0.0502860721064134, -0.22775304626773052, 0.2929138419670883, 0.21541466898800982]], "biases": [[0.003201103205750302, -0.0030357723809678336, -0.003775662580543247, -0.002977187812568621, 0.0029009065568330293, -0.003363111594429927, 0.002472176985388034, 0.0027974919694978796, 0.004591703078506235, 0.0030302700133626485, -0.003637912035727879, 0.003420995388830795, -0.002729904580065253, 0.0033070988282894046, 0.002463747131314536, -0.002998328622502861]]}, {"units": 16, "activation": "selu", "weights": [[-0.2910393164449095, 0.1871041554274534, 0.16098301947171334, -0.4507306977122433, 0.0855420434241647, -0.0903008450647665, 0.15203766165707944, 0.16339200800611536, 0.05660933110954692, 0.04089554012304377, 0.035717294800873114, 0.16081950503154213, -0.047075109409175094, -0.28425907359752933, 0.48047380932882716, 0.08460483122095037], [0.08477812015198695, 0.045726000341786255, -0.08995846614944245, -0.26434797964956885, 0.45233041807043334, 0.10453200669664749, 0.05685959252607378, -0.03854184275285138, 0.17507268979887394, -0.3558606682167973, 0.15852997638266345, 0.21412985201912493, -0.010909238751240658, -0.12352738657136661, 0.10208259934755612, -0.35092710448598124], [-0.11633353805637464, -0.040083956980079175, 0.43854858702644933, 0.334877515549388, -0.11875457256444871, -0.028013991420895886, 0.22201007072518084, -0.6597865303640033, -0.05757374234173261, 0.22159537868046564, 0.3995160447630572, 0.35283420100950014, 0.24351876225202024, 0.33694605941471406, -0.2777039619884345, 0.12159335425106581], [-0.569380176502236, 0.2156779979551502, -0.14570777709359323, 0.26156845602354817, 0.10950163606438947, -0.45262655239610333, -0.12300220537043687, -0.771154630976957, -0.08953711477597673, -0.048827100333080395, -0.30811116497741386, 0.03291299090630391, 0.029882646426133908, -0.09229012720362094, -0.11566894294920635, -0.1633598427331241], [-0.3329428783498688, -0.015771797618354965, -0.04257225369538523, -0.21638557879826284, -0.14107763429971526, -0.21035638561775283, 0.2696602875107326, 0.25400227341142706, 0.21045213405731913, 0.4350791291998445, -0.1053598851659825, 0.11255856505785353, 0.008657414206121646, 0.0489005786050597, 0.10713327066225077, 0.18472397932723386], [-0.06959049382656873, -0.18027417123466383, 0.12985972927723166, 0.28196631515777604, -0.02167831596875914, -0.04656969680932045, 0.058273036218443874, 0.13008062887090002, -0.2539146112687762, 0.28409787983271934, 0.19656522473595733, 0.28345105355206146, 0.10369272643683025, 0.031356320859633344, -0.16817610704816005, 0.024858854015437273], [-0.12217879133532707, -0.1582690702952423, 0.1413557064893131, 0.20252262586602401, 0.020977815658579594, 0.38344690355227823, 0.16256294334010743, 0.4310808526251954, 0.2371678443644065, -0.12532885417072676, -0.125474052154524, -0.07224172140013146, -0.026772503265732793, 0.4158902620428462, 0.22548754242357583, -0.1100922668156064], [-0.10019544763442273, -0.18600396964266944, -0.16159198432746558, -0.18793920373284576, 0.09237830778117095, 0.12079756146475734, 0.04331821626910446, -0.45327087002642147, -0.20070104798263105, -0.08481465223143668, -0.31671277334490855, 0.15435650482022492, -0.11789218979283354, 0.22715537057107463, 0.19401677512692858, -0.21468178143610256], [0.4109420529172315, 0.10179559920277333, -0.3417002765365745, -0.18774128616911756, 0.7046074431129956, 0.216660449634288, -0.1629145879697429, -0.3319825703373593, -0.060828660989258126, 0.22902503383036962, -0.3438445731725344, -0.6304770052607742, -0.11288372235467338, -0.38543193634294437, 0.15242954325879027, 0.45992210845834214], [0.0841452718605229, -0.009911583331781005, 0.1342314688701323, -0.13953303679347545, -0.19248640034561457, 0.015323730260096886, -0.485202203851393, -0.29025799548388126, 0.10473565580240021, 0.17917283979319612, 0.0326484496563479, -0.07441998008937155, 0.05509811094882979, 0.2024273431381143, 0.182969523242185, 0.23010990961074343], [0.18407829203968376, 0.3744169406112984, 0.07828776249396757, -0.3540502037227991, -0.3312185999235793, -0.22258799579094465, 0.02889841212900016, -0.18653238639241698, -0.024133948443629764, -0.00545662191565233, 0.5542885380440525, -0.00266166717836328, -0.20262446214187874, -0.2603478490572423, -0.3961695954881346, -0.09808054659164776], [0.03231486998711153, -0.3581075286009508, 0.24385263759517553, -0.002109904367763416, 0.28729209605385364, -0.25043828755203723, -0.46273721717152155, -0.11654821713596748, -0.021772756565534165, 0.03375363903659025, -0.21096701089479275, 0.2028156140253126, -0.21660251307198994, -0.19082149113944707, 0.31856512679901, 0.050423474460075585], [-0.1401526999380472, -0.1122583690119164, 0.12440966393361069, 0.20276731885078958, 0.017347499389932443, -0.02197667897755399, 0.1428763834061334, 0.39941021884075634, -0.05348982916417406, 0.41757960130242966, 0.13738061096341456, 0.22189231091411346, -0.11073051983761177, -0.22824330150735622, 0.1482906664320123, -0.03314008152534467], [-0.18479936104585443, -0.3251328921980563, -0.06715129129773051, 0.11813754656165806, 0.14055840907618058, -0.17563928680211047, -0.037254367146989306, -0.019890865779669798, -0.17936971253441314, -0.05998160095365743, -0.31309350517149265, 0.1513208265294275, 0.2506729421987976, -0.4337569782036391, 0.13909142339035835, 0.17336805048955958], [-0.11254002150434618, -0.028154478983470278, -0.07271431074379037, 0.10251145329345511, 0.19376318212695523, -0.00635633653883207, 0.06519822176667721, -0.46647978139011465, -0.0620696819783155, -0.021596171854214127, 0.0623950786026756, -0.3403751257190157, -0.20850577805174678, -0.046850044432336424, 0.14411445552328278, -0.22149930717943492], [0.03803028616925059, -0.18496028911312326, 0.335981436086171, 0.16633577432860938, 0.19546120468380226, -0.34399109570056124, 0.018500263103593456, 0.0990071255777413, -0.1136222140991043, 0.11754542118849606, 0.050413180398266685, 0.19841851613531697, -0.09246966807392008, -0.1169710350523357, -0.1776070433676532, -0.11990236018883266]], "biases": [[0.0027599786140313108, -0.0031245478589952288, 0.0021857150430103674, -0.003152758869046729, 0.0031226299094015615, 0.0012528111902504824, 0.0026120476063040813, -0.0008769921167264609, 3.241028195339851e-05, -0.0022041645962319442, -0.003738513393446297, -0.003534418902353861, -0.0032961294182030734, -0.002648263898943332, 0.0034238619450929954, 0.004060759732326035]]}, {"units": 16, "activation": "selu", "weights": [[0.1084975495728697, 0.03177197333852469, 0.20400871448042843, -0.30628124657731876, 0.035851979994854316, -0.32007958155919086, -0.15786344328888785, 0.04805740362602129, 0.3033904487229938, 0.10274377767641506, 0.14143228674336117, -0.3491608438958447, 0.2303586095690331, -0.1460177763824438, 0.19205187057449838, -0.11588452504087256], [-0.13049854785746132, -0.060101375438295815, -0.09266326186823538, -0.29967936294633474, -0.01877116501086068, -0.4364105440668842, -0.4559769657301181, -0.08379511144186233, -0.44905954092758443, -0.03523160077925592, -0.03454452097720616, -0.22555869798465086, 0.1410678314638606, -0.1018057274994033, -0.3797787376081539, -0.5647052905444898], [0.012610440280569095, -0.477827137991978, 0.285289605235003, 0.5043138475673946, 0.10152708719764168, -0.09977139276567554, 0.25501625152252333, -0.13725663251488526, 0.2048348099060543, 0.2258607704446805, -0.2355392638288462, -0.1091069789856219, -0.1763049975374656, -0.18567462943116345, -0.2535134211789734, 0.3895928517947935], [0.26457889535820134, 0.15326531146812353, -0.34229301620151953, 0.17592656313826519, 0.3844395993630792, 0.10696037418227525, -0.16268037726230952, 0.19455795767526915, -0.13310041033434686, 0.2850577151855218, -0.010829286195969583, -0.004236131812191966, -0.17648496551456722, -0.2842727900606503, 0.06913827044744707, -0.24011576966275328], [-0.2045100236517572, 0.1737007901976616, 0.569655369982516, -0.04065870375009778, 0.014973107059743711, -0.5955625854996499, -0.35518245233132995, 0.27731987479640885, 0.4544758732828788, -0.2268230111720152, 0.19595091712621837, -0.10996388252387242, -0.1961743872951157, 0.12858915380913188, -0.32835896859442404, -0.042904277739559654], [-0.09285364802901297, 0.5215020784579558, -0.2787902331966789, -0.05662578265184096, 0.2847841976987917, 0.2080565890656429, -0.115798502631689, -0.20659267066305745, 0.3732366984017099, 0.15964035322325368, -0.6168568791669701, -0.006583109108553403, -0.1607752977906063, 0.36645887786709314, 0.08568966532505519, -0.23847277422696664], [-0.346513377532677, -0.050133726710252485, 0.647869413491469, 0.221574032008473, 0.03457850609829204, -0.13754829123924672, -0.24708280542971378, -0.02434740730418949, -0.04012126136766519, 0.5501294090481672, -0.004300840363888272, 0.3091413063745957, 0.11912650515760558, 0.267511355237639, 0.16239814594126425, 0.0898994941673128], [-0.12580195431142177, -0.0768181401158459, 0.009546630968042256, 0.05785711946583797, 0.2923907289268171, 0.17447557865670227, -0.18846066474406947, -0.036747420409696134, 0.1246041091802798, 0.07417414996451722, -0.4072003271728257, 0.2769111894043873, -0.023181522778900277, -0.37647005617491835, 0.005456409344562022, 0.022944453791699487], [-0.19789006044957738, 0.2304883741542287, -0.19264146660251022, 0.10740483305851514, -0.10333215557142607, 0.11044761366568659, 0.020814683813352965, 0.00647475883822364, -0.06607129951312458, -0.13243221073708772, 0.09918401998825403, 0.06409649667619298, -0.16794711204755258, -0.48796658386834046, 0.09949235761369854, 0.21272354502475663], [-0.2613913600134741, -0.6099125981647776, -0.0066180494983367226, 0.0668221580239436, 0.12246917915967072, 0.1115771994361361, 0.038889617819535524, -0.07996276135189416, 0.4900580449854414, -0.4068810985202454, -0.059465209153778655, 0.10858814887231429, -0.32868122609934525, -0.0913759955651647, -0.18727051681632254, -0.11987823750732017], [0.4006998595455734, -0.35921993338239494, 0.08951861662072945, 0.35530314926023876, -0.08259936075315058, 0.012868153116866428, -0.1967188925007857, -0.37141321247374737, -0.44359811265304044, -0.14388915196909924, 0.06982230062344144, -0.2077356783429283, 0.07839163116396111, -0.019018588189897375, 0.13110869988085586, -0.15586157284774768], [0.20180763452537617, -0.14545904465077894, -0.03604200328008484, 0.09715012991675148, 0.18648493055930848, 0.6702897210184219, 0.11302023826720813, -0.027991119812639787, 0.1930338644305096, -0.4417117580335817, 0.18794593702071513, -0.4296328594350183, -0.1794253894205972, 0.23197508263758082, 0.02635585942276548, -0.16435466636524834], [0.5731155051691511, -0.0909649822558961, -0.05428489343312437, -0.029871820210764625, -0.11846412999480829, 0.21940910499418176, -0.7416656374994457, 0.20309687575649782, -0.4471667238583136, 0.4101074245037289, 0.2833081287106554, 0.258319425050231, -0.03309170492904636, -0.2512545449994629, 0.018952161318410893, 0.22282066870745804], [0.20689774525317856, -0.07369559343125905, 0.18335896871352905, 0.35649908011018616, 0.11214013328981744, -0.11503656293684765, -0.04031311473957823, 0.03817947526248018, -0.20689909672183088, 0.041212906072748814, 0.0192408420084122, -0.1763004445775439, -0.14016123648605675, 0.3313455362855153, -0.17954332925482952, 0.49337926322773423], [-0.2733401815954107, -0.2070964474460447, 0.06885095917558834, 0.31167204277706767, 0.31416695107315823, -0.05227869502021916, 0.07619019245421882, 0.2230258358745054, 0.26537976852388406, 0.1389082098437435, -0.2763921626575663, 0.05009898658108294, 0.12833028497080956, 0.6281179906988679, 0.42537128579121264, 0.1922323518625339], [-0.17819649822347405, -0.39799551301965175, -0.3153304936233021, -0.41398452096710137, 0.010877846680954237, 0.09600587370158105, 0.5926741929442476, 0.3231263178269712, -0.08245126114200428, 0.05816445078232255, -0.42638539466832165, 0.4356070141442671, -0.17832072424754244, -0.3129558603511182, 0.5494364944275915, -0.011566078915350003]], "biases": [[-0.003085266715528711, -0.0014182792653830852, 0.0014842534523506398, -0.0032182378984237075, -0.0033775816107722285, -0.0033187228524986945, 0.0031619528284705005, 0.0037937619747889224, 0.0030272519654081175, 0.0024821994612007833, -0.00352433506597243, 0.0023328389551168973, -0.00229592916376971, 0.0021085565558843443, 0.003134487394900157, 0.003157290447908098]]}, {"units": 2, "activation": "softmax", "weights": [[0.1515901699118068, 0.5628728764728927], [0.2569571402044546, 0.29232481810798694], [-0.03590651931962773, -0.08065049111105459], [-0.0120484687551311, 0.5034599496281624], [-0.2910276361335421, 0.36130191610989554], [-0.09386867173782845, 0.51484518426753], [0.5683137316393614, 0.10090416233982055], [0.5381247152708447, -0.5768269407137782], [0.08164544413826721, -0.2887765118478216], [0.011788310783198391, -0.12444617097550958], [-0.40588193061699757, 0.4085196228948153], [-0.16788778793991463, -0.2797071282690575], [-0.3671929044639459, -0.27000347894180493], [-0.2595831970441707, -0.3423017107673146], [0.07325466917132603, -0.3732247699080025], [0.16374999370360985, -0.2979683196507269]], "biases": [[0.003700020510459707, -0.00370002051045971]]}]}