{"layers": [{"units": 24, "activation": "sigmoid", "weights": [[-25.210874402023986, -26.359720054423804, -25.40815006121459, -26.536504805641215, 22.21940004046813, -25.31566373357826, -24.662701079181396, -25.236799885047397, -24.834170973053638, -25.964414221161874, -25.537461522637035, 23.93487601504137, -23.560961764969647, 23.8399737894066, -24.807483766261093, -24.24135510524993, -26.33376500454861, -25.064290690993758, -25.100695180172934, -24.654591445014933, -24.765169280573232, -26.51101675320801, -26.288309128541098, -24.424888455269897], [-182.06473358054515, -193.30328755732353, -184.6899864809228, -194.68068940988994, 159.8936583982113, -184.28067535555618, -177.75121574103355, -182.85700399776158, -179.38574422707367, -189.99050320165895, -185.76237656676426, 175.43080192076118, -165.74046602153308, 174.6996692279221, -179.30620348824527, -173.19440142101985, -192.7760795196718, -182.12078508349737, -181.16975366929725, -176.78529571886656, -179.2782544039376, -194.28238031492918, -192.01615178588347, -175.3207967171258], [-163.82430705291918, -172.6482495278416, -165.6138828093833, -173.90714300275883, 144.19896913928815, -165.20106404001436, -160.05443908378325, -164.25444345453744, -161.3728454040007, -169.83244896081055, -166.6392155196908, 156.90732801831308, -150.82115080737424, 156.23395784909636, -161.21428974885268, -156.52696212498924, -172.3413591409335, -163.4580883946974, -163.01961486522904, -159.51504824323413, -161.104865951011, -173.6260634929986, -171.83295680115074, -158.12236934452497], [-181.2936916927324, -192.54740743331936, -183.92316263388585, -193.8978514830764, 159.2093941080097, -183.5108033286331, -176.97907057575694, -182.11062086771042, -178.61537235888298, -189.21840336156941, -184.98544165026726, 174.73178258333365, -164.9483309427383, 173.99511715103455, -178.5394253285376, -172.43357625594234, -191.98006640914141, -181.3775395102737, -180.38683946707343, -176.0181316287835, -178.52604708777227, -193.48306325197169, -191.2415888582889, -174.57883421929398], [-189.127173306108, -200.47082926192678, -191.69930597592415, -201.89455352298594, 166.16685764376382, -191.27113093455637, -184.69075716981393, -189.9097998132777, -186.33915751525674, -197.04985202624033, -192.84001457416824, 181.9303919687871, -172.67728567297078, 181.17389739028377, -186.22287135286598, -180.12225157441026, -199.93969693379307, -189.08622292966282, -188.17363324818197, -183.78174582436702, -186.18038979966767, -201.48802294155905, -199.2010497206576, -182.24860472412507], [-81.68557631788629, -86.86377968791079, -82.91088945502172, -87.49326432945708, 71.75677631994306, -82.75200070534818, -79.73725592310528, -82.05645159868044, -80.45279228332913, -85.35304774780366, -83.39974668701208, 78.89277819771225, -74.1227526054471, 78.5651083961074, -80.42749132425458, -77.60261064039958, -86.61990668255677, -81.74305902806815, -81.27994369241752, -79.24910929910448, -80.44373111442613, -87.28526184515644, -86.27046443964333, -78.59428075546596], [-62.476417157825345, -67.90584801513273, -64.06271593866109, -68.35910791137091, 54.524452980610434, -63.989924150674504, -60.876872546969466, -63.10192395396633, -61.59595354806124, -66.54729054711675, -64.40278406047712, 61.43889310331485, -54.76944103038977, 61.2013596747718, -61.66056002264684, -58.583073766047654, -67.51367560944556, -63.026630391020355, -62.139313190271245, -60.10277219738121, -61.76353943604048, -68.10993274294758, -67.0699219589573, -59.69630143072757], [-139.5809275877465, -148.64177864604432, -141.7738145608761, -149.66892025259358, 122.45658859238833, -141.50297308012767, -136.2114611007298, -140.26374627216413, -137.50404875780544, -146.01242691552238, -142.575476640599, 134.75187920942045, -126.56589989359159, 134.2234787012979, -137.48764694676072, -132.57030213556433, -148.14678172374514, -139.77572265857947, -138.86407562658445, -135.37457220173863, -137.50570603215536, -149.31476337569708, -147.4937129297939, -134.31738364457868], [-181.43074299911606, -192.76090188896708, -184.10798061757586, -194.13682190682104, 159.33308212599567, -183.70536371635592, -177.13427450656735, -182.24843671524528, -178.745260374931, -189.42044118570246, -185.16726200404796, 174.94408471250927, -165.01122548018932, 174.20415236595076, -178.68205465529564, -172.51000391573885, -192.21163821719122, -181.54459638178622, -180.54074470170534, -176.12463618276036, -178.6738077816747, -193.70377810905683, -191.4663840279135, -174.68335340135087], [-43.317352040618516, -46.54040055192172, -44.16794111030777, -46.81919392674963, 37.90667854932431, -44.12366719069248, -42.24611965041937, -43.607334211165174, -42.688105975033444, -45.659997790742246, -44.40819429027113, 42.11718736310202, -38.73953914770052, 41.95013355897627, -42.686742675060806, -40.918434739287044, -46.32773706119904, -43.5167389619686, -43.103520028155245, -41.8784215512379, -42.73806222025959, -46.68634945203384, -46.078960710115894, -41.56613302821835], [66.19204583505821, 69.38246781184128, 66.75978139736883, 69.90304514566814, -58.37581324664316, 66.56699319760342, 64.70768023759622, 66.31712784535048, 65.19643698194447, 68.30460998000484, 67.20473886077671, -63.16268506804199, 61.37298195608901, -62.87445654086795, 65.12569387490798, 63.42630429533011, 69.33596603413939, 65.93392393647117, 65.87752277246395, 64.61489110509825, 65.04145104018711, 69.82405152454542, 69.18080433282194, 63.99448226050703], [-164.98735283970908, -174.61849390916402, -167.0990969480276, -175.8549279063537, 145.0627659344777, -166.73424322906834, -161.12236369015727, -165.58552057388945, -162.52753308792236, -171.6504779265471, -168.10181042877628, 158.6093535841728, -150.91244121378853, 157.91927358934296, -162.4250671601038, -157.23459514476863, -174.18095571362835, -164.84534636055454, -164.15888908635992, -160.3747032967867, -162.38145683295025, -175.52544442715083, -173.5749608136926, -159.0393972339841], [18.002393319780133, 18.50247608251046, 17.990935091058923, 18.592199601307204, -15.79243173620958, 17.934845633401622, 17.649065442433567, 17.919102892408144, 17.719378952150073, 18.263986653153236, 18.091489551961907, -16.56556533658391, 17.425443938997063, -16.526185369145175, 17.70701619503437, 17.559385376400677, 18.47172234222511, 17.793295879694053, 17.90790908880353, 17.749387301681743, 17.63345027054039, 18.618719326102305, 18.50169162613855, 17.565230018183573], [-147.58745476939882, -156.38160950165462, -149.57644098260516, -157.49579985968714, 129.72395043767094, -149.22544837609695, -144.13051684802122, -148.1700808265358, -145.40197325655703, -153.71243030278387, -150.46442016696417, 141.995550301636, -134.77229834180005, 141.4062489638218, -145.31426141157013, -140.55315315023154, -155.99228221899182, -147.53468969527918, -146.84792210176465, -143.4273473507922, -145.28317693419584, -157.194299389419, -155.40718039587043, -142.21331788596646], [-163.32267710852102, -172.68266777688086, -165.35007772893476, -173.8980309332546, 143.6442626124028, -164.97423206903903, -159.53693275730782, -163.86666578395605, -160.89999731808314, -169.76792845268616, -166.3320533174903, 156.76945769062507, -149.69694348227253, 156.12540031566644, -160.77086686732642, -155.79525470126515, -172.27293301931883, -163.15436369938092, -162.51832609817066, -158.86944404170015, -160.71465468961864, -173.57209829237024, -171.69411353434947, -157.52354041412678], [30.697611120771402, 32.23089639887582, 30.9749801191379, 32.456338036165654, -26.99357469914819, 30.926244606944262, 30.034137683178997, 30.764625977347517, 30.246849640429016, 31.71943409456618, 31.157799182037888, -29.156855938834944, 28.573668930488772, -29.04727021848626, 30.221126973229897, 29.47119737310001, 32.158226175717914, 30.611987758355337, 30.566223340785694, 29.97466743279575, 30.20169516223718, 32.38522582830211, 32.08773445424997, 29.726192851961223], [46.87221138635539, 47.747684365801895, 46.67447114857249, 48.132557213310704, -41.66310354290881, 46.46339472058035, 45.940312256868204, 46.62744230284384, 46.105237924828984, 47.16478769451453, 46.98975531419816, -43.69926135999946, 45.22159243150869, -43.47304554099842, 45.97786838274094, 45.654497701255046, 47.87155808426039, 46.210424721586676, 46.67109137796838, 46.23374465661969, 45.838358022250254, 48.16983986316863, 47.93640964341812, 45.68870023061598], [18.081923962706277, 17.965425345939718, 17.80840759950215, 18.148033844665346, -16.251094655630418, 17.688843073219783, 17.7532722802552, 17.912982862897113, 17.757984824827385, 17.789092032444394, 17.96254392138319, -16.626387973429683, 17.893113281296397, -16.565406335493915, 17.698576044560017, 17.783507352993034, 18.10455822464065, 17.663171068698265, 18.026013672947006, 17.981100311121565, 17.60418075900142, 18.18159613417654, 18.20101846152915, 17.74028530898519], [-40.75400550936776, -44.409171593884835, -41.86200311430605, -44.70254476824515, 35.549391857221664, -41.80967737463812, -39.67886615386156, -41.180977421509674, -40.181974060629905, -43.524301059950915, -42.06538902184288, 40.20049287224081, -35.59074240867227, 40.04168666397268, -40.23117776674449, -38.154006934711816, -44.170119614433965, -41.17028379854852, -40.530332738520514, -39.16607970014624, -40.31867099871283, -44.551474823588535, -43.83470268261706, -38.91647829420509], [52.72447290405044, 55.306857684632504, 53.190464075222586, 55.739528227450364, -46.50397803357855, 53.05347851535669, 51.52889793053323, 52.81533931634122, 51.9220379912785, 54.44537039580991, 53.52609414299362, -50.35090564309058, 48.832017251412616, -50.14589418325706, 51.863205403622395, 50.5265533958235, 55.25717983477814, 52.50938824755621, 52.467290132647996, 51.432542114907775, 51.813886977685144, 55.652380035302045, 55.120624737212076, 50.983236558478126], [69.54546500694413, 72.54943606598542, 69.98542901139972, 73.09106674738456, -61.45915522793321, 69.76627749982767, 67.9965756057833, 69.58668737217758, 68.48362752422048, 71.4199621482243, 70.44613996878245, -66.14207370749679, 64.89755809823438, -65.87223455725349, 68.36103358308662, 66.80674387135258, 72.5104694082741, 69.13348685898198, 69.22798507191015, 67.99284499560916, 68.28831097913336, 73.03696935286017, 72.39594072185469, 67.31846419932866], [-217.3849010661511, -230.21749125521993, -220.2504900613154, -231.85676560278742, 191.01257079708586, -219.76772990748094, -212.32030603895515, -218.20591489713735, -214.15255451633087, -226.32004601710258, -221.55195858056928, 208.94987050824795, -198.72054018483772, 208.1007007738044, -214.034222103617, -207.13307531730956, -229.65522658935768, -217.28691967521254, -216.3077489824765, -211.33031216657017, -213.97253025728324, -231.38919141317237, -228.81303020166175, -209.5400830918448], [-188.25889690156885, -198.37455638841078, -190.33886716118855, -199.84029587301296, 165.75577402027818, -189.84704537331865, -183.94902575415827, -188.77002089255902, -185.44971648987013, -195.13329262130307, -191.49214776587075, 180.29432300069888, -173.36077449191933, 179.53286292270613, -185.29462134792422, -179.9250177406445, -198.01208625194067, -187.83934616877977, -187.36310720890546, -183.37474422078031, -185.15636321319073, -199.48894583903888, -197.4676803887088, -181.75633741313402], [-214.45392962111717, -227.1839057501979, -217.29793010645488, -228.79817056558207, 188.44666565817295, -216.8190128717119, -209.445041040475, -215.2782597800189, -211.28843144274222, -223.3070900248282, -218.61217272437386, 206.1484879889458, -196.01239462953112, 205.2926534132033, -211.14199897413997, -204.33696863250708, -226.56931749028766, -214.37039797406464, -213.40698860918096, -208.47296238173513, -211.09835896780118, -228.33625712703676, -225.7798250312287, -206.71573188092302], [-218.34901402558725, -230.91584970872398, -221.10419313170766, -232.55880561084612, 191.9525751108117, -220.56817671345433, -213.24966567040875, -219.1046785323295, -215.09634659105413, -227.03829758659356, -222.41023426608695, 209.57393662931744, -200.09172620083217, 208.7071471419267, -214.95486834548853, -208.2480974009066, -230.34780873610157, -218.12018219334786, -217.28127393309472, -212.3768769843184, -214.87492767779352, -232.1080165371528, -229.58881905364956, -210.56934315166492], [-140.24306567758353, -148.02420298274964, -141.8792577064705, -149.06872109794935, 123.38861247546716, -141.5243749031936, -136.98726458080174, -140.63075654012226, -138.1463821099917, -145.55823111126222, -142.72510247050437, 134.4135700004724, -128.8795576578625, 133.84588523040017, -138.0365014290963, -133.89863891883317, -147.65953791035565, -139.96211915313097, -139.55796263231804, -136.5136834701656, -137.96391958407764, -148.8162073665327, -147.23560660984901, -135.31560811936424], [-94.09411993357632, -100.53267631633103, -95.72102984032581, -101.19003885577912, 82.4002595093896, -95.56773814536675, -91.8290383448549, -94.63316792027459, -92.72121139204727, -98.7269331011526, -96.24881891827121, 90.9660166479493, -84.97866775348585, 90.58804205043592, -92.72181041868797, -89.22649100964034, -100.14797093266549, -94.3453306075459, -93.6057608146089, -91.16073243502733, -92.75996353380896, -100.95975974967659, -99.66547077577415, -90.47876292352737], [-135.68201137235815, -144.0846722421039, -137.63476947354314, -145.05091238489734, 119.05387941729269, -137.38075951027227, -132.50260431314305, -136.27086060924464, -133.69050487403732, -141.60203496921457, -138.43626070360904, 130.49805120074, -123.73888742489544, 129.9951851965294, -133.63501428502127, -129.14762477090002, -143.62135335012326, -135.74178906717398, -135.0302245942704, -131.7987772352175, -133.62902811859067, -144.73380573533575, -143.05640413989758, -130.7319592998621], [-195.99871597709355, -207.8084497210984, -198.69111202906495, -209.25448104607332, 172.16158912221798, -198.25415388369396, -191.41025131929686, -196.7754582830576, -193.1095407134603, -204.269624784884, -199.85396490636313, 188.47648348474837, -178.97867018122975, 187.71178759042698, -193.00814996927545, -186.69036467627757, -207.22521602782936, -195.97356491975566, -195.02107057297937, -190.47776988920273, -192.97221812649005, -208.82156365819986, -206.46844823263226, -188.90060960921144], [-107.5301825577164, -113.58098504018939, -108.828919942749, -114.37286472174237, 94.48680516516174, -108.5656470665963, -105.05328504655462, -107.85395261290707, -105.95922964076611, -111.6998144770632, -109.45829650170026, 102.92413417735074, -98.89430925817514, 102.51550362673846, -105.88271225545172, -102.723738360487, -113.3190905040134, -107.39144616109625, -107.0250130864314, -104.69589563442335, -105.82504682794553, -114.15999066178838, -112.9315197445253, -103.78097528007841], [-45.07892837913846, -47.994250106982875, -45.77278142686024, -48.30537304588141, 39.43872317705171, -45.69641640080082, -44.025552908615175, -45.318742903355236, -44.45352900232153, -47.15713793944531, -46.03376131243538, 43.278431610778526, -41.122398539593256, 43.13151579060922, -44.43055337111268, -42.92365180251214, -47.79858889500859, -45.14875483561602, -44.85313578727596, -43.77277292640011, -44.45017016044566, -48.20981403621466, -47.605548638445384, -43.431690108781915]], "biases": [[6.7215775689954675, 7.2402562638037535, 6.867513241403252, 7.241408531749965, -5.960275735939264, 6.840859380169546, 6.597273449012995, 6.747266019470087, 6.658500515896215, 7.062886433472691, 6.875346424139694, -6.526152352910722, 6.238780603033182, -6.494497034750026, 6.664497636435852, 6.447337916717543, 7.150271955236885, 6.777447390551155, 6.6965336766685795, 6.572698105388218, 6.638213675834177, 7.246227301344822, 7.1179522852409916, 6.485450787469347]]}, {"units": 24, "activation": "sigmoid", "weights": [[-1.7181521977260663, -1.5440756050942661, -2.0974861960714355, -1.1904765858868585, -0.7660598727908661, 3.080118938459868, 2.914330257250195, -1.57337310975635, -1.6455225530570907, -0.7551970869400729, 2.886522040671671, -1.3949894204011328, 1.8779995770324382, -1.2648616981920322, 2.7484689488231444, -0.4756402297489266, -3.3072893089348354, -2.379874155913771, 2.217100971855598, -1.5639376380530907, 3.110974998529872, 2.865482265178513, -1.7678543795294357, 2.186074763354363], [-0.9304516775571486, -1.997358248284707, -2.5892196850428055, -1.7600488299111257, -0.6476179748102593, 3.374499222639423, 3.207753922307024, -2.1388275586878644, -1.8905477736043101, -0.24539167004972282, 3.7536857178847667, -0.7300850266432679, 2.1977498729688656, -0.6838048207804728, 2.6362747192121474, -1.1217750582962633, -2.950621753540002, -2.143737450703794, 3.0505225510013045, -1.5841267016148857, 2.696290654228506, 2.423414079788007, -1.6843891503271615, 1.6864478161841563], [-1.0114958835869743, -2.2321035930267814, -2.5631975453913856, -1.945759470046966, -0.07006664549103475, 3.032548296041111, 2.4322041469961464, -2.3283438618788557, -1.9513975149776963, -0.10684093453955117, 2.9166391820985353, -0.44915398940581336, 2.080349745344504, -0.5275733350713401, 2.6056242345832525, -1.0297137640439107, -3.225448247564068, -2.205247849565413, 2.87595081390136, -1.5937823562232665, 2.7055634939966424, 2.8408090512968664, -1.0916873119784707, 2.272797269771733], [-1.8223281027993288, -1.940950943723543, -2.0595485796558366, -1.111346216796955, -0.5955657602540417, 3.3092954391783747, 3.0927585569737985, -2.0126575066297487, -1.990813390453626, -0.27760520532837646, 3.3059110835330583, -0.7329369140241625, 1.8472667517777515, -1.4341077110922775, 2.4817641253082163, -1.1204491822309268, -2.919958640490892, -2.7592671371048847, 3.1603262949782454, -0.8111251551563191, 3.202757643904325, 2.2235340850252623, -1.5615141827479493, 2.624263623211941], [0.8865605760369388, 1.474628531805886, 1.6129353087947071, 1.3105242897504172, 0.1761550006532483, -2.2704879845232906, -2.6965322757662777, 2.1124976126856456, 1.7157436644109287, 0.8250810175781632, -3.3318418691361535, 0.4704753943626131, -1.6682222500643498, 0.7649839351814653, -2.6055011175105625, 0.4596977981080516, 2.8032783534847154, 1.6059522232038812, -2.364718615868783, 0.9653189480810129, -2.877049781296907, -2.328337008518835, 1.0773181085328924, -1.842466832917685], [-1.2103340707594739, -2.0475278421078666, -2.3431636372673754, -1.5138347339138396, -0.09579181034173184, 3.092878995301271, 2.8384963992808507, -1.4273374230067108, -1.937876973960771, -0.49697341182331073, 3.6557231015198846, -0.7862153168886054, 1.6259827080679192, -1.4125175357277862, 1.9713812345551482, -0.954306234133752, -3.191668158243942, -2.041261328917997, 2.6635132981381906, -0.9839939250325325, 3.1001479003300796, 2.854609118869248, -1.4308454514454756, 2.419025321518909], [-1.8583688797285713, -2.3503156810783805, -2.0140655449292084, -1.1791379975403369, 0.091697791222352, 2.809909941486725, 2.632885455527314, -2.3499311702859393, -2.1679724269555196, -0.4299949532130979, 3.6423051707531116, -0.5063651298250863, 1.7285999416364757, -0.6455681055629993, 2.568195758877093, -1.2944417235943622, -2.3363055406496427, -2.5446044927691855, 2.22292266103493, -0.8787886194573, 3.0120964075819234, 2.630018674836096, -1.7156230938562598, 1.9983617892776766], [-0.9150459436043987, -2.1613748297438606, -1.947698285045682, -2.0344289984913306, -0.3754149387542581, 2.864499719809643, 2.6321143136997414, -1.6017278115123275, -2.2918986557907104, -0.7102476185813131, 3.2428216841275925, -0.553159779179726, 1.5978908841731503, -1.0860574762926383, 2.4440437633921617, -1.0649020644305844, -3.0966261011315726, -2.6836721678263418, 2.993004991911867, -0.9253285839635186, 2.935839651303726, 2.160253992816073, -1.6592419780096896, 2.5793510158198507], [-1.5237155021223083, -1.5019105948366045, -2.1174365869605687, -1.953658418363285, -0.6981455501397947, 3.248953405154141, 2.904630632274986, -1.9739071862996658, -2.055670329608829, -0.04614753490794309, 3.2768029276041557, -0.8282802125489683, 1.2759258856341296, -1.0659375599860672, 2.117050478293574, -0.7906351696594712, -2.9978971604794737, -2.434067268516864, 3.1261076168385955, -1.6818677002463307, 2.392809856589957, 2.197554793718564, -1.251422534634025, 2.6103388821745956], [-1.1895323295869162, -1.8824147726339204, -2.5293746201366973, -2.006630597341007, -0.7855995870878925, 3.233828045691372, 2.946995675733654, -1.5048568561820277, -2.1414230967797594, 0.1046428507561321, 3.3330104168648584, -1.17402137292842, 1.6147954804812754, -0.7553913166327256, 2.753976752403565, -0.8320785817954983, -3.0971403746492676, -2.6764791438806697, 2.941863482193087, -0.7616275108789397, 3.1381622364228874, 2.4115100954047857, -1.450396220825233, 2.0587233966934564], [-1.2968428270812702, -1.7966117187139534, -2.6658641103612006, -1.7375250481701756, -0.4174364624473797, 2.9056197152921417, 2.276207039205703, -1.6533312543158893, -1.785675467438093, -0.5194833342233403, 3.1351521731285485, -1.066840544205201, 1.407033106469515, -1.3997591826360933, 2.835066207316987, -0.5711649171266134, -3.0542014362781433, -2.7015669718706987, 2.6794969880177097, -1.2121282604106962, 3.220427797004491, 2.6582842677314606, -1.4553955322447523, 2.5809004438953447], [1.450972401045782, 2.1982970655287266, 1.9659805871432317, 1.7532958490544757, -0.20049413772789101, -2.6788602860973967, -2.8748574789380688, 2.0481473836735034, 2.0950102406040774, 0.7219811162943764, -3.19301934406096, 0.761127619283858, -1.3265591945171764, 1.1767155685973396, -2.2317907878625656, 0.38253404995068385, 2.412881841528025, 1.8435119304380654, -2.2322676178422642, 0.9361943804111146, -2.981978136495935, -1.8696557563612841, 1.6850416451012058, -2.191839458816376], [-1.8342357208723536, -1.89478776684843, -2.272893613017793, -1.601088560684704, 0.14559796846273035, 3.1683068603428732, 3.171096425006971, -2.105041831622426, -1.8132607095104398, -0.4212241950021245, 3.1647752664918425, -1.0641760602221628, 1.4302434884111612, -0.6678051438675134, 2.556435592824722, -1.0131066264550506, -2.360816419106375, -2.2149353984733913, 2.5161239558999666, -1.2172082995279656, 2.5101740482684156, 2.9972390115524723, -1.8704298413756881, 1.761345206455844], [1.554824226587169, 1.409983294712105, 2.4142162513154473, 1.287356750649507, 0.46050085361437254, -2.1416001726811715, -2.7955952429873743, 1.2240068381184084, 1.2280481953842926, 0.3194841757155341, -3.0446223162671457, 0.7947473851053972, -1.9190128558733248, 0.6444517465589239, -2.307020846558881, 1.2168803316291372, 2.985949058118904, 2.358054109855496, -2.623333355579346, 1.4390487444063775, -2.8101032551048517, -2.432675933545179, 1.1024143883624755, -2.3540054499019494], [-1.0826037639862989, -2.1807641031777507, -2.124204504832661, -1.6649302568819975, -0.1724644675018044, 2.5767620419880144, 2.9762236704591287, -2.2251218032067634, -1.729433985510914, -0.5939532004145968, 3.434297711937599, -1.4140679702386216, 1.4911372973298591, -0.8881125475012626, 2.482640301105879, -0.8807026734912576, -3.17098168215734, -2.191322476800737, 2.993418342544248, -0.9930956336314052, 2.9430398296471227, 2.2493158220850242, -1.0612103437785543, 2.192601393275639], [-1.3851005576068824, -1.620781991975141, -2.4121255524950813, -2.1006607401839297, -0.7715365029414025, 2.7902143982613183, 3.010850245517864, -1.771715917166881, -1.7608861457242952, -0.48144776326725325, 3.8242789778049406, -0.8827568827504105, 2.2424342829419284, -0.9374386292456531, 2.011416678764121, -0.6996437108956284, -2.7567410364340876, -1.9986619316092729, 3.1036983146158863, -0.97425212386649, 2.508444497438539, 2.0155966181310854, -1.794924084907295, 2.273584903690858], [-1.743926391689523, -2.163481361263005, -2.1453653811803006, -1.5484041827405046, -0.04478807184409002, 3.299604504285546, 2.903865422675606, -1.9387204800332558, -1.8568812642168369, -0.8264243789892782, 3.8256701055985762, -0.8281032214516755, 1.382790241417169, -1.215994714762622, 2.831628934539875, -0.7601288593076081, -2.895276524738704, -2.4457115630308937, 2.351903784500641, -1.58254961416579, 3.3397857437294602, 2.059923735774158, -1.4536887842684845, 2.5156169420842573], [-1.678702264843803, -1.9692667640665973, -2.2506517196927156, -2.0476766775693833, -0.2197154111358396, 3.2080071604860554, 2.665269736193508, -1.9789346391680767, -2.2147708003274813, -0.0037317187535645556, 3.6957529256928896, -0.507185272569177, 1.8925681360832058, -1.0732738891139708, 2.1501871892064752, -0.7460373069316996, -3.283495787371979, -1.7946593088473755, 2.356857632198779, -1.5968240441730057, 2.9288106369711766, 2.597470473323789, -1.0889158813471902, 1.7630624895214524], [-1.7073264543992885, -2.1536613661891226, -1.9908693814845013, -1.5689571322653426, -0.5422525330789635, 3.01014465221096, 3.1789519427678252, -1.7796679572611847, -1.9025012749752703, -0.6682641869533542, 2.9070003452127415, -0.6309718555121131, 1.4239309315782787, -1.2081718767702765, 2.604831433383752, -1.3275205619947954, -2.6523471986254044, -2.396313753293814, 2.6609767761546848, -1.5195020542950062, 3.3637710688331657, 2.5664142153057368, -1.3406827960986076, 1.8380611307441903], [-1.4818173291513417, -2.0660460781150696, -2.6745717073252737, -1.9694864690160303, -0.06615801999508347, 2.676525829197174, 2.6770490150570527, -1.7849268404820062, -1.680496076970346, -0.7804902572436464, 3.1641651669820767, -1.0813246024561034, 2.0078258924737553, -1.0270954028319352, 2.7452989949333753, -1.0327362255712207, -2.7391197998220154, -2.647092478128357, 2.9630494808122108, -1.2618562653245768, 2.465284735309256, 2.1687977372376013, -1.293790490683305, 2.0423360038855622], [-1.2880273515219847, -1.9952185703943317, -2.067730931878667, -2.0305635210240967, -0.09275066715623256, 2.631713202845189, 2.9638968510474575, -2.0150311288068794, -1.8027063406103725, -0.056072095868894944, 3.5330101723220757, -0.9705732939515058, 2.024833984162092, -0.716926265251929, 2.6246653679578205, -0.524062952585545, -3.0620848730883234, -2.1487712539524164, 3.0824492681940274, -0.7201422487401683, 2.7849767810182624, 1.995733087096056, -1.1370250359223097, 2.551582666198824], [-1.786205920446767, -2.3539039082065627, -2.015795290216929, -1.3744686571750997, -0.6271550141959493, 3.2286926565414804, 2.878247906703406, -1.6362833772165821, -2.359340950224998, -0.5097354390518465, 3.8729381542859396, -1.0827043278592463, 1.5720373330597037, -1.2036788355563466, 2.5864601574485757, -1.2082670794034038, -3.010196760265045, -2.429944616484331, 2.7789857378004466, -1.4709148293969485, 2.889760817407422, 2.2295915751528854, -1.6670160564758496, 2.187376021652879], [-1.812463857706658, -1.8565989310813864, -1.8529954335366947, -1.7258988404191014, -0.044797562932892256, 3.1815860990807643, 2.736212289589162, -1.6949865716753274, -2.0884477487004984, -0.690146861767592, 3.186532136567294, -1.3580041922307544, 1.7802504122162406, -1.2037166913115038, 2.3951340305770965, -1.2447862470512077, -2.974709420946033, -2.6728097138418216, 2.9276042643639486, -0.9480544865965688, 3.259611348283642, 2.747877140017937, -1.222567848566461, 2.6048667858269225], [-1.1210650742219284, -2.2358352284499854, -2.580995275679617, -1.6585294476361605, -0.5130231302402445, 2.729444318966876, 3.077624577129241, -1.7409997763436489, -1.517893710418528, -0.3181343036895915, 3.179116946381021, -0.8881925421037662, 2.1304512267473625, -0.9358603373542397, 2.0297454791988963, -0.7795962873009105, -2.4823255636626373, -2.7345360107022905, 2.429043479983172, -1.0334447783703833, 3.0348513926309404, 2.688395585489967, -1.3003141686793958, 2.2853665488896007]], "biases": [[-0.1779948061067531, -0.2516392619190204, -0.3052004766551596, -0.17935020088895998, -0.03884386523217781, 0.3536591426706663, 0.3165177779779312, -0.2636209269739313, -0.23094290662221015, -0.03181196173797081, 0.42835616949101274, -0.13798234384665287, 0.20437952486145863, -0.131928453808406, 0.27686272424877945, -0.12715218316984278, -0.34757082826798125, -0.2582564471382407, 0.34670718471001244, -0.1494793163134466, 0.3226923898416623, 0.3074089518093008, -0.1715314456744532, 0.23566486000798015]]}, {"units": 24, "activation": "sigmoid", "weights": [[-0.35170400516811645, -0.16569746593499965, 0.5380237572395492, -0.24029310599398693, -0.5255533414519352, 0.004374156542218436, -0.32225467844717876, -0.35410715285721556, -0.822760413125166, 0.09607977042006043, 0.22689800578527894, 0.6245079451156464, 0.0826901167586436, -0.29714010444802047, 0.40370091777118755, 0.8306619410864409, -0.5494032044932995, 0.49351746868703394, 0.2613833650923507, 0.3733706660824647, 0.7326003619515591, 0.21655282979085583, -0.06458295276384893, 0.12031181925743319], [-0.10593871224366617, -0.39107374987179977, -0.12849989549791316, 0.5036439931367969, -0.591686903428424, 0.08581544174313006, -0.8004579504160289, 0.36223668333650255, -0.6089249884516499, 0.2746980040911207, 0.3899445274608595, 0.16845278381875767, 0.02166062837145699, -0.37141506228534305, 0.4395147233286155, 0.5701802201480717, -0.5048518055780511, -0.11914558085277481, 0.20070882262737536, -0.36367098510918133, 0.6664285712151928, -0.5937466745554957, -0.3521351793984709, 0.032413607729246764], [0.33661462909551876, 0.05122359334477376, 0.09551474550401831, 0.6614460979680264, -0.5662297711889608, -0.568378284853997, -0.24499784622370246, -0.2761891371616159, -0.22593130561640626, 0.5040025312984738, -0.3838518252559106, 0.9131948787347673, -0.3967189838239847, -0.2169210102538358, 0.5344006302222734, 0.8125483567529657, -0.589250286272692, 0.2549749934924619, -0.3765210319515762, -0.3443680158181272, 0.42922577161875425, -0.42172318186769464, -0.7281079813074531, 0.1490134045744379], [0.18664069893754254, -0.05808593630149606, -0.05314179146251709, -0.1491606367659848, -0.6948295482778177, -0.2601783088747206, -0.5785828198223767, -0.11016905184085951, -0.6320827141693992, 0.11280054220131609, -0.27036682694145464, 0.6784169524947812, 0.19313254078226286, -0.08542726735958456, 0.619268568962085, 0.25211348422084556, -0.6237794992828177, -0.11632551108986745, 0.2799319854890359, 0.09661412635609963, 0.6710725861066408, -0.4959389544924695, -0.39153244706679163, 0.008230015242334849], [0.1492117761959197, -0.5334315947675113, 0.4310450168700577, 0.07009652392225774, 0.01888913708558078, -0.0079348811108083, -0.07266240499009159, -0.19234092203532546, -0.02585339712108014, 0.09503769419234405, 0.14196131282978608, -0.2882758382114725, 0.11384074259384867, 0.31428590577773147, 0.49368055436901503, -0.08608676510548546, -0.3039950036659737, 0.24956077443561192, 0.22146361554887692, -0.051609030480767946, 0.3207026832244188, -0.5691375105572059, -0.33593994209744515, -0.12964640189136747], [-0.06504720688555553, 0.6636551917348372, -0.1492276058867682, -0.18145149480244965, 0.7947331413003087, 0.7754109840412966, 0.6207774022101543, -0.13326991572171085, 0.41532313487041134, -0.26484587761270734, -0.27196019544237493, -0.3190540414718523, 0.26909533567577476, 0.6394978133504896, -0.4075123256502913, -1.0509260412182657, 0.5970430047422525, 0.19959607217501837, -0.18533153474004754, 0.5655391681869619, -0.3389948009230341, 0.3890078535351131, 1.042170343649117, 0.6643717191063456], [0.06280643899921773, 0.4126220049984089, 0.007543632114272082, -0.7731419684534905, 0.7787440117517279, 0.2508946689311832, 0.7590082050238074, -0.6760045490893837, 0.9898631690855301, -0.5780383026387296, -0.24036806819436812, -1.1242097433445717, -0.03812712523150881, 0.3576503048242511, -0.09245318788751541, -1.2648665637434742, 0.28445102132237615, -0.2851865359199775, -0.2866936120666332, -0.17111164607580337, -0.12274243501255551, 0.2391288334333696, 0.32791709890221704, 0.47746942237814777], [0.2605428543849525, 0.25440457511702935, 0.32583581240900306, 0.4675251274635177, -0.4913552206729746, 0.14542576128097404, -0.4801595766890674, 0.6063935218593748, -0.7338367387503579, 0.21344732432498964, -0.1519966670733464, 0.5277770909618417, 0.3350751950851524, -0.2101832853269055, 0.6483303446593346, 0.30643269213789853, -0.673598071558885, 0.02215143202466857, 0.05920784682557407, -0.017676867526702496, 0.759914907445624, -0.2919194183251401, -0.6712916797869559, -0.005562509186738609], [-0.15445716600342205, -0.23681491316223696, 0.1640082842732633, 0.7081964279153922, -0.637436691205301, -0.450853351500729, -0.3396149196466292, -0.25546406987587067, -0.5023464642085164, 0.2869115877383449, 0.42412920372898455, 0.7598233287265049, 0.11922819585283478, -0.5830850317999623, 0.13964122170330995, 0.7940858099815117, -0.5707901847682665, -0.26183645906978015, -0.010647513271501225, 0.34163956731773515, 0.12374269346273503, -0.4957744641183623, -0.490375111417512, 0.0077685704400660945], [0.2251678673183011, 0.2253756038380898, 0.4387426690204279, -0.003628116489059134, -0.19870813125164316, 0.3536726322258645, -0.6480533127377586, 0.40615659944023996, -0.5446653765975498, -0.021374963217235116, 0.3046241146973574, 0.15708382411593796, 0.14318437468563527, -0.3159030656502865, 0.09515112842262634, 0.08265579416249492, 0.29608429668425135, 0.19206904813886674, 0.13488875926979632, 0.24211144643890525, 0.6961195767294227, 0.1952406687613423, -0.16951189523153135, -0.32512093661339464], [0.29394640163516933, -0.06063794523334878, -0.08132357447913538, -0.8044838739675534, 0.6467373297986166, 0.09738385933188642, 1.078504930309363, -0.5153851426469735, 0.6799263709459089, -0.1853127993808312, 0.11665938759298508, -1.1503865800027315, -0.2089020571752841, 0.034198629967944, -1.0066933099210773, -1.1056618498126765, 0.8272931443395481, 0.296546449055255, 0.5265925980762858, 0.37880801220832405, -0.25619736393294634, 0.2867507535948906, 0.6463688101128561, 0.27706061181856884], [-0.2872943217646336, -0.39648408080418945, -0.3973848689686571, 0.35753553928977616, -0.39570583499095724, -0.05372250623225086, -0.008529231814656486, 0.5183016568390437, -0.6215818967834112, 0.2145529571260901, 0.2812893923476226, -0.0339923315098716, -0.038657057426697776, 0.19180716480765808, 0.3891599567907721, 0.7303699930818579, -0.1232358011094839, 0.5046635321412712, 0.22453892513262888, -0.34515977240565726, -0.12816469745702286, 0.22607558433678823, -0.5401630635962266, -0.4627650564600635], [0.582849572972248, 0.05412585325652076, -0.6521650944747897, -0.342401042134649, 0.21153453135631564, 0.5828325102147562, 0.5524398024873898, -0.1408294798205054, 0.20231109098384778, -0.3439135555045149, 0.32297160184162377, -0.52440244737728, 0.413306947559335, 0.0048195101425884115, -0.3243264631428135, -0.6079608639182423, 0.8696533384781043, 0.3423018397870928, 0.5153262251078483, 0.3933561792183174, -0.7860447794062577, 0.5460913140412681, 0.15004838645182125, 0.14715738228749659], [-0.41388472493584066, 0.18699088093809033, -0.048635385990937315, -0.18058647679572734, -0.6414489745526326, -0.1292293678836641, -0.18249954512176592, 0.2200362522921639, -0.35317314205064093, 0.28677170060090623, -0.3245393376993842, 0.24450283102811393, 0.015369879423800739, -0.5771646273251618, 0.06773547027851774, 0.672060963844375, -0.6997555246108939, 0.1664512008115752, 0.33102270672133305, -0.1553422214144715, 0.45703036992390683, 0.27221506672571516, 0.01833086383767336, -0.5493779549170588], [0.1873736627505641, -0.07533564294126871, 0.2840063125583317, -0.4892356040246341, 0.38849310920683827, -0.12208965432402451, 0.17422130640677846, -0.4171947728911247, 0.3108366337709382, -0.3970331441401215, -0.2545577402837835, -0.3041294402480159, 0.4832283360204083, 0.4208805141759684, -0.7617254569204721, -1.150611641056411, 0.8423045987973179, -0.40346896373143615, -0.22719938821234714, 0.491971691883048, -0.5611971244527358, 0.6127717099493433, 1.0190627940329833, 0.6208485493382563], [-0.477600686795533, -0.5679814333864516, -0.37996135575980505, -0.1774468940887318, -0.0761864431518713, -0.5872165421420323, -0.46094605854601, -0.06790203295901238, -0.42374290639975504, -0.07727024717152964, -0.11313354934113991, 0.43548161500043236, -0.024223368952931836, -0.19473516090031923, -0.17804083974635238, 0.7163342260926615, 0.14867871028641572, 0.30665837668352736, 0.39181776069812224, -0.35626552562665553, 0.7114085714150669, -0.26998496268068223, 0.18103484386796118, -0.4384441215258603], [-0.24373547804130016, -0.48154199350126325, 0.07513213316689002, -0.06997183544269987, -0.712648613268295, -0.4893278347366646, -0.997581780107287, -0.04437310648488496, -0.05738088610295422, 0.7403459317853048, 0.04205969478571543, 0.132339668307745, 0.20653374919859951, -0.3774482421518804, 0.604631529313837, 0.9535070210985139, -0.7274755714509625, -0.3180723230241148, 0.23184211374591737, -0.5954222776481504, 0.9608623920511323, -0.37520981229866635, -0.9373848111310146, -0.08084132280937167], [-0.47128244277003695, 0.25592110276303054, 0.3439474573403595, 0.6718369331084385, -0.7426422317815922, -0.672959694609465, -0.7626567670966884, -0.08077669089602951, -0.5856227987940764, 0.059527025424275, -0.17751145247483865, 0.46364474922380666, -0.1348185263244593, -0.5232887372494684, 0.633398333285168, 0.5788815636168076, 0.09551620494079047, 0.0099974078048592, -0.4593219663749387, -0.20588712275491997, -0.01661892604509089, -0.7042484240061155, -0.9170269835411718, -0.3287181352167906], [-0.26651738137026487, -0.05381004101521199, -0.6013510911565436, -0.5829977266797254, 0.13149034862140424, 0.3034024843164735, 0.7061112159357866, -0.49517983091538376, 0.8224226737700987, -0.24491647688041782, -0.18841380857971532, -0.6159195459976795, 0.332858942164303, 0.4529553089693812, -0.8806850974575013, -0.9208815110906987, 0.1152697222064156, -0.49598246127180995, -0.10757499093270423, -0.3099113942627321, -0.7983193415518953, 0.27833400731417135, 0.7923550472079927, 0.4787172545263203], [0.09910335933004327, 0.18192389541708387, 0.5501856120812063, -0.03512802429385812, -0.1969193574999221, -0.47855346879883665, -0.7313304183711535, -0.3931705643425436, -0.7620243878350735, 0.27728692547107275, -0.42003874656148993, -0.0289770091422545, -0.2783510985412181, 0.24643045953517642, 0.21147024354692784, 0.5982001918807103, 0.038158616696432564, -0.26634679484526724, -0.4106604950352218, -0.2727685458861351, 0.7246855515326672, 0.20147123596473984, -0.6058132773294266, -0.4961533964233302], [0.43774040926308455, 0.23181656978372597, -0.6233262159855174, -0.3057274718667342, 0.659198527947654, 0.6636685681055202, 1.1139274611583325, -0.3636416865260275, 0.6694607402888831, -0.32320196963321435, 0.4694180793370961, -0.687759279359337, -0.06477743280239938, -0.02743092888433043, -0.6479501014943426, -0.8519789528062717, 0.5657644467488403, -0.34923086684058785, 0.4611300487351434, 0.13678168288619436, -0.11874288271722841, 0.29034202466347625, 0.8935521516131214, 0.4789236092301599], [-0.10359511431613354, 0.7174848618681376, 0.004545201049872297, -0.2544051418424709, 0.8500375411148594, -0.20537527180693066, 0.7328426233554237, -0.20218311137175893, 0.8622298969299057, -0.7574755494321528, -0.4059282482863985, -0.7224824472524126, 0.27158576842476395, 0.5440594231346375, -0.7846528906746842, -0.1844411033993455, 0.7118668039193685, 0.4333385940785114, -0.39326317627947804, 0.2501581074383898, -0.04288445904234615, 0.5525758055336193, 0.6824411796978821, 0.7094752134876279], [0.14190296172661848, -0.34734264732137776, 0.488072937091754, -0.2058384151638189, -0.3276406670558255, -0.26435449320319343, -0.8389518209899158, 0.444537106183517, -0.7575124713020882, -0.3164631830469348, 0.03132589524821952, 0.31017697700717795, -0.19160701321695575, -0.16231477366627728, 0.15795284505736049, 0.6804184735382479, -0.3721795533707986, -0.40237031427795644, 0.23600235209773035, 0.3795191265376148, 0.761276963225161, -0.5825516183296214, -0.06942805746397804, 0.1858370006120599], [0.09359074554804561, 0.014576715452376685, -0.13345958458746937, -0.13796830070364366, 0.256965351310594, 0.22639080970613207, 0.9898600608776739, -0.21765655620759286, 0.21193017731970093, -0.09171971545446028, -0.34518998910222387, -0.674446839581402, 0.1013367733863979, 0.39387386040453226, -0.6075699322997214, -0.6309014711224242, 0.07475309008832447, -0.33799970394298917, -0.13240610575674247, -0.20063390274094112, -0.8570789547134293, 0.7439663164866709, 1.105903955144084, 0.32646444281256154]], "biases": [[0.015310053541693281, 0.06279302585727546, -0.039697137225660345, -0.06719129788015439, 0.044754035788542965, 0.056338614035848965, 0.09611254739039794, -0.03696675894112106, 0.11985605443039445, -0.06335757162602378, 2.9079080894647376e-05, -0.1493246299560045, 0.01508246771209519, 0.05244894998867046, -0.10773007654867986, -0.14565828135630005, 0.09562255716828044, -0.00913947348130518, 0.006829912577174354, 0.034530304492223274, -0.12619984366198386, 0.049093312387690324, 0.12902700250244858, 0.04384938478684948]]}, {"units": 24, "activation": "sigmoid", "weights": [[0.25539372733137805, -0.35329972198984655, 0.006785367271511394, 0.27831049005554404, -0.07737902005457947, -0.5131032974743837, 0.19693131033819952, 0.06292894943310011, 0.4070085304770701, -0.03538055608888272, -0.2721393599525379, 0.4458034453070374, 0.0557146924838677, -0.01923154874011879, -0.40617181564124427, -0.37310591466609766, 0.15129713447169496, -0.2917533814113207, 0.09918557824183273, 0.3324667595380088, -0.45404247689273225, -0.4705816042177446, -0.10473128228319287, 0.10759284761133972], [0.043345859188369244, -0.2857989354041789, -0.012937841445015594, 0.3749802991678949, 0.30537595411488705, -0.46979488310198536, 0.4896872587681989, -0.2511506568224462, 0.23064933737820206, 0.32015720947963544, -0.4966514429283896, 0.3295687754064763, 0.0035148625554403015, -0.152780177449573, 0.48414040695155586, 0.172782117368982, 0.26924561851572837, -0.42888213409566445, -0.40360111448930736, 0.06125065231356751, 0.3450279876460092, -0.22266681758978144, 0.08978534968420471, -0.22030293541192197], [0.22405686519659038, -0.2987411358023697, 0.04134339735574982, 0.15646536211561207, 0.37201922370779816, 0.44001991557137765, -0.4254658822092654, -0.2087202459964089, -0.38459674066921484, 0.0967876803468655, 0.07044953743180021, -0.0509500998589488, -0.12786078153562003, -0.08841661582092852, 0.2558510776990906, -0.47113724002728163, 0.3799933733215023, 0.3979193555060224, -0.20547809737304756, 0.1318435143523782, -0.34541914005905255, 0.1275356549147956, -0.5377487201654648, 0.43176996128221334], [0.6118625975613434, -0.3716853605139288, -0.11075178732061272, -0.47520353050981706, -0.31815501069774443, -0.0922198821977744, -0.10614143333505144, -0.41048031773051086, -0.0998329057809578, 0.27770366466479113, -0.43401385852131213, -0.4763203229655894, 0.04098941680141364, -0.09483674144271216, -0.048632516151775516, -0.2199565928564196, -0.004980822322324064, 0.2259710494571799, -0.40258306804592964, 0.14334940993849873, 0.45073971548469877, -0.14803529637234084, -0.5227105536638382, -0.18514097414137723], [0.11285915025282013, -0.04987874593049527, 0.24855130822774524, -0.43234835483249495, 0.3658395749378227, -0.5249331162628845, -0.07805818165825484, -0.505151189335284, 0.39395332665036187, 0.3644144871578931, -0.41474828821503634, 0.3290948738594228, 0.3834737805597437, -0.354172689495832, 0.44604933605117003, -0.17505045727596497, -0.22436595431909717, 0.07533040279678907, 0.48597156676372705, 0.0677840028887469, 0.13953092858307464, -0.5121965429055225, 0.6114657661647271, 0.016049943020597198], [-0.1869669164988719, 0.4512833729319587, -0.16563533385782025, 0.07176788782840257, 0.6070414139969147, -0.09438386721165484, -0.013784843914507017, -0.3213618905023421, 0.4525825890556267, -0.005528461095730835, -0.28501144109964277, -0.4127493285941606, -0.17637986809010148, 0.2014796932856897, 0.4745500066332455, -0.31470872475633993, -0.293028244227417, 0.11637430401559766, -0.2296345353590684, 0.4307097231438843, 0.10474404589074907, -0.33711478115284343, 0.40559038014634824, -0.12236786088089721], [-0.6956803606825466, 0.03301917273858361, -0.11985675972891476, -0.3946354211664707, 0.45278549757226183, 0.2843730926912696, 0.24723331884655433, -0.4837900935620196, 0.4090842197805868, 0.14571736496672624, 0.003248742935467054, 0.09782674810334234, -0.19071267418329838, -0.38059771389057284, 0.42715820742431004, -0.058452929470448334, -0.11606307359746174, 0.3249856206399123, -0.09920975076899707, 0.3567095139058402, -0.5924118319901444, -0.645050372028205, 0.202985312971285, 0.34611252409527465], [0.06866657828764001, -0.022693727923466033, -0.5020578836484536, -0.2900629261975136, -0.03561818686691958, 0.203685823574545, -0.2546013045291233, -0.27046324499829527, -0.04149574476767186, -0.3691950298586667, -0.41886386487889093, 0.28086756062466867, -0.3221251900022116, -0.21538704553155488, 0.2390318376991656, 0.1536012555048754, 0.08033273913405777, 0.01718135187692886, -0.01823302125315047, -0.29519237590506797, 0.12766867838952556, 0.48787227240500447, -0.3822963626443814, 0.0251411904317061], [-0.25163753041339415, 0.25748869916593264, -0.41398300457569226, -0.4145767690156675, 0.4309627211451565, -0.1718964101638897, 0.4549970150628636, -0.039364531326062484, -0.06531667670543236, -0.33616812008838437, -0.36984298191261944, -0.023977951925536114, 0.28782953692014407, -0.5369310182556329, -0.09697643006774792, 0.2474312004413499, -0.24365675674272386, 0.1343517602557044, 0.41614870570667983, 0.31155406257810464, -0.657456136112532, 0.049567118385476505, 0.3477221322806256, 0.19148793803826436], [0.18743958815385156, 0.005793945530978368, 0.1288501271255051, -0.19547484347915275, 0.09730858840082755, -0.1922302088367399, -0.5631403178782152, -0.05256438650487007, 0.39623448393107835, -0.014363693093196784, 0.07837293210673306, 0.32514837018400167, 0.04079591355776758, 0.5348816074316396, 0.14799177739257, -0.3122506088612658, 0.22881540048475235, -0.20159032605365976, -0.46586967784280436, -0.09774742503396852, -0.3314850190728647, 0.45335662916734404, -0.1745385458629398, -0.16846942968897247], [0.18140458114642383, 0.3226208397256123, 0.15905953498816994, -0.3101104921734239, 0.2367678162697079, -0.016483753074934295, 0.46651414640924666, 0.49110216673637636, -0.33396442392223996, -0.43040738218147784, 0.38331411278017574, -0.4585833000339643, 0.13868287925213588, 0.20737055957903613, -0.2836782055474006, -0.05383662034832028, -0.2821510049611074, 0.1970505136480015, 0.4514401237672724, -0.12238389031132126, 0.4069126005326324, -0.061809478803841036, -0.0043695064188470556, 0.48797811789748724], [0.3481220091216516, 0.36178967858432404, 0.14284252485111812, -0.044922276770129325, -0.49857078211265526, 0.24614685737432415, -0.6199127936417518, 0.2522543634572592, -0.37167665715627907, 0.4797001811207479, 0.45897458032987676, 0.4477773103330073, 0.4262409761417111, 0.5682201800089063, -0.0633190749711411, 0.32432383830577644, 0.4143631630178276, -0.08624548514715773, 0.11768877291977539, -0.11274565044878188, -0.0952673975272212, 0.20472317157577918, -0.5470797959790217, 0.2725693341836367], [0.39185469464912526, 0.15802861487231704, 0.08447450438532443, 0.009826220490209458, -0.08005908590180755, 0.296994730464843, 0.42578811642906417, -0.12838413052068676, 0.49199241353107753, 0.1127348468103863, -0.4561998583607298, -0.10312735486687498, 0.10487186822446683, -0.3110802741713367, 0.43164536016075755, 0.47228642803047166, 0.15365131909378768, 0.35113196306691363, -0.30980867652708394, -0.08714391544446069, -0.19864037656068745, -0.047107976959220754, 0.15575273439049803, -0.4371990690129901], [-0.5296877494987442, 0.08589863310484903, -0.075818589937346, 0.16385356640324783, -0.17879610787407946, -0.41563935173890565, 0.6247481968017657, 0.0951315549452977, -0.34908835192921484, 0.4699753710451964, -0.45108053222810357, 0.19683496322571403, -0.24955980339022893, -0.3779281640357263, 0.06596604834880508, -0.027385661805784133, 0.020884422356076317, 0.3068695688839164, 0.3369226120111535, 0.33635829655047006, -0.07447345972543008, 0.037313289904579765, 0.35283821567544327, -0.3648194158106803], [0.5256151803002705, 0.4208651747948171, 0.3484751088975741, -0.2506378081017145, -0.24351629859429316, 0.2017862980397761, -0.1762257266074038, 0.006675501746862567, 0.17813453158383308, 0.3449069728928554, 0.13292785832195989, 0.07318883646517774, -0.3650319547892735, 0.2432991728876715, -0.17991834196275455, -0.22019202222956938, 0.6159894647986028, 0.06312283131993823, 0.2847624191682002, 0.011039613878092696, -0.08429263570978883, 0.28017933920982163, -0.3996840011948584, -0.04123844252389125], [0.4558405137581119, 0.3648725015243263, -0.4917277871008271, -0.37419742434506326, -0.5654586379853077, -0.3280643448650181, -0.6838888029279075, 0.6011225885131517, 0.20599953662978385, 0.30090996227086025, 0.03385369318362583, 0.016179297883761927, -0.26795438306723623, 0.501705910863239, -0.08511355315771982, -0.4367151854510846, -0.2642828580326812, -0.1730530229330135, -0.13268944714604292, -0.4167105260309347, 0.5463175995735348, 0.22180437541124742, -0.44046684583902856, 0.3093484780501236], [-0.709527206508536, 0.3482849891938474, 0.17571540255242274, 0.1597411285800661, -0.05308062642275344, 0.22733406503226924, 0.2619785613299284, -0.5343797477633848, -0.2244235354418275, 0.20390988548756733, 0.005824222049614454, 0.3733184313351306, -0.2586115617008406, -0.17129109646031268, 0.42566203461656377, 0.1912964646988116, -0.618044701174025, 0.027174083440099632, 0.3162532015867337, 0.07222023438262674, -0.263931756722936, -0.38497844847532453, -0.2105995137801767, 0.3860090790393527], [-0.41548522940801236, -0.28877625272426005, 0.420781545803712, -0.10043339641238469, -0.22437220512058714, 0.07425081136681319, 0.21336989991638378, 0.42196320165838375, 0.14657636763530119, -0.23512896208649928, -0.3468204449015401, 0.15245230107303145, 0.38090868922826343, 0.4105226403010717, -0.4925026401544157, -0.13170529063335232, -0.14655170245803115, -0.042625819981972624, 0.046657840978419615, -0.4674549245273233, -0.11446541219492357, 0.336811565408878, -0.1635801815968628, 0.14549505202384957], [0.2717639332430702, 0.3890385621217676, -0.09421769280760474, -0.1497185453756809, 0.1721453608289803, -0.4390711326315166, -0.4037014954333687, 0.4685751372509664, 0.4569064122527257, 0.032923685984646185, -0.48278083088436724, -0.16234194871757837, -0.41267573449321787, -0.051528472962851006, 0.3550277677635135, -0.4085405956777591, -0.009411221887458148, 0.23122735596580482, 0.17253581465905096, 0.44398339889359345, 0.20174882097804667, -0.47079741174744516, 0.11435822943262022, 0.3472750718414583], [-0.25152360695250636, 0.29009259585749875, 0.24915833885943967, 0.14719049588955324, -0.171313595429799, 0.0028752027209375365, -0.142612868101254, -0.12856486449263013, 0.0029732895290504676, 0.2418706776910119, -0.4835367981044064, 0.46854151083531254, -0.03053965540252404, -0.1732798774492682, -0.19242863548066474, 0.38119343054797333, 0.08051826344145677, -0.532545191299786, 0.1277473065065707, 0.1247878600739093, -0.22702364816133805, 0.136580279361774, 0.17329451605758991, 0.0486263386998085], [0.4466698881445906, -0.3629199556792586, -0.28444784315232, -0.31441346036359324, -0.42048360901615583, -0.04113162062774768, -0.3898805866634397, 0.4559705445725143, 0.13067793470602682, -0.47046676637136375, 0.2831299540610085, -0.3007771314228273, 0.1964688335399213, 0.09084126760678261, 0.053156695127761236, -0.45526803784697745, 0.5465476318387432, -0.0036433884984921976, -0.15346665078092286, -0.4212716018794993, -0.11667670923347107, 0.38993650038977334, -0.15858527766616567, 0.10562717424860475], [-0.19656178836652768, 0.40651118435705624, 0.26113476353464765, -0.01745019367360313, 0.2796896386695432, 0.12884812281231883, -0.07775941802924044, -0.5754667878065415, -0.29980303169235145, 0.1962299475266096, -0.377804878731686, 0.16149884637017647, 0.5342219955577475, -0.26510168006920304, 0.07448067579622143, 0.30719517280413017, -0.4156940813478643, 0.06942451595485791, 0.05461450959246213, -0.2184236224566193, -0.6249686495236725, 0.14966945811918797, -0.10171286771308985, -0.11196148602815606], [-0.2600603666007509, 0.1671857554150369, 0.320603333048893, -0.299285843574802, -0.1879716110192898, -0.46434878235015714, 0.4801098571187995, -0.48271595330640843, 0.020433164955302806, 0.4042420922853496, -0.4922776281487923, -0.27121793374227265, 0.46950177635875384, -0.16080180575889697, -0.047778984051111015, -0.16860637363489153, -0.5830706570056038, -0.1354180399096285, -0.019916959069576516, 0.06216206964542194, -0.2521031094590397, -0.1142328069857174, 0.7065318397464493, 0.38146755819508316], [-0.6211091668756952, -0.3140662100778894, 0.05627259575710822, 0.027890070607609917, 0.4185280378096833, -0.0954340624975148, -0.01394801970632677, -0.009592535577887801, -0.48476474496355354, 0.001973718884600429, -0.2876895056100744, -0.18291152133643243, 0.23760051304930943, -0.3573784469299068, -0.10928613514470938, 0.22983840815580323, -0.15338917457879267, 0.22543687217873717, -0.239999581284939, 0.18486982611187885, -0.07428088467185609, -0.0551042670414235, -0.07657536293077646, 0.46247848871144337]], "biases": [[-0.08524094319575656, 0.004890196050327898, 0.006328897384264361, 0.021664349686389008, 0.06007633455365298, -0.02407569552793167, 0.07723644072683594, -0.04372015377772318, -0.0057569590374996656, -0.015602814110632563, -0.04822085639431658, -0.013441429031090048, 0.028139607499007357, -0.057654428778921844, 0.03964524180437105, 0.010799335452199693, -0.07566653352968025, -0.05383213533987329, 0.030791430111927594, 0.003603456533441679, -0.08223944825131724, -0.07629092243184979, 0.07739994106789144, 0.019331952417907798]]}, {"units": 2, "activation": "softmax", "weights": [[-0.5751632381282091, 0.4998445747623801], [-0.20464892018291908, -0.3451974340162126], [0.3633494238245704, 0.19005294963602318], [0.18313408359675565, -0.05069553800477331], [0.5694959219513736, -0.26854355326892654], [-0.3825726591433101, -0.1062612147890879], [0.38560946060297263, -0.6524727260811003], [-0.5892755321247577, 0.04375034344568496], [0.30044084810194516, 0.2760087799707152], [0.08853235445709574, 0.11340860397559373], [-0.3443308375684756, 0.1810959509635831], [-0.26214321813679364, -0.25468553302903996], [0.0673833126103392, -0.33756206367257213], [-0.185113035658376, 0.5756372446232805], [0.5064745419558317, -0.006881005290810869], [-0.28224409939149897, -0.5408786090342553], [-0.5093245485367085, 0.3894006085191248], [-0.26149690067095305, 0.09648932740494977], [0.0019345197174591986, -0.4309749319573212], [0.008758664569444642, -0.2671258144788607], [-0.5113999223693776, 0.3638537513133404], [-0.36893015422384373, 0.521643085443501], [0.6265854958010484, -0.4263498095159073], [0.5381081950658583, 0.28525967301089794]], "biases": [[0.10437496417380082, -0.1043749641738009]]}]}