{"layers": [{"units": 24, "activation": "sigmoid", "weights": [[-2.025907941565135, 1.7561955604448578, -1.60029032910694, -2.029297825826353, -2.2095798670719557, -1.6267976281959893, -1.843831135137246, -1.8343148249557844, -1.595120470494436, -1.567202905886799, -2.388419099014248, 2.008998568338082, -1.898164664613599, -1.6884348987230018, -2.171970225522494, -1.5185405251752704, 1.8949474969727977, -2.2313499144416733, -1.6960338177595056, -1.8666109842129763, -2.01574382598203, 2.0264512840252253, -1.6607893193496517, -1.857997252964328], [-31.89846710296515, 27.29895607823945, -24.803821885541232, -32.032984852383116, -35.172468895985716, -24.954987145400803, -28.83197463938885, -28.505289435661595, -24.41268231295553, -24.132793160873334, -38.037065616992194, 31.592098836720574, -29.765379407768027, -26.01270881626992, -34.17468298682029, -23.47323101955071, 29.918199037086698, -35.249896560104055, -26.410811890322293, -29.47434885069697, -31.89094795863079, 32.36704539895098, -25.763229808871245, -29.222767390455896], [-21.680175461588775, 18.669701503636492, -17.054114930010453, -21.73746766432239, -23.726520777373942, -17.13415755885719, -19.662145006198465, -19.469708233556084, -16.801369302332795, -16.653991451796532, -25.63741677766745, 21.419816972466464, -20.272475826078086, -17.862483471448567, -23.17198914106181, -16.16321259326968, 20.354346151470605, -23.832708899668376, -18.114124677107196, -20.08384625605497, -21.62835223553482, 21.912917512970747, -17.67767220998836, -19.86578236957023], [-31.99702590618046, 27.361309617637794, -24.837729639176644, -32.13590496005382, -35.29202936956548, -25.02931700244533, -28.90194161953517, -28.59510150314923, -24.482653720536472, -24.20320707406156, -38.17231782497227, 31.68742930314583, -29.869273319885973, -26.054964029620226, -34.285450526428576, -23.520775618272186, 29.982990530022086, -35.38256851441903, -26.473339503479636, -29.58912614925962, -31.98950982557583, 32.48481009226742, -25.8259387284314, -29.291664189920443], [-31.047255517619686, 26.58969904768712, -24.16667897239896, -31.190527463334465, -34.23248973991758, -24.31725681941629, -28.065793734386897, -27.771868771642286, -23.789276485017805, -23.534783525715323, -37.021901576576184, 30.745212714024884, -29.00382237249794, -25.337851438805817, -33.27366586074586, -22.87865158696617, 29.111150921148944, -34.3120643237874, -25.731629827221894, -28.714546232994042, -31.03932392764452, 31.536382304383196, -25.08287010805628, -28.437617105986476], [-14.889541711557507, 12.690671424399133, -11.530406154391162, -14.922371526198647, -16.41497103355823, -11.61998998786867, -13.449889451165832, -13.270728568080653, -11.373936343422816, -11.249329221216005, -17.739921219574956, 14.712878152569651, -13.876974882410352, -12.10979446932508, -15.937905413331828, -10.940658544815207, 13.928076416915276, -16.42924385403129, -12.299225379897496, -13.73695504519668, -14.87948470789992, 15.089696904775122, -12.005950806441732, -13.612197862490932], [-18.62368297444769, 15.697618812058627, -14.142961584118012, -18.747266846088454, -20.786202994549186, -14.329577872648034, -16.703831359631966, -16.451121378007333, -13.91187161973183, -13.698763284316907, -22.549635900571023, 18.4904465771442, -17.29881997775057, -14.853217754273647, -20.0127021871049, -13.341418764292643, 17.375014272494372, -20.775687468463165, -15.127899082295338, -17.14321766075099, -18.629129618781946, 19.059392981747283, -14.73410539407913, -17.00168356530604], [-25.42022902561237, 21.62451792865452, -19.54498240099818, -25.591109579301072, -28.239153476847633, -19.758577228615724, -22.89735904522723, -22.605898941213873, -19.240431376092737, -18.990847582746238, -30.594352200204398, 25.23284702903725, -23.697320003559096, -20.521479432024137, -27.30987987176211, -18.459584339917136, 23.80206963634391, -28.266615264435014, -20.855704508839693, -23.483058548184456, -25.45754412675767, 25.9406393125954, -20.330159181716848, -23.262644644365327], [-31.794578574328064, 27.164720487291547, -24.623960474521095, -31.9514269088344, -35.135500794278755, -24.811222360119753, -28.715874477687517, -28.397161892062964, -24.261061689685178, -23.99254949320553, -37.99472847021497, 31.501125259468374, -29.674941452685783, -25.821177178607698, -34.06647898778625, -23.305196597360784, 29.771391908932117, -35.19513467550876, -26.260988537341024, -29.381135194257702, -31.79292778090408, 32.31064152276993, -25.621476453290004, -29.116428143774236], [-9.597635787434237, 8.061603582438943, -7.246566148437096, -9.685379214534066, -10.744838657732991, -7.35048663326471, -8.569882783709081, -8.464879007816107, -7.132717161306211, -7.0115134014320715, -11.65975891254666, 9.542297906363983, -8.91849066918036, -7.6066550113656115, -10.306989948343867, -6.848066690199132, 8.93259145464939, -10.742475855219816, -7.754018174075091, -8.823027118712071, -9.602489481252485, 9.83913078214864, -7.55693652009531, -8.74819077085915], [8.052731656330588, -7.061540149500934, 6.531205481193355, 8.011470508211605, 8.632444099578082, 6.481546803657449, 7.372585207670416, 7.350966581359454, 6.454878236142983, 6.42526239148637, 9.252115299672367, -7.915024780567821, 7.546693593734137, 6.826226833267926, 8.53663793624006, 6.213643066778047, -7.597257553497206, 8.694584852846672, 6.884996401585012, 7.447723805516041, 8.017104217792339, -8.008235686594704, 6.719913007783866, 7.368287731328729], [-25.533460230317647, 21.897664463838794, -19.961374490098102, -25.59549210392813, -28.093093857501913, -20.0500172625007, -23.096275590144792, -22.85171136256816, -19.630697408798092, -19.43827527129655, -30.332712454957353, 25.253590901118674, -23.864661669541505, -20.912719902917924, -27.326823135104995, -18.911026175874053, 23.943697573220494, -28.14700455112379, -21.20205993125427, -23.614910515541805, -25.50464869551326, 25.8664504511876, -20.700528928060233, -23.40440434063744], [-0.8880371333886464, 0.8478974853457246, -0.8095519251418174, -0.9120156826021201, -0.9125103933066626, -0.7696667712253392, -0.850436303663746, -0.8435650323343619, -0.7976439716896958, -0.816105854282415, -0.9744564329005977, 0.883757050622467, -0.8648739914045688, -0.8443106351878942, -0.9339986472104774, -0.7750916282630159, 0.8792545743361241, -0.938957903259308, -0.8346456991860342, -0.8629231509082536, -0.8899555378565831, 0.8804711390965259, -0.8166411458461112, -0.8523160844570878], [-23.89640556775769, 20.454741230628947, -18.593200092956135, -23.962203466219403, -26.305262430824108, -18.713794183474715, -21.58301142777735, -21.355844333929436, -18.320575087593117, -18.104648794782793, -28.435934311800924, 23.62016219051017, -22.298779981533073, -19.49358179760883, -25.5854132948192, -17.62432598625804, 22.390941146535145, -26.378758553043916, -19.798962704353666, -22.079930312090717, -23.86602603175949, 24.20517204431758, -19.318695526409357, -21.870612803444192], [-24.181769378096636, 20.74330363970925, -18.874567665474117, -24.263666436271663, -26.586994612847874, -18.990667457251124, -21.889141370114856, -21.657372921497704, -18.60193716432781, -18.420664133069817, -28.75145521298245, 23.92539187920352, -22.583709796279145, -19.80272122180285, -25.9053976859626, -17.898072001940562, 22.675949727858637, -26.676170452925597, -20.077286707529357, -22.37905220656754, -24.166982991115503, 24.50133564413935, -19.57790760452933, -22.138549249301487], [3.4706780593175734, -2.9801062670041247, 2.7495231959220483, 3.4767531344551834, 3.7890864230684307, 2.7436407915585566, 3.13406058296648, 3.09473657619667, 2.6879045923492257, 2.676925038438461, 4.102263935116795, -3.421311472436595, 3.243244809592123, 2.868473985442926, 3.6977214585184406, 2.585937117395522, -3.2389956183949633, 3.800621284900426, 2.891514031416817, 3.204588750824984, 3.461758133687312, -3.4866053136683592, 2.838817919369549, 3.168085985642081], [-1.0253058229144476, 0.5296859915825782, -0.26214234518106067, -1.142719471949857, -1.545925093568293, -0.4111046535690903, -0.7005426827091509, -0.6284898675524029, -0.22243046457637788, -0.1401051747944684, -1.8094932348063348, 1.108520576033391, -0.8364691464732219, -0.29420378144011167, -1.2099268395378129, -0.1595792797433304, 0.8524739678203485, -1.4760802589318518, -0.3850776694854528, -0.8594879404070745, -1.0640405091628793, 1.3056204463308358, -0.36175875193351364, -0.9034919556516529], [-0.8075287834098627, 0.3489036186179552, -0.09290949214779202, -0.9334388218316095, -1.3472195840780639, -0.23801835953840042, -0.5269043477552526, -0.4304986444233706, -0.07849009838426126, 0.025976437717139703, -1.5731606827181774, 0.8794499084115676, -0.6674918341112586, -0.1274718074171775, -1.0069410630246416, -0.005199460008962351, 0.6487914586621093, -1.2383574098804147, -0.1911696610418384, -0.6677620500831225, -0.8776979073043749, 1.0825382736911486, -0.19990551194459383, -0.6930052528711406], [-12.05054063407702, 10.107869348179666, -9.09128168426615, -12.164368191773406, -13.52871280433052, -9.234829635464973, -10.77892866499777, -10.628315242263005, -8.944542658592686, -8.789639821627546, -14.67890995801915, 11.96420328723922, -11.193670975380247, -9.539393536823367, -13.001528896534369, -8.5667113197573, 11.218947599162686, -13.507060471942868, -9.724235821269618, -11.109418094330874, -12.083957110473804, 12.373590454115044, -9.491505493614005, -11.011348410354262], [6.898848690785955, -6.075461068533203, 5.635485140566822, 6.863509197830797, 7.391005207957273, 5.622261376223218, 6.351519825710048, 6.33150184508059, 5.580129334844557, 5.581737358036206, 7.907593808483713, -6.778574205313731, 6.4966036820920525, 5.901792988190997, 7.3300684261624935, 5.403783855347099, -6.5086210490527625, 7.428458232054965, 5.962124947897292, 6.425692401199327, 6.866147985293148, -6.861435906386003, 5.8413864364674835, 6.362655062572506], [7.147080847400968, -6.43877925852669, 6.038559491283239, 7.106128711234682, 7.5012946392190125, 5.953580171365389, 6.6707173180398645, 6.660148319074193, 5.975216752977451, 5.958684203969824, 8.010923212931951, -7.012736323062561, 6.789010307874715, 6.306234255530904, 7.554934847481789, 5.795168527127778, -6.8413602030345215, 7.610138465780308, 6.348635127368957, 6.693699121641952, 7.101789462322221, -7.016875735509655, 6.203619402723498, 6.590032326526422], [-34.59238989333328, 29.630845271183876, -26.946507936886757, -34.73777599085299, -38.121337599338865, -27.10953836854715, -31.28069607725379, -30.96110443189987, -26.527988046949517, -26.254134137796317, -41.21689250786728, 34.25154978791479, -32.29144406969714, -28.219555889131136, -37.06644122278384, -25.501857494824257, 32.442806518455036, -38.20336149914509, -28.656757439416747, -31.995558141257124, -34.595575971006916, 35.079598452259205, -27.951755781956848, -31.692857699234917], [-24.85856423670294, 21.428358219969088, -19.592220473413835, -24.88879452234828, -27.171953173776217, -19.646228550598515, -22.55597477853598, -22.366261623160163, -19.319333394419242, -19.125427666036913, -29.337970072312327, 24.541419447898377, -23.254486298738637, -20.534662987283095, -26.54105812009451, -18.57858518678728, 23.333744536138614, -27.275139288786843, -20.794199960138126, -23.03182414154138, -24.82206559733074, 25.0711333241138, -20.315291235898336, -22.79018475026614], [-34.312675577317286, 29.37151372637641, -26.687417723495134, -34.45678877267155, -37.83859344523354, -26.84522558914254, -31.020641186234837, -30.67088773657672, -26.279780133487225, -25.981124541468425, -40.88652229663054, 33.981022530776045, -32.02620293411423, -27.98371801864832, -36.76538662759771, -25.245050367148878, 32.16308515644878, -37.91705468350086, -28.423913608225057, -31.72720793217123, -34.29681978394538, 34.79442009747241, -27.70458490872083, -31.419561441842447], [-32.80366583616539, 28.106500540636837, -25.536086557907844, -32.91018519552348, -36.11916876544563, -25.707181794770406, -29.65294012208702, -29.334044394559204, -25.169739428067604, -24.893082496587784, -39.047502208000985, 32.45988333391877, -30.613692726437232, -26.766640292285807, -35.1276953564378, -24.207537873266908, 30.75519945248526, -36.18937379548164, -27.194803872433063, -30.32945445094709, -32.77751437132593, 33.24790086436944, -26.520666738392094, -30.033349441535673], [-19.196337731640657, 16.458304574599545, -15.00975308970581, -19.253043461072238, -21.102026140608572, -15.088752858441365, -17.395853183857856, -17.205017988986686, -14.788932140663501, -14.630921528814078, -22.792189642869598, 18.998017804181632, -17.950329392166104, -15.721065027863771, -20.52311014935733, -14.217195847074446, 17.99512490853921, -21.160205406071817, -15.97574079564956, -17.753992187877284, -19.183516938295092, 19.434457008300722, -15.568577021592128, -17.57537095817441], [-18.623869637872136, 15.705669254606542, -14.174892056792455, -18.752640494039316, -20.77788761341657, -14.359911322646246, -16.686514841844986, -16.472797590821727, -13.932520737771167, -13.741660389761337, -22.538803784937286, 18.472318528726465, -17.316506647406282, -14.861529156807713, -20.01763380975367, -13.371039041219461, 17.39062324102093, -20.761942371346827, -15.150618975070996, -17.164757932417487, -18.633434150818534, 19.037964038845782, -14.772589397508394, -17.027925264132996], [-21.956387853712247, 18.61450389461937, -16.79881104897003, -22.113001179748835, -24.441539897605757, -17.002758516222386, -19.751029717318787, -19.497990529097862, -16.53178746459656, -16.317987508117188, -26.481904515899558, 21.78359171300521, -20.442424240693928, -17.635441820402786, -23.579896465253015, -15.849487546728396, 20.512361258819407, -24.445886056088412, -17.946945145661306, -20.278038345605676, -21.99828583208563, 22.424084722302855, -17.49371531136538, -20.096936995504105], [-31.49302586595347, 26.85899708718814, -24.36999535628389, -31.648339578821055, -34.82957443540261, -24.558136044759763, -28.40933892168114, -28.09203876712085, -23.968353196428478, -23.68833064919247, -37.669907376317305, 31.20335098848293, -29.37010476924788, -25.541502680862607, -33.7471736213914, -23.04770280764455, 29.491052899165442, -34.87791179425905, -25.956696260989776, -29.090555348869387, -31.4765253128021, 32.009494039120504, -25.318039552118304, -28.82140841951192], [-13.89755877372509, 11.755036859398071, -10.610389651104327, -13.963495657323335, -15.448929942058463, -10.74625109766637, -12.504669171337772, -12.322958091254904, -10.45347488381134, -10.306179622042094, -16.75185126268207, 13.77581233881799, -12.918777193884463, -11.14003050226754, -14.887476268739901, -10.021979434379935, 12.979967690193957, -15.435929564223914, -11.344684523716962, -12.805761113271103, -13.885755078863507, 14.17226306844515, -11.060070520382695, -12.6957441074993], [-6.81565332456628, 5.640929096630952, -5.011382290722379, -6.897981742407241, -7.785598321236995, -5.103584164481124, -6.041706789104233, -5.937280946235394, -4.899054230476878, -4.792985554055061, -8.477569072697294, 6.80403229334351, -6.317224360085977, -5.257602520167085, -7.384082317657232, -4.697072952245872, 6.338050579892256, -7.736756172785757, -5.377372981969268, -6.261486181182872, -6.84333890165401, 7.079064428908385, -5.243977286973403, -6.205531161130289]], "biases": [[1.101284314279492, -0.985187945560864, 0.9376521057146386, 1.1111365418799783, 1.2541490258923358, 0.9294904546049163, 1.035664036500182, 1.0162788249382753, 0.9467448203924662, 0.9434479777755163, 1.3297098176584805, -1.1098869688461797, 1.0743564651147814, 0.9669821478436392, 1.1732568623441866, 0.9260372689982298, -1.0721756604059347, 1.2373033226845909, 0.9847143615004212, 1.0491324966235411, 1.1096138617768534, -1.1240104534087498, 0.9605918297003547, 1.0500281890491445]]}, {"units": 24, "activation": "sigmoid", "weights": [[1.347775102462022, 0.6472724601743753, -1.028769936823931, 1.6194196598626087, 1.2623460663211066, -1.0031687063658916, 1.4599064654175238, 1.0271349122836249, -2.2190785583021, 1.1684826995517654, -1.058731044789156, 0.256055136285438, 1.0856105317677396, 1.1370946477030737, 0.3904476359936647, 1.5861057813622228, 0.9127228314097632, 1.147876269280412, -0.14013835519643647, -0.672369172779337, -0.39963507768128304, -0.593597207384056, 1.4347492230833696, -1.6144753885235226], [-1.176447267702652, -1.1473008361859436, 0.9242590990779207, -1.879275047763042, -1.131024527666502, 0.4274238820280771, -0.6156023341365455, -1.566420564987434, 1.7168714404926915, -0.5745866980311349, 0.35687680603392474, 0.2894780979220749, -1.3232219336808273, -0.6488485189082399, -0.7516484967758597, -1.2812282374772077, -0.41565889474532625, -0.819949916732938, 0.8798469659368717, 0.5868067010163929, 0.5905876504134815, 0.7123779262953354, -1.2888048866494817, 1.4236541396223055], [0.7901880791199908, 0.33836224083869043, -1.0271078413000767, 1.6215687397908753, 0.9320054901630258, -0.073140610194149, 0.6895393477359707, 0.9509145689959638, -1.8547289967707223, 1.0017642258024277, -1.1052685404459919, -0.362487848924446, 1.41902833784459, 1.0383459499238148, 0.47486080213208426, 1.632287831388753, 0.4271349860867785, 1.1040936476245171, -0.8653882972798697, -1.1764441662953238, -0.4503510861269381, -0.2560606490276293, 0.9416522348890379, -1.4398953700728718], [1.303874108187978, 1.128933114027662, -1.148255948269203, 1.3119408180078622, 1.4601242577737514, -0.4231345963187866, 1.641277457784479, 1.1259299296773444, -2.116504917359959, 1.291203627888753, -0.47768504918954446, -0.17713457344173036, 0.9925082704789359, 0.29721980123385167, 0.33987615576839175, 1.9028335805733336, 0.5444432367794668, 0.9612451854479992, -0.33764297447899166, -0.5931980331234582, -1.0012381331643603, -0.2869473453863597, 1.3535132265004273, -1.8748690912598538], [0.4301401052577992, 1.182044272425881, -0.757682385280591, 2.0843171098223485, 1.0742839410507499, -0.7437410504254398, 1.2477284592539444, 1.394453581481339, -2.228645198538049, 1.5469542132206233, -0.5663934823690188, -0.05965837584383997, 1.1247209868328958, 0.8175233341514276, 0.5158357883670025, 2.290517287888918, 0.49129596228797984, 0.8598406967572385, -0.9020536570305517, -0.7713834831812139, -1.2469018893662174, -0.8842574988336103, 0.5719752862667247, -1.6378781102770987], [1.0813346587243242, 1.0071354933760404, -0.7958073720739348, 2.031589824056313, 1.4419386204866125, -0.32233104338649665, 1.7000525274391374, 1.0369450736050077, -1.292259182708491, 0.7970083553632351, -0.222090212027902, -0.05701668623791814, 0.9246687305047244, 0.3702698977873196, 0.2693610521358791, 2.170689586762768, 0.5508611271121414, 0.7357865332586248, -0.9554957445323946, -0.21164627000815592, -0.6551367301095014, -0.13582529936116314, 0.9887603434932349, -1.1104762634779302], [1.1659158773694733, 1.230575709271827, -0.7252067558157057, 1.3176814068267693, 0.7524149289323029, -1.0334196925360835, 1.5783056257800923, 1.3961931368200893, -1.5214781613587254, 0.7650356832142527, -0.6247311568721776, 0.19670140913521358, 0.7595698313569268, 0.9904963710998876, 0.40152473837441593, 2.1714205850354, 0.775933286947983, 1.2836245954655645, -0.6181611568119032, -0.760484989139637, -0.9846110724897802, -0.45917523920943326, 1.284847963076602, -1.3061134448443048], [0.41596088752933613, 1.2204807433763516, -0.4950839854358467, 1.894227830251752, 0.6844044428128517, -0.09914953857458268, 1.152294716371704, 1.1376983061851473, -1.5498821525951034, 1.4390002265541701, -0.8292827147242857, -0.022800976198157432, 1.2554477625361782, 0.9514856360820387, 1.0802698685835341, 1.5122737872013388, 0.8471095960247954, 0.9864324080348249, -0.7112712696936971, -1.1014858275239692, -0.42725255613567037, -0.9591805629891248, 1.4479768780526738, -1.627388338112063], [1.1277319891654045, 0.6035893746121074, -0.82622885736165, 1.7513219128846869, 0.9597392511686144, -0.33320494565624004, 0.8418380842760257, 1.2212627403471636, -1.7411859535431702, 0.799447005299577, -0.4553265274040855, -0.4781784036295339, 1.2001826965147007, 1.1124623026089286, 1.095456569089797, 1.3049345432623833, 0.14188071760594292, 0.5597819459186376, -0.2891470046095308, -0.41525967495904637, -1.2995591135841154, -0.3366209001029941, 1.1898448499935854, -1.5976769270858573], [0.8917253776299227, 1.1610789566574817, -0.6188938419979261, 1.4087128837871703, 0.8722102469497011, -0.5058064516425004, 0.8641920795522442, 1.0324252161080525, -1.4831404886755517, 0.5567063770133112, -1.0860359384618743, -0.3346960919989168, 1.167495527800772, 1.029285725819786, 1.0973973896733165, 1.8781474886702523, 0.9465941695788974, 0.5395359979768021, -1.0543305609863083, -1.0612616192269773, -0.40677640135579696, -1.021244771143083, 0.9006587212191224, -1.0924065327183297], [1.132927346582618, 0.42893585330146694, -0.9815412439544726, 1.8041659468935303, 1.527860305978953, -0.9642688532660053, 1.2339265897120282, 1.7638454524294356, -1.8257931423733416, 1.2194041023505047, -1.0205111159239297, -0.38723821092614796, 1.464220846797036, 0.6019223138746786, 1.0001067020846595, 2.4446879594576107, 0.38754736930102024, 0.906957813927288, -0.706576725175914, -1.1768625504395522, -1.0589132979008404, -0.8721419411547212, 1.1749405978765133, -1.5078066213417445], [-1.1794156838554717, -1.130988570235109, 1.224276330212638, -1.5720360620561842, -0.9177466450285997, 0.723086944222861, -1.1216827348850016, -1.1959832078142607, 1.9150168949382826, -1.4801864206894995, 0.843785923232711, -0.2978294485260007, -0.9343407986339135, -0.43361193155129485, -0.6003118633404212, -2.1942781524846273, -0.5789765519817024, -1.0645761695459834, 0.2111527397125381, 0.27299746310568473, 1.2238471113621723, 0.8640601577836639, -0.5886847051577354, 1.4346700952144973], [0.8244006678055872, 1.22645892751543, -0.8392992306532863, 1.3813980635254626, 1.1250653198671854, -0.6571776948653593, 1.3074040877709758, 1.6327194706933306, -1.3359760098408964, 1.2278259139393117, -0.7262842106210801, -0.2711875816521899, 1.1128868448126508, 0.2523407734975769, 1.1726968615457178, 2.222861292638319, 0.8733542742692925, 0.32648593310213464, -0.7822067578100119, -0.6393261357753516, -1.0154243908009208, -0.786647215447468, 0.9928131755581818, -1.5488991944575503], [1.3358313180254078, 0.9772126053791964, -1.1019544646439199, 1.2701326112277458, 1.4114916348481572, -0.6312129696613835, 1.4664862921540849, 0.8332958399642605, -1.2830126772271395, 0.9503583414052282, -0.34892393795718524, -0.10393015017241995, 0.6453859083867317, 0.9947931734094018, 0.2737761394192495, 1.6361575681865796, 0.7167378495163378, 1.2086678852338606, -0.6801174170775327, -0.5490467147454579, -0.7408474468690491, -0.8497757688101879, 1.3738681041072571, -1.655867503423635], [0.6797137609072451, 1.023187050480966, -1.2118782882439116, 1.945608705867905, 1.3990347602994995, -0.5077750476233083, 1.689806073674421, 1.6386845218386432, -1.4646669041731293, 0.6283666224684743, -0.9999094635349302, -0.6923488426462728, 1.2371771411318366, 1.180721808729346, 0.7011742075216622, 1.5212870635767783, 1.0200045583422, 1.2851854420633582, -0.2257716190899523, -1.1609774898921155, -0.3758590903809343, -0.8984937276393801, 1.2905149693237015, -1.9796173052240285], [1.1889700100610867, 0.7424016632714415, -0.7472396414699147, 1.9926715261850414, 0.850907901027577, -0.33860343759931955, 1.549805060156436, 1.0422170130415398, -1.2053270214825194, 0.8090108791766176, -1.0451946786956734, -0.15002546949671372, 1.302577219762978, 0.2646235982334969, 0.6723157752128766, 1.2315967631162292, 0.7759991737731543, 0.5808882684756885, -0.3133242392868122, -0.7286812019930589, -0.9341853952621839, -0.1651233462949419, 0.6042725351201038, -1.824687479338212], [-0.5967593329266083, -0.39300022343541985, 1.2146112758199281, -1.7319143473150433, -0.9490281460650042, 1.0270779582565728, -1.1070211061716329, -1.1659804229657054, 1.5883407246142978, -1.4682878917433273, 0.7826829152578103, 0.48184177159863206, -0.5231573493068828, -1.0544796372747791, -0.5677781632521507, -1.9194417707048237, -0.5810700634086322, -0.7670004767012603, 0.6865703281698047, 1.170397512710503, 0.8768351991641349, 0.7244077918425972, -1.4161790059549106, 1.260383709114673], [0.8349606043838123, 0.8333941106849923, -1.2257933783612067, 2.023585808633309, 0.9499129099291406, -0.5212154811735171, 1.3954852505117346, 1.0400846634840737, -1.9200350948400855, 0.8545159200022577, -1.2328826783273334, -0.2944826986255715, 1.3223682850583713, 0.27828288766687803, 0.9001023590162714, 1.8737779683467521, 0.5220319037368695, 1.0347856233851036, -1.1113231671923074, -1.1236503008182166, -1.325515879277209, -0.19915918101511, 1.4844575029587432, -1.918587900586747], [0.67285100006968, 1.1907862970877279, -0.8898603548441992, 1.3981596297288397, 1.0152486153067475, -0.8240660237139481, 1.6746752355379948, 1.6165332898249138, -1.1269269727091458, 0.7347301693720709, -0.397671231477718, 0.27791582611468524, 1.3723091270016465, 0.3671084173890634, 0.5325254327282353, 1.214993059333264, 0.9481700679821732, 0.679642385558493, -0.8123564881034951, -1.0454884902293176, -1.032264490072299, -0.3265041949728953, 1.3698894375402733, -1.888692296463872], [1.1095011999118918, 1.1668614877885441, -1.0164338652241294, 1.818680938426644, 0.7793559032429359, -0.21979681112177876, 1.6065837392201443, 1.3274579963475432, -1.8804269731218177, 0.8725322071499813, -0.5493627400632698, -0.2957392050819994, 1.4504593935044445, 0.5099209378711154, 0.26999504876855634, 1.6591144592978155, 0.11724403966420155, 0.35142113789347607, -1.082646730571968, -0.7325159861224215, -0.4438290065199922, -0.6949867462614667, 0.8860462881185487, -2.111680453581819], [1.3173384725283288, 0.9239232216986044, -0.46409088648673613, 1.532378260523275, 1.3989136514689768, -0.24240552104858534, 0.9163801312729914, 1.6280904447943256, -2.051451824746086, 0.8858664416971743, -0.9761178658334727, -0.12787038934219205, 1.1024578313356987, 0.4228046684345264, 0.9596255704830399, 1.8367170002548576, 0.6479248349591342, 0.7784285673652004, -0.8312176346564885, -1.0116494715325623, -0.652598933246636, -0.8233773892858404, 1.4312668406214761, -1.757358939831544], [-1.1470861096241438, -0.8171385457980858, 0.5779814792253992, -1.6388420317750807, -1.3812954912986033, 0.26740924407469513, -1.2989259412554348, -1.689298737304974, 1.5584994546949185, -0.8908031139239992, 0.4482439867383614, 0.12564881606560674, -1.4055202497108439, -1.0429847086881834, -0.7063942008624675, -2.2559260717538443, -0.3830090852582883, -1.1829291881020851, 0.4261291397920694, 0.6806145761785466, 0.5756971388812243, 0.05102322884070591, -0.9199767217201826, 1.7432453259146896], [0.8801607210308015, 1.155850861998303, -0.8487272444211683, 1.9298701272101528, 1.151525815420779, -0.5841801508445982, 0.7642285229620108, 1.2232720534696475, -1.6394170203061253, 1.3730278407769112, -0.5972474494562419, -0.4980725380550733, 1.17570652202206, 0.8004575122645274, 0.603884957616003, 1.5729703968283004, 0.24259636031427761, 0.46523864286514466, -0.7763161436253546, -0.22808078233618087, -1.0490044209334226, -0.2632954002906739, 1.4223260241853801, -1.1621764279331255], [0.49054065296462585, 0.5650645903754072, -0.7429812283692176, 1.8716569737996493, 1.44915670749417, -0.33176815739449295, 0.7984161525075213, 1.7035087939806288, -1.9629438021166934, 1.4898951955259048, -0.24067009617527768, -0.2163521165035548, 0.618790455998668, 1.0805900924408358, 0.9671157728743891, 2.097918287118305, 0.3200173243336878, 0.4592903048746199, -0.4017193095007507, -0.5850665684139168, -0.8051865655841132, -0.5113557050644207, 1.4710791720729763, -1.4459386355674975]], "biases": [[0.04337643211807575, 0.03846395314904477, -0.03276160229575985, 0.13657147499645902, 0.058561858645691384, -0.061035853829989245, 0.1203628129554013, 0.0992199210058781, -0.15238638128362159, 0.06325081895879497, -0.06448951907216949, -0.030723573793264083, 0.048400707081073906, 0.04561854022507666, 0.06622736318279518, 0.18163446767547067, 0.03563218990049481, 0.03637778282672257, -0.04242962227457055, -0.04295573088601532, -0.07949299007150108, -0.03190851048853357, 0.059048751387430105, -0.15027228171581028]]}, {"units": 24, "activation": "sigmoid", "weights": [[-0.30955792478861943, 0.324965218032988, 0.5861934188085955, -0.30860267890960397, 0.4737412839158091, 0.3492002385539942, 0.6437988788684362, 0.4502142715937161, 0.07554610106834071, -0.15429577058886135, 0.3256999294902906, -0.191638592513719, -0.46189520867867284, -0.3072166705341953, -0.12723759315862118, -0.05057517978746177, 0.416610270882012, -0.12365695518668589, 0.25309989638516966, 0.6924402156865278, -0.43674110591133725, -0.14686733576385855, -0.1854960592658952, 0.07901417048819659], [-0.4403559351207804, 0.03561238967391938, -0.3470566659447094, -0.29506761975818585, -0.02168079628570151, 0.1947281141084608, 0.6123731729492864, -0.12890002520472482, -0.6386941238848657, 0.3203874931761711, 0.24627832703224128, 0.49817543320644736, -0.7055929160791471, 0.35048271350648574, -0.05115392430748255, -0.3820595864679093, -0.15736168323415825, -0.5787513734799629, 0.20244193958937284, 0.7753748664813229, -0.17371523792574434, -0.0038073405885238874, 0.08227680367193936, -0.4063730932738377], [0.595332731051207, -0.5870400864641926, -0.5742996136708526, 0.49808394529789063, -0.16641553885966068, 0.3616647368938562, -0.4493173572869239, -0.4428897146017731, 0.5292830241140706, -0.22458946764390372, -0.5315908426265512, -0.26775662291389657, -0.10059270342566899, 0.6257990174758983, 0.1266191066032816, 0.3364901172228267, -0.45858676119298214, 0.40501020832100537, -0.36788813249951985, 0.1735010557833317, 0.15296907847460087, 0.0552443222002646, -0.12370738484016769, 0.27900723044550607], [-0.6506137031421434, 0.2904050989784591, -0.22660568241325876, -0.2585110329278024, 0.5708626433584351, -0.06887762556355209, 0.17511806643179556, 0.17380791977394666, -0.8036489576454525, -0.3181665834249176, 0.29726951332732393, 0.6891240176165647, -0.20060470030527824, -0.1590127206766051, 0.5119406274207545, -0.48906052421696233, 0.743371087223987, -0.517098095590281, 0.45293386255331675, 0.43967694393127715, -0.3360966772683857, -0.6508236970578808, 0.04283166821322388, -0.46606698763812593], [-0.057883574071514295, 0.42637789257742714, 0.26188043726378274, 0.23020074638222895, 0.5882991569542165, 0.4549947333492469, -0.06928289197240732, 0.7335215961026554, -0.8749647899049128, 0.18061859313048081, -0.2973954618777805, 0.6136342354448951, -0.5638237492805921, -0.2399699872702256, 0.18229391565945482, -0.512988272713873, -0.2015039222606204, -0.3139746971769473, 0.36157664704452475, 0.36800105613703127, -0.18544323447085964, -0.19541122751930048, -0.3972038353700196, -0.4047553428235321], [-0.022469842009510244, -0.4142699548076279, 0.11366270555797225, 0.3752440837902427, 0.3880682411991063, -0.5258470008594529, 0.3222182952743758, -0.012205702953585296, 0.3269986036839592, 0.06173893475872774, -0.22659217672444953, -0.5766534761976977, -0.360549863484743, 0.26083781867189815, -0.24120863044541616, -0.3723681928242373, -0.4323082623051174, 0.6109820631091536, 0.042326442819916966, -0.5680335874216319, 0.14096729021452123, 0.6390527527889502, -0.2928848864108917, -0.34589300708566767], [-0.28198277251374404, 0.5136893038650697, 0.3929439242325288, 0.29400045756976995, 0.10373549107493137, 0.26377319825842077, -0.09045027544391969, 0.03940165090783098, -0.7012986526377033, -0.34722189518075774, -0.18574166167063733, 0.57919385210068, -0.6012634177685768, -0.38318355929922693, 0.13937971935148366, -0.3426364906858918, 0.5124537438487542, -0.030896263790428456, 0.3769075205366735, 0.3430222540320807, 0.01431519845465415, -0.9354344567765711, -0.2514363427402402, 0.013750838009843327], [-0.7200835151418922, 0.034262284890377595, 0.3506532643629225, 0.18071589227526938, 0.0970433995107, -0.06992294530128106, 0.07549618905403015, 0.2670804544041295, -0.7799654775418665, -0.5082222242567908, -0.06043706235635954, 0.7436407210527949, -0.018601065866100174, 0.12290032593806142, 0.46424098022091764, -0.07092105166230099, 0.646199327078157, -0.5567937091288965, -0.05358863568060917, 0.057752557706126834, -0.37325598028959445, -0.9054563878278075, -0.019231755533512734, -0.14273598223800907], [0.736465123137433, -0.5549622857383477, 0.36285361593016197, 0.31664600067180965, -0.5801922328070456, -0.39165445956183537, -0.23922222196808396, -0.760164594293262, 0.5180827540980597, -0.40172087825244396, 0.3422630579979337, 0.13528161625251092, 0.5125954455942301, 0.4427765831532267, -0.5016538285709671, -0.3435771817920462, -0.5348227270814024, 0.31967409272113423, -0.6220290100779279, -0.6853108110289376, 0.7025372924239139, 0.337579894991707, -0.5298158682839744, -0.43830571654313194], [0.03604487990835604, -0.14069736291579724, 0.5242485897114905, -0.2659747648683681, 0.3776079591289613, 0.44792799956600526, 0.5268962267361291, -0.018708151987548, 0.09534971482548504, 0.4449360791518161, -0.34786183231001333, 0.41853224101655967, -0.3187157107192621, -0.5106245689228872, 0.5510749200462447, -0.501403980727576, 0.0076086074555526085, -0.19380863837726806, 0.43090845012254814, 0.7932866250811921, -0.6018652635066994, -0.6463089089363251, 0.048756284513911424, -0.4160204769841227], [0.3608230548189193, -0.017850331422056, -0.5046684376748487, -0.4234453641218717, -0.3462448552357695, -0.15846146268248032, 0.18709124163348967, -0.5917423547870976, 0.4680301433006697, 0.08570541908836565, -0.3310790937961425, -0.2746393564917826, 0.05207649915085896, 0.3555020987420592, 0.007708311614664679, -0.12411156188742893, -0.12383109347049666, 0.4893540218514619, -0.1759108935022395, -0.41023531570364397, -0.2365763255566743, 0.4866850022992183, 0.4359698563860272, -0.45270384426838506], [-0.24947483260702494, -0.3413678048685171, 0.2699967358876421, -0.11699862220481007, -0.3604695864139317, -0.10366460792482116, -0.3164337594044895, 0.20611817826447731, -0.2244633242382358, 0.42643052287634375, -0.17898581386683662, -0.5061084875622093, -0.08347472848298816, -0.1585654184011732, -0.377629608766057, -0.46043348974718507, -0.2862785534240886, -0.09517816030209619, -0.15500008883839425, -0.189499414547524, 0.13096809351802347, 0.42324466413165973, -0.07412163249268561, -0.1816533539710613], [0.05816925012633779, 0.0901408231267728, -0.1270051395586956, -0.2886968960476476, -0.2900289301670377, -0.10975860482156498, 0.6071271080389237, 0.784902408538095, -0.41885164072273556, 0.1343895743533491, 0.49104423580187706, 0.13401439691238287, -0.4267473364409128, -0.05108997672479805, 0.4484818379679866, -0.25787391910596047, 0.6459998156463168, -0.4514190917565078, 0.20290879586330718, 0.02701648146370251, -0.13454695598040176, -0.8931056365497213, 0.4976612876044601, -0.2255738613293334], [-0.7402572054813502, 0.6231706231019425, 0.2018346957021182, -0.49498938606508286, 0.5872908301478258, -0.08845304985019478, 0.7413226351046636, -0.1826207350422943, -0.23481422349733347, -0.40978798956010676, -0.4024385556104438, 0.3856825536411855, 0.1474773484917287, -0.4222191842839488, -0.23544335221276078, -0.4488024945245449, 0.045880279705015924, 0.1626022852914561, 0.4877086474430114, 0.7862071684234021, 0.046580323550654834, 0.021114703454212104, -0.20818263713872004, 0.4424635784836985], [0.15562170236473885, -0.10189994436492787, 0.42338237692593217, 0.011372934447177959, 0.26012127147194947, 0.5652464958171652, 0.6374254284982827, 0.4822640109189544, 0.03199054636249477, 0.2273394850426174, -0.28735304437643844, -0.06718577990054496, 0.07845594170690454, -0.588395104918671, -0.3811708913380886, 0.1847165600418348, -0.1501144249156199, -0.39260348877044143, 0.16627341562650658, 0.625669517999596, -0.2797017193819505, -0.7119957128947902, -0.31358492578069996, -0.49801986645260027], [-0.8017634194858567, 0.1982674019081306, -0.09294760518013599, 0.2494861885046179, -0.08967399534769514, 0.6665755175226976, 0.6182617379482607, 0.10421838468665984, -0.586851814063991, -0.330526022591324, -0.2683570469568955, 0.2125528109360367, -0.7706963104919715, 0.19350420449761047, -0.30709965714363024, -0.5393349248300329, 0.6382162856049344, 0.1251275578921042, 0.5921255771453792, 0.7295238998466643, -0.67530169091728, -0.8025151911687821, 0.2023359494536768, -0.25883751992523013], [0.17560653115266373, 0.4526025231556814, 0.08219004959631376, -0.45826648418456006, -0.20569848613237157, 0.3989493659351811, -0.03030243945716655, 0.04470706512552687, -0.663929910935674, -0.14330768628006124, -0.25831835769842487, 0.11818116098334086, 0.01630992107570939, -0.5023948255522065, -0.3206149187233527, -0.1741898404187076, -0.1905968195426216, -0.6058868042574683, -0.0035631018013657853, 0.14681540879798244, -0.42011001636128736, -0.5999709115822964, 0.2829952054754246, -0.28078573181899924], [-0.07932723941101047, -0.05160108369469944, -0.16769618734290845, 0.04346556758508281, 0.5136504590052288, -0.3157657130777441, 0.713969667541461, 0.4163899955653245, -0.3801938122617138, 0.39065532625380117, 0.3138890732561665, 0.5162787317193375, -0.5982698173780705, -0.22230949775378686, -0.26078721236112795, 0.08758823146546328, 0.449306951846641, 0.16718403153129696, 0.5910575967842736, 0.26114950550326355, -0.4159216032396707, -0.2269075231080859, 0.2487583411439495, -0.10336304977509392], [0.16790919165388749, -0.11424529037664968, 0.0857048153896834, -0.31918677020045266, -0.39457290392785843, -0.1152898757954725, -0.5449022677281976, 0.0645534888397556, 0.08684041778720246, -0.1919581179609923, -0.13717927967895652, -0.1699295984400137, -0.14313080354723656, 0.4874886528908582, -0.1247055201532138, -0.2648169547582748, -0.4914831809929337, -0.08787818505230895, -0.6740418797919534, -0.21373622396427241, -0.20211689731831634, 0.7159829989610671, -0.4934641510010291, 0.5332128561726797], [0.25831920368206174, 0.021819226572568427, 0.20938277099699207, 0.3878156279438484, -0.29077044328202684, 0.009292066826297527, 0.205590283128116, -0.3749858078030541, 0.08769466972768221, 0.1428303958434729, 0.10060006342503762, 0.29543462393002473, 0.588399199400428, 0.3470857932801787, -0.28165780651469036, 0.4861605267233591, -0.6233156705001818, -0.056504129860469036, -0.4658118435337465, 0.07331812160024082, 0.6507443919732266, 0.7614128155754377, -0.08919889124968099, -0.418635070144332], [0.7613540942606591, 0.2951005219309738, -0.2543731933171527, 0.14726931519158704, -0.5714709631982826, 0.3036958365911633, -0.4091891330402969, -0.6546602092528325, 0.06943111102064131, 0.2716120226578851, -0.38170279444837646, -0.34803021453081345, 0.11239775690680043, 0.2999802160012052, 0.4262127035375104, -0.3303131557395661, -0.024788826571941106, 0.6376862886626153, 0.10381764615893914, 0.06053720048706138, 0.4896190861401603, 0.5551762459424383, 0.3007114884709194, 0.02071016745701535], [0.6472258122612294, -0.18052128335232903, -0.49001269691409016, 0.19608819288984475, -0.300294031865537, -0.33914485049249354, -0.6504653368182032, -0.4606095886745189, -0.2521919049201941, -0.28322035528735173, -0.2598151192635607, -0.46426885226628095, -0.1184670642963731, 0.024938865989971536, -0.1371796463366716, 0.2399609264304677, -0.1288590005755573, -0.13164059552536278, 0.03969984052838226, 0.07226788585747508, 0.05033614830323748, 0.41781323132212156, 0.10116280627335207, 0.3531612871966162], [-0.4846462397064369, -0.01126985563036364, 0.04943760355989465, -0.28260043041184935, 0.17790683469846544, -0.03631667837558218, 0.07686079319890757, 0.682732867862527, -0.23302954284216834, -0.4634171647576076, 0.5199388162080039, -0.1540205686385712, -0.1765002723444289, -0.18796744243170938, -0.06974482578688519, -0.11685502829791787, -0.08705972334253885, -0.10350619324237678, 0.7934969775874477, 0.8735744405943937, -0.023025789331674738, -0.6617159859882575, 0.5158716612307357, -0.013207788662288706], [0.3116823112955515, -0.5222641157524073, -0.3708547638961648, 0.48462677049940145, -0.4424435746090696, 0.33562825637496757, -0.4026320475006493, -0.6604079865665876, 0.16244132816516482, -0.44435188931111386, -0.3751108158636842, -0.7002072605411769, 0.3731892655622045, 0.6250202362449884, -0.46754715431696886, -0.23263329752256365, -0.2612479171113684, 0.49864578685546745, -0.5886298869834902, -0.7553610825567589, 0.09582743232583217, 0.7216818614746139, -0.3619659045366376, 0.06869745894358689]], "biases": [[-0.08255475679594854, 0.021687496693162753, 0.023821096252145596, 0.002025832509338805, 0.00584698237757227, 0.028484384790018913, 0.04749725953064192, 0.05204132328160979, -0.07253102334476443, -0.015123571848040177, 0.0012433474632427104, 0.043760341367911806, -0.03844574716152094, -0.015580692034975798, 0.009301436475026032, -0.010384320102583564, 0.027763029878036225, -0.03145227783689907, 0.04571250091272587, 0.07009111761431885, -0.07319619380453499, -0.08747085032480638, 0.0032065499184072348, -0.012456958984552267]]}, {"units": 24, "activation": "sigmoid", "weights": [[0.13230276430638954, 0.31293641374332226, 0.05834009301303279, -0.11994846175220322, 0.2918861157380807, -0.06705783158880396, -0.5094998415880635, 0.07642167920928153, -0.5523012096227211, 0.5403274973019957, 0.4996216748619574, 0.5052353819215639, 0.5762762121984149, 0.18561893700578241, -0.16634797652844072, 0.43929504149341625, -0.4403784345958823, 0.009190367667591244, 0.24552549810779803, 0.38433006062737657, -0.3094523535237867, 0.17908484208250178, -0.2248734080045623, 0.10996837651312862], [-0.13575760026499173, -0.08072784780071363, 0.17774660267369094, -0.0648814618816869, 0.36518745117121937, 0.5686248099509005, 0.4057049567245068, -0.25491396851677234, 0.2991879491909147, -0.012371269738428683, -0.1429189852264967, -0.39363596106234083, 0.3459150102667331, -0.255324926747759, -0.11637232490131379, -0.4235566880569434, -0.16328087856291512, 0.49361332969975796, -0.2861051147508207, -0.26456855163262555, -0.2382224677121605, 0.2923592236484727, -0.46135585764781445, -0.2037314909902276], [0.3456781138822947, -0.051421210277083566, 0.03810686022955547, -0.41575912355770944, -0.23046621732638672, -0.04345529182526217, -0.3207602551753296, 0.19842055434384745, -0.4011564621242776, -0.18466890030536973, -0.18839046390214215, -0.3135501291516356, -0.2479776771913737, -0.15641960440640346, -0.3268401143169263, 0.3410352018676174, 0.056811390778120974, -0.2080338688884475, -0.3144035823802181, -0.05694238070431139, 0.5049985452647389, 0.307501048748684, -0.3540748736700667, 0.20765924591762602], [0.029389175467866825, 0.2595476735825218, 0.48380739608209594, 0.15113343540967883, -0.21578404301950094, -0.32063105806095493, 0.1735593228992772, -0.49256789619807384, -0.46952782976553126, 0.3650327629001834, 0.3566877330767065, 0.5447897450828142, -0.3593951829932543, 0.34047059079084957, -0.16534419170113335, -0.38095598920599183, -0.13401068089113025, -0.03343947576831906, -0.2908507136672805, 0.33968267974371524, -0.3256562149508747, 0.07497540213481567, -0.2630354243720757, 0.41472876100502365], [0.3757045596020896, -0.4792373075795197, 0.1520576780623884, 0.12006559414420168, -0.030531142394411858, -0.012809437849833342, 0.023692037259376575, -0.02422828289926548, 0.46879834310226065, -0.4388613743676125, 0.0981970793929221, 0.26283268130644394, -0.5123204608307272, 0.0373960038563206, 0.25810374444890644, 0.17908455255522607, 0.017679242431536533, 0.32152918073561354, -0.11448389255936996, 0.03747358192784834, 0.06734173662287267, -0.027433431322212924, 0.24512908085402277, 0.07418925647099639], [0.3113451982209261, 0.35855251533134486, 0.17038622605041032, -0.18670539251495427, -0.3019487812058061, 0.3276310800736961, -0.08741636763869746, -0.09233419634035274, 0.3860099008181482, 0.15112917462278358, 0.11968830073008437, -0.35903582306157095, 0.17006845433230328, 0.21745728723360994, -0.36938514012337414, -0.4533990972120483, -0.44498223136144005, -0.23291948587722605, -0.2581090057999151, -0.28185268844643085, 0.4650298208865455, 0.158978566649306, -0.11505146557581686, -0.19323863846204747], [-0.3413076071292594, -0.3010495411704847, 0.4005794722011583, 0.2199392457157079, -0.07964437018558031, -0.07148848643906783, 0.5097902369563055, -0.18121157806221427, 0.26013568474219195, 0.24499475558007075, 0.017153605564665518, -0.3437845177726228, -0.6459290926130836, -0.45353266328999936, -0.30601961928106036, 0.10607049806304979, 0.4395601249366049, 0.4649072855237137, -0.3602169703980673, 0.40259715381320865, -0.0795375475208805, 0.4659578245541872, 0.12750172922801165, 0.02923990693113966], [-0.20501193861624117, -0.20479686374760964, -0.3860517201868579, 0.48314470033635126, -0.3243612663873857, 0.13472057808947707, -0.09896948376813249, -0.18160413721761534, -0.17049923497756148, 0.31472311405603937, -0.37858970131890857, -0.45566099826082246, -0.09777955162625067, -0.010584511288996814, -0.16894584144729854, 0.4528677763029021, -0.3288287748090337, 0.28935407927521484, 0.05110221232674409, 0.11969374944214219, 0.5011889120072739, 0.4852202154183993, -0.5797462650511079, 0.2802094572850254], [0.17165209793646333, 0.3877648395577907, -0.2677482714259434, -0.5130308622253981, -0.3728770938430194, -0.4034799298615228, 0.10229125446055423, -0.3071470630901123, -0.5108230292782152, 0.5417391591756348, 0.019865774208000998, 0.41535297276275684, 0.4888774684912499, 0.0707705909898487, -0.06570655911361965, -0.11106107982995302, 0.19801531545910292, -0.13047031766686132, 0.0075653022376148986, -0.1748798119051904, 0.06533197368601486, -0.17719817309614277, -0.0707782564159484, -0.2573600257438061], [0.3766633565710829, -0.39028840321275815, 0.19079411948547367, -0.17951646366362375, 0.42912973903447144, 0.3873894214931923, -0.1303078243640475, 0.08792935432522074, 0.3109597775317271, 0.33323217766889246, 0.24308024509775833, 0.3715056576613345, 0.2618550562279291, 0.04961597941427684, -0.1705512303243532, -0.13226205948757255, -0.4854268890189199, -0.24397595354309806, 0.055598780761209464, 0.10272073295314701, -0.22369561887340325, 0.46600365720464254, -0.42863322129176257, -0.4006236519225386], [-0.12767543161233416, 0.30122934574204435, -0.18083312963721895, -0.24439879038053905, -0.0008813606056773808, 0.1593098340925612, -0.048926128950776644, 0.3295514923491506, -0.3910101796408734, 0.33804459529964576, -0.5012529709035969, -0.27786495412682133, -0.06267268603050845, 0.2688769226190816, -0.010511775692114816, -0.4772823478344562, -0.18725129254699518, -0.41273924881386925, 0.26145371580202204, 0.17431260955219388, 0.51752365862447, 0.0309909834920868, -0.12835190021850154, -0.2084707184674429], [-0.18356082577739408, 0.4135695239380426, 0.275258727942195, 0.02861989219411461, -0.3475230606110656, 0.375397050234601, -0.13039655578040563, 0.3354882312805585, -0.21239986148383314, -0.3672876936054822, -0.05265915062077884, -0.2090036785197512, -0.570697755547243, -0.47270751278263134, -0.3952101080091004, -0.44450617848087265, -0.5214265103644901, -0.12317514301386479, -0.31573103315323076, 0.16527375917931927, -0.021672414325503393, 0.08531102866387995, -0.24291883771427625, -0.4156521192140515], [0.18380293382336588, -0.12867471579366835, -0.2613833029670284, 0.3973222504936874, 0.277390942674945, -0.48261102533139627, -0.22662598029119593, -0.2396729388816505, -0.28761930522335005, -0.42649525419576934, -0.07363774515381809, 0.4505583864775096, 0.35334185040881294, -0.07448316815265568, 0.1122659454041888, -0.0449279860578056, -0.08654909513443496, -0.36691995490743745, 0.26083622474616586, 0.2987143331630558, -0.44786901949706587, -0.30903037273265943, -0.0035334770796222343, 0.4836905951108702], [-0.3709401543360285, -0.46132151850561254, 0.09914169500350778, -0.5585396697097489, -0.3994629899965027, 0.28909116601087814, -0.0977373602964336, 0.04051758551813966, -0.20463246698037096, -0.04209843501811632, 0.3734972221124592, -0.212154040058956, -0.2051655402770739, 0.43276062327533577, 0.4474409060983636, -0.30999445887009325, -0.10675346647610337, -0.3217382453015414, -0.1777637918909738, -0.38194806693444017, -0.43796642151286236, -0.20463333441831125, 0.474240452570431, -0.3197558484715917], [-0.056833176084185706, 0.02848309313671522, -0.07429933415597739, -0.43364202818426906, -0.03275690090330769, -0.02097040331423133, 0.530875909117967, -0.42216253509485135, -0.159288820712739, -0.45964578679413776, -0.4508937566701065, -0.15410952078716073, -0.39469757068497635, -0.4844353905772932, 0.030591821768474265, -0.13695061317093316, -0.39933356321171826, -0.0213505984993112, -0.08539426462402334, -0.029042832001325878, -0.30181805591724203, 0.07064146076942703, 0.285560069552337, 0.427621967017754], [0.12638793479273386, 0.04988050959145842, 0.20324102539157765, 0.42669950283839114, 0.28864986868131803, -0.20062511343530942, -0.20896043893038602, 0.3157476595457823, -0.37727965271946035, 0.02420288075516153, 0.07045863088480146, 0.08079855295916832, -0.20257892641157996, -0.1386539082160123, -0.12472245629066891, 0.40535801171967784, -0.12902204391019734, -0.47948568327258323, -0.03048863668443515, -0.09374994692651452, -0.42510476541724285, 0.3189744498000041, -0.1777787032966421, 0.08305731442685327], [0.011908502160498519, 0.30226274519253504, 0.15928793752886627, 0.006827603863101843, 0.3208867457721825, 0.4194604316332562, 0.21630388157725258, -0.13048436906164101, -0.03554919954798947, 0.12104372762490821, -0.2492088729132663, -0.14959093387302622, -0.08610202297387956, -0.010906050313742907, -0.31251896304277843, -0.3318745762392936, -0.17003319632787925, 0.26668968234651047, -0.016450809320361574, -0.30063925633353356, 0.562177417230152, 0.061194442819906734, -0.6070002318375689, 0.3469597832497428], [0.2809535193847006, -0.43675841838332313, -0.23512347704340028, -0.5271181737192578, 0.044477243198125294, 0.11109344320802064, -0.20076564363921162, -0.27471680299630075, -0.2478949980934859, 0.319739280593337, 0.4965029109752189, 0.13007552089248342, 0.35181180797253675, -0.24067641266801962, 0.2521048337055264, 0.48983762317616664, 0.3889569595800016, -0.39702808977908055, -0.38217408882463283, 0.07207668020680114, 0.20780418227848296, -0.45766962023270563, 0.09336183488300702, 0.4516867508425237], [0.23000627307092575, 0.36134360394418985, -0.037445333910799634, 0.1488415125381245, 0.11578869485331672, 0.25838670918113876, 0.29755885915369257, 0.31565781456626174, 0.02019264847281965, 0.20835893446601822, -0.43936021644269485, -0.46547512641840555, -0.5510624881073701, -0.03678601038108045, -0.021338170744557978, 0.4809726647504319, 0.06082993553384368, -0.24670606774494247, 0.30649916573468844, 0.38060931917922614, 0.4149577724245495, 0.22878634171934695, -0.25518444485689123, 0.44719316978204826], [0.42849552630881477, 0.04493179481666067, -0.3985303305353883, 0.40615281323025576, -0.2932564827237352, 0.396329508679629, -0.03509438760846272, -0.27677046561815283, 0.06566812075126773, -0.16726147121684706, -0.4563152320146169, -0.23618804948383054, -0.5251544143262072, -0.056625712216562187, -0.2247755735003163, -0.20293790797900263, 0.23948305892501112, -0.052004164713074535, 0.2020336475622887, -0.12442047263410459, 0.11861246311434928, 0.3416176242428383, -0.4183687273592856, -0.13019537234489245], [0.4815748058652003, 0.3427001240879335, 0.04399711205738755, -0.35570368557254095, -0.3311282982398765, 0.022275927896024325, -0.3636248004591276, 0.06276283753646815, -0.34566509634492903, 0.45577592360043745, -0.17447288464770427, -0.1432874009397256, 0.3730060513360186, 0.03217139938768588, 0.4858205294751675, -0.48026162925122745, 0.46974534968757536, -0.43031504331920895, 0.2006651396151456, 0.006642309266977041, -0.5419053339132143, -0.3266590454164825, -0.0619770676964602, 0.21000570475884897], [0.4419544075126593, 0.2591467068706939, -0.2735916618298025, -0.07058539363474485, 0.060046958823554264, -0.5381788474054456, 0.01930657192576162, -0.3960122437491391, -0.5316775572046918, -0.03248947369848864, 0.2851160862196574, 0.19454190759308332, 0.5078287821625826, -0.11882119049557714, 0.5237778004416881, 0.39011546891240895, -0.12905189420978225, -0.1531091833086137, 0.5211413535755686, -0.4377461287300534, -0.3556558602442192, -0.32506339451739197, 0.15104320703023746, 0.4601737044388093], [0.23636393983482246, -0.3514333412384557, -0.43371629336438633, 0.30470982892668286, -0.4520755469426005, 0.40452413381102076, -0.43463564938521304, 0.2650557682209759, 0.27750686319009693, -0.34919129487653294, 0.42991798265216274, -0.15862676630730949, 0.1178965324788999, 0.23192286852393793, -0.056670323583681806, -0.3434919924226891, -0.019503015794236436, 0.4993282297504503, 0.032223965338364545, 0.2571141079357556, -0.37417015717545477, -0.22584697181918775, -0.06336293938723737, 0.44325483215502504], [0.3022023746504133, -0.28251547754212114, -0.1302240899259897, -0.28228066978962013, -0.33900845929385315, -0.11610000352586651, 0.3174056055219876, 0.4983628601604392, -0.056420036491666735, 0.38834946332726034, 0.4489310165143427, -0.2776173855737499, 0.2767538058163313, 0.26703627109269434, 0.3498054782328569, 0.03136747718104251, -0.009751568834639675, 0.39775865343103173, -0.3360645193952333, 0.3884066377725002, -0.15966274358969634, 0.4797153555138456, 0.10495206300640307, 0.24970450147479306]], "biases": [[0.003980546763202308, -0.007876150382790801, -0.003913486308880828, 0.03615624562329548, -0.010462610315486428, 0.03458119224937698, 0.02052437218136532, -0.006097973969771367, 0.0324211861636677, -0.028270777438825976, -0.028273111650803096, -0.029036753990947232, -0.05089315577591648, -0.005334363490284879, -0.004988920489331023, -0.0021954767646834746, -0.01007053883304438, 0.008711509961361831, -0.031088610100631662, 0.020692689683414624, 0.04231878837075792, 0.01034563048484707, -0.03501225272539547, -0.005235149593595537]]}, {"units": 2, "activation": "softmax", "weights": [[0.33733688525616184, 0.27490571962511234], [0.17411441928625088, 0.27623526232236656], [-0.055664947202149095, -0.056776815437625416], [0.11727066701260216, -0.5742895656101725], [-0.4154535349989517, -0.2682228829612853], [0.36428566297615306, -0.3641586794523887], [0.09867628236109398, -0.34215161300039804], [0.11779946702178222, 0.1289853148107249], [0.15800804204091634, -0.520564374467776], [-0.24500982466703353, 0.25154514830484714], [-0.15953755155511795, 0.4672732102129806], [-0.16424015841219475, 0.45546875874034193], [-0.5702713323432571, 0.4201291819439903], [0.3288338162094365, 0.5009295032332179], [0.0785912582247209, 0.30967818201286357], [-0.2499921189296985, -0.17871862948240605], [-0.194211862181922, -0.012172946940192886], [-0.2310765145239932, -0.5587804112151719], [-0.25917360784807925, 0.23080143033674716], [0.0252350607005874, -0.3360683050682961], [0.314356437333055, -0.5616376580011817], [0.42461796040080657, 0.07601853243542027], [-0.37040058174733864, 0.2527433136718079], [-0.055161098618367536, 0.018040307818036054]], "biases": [[0.06334930210468269, -0.06334930210468268]]}]}