{"layers": [{"units": 24, "activation": "sigmoid", "weights": [[6526277.187870702, -7297349.6596967075, 5526206.200499979, -7272837.197831582, 6999418.23632983, -7265432.349383544, -7572175.637432838, -7317018.719316822, -7372932.311705222, -7271455.555617087, 4735793.54015459, 5024926.841378361, -7491761.084608939, 6529600.641894188, -9405951.441691412, -14251329.586379858, -14312668.466050288, -7260465.614662022, -19291000.6303193, -7357451.321806547, 6264387.700556534, 5641548.7119646445, -7303149.335277128, -7699876.550716555], [32391664.70660845, -36264955.63834575, 27463589.15582902, -36144278.544919364, 34722997.89350882, -36107739.29113484, -37618914.77995247, -36361942.98831416, -36638677.28514363, -36137405.42143691, 23568875.831323978, 24993446.544768333, -37222653.192077585, 32407966.787498668, -46665477.04227022, -70534062.09281789, -70836426.00366409, -36083231.76770284, -95355487.12666191, -36560962.686679676, 31101232.37226181, 28031955.677624833, -36293554.15745557, -38248166.02484879], [32682680.214999128, -36572067.52935375, 27696840.190584026, -36449929.57868568, 35041419.28135904, -36412981.31602476, -37942068.06767833, -36670173.02118387, -36949568.03073071, -36443001.17942251, 23756374.28387333, 25197768.195921816, -37541139.03566606, 32699202.100388695, -47084986.499037616, -71237181.18536218, -71543086.58562525, -36388196.73832891, -96360230.99850667, -36871607.18464165, 31377094.600294154, 28271875.505207047, -36600994.89135768, -38578701.73322673], [32555767.359980345, -36445307.61686258, 27600887.878742013, -36323973.77871561, 34899797.17192601, -36287240.16495785, -37806659.01761656, -36542821.45566859, -36820956.59868356, -36317066.52668365, 23684978.416502964, 25117314.263379145, -37408236.365751974, 32572161.91990989, -46901035.04746489, -70899968.8263375, -71203980.01004402, -36262602.08900479, -95858097.312963, -36742933.263206124, 31258310.08285502, 28172346.537031434, -36474061.60965735, -38439331.077938214], [35580126.09236978, -39823841.312541306, 30159366.12425042, -39691079.21619266, 38144578.263465166, -39650899.24114901, -41313245.22886271, -39930513.87579457, -40234604.36003024, -39683532.856851585, 25875226.183180656, 27442271.68137585, -40877360.08273043, 35598074.08324559, -51260884.00987911, -77517529.94579336, -77850110.39688452, -39623949.230385035, -104824639.90689287, -40149476.36422855, 34160662.66717745, 30784557.681467365, -39855295.736278154, -42005409.53394938], [12053436.53547391, -13496458.787172344, 10223075.437437857, -13451665.424909012, 12919341.95329266, -13438094.641057864, -13999382.812532313, -13532498.691343024, -13635194.646590032, -13449105.797995126, 8776555.457084632, 9305686.830135018, -13852170.924116539, 12059483.346670007, -17352819.37254669, -26219325.253463183, -26331684.699253783, -13428990.48913815, -35444548.674481355, -13606388.109060872, 11574162.517151855, 10434178.150020355, -13507085.941388527, -14233078.629040077], [8309289.61319611, -9301822.8573194, 7049504.506705185, -9271031.48291741, 8905297.189382954, -9261697.936992124, -9647974.084845576, -9326639.374761824, -9397273.807437474, -9269265.17716777, 6053925.41284771, 6418103.254475074, -9546639.251313265, 8313446.65487165, -11955757.080536751, -18057922.08310303, -18135284.829953913, -9255437.386234414, -24408134.73798498, -9377473.958118463, 7979411.383015654, 7194799.142411794, -9309142.374180574, -9808799.943464972], [28451687.021701086, -31821332.507969223, 24104621.160609398, -31714872.5157665, 30508318.367528502, -31682682.98642275, -33015914.670222644, -31906870.70592058, -32150015.3831288, -31708842.528234147, 20668963.99112486, 21925736.076937832, -32666325.80296302, 28466105.308378227, -40983436.75347184, -62043097.97058119, -62309826.61451765, -31661091.30595255, -83953029.99678016, -32082524.905079965, 27313333.99612942, 24605985.11509704, -31846556.95015076, -33570959.03065151], [33319055.300578557, -37283077.24501458, 28239540.03139038, -37158696.72575678, 35722140.51729187, -37121061.920032725, -38678839.16772331, -37383044.763482034, -37667588.258256644, -37151630.70268401, 24225080.856013056, 25693555.439441245, -38270349.04145052, 33335879.339872282, -47989922.06083789, -72596521.81818062, -72908221.700639, -37095816.76270139, -98195188.23871587, -37588229.31927299, 31988939.362373427, 28825379.120204005, -37312555.43238193, -39327402.633152075], [6410645.964527209, -7185488.4472887665, 5440857.916041236, -7161757.483715221, 6869389.678880492, -7154557.920925549, -7451848.696765941, -7204580.185413924, -7259322.6182868, -7160394.328969188, 4674472.2136293445, 4954741.9691319205, -7373884.871945086, 6413842.315379598, -9238108.402452704, -13933498.544648945, -13992990.820612721, -7149731.019651284, -18811726.819975886, -7243713.85790662, 6156712.947441581, 5552702.540127807, -7191118.449474518, -7575679.668912703], [-9255086.401468305, 10389503.131038636, -7861732.811440591, 10355381.600728525, -9914108.118098661, 10345014.995887779, 10772103.686112156, 10416933.490282599, 10495978.555965926, 10353413.08845077, -6760651.339093513, -7163325.667997874, 10660105.722950539, -9259665.256251846, 13336639.453313021, 20081802.323648445, 20167283.46327441, 10338061.92311215, 27089517.508527, 10473124.140999751, -8890293.80510807, -8022426.477532215, 10397588.576975027, 10950019.204765625], [33919730.372411355, -37935834.688055694, 28734864.723979454, -37808834.55469603, 36372723.819786966, -37770439.08261404, -39360692.32782566, -38037855.23615683, -38327776.33269933, -37801646.29923478, 24637035.308614846, 26136035.42918168, -38943721.640846014, 33936932.28573397, -48863725.05876687, -73982825.20841739, -74300946.91997778, -37744683.70616994, -100116306.754123, -38247383.30628494, 32561980.12270603, 29332857.347728815, -37965919.2945215, -40022733.76234415], [-7818518.894818706, 8723282.825743496, -6609329.978718705, 8693630.195544433, -8390675.791035281, 8684702.865816321, 9055751.817600427, 8747056.798328063, 8813973.243145151, 8691981.571900083, -5653546.397198402, -6003296.982164804, 8958481.20293861, -7822560.9526204765, 11257666.688821077, 17119689.13431084, 17193888.2517605, 8678710.784682972, 23229214.402470525, 8795997.68656711, -7501850.105868939, -6748797.781381171, 8730292.049838692, 9210132.097276907], [31404903.800786685, -35117904.78299888, 26601018.058276467, -35000231.37341119, 33677672.8342369, -34964663.411263704, -36438090.36791311, -35212423.26781944, -35480927.93574924, -34993577.15097174, 22804268.862016242, 24193129.6494175, -36051760.9351649, 31420848.97906395, -45244219.66145273, -68517701.97954153, -68812432.61258373, -34940805.574141815, -92730524.60159366, -35406576.994596586, 30146904.232094217, 27155070.78031853, -35145777.856995955, -37051492.937771626], [34078172.43323874, -38114051.940581076, 28868912.440805648, -37986445.363119006, 36542698.73788293, -37947867.59510281, -39545599.95125113, -38216548.75715253, -38507869.764744796, -37979224.259738, 24751801.413170554, 26257857.974153128, -39126674.1945047, 34095456.08311036, -49093166.63359316, -74330342.05162407, -74649955.60328574, -37921989.80907437, -100586629.07211964, -38427065.26345493, 32714038.97487331, 29469718.897325397, -38144276.30769469, -40210757.85511965], [-7100602.983345082, 7949108.469991968, -6018493.282025044, 7922588.404719911, -7612500.009510851, 7914565.194855666, 8246397.024003881, 7970395.37793807, 8031145.897787412, 7921084.681874038, -5163251.650546314, -5476092.832105218, 8159397.487002872, -7104187.450938331, 10231134.135302419, 15471440.404778048, 15537818.776374616, 7909182.613803896, 20922958.98417658, 8014107.752152535, -6817255.83044566, -6143295.021570292, 7955383.82388678, 8384565.225249401], [-13914973.373728644, 15540324.357849242, -11771185.007221017, 15487755.73321294, -14929290.11194969, 15471904.182254795, 16129666.895784503, 15582483.324101998, 15701621.353330882, 15484814.929848121, -10076723.96618145, -10696668.19633977, 15957235.827470558, -13922121.102714803, 20047168.952432692, 30437739.903050404, 30569253.875194795, 15461267.34214284, 41256072.67348179, 15669217.498292558, -13353552.068038592, -12018444.811889566, 15552755.389055923, 16403410.267522704], [-2487241.2516838713, 2782765.249459391, -2106637.219795958, 2773430.0148537564, -2667296.21348154, 2770608.318846415, 2887413.069649126, 2790257.700232711, 2811441.553123138, 2772902.8492760956, -1805821.1942655025, -1915889.7879980903, 2856786.096416399, -2488504.5725175906, 3580910.3783738073, 5426060.494922878, 5449425.634101433, 2768713.2103105253, 7348714.4887108365, 2805642.5054399497, -2387580.971129894, -2150537.905330858, 2784973.8604326965, 2936026.0538778827], [4493939.412025929, -5025716.697916001, 3812456.1957711033, -5009086.482171796, 4816399.610550087, -5004047.614353162, -5213059.091130543, -5039155.5732108345, -5077068.007277984, -5008131.483752115, 3273901.2474384857, 3470981.768770323, -5158195.931016517, 4496187.675731591, -6449233.616300983, -9752853.290809978, -9794773.740727223, -5000664.421851019, -13199355.163243312, -5066640.803708893, 4315497.925210248, 3891057.2717687506, -5029680.298180139, -5300020.174949052], [-10659904.380086124, 11922005.274672244, -9030351.304868877, 11882082.844431935, -11430849.571717897, 11870014.890162552, 12369853.721078137, 11954071.185237736, 12045107.514580244, 11879824.894752828, -7742421.383694636, -8213586.927342228, 12238791.43770996, -10665311.307685765, 15352026.177435936, 23246794.692300502, 23346796.59798816, 11861917.598216724, 31464824.764860325, 12019922.298247991, -10233185.358943151, -9218296.83616362, 11931460.19899471, 12577927.173625296], [-11674759.458047766, 13078027.709324263, -9900659.223428471, 13034558.429757517, -12513982.60820198, 13021390.992178759, 13565435.02677776, 13112941.95847274, 13212717.348561464, 13032080.504216954, -8498562.568585113, -9011388.67036881, 13422787.907363586, -11680624.13164508, 16825149.5467632, 25416778.55301026, 25525612.300041653, 13012558.608874083, 34350021.577380784, 13184586.623193288, -11210216.66016376, -10105271.324787479, 13088321.692838926, 13791999.475468675], [42073718.022243865, -47082881.70640346, 35658022.21272238, -46925741.50503502, 45108891.83639572, -46878197.40160125, -48845734.153871864, -47209127.89983452, -47568742.67868782, -46916820.28780725, 30587518.719769258, 32442234.08018816, -48329831.881784156, 42094972.06228592, -60615477.729190394, -91692636.47126238, -92086260.70101203, -46846307.15714679, -124016456.45744321, -47468311.23353799, 40393707.32132217, 36397965.22914585, -47120108.03785091, -49664942.000127904], [37060254.06022784, -41479866.22182, 31411113.46159182, -41341474.68975379, 39732738.84656508, -41299597.360797346, -43032029.17266487, -41591021.660621345, -41907938.8167764, -41333616.08090982, 26946448.910913188, 28579523.929167576, -42577791.80501542, 37078964.91115775, -53400427.72407022, -80763228.7410979, -81109797.05361359, -41271508.64880845, -109219536.24338737, -41819235.98668632, 35580984.74306316, 32062646.28572685, -41512641.4912137, -43753379.65380276], [42131221.18548408, -47143182.61582029, 35704275.31141521, -46985763.195346154, 45171734.68063803, -46938140.66230796, -48909155.45500604, -47269647.22736305, -47629780.063416876, -46976830.79415383, 30624862.480507527, 32482847.3442627, -48392345.0896206, 42152517.7706308, -60698642.128788, -91830754.24791543, -92225066.52606274, -46906197.80524267, -124212641.57299693, -47529299.437310986, 40448256.11691995, 36445516.67782862, -47180473.57896111, -49729801.403442174], [44110303.9128378, -49351617.79046169, 37377030.76066164, -49186681.88992154, 47295762.36030277, -49136796.25958828, -51201814.02428385, -49484103.82694552, -49861214.35854982, -49177331.879702955, 32055488.426528603, 34002066.64109485, -50660364.86377622, 44132624.82720874, -63550314.50866296, -96167605.31928843, -96580707.29322617, -49103334.71927226, -130096026.91603754, -49756158.25376146, 42347114.42165524, 38153603.686359294, -49390684.12385227, -52061574.377662644], [27310058.94527179, -30559503.110450633, 23143504.896593824, -30457440.143396452, 29281204.53627627, -30426564.869474098, -31704385.892255116, -30641488.109493855, -30874947.76186537, -30451650.176589124, 19850556.27600683, 21055083.604534063, -31369338.29074453, 27323866.48392499, -39346096.31200232, -59529744.07517482, -59785374.65244589, -30405854.69941773, -80523791.0445958, -30809824.17604261, 26219006.14830371, 23624049.471062273, -30583677.647807892, -32236410.279031992], [15386306.397446308, -17246798.49700949, 13057597.895533664, -17189785.328312013, 16487853.878584826, -17172493.19667569, -17886388.63535664, -17292633.70844974, -17424120.781930715, -17186516.137066647, 11217276.119347967, 11890314.122611968, -17699187.288281757, 15393985.32528271, -22173650.224935148, -33447732.68015412, -33590590.40245111, -17160898.249101568, -45163288.51422307, -17386614.139890496, 14776559.1313909, 13326167.06352139, -17260313.09698643, -18183747.432293747], [27577474.81299722, -30865122.095819347, 23373992.19058348, -30762157.24945576, 29566052.637166653, -30731000.874487113, -32020033.556193996, -30947829.00421289, -31183685.709043223, -30756310.17274504, 20051867.79982016, 21267013.235596817, -31682052.77163786, 27591397.600116715, -39737355.58625926, -60096515.438912176, -60354384.71597233, -30710104.631328646, -81268449.88596186, -31117637.353891473, 26476757.736241546, 23858790.14953045, -30889509.45770576, -32556773.108136695], [37651632.91554712, -42134872.77181951, 31911390.045125116, -41994284.88065242, 40367263.07225746, -41951747.53828007, -43712129.43445477, -42247831.14840479, -42569561.467746906, -41986301.705754824, 27374724.414234124, 29034195.922220927, -43250534.3921116, 37670647.059976324, -54238720.94678343, -82044340.56891778, -82396546.63884868, -41923214.48136797, -110968272.29828069, -42479714.98732116, 36148506.06656557, 32573431.52147056, -42168180.29552258, -44445072.029439755], [21722193.711779863, -24326368.94669792, 18416797.492709596, -24245384.342123043, 23285822.353288796, -24220864.080131985, -25234377.917985506, -24391397.444341924, -24577391.63225538, -24240776.548975315, 15804506.57534977, 16759927.685053539, -24968657.339675244, 21733130.65190697, -31313730.496298898, -47320773.18598903, -47523489.59727775, -24204421.20461083, -63956981.17706222, -24524905.90805801, 20856668.665508192, 18798012.099359013, -24345542.359108195, -25656461.86324079], [11021024.637931729, -12334754.446561154, 9339415.100616915, -12293546.646138988, 11816549.209054608, -12281081.239054048, -12796733.324186992, -12367829.160672499, -12462295.181519244, -12291210.950346272, 8010387.679610819, 8496478.35037007, -12661551.673646035, 11026598.879719818, -15889543.902712585, -24033332.03852053, -24136454.506704755, -12272722.92376463, -32497954.09328935, -12435778.42813081, 10580674.745278003, 9533357.754158346, -12344506.876812475, -13011470.489894029]], "biases": [[-141838.63018641726, 191049.45435909095, -138728.3721991536, 190986.62018231946, -143164.90378071307, 190923.0751716011, 191646.87299965616, 191125.16012349696, 192273.95915081893, 190949.82235419194, -136359.04499494992, -137125.37096611224, 191442.6214836219, -141810.7639365654, 209910.80879393037, 217821.5431336431, 217986.32948008616, 190881.97573508992, 218975.23633247046, 191147.4733455762, -141081.9993386425, -139080.3816892372, 191069.78865635296, 192053.59811572227]]}, {"units": 24, "activation": "sigmoid", "weights": [[-219.32410373868507, -236.80998379433922, -229.65808873191858, -227.72010280756302, -219.48182392666297, -230.29929918800505, 178.0925594808742, 189.3785361532562, 193.34395055691178, 198.54901155038658, -234.49698806457624, -219.69577284386236, -217.75425898122023, -223.03919768632113, -223.14321378055152, -227.30571775866656, 176.93928891606572, -227.09564034506636, -224.13476280827243, 194.0575550015086, 187.63794482729776, 141.34860371094078, -222.83464271469947, -227.91945837904714], [198.93841956825418, 218.35309787875, 210.52787582583602, 209.02361549244375, 199.62581360263474, 211.46954917239165, -166.84182317491548, -179.16017510208886, -183.92631184137772, -188.9116130531246, 215.71456699641297, 198.89818650428867, 197.02422607788836, 203.85113524172763, 204.80198531079068, 208.60646826856757, -165.41802585964484, 207.79221096550714, 204.57470392254285, -183.714333102969, -177.35088203714147, -121.9878224169903, 203.37616856579365, 208.21423689841706], [-164.8474493737075, -180.63975600782692, -173.84033863495395, -172.5132057425338, -165.46564356118935, -174.8488162567006, 136.6139469989546, 147.24182719446014, 150.1756468309816, 154.46610755570873, -177.99884532515156, -165.3824480998517, -163.35657115396808, -168.6368209218899, -168.8611626853034, -172.3690693364195, 136.3530410669245, -171.86432043663152, -169.56198797348168, 151.09930493513082, 145.39585925425632, 101.96638033633045, -167.6668327844737, -172.26790248942214], [197.24661987431486, 216.66987967009933, 209.10129041741737, 206.87772200625068, 197.85301569533172, 209.32721541508806, -165.89335319267883, -178.14379488506592, -182.51270064046065, -186.84084990696692, 213.97775132778966, 198.07716987073616, 195.34738745759842, 202.85010922892414, 202.34846823079425, 207.03711779081618, -164.93386090959393, 206.11340196357457, 203.10600452536642, -182.6150312887848, -175.7463830940147, -121.4837229025872, 200.89006698821078, 206.808109369465], [-245.4788438450199, -264.15350472438695, -256.1374636466061, -254.46283019228363, -246.4689051971583, -257.0921726551164, 197.42358862819384, 210.4508060505296, 214.76662332853854, 219.8136939794214, -261.0403566337476, -245.64701647644003, -243.59403332809984, -249.65940034867455, -249.56263099497357, -254.11257202885182, 196.41085266077073, -253.41459742091334, -250.99573660948968, 214.3960123970738, 207.31850929279116, 159.2388244316718, -249.1458682491222, -253.95512984875566], [197.2181148567879, 216.0515991595946, 208.57998170770063, 206.42343519315733, 197.37595605747595, 208.99022238502698, -165.81379122983628, -177.72100632241958, -182.08014585464335, -187.44400911911939, 213.1790666068094, 197.26165397470575, 195.02741127453214, 202.5331030763239, 202.61107770566127, 206.51039533586837, -164.82883827588753, 205.78075077292672, 203.11155571292525, -182.53865547697575, -175.27275936569535, -120.80065016934228, 200.65829249701292, 205.9706937123399], [215.6676014389309, 235.67991587088258, 227.45631974091458, 225.79037994239516, 216.15734409165933, 227.92810037743897, -178.9730108322907, -192.4540713479927, -196.87541583256737, -202.06426000301673, 232.87091073848003, 216.45514911014064, 213.68778730890492, 221.02855682994914, 221.05611982064852, 225.3074454900532, -178.63055811962744, 224.5259210433285, 221.44357707680948, -197.09872181849087, -189.53686118823424, -134.54386268046505, 220.15558496385154, 225.07795758177323], [200.13401484771836, 219.28084319591295, 212.21205899055337, 210.03903565898355, 200.375408997423, 212.53713509902704, -168.40189731840286, -179.99803634932542, -184.35033054968235, -189.38068021813461, 216.6346641153158, 201.06177048321572, 198.1447502846107, 205.79958959812697, 206.1612531915849, 210.20540081106986, -167.2957503261218, 209.23921245243605, 206.13020617636442, -184.82103428628395, -178.11491268608458, -123.05519666034566, 204.39920334303716, 209.87949160332795], [201.14773118784143, 220.89894002590376, 212.62080403487676, 210.5746758881539, 201.66026352084396, 213.00343815793116, -168.32376935016805, -181.1174265290962, -185.9807375046938, -190.66225720735542, 217.84834742143408, 201.22700029153435, 199.10799817431104, 206.20916553015425, 207.0655952042675, 210.86749499637855, -167.73448815024844, 210.32572886009066, 207.44649647713908, -186.31777100081186, -178.92057222003643, -123.79673363920045, 205.79929695999496, 211.14878196484113], [197.08106240888944, 216.8252344195202, 208.84042711607574, 206.38182422118993, 197.26113792551067, 209.76875636428335, -166.0061783394485, -178.34400937163963, -182.15581126652012, -187.5686967539745, 213.66469606778864, 197.6684053487865, 195.1447724127319, 202.19654804771847, 202.6127623534901, 207.0791289362338, -164.94485624807845, 206.22971585696249, 202.9164473515136, -182.83517627952008, -175.3576681447732, -121.64099243968325, 201.5958867147142, 207.01007810119867], [-118.88651421931678, -133.4762575245875, -127.19937900993085, -126.74794036294492, -119.1786246304476, -128.39508975454675, 102.8805997715593, 111.84606702737855, 114.98206207180995, 117.93964219933748, -131.42514913161435, -119.16058201778097, -117.26962591436731, -122.88842590298879, -123.99615818414772, -126.42470177811691, 101.86581713730064, -125.72154958298258, -124.28123857701601, 114.91757264756053, 110.27813344866252, 70.64664935588603, -122.35520562791608, -126.4634275871627], [-136.6900663625449, -151.80842260119005, -145.54837148046963, -143.61668831128213, -136.54612845758405, -146.04726506984105, 115.96860054978966, 124.82390815985033, 128.41053090005454, 132.50079803999648, -149.5103713927986, -136.80345716179167, -134.850786623735, -141.07140829115258, -141.2326186437072, -143.7951857392808, 115.1948415842946, -143.1668953198482, -141.68482287181328, 128.94012398121018, 123.1217334656462, 82.44409586955072, -140.28697587266535, -143.53141268346087], [211.1113486182812, 230.31434225871033, 222.46033427704015, 220.91827097995565, 211.24206047277664, 223.39351409356968, -175.85042609638307, -189.0826703251313, -192.8592803194033, -198.44916352004694, 227.83647690923536, 210.6184723152464, 208.69302706885313, 215.5220763537875, 216.71295024791874, 220.10680232713213, -174.21263684949287, 218.95009246766423, 216.6833650946582, -193.3111257096958, -185.71016224076763, -130.53585733590833, 215.3907487853188, 219.97342062358433], [-219.78530473740406, -237.17125189119707, -229.80251401175605, -228.34794621555648, -219.61382226315294, -230.58207871803071, 178.1218154160839, 189.5407999953287, 194.295577778509, 198.77564998989337, -234.08894450596384, -220.0215481840572, -217.73903187935412, -224.0598049283849, -223.96379983223184, -227.78353184876863, 176.95247912637825, -227.01500685044905, -224.21780909040413, 194.49757195746912, 187.77434310359533, 141.07289988740854, -222.8669589276783, -227.5840349275576], [272.6557518787341, 295.0101931932937, 286.576338894389, 283.7204907806011, 272.60078252834575, 287.1594350095257, -223.19080469354913, -238.74149484818025, -243.82160585275577, -248.99915016373083, 292.44633055380984, 272.81453666894214, 269.8644597547515, 278.86578894174573, 279.2754460838099, 283.4733421473351, -222.4125827953437, 282.6044550753465, 279.8686208914173, -244.01312789509717, -235.118591388454, -171.44207747209285, 277.29460513462203, 283.59030815608986], [538.0818664397402, 570.4936954684864, 556.8416148053384, 554.0189019511644, 539.7944482715254, 556.7114618615822, -422.07159149544617, -445.5967848183055, -453.3954731820612, -461.3030052946965, 566.1314455869215, 537.9146708607914, 536.6052759178582, 544.7699175556581, 545.1514372556697, 553.7725329791244, -419.92213696215424, 551.7313968940525, 546.6729350915307, -453.77731542564806, -441.1478417619297, -357.7737958801645, 544.1744310841564, 553.1346930892009], [531.2722143798798, 563.1509795941006, 550.2748022277955, 546.5260478096227, 532.8615002666638, 549.9749548673144, -416.7221561286613, -440.377013491067, -448.15024384228303, -456.6972219320698, 558.9642341342495, 531.476640163622, 529.9746969333435, 537.919487306738, 538.3885410309603, 547.1108930180174, -415.56956684974085, 544.6201811232345, 540.5616924461452, -448.57958999138424, -435.6937591644713, -353.12697000958417, 537.3331970105123, 546.8932256228263], [196.05646505008295, 215.6389005219845, 208.50522939541258, 206.65391307843672, 197.2271411856035, 209.13839832908465, -165.27794204385444, -178.04320681715154, -182.26514906221774, -186.99676535462584, 212.75257580876502, 197.1458768198621, 194.20595775715643, 201.96366799928305, 202.61085434947213, 205.7222916445622, -163.88865996612014, 204.8184583021008, 202.92958851629453, -182.49069971105143, -175.37659304996535, -120.80096470082802, 201.1179652174313, 206.16506837003539], [787.8356172362953, 825.855447473856, 809.5667491101285, 804.6353413331649, 789.4384484304521, 808.5907405778361, -605.7199965991194, -638.124274281628, -648.1071735495298, -659.4484669697015, 820.9727315390494, 786.5586988793642, 786.697499173157, 792.9523902565402, 793.4774155220967, 805.3926422410374, -604.1137181870255, 802.9764693254319, 795.7694013314324, -648.287291856021, -631.7367788089956, -536.5719861156289, 793.5107961454942, 804.6781153324041], [202.4957097597927, 222.44017611929448, 214.03106948880404, 212.3895045748251, 203.1993876465041, 214.9238036116313, -169.51173233470365, -182.65237541047668, -186.6527417804061, -191.90218514390781, 219.5142563537972, 203.33458193858536, 199.90215433837494, 207.43348562733928, 208.18354996410653, 211.96175427289754, -168.82942374210307, 211.7644862891563, 208.58833859899744, -187.23448591350305, -179.2924321001648, -124.57125301188152, 206.4214387604627, 212.58578758472663], [-205.27502457287898, -222.32012540883971, -214.52722239127954, -213.33677274181719, -205.44121787885038, -215.82588687138067, 167.20636414433326, 178.0427699210136, 182.52822436017698, 186.82735780253196, -219.48605336354262, -205.4037311306515, -203.56922847864053, -208.48399019947442, -209.181602678586, -212.56336264222597, 165.86169061668798, -212.59861492096928, -210.07623577567355, 183.18243832545687, 176.10572447545397, 131.1079751768364, -208.672976754679, -212.5155500577496], [-171.12605588437032, -187.1722825608469, -180.00645685578726, -178.68415008714197, -171.5738882263593, -181.28247098019025, 141.60850648178382, 152.5613053376135, 155.68028023633198, 160.24395188440303, -184.6081880399194, -170.9299140588718, -169.37606799111134, -175.20344141441547, -175.58315967151722, -179.1208720711557, 140.33838107156376, -177.97779173386917, -175.9234457231251, 156.06303253657242, 149.54246075283316, 107.41069977099109, -173.84501688666066, -178.51140058693227], [199.01575843349903, 218.2036031311314, 210.89235427957962, 208.7786827977226, 199.93776842267675, 211.4335511478872, -167.68550012692603, -179.75949597992093, -184.1778372344053, -189.23749314206447, 215.3774793656592, 199.47327840987563, 197.46003543868213, 204.94180020001386, 204.97903955476545, 209.07467972841198, -166.4266369436411, 208.07390284839636, 205.71552531452835, -184.5647023196749, -177.21907172036205, -122.32811739407795, 203.55661421878185, 208.3534803398373], [222.55036103795663, 242.66029253505266, 234.62376067064747, 232.26005683870613, 222.6471396699547, 235.59019332294974, -184.1168251204715, -197.56898553973235, -202.07678715524415, -207.9304999718583, 239.48787682153105, 222.43927579460123, 220.18843011294234, 227.64361762150193, 228.48384465935948, 232.49959599277437, -183.856938414052, 231.35492357197742, 228.89177578308508, -202.6204636568906, -195.59254600309404, -138.99925271040738, 226.9089191171169, 232.1359877689689]], "biases": [[67.34833614299959, 71.80376959339802, 70.10097087517148, 69.62062655086527, 67.38232602083244, 70.02733489598319, -54.489491357540125, -57.82700783279859, -58.75254461817589, -59.87904891432354, 71.24044308100311, 67.35940391661883, 66.88878858253933, 68.44673454299289, 68.4767174558231, 69.66972303378904, -54.31057889298353, 69.3865338401856, 68.72939800202533, -58.752559112851124, -57.106142598876765, -43.60310992607817, 68.3434257244892, 69.61067081888524]]}, {"units": 24, "activation": "sigmoid", "weights": [[4.078986140885963, 4.369948927735396, -3.9717888410935056, 3.154931617297497, 3.2751978115948206, 6.287258265193615, -1.0588350111742528, -2.757436252612043, 5.3490947409828635, -2.3905578509735435, 5.395645187281136, 5.364730669402218, 3.598112544685874, 3.8942188314042654, -3.350895903220079, -1.1471862560585777, 3.0166661125151477, 5.467670894664584, -3.630370524683677, 3.629824478155058, 4.916628570980619, 6.956828782572529, 5.539866179295331, 4.563181741200623], [4.004762009665856, 4.597012639058591, -3.7444463642836827, 3.4950631311100575, 3.538841257364542, 6.482258992443222, -0.9445709559108468, -2.0879360970835457, 5.401127136166884, -2.273140419807173, 5.531807641789634, 5.574288002300648, 3.702930088151607, 4.417853991369627, -3.0029866510003655, -0.6956805386033919, 3.182035014718439, 6.475595102291588, -3.032692268732091, 4.296616060297073, 5.0683849626807165, 7.084313519279576, 5.6601209573537385, 4.437147799555032], [3.287153983923999, 4.257726664234528, -3.8476546960122513, 3.757818124599422, 3.7938290234412047, 6.532583354829967, -1.4844437606128058, -2.5965628216008825, 4.646230838625755, -1.5772832180396443, 5.3827228212030604, 5.718740812011827, 3.755517580513893, 3.7486351538991003, -3.4510382805269786, -1.5038946440342396, 3.374096257828573, 5.682800975681887, -3.530267518003973, 4.083685017906895, 5.659640446184191, 6.9874357977526165, 5.45852716625668, 4.319841881720195], [3.2749701467085863, 4.4544029250709976, -4.138619674523899, 3.5159553964000976, 4.1843166501758535, 5.876720112025647, -0.9842188721686337, -2.007058724962661, 5.115818003326808, -2.1574780685303496, 5.445161073500813, 5.848210942326085, 3.7782852940541494, 4.171387368131971, -3.3040937487927997, -1.288536786885875, 2.805860318906967, 5.868542395051082, -3.123230148750166, 4.031336360901238, 5.656689751545902, 6.7405113812421815, 5.480985293779639, 4.290996416503286], [3.5183508194055273, 4.7859147059749425, -3.9399532305667653, 3.9449583514894324, 3.7733602349464364, 5.7567968878205065, -1.501036739463217, -2.3351206762617958, 5.393075421729002, -1.8748471570624894, 5.668503041043953, 5.3758510609937336, 3.705830500433441, 4.134106313980231, -3.3006495282324733, -0.6455392211445988, 2.722585949571535, 5.892433736852816, -3.0692997497562757, 4.1561436915752, 4.895233148677824, 6.680443612371528, 6.059780382804977, 3.728374819842853], [4.01862497627911, 4.315277430087896, -3.4254607434222013, 3.734085114619865, 3.675988862910957, 6.617370125411159, -1.7775276199036714, -2.6985473351452094, 4.828800017596347, -1.5304278331850205, 5.286584381511118, 5.695424310519461, 2.9019734523059793, 4.359561074964164, -3.584059957490668, -0.9076569419529024, 2.7131464419118934, 6.427320988306363, -3.0264194455368485, 4.057297636990969, 4.80812555072374, 6.908709433084057, 6.198166761591271, 4.093085543657596], [-2.5195274660720277, -3.5347687064010618, 2.6691442451668492, -2.283577166025138, -2.2832757433908446, -4.592802658697887, 0.8415287367279297, 1.4569391454772544, -4.015316007857862, 1.220315517713826, -4.092957799076934, -4.727629390663647, -2.556919131260662, -2.6680384984519985, 2.174315378635922, 0.7721159002724293, -2.1269524044982098, -4.746426078337565, 2.7911608083271213, -2.5500574213447695, -3.4570439613773227, -5.3812853618381356, -4.480565607556971, -2.9993460699944046], [-2.766143069642477, -3.7077656227218854, 2.68320027293172, -2.7270911397736124, -2.4591705022574724, -4.58039090543534, 0.7720407978538573, 1.9319485271834131, -3.554211309172706, 1.6240523689782154, -3.493013412264092, -4.539316387469144, -2.7109243141937673, -3.399098336970535, 2.7796753499299283, 0.31394634838421004, -2.4580992623561473, -4.676537263675183, 3.0228858686620788, -2.663616206880478, -4.403276292703509, -5.575345320996213, -4.2274507775858865, -3.4665706059431023], [-2.525454342690744, -3.5424427319260765, 2.573291581914302, -2.462463477605616, -2.839214463743805, -5.2228766484361335, 0.9255465474282778, 2.122427488857056, -4.187613569406868, 1.7153634276228698, -4.120264769254897, -4.181170822749256, -2.957497981995974, -3.2627303286788805, 2.2564397791043085, 0.7013919459634457, -1.7982585515221545, -4.878904925060486, 2.5021176956675, -3.364159762509009, -4.30418689318737, -5.287738154344036, -4.117328854518109, -3.4738504249249473], [-3.026897377487182, -3.61092908723264, 3.0652052646157215, -3.048828183152077, -2.6797509818857406, -5.3496760349873345, 0.8721371964553566, 1.2073206866811408, -4.353273410928936, 1.5315087450505624, -4.477658939256771, -4.629547418307658, -2.3774410475987953, -2.955758930286057, 1.9350769926501654, 0.7566338967126018, -2.5947743006553736, -4.234058621385166, 2.7959984855381355, -2.6059577054311998, -4.087094318325447, -5.54689561067966, -4.77767039548123, -3.3038489884225086], [3.451768743054735, 4.506151590340226, -3.243486503265687, 3.9053296035025595, 3.7398820967990667, 6.4738267207496865, -1.141516745931129, -2.2800449941660723, 5.044551169731716, -1.8180960247688496, 5.720000440903315, 5.797836858121457, 3.5981949988986592, 3.9602682355211916, -3.259374209175032, -1.3389773288337607, 3.1508688063606014, 5.875065995472529, -3.557947159459765, 4.450267362183404, 5.354607283606748, 6.4703985498766885, 6.174559281933497, 4.639391162884484], [3.74714010923047, 3.8620025781104674, -4.0131992369989, 3.6215181866408193, 3.354224370473218, 6.474327295614835, -1.3158317250928693, -2.3531837173820636, 4.6822949296775835, -2.4902170490408158, 5.525154139578012, 5.654185477849132, 3.2715815779803408, 4.0676800068974535, -3.1272409579700873, -1.4147633237928179, 2.5724413923708114, 5.9866663990626074, -3.9099791430803075, 4.437962813049399, 4.705996034133346, 6.554977695751397, 6.043882435777046, 3.774846361524617], [3.944460522674145, 4.286633070537627, -4.1611525341407285, 3.35391864461545, 3.708620064727658, 6.475107198234664, -1.4612943985422449, -2.740129808471787, 4.780456783133791, -1.8318981110146826, 5.041912556941904, 5.276034314072867, 3.0059609113318726, 4.205191030342666, -2.989602364757162, -1.3947568446032053, 3.4140938586255016, 5.923742431214339, -3.9505425437924746, 4.021078353744836, 5.077912828835341, 6.667101388397503, 5.737145459744827, 4.455203834812982], [3.3042345645070546, 4.628960297048946, -3.9654189108678697, 3.285730799617337, 4.193808615953163, 6.025129685515455, -1.4828892013258488, -2.7324397675248813, 4.7222687736603195, -2.300998933261586, 5.234178565412234, 5.698414394428318, 2.974596996611843, 3.8910230070144496, -2.793427651043752, -1.081886281629628, 2.898141759656103, 6.29000538292263, -3.066945853954129, 3.919071510911659, 5.280878377682653, 6.841725732376451, 5.750449526618264, 4.231449875460343], [3.1556299449414125, 4.199514100142471, -3.4531564606358973, 3.3116580537224736, 3.4445382288483453, 6.2871498989697985, -1.9282953742106617, -2.0511309067487753, 5.399410597478983, -2.087195208351578, 5.620122564959284, 5.241550816149523, 3.308025939525201, 4.136297033268482, -3.2134422827519487, -0.6565421064362612, 2.864151019603726, 6.008267794842, -3.9015188261388296, 3.65032541112366, 5.329413550203002, 6.766031197598357, 5.955192031288477, 4.277970804086047], [3.6980305419441475, 4.3703124885097075, -3.7031355298734447, 3.373574280433457, 3.7911320368937957, 6.032699557216214, -1.7547710000719792, -2.6804395300790973, 4.6168879714488895, -2.366091927527242, 5.7185358082191025, 5.968064011003301, 3.7507822272187092, 4.0209647741890295, -3.253904507753061, -0.6968043849640476, 3.026773780929665, 5.7738947572521, -3.156617435104958, 4.013971123076012, 5.606335666300831, 6.6632789158886805, 5.582824221767205, 4.358870466817697], [-2.1650992165807263, -2.9175951974468326, 2.909991985827924, -2.095541309709911, -2.7341894890025067, -4.990440518629668, 1.2112430231106808, 1.2458921469527218, -3.485739920214839, 1.7922611281161698, -3.7663541882823415, -4.697713310073755, -2.7079299336061684, -2.9137696362474768, 1.8379491961301335, 0.35339751321184887, -2.460339735677252, -4.82734157966608, 2.399021121258472, -2.8097773685724103, -3.9559082963792966, -4.982097053022478, -4.432001848783766, -3.2645139047353946], [3.334592363462245, 4.619832335785194, -3.8609589082668694, 3.333141537010519, 3.638700071722997, 5.799458300977899, -1.4439107546101222, -2.7662813683874066, 5.45965239495458, -2.253945540967791, 5.497091926610211, 5.471267420754542, 3.119943567930585, 4.428849743310919, -2.899225707145838, -0.8829374597684395, 2.9398443368581466, 5.672152405918125, -3.249526921634208, 4.265452063667737, 5.672303545014106, 6.876419877854782, 5.487520899351988, 4.528142985241144], [3.9986327841558427, 4.102458570452965, -3.5044742881566946, 3.948724179867447, 3.696340692685251, 6.664983878989339, -1.6577380670686677, -1.8971213213986715, 5.023321864963101, -1.6797831849820417, 5.364902936948581, 5.9612829065832145, 3.1903675550253605, 3.8355424601856987, -2.9313922643196255, -1.2230030791987256, 3.4449861531715267, 5.975365742759464, -3.8395905563585697, 3.9725306145547594, 4.710550209553256, 6.38781777417606, 5.895746496896095, 3.882870757126752], [-2.3727803784866475, -2.9959759231858545, 3.143396537057699, -3.0581895253846967, -2.5891352263590894, -5.280311420827299, 0.8895207462338123, 1.9322445882497525, -3.764826009411, 1.546218903047978, -3.956693219276367, -4.280579933850735, -2.7439139258033527, -3.2905970321111266, 2.059780016671856, 0.9434446491496524, -2.1230315448262234, -5.07568749575592, 2.1262675655651644, -3.440525001247281, -4.068358950319501, -5.645482658029379, -4.570520171370696, -3.2379386411694484], [-2.3511752513141184, -2.974957605564958, 3.1879794609569845, -2.9765511914983582, -3.0511203852739444, -4.9076519647987515, 1.429836973247519, 1.6897160986367845, -3.8035472702998967, 1.2727685824666535, -4.143992124059777, -4.554571847977746, -2.266985915455051, -3.0776013450834934, 2.106538200074571, 0.809933548783489, -2.1075471474025833, -4.409640068494766, 2.9144300101763423, -3.3562199811121207, -3.9004320419018743, -5.569372677415798, -4.258355447840563, -2.9219211090830766], [-2.491383956011932, -3.174078166604836, 2.6401582760477424, -2.2718140375831384, -2.8557311761687085, -4.531921470123744, 1.4885272286956983, 1.3645757367031586, -3.9586328168499083, 1.4812234404214204, -4.217783937558683, -3.577202489540972, -2.4389369064639803, -2.562028764311995, 2.164854843432332, 1.3253824248491435, -2.150881983216828, -4.339865226889058, 3.062019864141448, -2.6463556464378613, -3.369614854076873, -4.990049672411706, -3.8189188061105575, -3.6000126019197847], [3.662230343390036, 4.096879436307453, -3.2009314053428035, 3.9646843753694756, 3.4339685831287294, 5.982278455613774, -1.4976131039727647, -2.397630214042226, 4.646686411675827, -1.4984666498752834, 5.24337397387561, 5.461793098817512, 3.725331984797448, 3.824744346680186, -3.3472875595942764, -1.376675698903916, 2.826027531262409, 6.10141229374097, -3.864584151168385, 4.243323425616649, 5.628307229982916, 6.473346082861302, 6.04211269046474, 4.411739798245396], [3.6622134528706867, 4.442283692667848, -3.4288147283463695, 3.492123051881049, 3.9594060027596867, 6.228624135927395, -1.3364313445908982, -2.4879587437409048, 5.20311783834697, -2.3585411813054624, 4.807542756834506, 5.824140589657595, 3.109280927518678, 4.157588048044164, -3.3165782142523805, -1.4710618464858187, 3.3736417556202567, 6.3038626715957635, -3.175129516936882, 4.465737391788874, 5.275109261398561, 6.757273480258024, 5.68333220751171, 3.6844886698386428]], "biases": [[0.9271370900028297, 1.0498242378246239, -0.9044488962686182, 0.9034885300765262, 0.9591743970941465, 1.3940294922910248, -0.425284382477357, -0.6180017827100523, 1.2074305764855264, -0.5517332491325468, 1.217221740678533, 1.2788781702941994, 0.8894983471377405, 1.0049246860694452, -0.77569070466455, -0.3169495459618245, 0.8062133430927949, 1.3521845130169134, -0.8765263869502292, 0.9896075482178863, 1.227819673198067, 1.4718215360981528, 1.2943340099826102, 1.0273538465384362]]}, {"units": 24, "activation": "sigmoid", "weights": [[-0.5250825464713944, 0.9187222870136532, -0.572855282523761, -0.8260434621213282, -0.7980304889838804, 0.004648645032462438, 0.11922738869959236, -0.5821735302161969, 0.38622942563588814, 0.5742070289636118, -0.2379142057439616, 0.6003265587063781, 0.7685013800987954, -0.41245488359302834, 0.4239447937338287, -0.4801996811831043, 0.6402029487977966, 1.045106338724108, 0.5349155548467591, 0.1730771530707646, -0.7152345319931765, -0.8494259522585941, -0.013393215366523237, -0.659866841779216], [-1.097118865652739, 1.202539392829858, -0.11491941468263198, -0.20756789840819972, -0.01915826741839032, -0.046849997552211385, -0.12314182369258576, -1.2957611157329243, 0.3225225440279128, 0.7034994317705532, -0.6950435242087941, 0.8959506752541377, 0.5902201031329056, 0.04562383082545882, 0.843586939780466, 0.09351158584209113, 0.239987561804921, 0.7953016930676314, 0.6656071219736744, 0.1849109850585141, -0.10958943129204393, -0.4729896767019071, -0.9894834104395039, -0.9043790813114524], [0.7952314663509081, -0.5036307998354292, 0.6636033600131164, 0.6151240970389916, 0.4558671735485636, 0.09078270061012193, -0.048843616525652805, 0.9415680712215381, -0.2412721680132963, -0.23737114999746967, 0.3328078051552024, -0.12459665974914017, -0.7900958659461431, -0.25721167977655146, -1.017624877841263, -0.08126357677993881, -0.15403914450768974, -0.3929200379263491, -0.6282141710983692, -0.06331156019937748, 0.6575453775377066, 0.5421365343025013, 0.6243034871321032, 1.0153957639557785], [-1.0413505136585521, 1.1942282074843582, -0.5129350540881922, -0.5809443165253266, -0.1938499675457765, -0.05513987226481026, -0.45780137913306806, -0.6725725734392533, 1.0417892870411256, 0.6576950057081802, -0.43298213893133236, 0.8264275688248972, 0.5119123570685582, 0.27490574813018187, 0.511866385020513, -0.4365154112269698, 0.6285103671677928, 0.9710574368542185, 0.14171948111796714, 0.5355406114240453, -0.31710027020608833, 0.02524939014470163, -0.039487758955696686, -0.2137186462441622], [-1.1410531158602573, 1.0307418076054018, -0.03063652749656573, -0.8109179883167623, -0.4811874923890305, -0.1875376798641155, -0.613840653631979, -0.6341263295550282, 0.30905450317749816, 0.7073712452597892, -0.5347600767274847, 0.4413297650874887, 0.3731898430561828, -0.388637686284423, 0.8051697890623303, -0.6529300711050079, 0.8367856591952231, 0.5256004038974826, 0.5709093102220194, -0.188547291105901, -0.4346131609441227, -0.38566614438636604, -0.27006006769293855, -0.5609325907096346], [-1.3325069981268278, 0.5880488812045733, -0.1580321404870416, -0.42916252056345144, -0.8973403479878319, 0.360800779484864, -0.8193068806469703, -1.255765479732636, 1.0083449675814884, 0.37946324934779035, -0.44919407511730103, 0.7939397174935073, 0.7421012700608882, -0.1340388637334719, 1.1908458250844016, -0.6420242767133246, 0.7991791137358146, 1.4953951902876135, 0.8734226938369088, -0.231487317055082, -0.11132051959661823, -0.5873813939032521, -0.5655789828036705, -0.4501818695667026], [0.7020076495953403, -0.25947552158879966, 0.10903522848790999, 0.632529305230167, 0.6944732386130829, 0.03290062990837701, -0.19765941822082653, 0.2782742963405136, -0.6060607217949124, -0.5772315789737237, 0.08332359046072524, 0.10698828760253355, 0.12078864942187452, -0.2969331176916837, 0.0432726891479173, -0.26445386899250184, -0.24834144447084028, -0.6379840800582923, 0.02834990376281092, -0.2005438461021922, 0.36572746527430733, 0.730835962265141, -0.189692199815748, 0.48390931907286977], [0.6852660621764914, -0.4209313897091262, 0.4614876916567433, 0.21310014812172767, -0.03104802102643241, -0.4767359976340687, 0.4088914727392176, 0.3238614558312824, -0.7233138306351818, 0.08969362873402707, -0.21198579763684572, -0.7260854976088095, -0.05446172790463025, -0.23311230245403908, -0.07795325690981804, 0.35211497335322417, -0.6123509915518575, -0.9435895169036119, 0.06954932092452783, 0.024040191694837957, 0.7477353509386716, -0.10312328478063026, 0.5420594779193142, 0.6959141184160521], [-1.2847118659979104, 0.6113536801115986, -0.40503499898287737, -0.04580818934929751, -0.6003796953548343, -0.23768392384848158, -0.7175315992536431, -1.2006702793931414, 0.9045875744518592, 0.282387067159956, -0.4661457738160226, 0.2267670518622667, 0.6921029012428876, -0.3339273606161063, 1.0323994101772427, -0.2395338078727201, 0.5571687297050266, 1.1303552123022216, 0.6389789033267772, 0.60117473431368, -0.29743070414088657, -0.876556440685319, -0.2443364948364039, -0.9989609516087609], [0.9716953423746748, -0.5923377232355869, 0.5394283108926843, 0.04795261009748534, 0.4524664675787361, 0.2638671019630197, 0.47325146205480795, 0.9774026531629144, -0.5382318127392922, -0.14915901791500136, 0.10550896321824038, -0.20563612302769918, -0.6669707896115764, 0.11892009828770965, -0.002944825109812269, 0.21837081049493115, -0.3192184179675522, -0.2738435823243166, 0.1722507539736368, 0.2747384494328055, -0.08842283814252533, 0.4241784796822679, 0.22592297616143103, 0.262537883944741], [-1.182470366438551, 0.7187704030503271, -0.25628874319994494, -1.0065331636289574, -0.13576699683118457, 0.058972108674791315, -0.24407991309007832, -1.2420763741180438, 1.1517285446437897, 1.0321466293300297, 0.20456126293548463, 0.08673556692902692, 0.8680927848932617, 0.22932799592822872, 0.8206407268363979, -0.22920382019004812, 0.6377176684117462, 1.042932902450389, 0.7411908370617689, -0.22481406150614766, -0.09778311116452239, -0.8432401364114298, -0.8430590179540105, -0.7612334984357051], [-1.3861295990731621, 1.285666580979512, 0.25408847441223203, -0.5153896307938023, -0.5676129571591139, 0.5145160001100632, -0.7436035551105501, -1.1068454934706309, 0.3384641445763149, 0.8600848727739754, -0.3514902702876683, 0.648950732566835, 0.37874602920636485, -0.01921897242924836, 0.6097893743452425, 0.1060585950336442, 0.9276841412205502, 1.0518237167952011, 0.22991386123222823, -0.32743159161314966, -0.6998483831846708, -0.8325192283673261, -0.8351232209577749, -0.9294134990335016], [-0.43052333899398465, 0.9413602767427838, -0.331156245238287, -0.6825147050561026, 0.05577370455519185, 0.1763814397344568, 0.0010403878393875578, -0.6290456332665739, 0.8253530535755575, 0.05108148165863082, -0.04572468372810108, 0.8846340259186563, 0.8819473329301825, -0.29629608864105217, 0.5025240555486385, -0.007350127902555819, 0.8885328829760373, 1.0963549614926096, 0.12719023687557948, -0.32537920159727984, -0.7771330763429296, -0.5445068549687, -0.33830400366102825, -1.017535809216944], [-0.6198066600310039, 1.3022844129041389, -0.2290214159444036, -0.9919581983915894, -0.012828009087254072, 0.20276290650168124, -0.09601820514409636, -0.6141796155008156, 0.6240790751887952, 0.8783006752232552, -0.4128847017868076, 0.6259527846086947, -0.045475349803845086, -0.15810741995906014, 1.0044795632898187, 0.2021742232116693, 0.9300708731364277, 0.9822752036585083, 0.2887607866044484, 0.4630230946063398, -0.2550051053967912, -0.48733624121230895, -0.858919920400563, -0.646395963676535], [0.7501837719546385, -0.8919556316626319, 0.23768465765213231, 0.45608998248202953, -0.1524647630911409, -0.13987767016316643, -0.007539390930014934, 0.8515285657968434, -0.9507128858297567, 0.10684436813496807, 0.011398005158181396, -0.6986424016983657, -0.12921612002337823, -0.1420576165743996, -0.37283451640830406, -0.24911246244458526, -0.45486549551898514, -0.735193456327951, -0.6809077691317285, -0.3703661342754973, 0.17705893642276876, 0.20994225224054416, -0.061547584716393974, 0.8766282059937209], [0.43861771559109924, 0.011848747767507634, 0.5902825028067342, 0.22344361433900645, -0.11312057617794402, -0.20820059922338105, 0.14611936892982028, 0.3372249390613187, -0.18743623174480287, -0.6563353469227693, 0.5210895293748661, -0.02112839471439665, -0.26594029934688934, -0.4179554035910476, -0.6907330895887438, -0.021792054469150314, -0.4470432834464969, -0.03532373858839034, -0.1207687708063229, -0.2704670713991284, 0.5233615002984162, 0.44306544373106244, -0.17706769327464425, 0.15096526024241877], [-1.035383899152428, 0.9843293129640319, -0.4573955334239339, -0.3431439166201431, -0.8800245758725427, 0.6268103170901935, -0.24695284689798983, -0.3118412052304518, 0.8871750569427939, 0.13601693658965983, 0.051392012992257784, 0.9642621110935605, -0.054917546809868274, -0.039485227058386196, 0.45199997366632144, -0.2058727936941481, 0.5485187440744133, 0.5724574419405024, -0.15989972560312923, 0.4311539060686677, -0.338711699911919, -0.8136438357979634, -0.8132424957786635, -0.37706677148600015], [-1.5022144107647188, 1.2534720713080285, -0.6595135666820242, -0.8990021997528422, -0.8772207077760559, 0.2244681775979532, -0.8340183261541907, -1.2848473604562018, 0.7546786568766648, 0.988389349797022, 0.031091802062587017, 0.16278062048178937, 0.04361517358563473, -0.599295492014968, 1.106499904648067, 0.013958650542923869, 0.10080584034366023, 0.8989908351020558, 0.5717631820175197, 0.5476039302538973, -0.6378695347356712, -0.33216011887128893, -0.40771475035585913, -0.8170794630564946], [0.5559916577575738, -1.021693429813586, 0.5107024700619445, 0.20125984850213513, 0.4309029508081494, -0.45224467840707316, 0.4122530171347664, 0.860020250968492, -0.30190067921374647, 0.08806903516578019, 0.5771767481241771, -0.7826243295734723, -0.37267961417925505, 0.31405859166233935, -0.8485751361244359, -0.087831903220995, 0.028908506189189668, -0.6649411502975766, -0.09220325950100139, -0.18184821907426993, -0.16244269523125698, 0.47821848368734926, 0.7587178970007803, 0.812380787365155], [-1.2386558473683444, 0.5335988996346216, -0.09434686480849465, -0.05411520914727358, -0.08742816699157845, 0.07896954097448002, -0.5622379556846295, -0.6650831788044829, 0.9242904434982634, 0.8248679740581246, -0.6884375649063775, 0.3817631971145889, 0.515936806909211, 0.2642218697063506, 1.198683042864911, -0.6865521963363569, 0.5841867929930903, 0.8834696268666886, 0.5330698288126748, 0.5827196866462199, -0.2152465394868933, -0.5027667123588256, -0.6709101367771552, -0.45029079167774927], [-1.056504087273574, 0.5309419646810141, -0.7102640874565643, -0.06135663824702684, -0.8535978640509873, 0.48331390434190213, -0.6329216894317461, -0.895008468356948, 0.8292203040444969, 0.8931068206784006, -0.27341175621013597, 1.000762044461657, 0.6299770023531958, -0.3716423178907746, 1.093201174927554, 0.16860187591505593, 0.7795335835990442, 1.0008303840319022, 0.7314486930017557, 0.5856760069368013, -0.6949489267269026, -0.469570627212757, -0.8507391476888808, -0.350348686330896], [-0.665825374370889, 1.2245640498246588, -0.10549579802249393, -0.7977345066728194, -0.7593848300137043, 0.3533320197355847, -0.6830602684015498, -1.3732445028250193, 1.0262955521808494, 0.9547069788910256, -0.12720148864984598, 0.08746142005236994, 0.6506574695304997, -0.5128127451856461, 1.353855301268022, -0.43815469071258994, 0.762226611943628, 1.4335706651688054, 0.15617667231628146, 0.3286221321395535, -0.8263010022925837, -0.16214771391689742, -0.9902324271059131, -0.8628418894521142], [-1.173839914314413, 1.0062857524965518, 0.029491913516202884, -0.14075100311078584, -0.7290457005944216, 0.3670280783973262, -0.68053420148426, -1.4135416596712131, 1.2073542314977388, 0.6261296983527193, -0.2872645448734196, 0.30490958706448157, 0.7055846034110007, -0.10375649189895596, 0.5948154402254497, -0.41009063059480233, 0.7555586241631487, 0.8930848187893963, 0.7793573736391725, -0.01588263340456095, -0.7465256881957397, -0.8368931203035961, -0.562865972910054, -0.7397369136889754], [-1.100865638467606, 0.5160766015794221, 0.018094908319561124, -0.14616148082316222, -0.882363505046194, 0.5214539414752588, -0.5301890844129024, -0.4353613047675944, 1.1541119159875595, 0.6961631411404104, -0.25266241140592405, 0.7311656169335158, 0.3816489658427169, -0.6084233242468958, 0.6936453334062155, -0.627080726037468, 0.24582580859558623, 0.8993211165391082, 0.3090101312136568, 0.42211897122039993, -0.8854048686106141, -0.7192836879561088, -0.870532188108754, -0.4301439405062873]], "biases": [[-0.1896601860406933, 0.16333185607547698, -0.053149388250390506, -0.11254404897320978, -0.08955421853314391, 0.04537724759347107, -0.08485696996929983, -0.1714413319873291, 0.13932041338050327, 0.10139280637656152, -0.04708306704762797, 0.11017265441191192, 0.09096318460560428, -0.04658095287449401, 0.15622126805836156, -0.05229309380427926, 0.10285064468172182, 0.1801577625801801, 0.07349341069812694, 0.03854249104734389, -0.0892640327441097, -0.10122678331429094, -0.09604288957355941, -0.14921441207959973]]}, {"units": 24, "activation": "sigmoid", "weights": [[0.6702576723225641, -0.09065084884563647, -0.36011651566872815, -0.6916854643555256, 0.1600177986392632, -0.37970508864291364, -0.04629837956673551, -0.28503715390700496, -0.05531563722744201, -0.1311481409699508, -0.3271737829364144, 0.5930210391846813, 0.46467050438711915, 0.4273519177159327, 0.2899383321120869, -0.14897432127517238, 0.0016839914505788608, 0.43604313788654375, 0.6056097472694497, -0.0039336638066090335, 0.13905674354484512, 0.45971566592185864, -0.345851762972481, 0.12336950527758671], [-0.7252241948863386, 0.36822657679867526, 0.06677987734848267, 0.735386212571822, -0.36569901323239756, 0.5005365272273326, 0.2944799880174831, 0.7082139957979353, 0.3383609467098621, 0.41118668799559793, 0.1776215828227216, 0.2049420985034817, 0.011540625549988017, -0.4787372343590522, -0.22130329951740788, -0.35691016681763565, -0.3910992866539387, 0.2788382854424964, -0.1727022696576448, -0.2999363172642328, 0.026260145024438804, -0.205740579238624, -0.12029269225925426, -0.3839544770213009], [-0.17218726105674806, -0.2982685363462331, 0.1689858730909349, 0.1398472750130775, -0.1403257456079648, -0.6022117653061057, -0.45027245410629896, -0.00828888657392248, -0.2846288710496882, 0.10563558860803096, -0.15436022612300432, 0.5535208809903946, -0.016789234004177558, 0.3360127114588368, -0.02984903367021473, 0.32064929775942264, 0.3496915728226657, -0.4819431725802099, -0.0017367408460394898, 0.5019843788787222, -0.2539135427753693, 0.32589807481204125, -0.2780147187678754, 0.40910194610199635], [0.42310624419608206, -0.45169613165556055, 0.13337364100426047, -0.1525072076079279, -0.0019148517066378077, -0.49037493434736196, -0.21835396915785263, -0.18414789336529802, -0.25413670880833406, 0.43287797106325887, 0.3110028106285746, 0.1260757519257384, -0.027720089709522416, -0.06167770570747216, -0.4824091126749721, 0.2940643311561458, -0.22175312541799175, 0.2726274732584987, 0.337167227830461, 0.4953146318715112, -0.3470752274273338, 0.14848713088801158, 0.07756448202569838, 0.157621090850828], [0.25938703008223224, -0.034815370423922395, 0.2950824699023225, -0.27573782680377706, -0.05134914222969787, -0.24306215806129036, -0.4088383908273933, 0.09813524058647967, 0.07154914538427436, -0.33685628991878436, -0.3895738352825276, 0.54704057994504, 0.3032850880531119, 0.35383821833303414, 0.22568103450262175, 0.14652990890304524, 0.30851982312315146, 0.17330168346192934, 0.43770815132511914, 0.2545631529858873, -0.24256145797292405, 0.1319434597296937, 0.3626648564813542, -0.33815844303068177], [0.14999462184898069, -0.3672041359149926, -0.39285485732352987, 0.09597744519567523, 0.3591282188565056, 0.031808599423439735, -0.2063183565963143, 0.4404477035565302, -0.03374062233469018, -0.24881128971066868, 0.3089368763743354, -0.385218544881402, 0.2390412355670653, 0.3736301778031259, 0.5588080804161134, 0.27241085975396423, 0.3337550404762444, 0.18662411056472145, -0.43360702102307724, -0.4072219228002478, 0.12835724501394283, 0.14576438024262722, 0.18370743196122327, -0.3181272295151232], [-0.2235304015473119, 0.3363797750718999, 0.3995034702259719, -0.46099893137085357, -0.026676028244223028, -0.5451305447918753, -0.3716831553701204, 0.05669507197669612, -0.0591497351184585, 0.31191242930052687, -0.1973888974102164, 0.5733510575183591, -0.062095567913785246, 0.14480768927421278, 0.37581092017761075, 0.12583066882511723, 0.46788264194236, -0.37232773677456943, 0.3334567102895926, 0.009707642097373707, -0.40077045175531156, 0.4555566284221987, -0.4673316008386722, -0.08511389169670865], [0.48976725729210785, 0.07281933645717005, -0.1170610445632765, -0.5853592626126847, 0.6360128999145873, -0.6561511480307637, 0.1896955414078819, -0.5814587882254331, -0.1423051992666401, -0.49579284899284765, -0.4735452370408702, 0.43177255428146805, 0.42734781004512207, -0.2045147165870292, -0.04905549386097426, -0.3497705786526078, -0.0432726240285199, 0.3963194739267241, 0.2779202307051364, -0.17168106870098906, 0.38676282479021556, 0.21307478594745205, 0.383316700314366, -0.36906653466146055], [-0.4946687931490515, 0.4150862977841543, -0.40643611209580344, 0.5330793433480152, -0.3491825005711026, 0.16246254039552033, 0.050642810906863386, 0.6542168194579342, 0.39977164891471145, 0.3694821230590575, 0.20038770124918537, 0.007826057230109994, 0.002565133784256083, -0.6444910282587412, 0.1739875758021006, 0.1977485647543563, -0.3410089547742663, 0.3477424624051786, -0.22617131077298655, 0.13767448433635018, 0.06949768824075866, -0.202903812403094, -0.14640178227688283, -0.11913879293002931], [0.00275339939708256, 0.2979660483743587, 0.45695336004292786, 0.6143969574109793, -0.6193634160369041, 0.5476874486721794, -0.30956431688712677, 0.4883739904668275, 0.34993249564581086, -0.23176413452042655, 0.1677200516617919, 0.030966055860688957, 0.03429467866406115, -0.45916048306103013, -0.15673670096971562, -0.03589815756117319, 0.02089302562131348, 0.3735447996579814, -0.09809799961581694, -0.3508715175017758, -0.3755435051590894, 0.08020406741747328, -0.058136573568649895, -0.17410967221288395], [0.1729621333547879, -0.15038356959233343, 0.05941037189713179, 0.03412887992875175, -0.22817689550872158, -0.15140295470685933, -0.26532200030202824, -0.642960781051658, -0.43190193226327117, -0.37885347953658843, 0.22088918444559738, 0.0999029673219736, -0.46710908110427607, -0.2609453591760509, -0.5846614461654486, 0.10561456365073058, -0.23049704387425166, 0.015771604594589973, -0.21864118205596764, -0.15021423352653948, -0.3697329565868566, 0.41606285671746357, 0.2175207370251773, 0.3556683254983525], [-0.719286215559168, -0.26461622822772407, -0.1299113605673914, 0.5014394394420483, -0.33430300574915156, 0.12455930265656377, 0.2727338387113536, 0.3912009540629965, 0.5261513966735024, -0.2662530525665524, -0.24302947742407685, -0.4055735587578102, 0.4466680727759561, -0.1346320301154018, -0.11585933289942549, 0.024972766772897698, -0.24877764830033533, 0.22664180400563375, 0.08633738450925695, -0.15712202453916488, -0.004262731600263532, -0.20704375485676124, 0.5170086471431374, -0.34828107649314965], [-0.4404050904952709, 0.043231347559987775, 0.05643381937798766, -0.1749310390731873, 0.2653327983635336, 0.4205913232200135, 0.3669310934797314, 0.6497218790275426, 0.2892359699425985, 0.1558687856345926, 0.06368187780268361, 0.25239204436017815, -0.20572310560326632, 0.1431062620162529, 0.5289894339179535, 0.458053590890663, 0.3410718298739068, -0.24856651798983753, -0.6526310203692157, 0.36273789404539986, 0.06662592176874353, -0.3071175133078496, -0.047502859705139615, -0.0799172996763611], [-0.36023717872082206, 0.4688884132855356, 0.44887612786802084, 0.14408174314209446, -0.2400871187903042, -0.3832471117260685, 0.13650995166142438, 0.03835066470824959, -0.4029861763085574, -0.30365500499021697, -0.40844136688234567, 0.11625758785918612, -0.39363412423116784, -0.09770255086333424, -0.3738571790931226, 0.07963062989583918, 0.41059962655154925, 0.07019859180156851, 0.34506600435582735, 0.28096701375391814, 0.4464315201136254, 0.38471735748125757, -0.32489475594358175, 0.019015043039186472], [-0.4738164099119281, -0.10001021921848327, -0.49234782628916246, 0.23071800543845358, -0.5959095195820213, 0.05575156989512441, 0.2005815439558528, 0.4500936387683611, 0.1751881987409073, 0.1271536124030605, 0.04090120115854344, -0.6650237532153805, -0.059996812840225934, -0.5556509077738171, -0.20023695436953404, 0.12847720078236605, -0.3161139010021998, -0.44142739636573636, -0.43260006640053966, 0.24024571180795126, 0.15424659015165162, -0.6000411719103292, 0.1592082263013134, 0.35952493777091504], [-0.11315274225159051, -0.4087276841952242, -0.30528544810728564, -0.44366850008438835, 0.35544217893801716, -0.18395512758189533, -0.055713874913791525, -0.3139937707869444, 0.3376897466227635, 0.23184270144915142, -0.5020917860469949, 0.4534505414355617, 0.05269768882836095, -0.400960392155263, -0.21829542560252288, -0.1283362416589369, 0.45634819300321433, 0.40966208906421664, -0.3370083142259028, 0.18551498567847974, 0.28174634670323423, 0.07571091915269125, -0.054639305978193865, 0.19205859400047476], [-0.21793327493129755, 0.12131395819424175, -0.33463365252845445, 0.3541653841824934, -0.21338175375243404, 0.4359803389157595, -0.023267213085080292, 0.6925211224892402, -0.26858459011711383, -0.09233727121345209, -0.00662458841020487, -0.5234769835804347, -0.45861487558596753, -0.2018128372023029, -0.19878302257945268, 0.1374182095957691, 0.3502519010121236, -0.41373757886266466, 0.17783660835551068, 0.22235109942013961, 0.33454620947797775, -0.3716802104280234, 0.33399189016316916, -0.04797531771470959], [-0.3752160611783321, -0.3413415584515321, -0.12883911334941892, 0.2705642091631926, -0.4745402136577319, 0.26835630229938934, -0.03546533174094489, 0.686227292006389, 0.19603438368529208, 0.12266850816010173, -0.4368470556937984, -0.3147357273977639, -0.34462117123469693, -0.5895912405456506, 0.6009035077013819, 0.38943617319732177, -0.32970482920969274, -0.36298226848504594, -0.3925790428358197, 0.0608664410954559, 0.09978321638897253, -0.11777057626401274, -0.36118476116866194, 0.483964110472559], [-0.05594270809700528, 0.33196836637637867, 0.4455951635582125, 0.5451924328520221, -0.06299078149056966, 0.16096558621287071, 0.108142552211687, 0.4153502870557237, 0.16950630600461777, -0.42289142045027145, -0.397183150838831, 0.10240600041933992, -0.38051385252620057, -0.00500487192104197, 0.13590323714420258, 0.29354066603862206, -0.2921239817525772, -0.059851388490852045, -0.694260380856544, 0.3830378477331393, 0.3029981686245922, 0.16744180519260443, 0.474795719249681, 0.05980777259809152], [0.2027443857918402, -0.36613491089649824, 0.4068422417036237, 0.14756631012623528, -0.5091831876639651, 0.628591315578948, 0.49207493370247424, 0.05424704457489877, 0.0020234722491859467, -0.2706765760885263, -0.2871827749004709, 0.26922476553438635, -0.3690467652638978, -0.34138469904355173, 0.19161367718116945, 0.1399288353286543, -0.2747104582325834, -0.1948185035269448, 0.029483708068155107, 0.19896846308763647, 0.26803128402666315, -0.23271916019644148, -0.399502367369882, -0.14972677814590446], [0.21757680818581795, 0.42859167190354597, -0.19807662365865222, -0.09194341802442735, 0.3633987188280784, -0.24496501408574434, -0.0226135780081689, -0.26046557443442003, -0.20862178484322044, -0.063830951179461, 0.33382651226151483, 0.11545204445789999, -0.2675336328359746, -0.09217590348952175, -0.4614273018250466, -0.34872282274378547, -0.11935831672627277, 0.053241153359179054, 0.4077486926656733, -0.19770475274914487, 0.23587690062493077, 0.32729880887637974, -0.1989717411925276, 0.31458168536018755], [0.5209966626530909, -0.1755595752662313, -0.17246181132364713, 0.18013185454255734, 0.412032205813007, -0.6588347115897343, 0.12608690216844062, -0.08632677478895699, -0.5340633336221337, 0.19472672982291336, 0.3703974547142468, 0.3656025254537869, -0.26042100511422855, 0.133127960011966, -0.15621122450524266, 0.38018620391749297, -0.39568376045643633, 0.20870841171081145, 0.4220986407199241, -0.275037723712395, -0.17459345047615601, 0.2668838186259265, -0.1314952142621885, 0.4324123546577909], [0.4410085737719485, 0.5044200621937753, 0.32019407006844935, -0.028745147209306373, 0.32401550715565036, 0.04693330279320258, 0.18367907250579918, -0.28991233115542325, -0.47703740847752, 0.1978742223341877, -0.253659672821505, 0.6443777780134549, -0.1648186598768112, -0.002437334823066659, -0.5184656238328671, 0.19084232720865507, -0.14377353734180884, -0.004657989165159846, 0.11621941403937745, 0.3624719692015184, -0.012037297350722292, -0.22040281488000785, -0.23530428941614343, -0.08117146516470475], [0.6195913947977252, 0.015632347570387752, -0.27130823275412685, -0.5115900690251347, 0.611318777599634, -0.6103939348163041, 0.10707440125422539, -0.6794937921614108, 0.4011032913335795, -0.4436578805804996, 0.03474887332688721, -0.24321168439109955, 0.026903377075567392, 0.11377567306617586, 0.3312519060860702, -0.08324064589677063, 0.24497819704728255, 0.45402609053442317, 0.20193152772583373, 0.05337660325655118, 0.18749103565012754, 0.5347136589212064, -0.182345603830094, -0.16941686575613316]], "biases": [[-0.06596115612637073, -0.006992479344866332, -0.0077593403153370325, 0.0652725873566159, -0.04165524435592548, 0.06718924128360608, 0.02036024255900888, 0.08840165690063576, 0.010219247230886267, 0.00930182937695552, 0.0013131671995523478, -0.06044528571572256, -0.01223684479426538, -0.04490237534043352, 0.04744372882791499, 0.005994853136604971, 0.00033832085226591867, 0.00308643425353675, -0.07367548920146348, -0.023634364238520587, 0.005827769380947198, -0.027366929299187565, 0.009119129447194382, 0.0025569323309319633]]}, {"units": 2, "activation": "softmax", "weights": [[-0.3446561426931221, 0.6350941702387627], [-0.3358414896151142, -0.3345186474090792], [0.1276187696089432, 0.20598361204318555], [0.6961372732998815, -0.3121808846070999], [-0.04547553933603895, 0.6085776261783722], [0.3549776856708048, -0.7250332838087792], [0.2207978942692128, -0.15050725279583815], [0.6827140640614827, -0.5818534260919275], [0.5639576682803101, 0.18531983363149718], [0.08071613448304249, -0.09965583455408776], [-0.16555846843568245, -0.24587536259298423], [-0.5161790725403641, 0.29593074497021776], [-0.4272025033592697, -0.2604060848778757], [-0.307335263889865, 0.29197459211085525], [0.07451522445598925, -0.5528715684389159], [-0.06039526107805432, -0.24088420953915216], [0.3347640232026371, 0.3989262287540303], [-0.11739059574333749, -0.07357993596623733], [-0.5683246878877444, 0.4277004354707121], [0.14167579711086933, 0.33349359333133877], [0.09812513107362912, -0.08945413633390793], [-0.6196161931501292, -0.12140448233372642], [-0.08160293117173599, -0.2913783285001585], [0.4187250998640172, 0.42473883860127143]], "biases": [[0.08921391174404732, -0.0892139117440467]]}]}