{"layers": [{"units": 24, "activation": "selu", "weights": [[-0.00311710616851539, -0.011210769292512012, 0.0037918518752935826, -0.0008104631442096842, -0.003103351262005553, 0.00408797980647516, 0.005544478986300071, -0.010112470921913091, 0.015081380992060507, -0.00013840814830304456, -0.018716311467216657, 0.018710669017711668, 0.00490255323513119, -0.011665611874044985, 0.0014107771617813177, -0.005888796183430737, 0.013917929028626194, -0.004054014271336662, -0.0005647727324127856, 0.0078020481855186, 0.0015778107875190847, 0.016819323768241495, 0.00913961249179379, 0.004511792558150918], [0.008003825444462043, -0.027037991154477744, -0.013601831490219344, -0.011707345973178346, -0.012417466466124197, -0.006234103721682786, -0.01733072248228235, -0.008000980855201364, 0.02914446196506187, -0.009053162821581726, 0.01675811183668824, -0.025112649430687927, 0.004447899683271844, 5.528179015497406e-05, -0.031444850362158834, 0.00526638407496038, -0.0016339177006915353, -0.01567586383697323, -0.004405526381835353, 0.02232443015760985, -0.025420246866305545, 0.00259408481324608, -0.030690238383774337, 0.007727742924416117], [0.010282477846053207, -0.03200729472921424, -0.02554342881920534, -0.030545941072277403, -0.0316142624050766, -0.006765924630251827, -0.012368554961190768, -0.0021275890430986523, 0.016221636181397346, -0.01389158187566966, 0.017223563999702075, -0.03241748392528714, 0.00018253172686411227, 0.0012193588827128135, -0.03172065023240477, 0.015791692432246193, 0.0010804737778295312, -0.01580837456604394, -0.024157970331019827, 0.03449919386499306, -0.03483262175659372, -0.01204152602660936, -0.03910167146615766, 0.006412741919976712], [0.012617064623167211, -0.017464549648938565, -0.02191670296465058, -0.0038408555753097627, -0.009575144449934852, -0.007695030695031673, -0.01008869578228222, -0.0016133808292002813, 0.030274957156889663, -0.016144275219420575, -0.0032664826203152703, -0.007865025453274627, 0.014670516574866382, 0.013778796911667456, -0.02844123013932023, 0.023428250462861688, -0.014367671059657824, -0.00466469995962322, -0.011315829764257868, 0.009817371684115056, -0.01490912264537803, 0.00025200449022260774, -0.020346720780044996, 0.011481248396393678], [0.020663175690091386, -0.0029234900141373765, -0.008949000662843477, -0.019753156855983917, -0.026031689084971728, -0.024918416025782694, -0.010247257861542229, 0.004290952029731211, 0.016152500641409336, -0.014343835529970126, 0.019771463450344025, -0.014081082293189802, -0.0014023172912344076, 0.007531944892783399, -0.017565621024155112, 0.020174180912437972, -0.007974294015048898, 0.005656849667151704, 0.011019855520627949, 0.0018305766773347753, -0.008753308070591579, -0.0047807178154001505, -0.02229981830404507, -0.0013308461066094195], [-0.006378834512455108, -0.0012741060276430997, 0.001582367012585329, -0.012572844567078079, -0.004316843265602673, -0.0051190305784386885, -0.002035494644758112, 0.0020951492425601956, 0.00844557898564049, 0.004612994462226499, 0.0019254540759944309, 0.002702454877016765, 0.002601839066777361, -0.0064401455432764555, -0.0061139057745324766, -0.015831499999441428, -0.011522941918989652, -0.012529391432510405, -0.004739689029738926, 0.014891114208705775, -0.01560892233763567, 0.002862696730392876, -0.006843784792240449, -0.004376860872240022], [0.0010670994725831045, 0.01010377863222902, 0.01916233060783475, -0.00560570679839548, -0.0017054767415767998, 0.022451045649763905, 0.006545423979792681, 0.008235485164784916, 0.0012808583967438556, 0.009827372395156783, -0.0027631950796594513, -0.001755763854964863, 0.005805689964707734, -0.003852729997525128, 0.009817341650330047, 0.009009065525485957, -0.0006670986483015827, -0.00921269638520789, 0.001536216530805077, -0.015591582206816453, 0.022838860422391017, -0.00768311118888227, 9.223181842295876e-06, 0.005133713508236678], [0.001036094103915746, -0.025628286927992128, -0.02410885007763829, -0.014057445376435117, -0.027961712473975536, -0.017013589215085237, -0.01244157501190696, 0.01043562533272103, 0.027319168778977262, -0.017761735196879697, 0.021204319553532264, -0.03468520413255505, -0.0002076751120795287, 0.02655876316208354, -0.014956050230331738, 0.006618045104278315, -0.009452282523389111, -0.026206775751437265, -0.012859078202531456, 0.03626485093334307, -0.03674107914499534, 0.00036281286552248453, -0.03239786929139624, -0.002676840994175301], [0.033022565490994894, -0.03473704195499744, -0.026239135522183706, -0.020939003841084335, -0.023164293271553473, 0.0006938739337572719, -0.0018060152198725043, -0.0006883111637818086, 0.040058619559017045, -0.03592805867280261, 0.021122990142421028, -0.008551733831706421, -0.02330230775274461, 0.013077265150687752, -0.019335223338910787, 0.017673862017489855, -0.02166020180769048, -0.02335317481728893, -0.004879318625643427, 0.028364480792888717, -0.04618420950259491, -0.009219469439801484, -0.022921318607741114, 0.018433746832177477], [0.008382513147519251, 0.0010080941866813075, -0.017485280316045636, -0.00042200314762318983, -0.0006146743928421712, 0.011849613651152354, -0.012279985375797256, 0.0025846526923199963, 0.013196112163071125, -0.013435954490317405, -0.01544244950124177, 0.0013923899911227173, -0.0022611346661027478, -0.0030080703081769933, 0.012919952042769071, 0.01698615314642066, -0.006239665848581273, 0.007694134941632077, -0.02185015320945662, -0.005566234459049331, -0.005831491916743653, 0.006441722571660842, -0.012361897281056983, 0.0005160873403903684], [-0.0033975552459525665, 0.015373107870362997, 0.013672328980057971, 0.02986365815450399, 0.029637618476392937, 0.001688072725724708, -0.008701788106440664, 0.007202819410539471, -0.01701506710957411, 0.012779426592826729, -0.0023225085346364085, 0.00890803699059631, -0.0009218837977093457, -0.01699109612506681, 0.0029257034449196957, -0.020046394211571526, 0.0002172227807212889, -0.007225366851402433, 0.010546444422735498, -0.021074040738199674, 0.00679034764111417, -0.002034769862984213, 0.02457114854721948, 0.006960211208152017], [0.0315641655802764, -0.03288901050909214, -0.01735105468337929, -0.01651365221863386, -0.030593006242101643, -0.018042373349878946, -0.007379406919797741, 0.003932929840685549, 0.034457856134461624, -0.04843419415303871, 0.02696678230215088, -0.031720456104359154, 0.005144044746934241, -0.0023344892023512026, -0.04101697788764282, 0.016029924272227863, 0.00236651688151542, -0.014614021924797589, -0.001637150659074255, 0.03921799635677088, -0.04051114261020289, -0.008674070097365429, -0.019099236518957036, 0.016771525498413754], [0.008571675859818556, 0.0006090492074328946, 0.0024026916445598753, -0.0008981455905950354, 0.01943455357485645, -0.00493387016103022, -0.013208032592519611, 0.009401255492112272, 0.007334202419580893, -0.010820391520366615, 0.004226671177829207, -0.006865507643805098, -0.005186290148997117, 0.009400738446421208, 0.005319055311667129, -0.002757802057834147, 0.0027649896560210173, -0.004159320564180937, 0.02539750742918207, -0.0033047060980978173, -0.0160543219472191, 0.004581691215713143, 0.012613155949191924, 0.02188765173047089], [0.016506447679835255, -0.03582111061078315, -0.023669034492951282, -0.021182827410276262, -0.01420720421764136, -0.0006194853587899217, 0.000583940205246434, -0.0055757807095189425, 0.025706058397044113, -0.032362049440535445, -0.0009341618762705923, -0.0241748787251397, -0.01011610586247054, 0.0003928936870279971, -0.02234880384096293, 0.012987280054308166, -0.0004109000917512461, -0.01917911335938732, -0.002118977423295843, 0.021315664556913704, -0.03165970086581418, 0.0053418472168542215, -0.019190846591106314, 0.016698151237671786], [0.008599442593860534, -0.037675146367714483, -0.006582101352835424, -0.03207808156147704, -0.031621884360471614, 0.012981845243990904, 0.009884368622891208, -5.467616153194213e-05, 0.03230463780107379, -0.013503740234689195, 0.009069552030362183, -0.019274602002352887, -0.030704828036301035, 0.00803264593325293, -0.016227204385603683, 0.024616370463319374, -0.010876677964337394, -0.006696774979505064, -0.009325902917563751, 0.027547959332136378, -0.04082232223854145, 0.00646427889003195, -0.050134356619295654, 0.01122295531334144], [-0.004138640029526966, 0.006143263362214291, -0.0004968751522557124, 0.006596596605137521, 0.006853643968973355, -0.0009045117250404618, 0.012345893123754953, -0.0016917008869069973, -0.014305712147369948, 0.002332699926496016, -0.0037510920897063133, 0.015086995201022297, 0.006441328243671834, -0.002863122115369549, 0.012668184494125474, -0.004091139628887098, -0.004271029550097786, -0.0013359609717699895, 0.003371716489721681, -0.0016025512000659473, 0.0285820785873231, -0.010560541273208709, 0.0029393900043180148, 0.005183651474915207], [-0.02353159977553497, 0.033005572875077015, 0.017581017571101098, 0.03691207090418628, 0.008417473744217214, -0.0019570204405981576, 0.017772506689722047, 0.008428139255836778, -0.01976517807543426, 0.0321970675220469, -0.00841047328952531, 0.03647846497226546, -0.008260170124809557, -0.0028933686852519887, 0.025967010027185395, -0.018041305545892707, 0.0018749802689032836, 0.0032183870678128895, 0.021387552076057095, -0.021751227745148316, 0.023734194154323526, 0.004613955645122293, 0.03346011401059351, -0.006141035728152107], [-0.01876269939160927, 0.001265969021915212, 0.026827908779610152, 2.224064718822453e-05, -0.007688451738377391, -0.017298416408602798, 0.01424161293737852, 0.017712049188826837, 0.004472160113762771, 0.010213532861006264, -0.009819412859814398, 0.01295833298159519, -0.004506717507390243, -0.00906952919510738, 0.03498933721356534, 0.0016554273318309099, -0.0010560697534477894, 0.006082029373045661, 0.012128467048304553, 0.0020327412390167294, 0.015413132856707328, 0.005721460114552774, 0.0015567488839475965, -0.0037083062252256703], [0.010282635590976192, 0.003725943624223048, -0.00016873469680193088, -0.012684649024048178, 0.0012125628796049394, 0.009005691897260778, -0.007378323421049691, 0.027259221421800234, 0.00236589875368809, -0.012856771525877966, 0.0022565895059887043, -0.017492311962566936, 0.007001166178324604, -0.0013491018006154872, -0.017784329326066977, 0.0077469806224077665, -0.004220914693244947, -0.002317723758534179, -0.010007978948108183, -0.001998569590347512, -0.01149612955998647, -0.00689712649903457, -0.018176455254117083, -0.008561935147721633], [-0.012484270544608135, 0.018601173547356267, -0.014729140279483232, 0.01652885926552818, 0.007940464285324163, 0.005591519756000201, -0.007586018811157569, 0.01254904331945769, -0.01684536307318712, 0.020827032873609857, 9.632660171813383e-07, 0.00797514934696236, -0.005604873966023519, 0.0033947404952054737, 0.010885776649199116, -0.008199438052265933, -0.006772181911852388, 0.017402459171073893, 0.012600249812092845, -0.021758597265286544, 0.017092112931000478, 0.0011122450100661133, 0.03005443222350451, -0.028655889961062043], [-0.0044586284342915524, 0.0014110757777948382, 0.015131439417006643, 0.0056206943826721005, 0.022865486758498428, 0.0051338677398192565, 0.010573301269364265, 0.010062306637546875, -0.00254995749086522, 0.015111987456095289, 0.014523528300323484, 0.026705667880876777, -0.004058118373431064, -0.01180009002958167, 0.03704260942137721, 0.002239790001798723, 0.006653725335146083, 0.016763467834687337, 0.004607933487743977, -0.021261262378127806, 0.03140336554073326, -0.0046533435377058415, 0.023556556614048547, -0.010378007455627798], [0.035768640687149356, -0.03653273913784772, -0.020663510335233084, -0.02752617680418917, -0.025237997638423108, -0.01174951782964647, -0.011407650637202503, 0.0031500520952786808, 0.019508025101593458, -0.03575010277542732, 0.01839794349624681, -0.017187970899230017, 0.007939036874790662, -0.0012328002227041629, -0.03614912023289272, 0.011888420272690395, -0.011689254898473294, -0.0109862613142987, -0.00853912018615575, 0.014901109783462683, -0.023061863198682125, 0.01572818226133904, -0.03172816030296386, 0.014230841915222614], [0.041056123980295914, -0.05937247750351477, -0.04394401609301875, -0.0295124654749568, -0.015639703761854622, -0.023909967026562486, -0.02643698480615284, 0.0022641978250572277, 0.01563245804716378, -0.031111468068154794, 0.012537247612559305, -0.03091907705232809, 0.0026742424532791606, 0.006621645206713821, -0.04244036746896506, 0.002353348196783403, 0.0005516326180529596, -0.021545443914045347, -0.0011973750250572263, 0.035036643888150844, -0.042140096122287585, 0.00857152339566174, -0.024350431422187853, 0.012803271999500966], [0.03501611348513627, -0.04531633175164721, -0.022072447021787046, -0.005207035899539946, -0.02362181921607604, -0.005021852340798523, -0.025782811075293132, 0.0057867901555195824, 0.01872545874409497, -0.03979069464620006, 0.030679328736161873, -0.021829648370708252, -0.02228226159159173, 0.01465245551140483, -0.04631434320382966, 0.010925083734961996, -0.011833311494043913, 4.915278699993534e-05, -0.006274592649398366, 0.02635746412870381, -0.02572942405498799, 0.006880050871790899, -0.037765757302291786, 0.0013156818716677388], [0.03298812789718477, -0.022750055803761892, -0.030779471183192998, -0.021118912624030668, -0.014092944466330942, -0.015080796639920067, -0.009645416743391044, -0.008980149038232755, 0.018751120345572744, -0.029041577343010643, 0.009434373805933354, -0.027571611660521522, 0.00086790279601125, 0.012872004745894852, -0.041113160134194984, 0.024784570677094612, 0.0037318374068502852, -0.018510871765441556, -0.014101803892714334, 0.022312980847819592, -0.02434357946068805, 0.0009595073789943177, -0.03853534236121987, 0.036271851918355386], [0.013362477434952402, -0.02395073176852976, -0.022245944475514232, -0.03127136758706196, -0.007085376851696726, 0.007596756431240499, -0.005434951044809743, -0.0015983260853849354, 0.016169797756638016, -0.03280205750127297, 0.018478698722643426, -0.011391067335649178, 0.015756319078175988, -0.005919929777605253, -0.023742402042027985, 0.024172828595750356, -0.009525355974389083, -0.030904631948008937, -0.003703782469025248, 0.02659100715164284, -0.050538007273558276, -0.018950694863258965, -0.02754687691460429, 0.0183342790957854], [0.0163649016896465, 0.0022494223566565078, -0.017611586582450087, -0.005180451590046154, -0.02069029291667104, 0.005269488847483997, 0.0019863699840563863, 0.008434237253833776, 0.00022825689477914529, -0.005017346681886926, 0.004043390516762723, -0.0014496455592464938, 0.0010109048235943188, 0.013114281414831229, -0.028375211271009126, 0.011703743306474074, -0.0024200396398572953, -0.011071919478704293, 0.0014475349995979477, 0.0008473256549748106, -0.013427657602591108, 0.00026321509539708684, -0.01539810828656016, -0.002498367340629121], [0.019067059996693485, -0.03493870256394583, -0.031339159086175274, -0.019088252110159437, -0.02580957477990278, 0.0011398318062963288, -0.010741797996103341, 0.003009861349528254, 0.04332363997976491, -0.03422470778525019, 0.011174646020284569, -0.026649813215914284, 0.003257230890061082, -0.003746517259035146, -0.035453934205491935, 0.008987533306890458, 0.0010924392836341734, -0.02381963333626324, -0.007212142766888963, 0.036979884035150484, -0.03856957310313336, 0.01807557066244662, -0.029496310050289545, 0.0282416356590571], [0.0273014763145852, -0.017734467210548797, -0.01441119249866747, -0.025770702565046398, -0.015527921027928987, -0.011939359668218633, -0.009100056397472044, -0.017955899439615144, 0.029866737055703748, -0.04252915103452894, -0.00032708499516509004, -0.03723048149196035, 0.011815759588881453, 0.00569264494110164, -0.03250799743708841, 0.023486279813555, -0.021585037909336312, -0.012786839745881913, -0.00427889632753184, 0.044695947475971554, -0.02221384122364274, 0.005876229242821077, -0.030509420047696665, 0.031111501991640363], [0.037004330892414714, -0.04037665169131014, -0.023642918474121023, -0.009714164621496013, 0.00029380652079521216, -0.010188456931711805, -0.010760924166428504, -0.012258895723312267, 0.030073291064789117, -0.02601264404295947, 0.011573012142175775, -0.028978343414924255, -0.012078940932981272, -0.019066042375031924, -0.037421507905961125, 0.006530887068530598, 0.0009941576652566144, -0.02299902192136784, -0.006748785630072912, 0.03344201171996234, -0.02620952528124, -0.008633329973979354, -0.02483709426290637, 0.007902619799620396], [0.0021881895206535737, -0.016869053752100696, 0.0029834076496807367, -0.018790345105965753, -0.0033884496983630596, -0.008927092811835652, -0.017086377973206567, 0.0015202547154245438, 0.016881890617794264, -0.004114080203865789, 0.02444258946508876, -0.0024683343552585227, 0.008451193802342041, -0.01425583344421204, 0.00045881998422061583, 0.002471775770639671, 0.021185325418583353, -0.022576571415006505, -0.02093377927130086, 0.007189327870751657, -0.013634232915413947, -0.004159954355333918, -0.014877828195057745, 0.016705978608322593]], "biases": [[-0.012523557378447753, 0.016591166596163567, 0.012009464287225683, 0.010682637245396757, 0.01078969878483402, 0.0007476796553594214, 0.00718202619500359, 2.8616369424788163e-05, -0.011613822084256315, 0.010691148959243998, -0.00673233690410103, 0.012664646505086965, -0.0008812735170919781, -0.0008804298200293815, 0.01685814194068782, -0.006868977058585795, 0.0017971303007337392, 0.007747364789866325, 0.002439306718405788, -0.011471305081693346, 0.015541242911723176, -0.0018594874274982375, 0.014288702587327243, -0.005246763673657067]]}, {"units": 24, "activation": "selu", "weights": [[0.1442005372372575, -0.055880852797658864, -0.2224909360296418, -0.026189133980808507, 0.040121465788550595, 0.10016350154764672, -0.014091022634590543, 0.17881379513393986, -0.3345024902757921, 0.06866042145073778, 0.284995502046076, 0.04688974128607807, -0.04069026383466162, -0.02438899533318059, -0.05863312982653008, 0.1514941584699264, 0.06354770124981546, 0.07265581194357593, -0.2298180661119661, 0.4353090638565541, -0.05564770564480684, 0.004006346788515125, 0.6262996609098319, -0.21591922671862274], [-0.1186740523359469, -0.3059039759003106, 0.22086282854426725, -0.3909981824632475, 0.025331758824552037, 0.06660237955321124, 0.18495349945808848, -0.019326740803475417, -0.034654178563814274, -0.015265328565573456, 0.2911779510456951, 0.14339036118633325, 0.01944099227880227, -0.11616058106435512, -0.28354296987941074, 0.2825219237720988, 0.34539919265771246, -0.22390703546347032, -0.04322730000688891, -0.4481794916014485, -0.11730293077773371, 0.03914942765122515, -0.2374549572544002, 0.1767856858951966], [0.15635330118574872, 0.3402073285567116, 0.13729999649795838, 0.12504341251657242, 0.08024734300355377, 0.15077798095783126, 0.19929291156892923, 0.018346478691023498, 0.09289621742155184, -0.19658042361408395, 0.21998584697768175, 0.14202588622918624, -0.01786594514869629, -0.19441530810589913, -0.030387522329225446, -0.26360177746803687, 0.2473561677384423, 0.18522448325255178, 0.00590030738994096, -0.11557603897660701, -0.0665442807307343, 0.008341518133179559, -0.012765328469201928, -0.08474353165915209], [0.3393517507488872, 0.08145243224927645, -0.3181679837685826, 0.22735150377579708, 0.3472818960230149, -0.03928783281688261, 0.3476639912069132, -0.009955073417918358, -0.08805404641978662, 0.21295428455113338, -0.22706571984218815, 0.16034624124722044, -0.18015187691788676, -0.19471936454833433, -0.20176739786110218, 0.3917228209628272, -0.2350788187493307, -0.06293731662603458, 0.07944253729509122, -0.2925400167006663, -0.2221730570038847, -0.20863491443179466, 0.21319057912086595, 0.18382925919258872], [0.1865882467932674, -0.06281976912976163, 0.02665876414462055, 0.48876375849930637, 0.05938102305487561, -0.2456473635412306, 0.06902777246919757, -0.041234376490797905, 0.07321332442660024, -0.06711302763663247, 0.0948470172971936, 0.11352592685887798, -0.32234374261898235, 0.18468283641677216, -0.04144365034727887, -0.04290925822469996, -0.0036481474441973903, -0.17415567044630142, 0.09372527726599261, 0.1450959198924427, 0.25330064460730534, 0.06494302281728666, -0.3777024958093142, -0.027400428603143748], [0.2520317210030568, -0.13898087692125416, 0.13286702325019212, 0.052252746396083086, 0.06154067992397206, 0.24180565092312517, 0.24876530908795233, 0.27697844281022077, 0.05649062549553065, 0.08373916996943262, 0.22471516322520935, -0.40853946256118623, 0.035280551864625156, 0.01464194783068091, 0.354134146513483, -0.13232441469679884, -0.0002837056195226443, -0.2834685655483828, -0.05742465152862832, -0.16808314663095023, 0.15886109047336242, 0.14868702289657598, 0.09232856458322045, 0.07251514437011516], [-0.04121136141818496, -0.24831098158101203, 0.04450110492652101, 0.33217843110773515, -0.2295390783725858, 0.28657352852455775, 0.05493153277009984, -0.16495077530199306, -0.22592335429409083, 0.14205211908195758, -0.020925794578931702, -0.06738498065181239, -0.21313550702261336, 0.10935473694813609, -0.006586988140170574, 0.3306431459239217, -0.10273357777809149, -0.06333176519759254, -0.5653737661085824, 0.10480101430160751, -0.0116708591100119, 0.36426648602938405, 0.014632123629201013, -0.07594734218661145], [-0.4197723795567617, 0.01901564701613313, -0.021153022071530293, 0.1127954486429941, 0.20782000879370194, -0.19105913005105984, 0.1336813144742387, 0.00898487418170836, -0.075536351652836, -0.2192240551247364, -0.23712110767397357, -0.08708875704422576, 0.1902245483739127, -0.03312991781976187, -0.14850025356860808, 0.19056189192761622, 0.0555434854757322, 0.2179041333243528, 0.04324777037117525, 0.18932635030092443, -0.09595847753457969, 0.12001178612377987, -0.17605692701441833, 0.32232031234242925], [0.08439214418187145, 0.23387124821884195, -0.23988620201557734, -0.05076197466047326, -0.17035507107272255, 0.01393802575725727, -0.49637763779069627, 0.07326225174821846, -0.16954076584401753, 0.0764765879653843, -0.056031644238898295, 0.06976461766162675, 0.14671418840226777, 0.2541689797466895, 0.014277188881346268, -0.22022435141861904, -0.16437811922616433, -0.6581502840768069, -0.11112265224348941, -0.30800748899154046, 0.04607561133306054, 0.03180291881407577, 0.044734243618016006, 0.1552690064980331], [-0.27347509861091923, -0.10166530944077966, -0.026737420916305064, 0.16097284913977183, 0.1276407011284841, 0.07924916716866814, 0.1257717292510383, -0.33363993743989245, -0.07974642827675657, 0.09312783027915379, 0.2684708294476074, 0.04522387852170614, -0.13872250381307447, 0.13369463229471062, 0.4833310767415051, -0.038845369896063686, 0.2990433954857502, 0.10693517914993732, -0.0661501340145584, 0.29083718898258343, -0.61152198172926, -0.22724644946274644, -0.007150731904790313, 0.33083504780548656], [-0.2926012451811094, 0.02269253948407409, 0.4221521271415516, 0.026732082814768222, -0.05880275941230865, 0.10814032396124007, 0.16106291180191848, 0.21475957716192665, 0.30252116099855103, -0.046311612008171146, 0.005441046058573913, -0.1964941413329679, 0.2979824614924924, -0.08872315321939246, 0.10686744584267122, 0.2381982687672995, -3.8938042249473646e-05, 0.238911637133738, -0.09507106050460368, 0.23946577986910184, 0.21593119474693398, 0.2399969271021898, 0.13180910641730992, -0.3440544960012462], [-0.16991092827091417, -0.06554934960224815, 0.3058147219887155, -0.21502138731714926, 0.21446348456845984, 0.3112340483104711, -0.30186958600931474, -0.046723879057960625, -0.07020761266616281, -0.11527552889541269, 0.12594299351043176, -0.16043720383318025, 0.10090492986819405, 0.14551622582702536, 0.19304765938676086, -0.1763738897463167, 0.19784714404362047, 0.2739990953942419, 0.04651872723550852, -0.36184271750548397, 0.19200683569060406, -0.27201226738617146, 0.049650702492748784, -0.16358204437693968], [0.06925933996287695, -0.22083357534153075, -0.03358986834612895, -0.12024164759254156, -0.14629670244256532, 0.3761389082099558, -0.11927131808007084, -0.030132116960793584, 0.19395103434008978, -0.17636574645432246, 0.05850836379080799, 0.18505531179488074, 0.19306442343485947, -0.3944953946061261, 0.16683299413611716, -0.21697715457479602, 0.10133342864119672, -0.1659561650581696, -0.22992217686710723, -0.07600659553069686, -0.07163585926099197, 0.24047913759905837, -0.12363922938227198, -0.22599829314407885], [-0.2067872314976795, 0.047060493833867595, 0.15396593627636002, -0.2516324243005605, -0.193214617190828, -0.17165530932143808, 0.19567177409912878, -0.30075328804446555, 0.17088780787074853, 0.07438355549886665, 0.3233135353419841, 0.11931023630592089, 0.21917225476543772, 0.039633657050468035, 0.11569376724237125, 0.4582778616751614, 0.12286828409366922, 0.039573742187699004, -0.2778861094982921, -0.22064993443381578, -0.18767482816001618, 0.1796798845608797, 0.18237015998883982, 0.21620663456714462], [0.18170935283796238, 0.1412051683826939, 0.041040491778716215, 0.16072790750318677, 0.14599580620845784, 0.0622434874464143, 0.2109066753830765, -0.08467292070626031, 0.10450752729585426, 0.28684151951145254, -0.19158348754311597, -0.02348405048386272, -0.3271047515349481, -0.028781370894518946, -0.3737834480721952, 0.3242987158224988, -0.11413686472612135, -0.1262466667903597, 0.14545329125144674, -0.21948980028091428, -0.09804324629003414, -0.19342289934524304, -0.07076106398419199, 0.2756952785410116], [0.15826054133741324, -0.2466246508908983, -0.1170402512682864, -0.016620318391733724, -0.2380095351972645, 0.21490467721443565, -0.0049200701239517555, -0.37486745537968413, -0.1324860622260379, 0.30907036102061863, 0.11003638816201103, -0.17566536114924347, -0.08918969141088225, -0.17010493265926305, 0.05778927766842281, -0.0752755950176619, -0.16283089712207852, -0.145813910947424, -0.009716726408035234, -0.1272634804959037, 0.2379477050962873, 0.1943175703363338, -0.0569389282217215, 0.3319260911733671], [-0.07301113069549144, 0.009076142650597962, -0.21486636428503766, 0.0301060822502298, 0.27364541429898714, 0.030516067829226723, -0.2116411889597488, -0.15309493688118528, -0.1172288813749553, 0.13067773141083902, -0.11821110883125528, 0.3233146112200575, -0.10583674878201511, -0.1114050916143858, -0.2930377580704529, 0.08631162718502551, -0.14804952038592925, -0.19905124352389628, -0.07552228481306227, -0.0576150291592331, 0.13575082733578692, 0.01836243571704856, 0.1868013436908969, 0.07914588038373743], [0.007607330985950989, -0.0661647128630959, 0.06485454105868384, -0.06918942059714733, -0.14637669387224805, 0.12284065609154393, -0.1258114527725097, 0.2361007467075361, 0.05088724270035087, 0.06870482556819604, -0.1732226675530776, 0.056188916606149386, -0.46191723147538183, -0.16672175714194423, 0.4735782694993015, -0.058268100988211426, 0.05768320977349257, -0.22619510488665256, -0.12430411541419316, -0.26085414235241255, -0.11180374885031537, 0.18509084924360028, 0.02836584052890289, 0.07518339807658284], [0.3603954631435476, 0.1501265018392977, 0.0328830734663591, 0.06981554983046746, 0.001616396530947068, 0.21137253414356993, 0.1597208510467018, 0.3282608403472503, -0.07499004240970288, 0.14235336366237147, 0.3456130133035523, 0.04355143371341707, -0.011728641544800968, -0.22785528160350196, -0.0047300777723604595, -0.13691080073709877, -0.11162143336833083, -0.3788378249524293, -0.3583730245379159, -0.13353076922836288, 0.13181030184199388, -0.04829920401070548, 0.014044034681220773, -0.11809095291064066], [-0.23725363798451465, 0.012834991889775984, -0.3881230346033344, -0.12089006529135725, -0.43110423380948343, 0.13743872233076, -0.25714337329235376, 0.2351582443249701, 0.15442223412119793, -0.22736704142837694, 0.04872385665075911, 0.4185460337184242, -0.10493743268446573, -0.11978067769419495, -0.09221946783973013, -0.09285816207263571, -0.11776347556045406, 0.025229984425623724, -0.08136336652949211, 0.08793448041965674, 0.033828649765663917, 0.03935415259052465, -0.0845622558016932, 0.040810204547523474], [-0.15597740277662897, 0.1719860610850373, 0.2222682436293264, 0.3069762820612368, 0.4582305356260217, 0.0900440525094222, 0.161092437823921, -0.21696598699714562, -0.06885244898914819, 0.2702081739165866, 0.10557412186621865, -0.1640419139514706, 0.21640670565418987, 0.014509860455623864, -0.09278199057286525, 0.05278577369001279, 0.376187947627481, -0.05818910857060853, -0.047497662901929714, -0.11925353988905703, -0.03613266323178549, -0.1473970479953401, 0.08213718523269962, 0.3013246063027393], [-0.16674893037344643, 0.0409887296445798, 0.046222285634278784, 0.29163245552256695, -0.12594072667008188, -0.20246522692035862, 0.14047580642146534, 0.013035840813363862, 0.15895234481957893, -0.1177896414802266, -0.0719863157211464, 0.02388900257513112, 0.18687427283121427, -0.08036960406026224, -0.009839245566646972, 0.1576952723286805, -0.17747066488152094, 0.18776885799929707, 0.09457379654999798, -0.1146745391484023, -0.14065341744346896, -0.2019733028643804, 0.05647235966597392, -0.14347430957644408], [0.006002536460656696, -0.1636498719823367, -0.09405421395165674, -0.017964583830121544, 0.0021751819846891904, 0.2611116317944853, 0.088407627408847, 0.02538995410501199, -0.2538000983767289, -0.2872515421962565, 0.022356763890005255, 0.2781642130253069, -0.12936498808023755, 0.300437396656877, 0.13458251701922982, -0.2459995115659803, 0.17323489914269566, 0.2181560810377448, 0.05564435003262667, -0.4247578303938477, 0.25678315344614044, -0.148777557910704, 0.013990923169340056, -0.10171314012905497], [-0.18644052104298162, -0.10164976711832505, 0.08436415054027384, 0.01264420383330546, 0.15990363462448776, 0.2746841331790652, -0.46927252845058776, 0.414596475606827, -0.21718434295982525, -0.2073120535245524, -0.05436073141847751, 0.03314688822833702, 0.14316344812548992, 0.128089697889795, -0.2971968894814986, -0.18080919300469783, 0.041838165137325065, 0.3242068903100256, 0.46214525609635665, -0.09283171646301956, -0.18932997252745834, 0.1465258798239968, 0.03372986175346534, 0.10307906100748786]], "biases": [[-0.0013055780958101532, -0.0006170005725282366, 0.011492749309541342, 0.0071632326101490704, 0.019435794817023646, 0.009729827745781136, 0.008785142884393436, -0.007913880525704057, 0.00429606285157782, -0.009395932024556242, -0.0024593628423156687, 0.000886501835033654, -0.02358063644240965, 0.004465630534122911, -0.004263213950326924, 0.0027033257070289913, 0.0127991048938144, -0.0006550038383668329, -0.011803410623110156, -0.016292591098659825, -0.005007524026579938, -0.009726424860213578, -0.011087913384242825, -0.0034212275216039686]]}, {"units": 24, "activation": "selu", "weights": [[-0.026906051495390805, -0.3274674194990176, -0.010322885298118503, -0.1561010579654698, -0.1499086660277995, 0.4019944287361386, 0.012705431558317135, -0.026004024331797427, 0.1481225525046031, -0.015616344070040842, 0.1706978757386118, -0.10304206363012962, 0.03151517794929406, -0.08555078305424109, 0.06377066924514342, 0.20291173282641325, 0.13746544704468838, 0.26254313483872316, -0.0747021252511696, -0.21420914837875396, -0.2608128858805638, 0.056461448033433725, 0.052740308785443106, 0.13905521347975458], [-0.1452672206038237, -0.3472134455237169, -0.3726830430219093, 0.12253174122055088, -0.42848471827173806, -0.16983251981121933, 0.0032334878621753547, -0.20167880170987681, -0.17450972591111524, -0.1164442070379659, 0.08243373593726018, -0.10279578291231209, 0.17349394787943437, 0.03636003111966181, 0.3488226184984139, -0.23963152702045862, -0.12726003015530477, 0.1580074204377872, 0.052888427396593114, 0.31246704236928224, 0.2986874037784949, -0.030935126316992946, 0.04322531515998782, -0.05134026434784719], [-0.015233307772666058, -0.10717128773410461, 0.12973671329657668, 0.08241144825452724, -0.03266500733974895, -0.03764789155458065, 0.06151277170308531, 0.00974381311373292, -0.04099408749291369, -0.026914795057863213, -0.07106828433123115, -0.24203603026116752, 0.31430099191314487, 0.10140189469517798, 0.0942618337021825, -0.1060796416373951, -0.12202138362015413, 0.08784161827771109, -0.06921775841866372, 0.06553938842233425, -0.12868644066814572, 0.20380168342436583, 0.3383728943243566, 0.5706143601419892], [0.1289267325234572, 0.16652587698511115, -0.30790468033239515, 0.3577152550878227, -0.1885927488146795, 0.19569482927843904, -0.1303276947413515, 0.19366447150155722, 0.17415415143856314, 0.6114370182849805, 0.08240887122432135, -0.15945114309849745, -0.08016098880687145, 0.07802958702491058, 0.16337246993085708, 0.041485148103815706, 0.2265002041290644, -0.11704221082056607, -0.1540141078160767, -0.16977858882885757, 0.013581863208747368, 0.35518039858890954, 0.1717470652619296, 0.007985074704325657], [0.08554371818249247, 0.05192095062727846, -0.29140004092969524, -0.10094544123632625, 0.12526965619113944, 0.3099612038399634, 0.32740226624207974, -0.10649055410303469, -0.015190352331699752, 0.05818303549802416, 0.1299953627610662, -0.28102699704346273, 0.2002705365047705, -0.04830925228956194, 0.0938435102628543, -0.09770786390421587, -0.19347747424233228, -0.11141480723495853, -0.3283517193116066, -0.5107919467678955, 0.13141601863591063, -0.23790201276837028, 0.03154746985843769, 0.4832171091688921], [-0.05490010404197944, -0.199554866374492, -0.2954601327081839, 0.18947816248509647, 0.014390605352938094, 0.17042663708851638, 0.2635631743854401, -0.06844634164422289, 0.12113576540664472, -0.15794534601347687, -0.030008303832795593, -0.13120984040282255, -0.09373084869792521, 0.07688730398842823, 0.03324688416353356, -0.23294818093971528, -0.06874277715345645, -0.14379183426977885, -0.16997213723092142, 0.09337121813502156, -0.43284125945903745, 0.0688120782966221, 0.023392397810468386, -0.060926730305693046], [0.1589102352290734, -0.11211512438062583, -0.2173262855225217, -0.0754153046742683, -0.07391725358471546, 0.2741990410567593, 0.016609938953429132, 0.22288489844862916, 0.02566652747994604, 0.07718936879779233, -0.01646015392865128, -0.34220509598619486, -0.2544274861465015, -0.38452931713380156, 0.08077840085065817, -0.0628939997617073, -0.3231566569339337, 0.104935748322581, -0.39457735512171704, -0.06165235585343824, 0.08266988170045915, 0.10270042025146586, -0.007228722565147093, -0.025858075025498306], [-0.021634029933704637, 0.03763043571978183, -0.044890584245454876, -0.04234300288336153, -0.004887524457824493, -0.2705256591670203, -0.10451209639121431, -0.2979731649973582, -0.02478860542993853, 0.09763119172617828, 0.177869359588612, 0.02893719817808492, -0.029287854628041704, -0.22522973827481665, 0.011391336719862817, 0.04632181922053367, 0.09813271303637723, 0.09074700952954969, 0.11130453944980905, 0.1197037635602259, 0.1351933384202161, 0.11517350343895583, 0.2096487685626805, -0.10951721120677414], [0.21108996887528186, -0.2625646659186266, 0.3168023840471278, -0.15747155887080028, 0.0687003220765808, 0.005927159042944983, 0.23906308068194485, -0.08624146976093398, 0.07152745059288118, -0.21758376613735475, 0.17485726734417706, 0.37188836373529, 0.10436348647232864, 0.1368367945454651, -0.3247104099068844, -0.060107387354065074, -0.0568139783034653, -0.10740430268266153, -0.04575663895762518, 0.1609918610476464, -0.31954721856029805, -0.19865601349976666, -0.13117547679077105, 0.3598146671848815], [0.14385651536149482, 0.037110603743963126, 0.24065740509302347, -0.2180337253562602, -0.2468688285958481, 0.21980956533139326, -0.137522666000702, 0.2995834978552419, -0.10508812149926314, 0.09737557684555066, 0.07912978828715418, 0.2076733095640514, 0.09858321392831479, 0.16385672687791508, 0.07953458887806308, -0.1614112023897545, -0.19692532933760318, -0.06996952104606428, -0.004831947176452692, 0.2653277355904057, -0.006984899935578286, 0.3067100886281361, -0.017308722741610178, -0.17631273086698637], [-0.1622389683830076, -0.14417112056231066, 0.1571971606952044, 0.2611726442174425, 0.2577730187959042, -0.16015852498832406, 0.7605506219098594, -0.0775203397495348, -0.1584387879315036, -0.3078806803703116, 0.18495219480285646, -0.10530199232257832, -0.025787526387534655, 0.009596003060344012, -0.3652161389872007, -0.25181115548343996, 0.19687914225420772, 0.0037473555501659115, -0.16102850460826915, 0.293725785016322, -0.3427672608179822, 0.27092612501246777, -0.27900329920418776, -0.4189998384145388], [0.21395373898703088, -0.2989568442281492, -0.1851326029007391, 0.32808304641689695, 0.26240020040873135, -0.1252217210726659, -0.045756101102605286, 0.34890249846121435, 0.1643250458884869, -0.10081112008248927, -0.3981175409488647, 0.055457754226651286, 0.1233923889897417, 0.1958875536647084, 0.27151169930475677, 0.09444511322818082, -0.2270968453938366, 0.04939780959147242, -0.07965169483032906, -0.02764575908357436, -0.10920417323156087, 0.1479133571459358, -0.14612787427570725, -0.13277256467576545], [0.1158901805964291, -0.016700609269972303, -0.08754704207568999, -0.34492075138816036, -0.2332136801818935, 0.030987543267816896, -0.11703618723570722, 0.411112290381858, -0.12263608300443186, -0.1988353258410345, 0.08488728802821756, 0.08619802574460797, 0.549330266233547, 0.14125743078556827, 0.1807850970400276, 0.21797030074523954, 0.1655228029036624, 0.5293548074090558, -0.2219911817738019, 0.15588625587824273, -0.0788251549844522, -0.07562993044020117, -0.08264276108653201, -0.2642720291478906], [-0.4331696984933563, 0.5908415901257975, 0.2345874398167115, 0.2969062974518285, 0.018690055313508418, -0.2056658726809063, -0.24450612941921845, 0.18013276857765703, 0.19876505848977122, 0.18101421306895923, -0.09950604106554033, -0.14273401725306195, 0.008017671225083279, -0.0860912668472883, -0.06196290639789812, -0.10873232037010037, 0.2065774686829771, -0.051558761447041565, 0.0678647377662914, 0.03333025401973145, 0.198756953528854, -0.07720824548086203, -0.3161035796267184, -0.12764125154709968], [0.01013340940968641, 0.16418403458366246, -0.08601963647345405, 0.09797400683030047, -0.027799856252199728, 0.14503852447252127, 0.265128738940895, 0.01256844041195221, 0.1216609211501228, 0.16592662277025105, 0.21161642960031188, -0.07671867205122503, 0.23439034937232026, 0.157315291925708, -0.05232812718743333, 0.09343855820788598, -0.24058221479442932, 0.287050747540315, 0.1360965772705887, 0.19555361612611066, -0.5679515265661187, -0.22278841955776327, -0.038296029147205105, 0.010241638549925193], [0.06891281371363436, 0.11019722540988698, -0.22598041911630898, -0.11297864342596046, -0.15797176290177514, -0.12953731138738753, 0.2056049325418186, 0.3053324623141858, 0.24421689501297553, -0.009896624454057453, 0.060214740498653996, -0.056904878424633716, -0.19051557205578376, 0.18733892934569069, -0.3454697910743914, 0.19906545967190606, -0.1584796974748959, 0.13941984419578132, 0.007494524013457514, 0.07435154385722811, 0.02159202213150448, -0.09976515407383044, -0.24156411689417934, -0.02049015056758988], [0.26781418769432774, -0.14085746734352497, 0.03640928507381626, 0.3802965359217399, 0.2553091142047755, 0.010960268827308235, 0.14825188065121211, 0.00010518366086147103, 0.32037531004791725, 0.29626207580434527, -0.05963019669225764, -0.030338664605968086, -0.3279696683136671, -0.08329500819566676, -0.07848399517027078, -0.19119977613742017, 0.03667326488911376, -0.16668105490753024, 0.5100864315963702, -0.03772807359740017, 0.09301578097853799, -0.23727736411724965, -0.09552195795433396, -0.16108468738809595], [-0.25637354674334917, -0.13350646327873797, 0.22417943510555605, 0.44335408733844217, 0.09508548596293837, 0.0831918334600313, -0.01914972741066561, -0.08275040313673851, -0.05405473924540844, -0.03881261971592463, -0.2738989043796098, 0.007811877935891276, 0.13948397818618485, -0.07146517600253798, -0.06282869791465259, 0.04126363703587788, 0.05144422508472499, -0.1212308354522726, 0.040053373599658326, 0.018502068999319193, 0.008157559296877854, 0.06825978441829132, 0.284058109007606, -0.23433318068290646], [0.2544554842064598, 0.24515390530657144, 0.0841926035509528, 0.47515099503381464, 0.17237312466692678, -0.06265996370322746, -0.04796904051018508, 0.20497468154085963, -0.3035557032322027, 0.20120617072962002, -0.07563690896716914, 0.29425502391730013, 0.1916836877682992, -0.1040173889023943, 0.006501251649616322, -0.21187877830566845, 0.043128983788506436, 0.08237499460843185, -0.17971141829650203, 0.3271226559572357, 0.231609486534058, -0.06403937165277779, -0.08718903676927772, -0.4024439443693823], [-0.11021175493414002, 0.11150071739425567, -0.31837437848943423, -0.41278770411647814, 0.23979573734262144, 0.19593755238890656, -0.035772423591310554, -0.5702807452203872, -0.01598641164112859, -0.21086646070784146, -0.1713222406772424, -0.13670515157836388, -0.20063719942491434, -0.155928589866183, -0.032980696632044254, 0.07256410812823653, -0.0034145872851307135, 0.4684452434429223, 0.0837903566234314, -0.1958633576315719, 0.12996976493435056, -0.11105162641460173, 0.18342080021594023, -0.5338779408871399], [0.5665480252042214, 0.15537005856787425, -0.004242161179387952, -0.024891565934023523, 0.2000683852061169, 0.21698048549609422, 0.0006867113678504465, 0.3710847098100233, -0.2934492529180417, 0.049747479045021366, 0.12099516375231578, -0.19360929776593241, 0.1385972109637528, -0.03777547597777257, -0.2072132344028781, -0.21525709805201135, 0.2773066167154374, -0.0049928901559350555, -0.08438237220679747, -0.057135280041876964, 0.03475133699109016, 0.30382982769762157, -0.10470947580629716, -0.09306201136680431], [-0.265591830917439, 0.3556536035842114, 0.1620541196321127, -0.34834129484402815, 0.08029051251905779, -0.07879172753885604, -0.26887606689075727, -0.006561152427031533, -0.0395167567565691, -0.5610146592160765, -0.018077198167316146, -0.12117041776334898, 0.0034404921651861172, -0.1673346700172294, 0.23255219870339566, -0.06846049261726186, 0.09440019201813273, 0.27223027303901914, -0.07194528968790925, 0.023206713697068324, -0.08798684394751735, 0.21785862918986065, 0.0031565544613132226, 0.11741766751957346], [0.14534660162092525, 0.04845515298338673, 0.265125158780694, -0.2099110387135244, 0.31246128564725434, 0.061909205913745324, -0.3238043696970642, 0.3357011226326713, 0.0246718479123852, -0.11546441165396044, 0.039073744656033055, 0.42259121978842257, -0.029505061110735524, 0.07651366546019932, -0.24141305606268504, -0.2077616228361548, 0.012046414454863593, -0.010380114638317273, 0.3065421778334602, 0.10676985428089514, 0.3732565664358363, 0.3263612755636627, 0.022536048073015062, -0.1631307194144733], [-0.20193075912813443, 0.33743788003221786, -0.07604084922361853, 0.001814415449905405, 0.010946745506315275, -0.19162448037557808, 0.00044353392603572724, 0.08162183402039966, 0.022176863595829766, -0.10958661632793638, -0.19113949143327452, 0.15544699697556585, -0.1024061295257805, 0.3386489211726403, -0.1285375190499706, 0.16786951049772275, -0.008987859681609816, 0.2868512198353816, -0.470898180611046, 0.22315955028044096, 0.027698677885190422, -0.1546542121796468, 0.1321775929291827, 0.06635673145845629]], "biases": [[-0.0043229553129350675, -0.006518598992589953, 0.0010978085083338637, 0.003305749796587336, 0.0003143124767588413, 0.00038169829444095776, 0.012246568049692798, 0.005486835959824179, 0.016472297357580958, 0.008172271569160056, -0.007803568719280601, -0.013253667172636943, -0.007174718122539209, -0.0007416050383842532, -3.989546694021715e-05, -0.014990073211204661, -0.0018222704180622068, -0.013087484440618732, -0.006521307373455684, -0.0015213728369046077, 0.005453524090648051, -0.007336159244499482, 0.0023289721243179916, 0.018884307483499833]]}, {"units": 24, "activation": "selu", "weights": [[-0.23490239620150985, 0.054943682673554754, -0.3741934489977987, -0.03569632637965434, -0.026411240262584255, -0.16561320756944187, -0.25346153540347166, 0.09853998994960853, 0.10488326580243527, 0.0015206011099395066, 0.009585703565515495, 0.3594623197123982, -0.16120572264168184, -0.3603489712267072, 0.05481840672480167, -0.10589320028919699, -0.0674458147878401, 0.14057362225363057, 0.22144360408875183, -0.2360355675670232, 0.14041937943406888, -0.27957401190503983, 0.17036486955593036, 0.025381154508074176], [-0.06484818008295648, -0.6238032125901605, -0.23525614103258274, -0.07398952327581541, -0.12058846797929851, 0.18580324197290676, 0.06940344099234536, 0.051326041766798655, -0.02859817990150844, -0.11730958991929762, 0.018202084744854876, 0.01048749303375594, 0.04726943162871188, -0.14470539525972112, 0.1070680846934795, -0.14225639656139732, -0.2658122332912924, 0.23146938506103376, 0.4415504711117784, -0.06786363138831047, 0.3091608193642619, 0.26104243937509164, 0.1276367488705949, 0.04078485111017387], [-0.021064981990485548, -0.3582643069703797, 0.4198117219114908, -0.1200033586183444, 0.15125397885406539, 0.1374628922067364, -0.18171480010586855, -0.2919318843356535, -0.19418396525133608, 0.24997463298533606, -0.03109115401353142, -0.24699692543403517, 0.1635600420056031, 0.16295215196906856, 0.30126518240928873, -0.3039256220937772, -0.01928347236179003, 0.004873373526543559, 0.1942932245627505, -0.2235052571333421, 0.41318345846804283, 0.1866281415334107, -0.17416138848644896, -0.13259533444000254], [-0.1294709980693944, -0.16287280772027093, -0.2751272737760698, -0.015873059904876346, -0.20031280113292446, 0.13190013081854327, 0.0916181295985409, 0.02106581051500872, 0.1650483217858713, -0.07677844945330942, 0.4852421973485515, -0.25777589766546266, 0.2304849523542359, 0.07871423280048015, -0.08759499021420664, -0.08657596401775951, 0.02292952744497612, -0.11758117631434639, 0.10051342814769708, -0.0990318774297125, -0.03673120186385998, -0.14592785245390846, -0.1279960141403752, 0.23658622671239596], [0.024726775047742254, -0.37028975823082144, 0.051373211730231155, -0.20730493219053509, -0.010196464550306341, -0.32629491964827806, 0.07742987031009294, 0.1468898416195021, 0.27324217432041603, -0.11754964594556411, -0.28287324699103683, -0.11022043420711537, -0.0416903541970811, -0.1212523530548432, -0.08685597237353458, -0.009489564436646284, -0.06621564311742113, 0.042836946632454576, -0.05039916562641449, 0.15478421019126468, -0.2631593222057629, -0.07926934728094007, -0.16719619364906224, 0.05974060632768531], [-0.4456555851025561, -0.030869515713038923, -0.3093703127864954, 0.06424464561107668, -0.052112016003198106, -0.09632158615954552, -0.1175327849536834, 0.0534889744828541, 0.26509484150199847, 0.20703759563358134, 0.13720268040287836, 0.2346512891424648, 0.18267170378653644, -0.07759742582292745, 0.2533217610030461, 0.05819620250896619, -0.12381954276607551, -0.18030115987232206, -0.21677092405181092, 0.10190237551678706, -0.08005369181755917, -0.05691197054703159, 0.20277805598666587, 0.2762176305506338], [0.31459018349114665, -0.21121501490531938, 0.24024410894570572, -0.4114086924007983, 0.16196555762520118, 0.34591388017011127, 0.0433154823766843, 0.044866212805590826, -0.2813410792712046, 0.046043273525006034, 0.15168437333841817, -0.16402792434008345, -0.056124157024322, 0.09232559157420994, 0.09474318900242475, 0.14784979148922947, 0.13138328123525936, -0.26648413154310496, -0.13847911999802984, 0.19220563796014925, -0.22071868560794752, -0.1964833607566399, -0.17944246190885385, 0.04535612220274137], [0.023748396891458738, -0.18789763893330838, -0.2576973120382575, 0.01563479954879093, 0.1357756387166216, 0.31626033057377956, 0.29245985180005907, 0.16588165649746667, -0.17844418704700385, -0.31273017286060806, -0.3560305735964112, 0.4181076760404453, 0.15125702839324479, 0.035889523039144444, 0.2360814662123682, -0.04084261398612866, 0.11620032539746651, -0.40767948210332416, -0.13497093478403532, -0.09795468572029238, 0.04639714486486676, 0.16585398753956856, -0.12986343665137784, -0.4786048322062802], [0.023193844610996148, -0.20477982979418438, -0.11011902931238331, -0.18173958376716623, -0.11916267792887458, 0.3070390090880944, 0.18848177780171646, -0.23882650021951646, -0.11926215542251865, 0.3117947468568869, -0.09229274145766408, 0.0197494626130012, -0.25693489941663367, 0.09578027541571897, 0.13473122524244235, -0.2717220661992424, -0.5087049987593891, -0.46871075908711374, -0.21316211891891362, -0.11938460336683601, -0.23883021359152473, 0.16127406927922439, -0.13805606333387016, -0.17267230985049947], [0.12799788845419943, 0.07362681884678232, -0.10987249788874842, -0.18381521350976793, 0.07889114550279458, 0.1279006851041153, 0.1291856640325636, -0.28296934457980744, -0.05116019945514542, -0.042196276219234316, 0.15584201220444766, -0.17667729405379642, 0.04498382165898376, -0.20427978552996226, -0.16600580079904523, 0.17287304010109397, 0.20166545690486817, -0.23871763798925483, 0.07443695459625105, 0.09177131179377318, -0.22040273076858813, -0.10589090284675612, -0.1257923714616962, -0.050022641604239214], [-0.20100465240414944, -0.1562059866291553, 0.31904159046344127, 0.04443425763156621, 0.04327902683893685, 0.004448617616273439, 0.1474105778751552, -0.1994403568874222, -0.07516388910702834, -0.35777750551234644, 0.07238108343981078, -0.06995480035784805, -0.05107765150855019, -0.007410353716210934, -0.09439117338135981, 0.097542042715034, 0.14420059507834143, 0.057836755108728904, -0.030985157969670517, 0.1550057022100119, -0.3509268339282782, -0.18543945961644553, -0.040659231195459083, 0.31303885959091193], [-0.04378477779146693, 0.21764012174821984, 0.20623174827268287, 0.13354718058041223, 0.1443368363689774, -0.05857580601014886, 0.028696414242754893, -0.032438504777029586, 0.2260431313573985, -0.15501343125354772, -0.2076136366454003, 0.027710153924042916, 0.07127512919345036, 0.1312601380607637, -0.14531853761006477, -0.0112900376704306, -0.04435560156197841, 0.0478434010703558, -0.09135105142580498, 0.3685464183102206, 0.27217755437755464, -0.1418637390403264, -0.3551345642914549, 0.12097341646991358], [-0.014150767489341439, -0.24496949148830158, -0.006736019054979372, 0.033219431329176555, -0.017748857509760872, -0.12713592629270698, 0.021235732339337773, -0.02744318466649296, -0.3781315853618264, 0.09368039394954297, -0.15172457059922403, 0.039545749723724925, 0.0095994107553888, -0.049287193885999406, 0.1779275216366631, 0.15810049708639393, -0.2023148407024225, 0.163275534665969, 0.1698579643835506, 0.134363223247397, 0.03384101749520862, 0.14605577810546694, -0.025726232321944677, 0.30791872355370853], [-0.1893111426604081, -0.19841880886600896, 0.08605683003010466, -0.1622773471383054, 0.11466378385137102, 0.15858313768416782, -0.18848594067950208, 0.24514317448575246, -0.06454913806914078, 0.018037594618669762, 0.14438930212431406, 0.252153815718726, 0.27908058166862987, -0.2880041056222233, -0.3748187877581704, -0.09851723778792622, -0.3822217778975696, -0.06038252261540277, 0.08642868447871076, 0.2933087376713318, -0.03383173511715365, -0.11053876073943998, 0.08635735770458587, -0.29201791665570004], [0.28509157067091595, 0.14723449909435188, -0.18234026095204958, 0.02303365998199342, 0.07581749888319564, 0.04107582581224252, 0.04451320167681234, -0.08858507393870615, 0.0161642419858126, 0.2436077680441478, 0.22752586937818634, 0.06587046923819956, -0.0825427066637177, 0.19752181240121047, 0.2305539240946674, 0.15521371401120132, 0.22325811054491537, 0.23412365593157344, -0.02960986424196402, 0.053767397387427286, 0.144113239916921, 0.017027845806618765, -0.14572729292618167, 0.025134141962521023], [-0.21054384754869704, 0.09063689990501124, -0.03150749923635859, -0.18193216056065178, -0.25472987704277733, 0.0691334233763028, 0.2995319900733494, -0.15290627696221049, 0.02866260405803963, -0.07687773166713423, 0.0255575987047368, 0.15748432899904002, 0.27661679381427445, 0.01905195265272043, -0.09856888036500376, -0.12357846375688757, 0.2170154368022259, 0.2667673395200262, -0.152076343808918, 0.0031230750741598856, 0.15186509413552118, -0.10105473448668426, 0.10869246164317783, 0.10684383913066006], [-0.3360916718093172, 0.11732336760498167, 0.05024461358593118, -0.0015271277303287958, -0.19858431457878312, 0.22167813556196997, 0.10514118204190773, 0.2832152025935377, 0.23568107883156192, -0.22056063390404385, 0.10074973651406194, 0.05678850346121427, -0.2154578178768824, -0.2088991457981734, -0.04094533723047499, 0.04866139035623119, 0.020954421371676347, 0.17209773136204704, 0.4331921355140538, -0.33582193866993665, 0.10633493593501935, -0.02284426360776286, -0.0662100243644734, 0.01998327914704498], [-0.2027234278569071, 0.06603603823151187, 0.15706638232040426, 0.1933870783257233, 0.47830535219666515, 0.1355297181581254, -0.007589714704939483, 0.042044650132364546, -0.15662691200561865, -0.35230102175639655, -0.17656023663205783, -0.05739600048808466, 0.20165098087872152, -0.0994115126934354, -0.3034031539479598, -0.39495116666927105, 0.11863283009766523, 0.36884554054607765, -0.12681821047044967, 0.02233523247295625, -0.3060205750920584, 0.14181946590780065, 0.3699971208682643, -0.33612700781688115], [-0.10885169738956149, 0.05559105179568395, -0.01792556764449206, 0.32728186320411995, 0.11068256033406232, -0.1990246355817604, 0.2870827142836974, 0.22340552209909886, -0.07979823219351417, 0.07559910543920753, 0.20350030264247684, -0.20031077933850205, 0.36450585522245144, 0.1478376122517175, -0.000579036522085844, 0.093989430912475, 0.15174082314251222, -0.06508659842586025, -0.21830740091398948, -0.10078465929044117, 0.009005491243638015, -0.0208052655524917, -0.12888053182105189, 0.36024464317232086], [-0.07259473577694915, -0.17650357389952606, 0.2238265679131762, -0.03801642997097974, 0.11737668533300506, -0.23278426604511807, -0.3327166793996475, 0.3119135052911923, 0.4559680211876179, -0.12072011526735844, 0.1145186743867834, -0.3766792171521374, 0.029192207012580143, -0.3455662658182949, 0.06835924107048393, 0.19052109546631715, -0.036658509929414614, 0.08877738402552951, -0.3209900834661928, 0.1894410946507902, 0.08511998137391798, 0.019436501045012492, 0.1281728056754397, 0.0475846545928216], [-0.005676044700271527, -0.0017833917024865278, 0.20802358589712672, -0.3811277696956855, -0.013612583773537834, -0.09337777018444268, -0.09896252706189546, -0.14690637220143257, -0.16529603910632884, -0.21380887900466602, 0.17559224755660038, -0.10912831872119239, 0.1883261370181724, -0.1753676816621624, 0.05389993753258054, -0.34418271580470844, 0.27387172939674426, -0.28097281176117317, 0.017588114232891465, 0.08640437429304557, -0.3227431423997981, 0.03409584706296308, -0.047568492127388805, -7.604612748337223e-05], [-0.1281827860503069, 0.005433612501182674, -0.1291778623199799, 0.11251620516821714, 0.14975229374733337, -0.46979346577268966, -0.18488919631577508, 0.11156026605553579, 0.3294211132781988, -0.14096410559777436, 0.1287573386509246, 0.025894296529265146, 0.28485724644893384, 0.042703340819708425, 0.1866953175199399, -0.23816024331948496, 0.17935546579213715, 0.1114472765728318, -0.12279224121142163, 0.2954852843644915, -0.07282486413398419, -0.01759402872175348, -0.34338161656765287, 0.0026982383479196804], [0.173601615579927, -0.10753756515445215, -0.00014486063187172778, -0.05663539609198067, -0.14715590335305678, -0.052367905688442545, -0.15114854584599732, -0.13832853297543596, 0.1431902474184729, -0.17065661342201474, 0.2789462631730628, 0.0840138127332359, -0.07911269100987775, -0.10489438949899554, -0.23659482951478225, -0.16328476109475762, -0.18008440909070872, -0.2042644654014913, 0.3086336020965881, -0.3294300511519352, 0.1111149508092623, 0.46898892159818484, 0.08624733488509048, -0.08258648079329096], [0.16342997150127256, 0.17545773723458286, 0.04624928363271005, -0.09283992440694377, -0.103277438699953, 0.15315274339077908, -0.15737734127946013, 0.25030682704756796, -0.04718230920104996, 0.1488766650138171, 0.007901707443895864, -0.11986240066899388, -0.06387000072857128, -0.023204283528620907, 0.14375350331276657, 0.329876421990352, -0.05480680124891332, -0.22557643326896287, 0.19789342702515514, -0.02487328723222371, -0.4336283155595876, 0.5039839293696013, 0.034261804019044065, -0.10949881220906471]], "biases": [[-0.0007840261072780122, -0.00696007927369494, -0.01198538177686365, -0.004801244494061859, -0.008930038713201796, 0.008843178010536195, -0.018073429173246863, 0.0020795834334189907, -0.0005179683128922565, 0.011506803940949205, -0.0003012293387163525, -0.010592894835109624, -0.007518876280006858, 0.008979527183056887, -0.001422900706189988, 0.011663475402043228, 0.007625405556379298, -0.02083537752092244, 0.00227678844475445, -0.0046899310965670725, -0.01455852716017345, -0.0030792336433360006, -0.0035702357863526477, -0.0144528723844231]]}, {"units": 2, "activation": "softmax", "weights": [[0.12743987596257733, 0.09356482713263077], [-0.17553663845831574, 0.1097113286898727], [-0.20079733722178233, 0.36344054768392187], [-0.2017402037044764, 0.06773780629261449], [-0.1635714629168873, 0.23596081895894197], [0.3635598591529134, -0.08257022361903195], [-0.4600497232249455, 0.24388916536739774], [-0.09506028094915661, -0.1534378190274021], [-0.16644200410452173, -0.1098295293907789], [0.399218531127663, -0.1180657682139472], [0.27182003450344516, 0.21660265306699533], [-0.12463228214276975, 0.2789380359515974], [-0.2670878012769055, 0.07057754620830764], [-0.06310177915555722, -0.4202469201407406], [0.011751751361047478, 0.03245689044183872], [0.06282530443874788, -0.4716290106621861], [0.1457255450956648, -0.1324437756761816], [-0.4208104370021653, 0.5458108852153469], [-0.2676952182319656, -0.348606910787567], [-0.18357142527538098, 0.005989086058053711], [-0.39852063751347183, 0.27949257906594116], [-0.03052095110764439, 0.10247619451833913], [0.2826900596216717, 0.4360848213995199], [-0.4384403261809397, 0.1570631848319943]], "biases": [[0.025056639149889558, -0.025056639149889565]]}]}