{"layers": [{"units": 24, "activation": "sigmoid", "weights": [[272.6087929699463, 269.99635931941873, 268.01477770792513, -293.6613538060932, 275.4241644679504, -279.803961071503, -313.0574504430979, -254.58648899254783, -269.87952573147237, 312.1220052741751, -262.2298648593758, -259.20331336797324, -296.3280358177067, -276.44134077887793, -269.9090771728128, 308.94421631732416, 269.34629649365957, 293.91087893879, 310.1464173566568, -264.85108863933215, -312.2409056817106, -273.0452030496344, 265.8266128117009, -316.9070118128755], [1352.107321034893, 1339.585866951427, 1328.7131752657504, -1446.9527198420158, 1368.4876926476013, -1390.0074790648334, -1536.5737141850025, -1261.7287996377188, -1338.0581809968858, 1531.0604069636954, -1300.131365639247, -1284.9718354564066, -1460.0310968683116, -1373.6634758314037, -1338.9404513332597, 1519.1816019139558, 1334.9965951528977, 1449.4988334562959, 1523.566147166549, -1312.894080863513, -1533.1787583965079, -1354.8219078447862, 1318.123439960833, -1552.7258199123257], [1551.8930360633908, 1537.0459672530635, 1525.2055845297225, -1669.3128430048362, 1568.6998865822043, -1594.27462759568, -1778.284698577704, -1448.4869892554084, -1536.4357050771523, 1772.2261332062906, -1492.1896705464808, -1474.7192845170812, -1684.447829683458, -1575.078525404173, -1537.017960992949, 1755.013253666243, 1532.0464763420578, 1670.447807202347, 1761.615510550295, -1507.4594866037683, -1773.8159125738232, -1554.8686009946564, 1512.125963294258, -1799.6177882505758], [1340.5394730434432, 1328.151516205597, 1317.3181748398522, -1434.4211015084109, 1356.8408793926549, -1378.163906734037, -1523.1662629571833, -1250.8583583629072, -1326.5934998369632, 1517.7219003836528, -1288.9383425342828, -1273.8937340636348, -1447.3629265836382, -1361.993967515024, -1327.5074681918832, 1505.9886346904877, 1323.5273901281316, 1436.9598521759058, 1510.2947909806717, -1301.6130072234835, -1519.848768214946, -1343.2670990078586, 1306.7878877646551, -1539.1454822152725], [1467.1218235626384, 1453.4286124458204, 1441.770437377745, -1571.9875148463605, 1484.434517231322, -1508.007384030192, -1670.6590388954776, -1369.1321900594362, -1452.0672622556456, 1664.743507758847, -1410.6970250720558, -1394.2224956507603, -1586.191672390039, -1490.190381318286, -1452.9324840606544, 1650.9712694388006, 1448.4910092922296, 1574.2936723488854, 1656.10698942273, -1424.7331747001544, -1666.8550118774083, -1470.0662557851142, 1430.0054036649688, -1688.858088754625], [701.275219588371, 694.9372453842715, 689.3412474002483, -748.3798395286449, 710.060055627041, -720.6791219474047, -793.194179287857, -654.8178912442193, -693.7865548624133, 790.5583501659984, -674.7345306430905, -667.063490413966, -755.1022569154851, -712.3956519991257, -694.2575253399982, 785.2158876260497, 693.2087528528351, 750.4099813552976, 787.0575611044053, -680.9818026675252, -791.5871961639164, -702.5651952313847, 684.5603800116413, -800.9160622442779], [418.4348381846128, 414.8829202040471, 410.78888174949776, -442.20152694570396, 425.03793682047746, -431.19375160167436, -466.11334822617727, -389.4382458745641, -413.4718104654934, 464.25404420442203, -401.6764114291493, -396.851964075092, -446.16531470804046, -426.3846414502465, -414.1559806001694, 462.9683154745469, 412.43244503794193, 444.0649375278742, 463.32525962488904, -405.47692535043905, -465.4900435018657, -419.33135075211953, 407.6080159091408, -469.1968570411542], [1171.9080918055454, 1160.876778228705, 1151.2430076275682, -1256.9734256959775, 1185.778332996558, -1204.9440767110993, -1337.1473309283763, -1092.444033606742, -1159.7986234405203, 1332.355705489806, -1125.8017738646251, -1112.3074800842007, -1268.3747360709294, -1190.5383569716507, -1160.608981568387, 1320.799384253953, 1155.5538262001041, 1258.2472828701293, 1325.202490724905, -1137.544486533572, -1334.0268835005206, -1174.2862520794738, 1140.7769183510563, -1352.1082620053444], [1457.3953402872592, 1443.8050907579063, 1432.0206738327931, -1561.1510177218215, 1474.790536936679, -1498.2379746178349, -1659.0501238801303, -1359.5297841594952, -1442.349032876881, 1653.1144892869775, -1400.9331740157372, -1384.4224307117076, -1575.2445078037251, -1480.5327164619687, -1443.2896778315287, 1639.5846322052632, 1438.2978065746004, 1563.395648994134, 1644.6470294969167, -1415.0278899766517, -1655.3143890632825, -1460.3497997937595, 1420.0024802718403, -1677.0334747050254], [376.1349171495537, 372.82138196300536, 369.568997207293, -399.4449202307816, 381.311096111301, -387.0176719960291, -422.2406485842967, -350.906669667743, -372.04031193213615, 420.6392218042094, -361.70261607570876, -357.5274378571599, -403.01913117918394, -382.62901759124895, -372.3933467271676, 418.5013550101906, 371.4457304785383, 400.74341461763294, 419.1959908812991, -365.0444515240469, -421.5225343475598, -376.9554039849722, 366.94359514879864, -425.85312503092547], [-514.0980971972728, -509.1510195291092, -505.53876533926353, 553.2245420731663, -519.3565758396114, 527.8245131357264, 589.2028307032184, 480.733799056035, 509.17822305945856, -587.1855400872362, 495.0306390929901, 489.49197794344246, 558.2396787774114, 521.4851141819246, 509.21437146896386, -581.3771676816194, -508.4563333571325, -553.7052562152098, -583.5646688269732, 499.8294172133556, 587.6768885268689, 515.1130880682239, -501.8260164288712, 596.3532774364163], [1288.760428214639, 1276.73697182722, 1266.5746471157038, -1380.7856732176178, 1303.8903229964176, -1324.406371351812, -1467.4074785875878, -1202.7480608194694, -1275.4661228504726, 1462.3673527497324, -1239.277704770238, -1224.8520277817065, -1393.2631097106027, -1308.8124651188853, -1276.1753144171917, 1450.2620633849906, 1272.613875565579, 1382.987095118405, 1454.7246637746118, -1251.514122071481, -1464.051607130566, -1291.2779726362721, 1256.3953017911904, -1483.4169313454206], [-15.03557469622268, -14.84908398393366, -14.922749102481824, 16.45878086990557, -15.018502725925993, 15.236766045934807, 17.446123835991184, 14.571981594330655, 14.904834358500967, -17.433943083763882, 14.828354979876803, 14.811009982563094, 16.58820052580965, 15.040555486080061, 14.810672031614663, -17.223490214121572, -15.430750237439497, -16.560439329520673, -17.30461698647483, 14.815671139379793, 17.396015000382093, 14.991385024822621, -15.167656499789866, 17.71382731112603], [1051.3163247791153, 1041.6215394373767, 1033.1444818729203, -1124.475118295949, 1064.1110642467745, -1080.74585127279, -1193.6832571309462, -981.1280441849716, -1040.3623742521402, 1189.4412238932005, -1010.9811868034175, -999.255397423629, -1134.621249032504, -1068.0977212376126, -1041.037591649455, 1180.4139912907824, 1038.2352792154638, 1126.6354525964077, 1183.730939302355, -1020.8166003801877, -1191.123383865107, -1053.384974454167, 1025.0818288303687, -1206.1056882670969], [1414.0814605449696, 1400.772060092907, 1389.718742512268, -1516.7548143476322, 1430.2992212678218, -1453.0979722414359, -1613.0661886041203, -1319.7497291094705, -1399.6459715442388, 1607.4609096557504, -1359.7374100049217, -1343.872554134504, -1530.4919787658332, -1435.8743343686178, -1400.3803934428072, 1593.467402866472, 1396.191208164414, 1518.706112228945, 1598.693626241985, -1373.324536039898, -1609.2752681374518, -1416.8400481182964, 1378.2830715436585, -1631.182557136582], [-13.991596525194378, -13.990383192003387, -13.822157735698024, 13.874807799754793, -14.497422600577005, 14.44475501658708, 13.72806184076859, 13.152888450644559, 13.658868885680361, -13.746242993588506, 13.539592863203707, 13.494178161258908, 14.000872603057644, 14.367812109278102, 13.702890822931241, -14.315339089401158, -14.135660340807856, -14.33431687739918, -14.078965977026133, 13.483965957336517, 13.833608271653462, 13.925035409036433, -14.049197587556268, 13.33151299752436], [-585.976401835933, -580.0986140025655, -576.252509397932, 635.3006527334379, -590.9570080786563, 600.7380540730228, 680.1143502270786, 547.4536912147763, 580.535283009152, -678.2032093695658, 563.7691400125001, 557.2259938121238, 641.1655304682089, 593.3483203865732, 580.3830096160048, -669.5719609156274, -578.9219949848606, -634.9365821392961, -672.8669168116577, 569.7241315101311, 678.0181531129949, 586.9465502634849, -571.1192770122195, 689.794452716236], [-194.91534048642123, -193.13189447832568, -192.02218497499547, 208.90990703555624, -196.8731079510593, 199.7108828885537, 221.7426131948092, 182.99567091371893, 193.12926239896876, -221.10347701929777, 188.44767058826372, 186.52412334599205, 210.78967596455354, 197.48483202971894, 193.05320216566028, -219.2290177038188, -193.82564518735205, -209.5081902075988, -219.80710063562236, 189.87521179790545, 221.2067809604904, 195.3570687308291, -191.30083135584218, 224.19406114120645], [161.7820921948913, 160.50216594850687, 158.70175734943865, -168.88791437790084, 164.81668441558833, -167.00321480611962, -176.77115096069613, -150.25673590311644, -159.61846182074692, 176.0345641584747, -155.09938039340142, -153.17237496118477, -170.37666595355148, -165.2239754667187, -160.02788341555322, 176.31994715304904, 159.2664453254668, 170.0147543161343, 176.1229578982569, -156.50170152661408, -176.66417410156194, -162.1042259425372, 157.51241055557017, -177.35444178369275], [-389.06766350244527, -385.322196553667, -382.6277803259661, 419.26547545008225, -392.9803060005931, 399.2368440894798, 446.7838928938119, 363.8143093656476, 385.20412075302136, -445.4249520122908, 374.59920064930276, 370.4571457816685, 423.0651251254471, 394.4350636807822, 385.2351957996106, -440.9515814772672, -384.96449368532456, -419.71438126383464, -442.658029648877, 378.1902153645108, 445.60118955986394, 389.67736253292617, -379.90608226685214, 452.24136075527304], [-529.8585196903691, -524.9752650140618, -521.1161138003483, 567.8728037545592, -535.812076667273, 544.0351000077787, 603.3049743648266, 495.38329321067704, 524.5618213514948, -601.3001364460848, 510.34157916995196, 504.6415530696456, 573.0419203032567, 537.7121181632522, 524.7281300873574, -596.3576581808446, -524.3390469379812, -569.0319245476003, -598.0989466110049, 515.0438870340832, 601.8734237069119, 530.9188935109522, -517.6620027044349, 609.8586944098341], [1777.1612359056703, 1760.4346893935187, 1746.4656258851044, -1906.0537757162685, 1797.6729198478954, -1826.4494376322266, -2026.8623631089947, -1658.6295845344723, -1759.0742825163834, 2019.7276140947165, -1708.9135725373583, -1688.9446352178368, -1923.2889731835473, -1804.7353807825407, -1760.0118961275, 2002.273635218473, 1754.614135517006, 1908.4471973532904, 2008.8379354328063, -1725.969707032163, -2022.1260082875212, -1780.7033142763082, 1732.1161407195889, -2049.5577030430827], [1883.4073890131044, 1865.2770218174335, 1851.0392065587903, -2027.46516743357, 1903.4403175637851, -1934.7048253495136, -2160.9242175646855, -1758.0277861846569, -1864.8147726443142, 2153.509354272081, -1810.9830737995424, -1789.7401799941242, -2045.8918557900517, -1911.3147612149853, -1865.4841327333268, 2131.93336066623, 1859.2313309596793, 2028.4579388539746, 2140.217010109733, -1829.6583203611222, -2155.3553041025225, -1887.0707624022934, 1834.9469361343165, -2187.375890560529], [1682.6040262578454, 1666.8300434153246, 1653.5561948822021, -1803.8555609417579, 1702.2055749560636, -1729.4197453281745, -1917.6179278771615, -1570.4046577458432, -1665.4179175106965, 1910.786034121059, -1618.0137519739108, -1599.1706757394968, -1820.1497401213005, -1708.8914662961497, -1666.3559937258956, 1894.620031644834, 1661.3511244470349, 1806.2866762229485, 1900.6862796552168, -1634.1058686314905, -1913.1959594878224, -1685.9785086409595, 1640.0897837624439, -1938.8048294840848], [1824.1786240042227, 1806.9364327854464, 1792.6907367077295, -1957.854747055, 1844.8799497568893, -1874.5854396217446, -2082.8955505237304, -1702.54544403656, -1805.7214561905994, 2075.590532663668, -1754.0663277654971, -1733.5798626508274, -1975.5643512437923, -1852.2302701310357, -1806.629403696263, 2057.073029766691, 1800.9694785405704, 1959.9908886488847, 2064.052529234222, -1771.7316200936998, -2077.937712579725, -1827.795363685743, 1777.7897409131224, -2106.63051250709], [1495.8681378291787, 1481.6555708751364, 1470.4348404927352, -1607.4312067097253, 1512.1648241588957, -1536.3989660416073, -1711.10350737924, -1396.992110540598, -1480.8897464719619, 1705.3940699292148, -1439.0019825499814, -1422.4300244298051, -1621.9854146264547, -1518.0514131673463, -1481.3878384933244, 1689.4222815559535, 1477.8171904296707, 1609.1172992467434, 1695.459769057423, -1453.2762449514632, -1706.8747734041967, -1498.661599141495, 1458.6700766953934, -1731.1877086345114], [808.8436278476887, 801.4146853969629, 794.8599664930484, -864.3407759089123, 818.9517820135876, -831.8987596411848, -916.7139329631126, -755.152017671489, -800.423387979163, 913.2604966345888, -778.0000087592266, -769.082561595042, -872.0858296533482, -822.1269410883824, -801.0345868139458, 906.7726672507569, 798.9917658703582, 866.091614159628, 909.1756450639925, -785.4421140551765, -914.837611388314, -810.5521539767759, 788.9008428460505, -925.9601960330039], [1318.744377227941, 1306.2063659023806, 1295.829825270031, -1416.2066285318285, 1333.681782474217, -1355.4595186725949, -1507.1172223148744, -1230.6072047222826, -1305.412935219466, 1501.692761975864, -1267.7776020570402, -1252.882676218634, -1429.0069075760493, -1339.1567613829238, -1306.0863212634176, 1488.0781278032348, 1301.5448537666487, 1417.4274877741652, 1493.320105539085, -1280.7051212594545, -1503.4980763574843, -1321.3401700737832, 1284.7358665323802, -1524.46991419455], [1702.4827237703912, 1686.4868696371225, 1673.0839205260029, -1826.0452560064155, 1722.162950864705, -1749.6927419278595, -1941.8333308271765, -1588.8276602961103, -1685.0769552684521, 1935.030020513115, -1636.983337093342, -1617.8480453837565, -1842.5703564528214, -1728.9073393006115, -1686.0117686445385, 1918.3290427230754, 1680.8149622750457, 1828.3694717785104, 1924.607369513673, -1653.3520119178763, -1937.2859818589877, -1705.8102843120405, 1659.2739743256896, -1963.5174057071363], [897.062175176593, 888.6817948211165, 881.7189710177204, -961.2025317581963, 907.5160767233393, -921.8213861183436, -1021.2977661092877, -837.6717268507161, -887.8685492026442, 1017.7520620813214, -862.9586924871176, -853.0495634257175, -969.872898092572, -910.9472797721776, -888.3137562469435, 1009.3964777491776, 886.2727299016944, 962.7764165788993, 1012.4750875318967, -871.3175900644401, -1018.9949882656325, -898.7871313050645, 874.9584783254464, -1032.380963132298], [642.2286458841439, 636.0152312235374, 631.103947023459, -690.9825508970605, 649.1540071755685, -660.0860331133991, -736.0473900826255, -599.6881067459321, -635.9077818783238, 733.332424641405, -617.5872998458843, -610.4240544504154, -697.2287968805125, -652.0000718810909, -636.1543534384492, 726.1425393153725, 634.042230629913, 691.2576348426695, 728.9647066718272, -623.9102603949657, -734.180419824571, -643.5083552292889, 625.7210155184558, -744.987593789769]], "biases": [[-3.764006677844738, -3.734956299871123, -3.809344325745826, 4.166590661160203, -3.7315839137570057, 3.7889541986806883, 4.333820531596231, 3.843678880404573, 3.800106298899209, -4.291873915136835, 3.9008556274269854, 3.937375927583791, 4.205356002562957, 3.757368217491429, 3.760977906342606, -4.294876536222185, -4.064051831059517, -4.186347750483682, -4.286634243344706, 3.8298598437408313, 4.326396069826571, 3.794319688500665, -4.004069943343295, 4.355456230938523]]}, {"units": 24, "activation": "sigmoid", "weights": [[2.9743758013184194, -2.992944774686907, 2.7499699112449485, 4.073132748706499, 3.2034702672014843, -2.7104246728284775, -4.249490217817411, 3.459805351634653, 3.9736351593602603, 3.5157252462769444, 2.193603354628375, 0.008267312519755805, -3.1317287823232514, 2.8705172701234027, 3.9755665580909656, -1.4407871891696318, -2.025034332862435, 2.946018178217982, 2.6800116221575623, -3.0686399235110406, 1.6556276469176572, -1.8613657740287095, -2.880339918907795, 3.649840274330695], [3.427827225905049, -3.579628401792954, 2.4527486117076127, 3.979115414440603, 2.9144016168879587, -2.344167307039351, -4.339604735377235, 4.1864487548295255, 3.7785067644091606, 3.02178571164827, 2.590722416611327, 0.2073163196172595, -2.846574225276288, 3.16196480666164, 3.859096422060471, -1.3252257031863983, -2.3515800122162154, 2.595908909540147, 2.734498880442844, -3.124842320374245, 1.6542275258132761, -1.148969515118781, -2.568817053297491, 2.852628184191856], [3.75206921932772, -2.8007907426192924, 2.3195826532018287, 4.229190278101552, 2.665543491852719, -2.3925957745406174, -4.258045260224853, 4.051594588828376, 3.3078228888837344, 2.705917536668164, 2.4095196488506923, 0.43749215248432133, -3.1113332329739216, 2.9516947593121223, 3.7945128031324917, -1.1766812227603183, -2.534667368730427, 2.4024290251251714, 2.8629926930109715, -3.0988367891188298, 1.4780706472234824, -1.1712803059883459, -3.0728280651441082, 3.0688168870608856], [-4.5929242818223095, 4.01558172206625, -3.066218147811816, -4.230923239037248, -3.943605913884712, 3.4132825134513474, 5.025168959541506, -4.12852085717521, -4.269132961248614, -3.822675014444498, -3.2884709791126183, -0.9305407254629768, 3.566174974342517, -3.8416756151231746, -4.359204410778188, 1.7638631413831063, 2.782574754955136, -3.3820118795311704, -3.0162665245331217, 3.970474480772093, -2.034191244043236, 2.1675848647538407, 3.236748752210332, -4.325117458640922], [3.212198730944366, -2.9981889183404924, 2.715127561136061, 3.897305084139592, 3.332827919369023, -3.2305797784412094, -4.1354791467367615, 3.895229960187619, 3.8098876964220705, 3.0938215938111977, 2.9341325017020408, 0.3461615384517455, -2.796891742093682, 2.3501168506077175, 4.114325903758989, -0.8519780968689569, -2.7372269824248763, 2.692145009319855, 2.1855375748301222, -3.5852053715871377, 1.9974161754631286, -2.0638240276688977, -2.6281577139942476, 2.803247085545932], [-3.1788202294511603, 3.506767164280137, -3.0762414149861055, -4.105681058524998, -2.5171925636456765, 3.1686815258871275, 4.338545393464401, -4.153097692764726, -3.6997858641919783, -3.5948650821336563, -2.797979436673869, -0.7423699733094524, 2.546942583079079, -2.641575310403116, -4.248677427205828, 1.5099696554112463, 1.9086068236222353, -3.1303284353418985, -3.007891934864828, 2.725074766661442, -1.609080789565683, 1.9381788332829868, 3.156719747819356, -3.1021256908075667], [-5.368707968688923, 4.164878769097123, -3.9131763823085257, -5.268966928982868, -4.448785031948546, 4.458017145619147, 5.044295932531786, -5.83556373677249, -4.51215706037967, -4.784623872384298, -4.210286802572006, -0.9717093131716451, 3.7704899954664066, -4.1896701869579855, -5.295270280006822, 2.577523157845118, 3.287378267263757, -4.068683504269702, -3.6157043240092994, 4.807934326185479, -2.768029421858662, 2.9212209706816457, 4.552512578281058, -4.451712298336896], [-3.1861038537230937, 2.439667017069304, -1.8796539696439591, -3.9020411715186767, -2.383784668091925, 2.902504160345071, 3.903820405101846, -3.8219952697550124, -3.5105649019734257, -3.2081700019056703, -2.273290047861239, -0.1999464894707507, 2.0984963100926946, -1.9939430303950358, -3.8071906789815317, 1.0593037883960028, 1.5776882359944602, -2.6367513125861373, -2.3678158574640165, 2.7184132163164056, -1.419858568524394, 1.4629121890493033, 2.013216067154431, -2.5805500643262795], [-3.5995723584238557, 2.833654058584608, -2.3033228811619124, -4.119458248096352, -2.4689457300791307, 3.044220162086491, 3.58344681855639, -3.9014072596747886, -3.015641319896431, -3.5091403410371607, -2.6699337594846106, -0.4856816953271318, 2.554997417959127, -3.0547914662047524, -4.081259200926653, 1.5520017003687538, 2.7211576787980314, -2.36055350411742, -2.937685018791172, 3.502901678792723, -1.8784761395398597, 1.5930253338873002, 2.2256643954863575, -3.5479996835888525], [5.434534866476228, -4.949699760731233, 3.7632116825576505, 5.751668735465677, 4.0327892735426865, -4.058541722084264, -5.165860310097006, 5.254018020337643, 5.159473027254168, 4.910595691607274, 3.883308505793376, 0.7760205709817669, -4.014115858765699, 4.595277724047078, 5.434641095001581, -2.6566838391465137, -4.075315048634178, 4.408386273418101, 3.4409763203186396, -4.289399888947223, 2.380520947016371, -2.5827848669817306, -3.727516066853048, 4.463858036592717], [-3.2931021896212487, 3.2793289182198615, -2.109348007671375, -3.0787832063235228, -2.500873166896193, 2.8788314056319804, 3.729422971109889, -3.749514857949781, -3.22987942159528, -2.6850572493200215, -2.5507544245362426, -0.6006098831666191, 2.293064979963709, -2.482502348724111, -3.8803490124570525, 0.9190904605739557, 2.531059437808091, -2.8640188473093593, -1.9579964435866402, 2.922068534730215, -2.0105713797895692, 1.459180962498599, 2.5722276004720923, -2.9502027441055496], [-3.449748800251163, 3.2343880225296298, -2.714888658790053, -3.8330962322222897, -2.960154648642436, 2.4581555300957425, 3.086266336400001, -3.390962693609381, -3.37806881073913, -2.383835104111124, -2.1018252687864383, -0.307855431694569, 2.290534785824974, -2.212081346593596, -3.4244234039396284, 1.5030474050876153, 1.7278195743940183, -2.586665402702571, -2.4845313714059514, 2.905359247617795, -1.3142958575853827, 1.3347502635249306, 2.5053071010659202, -2.6571496007428856], [-3.96061226304522, 3.682178376769635, -3.3882668462337677, -4.392888232562031, -4.019917440668224, 3.191899611815876, 4.841970028426934, -4.743386859520703, -4.6114369811873015, -3.8511996704602995, -3.4202007541378485, -1.0176068057504017, 3.792419081883639, -3.7573648022512405, -4.284040844813852, 1.4428846325605253, 3.25469819309447, -3.2291685476612084, -3.3171265524617004, 3.8766681356612582, -2.0545161307387585, 2.581284549240593, 3.864745151497875, -4.212551621094204], [-3.4498633343679463, 3.2547956371873097, -2.1491270005457888, -3.9580465883473024, -3.1635027987505207, 2.9947091481492785, 4.202040841861403, -4.131911036919847, -3.252719725577441, -3.2285686681170804, -2.8111421027795354, -0.767517763847311, 2.8600068138180723, -2.949343798402135, -3.3795481411575676, 1.1098883886137187, 2.6505514860213952, -3.174455344228633, -2.6853704610434908, 3.3051314749353122, -1.9166811846416563, 1.2573477708771377, 2.7623105936342753, -3.5088744994151275], [-3.55525885682539, 3.520046587401817, -3.048522960988506, -4.15407468374831, -3.2467905595742694, 2.355718998414631, 4.039247191514908, -3.725672080030348, -3.4237554857201906, -3.570140404870098, -2.7464294095152675, -0.6890868880475169, 2.641015875536269, -2.2820413883873663, -3.342896878767824, 1.3384634576451604, 2.7162355057725502, -2.856247582211872, -2.4425212566232277, 3.368466772884713, -1.5314758447552916, 1.1544885145827322, 3.134230594687568, -2.680152984983697], [5.255444415824469, -4.6758030534125545, 3.726810143529572, 5.48342466874289, 4.581582016701346, -3.750163659471308, -4.882040914641997, 5.176734209138579, 4.6514498347478455, 4.436872654847203, 3.640160991497125, 1.2359743341428495, -4.159967459610918, 3.754559971733487, 5.285292702322281, -2.5175761610368794, -3.290255110231397, 3.993907949372982, 4.055936490459323, -3.946125527649134, 2.445522894169172, -2.531586023190053, -4.103719079671272, 4.270535355498013], [3.011466528587171, -3.412809817921043, 2.6890797448563184, 3.554762614214258, 2.5996460737572464, -2.709251007256001, -3.160549079225595, 3.8433825734383564, 3.0019218005689776, 2.5063694440519115, 2.2969502936238193, 0.12902181017418812, -2.8409545036652233, 2.8497632710860055, 4.057225314010891, -1.6170281119666015, -1.726397564690908, 2.5743190475395, 1.9921759120353202, -3.2962261684368634, 2.031107007226742, -1.0567014401350359, -2.669579259233002, 3.2339199536886416], [4.19528189955623, -3.742779932360929, 3.217885939424031, 4.1708185863465586, 3.303086597537421, -3.0008345626009763, -4.139406127650204, 4.676296687790243, 4.266302514318012, 3.299120340981196, 2.9781892196302397, 0.10181499651963573, -3.519998892584865, 3.444051240407841, 4.614455273689857, -1.3998433603583496, -2.4845369794145697, 3.2291650257075677, 3.4598753063087817, -3.5610594547193504, 1.9922186641557162, -2.132406269475108, -3.5455124340648414, 3.817027036835418], [4.563879765509179, -4.403212453506111, 3.4320083945578763, 5.697550755241252, 3.9667144022425984, -3.745368158297605, -5.532906182003951, 5.41190406319756, 4.752817617231464, 4.675572280500207, 3.508296585887447, 0.6917930234149123, -3.789794440264814, 3.782237722143533, 5.743111764817205, -2.457661870002337, -3.9771499858088886, 4.582117669876122, 3.4683009262963447, -4.778054061842711, 2.9644068787189846, -2.761004580794224, -3.7703853284185564, 4.93230155551669], [-3.352083296338031, 2.9792602669062025, -2.894653462616019, -3.892922587917528, -2.809310631798959, 3.1150421868781617, 3.487455662488276, -3.8464827333065323, -3.529310315235375, -2.546848836658516, -2.651321580230945, -0.07310817532774902, 2.3798284811123236, -2.8352885165487596, -3.553170372837239, 0.87114876246054, 1.9231393081988912, -2.466067516530021, -2.864005189980891, 3.2582933805779635, -1.757261434470439, 1.7157350614227485, 2.9732877675828537, -3.043960719322026], [-5.162696532488812, 4.106551376176259, -3.628171486815681, -5.287122286138759, -4.163296092225031, 3.784960838046948, 5.133415088130529, -5.832960396636874, -4.577918734113115, -4.990415625864853, -4.2756752615591855, -0.7975802064033795, 4.4287550820929615, -4.406069022408411, -5.429072992139696, 2.5734228628065767, 3.9610933963604564, -4.3684879529217735, -3.5301128627496556, 4.127509160649521, -2.498388898969112, 2.8171856760264173, 3.817899207612888, -4.743063741848028], [-3.467800367497854, 3.183146277457724, -3.0068288075833425, -3.5031856722527426, -2.549987604480687, 3.182249927027522, 4.115118706370327, -3.3550104089883415, -3.7071681304183315, -3.3843198904704397, -2.8092571171817027, -0.5164597424908226, 3.0864827860567026, -2.6600543938304964, -3.5772092549417023, 1.2760236620773011, 2.6853500887079575, -2.943269292217126, -2.560725265841497, 2.963834710642527, -2.1486926096303893, 1.574600718853984, 3.081341634998026, -3.0102231377877398], [2.8036907751233313, -2.819286443583955, 2.703747957252466, 3.18782862542341, 2.3588130898103254, -2.285054906622026, -3.6564741123981723, 3.8241165984147982, 2.8904543560534357, 3.2647185384141695, 2.7204880248249985, 0.04362817246282801, -2.495676671059317, 2.9458241862141983, 3.778683166370735, -1.0270688333814424, -2.117574320456445, 2.46364740178019, 2.8388870539459976, -3.376530567962852, 1.2448912363273974, -1.1780063141617496, -2.1988136212344864, 3.3737216956922813], [-4.885978934616809, 4.935489968042041, -3.9245731590820876, -5.500246662880454, -4.4407705387346486, 4.234018889104102, 5.9561671253031, -5.20809167247219, -5.182529917146028, -4.442860571375504, -4.316002660013335, -0.48558021674564944, 4.713972421491423, -4.735479917896736, -5.017389768745729, 2.4431517356087853, 3.4488531282503, -4.586747357034231, -3.829051701608588, 4.516379779911116, -2.761097376587805, 3.224118057809487, 4.423360566321919, -4.753239774611631]], "biases": [[-0.01018677127043767, 0.012550296982434674, -0.019216876007090596, 0.002189486046443705, -0.015121113007302968, 0.013704872378676946, -0.007041679165539624, -0.002711533233638964, -0.003024547557645529, -0.01105418389865794, -0.038872051346457104, -0.025345577825603434, 0.008055993005857482, -0.020834275520248885, 0.001864850959102446, 0.03812027809487132, 0.029119569745926752, -0.015242945215076723, -0.023257428858264036, 0.00507031696699922, -0.03521160731241954, 0.02812312863224741, 0.02362688430551909, -0.012287377460914904]]}, {"units": 24, "activation": "sigmoid", "weights": [[0.30590388086349335, -0.5193441307384904, -0.657309335293481, 0.2437289393434524, 0.38519134165045277, 0.37444919823941863, -0.4251125756817002, -1.1461079643086542, 0.07898833912469576, 1.0181371129690093, 1.0019749987212079, 0.577996970751784, -0.7971105414934926, 0.3105313813107851, -0.9166256286890906, 0.2599917779762912, 0.14271390519970514, 0.7790817928696473, 0.7153175704108145, -0.3657501697313155, -0.6933839377093985, -0.48003344661161385, -0.3980018694582906, -0.12372314158495995], [-0.1711536470279935, 0.5192044450637726, 0.09842035171159204, -0.28039930068570584, -0.11849212211935768, -0.5349016110426135, 0.3838220675070343, 0.7877736785669585, -0.5522280937742093, -0.9625241097630465, -0.8382947904921865, -0.6742594038968899, 0.9805002646381087, 0.23388066576520186, 0.08193061346078986, 0.20834601379400747, -0.4411933093107529, -0.3620893656908759, -0.8616326513535701, -0.3241970538504449, 0.769120186200388, 0.5722871418713738, 0.18518484485050207, -0.18434541480386257], [-0.37829806728001936, 0.14112614751193592, -0.5347360416175629, -0.18722888887260805, -0.08972358286318272, -0.05353584953406953, -0.8757641394046471, -0.2963682506326932, 0.3619017492395343, 1.4002571244378292, 0.6460625943089617, 0.7160576805403367, -0.13235466368109514, -0.3497097348496894, -0.8085319713186475, 0.2988834306062849, 0.7737340061890196, 0.43972138097444896, 0.8260375195640551, 0.5835232573277656, -0.06840649635504018, 0.0010662994849936526, -0.37148410709098806, -0.23368027642358324], [0.23831675941879296, -0.42586307597716794, -0.6667950295822378, -0.1552039119217596, -0.02206676646585906, 0.07189381491337181, -0.4426897362004371, -0.7093422695833682, 0.4631817868870677, 1.5872243973809463, 0.6486217613713625, -0.0542540919146392, -0.7252908199310995, -0.1405545235390115, -0.3332028915061936, 0.17517201768394353, 0.5538423532895044, 0.5090455787719059, 0.5780666293490846, 0.29241088794589437, -0.7486740323103489, -0.598386337132259, 0.234362046208744, -0.6988722714352404], [-0.14148392528789, 0.18193706977212906, -0.06486276866432863, -0.21332314854205378, 0.21931040016064665, 0.5565654706573849, -0.8062449984072311, -0.4404988647946982, 0.8671265142746868, 1.069313099088627, 0.14068024206610308, 0.7397032078334871, -1.083008115252317, 0.24589903758855786, -0.18697644118937398, -0.37448834145323645, 0.6384807460515798, 0.8862373784659244, 0.693124448471687, -0.07016104119083823, -0.21642098182517977, -0.8457687061785797, -0.2607328248112124, -0.1946646020684284], [0.38752029116498404, 0.7962423985685957, 0.2575138223923332, 0.09612978119326145, -0.11340962459928913, -0.5933035432877015, 0.8070476775666787, 0.8524355857921156, -0.8473799366696879, -1.4386382842939913, -0.7127191625047463, -0.14511368976890276, 0.554279728390939, -0.17416139249770626, 0.4358883026856961, -0.14748208594343412, -0.17057463003767145, -0.3242616350820656, -0.1890547831148886, 0.06898868416978535, 0.1632161794988401, 0.40825155948403646, -0.13644337712695367, 0.5379369459323556], [-0.23395397014980246, 0.07372036028685511, 0.45963342600225576, 0.12762129093994928, -0.5069940352633195, -0.6290822193980894, 0.44020070734581856, 0.690855642586339, -0.9627324804540349, -1.5121146861624286, -0.7320227320577758, -0.5570070886437147, 0.3443973391978682, 0.06944362102646803, 0.5400061003632858, 0.438262934979961, -0.5286564799560258, -0.18601478539088204, -0.9669265844337918, -0.45411763052707416, 0.5323183768004826, 0.3391037399269489, 0.16815208435912266, 0.7599969038964101], [-0.16900233628315042, -0.6344072156102227, -0.8232399401784627, -0.1594807543909054, 0.49304637264458456, 0.3341976825909287, -0.3444602585190492, -0.3653753634339443, 0.5901863567614741, 0.7631547236999188, 0.4367045040538292, 0.559191510015285, -1.0251398563800327, 0.5062328084169088, -1.0232045748838787, 0.004741376287797094, 0.5740002913178804, 0.5462290450646221, 0.7550292746342063, 0.5289633237397586, -0.7614354944197419, -0.830815490661483, -0.16110733985059741, -0.2368304005348389], [0.346520817735154, 0.0636972987485609, -0.6009527279248933, 0.02619958017104069, 0.33019095662901277, 0.3605136042878163, -0.6669562600112953, -0.5492660508572358, 0.45539426892922585, 1.3936774756984693, 0.5581922867557222, 0.5190534949169356, -0.8812767981587722, 0.45995564536087274, -1.0649097672487606, 0.13685056039052135, 0.4131375517491482, 0.6604124774111351, 0.3061300658888341, 0.12587366685499363, 0.019218723088305315, -0.19547130101835847, -0.26799085953193064, -0.7328617377508342], [0.2651826810274393, -0.4039629685036008, -0.7249819358170349, 0.2336862050400465, 0.14089101559511516, -0.10859448311020961, -0.9714354518178855, -0.4956920190726109, 0.4224332455778634, 0.7435633578360518, 0.9957670544761567, 0.38967051361283833, -0.8590834480690258, -0.2542249565532189, -0.6316159914685839, -0.5126919320105116, 0.8661845763970145, 0.8126958919788392, 0.9457963026849838, -0.031499650181022965, 0.058524410762244204, -0.2599872679253672, -0.39749757319054296, -0.7331467696040735], [-0.29834916036748216, -0.40973800879027916, -0.6073620074342946, 0.13332007602722937, 0.3936772953728512, 0.6600557715255216, -0.7246865692348227, -0.8673255092181522, 0.6866405199355221, 0.8864247845564921, 0.5946607169399206, 0.7209670568707862, -0.5099696684930382, 0.20130513635326305, -0.33522951996950767, 0.011512424052954667, -0.09876154287982783, 0.7062848584400083, 1.0276465644782022, -0.1724988039250508, -0.7979281348434828, -0.43066926975241243, -0.3587731580405213, 0.14110018187179557], [-0.4244820686715447, 0.23314337276455022, -0.5471653006658446, 0.41575754450033764, 0.5593227614853706, -0.09653371555478134, -0.43205929877030586, -0.04616092314911756, -0.160056596292511, 0.4909045867436298, -0.05178108680396924, -0.2635231025611465, -0.681387505221763, 0.11062303511341662, -0.789450755739678, -0.1831384498785527, 0.7002687898616198, -0.015132702748542354, 0.29699776882787915, 0.4619492799200444, -0.24431677434821672, -0.3923550659296486, 0.291101102814243, -0.20568763924664832], [-0.020389258012077076, 0.599690447418786, 0.318303397501325, 0.14287548734896324, -0.28872261771356045, 0.09734505396849058, 0.7429954202494148, 0.34101012413858345, -0.06183474302450992, -1.217732343551016, -0.9985634678898131, 0.23899745470649367, 0.6014660693956934, 0.3281934366152931, 0.992766084423057, 0.23521139251735912, -0.1764294500094851, -0.52528326962767, -0.4057578954987332, 0.13231704717237636, 0.24078063243603828, 0.622270793204435, -0.24153434482033428, 0.2562657099742626], [-0.539234930351734, -0.4693844031010162, -0.0598476286037324, 0.4422283402694491, 0.6524914666267149, 0.27012921973608106, -0.3362441849678773, -0.5169265855053004, 0.17597158307505928, 0.8717036308930427, 1.0904705464826543, 0.04603998202099866, -0.6532737358591927, -0.3139290715057323, -0.8217926690163547, -0.5866394047699649, 0.13539167752978754, 0.29146188479576945, 0.9928124571644009, 0.24253267801186904, -0.19384642048426448, -0.6958258312981971, -0.05961562849771124, -0.5733049142127493], [-0.4886083391670015, -0.6085589608219715, -0.7840743866910685, 0.07829938292055943, -0.258372712457538, 0.3228170106051373, -0.6603172618951682, -0.5694109373829953, 0.7919621847250032, 1.3401407364723943, 0.7063991491217785, 0.22884729860672043, -0.7210203385721634, -0.4184106100275456, -0.6072809177546409, -0.0792173030594187, 0.13963433741086897, 0.3014481193432803, 0.34712483994905424, 0.4852651960202845, -0.05438825701022674, -0.7718710013653641, 0.425193913699145, -0.5023690905417695], [0.35579792817801836, 0.23998773851181715, 0.7800014877631358, -0.19631637883660852, -0.4241452143718037, 0.28154407713520957, 0.05567043437302277, 0.5456037166259664, -0.49032746281034245, -0.6309815500610193, -0.25542479624288966, 0.14497490864163237, 0.8723913069176513, 0.2589825383838144, 0.38372505285728037, 0.37005759980062775, 0.08737982583167854, -0.8332240551879398, -0.5351290592411104, 0.40967737114544633, -0.17383366741562806, 0.7982040241000437, -0.39334933831493135, 0.6303617723951921], [0.1401178665462126, 0.38716671330423835, 0.7106263607207256, 0.057866097821524236, 0.037393860433085714, -0.6003921323721917, 0.3461294284610515, 0.8320784215876562, -0.27291906308586544, -1.3317348723267715, -0.6489116874862864, -0.7429383476262831, 0.8086388179638465, -0.4806331175869034, 0.1505549344053244, 0.32141189345198734, 0.09519624206702536, -0.14421945020833282, -0.2694934614772586, 0.25592471475699746, 0.39130066719829276, 0.561838282053028, 0.21281622345499643, -0.08077435534736817], [-0.4275083880090464, -0.6272406936529644, -0.646418922336227, -0.1154838299341923, 0.6609401378898598, 0.12168684890789534, -0.5550472894630384, -0.7639653251903139, 0.8240369125382419, 1.1018753888727668, 0.3238914054185277, 0.09030766454977329, -0.41691796114232377, 0.39753800206999435, -1.0703833561873985, 0.22523747576486297, 0.7253047815899512, 0.455361537757386, 0.6074116357109556, -0.054985835986790174, -0.2396150299253597, -0.150243865515235, 0.26033295800732054, -0.27360478749382017], [-0.0259472506404313, -0.3828279344435389, -0.2503928034677008, 0.07254598433420169, 0.37573973324515797, 0.0006179700629537748, -0.7817981144660248, -0.33505360032417353, 0.37580589956111177, 1.361430845156189, 1.0198837609000597, 0.550116775489554, -0.8390600862416191, 0.3135899500352509, -0.12512506627676853, -0.20392029781502416, 0.23542774759185336, 0.23577863758092527, 0.004865989084009225, 0.3684131042441022, -0.5672334635697404, -0.02781454118308342, 0.29931469532589217, -0.5118876648576777], [0.15891715228102085, 0.4097687349455567, 0.2842932097427505, 0.3859084089761772, -0.15127218827131228, 0.02399105375871158, 0.6767759710761811, 0.9889488651655479, -0.6206528301280231, -1.1172039357707977, -1.0504958789426941, -0.11152715624421082, 0.38320929818855853, -0.4329433077843233, 0.6509546155002935, 0.19243493361369754, -0.6258772238092046, 0.020696233074653875, -0.5470266047306283, 0.3739819935770598, 0.41866915556468554, 0.36159822963826743, -0.4107254969302768, 0.0994871794158374], [-0.43026978320301684, -0.519639541017419, -0.6053746010984188, -0.211561268357958, -0.14876054309765874, 0.5161082336231466, -0.6595512035260949, -0.1494194529798563, -0.10423947552858737, 1.2419171691185562, 0.297172524308314, 0.12848054802906092, -0.6885091405132898, 0.499352285041495, -0.3400635148757494, -0.13451216324852708, 0.5097117202623733, 0.5058374263083725, 0.3461615063785983, -0.3227646348367096, -0.13600171837104313, 0.0006630575768670466, -0.47583112661022753, -0.369224409411556], [-0.1542583686593551, 0.6220032017296104, 0.11421564009447138, 0.21569498072323126, -0.1230654606018944, -0.627081072138362, 0.5874704558305366, 0.21545773396886292, -0.07129055896520409, -1.031720849024111, -1.0071241187037885, -0.2647340346606685, 0.4792211500694069, -0.3487073497479759, 0.7788774075215252, -0.10820563947131843, -0.013060500566382036, -0.5978911932158412, -0.4979298613190506, -0.24623477897002674, -0.14127805909611454, 0.9149434630829614, -0.2334843084151746, -0.1775138933679287], [-0.11798464453839924, 0.4461634673870209, 0.6070772551831606, -0.2329076239584505, -0.5255609709949067, -0.3545126026643682, 0.6201572065096626, 0.8755411040169522, -0.6237389583221149, -1.219902790118611, -0.15554489130712465, -0.6555605635958573, 0.9527751271195992, 0.17989612385871648, 0.7751911730978125, 0.1289586959436399, -0.07347073067819498, -0.5790224005252661, -0.17464861041652385, -0.12109411281820318, 0.04920674451260296, 0.5994221093846821, -0.42296584681260035, 0.34338688087443464], [0.18868819993848235, -0.41623007110439286, -0.5770942714042977, -0.36104097875283936, -0.14116125472195243, 0.4288932805315803, -0.9129162235163056, -0.6573526838503786, 0.4855860265677096, 1.2415349291597981, 0.5810900077453596, -0.13982173681055723, -0.40439248741478423, -0.2702234320004805, -0.4598523330196487, -0.1292652004080668, 0.8743357946736167, 0.8852164272404973, 0.5506637150324121, -0.20393841445090113, -0.6644888366671936, -0.5604806627522937, -0.035107004740303455, 0.05811803634105554]], "biases": [[-0.002943322601604749, -0.004610121702809226, -0.0068264037376347475, -0.00315625170684751, 0.0016216352598036688, -0.004103661081696342, -0.011991371569758604, -0.02495884370707178, 0.016998728508195702, 0.04525335579891721, 0.02198878040224509, 0.0030977688974541603, -0.022958910895725465, 0.0036666614627393875, -0.02653862986073242, -0.014494034844390774, 0.01707836417503621, 0.01300614916770641, 0.018363237267440116, 0.003984739903503384, -0.012462288372667146, -0.020717153314340344, -0.005333731720403639, -0.007755321886242652]]}, {"units": 24, "activation": "sigmoid", "weights": [[-0.09650088849424086, 0.4675776530551619, 0.42662379700814035, 0.4805407729980557, 0.24251786195725508, -0.0003524287481286789, 0.4095902819741566, -0.13247683308102273, 0.2587146932495423, 0.42065865535031055, 0.20766564464108378, -0.40047130531264097, -0.21186586740359312, -0.2712647283782747, -0.1838406787908303, 0.3519447534367558, 0.19619065911202513, -0.26709852370745, -0.2805276863965146, -0.39152658164205545, 0.3210563890351388, -0.4763564909753459, 0.045576705905050474, 0.08094802854788424], [0.29733301264967305, -0.4412574548023852, -0.3837004235710573, 0.3782685113083734, -0.39040560854939055, 0.2859357304259763, 0.35830743038165447, -0.39068559707390943, -0.2970404608488546, -0.045876750667388444, -0.2708909583857984, 0.5633786083409271, 0.3537319795524711, 0.07806430756737785, 0.304156802643758, 0.4929910711242109, -0.08473219552842261, -0.26682750179343706, -0.00208682186125411, 0.06228478009589561, 0.34241782338982585, -0.1705560750704203, -0.5457656264854788, -0.5080098418097957], [-0.02576842622808647, -0.12084772142466342, -0.1435603084659725, -0.3882251666052105, 0.05957793567441026, 0.17016000384974095, 0.4456192473054048, -0.5737711233567406, 0.4936739370227712, 0.5112370969274705, 0.07065657875146661, 0.03916389541858827, 0.3777049196884055, 0.604196100804648, -0.5591344590715064, -0.0043861521932693475, 0.010106556440835733, 0.08552247510599019, -0.054129577776832576, 0.09416312249880951, -0.287058872523926, -0.5308688875984502, 0.014120921981111369, 0.2704746988158681], [-0.36590643545941864, 0.42653499566422426, -0.09751121455438301, -0.31033745428296766, 0.07179532733191601, 0.017118219042287622, 0.4229844484743976, 0.10077496042815105, -0.26805744430693407, 0.08549174389079026, -0.053681761567935214, 0.37394449399843743, -0.39473227973505925, 0.33495239204385635, -0.04411611731028048, -0.5066126263563686, 0.08744260031686947, 0.4064210365136964, 0.39861438648261627, -0.29698281211654126, 0.10867192605418714, 0.4510995006854429, -0.1642815964265026, 0.5020957223057749], [-0.21812570412941243, -0.2487742619938158, -0.1105766622317007, 0.19784332033602492, 0.059013841058495844, 0.023142594776540352, 0.255786126556233, 0.3473296754175627, -0.34303446129010784, 0.16950051544759803, -0.0037768091445618897, -0.22399671568811153, 0.46540351478215286, 0.3166697710572938, 0.326565501210928, -0.4232043232220154, -0.39312818765408897, 0.4147968989087276, 0.17095800525501026, -0.23598761382000563, 0.3832740306444581, 0.1183552379200585, 0.29465496522783075, -0.07265472054143758], [0.29020767085823795, 0.27916005787461334, -0.3525755011404286, 0.327457801385072, 0.07223308620997981, 0.36750660494323173, -0.48832057315006316, 0.5318736994946985, 0.23096145265765713, 0.24918134708658263, -0.290181666718664, 0.10194536849764592, -0.03267983530913593, 0.08752456322359575, -0.1262901037382747, -0.4461208202361114, 0.0723377324622138, 0.42740101575941664, -0.29749659174890813, 0.34048046873757803, -0.44371231450553045, 0.0503767365200053, 0.3945753542911814, 0.4852097905397615], [-0.10129516827133518, -0.3051676434964672, -0.45792767723416233, -0.09712349999699049, 0.22653019988002104, -0.02693867829724921, 0.3308602698283761, -0.45619956335326856, 0.14648848505386114, 0.4688985019631867, -0.1450173302495777, -0.16415584396410168, 0.1750058317737588, 0.28353113163602256, 0.3414405751409416, 0.5722191832789167, 0.6153695682084598, -0.39662370060039587, 0.1883785279902305, -0.08807545119656789, -0.20942499876307322, -0.5470531530538354, 0.13881495161267027, -0.07683510572215277], [-0.22180381671238095, -0.3020688198349624, -0.5377826501335257, -0.42054297638040444, -0.6259308430669236, 0.050361992236079914, 0.48510427412040114, -0.24042363059645055, 0.09337648077698578, 0.5330954013802693, -0.2963443345969625, 0.38689697994744904, -0.010232236179819824, -0.3437147266310968, 0.03658354279666, 0.6978342481365956, 0.38774829681259987, 0.36846389607454505, 0.32682518253542064, -0.3725471136353352, -0.4552231415195268, -0.552487274528611, 0.13020321009198346, 0.3860585102090243], [-0.4511641671189172, -0.17393773449836591, 0.46735281855138794, -0.08878185179362365, 0.4316572629001043, 0.4694668521989586, -0.1321695340574413, 0.3445453962183938, 0.3308099418007537, 0.14257113158729237, -0.445756443336795, -0.03495298304447438, 0.3351804189942901, -0.4660573357545709, -0.03787344445820272, -0.5131614741008824, 0.14424924250118337, -0.4512100380920301, 0.14117679286446258, -0.2552960345685377, 0.05717539828197788, 0.4520605807269091, -0.07211141556325222, 0.40151101623937485], [-0.4788598626956585, 0.4092551949616866, 0.3200960441731826, -0.33722674399471253, 0.6451396209963777, -0.3757585139413792, -0.683641471405075, 0.534453423002888, -0.38919566909808656, -0.1671421462390248, -0.5694588444457127, -0.6032935628479654, -0.07098724780911365, -0.3615785030523541, 0.4488998193507454, -0.5774801262235011, -0.6730091044370471, -0.4173477107516957, -0.40812963370814, 0.006164213370402107, -0.46995507835930467, 0.15649267485046348, 0.3262315515333579, 0.180292986722822], [-0.36133787021606273, -0.37318273830956356, -0.12471760762940719, 0.47734954410964375, 0.6054451007923168, 0.3505965490723547, -0.15184988226617366, 0.37527547664698, -0.3491336586635217, -0.5465781108344372, -0.005601904832089652, 0.23668611873277046, -0.06521479303472785, -0.5221691424853674, -0.034997193017220936, -0.5918252666613482, -0.39117441775343303, 0.16002947907172863, -0.29893044369550353, 0.2521270804479437, -0.4466638148306437, 0.3749534476785519, -0.17962393306410956, 0.44603364892982655], [-0.48488485313651153, -0.18533126230221578, -0.30370805383364763, 0.1987329358692983, 0.5436903616315922, 0.1783344285127141, -0.36878431250027977, 0.23361065787521126, 0.024667907479051517, 0.30557246963248774, 0.07479702155393925, -0.48088912576081333, 0.2866924345564883, -0.3766671883919368, -0.03355930118965467, -0.09347839762028813, -0.22374442871168282, 0.2357036624410185, -0.08022206213298033, 0.33003903834945597, -0.3070317602375699, 0.11509505595035313, 0.32735036768717873, -0.2992342180059092], [0.19933959182278896, -0.41626893424859535, -0.5031680048280096, -0.2090727349240134, -0.542864101262542, 0.014718569691235887, 0.49768975244462016, 0.17139299289448218, -0.26861764531790866, 0.07228568320511398, 0.06892185674557305, -0.09397787794516002, -0.3289485783307968, 0.4913906415873115, 0.31329681897657, 0.5915434625613948, 0.4817937501268008, -0.428352024961668, 0.2404919037177325, 0.21394865350731823, -0.08213508802240664, -0.22137242261100865, 0.06622883334554557, 0.3551587808286885], [-0.2248249416654251, -0.14350204744609585, -0.33869649027894067, 0.2813700517406689, -0.3694108408548232, 0.23409140783712395, -0.3031318765890781, -0.4753244254057043, 0.41525205505263163, -0.1688836116923119, 0.33894605992027665, -0.4154088052123753, 0.5024861150356504, 0.2919078935394428, -0.20049208126679896, -0.37408381237981764, 0.0044656998383002695, 0.10277543536510082, -0.4815922679267285, -0.43048467984095695, 0.3341026268053496, 0.23654619239357155, 0.19512637042791006, -0.08178156590115958], [0.3021440866085228, -0.2341962866479244, 0.1488211561019828, 0.18496076099225808, -0.5677006030550641, 0.3121532851485372, 0.5567466993652427, 0.40843937796546786, -0.4023832045753283, 0.5419994615258447, -0.029153482031128265, 0.2529429406528125, -0.5502990460538109, 0.5342567329325114, -0.22764308687697712, 0.19777982839131386, 0.32255493943619035, -0.24569560623106415, 0.24537404047903474, 0.007407573135740929, -0.4005086507418779, -0.3446321622863421, -0.5269824423135658, -0.2973540902860894], [-0.32525667884676623, -0.40033592786331057, 0.013022085415990184, -0.3869085492401591, -0.46895038527922683, -0.4086350504680888, 0.13159337181794364, 0.26473560119674505, 0.06753207479203537, 0.2900532124097779, 0.06323702951806548, -0.010356803454450478, 0.04376863257591609, 0.011466289211997991, -0.2932233184077974, 0.5106939927779784, -0.3803399454534834, -0.332512926472414, -0.09769146141903592, 0.2603680221887505, -0.2947484564139033, 0.3068186943545602, -0.07578206857373233, 0.3625797363986637], [0.38804731193876846, 0.3885300037686239, -0.29032330688789765, 0.48704591914966006, 0.0019906690412383066, 0.1927588359781513, -0.18259655388133084, -0.19831118235094503, -0.25435366633966444, -0.09103638439861754, -0.23120094167694272, -0.28022033046925426, 0.5091500777780941, 0.15716117058898083, 0.3949976261334803, -0.5022186282177419, -0.30500769849805676, -0.26863997852490823, -0.05659235330258812, 0.09643378777219214, -0.35816745308729736, 0.48589741152606275, 0.1952239377221447, -0.35818211491843904], [-0.06343477797567945, -0.4240517562978795, 0.4667565627357877, -0.06210150592777292, 0.4907634289791698, -0.4386954766750943, -0.4612195394075599, -0.30258698722238714, 0.07811716330923552, 0.09477543908003559, -0.24680380491718024, -0.2542401138952965, 0.0937598858337322, -0.5000346760345759, -0.29796623793612853, -0.3210244631505803, -0.0618443055089852, -0.17539748359675542, -0.23471627601463477, -0.07739023744246179, 0.32788644157801694, -0.0790729048265094, 0.3454102056512368, 0.36538022785998703], [-0.037438283405564016, -0.4475907988286891, 0.5010379593675829, 0.14162699538943047, 0.14413600641182514, 0.20865382974121877, -0.00426657790273698, -0.07299569093872765, -0.169108186871972, -0.6285615870662398, -0.6184358599111922, -0.5518524886777032, -0.3471351425429513, -0.2885324247106442, -0.3375014701129398, -0.3729688701661923, -0.14194395254062128, -0.4105098961317247, -0.5192713188076438, -0.05377748873213877, 0.20023740551817784, 0.35188530325493395, -0.1537884927902442, 0.5200325716119927], [-0.3030132056506783, 0.41979662185366307, -0.11088077074049747, -0.024581917819932873, 0.00939587496152658, 0.05157115307724768, -0.23013305821297989, -0.2889474949059452, 0.25040600378605576, 0.35858691618312133, 0.0943045904365566, -0.0311097504069482, -0.28855624097450516, -0.3725272214397442, -0.19826018896148626, -0.4370274845169704, 0.07887485505126714, 0.3998991012507735, 0.1942692923083604, -0.4299763102159241, 0.22166504847181812, -0.09123565204713074, 0.3042700158514219, 0.440754305359239], [0.1408014182353843, -0.34484731213977476, -0.22635844237020356, 0.4302427328085277, -0.35900340867175584, 0.23257770132119004, 0.5847929297615592, -0.44872995561288637, 0.2818732658617341, 0.4254228265762855, 0.40242584738687737, 0.33614026560215693, -0.019401804549520882, -0.31199102355407055, 0.456939183728399, -0.13339662201385732, 0.22928742457492074, 0.03164454002415893, 0.24096563521066738, 0.46637644643899917, 0.18698159507454706, 0.2671999404654257, -0.39331885655320736, -0.2819993238504021], [-0.005539685781798136, 0.31667563708903995, -0.32782770008398443, -0.05884234181467668, -0.11340062460557687, 0.4013792347869643, 0.5339281291027208, -0.5457808788843185, 0.5069973272509876, -0.2511926921117987, 0.04881504380962163, 0.21417000159629526, -0.15208891366662725, 0.4966735023200095, 0.298896212652657, 0.5132673173834009, 0.4036193775712267, 0.30340873206417907, 0.5496762926929214, -0.08526170874048698, -0.23023489019412297, -0.012111501038230698, 0.2265628639478702, -0.3083844498093278], [-0.024203544077369993, 0.157346237386045, -0.47993354593398907, -0.15118756221384178, -0.01796511396098083, 0.33421842691743703, -0.009784486442111898, 0.3927633963677766, -0.05151954621899117, -0.4518023748392868, 0.3641222236734376, 0.24145382047366729, -0.26766710300286106, -0.2392741645402866, -0.4694719589448974, -0.015155433777805852, 0.018120294563433677, -0.2084483670160676, -0.03736543185980542, 0.011420243529279088, -0.07574548995403788, 0.18307180884174754, -0.03338681827640139, 0.22795461965184505], [0.4842435032123526, 0.4325694914998184, -0.01846753956230712, -0.30221842885243, 0.2376783308560798, 0.2909846608781576, -0.09920608273981962, 0.24954970052860284, 0.3136835205434532, 0.18998190685773306, -0.38082152585651136, 0.06718406464317743, 0.1645483304596612, 0.45904238208645226, -0.2686815076637157, 0.5360578868435609, 0.38002140010176777, 0.09404615451891767, 0.18932667592610128, -0.4352515272308092, -0.02243081229534484, -0.2950822291485944, -0.5059112786049812, -0.46400701246083526]], "biases": [[-0.0020783006836068273, 0.0021196472534718617, 0.011816959364725441, 0.004425438961161985, 0.014271110945791182, 0.002352967635219691, -0.011773430597906694, 0.006919033594483334, -0.004726874090674074, -0.011944749237968497, -0.012906180448326641, -0.00832034511294391, 0.010110053906349363, -0.012150698965375904, 0.007892204721285864, -0.022373819009780346, -0.013696754200439977, 0.0013486123634029589, -0.007793721774813421, -0.003521520287099676, 0.00037178436745726075, 0.006905609914563169, 0.00737045903278767, 0.003933508982092042]]}, {"units": 2, "activation": "softmax", "weights": [[0.28696226301245314, 0.03403177899902931], [0.17295191004611588, 0.32366635699977453], [-0.35561940330164826, 0.30397781184651895], [-0.27139641033869566, 0.043758421374548946], [-0.5229861391179104, 0.4064893063872269], [-0.38677523880242975, -0.31797416865454076], [0.23186146587670098, -0.617130795137269], [0.03625466019371954, 0.605321763482275], [0.06841830844962858, -0.23017961764605513], [0.5054830165676302, -0.14469055118363047], [0.11871816727322981, -0.4906069716348512], [0.10918922786122749, -0.45710834591885385], [-0.03972757191005085, 0.4141335914740556], [0.30835523654983094, -0.4807163765664486], [-0.08093687674125806, 0.17734436846619436], [0.6316315377506774, -0.6681713961930932], [0.49877073297314617, -0.36610924734955685], [0.13169681117158447, 0.21191533314635191], [0.2511882932701128, -0.31478774102961593], [-0.19894447899089138, -0.27946450236716797], [0.10942425483414737, 0.1369118645347777], [-0.1438223359879913, 0.4691532141689613], [-0.1489553821458432, 0.3403883880589668], [0.05643540660392417, 0.3780199192150647]], "biases": [[-0.023612688172633407, 0.023612688172633445]]}]}