{"layers": [{"units": 32, "activation": "selu", "weights": [[-0.019316242549188175, -0.008601189143990101, -0.0097169748167256, 0.016731413469510067, -0.004213563355687005, 0.0038397962765045106, 0.007756209843169973, 0.0008035232585216474, 0.02388006972729491, -2.2666036144323865e-05, -0.016596589408319415, -0.005229018464445636, 0.0003315826048226763, -0.009362284878103888, 0.004299482185177479, 0.01948156528264451, -0.015420661977753112, -0.01932111959391156, -0.007822636326602904, 0.002302303722643259, -0.009247755836053612, 0.008519449748079092, 0.0079786653673364, 0.005847292121126845, 0.0019484829051216387, -0.007630001176536341, -0.003875993579997789, 0.0073830558135665565, -0.005639151940772758, -0.004906867559696499, -0.0037346135659287035, -0.005359379189157992], [-0.0029975955712295854, -0.018555139162089746, -0.02368728677653524, 0.018242421947831204, -0.011394962357926256, -0.025827183466741364, -0.016115618680873835, 0.017815738279492354, 0.027375396044711446, -0.020579149640442312, -0.029387974034472797, -0.01256951249494644, 0.018864829252116886, -0.008368451762800266, 0.025795093155872553, 0.015984336219108507, 0.026567633453210206, 0.010854439858042199, -0.0079391632926797, 0.029389817164157284, -0.023032412211279663, 0.019736745588625485, -0.023984191863982162, -0.022215165820286514, -0.005069530331471174, 0.009624804567705599, -0.02867633333122291, 0.0034384123901185924, -0.012668731051254016, -0.026762292136211355, -0.01243216023463389, -0.01726626484339869], [-0.027253088417111635, -0.02324959619702649, -0.026883715390045037, 0.034063515874835006, -0.02056811063129879, -0.015277916476799859, -0.029340047971609034, 0.0075157448687794845, 0.027227553282986754, -0.020305822172348845, -0.03803411717877037, -0.008312944211348417, 0.011401923532195006, -0.002882671417408166, 0.017427504689535828, 0.030242485867439623, 0.004547436722997757, -0.01015596480797553, -0.009263980596874876, 0.017766271649057138, -0.00904977867272652, -0.0011046006310739254, -0.01015610127487946, -0.012226360773222544, -0.030424197800610488, 0.007514447985027906, -0.02515448587595121, 0.02438784313135822, -0.005405424378499663, -0.01626460282347445, -0.01752020974887845, -0.02905485304423345], [-0.02776503170235495, -0.01564085336013332, -0.013749325755315855, 0.014568852515115586, -0.0180856438950861, -0.012888341600361152, -0.021845639199817714, -0.0018906036331543645, 0.014601531600293698, -0.021602107331478576, -0.022326605401828358, -0.002487128640866009, 0.006288592414758224, -0.011533093557298155, 0.028250781372258626, 0.013728538709597289, 0.02481185623775906, -0.029342969009641243, -0.03205735846294728, 0.01434047381461566, -0.02614374004789056, 0.028391948274307497, -0.01706978523661439, -0.01275991856979114, -0.023365712272937437, 0.01704846181963914, -0.020943167385607905, 0.01863832708523294, -0.008011591648292326, -0.0033126659721898666, -0.018369327755823638, -0.03135411595723708], [-0.0064121969830939944, -0.011646040739656376, -0.02840133478089869, 0.008481905143903061, 0.0006638261574323111, -0.028023912645031054, -0.018638123633928343, 0.009547968028968646, 0.011124549509870777, -0.0002790713327499462, -0.025212353186803434, -0.020509085326679024, 0.03447764733415757, -0.029033590780110228, 0.042526576039063395, 0.008889321609637967, 0.025678526746592538, -0.03147782069615389, -0.02669841618898717, -0.004476089193677995, -0.022669883670605004, 0.01480564213554973, -0.022359539195405568, -0.010247374112387913, -0.01816238467352736, 0.04112937491817952, -0.02994144221399559, 0.01593237239074692, -0.007773128401474725, -0.013951094358625378, 0.016728149236387407, -0.0053199238663018626], [-0.01367730806564301, -0.004636181133491944, -0.010824337701141953, 0.01906212592331561, -0.015095701710876706, -0.03809741174772125, -0.006289883312230757, 0.003882533881716969, 0.018758053224699936, -0.01195444012055517, 0.0013544452379978585, 0.0066861738914003686, -0.00014417575246905996, 0.003268102493396525, 0.0025153979746701787, 0.023001812447415594, 0.011170084682597652, -0.012580863220612176, 0.017838562112916977, -0.002959994493112024, -0.00482638495574097, 0.009680393613317106, -0.010777134922887297, 0.0007953086128548489, -0.017495689225453522, -0.017349191431205738, 0.01403841476945862, -0.0010215113520862314, -0.02289193642298828, -0.0024630932936093894, -0.002872266269750778, 0.0010587618559554175], [0.005207150064114879, 0.007471456249725875, -0.009894057827317912, -0.003983958485693853, -0.01662025358454699, 0.00011274955544953104, 0.009996714226279128, 0.007353682401809227, -0.008701824638101032, -0.012758667684774518, 0.01610044853776883, 0.001531908275435968, -0.0035977358485204274, -0.0014482983829551114, 0.008670366430531998, -0.011663490954099104, 0.009869624742664155, 0.017868194340248802, -0.01224298980850044, -0.005665592907506434, 0.005636856757895853, -0.00801609568588036, 0.013384387053928352, 0.010231061633404521, -0.008952658558738065, 0.00277508146899107, 0.005112194370119931, -0.0007046440516182875, 0.009439122597257628, -0.009033901723713112, 0.014090550863369288, 0.012212847431075154], [-0.03671002676637179, 0.0051534821832490895, -0.02040086057378598, 0.014478301705265494, -0.013637185955851658, -0.005377335968437057, -0.012205818871621811, 0.02753818827561062, 0.01770134035188876, -0.010483350367977309, -0.03164986218554073, -0.02296977038101429, 0.028093056404296934, -0.02402320784396971, 0.02547856105434963, 0.034159413108558224, 0.03414788720622655, -0.0266140360957844, -0.014390449275093888, 0.020386675457079634, -0.024869841637849457, 0.02782561152425546, -0.022842653286870265, -0.017788897043242654, -0.02463661454421798, 0.01969148165367426, -0.016434747351678027, 0.02745067945886825, -0.021241547696561683, -0.029092609796771873, 0.010988014573949009, -0.013773513596058237], [-0.02227101724996669, -0.010955354424075433, -0.028085903303608398, 0.038948724266990566, -0.029546290295304187, -0.007489578062119332, -0.01723686171024689, 0.026407497189930077, 0.02502240449382254, -0.01751903427375203, -0.0326735519719179, -0.03591520705296931, 0.013634212824798276, -0.024276165906152364, 0.023233382623165644, 0.03866687484277601, 0.0356139956236054, -0.031065578097772925, -0.020082294092244476, -0.0008208186862692652, -0.023353061281074852, 0.030309086935720857, -0.014419982172884706, -0.03736814319148854, -0.01826982972525092, 0.008363776294265974, -0.00358347462543255, 0.011550303842544643, -0.033834075839951884, -0.0135872699120111, -0.010371571386966424, -0.03381237793266745], [0.0001698444734569021, -0.010023788755201235, -0.01006341073807739, 0.011317252409113033, -0.0046216232825548, 0.0021620944821922846, -0.00017799296597804788, 0.014907382648210876, -0.01185222752446812, -0.005955340253764348, 0.01925654208077278, -0.004280127922537613, 0.02520320343500458, 0.002034674151589779, -0.003507934865392804, -0.014975645095500112, 0.006944311936618314, 0.01236221834390016, -0.022389335588405657, -0.0008548289845690619, -0.004397704354850868, -0.005279902750939033, -0.02031655588448615, -0.00875229940962187, 0.004498498625082186, -0.005095183364147435, 0.0008907622697948714, -0.003580058907436666, 0.014127268917512788, -0.010681653055317507, 0.01610842105158598, -0.0009945601298306029], [0.008272808037502587, 0.00714112734538343, 0.02212241059762974, -0.029354994767586365, 0.01921898832503065, 0.017686605886869055, -0.00987814843455556, 0.0012294204255807444, -0.017464752435330445, 0.022264224793608633, 0.023137135326210118, 0.02022788851514957, -0.012625975229142364, 0.020089133658859743, -0.015141400412952909, -0.038540891670979516, -0.018384661543826744, 0.011047488395667361, 0.01683245929065256, -0.023974196621821, 0.02322656413712238, -0.011547220692506521, -0.0025383780081656205, 0.00683653654058625, 0.016318136058106805, -0.012125443953534253, 0.004884800685136782, -0.0030644778286564333, 0.014327223707602435, 0.0015927462490173438, 0.020586504653722276, 0.007923399500308879], [-0.03832094177135621, -0.00864537760545073, -0.03898157545998082, 0.022975175067468247, -0.021700908136907227, -0.00667547201014512, -0.04086035449943503, 0.022438445761397516, 0.037497720511193065, -0.01141159163767619, -0.019475144103609277, -0.03684199584351027, 0.025786550641020506, -0.015779998821425254, 0.033162882691317765, 0.03125410987330048, 0.0331569838363208, -0.030343474295625106, -0.024303641349303136, 0.02486708223451271, -0.026638830607555102, 0.02670442271585525, -0.0341894656564106, -0.03150749682037043, -0.019499391320426555, 0.037192416989414376, -0.04336955316975617, 0.01203397792390525, -0.028312818691675894, -0.01413569917815744, -0.02270186378598231, -0.04621571272307983], [-0.009091056454847177, 0.01086948934586296, 0.018729441782732354, -0.017666246598988154, -0.004288403648694772, 0.008200976396792388, 0.015297835898161805, 0.009442241334947903, 0.008867872191959955, -0.00547259068339781, 0.005837978339065518, -0.0016387737868045942, -0.005355841533277767, -0.004188655810109319, 0.011566023776804081, 0.009176291965961765, -0.007675711671800762, 0.0050863683804611565, 0.010538303389024567, -0.00896904657648588, 0.00471763230746155, 0.0033696375971484266, -0.008560547891854054, -0.004410101296772738, -0.00897473281936884, -0.013109641934915074, 0.008207715408956482, -0.008747432429980133, -0.009473663900168898, 0.0011338747539337366, 0.007821280980764104, 0.011563669691821783], [-0.014049253965303416, -0.03460520801862497, -0.03140867658380717, 0.028306213158143165, -0.01988456573775959, -0.00972654410210828, -0.026783662020254242, 0.034225288568472956, 0.03604026080489539, -0.018741338085608447, -0.01571285946171153, -0.030728617733476692, 0.01888952960411565, -0.03021533579359019, 0.01333164016920266, 0.008984276740211012, 0.01798777531751892, -0.015328153564357072, -0.02761683889012242, 0.04403247736612812, -0.035846673359128355, 0.016220514662626733, 0.005891729365868714, -0.02864868130372127, -0.03072085480628656, 0.02394382530832188, -0.0019583181241697037, 0.03289890590065545, -0.022830083581136387, -0.002850692591744066, 0.005569429639893387, -0.024606478853372544], [-0.02867142784062626, -0.014883698503989977, -0.019330167345860325, 0.035377034939477074, -0.024521204815389816, -0.027456510193819436, -0.019414770452252744, 0.04964432422911318, 0.015094306598634465, -0.04023663238121916, -0.027020227251057762, -0.03798168981167187, 0.016618958804697378, -0.02284385586501397, -0.0016327055166791293, 0.03433438625729408, 0.024141342747918893, -0.026095839776224837, -0.043226199960564475, 0.03330486939919963, -0.028005187469716357, 0.03124976901036206, -0.028455454014720792, -0.015684030452873907, -0.018059568118915483, 0.02129675452487216, -0.017105565456888037, 0.027880988544098578, -0.026886875568537822, -0.016046870636133227, -0.01228973534783645, -0.030678161429562284], [-0.001606293430782754, -0.003244041609680909, -0.006881642334244108, -0.0014821661522213874, -0.00791079617353981, -0.012809992806365609, 0.012737300270972519, -0.019099334120757674, 0.0105348474768975, 0.002127738811737809, 0.014606428964874667, -0.0042114166635679245, -0.009003738012545184, 0.0006847308091129003, 0.007595167241101306, 3.768105708899139e-05, -0.0046667694942310435, 0.005205509093820403, 0.030562365327449752, -0.00923348440878227, -0.01541295676256962, -0.013934501780406627, 0.005369770781675914, 0.01117038866488879, 0.0020517444427201196, -0.005329516711662566, -0.012308624599247827, 0.00036834688034794393, -0.0197526017541215, 0.009114441586782204, -0.009013739632812576, 0.01318397916875884], [0.012099528775938425, -0.0006842952729585568, 0.022388174764191613, -0.04693951865063565, 0.009987408674003242, 0.018335281298603654, 0.0343396981524016, -0.019666675368656693, -0.014583082779390234, 0.030648383651389322, 0.013613482110243266, 0.017462281645932505, -0.018261206403131763, 0.023713384676535457, -0.01649936245499783, -0.03411932216642142, -0.02814347383708055, 0.01722732810775003, 0.005707066844071986, -0.013742866279882675, 0.03404192073753556, -0.004445536205220696, 0.031513141408281445, 0.01944239685448434, 0.013762446589247147, -0.00992859314536764, 0.014802951350315063, -0.013437678205539713, 0.012945085143577277, 0.009864139387276115, -0.014733112376353174, 0.027418086462587823], [0.02184774740127083, 0.0025527660424807534, 0.0055800549166842685, -0.017533827790053767, 0.0037102158197901626, 0.0012879564055344296, 0.017693539147264025, 0.0017823780310136648, -0.013455908857879393, 0.002947660698406516, 0.0008341329293682026, -0.006130599353232211, -0.0012824896712512611, 0.014001366210303894, -0.0005991467878816112, -0.023635119789293214, -0.0026988288006037173, 0.004056761210621726, 0.000956950447673374, 0.0018435768966837457, 0.011295043393877267, 0.012116583267468211, -0.0022386713115075513, 0.02515924600667124, 0.002804214126674024, -0.0045549054314118105, -0.010582224488974563, -0.013210226231848744, 0.02340383829835054, 0.001202297954020456, 0.01005511209666485, -0.0031393891590561543], [-0.021943463738857832, -0.007912422795284486, -0.012659440562356638, 0.004424035465419742, 0.003459823558424233, -0.024222675158014042, -0.008982711008050034, 0.01817894425229819, 0.009010769803956407, -0.022666313055045167, -0.018183600813628655, -0.004931179840275399, -0.006153225310986843, -0.0037087240761631006, 0.0009888966086277352, 0.026412896039604145, 0.00887447290160949, -0.0021694832847043116, -0.0073833649753103445, 0.0041984162843539275, -0.017487740620679662, 0.014397816818227972, -0.015721995268985028, -0.014217995363854962, -0.008390224150268051, 0.014216861762850521, 0.017727172896907895, 0.01325933496191337, -0.0009158706056001387, -0.01845223237648283, -0.007102134128126003, -0.005362466354825887], [0.017564853060789535, 0.010962082775535424, 0.0024224287332892105, -0.0250562612736939, 0.005313307232297777, 0.011213582520322247, 0.012754002958074226, -0.010651513273600744, -0.01976030585465881, 0.009595603329221844, 0.013153167336889551, 0.030226593503152863, 0.014970753029940269, 0.014591425377020956, -0.0023214953854133994, -0.028326653633913575, 0.014185874732567598, 0.00676049652980454, 0.0030497519916311156, -0.012871846459970977, 0.03310200807169467, -0.007271599361026731, 0.005449671100731016, 0.01399362783611712, 0.002647462095176359, -0.029444616780656543, -0.004122718199198549, -0.013022142627135684, -0.00048135852512618476, 0.014495955005325743, 0.008309861226958853, -0.009149964120358773], [0.012741502419669324, 0.00804234662567299, 0.021638041588827726, -0.025733691484924066, 0.023510880887732854, 0.016316331920529743, 0.04632326656780974, -0.031793335394163055, -0.036468470264579445, 0.024900407920252214, 0.021231798211425155, 0.013741322931277443, -0.03207688448305187, 0.01345106734848425, -0.01972962094808416, -0.055789062144392096, -0.010947015778293117, 0.014607067834524645, 0.015862307716891788, -0.028215983186810123, 0.005906976997168724, 0.0029619510846275957, 0.030400737671345855, 0.02274174589353325, 0.014792089776035484, -0.03002783496205714, -0.0023215448661108294, -0.02533219901786486, 0.029305529691404, 0.008295949801029918, 0.005440148283652144, 0.020961552328258762], [-0.0405499121732899, -0.02131802796967123, -0.032995430169217965, 0.0259056286336328, -0.005501255988934, -0.017395381464286982, -0.018860644391029715, 0.022572606659499006, 0.019207529735883258, -0.016758631658369116, -0.03477723743463811, -0.021295230783117142, 0.02557127064284284, -0.021664695997074854, 0.02051667797079837, 0.04124579549086188, 0.028141992389723834, -0.014278618390084864, -0.015140418536701773, 0.03455776238351847, -0.005043236601779807, 0.017436146130429913, -0.03633870819481556, -0.02917873001457121, -0.011829644795748589, 0.016910324473064276, -0.01575466082604101, 0.03580819308503403, -0.002892287360452816, -0.03749419024464541, -0.0056008550317046355, -0.02331554177648567], [-0.040509857885944224, -0.026376309238332455, -0.022994201365489478, 0.02589901719416251, -0.035698595520181196, -0.05276057453411921, -0.04555975857846148, 0.018793667684620197, 0.027654141292423506, -0.02885132534464382, -0.018504027032969043, -0.01726852388935324, 0.024590877437996237, -0.02856391731109493, 0.03344453598031254, 0.035884525652517256, 0.013379336636911399, -0.011321160625787741, -0.02132179075324407, 0.03236502062271806, -0.024538955185061127, 0.022799307987501242, -0.027085853143073987, -0.02221173629023981, -0.0169982229128217, 0.01554033927745519, -0.011113057589099166, 0.03586084918456333, -0.03490587404929907, -0.017236668598645907, -0.0029234181531189573, -0.02632141052291716], [-0.029174614982788078, -0.030659161745137845, -0.016549886975972747, 0.020805413850230003, -0.045400680720011785, -0.0042014086717472665, -0.003762927902800104, 0.029955019158268453, 0.01717721089432531, -0.018852670315220137, -0.011486381804775295, -0.03698203260011157, 0.007826216863545097, 0.004979895830377644, 0.019652450962856925, 0.030615836768638233, 0.014006522641162315, -0.020135158502166677, -0.009892803878817472, 0.013523986797949913, -0.027565919805596743, 0.02777979515243039, -0.0366640756816404, -0.021401076952702325, -0.015698229292320957, 0.01728905840344523, -0.010846435231058302, 0.020010902769970803, -0.011963763632184267, -0.01436607709534455, -0.015640675009904778, -0.0106776900589977], [-0.019227183305748782, -0.012682815398003696, -0.020640740744860196, 0.030597039087753054, -0.015547831425268322, -0.019692381249755423, -0.022906761128629553, 0.037091059295414966, 0.02672025751003203, -0.01903263369477478, -0.03810983086142106, -0.013460053386092337, 0.011608553728326771, -0.026575091062057382, 0.011951185434178007, 0.04657447715618991, 0.030739593870495647, -0.02059703336016566, -0.02084535825210277, 0.014155873071994061, -0.025063381089046988, 0.009908164543501833, -0.017297501080237553, -0.02388572288609313, -0.020927378239459195, 0.012370031195296444, -0.011377142866057267, 0.02733767988327526, -0.03854812695910659, -0.013991282571522759, 0.009844517108725746, -0.0424352163715078], [-0.032188517865699276, -0.011031465774771107, -0.014217017379822689, 0.011367246811086683, -0.01510492616320423, -0.017664595341753193, -0.007871442139358633, 0.032460415852818746, 0.011734931357584038, -0.03193770768145775, -0.023947031140167437, -0.019250156072567304, 0.01913479085833823, -0.027721784575204442, 0.015216526447888, 0.025495742346098825, 0.03055516200343985, -0.04149198366569005, -0.029628438277248596, 0.032063389581810466, -0.007834617918812101, 0.0464248487561929, -0.030197311215135296, -0.032623030076560734, -0.021411415383580733, 0.03199614361519321, -0.004346643669252189, 0.027059044028381014, -0.02516544258585372, -0.025176419836215398, 0.002366785587868139, -0.020563136977511456], [-0.003934663607246416, 0.0029648500812349556, -0.00612933318495118, -0.00085171917511795, -0.01009784127159396, -0.00600043213976253, -0.008931815236092563, 0.02458063592687841, -0.003210061213677816, -0.011236331352550224, 0.008630469074160025, 0.0008792061626259215, -0.004861808372048973, 0.000612135796680764, 0.0025005353594593303, 0.002354030844934357, 0.004845316918165981, -0.004062487369615699, -0.012573130220223966, -0.01230871245811809, 0.002562477785802674, -0.004612653397679988, -0.016798288353859405, -0.020764512072233354, -0.02089667030080304, 0.004813370914174355, -0.012266698917511858, 0.007996562460592124, -0.0063675647733122615, -0.0015344405405223718, 0.00780155316806097, 0.001505572870830895], [-0.027945758633568407, -0.008486373656678411, -0.019678439250708817, 0.031172012014009116, -0.027404181092465542, -0.0030204432271692867, -0.04949912678764892, 0.02960320392923742, 0.01763013563044133, -0.021234565306989965, -0.017339620616402405, -0.02561182061387995, 0.01846483830315975, -0.01442391727456357, 0.015862510443304986, 0.046999034667257314, -0.005794621874018233, -0.03366780058160165, -0.021914424679626444, 0.021802543947989944, -0.03383724269468791, 0.015760722673491115, -0.010751156157409222, -0.011121202510633093, -0.038564341530601697, 0.02934471077761485, -0.004997643408955609, 0.017392697793360695, -0.029387524108745105, -0.026837661722073296, 0.0011374610684341232, -0.014151180264834652], [-0.04035759381458246, -0.019415283908621298, -0.021945304300689094, 0.02643173058081179, -0.015235156790233935, -0.03192596633585425, -0.011293862892280697, 0.020030566185782955, 0.007337503130789592, -0.020360812854486904, -0.03504681684040986, -0.04249502556835624, 0.003456605768518618, -0.02835405359414834, 0.034099575239635416, 0.021882190178986134, 0.015696413169413635, -0.03460638718680406, -0.022553288671330104, 0.0400821422732129, -0.02728438046782168, 0.025936062742944164, -0.025214740800458563, -0.03255684543445891, -0.0016963025285896298, 0.0284079363465892, -0.010430853740269782, 0.03469646719134313, -0.020394379892067816, -0.025024877822307584, 0.0023571990139410696, -0.002643483318499422], [-0.03328285401978139, 0.006973890178221039, -0.021643648291647694, 0.02801293109346554, -0.01386909086433462, -0.02566121240507194, -0.02102774514292095, 0.01690759999660137, -0.0030296776295860046, -0.02660487650023128, -0.012008414389010041, -0.02329938106058249, 0.03527299095149098, -0.026797397362136828, 0.002749310803927391, 0.018266978693070677, 0.03119818033223482, -0.025296150893845723, -0.021806853803165816, 0.0037237991654590023, -0.03788754056324275, 0.02356614815637242, -0.024296441226400046, -0.012612088573486963, -0.0344013722499858, 0.032377746813328695, -0.030553618991226023, 0.05483668403661077, -0.02864413662431032, -0.004138888056100094, -0.023037605907488188, -0.04238664758614979], [-0.026761805075311167, -0.005982046059173696, -0.014575719757950537, -0.005689160334983144, -0.015820087931721318, -0.020666363406836308, -0.010636731230348716, 0.007938554544134311, 0.011770756658975546, -0.033766949081207726, 0.008344854028081775, -0.014992425047159395, 0.005635882556292569, -0.015090316198522075, 0.019648770226623657, 0.007122789820021424, 0.007562578926978197, -0.0249367956039882, 0.001896856553528585, -0.00599084806131447, -0.008203847290898385, 0.015528941797907226, -0.014009005136053314, -0.007228021195392499, 0.009389282114877143, 0.02293919832339879, 0.011538773360560936, 0.00286280916902298, -0.02308320159552154, -0.0021751410220980164, -0.0065081280630999595, -0.011986225723391298]], "biases": [[0.009941548029169217, 0.010806542295787876, 0.012188598534883858, -0.011675811305414232, 0.012377722352023977, 0.012542838339455239, 0.011779851290849696, -0.012386795167787085, -0.011707735353573409, 0.012202722625741907, 0.011210992788505741, 0.01201267514073923, -0.012102353759838622, 0.012082937125443984, -0.012366445216886526, -0.009708113978356425, -0.012379363675494403, 0.011775745378877598, 0.012547785613234837, -0.012442677522288018, 0.011768908832031183, -0.012039463358079108, 0.012013406243965128, 0.012108776812131149, 0.012191049421761373, -0.012047496104426169, 0.011073451167885953, -0.0107268251196938, 0.011346431788508329, 0.011343770421350005, 0.003835998307045266, 0.012203323065829596]]}, {"units": 16, "activation": "selu", "weights": [[-0.16005120095045897, 0.14140461783233121, 0.19539661184557794, 0.0827694910341267, -0.3850138533355406, -0.17761925155119157, 0.08912478434128206, -0.22411918783599202, 0.0332130730762458, 0.16242270761135408, 0.015575401199051346, -0.2745927716393349, -0.2531443238172017, 0.17277585967048437, 0.5244933971776783, 0.1350808228524959], [-0.055988432242683885, -0.0716423702513809, 0.10076616661425097, -0.16997441453397183, -0.1686851365901922, 0.20482176771599814, 0.3243724535938516, -0.07660395612899144, 0.30287573650803645, 0.14693366489667078, -0.06730334836893453, 0.023318972275213064, -0.13313283832207304, -0.2483921136996071, 0.027693650526633813, -0.20134122559250484], [-0.26861222799745743, 0.02121931487750525, 0.28774045449831204, 0.05308022865669989, -0.2188907644900783, 0.04771671778851217, 0.025486750893195236, -0.12371136718243254, 0.04639390414868788, 0.013148232054208807, 0.1116242686863276, 0.1512368509653101, 0.19182494862878935, -0.06731501536038904, 0.2638755827833655, -0.09545505913014501], [0.05669750946561276, 0.22026598741003106, -0.08539501633798122, 0.192990847200453, -0.19096349364831655, -0.27136482426555286, 0.34923758508490216, 0.03759835699851202, 0.09116041320882537, -0.19983279021722333, 0.11640635590836623, -0.001191133001237586, 0.05926931847098662, 0.04908866486511512, 0.017447659862968992, -0.03969059798477142], [-0.011966461891424668, 0.09777245327698192, -0.032642323002096116, 0.03637476509894799, 0.15088366552218768, -0.12344117584598514, -0.34387549928396177, 0.015227479114502118, 0.12285704778192148, -0.1688079170247385, 0.0368932532582138, 0.36813754213608485, 0.18190716692337394, 0.12234734455323365, 0.1954694238536688, -0.28280025826144656], [-0.2253317039704861, 0.3034564367907078, 0.2519117227830323, 0.15895029958587042, -0.16785883154360323, -0.1590820721355682, 0.06907643549394268, 0.07766427523889806, -0.0742525645404611, 0.2747149991974575, 0.21580826000034725, -0.11889551461868955, 0.04049827637574345, -0.29883650719433413, 0.1226472964235048, -0.022056684650366462], [-0.08609114210433187, -0.13062705437253205, -0.08774792464366583, -0.2550730416797237, 0.22763150883636016, -0.00725418540383987, 0.06043289455138976, 0.19888217127211477, -0.2340538505453146, 0.20610367933215876, -0.23510166179411246, 0.10420553105347036, 0.09978837920759699, 0.24135937054808432, 0.15524459539937718, -0.02500145886601393], [-0.07806511629258621, 0.31139281174405326, 0.13369375488364466, 0.11764952228301871, 0.08000332360182243, 0.25924872923247727, -0.08036728004115051, 0.32628911256910614, -0.20873570696642424, -0.22158592165568466, 0.43443639192246797, 0.023307974342218235, 0.029110391121427673, -0.2623478677244847, 0.12068354982809011, -0.032998759753412175], [0.11182580167200039, -0.11290834184625266, 0.11778717164087137, 0.1399465909231313, -0.16264879682486216, -0.18358650101740354, 0.07241779147448248, -0.003023995427299535, 0.14655585726168274, -0.15648543199952672, -0.1633957514973647, 0.2180712328663277, -0.0051364937547899335, 0.046126691573940386, -0.31666956084524095, -0.11285448544311853], [-0.08214629030102556, -0.012351503157649874, 0.3869338943778764, -0.2760850333415207, 0.03787899451643129, 0.17075207676006884, 0.3235559823222403, -0.11653777418821949, 0.07220474305087371, 0.11945478630141479, -0.11771309417468796, -0.04114043405661127, 0.30476115701398, -0.13142286913189785, -0.15961630634552965, -0.00725633506427502], [0.04507514470317833, 0.30152992847477084, 0.06938527340947137, -0.16920814641413703, -0.015885208497258774, 0.09544644222399178, -0.227271409164061, 0.04725412326620851, -0.025545663643971907, -0.1070826681393035, 0.07487366081975479, 0.12456500678465088, -0.029367609379165018, -0.031209005775720593, 0.4446384082610788, -0.17230395402933776], [-0.08931526730517868, -0.15361555648205125, -0.009807221956136392, -0.24078321444241285, 0.010521657132829484, 0.19018266333786785, -0.06268518697947012, -0.16075186073736017, -0.0562864166579439, 0.06245928625610259, 0.13044132009697337, 0.31845156156198284, -0.5925108239521877, -0.012759594298812314, -0.010564602635718805, -0.012381808070396617], [-0.14009763056045813, 0.20949737710495245, 0.3088885578293275, 0.5040253071258146, -0.09417252681952826, 0.17894878597264066, 0.14160620441676594, -0.09857691374872288, 0.034786735140020265, -0.03861065874242053, 0.1298443080251347, 0.002546876500365787, 0.1931206148640125, 0.08363400908737036, -0.1880767014097104, -0.15283148170359756], [0.09405883490152142, 0.13022799659656317, -0.1409690656636119, -0.24441917818240383, -0.08804858021462751, 0.10738151830472957, 0.08525222111617904, 0.2998156588775725, -0.18895202598076496, 0.23964009730497549, -0.14930937650462242, -0.3813937427313399, -0.233771284860996, 0.1412278141085391, 0.0418253506512667, 0.2752340191239918], [0.179170171653973, 0.030134526092917842, -0.017311068640506327, 0.2047043665312377, 0.1321994837973216, 0.06763255899012804, 0.1324669766819297, 0.1233953172263283, -0.266801696747577, 0.0685347888806296, 0.03811682115930198, -0.15053180064829105, -0.310574522768613, 0.12634277861827917, 0.0121262865371655, 0.40336137907720265], [-0.06643437125544814, -0.29459715930147506, -0.18517579103733922, 0.14314432250360276, 0.25394994734813814, -0.25384259909386525, 0.20509363846311793, 0.21745214261109527, 0.34828481795793537, -0.327509255994341, -0.11637059199696614, -0.20848856808591856, -0.45621107017952706, -0.2282919548651561, 0.25369402816429465, 0.14689070722663078], [0.19084537240423113, 0.10422638177545468, -0.03753073020381368, 0.10999877265878252, 0.21182624907684533, -0.08762545023216384, -0.012388681555790938, 0.26629295179286927, -0.3066402985540091, 0.06802931096538932, -0.033606102988842874, 0.08900698929975179, -0.06471297486556692, -0.06964821653801538, -0.03263534737993909, 0.12750922475001777], [-0.057166729298454705, 0.11908473029313105, 0.11996073345812734, -0.25188528167153607, -0.18120801855540927, -0.07009561436514197, 0.05425491732428168, -0.079067904385819, -0.14540479009957177, -0.3189879305113636, 0.13934920274985574, -0.15944099585206106, -0.46334124052457676, 0.1615978085115157, 0.37613324701128503, 0.1865851873447076], [0.15876329175370238, 0.03733690607137775, 0.04368542152248131, -0.13216098475508992, 0.032690520827043705, -0.4024550891395681, 0.3732954783926628, 0.17766476590012462, 0.12047146923686095, 0.03860440353071918, 0.17690075903088914, 0.4491827803040317, -0.2629869204240688, 0.3092461355274979, 0.0065495040888628574, -0.24256510388723324], [0.17378207926919062, 0.011832297437990214, -0.2150294966863904, -0.11504564403369151, -0.08739063301430851, 0.041563780955702935, 0.13533958705568047, -0.1817651850431684, 0.05755194354490083, -0.16054161179824045, -0.09440405322842817, -0.09128562409811372, 0.032369487223398476, -0.16172971694812774, 0.1276105187827564, 0.03443589367011812], [0.060587205243041786, -0.1883559605924012, 0.05606627128270144, 0.13512335896671607, 0.11486980275181999, 0.06101315085113531, -0.13842852036632713, -0.27879608084460483, 0.066811267517304, -0.013321524475403718, 0.08243960931382532, -0.14355005513510194, -0.2356203429784775, 0.049916405853488124, 0.4820919889480988, -0.2551066671292456], [0.06861002310117613, -0.1982963147501581, -0.30739749247756376, 0.06864627225065317, -0.09750862075327679, -0.05463979171901153, 0.12960483142415402, 0.06027014073931065, 0.3773643627005283, -0.02900877335552267, -0.12331825496663507, 0.02504640597826544, -0.20172967662618954, -0.10625287593376817, 0.21787871363365063, 0.018483313508058968], [-0.13520130663766539, 0.050547371893145274, 0.03447417632807466, -0.3135215511563309, -0.033443987797753476, -0.15574171979532045, -0.13390252927945454, -0.1258387587922386, -0.10534919924634155, -0.07697521385142846, 0.09821356388813642, -0.19376758926783647, 0.3466534514935202, 0.1720727388941851, -0.23549182582059983, 0.21906839616515017], [-0.07901713558897869, 0.1934795775088576, -0.004253302341782104, 0.03665568989023948, 0.15469250475131316, 0.06175191902890663, -0.15158389481562975, -0.19716304957595412, -0.09711500263603129, -0.07209404060665406, -0.05304105762164268, -0.013865676591660527, 0.0922224586039015, 0.17290764791727184, -0.1047494000143871, 0.09823130982569035], [0.14242922567362515, -0.14916228760440695, 0.12571127355049108, 0.011188081587889689, -0.0873451245476199, 0.34665929623301084, 0.12259709630019845, 0.10394989802742624, 0.2019029702025984, 0.09645704528486333, -0.1926996951959736, -0.19561235238320088, -0.06371228577590922, 0.4489111096888751, 0.1827043677908429, -0.15491561243994942], [0.05019227019732257, 0.12017322165963858, -0.0678989521388662, 0.030072826824691933, -0.34844007787484976, -0.13208552884736754, 0.05314297541407581, -0.2668107303115675, 0.34900723469729644, -0.2167428575787162, -0.14557797940183656, -0.05738943016615862, -0.2532357143806621, -0.12917110086941214, -0.3310972969320115, -0.011093359888026375], [-0.22823802260763681, -0.02577160185540916, 0.2648874490911701, -0.10763848652941274, 0.1715018356962906, 0.07822086058000541, -0.11969507763664138, 0.0979782069893143, -0.1485759080829204, 0.06991747379134178, 0.02786888338536667, -0.12751321753365694, 0.0500151931304046, -0.21490494899654192, -0.033856846621378646, 0.18625517096301064], [0.19540210112162226, -0.007888230120809712, 0.02623242990678085, 0.2602590975186196, -0.32606789284674925, 0.09191137203695933, 0.5827633632331041, 0.3115089457831289, -0.09862333697401184, 0.12238750903470463, 0.10312166195920591, 0.12826215194965074, 0.20709777578892838, -0.008231073235881283, 0.03545199998695944, 0.06967534057506578], [-0.5852555636940229, -0.05687213241868102, 0.09985548279838861, -0.17796508964233604, 0.10428951686995255, -0.13707486768959223, -0.17165833238671105, 0.27959042657017935, -0.17160776412871456, 0.17378964550602025, -0.16975556327687144, -0.06328377705008784, -0.005141372386945198, -0.06470930896791864, 0.2739627122327643, 0.10631555748093949], [0.10440842231028558, 0.03781766788404101, 0.16205090564806413, -0.022038415397084878, 0.29701368565758585, -0.0348532391353765, -0.19213835947731642, 0.3250862643438414, -0.06873621787712822, 0.29852751665362154, -0.02098688512744112, -0.3075882598470377, 0.1219976078307657, -0.13897701856527733, -0.04579084742471322, 0.06828541262994929], [-0.16319506093524458, 0.19291442067888448, 0.1514575443835554, -0.12779129141473086, -0.3733972809114896, -0.06048112333607776, -0.19602732466524783, 0.27928968029930057, 0.15599121540140554, -0.06491282670104101, -0.007855404318119107, 0.023406413020664315, 0.22082999995365563, -0.018479424119355787, -0.06288730462803602, -0.03868230467517162], [0.0741204108939456, -0.032740699685735945, -0.11062299975449065, -0.16911777689907087, -0.23608940893221597, -0.06218819452347763, -0.12640421093783238, 0.09719455971261293, -0.2741604328123946, 0.17908755900963083, 0.11474693413000756, -0.20807268682837649, 0.03600713935477798, 0.22188959411649395, -0.0772141137979638, 0.12018915560037438]], "biases": [[-0.012346668618798792, 0.012098540458626976, 0.011580579717712591, -0.009690647026670118, 0.007839683545095302, -0.008960628374228726, -0.01160342411703855, -0.011187798971631737, -0.010948753257890935, 0.00928544803322748, 0.01210838772870802, 0.01011807207842578, -0.012944959606929362, 0.010808668103940502, 0.011083702950784131, -0.012733756187605234]]}, {"units": 16, "activation": "selu", "weights": [[-0.013253102359848192, -0.008891318846980167, 0.031201529076511518, -0.19772453265314088, 0.17264746414387164, -0.15208327732847907, 0.134332210643354, -0.12719375046307735, 0.04007101374167722, -0.04645182727005331, 0.026415183338265872, -0.1995705162008637, 0.2986644822826297, -0.08758593886031843, 0.260804245628707, 0.05954966090064843], [-0.15544405327777513, 0.3518110586871498, 0.33820530370117163, 0.1256949841514549, -0.30660255079372734, 0.34096593355448035, -0.04293035673466929, 0.04292181490786472, 0.04268162508489468, -0.06390720868798015, 0.15106823071481537, 0.5445865568745181, -0.09695707494448265, 0.11994509933980042, -0.08732678057937412, -0.015268592590931844], [0.07433032020130663, -0.13246694210725893, 0.3618634680282747, -0.05406209092920754, 0.1427342175353935, -0.2741717682918624, -0.21209556548577027, 0.6161450163264167, -0.2984237719297774, -0.4295955512567796, -0.068532542361125, -0.17087450204430446, -0.11121443085143298, 0.6599806102169766, -0.1309173190998918, -0.0989858899721446], [0.11183544570818496, 0.10792136135634639, 0.004004510697711904, -0.3662552637112933, 0.5263847441300261, -0.32039152601129856, 0.12617535362792617, -0.14250344015238417, 0.5144390559286716, 0.26630343509818905, -0.5669109235169637, -0.15167085549948234, -0.06929517803172566, -0.399328624164147, -0.21677143651797767, -0.07507003754138428], [-0.020813207194224765, 0.17729493624741305, -0.1078369326028567, 0.3297410577829045, 0.08476524402221022, 0.004144950881758846, 0.2694848036419938, -0.07207718684114037, -0.11497087435474378, 0.2483997315179559, 0.09547640752951168, -0.14879973810137018, 0.3618572850885459, 0.06940838665018821, -0.07262879875853644, -0.01658080273253209], [0.3656151781208982, -0.25884719413412316, -0.07379097094389266, -0.033383747808653, 0.03083851422453978, 0.18709567222574996, -0.014854697858217327, -0.0843552138484106, -0.283150267528076, -0.08367994119336455, 0.046128210542003806, -0.1341561733833944, 0.3290442509312062, -0.42380884480467873, 0.3005572931749614, -0.20433631018296675], [-0.07666319283645442, -0.5430802185045458, 0.12491671577071772, 0.6481230866192397, 0.1277171501979141, -0.055890670129810985, -0.26339644707182014, 0.46611255291438763, 0.06738117432700697, -0.19791113436171315, -0.1435137777364791, -0.42288742417063446, -0.032086950994425066, -0.39419993631960193, 0.5165203301798044, 0.18483238894016163], [-0.10449618737460824, 0.025506966294190796, 0.21493334639077538, -0.6872687277756615, -0.1693778308650113, -0.6019729609998117, 0.10267268403669072, 0.45361228031346473, -0.576119351863377, 0.14745278921563723, -0.23959397323535064, -0.4723520351264592, 0.4930644871201407, 0.03698110856761994, -0.10140179441067101, -0.1813519064759682], [-0.20987068044113533, -0.2160628780591971, -0.016434800344915557, -0.08052094825301825, -0.08155325414623286, -0.44112748223903525, 0.15900089936691783, -0.2653978441064969, -0.10154823170611205, -0.19084607690946134, -0.13706841230857117, -0.35475977788664015, -0.17704056617799685, -0.061441961374450536, -0.2650666222629793, -0.08395024581586795], [-0.09996389529189564, -0.5215092997690081, -0.07931460055936898, 0.22192817098275755, 0.2692243830469558, 0.06833287446520832, 0.3382837625911657, -0.20531811661701052, 0.2967552606834697, -0.08132239163578621, 0.3856703839437551, -0.08935741588001739, 0.5435177680263822, 0.4919412473282311, -0.7308690207056168, 0.11527838040091819], [0.12571943841599803, -0.02824901504142222, 0.5718594597882235, 0.0032104752830843155, 0.12566789963691646, -0.15630843543357223, 0.17111734684478047, -0.31354332554872266, 0.024694686538297605, 0.14799228445986706, 0.02247297517394258, -0.0810523355172393, -0.3175758026162958, -0.1079761174815789, 0.01979235857187099, -0.21476146463655793], [-0.08896628647763659, 0.5463181206503355, 0.1235118606214549, 0.3746954051335143, -0.05774624821865959, -0.08048581873551092, -0.17444768196612545, 0.10475400560286686, 0.2351837124904632, 0.16280246924772213, 0.12062534834315762, -0.3476418475657263, 0.16375733118117902, -0.12480650881067344, -0.23860972298655203, -0.0632807956103226], [-0.10783588962133414, -0.12911191338813519, 0.07172469624438725, -0.35333218924538384, -0.057321878863151224, 0.032883778215461394, -0.12013783183721528, 0.4007414659861667, -0.4279920699181961, 0.3725834147958303, 0.20974094079865171, 0.16132404601677822, -0.048927797918988734, 0.043850753009588565, 0.1471164098317275, 0.07284307091906125], [0.6667092586034583, -0.11680601364301038, -0.5579691296102982, -0.24544912444724687, -0.23319780699936643, 0.12655148612745964, 0.17229813146587541, -0.21809504473048744, -0.13950541668162986, -0.28738160736057183, -0.1253786185264982, 0.15665270825078456, -0.18743220179768535, 0.014210168613862133, -0.3103964986574835, -0.28988126960022487], [0.054577529939255805, 0.18776256246454476, -0.3168602287788159, 0.48910017680718737, -0.35608947303517885, 0.4251083038779752, -0.3569007554331996, -0.040221275658824635, 0.05934230994620829, -0.719956138517656, 0.2432117222995594, -0.2576291684102606, -0.30927493859229716, -0.22314609660654533, 0.05294540437994339, 0.4355597025075799], [0.015980652589360544, -0.19448002818953838, 0.057886014243340334, 0.12198992982282139, -0.02631596702905261, -0.2659653171700371, 0.07621487245833714, 0.3996265280816263, 0.18642348084173127, -0.12021446691627916, -0.034937207338288465, 0.20403798297221046, 0.22058185645409872, -0.2922425408962197, -0.31058815693823005, 0.6644113261572612]], "biases": [[0.012132466826773608, -0.0069222969815470724, 0.012971578219065381, 0.012200934552921986, 0.011960326391536772, 0.011786440129151077, 0.01255985494123918, -0.009078701111546182, -0.0005974436649210655, -0.011302529844413467, 0.010101439029953595, -0.009327985190799871, -0.012622184855324972, 0.011804078172313253, -0.01152658126426885, -0.0127950752256059]]}, {"units": 16, "activation": "selu", "weights": [[0.06153754871019025, -0.2075850897427925, -0.056301963967546234, -0.27745418438328884, 0.0576459385685813, -0.08111885777567135, -0.0837798999593818, 0.03680981457562102, 0.04091324811246276, 0.420286390900279, -0.24195239860754586, -0.18805078127769043, -0.12294096181720952, 0.2057854202452786, -0.20982884589689169, 0.2941810045850467], [0.004050927733072695, -0.10407204477329562, -0.31162634449712956, -0.22345887088934194, 0.033567578921553216, -0.19502385335173356, -0.05364968134252302, 0.010966333727917717, 0.5800281353375637, 0.3526155263890411, -0.07657087602973177, -0.2874186757525402, 0.2815646391534745, -0.4089048344522938, -0.6879815070107422, -0.21747702528453033], [0.3435979171786447, -0.03323694322917336, -0.22750738336608223, -0.2584551665972871, -0.004617806780062914, 0.12989309597861676, -0.613061274273568, 0.020970038696073175, 0.013323285253159225, -0.21509843134317402, -0.13721765065781028, -0.34691219126117867, 0.24537685968460657, -0.19787732180576037, 0.6350764999276595, -0.039038860092146736], [0.10523701090488571, -0.23321491621567308, 0.20625143480560865, 0.3199173582408192, -0.0060196187495903915, -0.0882458994192134, -0.2565761293746362, -0.20953401541318326, 0.07700406903318147, 0.13907235145811214, 0.12206350407014109, 0.10778000923923493, -0.11477993113403004, -0.34516238572880786, 0.31276228475128015, -0.15573007438959452], [-0.13016512772039396, 0.23389877678358495, 0.5209771999849766, -0.3893857929186525, 0.025331690768061313, 0.38838786138497267, -0.029798289229299994, 0.860595515005167, -0.07901522592578644, 0.3817967784597047, -0.23814031440436959, 0.269295822428175, 0.09497309064144976, -0.22300438304448877, 0.07613490292217445, -0.15745898550695467], [0.04282871033889322, -0.01928721891205847, 0.026520792264438434, -0.004431507903119608, 0.3273707378717053, 0.0779854682856854, -0.3074123304852744, -0.09429102039095794, -0.4984360329865099, 0.18287990530131315, -0.09344697355377839, 0.04160625729753696, 0.35401868584914986, 0.01085314373176646, 0.29136459266416537, 0.4249046142548388], [-0.11541410516324119, -0.04464710678076049, -0.055848795078492476, 0.09651681646448546, -0.05388649885829866, 0.0891620322887498, -0.42704925589742465, 0.20435640966818808, 0.2539141392241957, -0.2606280335816873, -0.06664478328103632, 0.29835454256794114, -0.20645227155559936, 0.36811926143589696, 0.056015689618681704, 0.3237791462933845], [-0.11858001238267217, -0.1543289309853024, -0.3334051795611403, -0.5878803627933442, -0.12064492007451076, -0.47186306041273846, -0.03257114759376265, 0.10068387533540513, 0.13058429183364986, 0.138685144248263, -0.32975814465583403, -0.2747062647450841, 0.2619090404584223, 0.16564754364099202, 0.1481757363108797, 0.21114375374449168], [-0.07317030522148996, 0.13217356633117558, -0.12405842332774394, 0.12703634241331235, -0.44393926031491426, -0.15109591164366348, -0.2216954156398347, 0.4247167794572698, -0.34895466654138, -0.25433582790637876, 0.33526890545615734, -0.3073220232160386, -0.3576487811460342, 0.18791641200792206, 0.35753952863021027, 0.12270813394105255], [-0.13431217554005834, 0.22769148913851267, 0.3396607785677367, -0.007547750178358959, -0.16154025614082806, 0.29316168479032606, 0.2993612891574101, -0.12123754576409371, 0.3013533176557879, -0.5679957222293732, 0.010584175230297454, -0.46596428336214196, -0.046321694618573814, -0.01523117491936572, 0.17362642973911843, 0.16827979695971457], [-0.010235658633978047, -0.24023941018121256, -0.16746054587690878, 0.09854264504394522, 0.28878325297263285, 0.6259248388989455, 0.06919381383549619, 0.11369132707455669, -0.43648599851936254, 0.37002697692815795, -0.02373586422416374, 0.7093343271224023, -0.03953803427290995, 0.1545680675607854, 0.10543363775310648, 0.13230007286356318], [0.16532811820275992, -0.03224967662360201, -0.18575034956221798, -0.23008866878182302, -0.337123487277322, -0.21661704938903711, -0.06746443194074817, 0.1850711260794866, 0.16992711988134027, 0.5361523459062261, -0.256182706828684, 0.04759778673929465, 0.13856424700196457, 0.008164190399549182, -0.27645194094459885, -0.3604104417063995], [0.17843912702648101, 0.2583267103142945, -0.031065553691476958, 0.11147377980849535, -0.3027167446935434, -0.27185848158158044, -0.17057427272625472, 0.29471350360915805, -0.1327748736551564, -0.005584990083798513, -0.019248014571378688, 0.5712046233569615, 0.2602421032027391, -0.24083582142281934, 0.13169959364614064, 0.17964808044284125], [-0.15207579698883417, -0.5783969711336606, -0.1442471769533589, -0.056557692673965904, -0.2542896837035566, 0.2982026479058119, -0.046349250395621724, -0.450114606893323, 0.11177345803643017, -0.18714625053472772, -0.056757457210301905, 0.5456382218363215, -0.4582882425180525, -0.35452935747090886, -0.07892266187384378, -0.11332658982799941], [-0.09429361221199328, 0.17042946882533813, -0.013750101346319748, 0.2580236769192432, -0.32271884085698266, -0.5004469439614629, 0.5564387277367299, -0.18005309479908316, -0.039028630176939055, 0.09344839393800675, 0.09831770157707895, -0.25811468038917407, 0.09260194270794117, -0.27820004780648633, 0.3378020476283813, -0.006071305345872977], [-0.46491458454198226, -0.06991228484849801, 0.5079271635931107, 0.3059114632208251, -0.18680268907981046, 0.38558961755632293, 0.1700588844737346, 0.09841873617327031, 0.1792792494935869, -0.07380887098499757, -0.2264408914129612, -0.0708605851095339, 0.12670625278711634, -0.36270212202938734, -0.28642321788322045, -0.10129877243336385]], "biases": [[0.011646527074070387, -0.012134337720694298, -0.012763723688982435, -0.013023108901807618, 0.01242953149265086, 0.012516205087462, -0.012358368548511894, -0.012841583605187218, -0.012316756548619856, 0.011925484704736084, 0.012925516271644486, 0.012702748733897873, -0.012862282025020875, -0.009105619874255918, -0.012597169063674375, 0.012733325291728504]]}, {"units": 2, "activation": "softmax", "weights": [[-0.40363627272385416, -0.5090920128453444], [-0.09758605248011636, 0.531084541759987], [-0.13048526352596782, 0.10743642062345954], [0.039024907094811385, 0.3088977061444674], [0.10615161138547002, -0.06936207952667307], [0.5859494605565119, 0.08151800980699457], [-0.021651039442148825, 0.5371935624910993], [0.010290613057973443, 0.3330400551188175], [-0.4113107219171349, 0.1610030451494201], [0.39517224602432893, -0.2936720119832589], [-0.23594297472030246, -0.3875817593837835], [-0.30693573267944974, -0.5280976501847139], [-0.5467056638598065, -0.22284267050943196], [-0.49794572336312887, -0.4767808168229097], [-0.0573332701135808, 0.13991249579186774], [0.3971031344828566, -0.027843070417699865]], "biases": [[0.010687231545079348, -0.010687231545079341]]}]}