{"layers": [{"units": 24, "activation": "sigmoid", "weights": [[4.888611365435078, 4.878086858305976, -2.9276315804485424, -3.4181797316907465, -4.1105343630337625, 4.392694690596686, -3.7907648074941247, -3.837367558848502, -4.891529196206702, 4.437124718761973, -3.905773301029811, -4.2531514757607995, 5.078376253111014, -4.434155490465834, -4.3158761863066815, 4.008075443568111, 4.44459248349358, 4.143563347021742, -3.4306961816399784, -4.814213550661307, -4.42865388319926, 4.70998762272888, 4.604337888348544, 4.931959304153381], [56.325211693125176, 56.26409062155963, -33.2589369961672, -39.097510982737454, -47.36019843663674, 50.456358531227856, -43.37445729773257, -43.94894871619249, -56.40480104723326, 50.84963551451283, -44.866776299260735, -48.8476120412077, 58.45559363445818, -50.97559186894409, -49.448542634447286, 45.85506607188485, 50.868350902467164, 47.459958635502005, -39.50545109296387, -55.36844794733496, -51.055289912533155, 54.2002189101717, 52.964551193307024, 56.846436296006104], [34.46636513629044, 34.50373909143167, -20.88991086269454, -24.33685534435802, -29.115019038005787, 31.04547199900566, -26.87874499776141, -27.189606822087647, -34.415351350622934, 31.297495310351874, -27.74317557722317, -29.96913106983366, 35.7640819397817, -31.243390509473667, -30.361200500894334, 28.435968329681458, 31.348974398522724, 29.315888898925778, -24.581945944925817, -33.79928838279751, -31.29765360971222, 33.275545896657185, 32.57355352414481, 34.78399573154538], [56.61019694947776, 56.59066125565141, -33.40234384616164, -39.271746622415044, -47.615872038119996, 50.714305822859686, -43.56943504742172, -44.168806315966535, -56.7023387131401, 51.11331962481019, -45.10098638931342, -49.115523552184555, 58.798895721849924, -51.247090953106415, -49.71102911590587, 46.080188262084164, 51.11275400863633, 47.690832614221335, -39.70620766750595, -55.67476970297317, -51.343319231825674, 54.505964222691276, 53.24577604657159, 57.14154158961116], [54.70787564980029, 54.67504052814764, -32.3706575247169, -37.97940826782685, -46.03356628366121, 49.01945150670945, -42.147372614786875, -42.71660342489428, -54.770395021384566, 49.391153595043036, -43.604992562123044, -47.46443063410617, 56.80380787541426, -49.53137985551321, -48.04490633092398, 44.56117353972292, 49.438299904638086, 46.1202048623363, -38.39630030965006, -53.77020112695623, -49.61353431330655, 52.67557609489765, 51.46809770260938, 55.21722055319242], [24.30798450852878, 24.262893634330172, -14.025149480801549, -16.59024260618987, -20.382401637324634, 21.687170726823677, -18.50241258234421, -18.78676431846237, -24.41770350072443, 21.82190039051315, -19.200715373521444, -21.042254221757144, 25.2676576670441, -21.987096201561148, -21.2998391323523, 19.56728279413709, 21.81083447628861, 20.323547024481513, -16.79395412060164, -23.983926435345115, -22.03017811473009, 23.35874370148034, 22.783067441871207, 24.54524072963998], [35.425866859286096, 35.33387155147409, -20.25705981146212, -24.02857538359957, -29.629207970473203, 31.505846770076737, -26.855502211523792, -27.255711145012135, -35.60866654254976, 31.754736944504014, -27.855870846664903, -30.634948934432206, 36.822457233217264, -32.01736258926315, -30.995753473726474, 28.354486165255057, 31.690144944765507, 29.520758992963227, -24.360752768458788, -34.980383296313065, -32.0988497914229, 33.991688345071175, 33.11471406476333, 35.76301726456092], [45.35632838404352, 45.289237785655445, -26.296747878515404, -31.023280385596095, -38.00361357025708, 40.46627744942709, -34.59100994237638, -35.097676782871964, -45.522909713879116, 40.76470543320223, -35.85981152164112, -39.26167055235117, 47.11449055574499, -40.99487098684996, -39.72103234402542, 36.569142980633, 40.74776816292884, 37.95982367594427, -31.424105381335778, -44.68219663244135, -41.1069530552834, 43.565568266078394, 42.50074224571562, 45.7903583329013], [54.52239382698981, 54.467757862167666, -31.976043550913207, -37.638738226021076, -45.81127457595054, 48.78924182955551, -41.832596932378976, -42.41680352714306, -54.67174093187886, 49.13958965882473, -43.343910280263515, -47.27584773076995, 56.6491444261703, -49.34925474516958, -47.82557138777356, 44.22278630218703, 49.153992076813566, 45.83379707129488, -38.072957358203844, -53.7108584447835, -49.46022124512188, 52.45255949535334, 51.238579111792866, 55.04601856753267], [19.31877184062513, 19.252149092012193, -10.76941244578981, -12.883738790297496, -16.083549051472964, 17.105604808328074, -14.466143510703349, -14.702813693372532, -19.479240625119395, 17.213733199875218, -15.062152180703883, -16.66446715679064, 20.100148899604385, -17.427744434483472, -16.847964146751163, 15.272120126622474, 17.170980439695693, 15.952304729674651, -13.065562077734855, -19.141798092733566, -17.491835116726488, 18.508046240201327, 17.988832123898916, 19.518028151581852], [-8.796939778645948, -8.861463362322905, 5.828692859561693, 6.607143566182854, 7.580682243799567, -8.117556855463535, 7.191324944259544, 7.2212451487004685, 8.689199801955427, -8.180582535182172, 7.3551889328877165, 7.723545458419606, -9.124676917062313, 8.02142446152561, 7.863373563296878, -7.629843279167926, -8.264478712999155, -7.773710833874403, 6.65001320181682, 8.519039254079232, 8.00694424759347, -8.587445948558088, -8.497926240773477, -8.888882738040374], [41.45322867256882, 41.4115673557382, -24.424094669234854, -28.723462096684237, -34.85902629778215, 37.09427686506772, -31.872961439719116, -32.306715903625964, -41.51860028331026, 37.404566124375656, -33.01423424823867, -35.93789016369117, 43.04734033198484, -37.494391286257745, -36.39963900438284, 33.716923631375586, 37.41593628983112, 34.8930010985884, -29.029276206922702, -40.75919985267748, -37.59218751396209, 39.87534448699463, 38.955677529962635, 41.84318844876207], [1.5607433565628706, 1.5813628852532302, -1.148187382016829, -1.2615816368200128, -1.3768017100222991, 1.46645688210729, -1.3474342165829925, -1.3220336278353964, -1.5372071687520747, 1.481533235301516, -1.331676677998795, -1.3965875880392877, 1.6211561552007572, -1.4284181496571047, -1.4089042239410967, 1.4018071115401207, 1.4979093537610573, 1.4352123118292575, -1.2446282001004172, -1.5078903108398563, -1.4239382125314604, 1.5435631957796851, 1.554674284728814, 1.5891078710168534], [38.455545778578255, 38.43637094664069, -22.575675939299998, -26.549893443250564, -32.31985580439026, 34.403941618672306, -29.52329699975993, -29.919235717716088, -38.569039255094864, 34.66757110201616, -30.56013124633686, -33.350091400761784, 39.967233691198906, -34.81999813774732, -33.7363540102794, 31.19861270139377, 34.64859764477696, 32.34776636727219, -26.854393285301704, -37.866954663423584, -34.882829320401434, 37.0128213725474, 36.11969644716653, 38.831835951860164], [39.64861962082035, 39.627298286696885, -23.47369900113571, -27.550966606773628, -33.367349793801196, 35.52920350537252, -30.560565388934766, -30.972649556530843, -39.69866265812568, 35.80754502626427, -31.615032337551682, -34.40203005280368, 41.19091317464317, -35.89981487578651, -34.823498606596544, 32.29816616434156, 35.832318831812884, 33.44282955488235, -27.84266611053837, -38.98765157550351, -35.96292479270368, 38.15145818373304, 37.30828736096924, 40.02632779149735], [-3.862754044742833, -3.90941376791958, 2.4463966281593796, 2.8474396657526593, 3.280150864057724, -3.521943522723937, 3.0874889880388032, 3.1318192698728766, 3.8325685304006902, -3.5377802734363497, 3.168618817034579, 3.3774119506141824, -4.02869368872897, 3.5166928066702945, 3.4204962845871734, -3.2675809823182074, -3.5793271571156904, -3.3480551416129276, 2.8252216633162917, 3.768990662704707, 3.5046664401411234, -3.741169048594081, -3.6863046936213046, -3.885588397722949], [7.04942243370725, 6.919772351184276, -2.8660220907813483, -3.8258787315888383, -5.5617963997900235, 5.890398480828247, -4.582237822213344, -4.7651230058765455, -7.275554189419697, 5.908287929524846, -4.928828809452445, -5.910918189724376, 7.335955338623853, -6.24273417323764, -5.922040958711664, 4.776678831263835, 5.773030349223318, 5.229099611282994, -3.9744374983199497, -7.159603492037044, -6.304191566327964, 6.561055412383003, 6.207813587820957, 7.095822500082242], [4.454420823227515, 4.3242445700115955, -1.1115012609652382, -1.874315438918481, -3.3294398046976212, 3.4749382406014777, -2.4508353561910283, -2.6302028954462227, -4.717904369233108, 3.4857679193449664, -2.7682959850639692, -3.6301683374600544, 4.680109461865241, -3.8836233512302925, -3.612961502533318, 2.5312141246876796, 3.347242743640412, 2.9709594420902827, -2.009607437510313, -4.648535272325828, -3.9277392063696146, 4.037544244115877, 3.714156885529754, 4.47795076091514], [18.954547315572693, 18.82812948304003, -10.110591157948232, -12.236557299285314, -15.652645312374359, 16.594586024284684, -13.866345977287454, -14.192814583977475, -19.150585170478436, 16.719840957660217, -14.536687288351366, -16.27237393169891, 19.721046254520722, -17.035446667154332, -16.430538030929007, 14.65640331486116, 16.63593850967849, 15.414858305891604, -12.488473442212866, -18.81841112263689, -17.123900065908437, 18.042802038328897, 17.479551460038838, 19.121375713273995], [-5.119231406315482, -5.170399924434795, 3.7665742150244292, 4.147280774523269, 4.493170648534436, -4.818806763574889, 4.4093748417206715, 4.391937299034639, 4.9749245249244405, -4.868892753751974, 4.43560600759849, 4.543229169362111, -5.286437044677906, 4.710624452936439, 4.637402739920261, -4.683887132623756, -4.923694036316947, -4.678523918311523, 4.111582771061401, 4.893359187372462, 4.680934581896174, -5.035619468219683, -5.024440960185137, -5.1511663043134535], [-4.421943668485756, -4.496545707949928, 3.6250435372676577, 3.904170045993054, 3.9840217540125136, -4.294789547146492, 4.089849063306226, 4.017691812007897, 4.237765590463054, -4.3627882651132595, 4.071713061159126, 3.9989911162070513, -4.59055502423416, 4.10182056381048, 4.0797422477670695, -4.339802027530104, -4.45821055723329, -4.285126302048796, 3.853757665114196, 4.179608480087915, 4.088421874333951, -4.4464757319707, -4.4710882107631935, -4.46980030818222], [61.80634753604211, 61.77406459508596, -36.64951999172088, -42.98989616464617, -52.0357724595894, 55.42330200595907, -47.67636286467014, -48.29798166723395, -61.847691770896965, 55.842845979818605, -49.27880467321278, -53.618725291135014, 64.18175436977695, -55.95916451548136, -54.28694150436778, 50.406759404370526, 55.89320483764688, 52.15470389229836, -43.444205761345906, -60.725401746289855, -56.07077634878606, 59.49737730920144, 58.17595297691017, 62.39231253212605], [42.24214467932842, 42.29407147926802, -25.798249888347744, -29.989627433817216, -35.733735822021096, 38.0990541919275, -33.072147190992425, -33.4049404428531, -42.13390842628027, 38.41339281104812, -34.07638859456526, -36.76161556073085, 43.83121168202164, -38.30224599843725, -37.22283881537174, 34.988438899979535, 38.51826200962467, 36.024189123419504, -30.24959054753699, -41.38692987078166, -38.357404165201274, 40.81359041032865, 39.978448021424505, 42.62566290051826], [61.25776605233772, 61.19900351766592, -36.26792170640294, -42.582795873954126, -51.5446310856582, 54.91699795880627, -47.21725626533071, -47.82874239427157, -61.29847306526413, 55.309297276262356, -48.82331716001979, -53.14458111419193, 63.61173183660056, -55.45025145026571, -53.786712734482464, 49.92313910523183, 55.36182949421563, 51.66942873317802, -43.01828072940751, -60.24075389954471, -55.55425815523818, 58.97565080307122, 57.628037731477484, 61.81330046278858], [58.456553560680355, 58.42274822268221, -34.694948445994, -40.70339328407607, -49.23042664549976, 52.42116978209561, -45.12687492867574, -45.696562982140264, -58.5167551102911, 52.84950197450133, -46.67088909595357, -50.722881823242595, 60.713083106070464, -52.923596901491734, -51.361094020104815, 47.71307445110976, 52.86951062240856, 49.343746011913105, -41.14256835794674, -57.46738964782028, -53.04378377181206, 56.309022254331275, 55.036883321195816, 59.01469281433715], [34.62117539746577, 34.61475596688449, -20.613300229771507, -24.139515070834953, -29.1672320656728, 31.065696934502036, -26.753777803253932, -27.083347383852537, -34.63365038703079, 31.30858457166994, -27.656963415077133, -30.049406631899902, 35.96203892311214, -31.359947908266133, -30.44082724935102, 28.29394272451929, 31.340155100392597, 29.25599477349844, -24.386673543140844, -34.01927579931539, -31.408117962968436, 33.356072637917386, 32.607448805475826, 34.94305388851853], [33.71015902400227, 33.626850643695036, -19.234922855532243, -22.815412675190007, -28.194007960828035, 29.98313492658008, -25.522133369661653, -25.92615943036371, -33.91026109588475, 30.180679990631077, -26.473107152337036, -29.158604782169505, 35.05249324953249, -30.461235073182596, -29.471694574860365, 26.952533834244665, 30.157694905779874, 28.04346756341039, -23.143740752458925, -33.27676429122124, -30.550409555213793, 32.340520727284904, 31.4905022136523, 34.0172381710247], [39.92141425860822, 39.82329473418818, -22.912002192610373, -27.145636059445824, -33.38876687327122, 35.518444231021846, -30.297406293135012, -30.751798056524763, -40.074459105618274, 35.79444649090608, -31.44929789749543, -34.514675070064044, 41.45723726469213, -36.063581763229884, -34.90787639954005, 31.99862222885452, 35.740179746653915, 33.27376575088012, -27.50218058138957, -39.379365106216625, -36.156087727086664, 38.32005355507551, 37.31286599939547, 40.26938085539829], [55.11007178552142, 54.99972740747747, -32.218409415523034, -37.92596605270019, -46.24766185232775, 49.249598888891974, -42.202481631142966, -42.78302396236744, -55.21416830065262, 49.61991494730121, -43.70807544269748, -47.725886444284626, 57.22805649878074, -49.84788944497134, -48.28096523755565, 44.61602933146519, 49.619950454939044, 46.2583556599766, -38.36838656160001, -54.23078099369264, -49.94338304062136, 52.98510452321749, 51.725856211485684, 55.59926042991001], [27.080197563666452, 27.03164178587841, -15.555089072907206, -18.43841348421267, -22.667264207729744, 24.123654837456467, -20.569830823744223, -20.901904895424735, -27.18402538012634, 24.293672194297386, -21.353352944026028, -23.43086958735336, 28.1508397814181, -24.467660715030924, -23.684270358296068, 21.742161945348013, 24.274325954754566, 22.59616641325616, -18.66806350623475, -26.715778255688676, -24.5418137983607, 25.993009038823324, 25.327040302850293, 27.338867114283662], [15.829916411928425, 15.75528113183811, -8.831269392330835, -10.5464080876639, -13.169892237978951, 14.013009507738374, -11.816147679350475, -12.028777189880797, -15.929557898127205, 14.099227953261522, -12.318257979115955, -13.639721222440246, 16.45771177608687, -14.248556871479227, -13.781980861245415, 12.48662453330204, 14.038838240818164, 13.056826267979991, -10.6938634058144, -15.662853370352611, -14.30493351835106, 15.125353612365432, 14.699904663971646, 15.957415855444747]], "biases": [[1.707938462666437, 1.71037873477642, -0.9601588694568424, -1.1600824293163252, -1.4380803987960553, 1.5309000632843643, -1.3060931783528704, -1.3287911867979167, -1.7092388666764142, 1.5434600314958677, -1.3561128923352108, -1.4841021866041006, 1.7778333313253492, -1.5511916850785383, -1.5024948139236625, 1.37884383504725, 1.5431166779933685, 1.436272091960489, -1.1782947895165847, -1.6856551171807623, -1.5515899622596863, 1.6501794126502713, 1.6102937468086578, 1.7269668441471324]]}, {"units": 24, "activation": "sigmoid", "weights": [[-1.238931205967717, -2.128934606060612, 0.8645866351225145, -1.121903038961478, -2.1492768912884714, 1.8913652614053835, 1.26772494981744, 0.7851450858168043, 0.7763396828031025, -1.2604493515880053, -1.6960990877193594, 0.897760363882296, -1.3007929729616956, 0.014110088097616443, 2.156713279034686, -0.5044637076404799, 2.333647302566681, -1.2862328849434606, 0.39306664368635247, 1.3544665318916589, 0.6273556673864715, 2.1641128581362556, -2.221987602551954, -0.1406037191819686], [-1.2142696817199103, -1.7942643566273246, 0.4423702365709446, -1.6102804012801841, -2.0044178969900264, 1.7006227623770493, 1.3887625858583599, 1.0443725044333616, 0.7365029012966087, -1.7974391537966423, -1.2219884894729434, 1.006508681537269, -1.2873737798426945, 0.36375529294401165, 2.1439724950004124, -0.4136805140583169, 1.8847937604561835, -1.9183397375403202, 0.5455372227851069, 1.7494936853874574, 0.8600517491107047, 2.017640452044981, -2.10047865186601, -0.006073782283720904], [0.5829441567168993, 1.6104198787732797, -0.7393317393809127, 1.0655159047872322, 1.38631312630732, -1.226872285199821, -1.2848586773615707, -1.0739228885894496, -0.2647309542079941, 1.4347092180549381, 0.8656028843302044, -1.0291229502911226, 1.1315265960688772, -0.27842297821999545, -1.4060141981385574, 0.7387544569190353, -1.67785798224229, 1.2950442490049177, -0.5605773740953925, -0.9576446282121972, -0.3837835521767168, -1.5278546964993962, 1.1707840717469433, 0.3631007367703784], [1.070118108856057, 1.5325305503816475, -0.9053988762064515, 1.31623967444821, 1.7609186221966866, -1.3513182105896382, -0.9829745839510623, -0.8030333334739304, -0.4063699606289643, 1.4551587773760106, 1.1450654724472038, -1.2311253081034252, 0.633383136125632, -0.43954108656442975, -1.5452280137817145, 0.29482595547695967, -1.6525272617713773, 1.2825066986029086, -0.2451077559218241, -1.2341293845695178, -0.7796508954054048, -1.8512635752723707, 1.4002871437380857, 0.22998725142128565], [0.7059684782189105, 1.8101998922337657, -0.4068617233491357, 0.9624242205415307, 1.903284207393287, -1.3127876198254542, -1.4280629328012269, -0.9230684293611878, -0.6627199260840151, 1.3982032896214474, 1.5173187249215792, -0.8088508578531544, 1.1710260630722547, 0.0028499678217955918, -1.915482744108674, 0.6408850377272551, -1.945706207228995, 1.5485918886013188, -0.2925361239472287, -0.9936267143100109, -0.3959924343776574, -1.8806811631380362, 2.1054814508155024, 0.08694406715222078], [-1.1602379582493834, -2.1088042600437005, 0.8225913075987433, -1.1843837710376033, -1.5730506879835895, 1.7801554110397413, 1.0329158143566672, 0.659481820059613, 0.9278313986227866, -1.5145256244501057, -1.75768578530586, 1.31067677037903, -0.6917421671132833, 0.009725661844451337, 1.6707474505929076, -0.2974787185123149, 2.198591792286076, -1.6498855548157878, -0.12984037109440788, 1.3970894158371152, 0.3085330790542804, 2.0583534746827645, -2.171893412620917, -0.5698946232450471], [0.9261057723316872, 1.772629524136266, -0.5436491761530634, 1.1008642837389284, 1.3500373690775398, -1.229642230565502, -1.5858454113214666, -1.1903356488263974, -0.2994665542874245, 1.6250847747455814, 1.0213077154281058, -1.2852065234343346, 0.9273754383875445, -0.1645931114285922, -1.507610952534747, 0.8931164601668984, -1.5051274040720093, 1.7391925998592757, -0.28569811018976365, -1.3643951200380835, -0.9197405190892421, -1.4655854311074565, 2.0546976225437117, 0.4985786053953768], [0.6381136439184346, 1.669746842672659, -0.9895422147951153, 1.0826912054410693, 1.544401437874193, -1.1870209142498465, -1.4765782664960168, -0.6562799004994603, -0.4690434106659861, 1.4543515638030855, 1.1568481394943806, -0.8209954226103765, 0.9062660961007997, -0.2075150049946635, -1.881453933680337, 0.3137982257189535, -2.0338848508302796, 1.399925196955846, -0.28851633987237135, -1.554450379330072, -0.9040317228517942, -1.8590996387052523, 1.7769225572650253, 0.25823748297940957], [1.272306121931416, 2.0509896746555745, -0.8392848159537711, 1.530830960955658, 2.005452119319411, -1.2964555314579964, -1.626229353163084, -1.2356656806215822, -0.5289355012253038, 1.193372367835478, 1.4145739977976917, -1.388816604200246, 0.7262249843893711, -0.06184540867633449, -1.5536928847473617, 0.9187036428767955, -2.098161069059371, 1.714154267700452, 0.15453932508143065, -1.5789811158621114, -0.8489472965169067, -1.9302834526746036, 2.0954036533148352, 0.5564173286685149], [-1.0404706463582876, -1.834828778657396, 0.4516300720394718, -1.3048502812965834, -1.6916873802869894, 1.5704744338437333, 1.720067295906722, 0.6921090278176923, 0.646472456922828, -1.2255214709816045, -1.6705215296510318, 1.2315368783537415, -1.1607134236186047, 0.4523870448982915, 1.7302456597484477, -0.4625032972581666, 2.3070102990240566, -1.7107637866247993, 0.002638894258707877, 1.3699943393791547, 0.5191270942676411, 2.100920398600842, -2.035224260966186, -0.10568248775987053], [1.128756366174525, 1.6368503382133077, -0.649887916716273, 1.0620893743997077, 1.9751019899588553, -1.5841008191485286, -1.511236712097334, -0.7732947157302422, -0.6208234833333437, 1.4170985355303545, 1.382389311075462, -0.8243719387205231, 0.8922952413123431, -0.4507898072226295, -1.8101443459354274, 0.7317578996056364, -1.4897225653346937, 1.548081377557721, -0.44618840958188877, -1.0340603709492855, -0.5845880508852612, -2.065974080204218, 1.5560296885917206, -0.03893658463256967], [1.2458540654107348, 2.0935765098962924, -0.34738092732937725, 1.2968388341070227, 1.8680763939491942, -1.3508880589220158, -1.1116183538503492, -0.739185944567472, -0.41753444648389254, 1.6311270585808453, 1.1465567181850977, -0.769436364832222, 1.0824100265382617, -0.1319715225578762, -1.7726667159150196, 0.4870557707623327, -2.076357281914342, 1.6213536063169027, -0.274520097323623, -1.3118607120184846, -0.44908816862042394, -1.7534448226583954, 2.053428971981271, 0.05252408198613634], [-1.2014937869484685, -1.7528940983047627, 0.9935762346156478, -1.3460064066044366, -1.8534573383203947, 1.8008493831986738, 1.728432896793744, 0.7912739283533844, 0.412133360702833, -1.8174116123597985, -1.419384153992376, 1.3781749748570407, -1.2585395674577722, 0.40593354713353563, 1.7724266967827214, -0.8676644808726508, 2.201284542903042, -1.928901566278482, -0.020643129239942333, 1.496682315263525, 0.8775502325713831, 2.2979116407484748, -2.054125230698879, -0.4359478730927436], [1.3313312539701643, 2.0285393773060365, -0.9302801556191953, 1.4336504305394342, 1.8681418505984106, -1.723157994956062, -1.3310236799261648, -1.0327819931325102, -0.2771521304765822, 1.3254290808118723, 1.2295352520585598, -0.8470551603010504, 1.061413009793801, -0.23456615624688307, -1.8280376701855423, 0.3116456829196391, -2.2126638994467265, 1.2838409023239885, -0.22960465186463125, -1.6365454203385106, -0.30904182717596684, -1.5283602660965538, 1.9452694878392125, 0.36980563351597456], [1.0286941713791542, 1.8475465930751254, -0.4869052742473715, 1.4332981020146842, 1.755172724041093, -1.413020020842822, -1.3939007250935098, -0.9899357423682289, -0.4056039213934224, 1.6755480974561512, 1.301183832839374, -0.7299595921745567, 0.6449465932342523, 0.026913616372007947, -2.0928387963924, 0.8214146794651611, -1.8242599806568593, 1.2943804807091475, -0.3249357695360776, -1.403102582633846, -0.6335149490881604, -2.1451760784218212, 1.7931177170361599, 0.4560270399673023], [-0.8892992117049507, -1.9652123636213716, 0.7899618896181015, -1.3982537966757342, -1.4944124438794948, 1.4857897477919582, 1.34801540022033, 0.9221435839341161, 0.45502708338361975, -1.7173506906963423, -1.5154039899872969, 0.8215146631671157, -1.2620863950206092, 0.5253733469442164, 1.8680390544084366, -0.32529093615003996, 1.880569858919931, -1.4307240311420164, 0.5359772046498311, 1.6271785409081454, 0.8681995757966953, 1.833993280403708, -1.5864676220996028, -0.07713636822152904], [-1.0417021132190012, -2.0576006838487304, 1.0252724427579065, -1.5024475903764392, -1.5832603716365452, 1.8610862784401963, 1.170640146818023, 1.2307288149047682, 0.7860714244466673, -1.4871069094101819, -1.3696736456941072, 0.8066961695573366, -1.263751575121291, -0.1101233117612117, 1.8894210763450503, -0.8464864917135989, 1.6880073993342306, -1.9291918780148882, 0.1727191797999841, 1.6676894106097533, 0.6224083056140289, 2.0957885342151594, -1.6337818195720615, -0.14781395401124672], [-1.0362559337520951, -2.0434693048008574, 0.633835462711433, -1.432841956978927, -2.0135528537921368, 1.760081345576883, 1.2496384263525562, 0.8451058615644423, 0.5910654824840311, -1.2198337420381422, -1.4139701123275412, 0.7749166444579668, -1.1506135017017236, 0.2880370505406409, 1.9298334687629957, -0.29509786742296196, 2.255337599201419, -1.5004426916098406, -0.044328565541447026, 1.0594840987501721, 0.5656842897263819, 2.078111569239536, -1.5683373159491274, -0.18845014795912146], [0.7329650369245054, 1.6998890613233875, -0.7318755541983126, 0.8619979402892642, 1.5957669343891983, -1.3562427710235023, -1.018168478092423, -0.5191764393267572, -0.7564232541167758, 1.0050790332724029, 1.2001209169995426, -0.768996910049495, 0.667424197153672, -0.1239417162507543, -1.9398768003399087, 0.7487556257948738, -1.7946982882158042, 1.247759049130057, -0.4151115869224787, -1.039179066760076, -0.6951692918910227, -1.9904949464011557, 1.998559447555156, 0.402802031510118], [1.1634364650885787, 2.0437293230449325, -0.8064251602028404, 1.240286752008502, 2.020702084502461, -1.617390235317915, -1.3945315521009476, -0.806980532226693, -0.20176159940671115, 1.566704813057763, 1.1282960190196103, -1.1525682677798623, 0.9089398409396388, -0.5204258735793348, -2.0600422508167044, 0.5370730215015315, -2.250081822904812, 1.725028960729565, -0.5091263818177182, -1.1810423492077804, -0.2813153120035397, -2.0844658148214026, 2.0059338669891766, 0.5191767112949234], [0.7471660028104716, 2.0263501672751865, -0.590295283893557, 1.2630195190361893, 1.6210211209560788, -1.6548484794716865, -1.2812044584444044, -1.1770038599451325, -0.5628235672267713, 1.3109430001201947, 1.6933302235053527, -1.1463362725170332, 0.9012066020049054, 0.1597207809358574, -1.6915456805475928, 0.8225473241780368, -1.7170160445571014, 1.7179163536853603, 0.0628461167947232, -1.3958633336441342, -0.36979926412866954, -2.1286034581149043, 2.033379273553668, 0.19031941849016595], [-0.7475862923432283, -1.8839524414115176, 1.056137803547927, -1.4133184084600856, -1.8154990924259289, 1.643148702168965, 1.3792915804479682, 0.6137308635963973, 0.6159760142946772, -1.5099929176101332, -1.757526250775869, 1.3357001007739415, -1.1312837019137931, -0.034558983247231355, 2.0494038424672767, -0.430404760885163, 2.1228416108403056, -1.715172240992299, 0.5495780612664557, 1.4402492914473437, 0.4600548327030485, 1.9864712630076244, -2.303691003342417, -0.21652308270046794], [-0.8802799140374222, -2.015074294514142, 0.9496010631343558, -1.5957256103904534, -1.845848239077792, 1.2280891951909987, 1.6321141673549586, 0.6434547702166092, 0.690371963603652, -1.6900006766706177, -1.6534179148944412, 1.4512510943548524, -0.6763031786014024, 0.4636473230338977, 2.1128585324819467, -0.5619914453233108, 2.315866056334279, -1.6158742197800346, 0.41757571501159363, 1.4777948200871245, 0.9325377164523273, 1.611113284143277, -1.8407690454053998, -0.5600680908070922], [-0.7489142848628009, -2.2413114467716517, 0.9851661171124334, -1.7072996241257072, -2.071138793288034, 1.8835975805320972, 1.1900507488878027, 1.0318448033051961, 0.3506920922204926, -1.7845430545872198, -1.8329654029552496, 1.377544155868657, -0.7186134856424614, 0.23456234809124296, 2.1633661124198387, -0.5712974047738199, 2.0664072739114654, -1.6133334653459908, 0.09604200106854628, 1.2136945321426544, 0.9075143081647824, 1.9136984352816235, -1.9499516922791, -0.15963285136240377]], "biases": [[-0.06464060922771442, -0.1241544743259366, 0.053400902690924734, -0.08850365505232503, -0.1132040741709068, 0.10034319006086838, 0.09457514943828323, 0.057520782703124065, 0.03419101008151814, -0.0954630121272755, -0.0898362012488391, 0.07277890399696918, -0.06637175984139135, 0.013956162309137779, 0.1207516381308667, -0.03364341731887331, 0.12144160035769955, -0.10498088743557231, 0.016082756780374304, 0.09114553694985456, 0.04331022980582053, 0.1262021376835561, -0.12310287178058191, -0.02114974159545536]]}, {"units": 24, "activation": "sigmoid", "weights": [[0.05864431374923225, 0.3325840819089636, 0.2084518938924483, 0.5118813886406264, -0.17253176702430612, 0.015546597507807432, -0.18105581697990278, -0.0781487954474029, 0.13071140691820016, 0.15973791704387064, 0.24706680823355595, 0.21074262969172852, -0.027315791223603978, 0.03582330568178298, 0.41970363207106565, -0.05894632489544945, -0.43982814319826125, -0.5842530677965109, -0.6745702231593833, 0.5324752030532345, 0.26129226924270277, 0.12165105771746657, 0.2337384316708216, 0.27295892677336214], [-0.32549236479125915, 0.24589127926547333, -0.4060215100493574, 0.8645311439711159, -0.42413172194919807, 0.10110589786318999, -0.2779838654777291, -0.3833246987180972, 0.5499804191698214, 0.4526673135767437, -0.3008541441608926, 0.3238010221471569, -0.03978622311881106, 0.015545886234579849, 0.10254035763529212, -0.23775886805691737, -0.25178647711812313, -0.6688918051852895, -0.7020425774497754, 0.9845181097430586, -0.14063919548549628, 0.3608458220652541, 0.021036635270960027, 0.12904233139251206], [0.12383549982682758, -0.22487229313344856, -0.2452602676852741, -0.6190334459429209, 0.11779367474982394, 0.02194828414579573, 0.16895465555130787, 0.1878112209526161, -0.2850608075337045, -0.5605609662212812, 0.3948599268495155, 0.017488796308400778, 0.08440811252550583, 0.34268205487607345, -0.3929119374069335, 0.3401508868901662, -0.11602564064584484, 0.07152962415980238, 0.6619061480498308, -0.5598712446433699, -0.12021230431423023, -0.025996672472721822, -0.08517634119216153, 0.06872449519651744], [0.28194193209595286, -0.04218965003573047, -0.36967437819149435, 0.7693512299116672, 0.0917549276328785, -0.020784076941520725, -0.21595177784472966, -0.2236065533537345, 0.1715789962874024, 0.44929894907745566, -0.17000742995874232, 0.43254025741728264, -0.23289856507776224, -0.0821806153230977, -0.11465721486724466, 0.2224379213326868, -0.4129120308486291, -0.4333679144603323, -0.6531936423003906, 0.477828669642501, 0.4149591617001571, 0.36222506805784, 0.571842239771845, 0.5174382968348546], [-0.20710785139399537, 0.027557943612847607, 0.052792376746413024, 0.4294444736711013, -0.42434225740451054, -0.16471925233618834, -0.6240995644599567, -0.1695199636568706, 0.0882570817157262, 0.35843282686578937, -0.11663846227476096, 0.526485315743158, -0.32408013937129476, 0.030205462988795076, 0.019293977862554827, -0.19582762384368216, -0.2877151254015754, -0.6127671772290447, -0.9320907837585034, 0.9708735647064527, 0.2544856657973361, 0.09476913034954196, 0.2140320279855806, 0.5902229103208683], [0.12035198050675393, -0.2793758088522883, 0.41636871688368554, -0.8191159849391783, -0.10321747740544315, 0.17323455369661572, 0.20936874855416612, -0.017654645927379874, -0.45219346643255054, -0.5659204841269647, -0.16106855580445711, -0.010586223866344769, 0.22799867141593896, -0.3455560827902473, -0.3219707328601006, 0.3604806884676191, 0.17496526013623576, 0.6481027637534517, 0.7187554900616262, -0.5500235640875971, -0.3088885074760499, -0.06484006229746492, -0.5928349674431166, -0.5425161551521411], [-0.10348494345179565, -0.5055298271987866, 0.2043734040979449, -0.4861444593153274, 0.40175628714572587, 0.029592183058005518, 0.2266275488129323, 0.2544012378138683, -0.326429579744753, -0.61331643006532, 0.3014322345670799, -0.5124966824179289, 0.2604981606066725, 0.20974119975787578, -0.22567851090614996, -0.027218941380606106, -0.03193076868866403, 0.47844900559243525, 0.7712737763575913, -0.550540962706855, 0.1706881088552973, -0.14945310552354407, -0.11413845053195844, -0.6254833007376727], [-0.1778119259319649, -0.11153685511221126, 0.16138996505440031, -0.6715108557059505, 0.11433927680208783, 0.3263493744059692, 0.4786966267835304, 0.2352735978455987, -0.10398999374390913, -0.43939023976131913, -0.12163292472441321, -0.2675674732818754, 0.027640835124330656, 0.014758839242007354, 0.14476199212465748, -0.18402812042465094, 0.3957807096636051, 0.37749515935281613, 0.6650343666101802, -0.23692271426238765, -0.175655123277779, 0.18048175545022613, -0.45582545384168205, -0.2896843098838626], [0.03347548596400832, -0.34634705255888326, 0.11138998414712413, -0.461450259829196, -0.1814125375499147, 0.3387729899656252, 0.12129259663269175, 0.198865031852163, -0.2032299780290051, -0.2619427512816779, -0.024881399836838018, -0.12984931801405017, 0.13059508114598384, 0.09304907244646861, 0.0050838247139017145, 0.204243635427449, -0.009163466744698775, 0.3609511823788562, 0.6367194244237231, -0.25535828347957706, -0.3358840097774305, 0.00038626743834195077, 0.10805489676055101, -0.0740824307669405], [0.004813938704026068, 0.27014149358297707, -0.21193971225396277, 0.77037981185134, 0.0954937952067051, 0.11543635543484666, -0.1674702650703319, -0.005779589862292607, 0.4806782374598283, -0.05766975411306601, -0.30998919657005686, 0.5269907978591958, 0.16015672922874424, -0.0954782663755214, 0.15668708974511994, -0.039476963718764, 0.004483352191285634, -0.18823546412575226, -0.8408032141639794, 0.9904888693218137, 0.07542590278077548, 0.29078746638276554, 0.27923211177040774, 0.31558733030493147], [0.06961598794716754, 0.21001423163694163, -0.34682191227747206, 0.59238918157845, -0.4506848137827109, 0.07537839684306458, -0.6720135856764415, 0.21139709252495445, 0.5195100103878282, -0.09148530753708918, -0.20266845667355743, 0.4940993746239752, -0.06399241436206697, -0.046820325233577584, 0.035159472084043346, -0.3286242485312221, -0.50519226245396, -0.35966569206630533, -0.37957535959041333, 0.7413743135260955, 0.39146973249824735, 0.45883100274586425, 0.023705458852973413, 0.5262980774188253], [-0.34857257927695884, 0.014267666343018917, -0.20669043841656096, -0.5863660567463314, 0.4496159384809119, 0.13826449096809992, 0.1735167045138501, -0.05400642250380495, -0.416391458715018, -0.44881937439790887, 0.12278490691106646, 0.018111356523641486, -0.08688071818671823, -0.0310406794389484, 0.22992956187293814, -0.0965619261082492, -0.11882083867840987, 0.452178471000771, 0.7360053305216842, -0.8891117914008075, 0.03716803249223999, -0.1502976542905769, -0.4630508995941129, 0.014158405026854575], [-0.23596064644933837, 0.5601388653361858, -0.06509141765334318, 0.576568238586932, 0.03952778877050289, 0.18651419626813182, -0.4133565975337806, 0.2230186070021266, 0.6257963319825891, 0.4381838889538069, 0.00499849111978698, 0.10573282489600325, 0.14980018023109817, 0.16289089502105444, -0.06832030203810571, 0.19300268361199638, 0.0943314224907884, -0.42961493618496016, -0.3437022833960135, 0.6084352264719441, 0.006664434861916885, -0.10985694429811178, 0.23279725326240344, 0.22622032734641392], [-0.2664099349479986, 0.08318832008889845, 0.25513098334687745, -0.15317378796120742, 0.3838715243073588, -0.31329816128147187, 0.24621888092296362, -0.08106697044566287, -0.11180777897547516, -0.27346431857081843, 0.04573807848672969, -0.40506836575203614, 0.06208380640616166, 0.22601672482206145, -0.200617922195605, -0.2563187479272761, -0.12575542071236098, -0.15616366736620912, 0.3421971522740434, -0.10383913386967582, -0.15396737539030364, 0.21184287891905518, -0.02992462868597526, -0.1661132406034225], [0.27158078697193616, -0.6234323567012637, 0.1931361493270572, -0.4405492359160031, 0.4095852719811768, 0.006829773008611725, 0.6006596730513099, -0.12791398181614466, -0.6349128280734562, -0.158905590136686, 0.2950769951918003, 0.02570244619479477, 0.11745601324979052, 0.2683741401713687, 0.13826107832968199, -0.2514000227834217, -0.09494257004679656, 0.3702397865014995, 0.6647414865829252, -1.086718871778648, -0.25622769507750437, -0.4891966271850382, -0.5774673845640774, -0.6499541995826124], [-0.0785936471978881, 0.14425341507955752, -0.05337292456691812, 0.4814406761150411, 0.18586339006598776, 0.1828362975737381, -0.5265510976588704, -0.19600543333612375, 0.1768553043181849, 0.34272364505431635, -0.013041510444057847, -0.14114570079986938, -0.04071411990439993, -0.2301778463155227, -0.20097897642242615, 0.2524318851450091, -0.2740518037652394, 0.1195577545678885, -0.38106653605649854, 0.5258962559149674, 0.23894000309965122, 0.06562791390978324, 0.17647942942097192, 0.11375880262543603], [-0.3388515664545654, -0.7307329432137416, -0.16431859116803177, -0.9055951972517483, -0.06514871743648168, 0.20899555038915363, 0.7187889206419517, 0.01938388434690283, -0.3967302328071336, -0.3127034320495773, 0.2917953008978948, 0.08597516284280289, 0.0590848980921892, -0.35566076285201126, -0.13075884199919546, -0.16730055145459288, 0.5481055716838577, 0.520322337958269, 0.8519642803373667, -0.9846420084421171, 0.15476927190803216, -0.35689463177763686, -0.2692657452195432, -0.06673023301372968], [-0.018248660400341787, 0.1365781308260572, -0.34467359304417994, 0.5075674669981535, -0.322912871264775, -0.3369451895385163, -0.7180186323050421, -0.2753542511145715, 0.68975731605856, 0.48367153274861296, -0.20578188817868734, 0.10898791379405952, -0.20573604694376088, -0.19681200084516462, -0.16072017655873205, -0.15194310499598157, -0.03163246972253927, -0.10009398033146902, -0.91318006728402, 0.952707993033403, -0.17048690280271916, 0.31043024912886524, -0.0737993302941588, 0.11050662299922011], [0.11156818693562207, -0.45159886135789934, -0.1998823139044355, -0.25145603141171474, 0.053914496098688106, 0.21315694337116248, 0.2566691675855976, 0.1586901188537398, 0.1800473521535724, -0.2907137810999899, -0.11728133884829048, 0.022338086889867152, -0.20526768236976956, 0.3544517500064086, 0.28001485734247245, 0.3142512821278808, 0.166809879067824, 0.39344269813294747, 0.1663104030057351, -0.22570257385343304, 0.048216538343963146, -0.07208774387778867, 0.23318042298219335, -0.1746764111985593], [-0.2685381365788853, -0.20807803421284296, -0.20470213478301494, -0.6595342441705462, 0.012156765845823416, 0.19784071947337176, 0.2594586315154109, -0.286863593314764, -0.5909215822683547, -0.18287726117928724, 0.06852686118149925, -0.09195005262220735, 0.30775969799253855, 0.026170333504951755, -0.2519022218582253, 0.17370201620015674, -0.023121155735162414, 0.6946775250153429, 0.8330379653998538, -0.7734672646349615, 0.1980304230372149, -0.038838212998497136, -0.511106749605257, -0.32239557204202207], [0.05841475207316567, 0.03580341273700682, 0.057125643172011374, -0.337177599909595, 0.21297422436806984, -0.1859100272770732, 0.486276801957317, 0.16828576699321382, -0.3747058402962927, -0.41471712189067333, -0.08112903146807761, -0.4275782993029105, 0.13823907059446594, 0.2661984706457988, -0.0021746225269540917, 0.24457860187815567, -0.19669724396550203, 0.08215913758122058, 0.3710408742665344, -0.3042642462215344, -0.41504175583700403, -0.43732461475802586, -0.4004255566852728, -0.23942912818206658], [-0.2772081830665398, -0.5336636697108945, 0.29242257764700863, -0.7850253907645767, 0.30162789097456755, 0.36419950572010523, 0.14049110560526104, -0.19937165143100005, -0.27244302844863416, -0.632870695884993, 0.17238932567649026, -0.38383400415020125, -0.05075940741835303, 0.25166994666248543, -0.4401069536385993, -0.13799165257506818, 0.34278990410673316, 0.6739568771419077, 0.7765687638819004, -0.8517863763058545, -0.10456839605217753, -0.24461686398910448, -0.32753805091576155, -0.6148483367049112], [-0.04057952775780332, 0.5447601446073215, -0.3947708802305568, 0.8245076303444983, -0.015159921165670031, 0.035278046481428155, -0.4276659787951129, 0.08200892009509374, 0.6977055547675938, 0.2910296770981256, -0.38966419405725655, 0.014767697580750264, -0.19795817596209522, -0.15341599865716513, 0.40729383669033814, 0.15160999927597288, -0.1581044691182356, -0.5558283562680842, -0.3785793290763219, 0.9764599803923424, 0.27530699616817395, 0.36769613079720864, 0.5266104965521302, 0.36532449784437027], [-0.2579275960313989, 0.30720542989037475, -0.11836985653776096, 0.13527506960376365, -0.3722723424348193, -0.28063149930079767, -0.2145159324099034, -0.24643207006025233, 0.45157602304393585, 0.3591347666410891, -0.036465310103807234, 0.1035388983686774, -0.09977802571994443, 0.06513414525243419, 0.09708931262484506, 0.08680082344863062, -0.3949718893354288, 0.16976191884662659, 0.021761783398324724, 0.08141748044650497, -0.042060661283166954, 0.15269077633128111, 0.1540855495577732, -0.04898023436781509]], "biases": [[0.0006696543421504573, -0.012144305545439986, 0.007932317329964146, -0.026828280421976332, 0.009438886689051363, 0.004485956433246037, 0.016280350343417776, 0.0011788186238389925, -0.01888202224992235, -0.016860420386078687, 0.01162243614941788, -0.00996548287415077, 0.0032761253540840663, 0.0043580815036464654, -0.004792962027846736, 0.0003617971819708586, 0.006529503898038176, 0.02152265640524227, 0.028016743429878282, -0.02859159892819777, -0.0027982081254503935, -0.012376604892069265, -0.0137245415820651, -0.014764466685506527]]}, {"units": 24, "activation": "sigmoid", "weights": [[0.13839717577112243, 0.2550363694688938, -0.003135648880964207, -0.018757941719452133, -0.1773372654560602, 0.1626574515229364, 0.13292656301878664, 0.2750042950406929, 0.17798915469766494, -0.08547510216263635, -0.2634981981609122, -0.3466905860067624, -0.07632299963091672, 0.0743836577106516, 0.2518584042035941, 0.027822121757272156, 0.21644089927272459, 0.04570718755719792, 0.09946450408732156, -0.21089811900056554, 0.18332119569222013, -0.0036023508083458783, 0.29417526578885456, -0.12586848780811338], [0.4074387642391499, 0.0891721457549951, 0.114814995212707, 0.13252061311798932, -0.38369363273833773, -0.1354557292569633, 0.29741395979125046, 0.2523679043042013, 0.12725461159669932, 0.16926562408933554, 0.13542734088476932, -0.09094651886493445, 0.3579527263372338, 0.2531270799788239, -0.3856974480735962, 0.14801513480197642, -0.28136203979019986, 0.24915611852859482, -0.43711796441324, -0.17212939880483336, 0.22363167738190953, -0.21783744660534116, 0.33148439910304306, -0.1424109881181885], [-0.12470720272056267, -0.20895124247953573, -0.06819483360021691, -0.018639230004005167, 0.011221848511431902, 0.21347117379940142, -0.24164575381523276, 0.2687260210280078, 0.4131912621638777, 0.2186132673577607, 0.16038519146934027, -0.1158316022749512, -0.30755136048507714, 0.19376659263030793, 0.2966730284364803, 0.30728060210546126, -0.25184059439020906, -0.05027317390018174, 0.4198497785798662, 0.2465544946907066, 0.05781563904372368, 0.07916291343079535, -0.24681091525215884, 0.04699275832632032], [0.3896773592494678, 0.11439026333250508, 0.1460996918980586, 0.5175837818837747, -0.4863723891362947, 0.375963853199197, 0.14631267760127928, -0.07078790162853413, -0.04107802821767723, -0.3577133312112083, -0.40404697455999394, -0.281681879028402, -0.11383358651760378, -0.37572806007483417, -0.133727723650074, 0.42515096163103466, 0.06170904558888347, 0.02461616949835584, -0.5145035757475124, 0.1423853446473, 0.2906829810353118, 0.10841947662772762, 0.46981654316568305, 0.19938276962930876], [-0.046740874857917766, 0.0795693853039405, 0.10713711137760071, -0.20901733433310649, -0.14819376271608725, -0.2528671503277609, 0.3084852996979514, 0.010184425189632376, 0.23878054590791828, 0.014364655781650623, 0.007519691991406006, -0.20603207342804214, 0.1948338397643567, 0.19390222874955088, 0.2733793302130504, -0.33093118790267884, 0.08646995179017614, -0.030579567154339026, -0.24042509894088457, -0.2747109973049215, -0.00781428469905541, 0.08406408707494352, -0.4089058773143807, 0.30829444959859376], [-0.32687715526626404, 0.13207725265670137, 0.14610574778034152, 0.05995987322066248, 0.09460423018783211, -0.0992890670004361, 0.1384705590848944, -0.3452952343068986, -0.19209019503246216, 0.2574858096771855, 0.21420434141730008, 0.30112430460674533, 0.0041822355284665364, -0.2803534766537007, 0.07620685598751138, -0.3056545588740215, -0.0757556351607906, 0.36061499129008967, -0.22625938595773923, -0.3624624073201535, -0.3116321537667967, -0.29463223969070224, -0.1316690290641237, 0.3226030623543119], [-0.3390487442496153, -0.25929438756253165, 0.11811113336461833, -0.4650644168534576, 0.23472496070867516, 0.07527255796343021, -0.3429477396694509, -0.11000645393836948, -0.07809442181708125, -0.03885687325209098, -0.13814961139637094, -0.1408865073913769, 0.14285143014623908, -0.06270685794533228, 0.25901892645666424, -0.018729822548001273, 0.08621082875756338, 0.22032255991620117, 0.07069987255907888, -0.5039324500648691, 0.24068041120122596, 0.34274849909441873, -0.34776535160533406, 0.38690287818876845], [0.011174221984666154, 0.19117802738029452, -0.24663565625669867, 0.08549869488585678, 0.05644447690231644, -0.1467302817002851, 0.3041191972902845, 0.18044701106134567, 0.28818074866214904, -0.1347291757376541, -0.3103988795625582, 0.07329188675360863, 0.11845512568686524, -0.058091734477335864, -0.09760338114184712, 0.23548027374965602, 0.30173826343403937, 0.32641468750877206, 0.2848988328129806, 0.12175607667299833, 0.3239775778094616, 0.13323158048366665, -0.212909754189191, -0.2952909496024317], [-0.14054549260855084, -0.10101840272012265, 0.05805281803221653, 0.21752699736816003, -0.4800479209989493, 0.008226010774023941, -0.1852788840201243, -0.1152954517276121, -0.09720802445020549, 0.2924622854205859, 0.2026309278930783, -0.27323441817680444, 0.20950106229253676, -0.11976021995059843, 0.012134456424982462, 0.4054988213715179, -0.29685320905818957, -0.3057448564478735, -0.3455100372507019, 0.41093925209458976, -0.24079768079562358, -0.3815489350165444, -0.1233781252668662, -0.285351180346895], [0.32590803712464617, -0.1042118891892128, 0.1508845161757402, -0.020894382692510358, -0.3103061475454063, 0.04247825321506304, 0.2776319814186796, -0.1850905965577878, -0.43212169656099025, -0.3071100952351341, 0.1141339433253142, 0.22640753116005652, 0.2178950898631978, 0.23604578766441464, -0.18814830332874374, 0.3320061671907341, 0.1080533405971258, 0.17037692322967665, -0.27356148366304694, 0.30732612056215614, 0.3242702764759936, 0.13635407107335207, 0.2946848902814832, 0.06683173152204734], [0.057620532720885305, 0.05307528662445906, 0.2972559498649177, -0.30853830518092934, 0.4613025264033064, 0.09727333322702475, -0.15184104852616526, 0.16346445651690097, -0.10176287699784985, 0.00956988322225255, 0.1409377328518324, -0.14636962936828182, -0.08907774960125218, -0.007650182109141693, 0.23539796818317368, -0.2327445175413751, -0.13199465018338746, -0.2789185106353322, -0.07925601058863707, -0.018057113166277988, -0.15461661296893076, 0.05005716057274991, -0.08970008660255009, -0.10482086647374703], [0.21974962367100281, -0.015532792465206502, -0.010298562819328541, 0.42743390583614604, -0.05407200001798448, 0.32007931777495974, -0.2720518379990028, -0.12873964828771972, -0.2199792496820373, 0.2528361885016298, 0.0998990500999155, 0.21108204329728397, 0.09998605876458735, -0.22084661468171354, -0.16532625212345298, -0.17667634676193186, 0.11459879656099436, -0.37320185461607946, -0.09018011764813906, 0.18900199276510551, -0.1427501090444778, 0.2611752603732679, 0.3822269648032996, 0.06963191969073808], [0.03202620744785648, -0.04663865333487774, 0.005441760147755585, -0.3041535411089258, 0.0459990183730009, 0.006572640314175329, 0.15518093286851387, -0.12587521023012874, -0.12842426040292884, -0.10089628308099031, -0.18530414890916766, 0.033626132493398235, 0.04896509743301197, -0.12039867696357538, 0.3624192334492486, 0.13267496427403538, 0.3623639788047859, -0.25738333848613765, 0.28307413451313246, -0.01292781523565903, -0.042679534338332076, -0.10273427586220284, -0.2380764729710513, -0.17145242916831605], [-0.31453169411851023, -0.34622398825316825, -0.07532704183937096, 0.04294833868487121, 0.24722104145253637, 0.3323103205161532, -0.20916098721069878, 0.28511608793896326, 0.3203770701043852, 0.04749910323307736, 0.13841777113331497, 0.1117379571139524, -0.1227463603860992, 0.1498911507374753, -0.2813391200325018, 0.053845938450253754, -0.2502915456834202, 0.2539303316594813, -0.2891340730166639, 0.2798158645426806, 0.05780290640805387, 0.17147571610017398, -0.030503224650351827, 0.33038168829292286], [0.1904030898593156, 0.16795780399544039, 0.3298834796089036, -0.00645748630582699, 0.04297621818337058, -0.06882237075941847, 0.21089214308265158, -0.3302590221389972, -0.20426992853779574, -0.10448132582462251, -0.14668052739155119, -0.017376905238445352, 0.26346537793181396, -0.056495386689469435, 0.32548376759213465, 0.06323736749054308, 0.09960971216243363, -0.02633110457427446, -0.32597572882667253, -0.06463872215724868, 0.004061003237145319, -0.334082794147887, -0.2892412840785593, 0.2786837508532878], [-0.08497168325660144, -0.21656946306472544, 0.06367937118048744, -0.014372010645091469, -0.26041893228038726, -0.2524952298381431, 0.18248634914311682, 0.19687409461988292, -0.2800041116536208, 0.2843203463959498, -0.28080353365574046, -0.3237733976371951, -0.1213761548433897, 0.10822186326726789, -0.1739180442802789, 0.12889767034471047, 0.21764259420190077, -0.12502776674765445, 0.28034330947552766, 0.13710656248013342, -0.24478088835470405, 0.19381729086825114, -0.3324694597065233, -0.23205607275776488], [0.16835899795647388, -0.155751816494191, 0.20050829110921167, -0.41825009270779645, 0.35125749148564794, 0.26984342764227026, -0.2011696335735978, -0.09613005213373527, 0.261571654339953, -0.1673567122395904, 0.07657851469622781, -0.28646166736221934, 0.02410353023747686, -0.3279477669361694, -0.08370980687433333, -0.03060579829819234, -0.12954905327082494, -0.045566104405638776, 0.3161461404809694, 0.1041338790789168, 0.24356296801970462, 0.22833128715476791, -0.11287725532265806, -0.07760049081449671], [-0.05177264999437499, 0.12162233588245368, -0.38993380674952266, -0.223667759831687, 0.2884913413790682, 0.1011326531918997, 0.12205417656613451, 0.23438606511292617, 0.3374589034249535, 0.13008734771703662, 0.31334610357452763, -0.07414181071731997, 0.16366254901851693, -0.16440909952408425, 0.020765857233758744, -0.3932981954845902, 0.3509560153514562, -0.20438688995903223, -0.02677206782468197, -0.36266613150751603, -0.33785826867149543, 0.10999533757331978, -0.39190069189962545, 0.03459042230492979], [-0.26241044275774256, 0.16679683319030505, -0.09409908628077482, -0.633552708541514, 0.39433659813505434, 0.17373243823746112, -0.09255356223474755, 0.2651779300928455, 0.5376334940668969, -0.06026896730008393, -0.21203406828795043, -0.06413908032791688, -0.03637149477135604, 0.2602255916622218, -0.07590425810756184, -0.16035347006833536, 0.47132600564202287, 0.40816606361867475, 0.08931038303412607, -0.5565307725903977, 0.1727191418726732, 0.0855049994191229, -0.340224712821863, -0.07807167259868089], [0.32387666697819173, 0.1724232680705355, 0.392360487296583, 0.34333834705003713, -0.23693805354183878, 0.21112813215253126, 0.20439721640511657, 0.21056145078732708, -0.10456507844768238, -0.02176603915225662, -0.34858737567566217, -0.018854583724458033, 0.06161961033560775, -0.06781701495261724, 0.25992629452615146, 0.42801842360796405, -0.44302567436995316, 0.09511944932781802, -0.5616458805742477, 0.5477929647307203, -0.06475969787162829, -0.400594170561414, 0.522576108605637, -0.09592046121146748], [0.2522547104671303, 0.20765481074588274, -0.0337266151183498, 0.19396331355144855, -0.05138307366776033, -0.13714258652179256, 0.34644538185886825, 0.167731348840811, 0.04237652393313858, 0.01614098004835586, -0.2837438166173308, 0.12827946716079894, -0.03880240305403387, 0.28805158875385284, -0.25534197160009786, 0.19209016244290517, 0.2591097691139665, -0.17017690663650611, -0.1343322046200859, 0.2690450294374156, -0.23420059687608286, -0.06888887230075222, -0.1504539408474003, -0.26219894879005834], [0.28184401432136624, 0.2545833899964261, -0.006528952270947545, -0.09573506156334795, -0.03130283014272001, -0.13635285409927092, 0.3613252296326644, -0.3419801691506699, -0.2785818540987869, 0.05859744732755248, -0.27629511333899476, -0.3067909613411256, -0.019992617272578214, -0.35292104485825776, -0.03633292508024518, 0.15512883671180533, -0.05673020994577381, -0.3641226888045077, -0.07667270252162389, -0.01548736809550342, -0.24715154922920024, -0.24090614707960367, 0.25081601586526836, -0.35452477924100917], [-0.1709427404242797, -0.049967331899261884, -0.10569249391872547, 0.4827105737402314, -0.00041261437918174563, -0.06102787982920944, 0.36148417751934736, -0.08610050490940528, -0.10944329887374442, 0.1851904962035746, -0.18536270970778718, 0.11161726337191698, 0.3330326686187882, -0.30463504733969526, 0.04820953946955136, -0.09761622373258225, -0.27467473526169517, -0.389209748327305, -0.31150714310098504, 0.058016922378504004, 0.1832805372561472, 0.18404738924864014, 0.4379123694941199, 0.26669419946252754], [0.20667447708622033, -0.30952924565351875, 0.20178105975382113, 0.31603155022605395, -0.08907014693365052, -0.10374206106365498, -0.23886988544778878, -0.007994571678748112, -0.4649356357365506, -0.14928833396407756, -0.25141642091602434, 0.34166343985616093, 0.30074201189503447, -0.21747515073810858, -0.323025523069462, -0.22428022056194125, -0.3028225384257588, 0.04112649293573124, -0.2759313039757773, 0.16622795079201141, -0.12627892437755003, -0.17067360723474576, -0.025082987098363665, 0.23254174759840235]], "biases": [[-0.003122597366401126, 0.00011509427270749579, -0.00162407976734369, -0.005010776820717009, 0.004542869811854249, 9.315152012107719e-05, -0.001655865405690362, 0.0019877047411798834, 0.0034273485924649497, 0.0005873791847245659, 0.0016798143468116878, -0.00022715503637290338, -0.00116134833157191, 0.0016216468774432188, 0.0013620093114159225, -0.003693511041148866, 0.0026870652015569684, 0.0011196085382350121, 0.0031246439215761113, -0.004258731007811482, 0.00011175122408485327, 0.0016173669850845262, -0.005062860414262215, 0.0004059114403375224]]}, {"units": 2, "activation": "softmax", "weights": [[0.059627061502293105, -0.5578716421912372], [-0.2627633795748682, -0.3728045567320935], [0.25309126529933446, -0.015662347721971646], [0.5852869104365176, -0.46141512302468446], [-0.2963463701418459, 0.6223372913076698], [-0.30864725245760544, -0.39944881529816295], [-0.31590211469800167, -0.4351251579081623], [0.3104024479022357, 0.34143420298631916], [-0.27545528640592803, 0.4496335379082786], [-0.23849281728811653, -0.13996577211106223], [0.22133596236320885, 0.5312002902071401], [-0.1458573505350638, -0.20093860357780166], [0.532136268510059, 0.3221025977909642], [-0.08921043349644801, 0.19502502390674048], [-0.038798386897941746, 0.20812509489204928], [0.5633107268748866, 0.09587703363280847], [-0.16674067572491766, 0.459895663678496], [-0.2729779866376266, -0.005317588371434871], [-0.26700418821522226, 0.5301632294367564], [0.4937145365690884, -0.323443212665995], [0.24042564106372052, -0.046984971007401774], [-0.2215392743113585, 0.41050951337496305], [0.612033649693378, -0.11612733122532817], [-0.2747149473987576, -0.07945681714096701]], "biases": [[-0.001982987805168513, 0.0019829878051685203]]}]}