{"layers": [{"units": 16, "activation": "selu", "weights": [[-0.1613386400082069, 0.012192064366045528, 0.12521687873222978, 0.2832400742169139, -0.01453787637779154, -0.0318426287978161, -0.1337806530870692, 0.21698847712586558, 0.00919043164852882, -0.007123765334344992, 0.04526286676251723, -0.028876762153144987, -0.17256186709007457, -0.3200090871913544, 0.2717744568908094, 0.48850085913603497], [-0.0490251826979531, 0.0929140799888202, 0.19144974383256266, -0.1742358761758941, 0.047390535886535926, 0.13271700281653792, -0.04561112888051379, -0.2317928868430939, -0.2525194047841949, 0.15528018631754772, -0.09427752824852774, 0.007441108100995487, 0.22543267569581857, 0.09777192184795194, -0.010880424055264577, 0.3013025166763777], [-0.21726882131823017, -0.009291279245570747, 0.059561370898787686, 0.11962199467156366, -0.11655596045863095, -0.17694996436251595, 0.08463145793434974, 0.011161179254296862, 0.016249782358020996, 0.13335706945387923, -0.16190033179821137, -0.13401437457740709, -0.20687129697354278, 0.2804155301070682, 0.08721074477273345, -0.09392142347931128], [0.005608488016748289, -0.01973722992227045, -0.005938732396934357, -0.17982106611528598, 0.04482922056869608, -0.3504173037726832, -0.14247553546137426, -0.20790275364845598, 0.2759370101638562, 0.04519421175142756, -0.0632551741921667, 0.12444676965778367, -0.2865323828976327, -0.055988011211179106, -0.3269883241006914, -0.026330274256258057], [0.0800953081765698, -0.05496864705757415, 0.07428463813113428, -0.001311177263658361, 0.1113987346542412, 0.030979007831001663, 0.20586165488584052, -0.051397870138203246, 0.015848822428996285, -0.09396118461750047, -0.08649731410001701, 0.0785339996097917, 0.06609655306734327, 0.14477587540441478, 0.1679733862289874, 0.07054046488602714], [-0.15041920034169037, 0.09463567136804064, 0.254015085192981, -0.004088110142833616, -0.2534965172321856, 0.031866296867281575, 0.20951202538977823, 0.26278588153021876, -0.35372927702089624, -0.02672046907303814, 0.015819859773977155, 0.10437747010907865, -0.10623179095725692, -0.15863147873738928, -0.025751204903064522, 0.13308719555347737], [0.08412740237601728, -0.008706318525477727, 0.18514451389297226, -0.2114526351315796, -0.06847694789911861, -0.07096679736613874, -0.39700463145466786, -0.09920846783042987, -0.10052484386028566, 0.14717306031856395, 0.04259032591243232, 0.014385650457321132, 0.219358401820423, 0.4617157946906582, -0.016377887561746896, 0.004096260748179574], [0.043182966021583266, 0.011397740902603102, 0.13238942362042644, 0.10761769361689928, 0.21210119412945516, 0.05672925784171247, -0.0971641346369636, -0.27261811202690756, 0.05637549031501882, -0.40981271481417164, -0.11779105606321102, -0.4607231578201867, -0.12952951029565613, -0.029848825155114257, -0.13257562501592354, -0.09498323024259624], [0.21427788509568918, 0.21462522535964482, -0.013387436711546206, 0.06209537486236617, -0.0165574368120739, -0.3014548116317651, 0.01220541170627167, 0.06192669466814156, 0.24664787137263533, 0.13608040797667295, -0.07264018341916212, 0.39529430383308334, 0.09521956755322604, 0.018222957438088935, 0.054884222331259114, 0.15506560257669083], [-0.16279654227606435, -0.06169719155187026, 0.2953083141196409, -0.13731257292074892, -0.26541261271676325, 0.2444460429784091, 0.04996661716821877, 0.26133110626975475, -0.012922785301303278, 0.33708189845190073, 0.005188970920723878, 0.07143114122330912, 0.06696421742514141, -0.1755100215740255, 0.2667746363550178, -0.13491849001566822], [0.25466270628198145, -0.2353940258267788, -0.3141606470343844, -0.3595865440535497, 0.1576635394228192, -0.12389347630339811, -0.011285449873657679, 0.3487458250131315, 0.3002277753822333, 0.06372680428216707, -0.12046509528347922, 0.018868615234554745, 0.0901998677382242, 0.07762047712815925, 0.11693680855362863, 0.15054563904103346], [0.25666362740442894, 0.0028527477468822306, -0.07709290447088868, -0.07220007158716013, 0.12381254720523818, 0.059353762806362634, 0.03919466542688501, 0.0006424838363759531, 0.15243409469004063, 0.09667588502837399, -0.11516557344813808, -0.11126691520211368, -0.16291897150936668, 0.03891172689106456, -0.3133876521331832, 0.024984377180826706], [0.02773461963150702, -0.1451870777185275, -0.05920351585064968, -0.044011752241598624, -0.008916732998784201, 0.10580292401031549, 0.12573601614428206, 0.07384905603271744, 0.08812659275735968, 0.035309888004691266, -0.1789751855091225, 0.09049857577951285, 0.08646025380877537, -0.09351823063871006, 0.12069232229908679, -0.1368174247785913], [0.28888556938193427, 0.22561384102986257, 0.2503121127703519, 0.08412832796074352, -0.1958026828481322, 0.007876917180891858, 0.05995009514507872, 0.1724681867461225, 0.013486096278169381, -0.07903999969157854, -0.0012857872876358215, 0.1932902752551374, -0.1393138409361744, -0.0017575161680876365, -0.09622298014989815, -0.29713788517051826], [-0.0843754303595846, -0.12362436104748929, -0.08383114876023029, -0.1601362685739417, 0.19296168682292486, 0.2679888358928334, -0.003865228775388665, -0.05566697833722849, -0.1469566527550616, -0.12347002443417097, -0.014413313075806237, 0.07124787221319054, -0.20616348381268873, 0.06003897266021993, -0.269382665586686, 0.1681824875901537], [0.2613956631113036, 0.2917039913765699, 0.02921609817950109, -0.28693290761936935, 0.1267447786244499, 0.029029733098235717, -0.1440690673138049, 0.32370179323924675, 0.024005100823944595, 0.04371844584876217, -0.049515476398895725, 0.6927114177310664, -0.04105901537841661, 0.0032830460857862145, -0.19256367403963026, 0.04050519929242877], [-0.026673921536494546, -0.088963746193488, 0.12744962889811223, 0.1157153391767346, 0.0004728302099262413, 0.11960730483165356, -0.3813045205606922, 0.2607254334517807, -0.041020336391514214, -0.25487206700249077, 0.07483185768617495, 0.0006674011789915556, -0.10322109521556892, 0.2059955861810721, 0.3592386640387514, -0.10665918359988873], [-0.06431847465253447, 0.006733798624741508, -0.1861113849273289, -0.25715676517520714, -0.1419817579329998, 0.05796749920702179, -0.05627530513880277, -0.1492656464585194, 0.2508703500187174, -0.014436705826838682, 0.24156217033386365, -0.10529383015963921, -0.13511813564573072, -0.00020146448656610397, -0.18365658286039027, -0.051383569208984854], [0.13510849888972745, 0.11130508355943458, 0.04229981463002454, -0.2539708272602017, 0.09135132754015933, 0.0992286268728011, 0.06227712645832244, -0.14034932642853912, -0.0998682487180587, 0.21042753428721916, -0.11644741252660619, 0.3053168774832552, -0.03988311914882735, -0.09004958780816273, -0.003476450451993308, 0.02502276763544347], [-0.1427425008029889, -0.09525691597088772, 0.06250520166727909, 0.034481881718373825, -0.031943143058370795, -0.02829678081043181, -0.013269580318877355, -0.1626619119617829, -0.023028054290050323, 0.21890932692882073, 0.25568801321064644, 0.00820617930582279, -0.14110368743581575, -0.15349182758382868, -0.14538886416777058, 0.4046392162386738], [0.13132721573443562, 0.04710986675737848, 0.20634410175473097, 0.2936451429294347, 0.22695689258347315, 0.09875661130218888, -0.16101870580993058, -0.18380864045885129, -0.0928019433002538, -0.03902412100414719, 0.08714292252139968, -0.1602562564034393, 0.28801773661988256, -0.15272458267882855, 0.004674710754437119, 0.1570522004740105], [-0.05389620524980629, -0.08185952346169274, 0.22869839023874225, -0.23453709532773706, -0.3187888055166032, -0.31874993382270006, 0.2956264817648886, 0.07822070707832147, -0.05201560684215695, 0.1429471364372778, -0.1572006301005577, 0.07491655832827843, -0.21395401898893182, 0.28921370223724613, 0.041177876221144646, 0.001860021414806316], [0.3233554389220249, 0.297110269407911, -0.18237918668181768, -0.007433695106308185, -0.1885872541319707, 0.190160868135992, -0.008479876796244215, 0.2112096015747211, -0.01813810568313516, 0.3787422508557819, -0.12875389129514098, 0.06155094749429235, 0.15655425859997477, 0.15367321427699468, 0.001547309639634055, 0.10463337033448554], [-0.19151457435226127, -0.10028335460704133, 0.046837710364457205, -0.3176959635441044, -0.017292957532379416, -0.14400955168529084, 0.1873139973358807, 0.06098572462467729, 0.3086468036984184, -0.019341538007222644, -0.28438931493500663, -0.0050740504715868825, 0.030040332570455255, 0.327518725943085, -0.14177359300021272, -0.018072721103181685], [0.12269267624180047, 0.07460814426299946, 0.06213671312159381, -0.1852033252777944, 0.1294110358246902, 0.08916648839745772, 0.1894030109665932, -0.2441758694827425, 0.32963059772237113, 0.46470358731847256, -0.2175200607509573, 0.17018656489772963, -0.039169787242799, -0.17647934243025748, 0.08230860356585204, 0.05257467204651909], [0.1884004415476683, 0.20234111715708403, 0.3712916327960231, 0.11144641283269412, -0.06697886867354856, -0.10046840248404341, -0.011324808802974647, 0.1009465644487439, 0.009180403330196176, 0.15937353012081243, 0.08634365602705608, 0.025053220828034444, -0.39011690662472764, -0.01778776649059159, -0.06703542486180845, -0.22490530190203864], [0.12278119692983071, 0.11675152721664887, -0.03880526105928395, -0.05927216256094067, -0.11259116075225947, 0.040724425885037926, 0.04425423082234823, 0.1635334392419592, -0.020886387156333727, 0.15251812042841234, 0.2209913028552992, 0.018748723715014716, 0.07337095223159942, -0.021762286430672035, -0.19865889667778405, 0.21505206811044697], [0.1147813654948052, 0.1930407111303275, -0.1687506982794793, 0.1440316491431325, 0.2047780037660876, 0.051082831749749404, 0.04958689528550843, 0.09289551087773111, 0.4342555323863797, 0.17283899308964684, -0.042218060182265045, 0.01195349623693126, 0.12211058349234015, 0.1697045530719345, 0.08632159675580155, 0.01636820195801409], [-0.19236915488147566, 0.13147149001371777, -0.23755688657171142, 0.10348710134901615, -0.10728587499186895, -0.24575291609813296, -0.0937625237268866, 0.000533218079698168, 0.15604324716524662, 0.006198092889767233, 0.000555553384612307, 0.2919323120011026, 0.15953119219321776, -0.09072555752906153, -0.1342784526111962, -0.00535053309232676], [-0.22837270338540952, 0.07915033932932074, 0.29726189686570786, -0.07997785483333669, 0.13566233518498763, -0.32546964895276315, -0.2466700026271971, -0.2658256945314809, -0.030002588248758837, -0.3967017101360219, 0.06293667531053491, -0.09985517512124571, -0.051035494436735405, 0.07925418924900524, -0.0029297522467471543, 0.0351554597824798], [-0.08189729231349031, -0.17732734262013916, 0.41057185607468805, -0.15381895950868624, 0.06377059940227743, -0.10312486846071792, 0.12196991111481802, 0.17759649151878365, 0.23512374369725791, -0.20527742988563763, 0.11826897787745759, -0.2281395793364774, 0.08552110021778352, 0.11567711596113263, 0.16122355014870746, 0.23881593522064837]], "biases": [[-0.0026130089251866113, 0.001224955606146074, 0.0009452492598558135, 0.0004153483971827686, 0.002699965071464717, -0.008731618633539554, -0.0019500317197107537, -0.0023678326783957773, -0.002321324792412899, -0.0001496193541577482, 0.002524422327126014, -0.007883741603011963, -0.0030242707726598986, 0.0023887264035785394, -0.006252012800361654, -0.006567588052672101]]}, {"units": 16, "activation": "selu", "weights": [[0.09792297496505258, -0.12041505269292858, -0.1586101952753249, -0.6090443249419928, 0.2177474815517804, -0.1196767528098506, 0.08509541488617049, -0.1177313463018532, 0.14879693017821216, -0.3198731425962611, 0.3226359574734038, 0.23227637741461754, -0.06507029058546292, 0.29656945883366687, 0.11404178460894646, 0.5413641278921081], [0.43412557119898226, -0.1664150503248917, -0.03428646639011084, -0.026107907538840167, 0.41643344006042177, 0.4493741086132012, 0.358737265334325, -0.07986818321191207, -0.22383232535906183, 0.2915891813571204, 0.08177124480391748, -0.36912905028360643, 0.11271246017189362, -0.2713737630098018, 0.46182065367832875, 0.20469639471704754], [-0.3064548313531765, -0.08991083149895393, -0.6536784090809544, -0.5124147901852775, 0.17108860811600166, -0.16295906902857654, -0.03051183880059756, -0.004192415455757075, -0.12066577347943014, 0.29455501348994906, 0.2113497972923389, -0.276690238461819, 0.05094497332622094, 0.12995109105316419, -0.18045819239137795, 0.064928962052797], [-0.22077111244305728, 0.40613774329567365, 0.1356814669168834, 0.2739752041300365, -0.41623345485100677, -0.1620952997175018, 0.3182567934269778, 0.48582747186784986, 0.2061816158014163, -0.304453924045378, -0.00993719202085639, 0.04953019089759244, -0.17067169046612116, 0.218609962394771, -0.042275260213766465, -0.12178797038415808], [0.1265536235472759, 0.3587405104188394, 0.17150179479955738, 0.0740282069266368, -0.15302679683765574, 0.00152745991465194, 0.22469538879016576, 0.5680058517907459, -0.10399565962982879, -0.2086970229523085, -0.25548675264136617, 0.06946263069110646, -0.13849843204095294, -0.010304384791678035, -0.19850760420277114, -0.15864503596173016], [0.2555182116431165, 0.12772152580573182, 0.048528932310705944, 0.14449174333811227, 0.2854883123301818, -0.09019098402616163, -0.20576996688635685, 0.041142803618566044, 0.0935727651765424, -0.2312626596288127, 0.049585352954886405, -0.3671728477387188, 0.34483633995624485, -0.08934023468912376, 0.27363340383331985, -0.09569373014301313], [0.0694983135026251, -0.055747007348925987, -0.21642574917416765, -0.19419642650853478, 0.1770773100062959, 0.2692720210695887, -0.09382800550941713, -0.37587243683388516, -0.041588210593299854, 0.04478034364879587, 0.03730365730097932, -0.29341075893657237, -0.3847488626531176, 0.07575365971208176, -0.35045228764893077, 0.620363680716645], [0.3834021857807565, 0.08653163338135365, -0.14177423662926494, 0.06062343321924154, 0.12229113828611031, 0.02557273001196227, 0.23975860468978052, 0.10708279040370117, -0.13877664731040748, -0.24540267717115533, 0.0550702891808347, -0.19460419245129484, 0.10065955803191484, 0.464550634941161, 0.03918135951854469, 0.0910623052932653], [-0.3778125915767874, 0.12937127190453424, -0.2915624806706859, 0.8731567495837387, 0.44364721713726135, -0.010834932149480524, 0.07476548641706203, -0.10043637783461243, 0.24381808414623202, 0.09199787395315948, 0.09689521594717711, -0.7873706541216228, 0.537984744813873, 0.11009887528290206, -0.09391930796668481, -0.044639023380723925], [0.09628882482181475, -0.18876747165836594, 0.03376847969993216, 0.15119094554686954, 0.37668722097009677, -0.4562830312316945, 0.4094214008618753, 0.32460730786017067, -0.011445067423581319, 0.22388109275989265, 0.05975739853141438, -0.10669218067143232, 0.6261127535663693, -0.3631530207576895, -0.09134205239929362, 0.1990919611432035], [0.37483554770299854, -0.510088413041677, -0.3525997952529144, -0.30550982862715204, -0.3211267683165223, 0.10801402434603445, -0.08170922326794645, -0.00830164096354988, 0.05755573538250962, -0.30925919842995625, 0.09048272319074978, 0.22336714410078493, 0.00835630438785617, 0.5106717045470873, -0.0029122301176357, 0.36024668728582493], [0.06681340402292041, -0.052407432557005904, -0.006871435469070802, -0.5262361626310156, 0.006324370861197578, 0.17962840815530295, -0.34983471502682095, -0.20712347151389235, 0.24375357872787737, -0.18375696279024173, 0.4840633602096416, 0.24969528915682132, -0.16931224522253066, 0.14497482008685697, -0.21832115145448341, -0.4099735081603717], [0.025849049954636993, 0.5033580371178435, 0.060957469085664476, 0.3232467102655343, -0.4719653848828358, -0.13833750491573674, 0.13214948343768596, -0.10783616851427281, 0.6147603847536356, -0.0999524851235892, -0.05714990356675771, 0.2545439122350004, 0.23759816798447903, -0.03782219213192924, 0.45253317833012147, -0.3121555397423973], [-0.48447567726248464, -0.00903757339458138, 0.11882748320743629, -0.09685360970720185, 0.43418844553877206, -0.03436798756198684, 0.2679893418350478, 0.21754569894331685, 0.0831064280790481, 0.6211073207685361, 0.1337221465358725, 0.4261902806200628, -0.5287372186985072, -0.019003570322184346, 0.05840349076449434, 0.4296749111956869], [0.03436337553969248, 0.3542165201971605, 0.3416496875161786, -0.21239921249504568, -0.4827274828678816, 0.040772937945703636, -0.350442316144907, -0.1991992780252965, 0.34855596519907767, 0.07300154017184352, 0.001552089900893243, -0.31591870777779585, 0.34581431475734903, -0.19035180989587566, 0.1246814806905862, -0.30772705149754054], [0.11858025156769178, 0.32698831013091634, -0.04038244307110168, 0.19615492629528616, 0.2266464176954549, 0.16905068180258878, -0.06080764641085702, 0.2321350340559856, 0.06590798715355455, -0.02232299112168174, -0.060346980197358666, -0.35306881957016084, 0.1508411450750895, -0.343600587432874, -0.29291257180532193, 0.29261125683697753]], "biases": [[0.005274802859762971, -0.00011913647564741839, 0.007760347030766202, 0.005323092607014477, -0.0012813690307814794, -0.002255177252131418, 0.004824166497637612, -0.011307989748960237, -0.006001690927076209, 0.0019253025202902998, -0.004067242371730776, 0.0029099372360717746, -0.014552168861998512, -0.0031604071821138826, 0.008881091856474871, -0.004378962617310125]]}, {"units": 16, "activation": "selu", "weights": [[-0.0628289957214678, 0.32517312783709745, -0.22663992244900524, 0.33072499003027067, 0.3368696656603554, -0.1611589624688747, 0.16883302427691083, 0.35052552652937974, -0.29043965533473387, 0.40655705145654897, -0.49570394921145505, 0.010555324497220648, 0.07675997105493562, 0.006112604768943029, 0.4822683762340884, -0.13407653204142286], [-0.09279157941483998, 0.47372792677685976, 0.2413022438430098, 0.19495756450202095, 0.22073722520493544, 0.22680958495645984, 0.18213664779528607, -0.3639382626928434, -0.05002874584653378, -0.1730181456827289, -0.19910306338237557, -0.2638811407902872, -0.32485625927274225, 0.09387116643366196, 0.27273821170480245, 0.2333770259107276], [0.23572940359151598, -0.26204206308050426, 0.19039058896384284, 0.028704870496114785, -0.09070356362420226, -0.25868066303375153, 0.04709835966347429, -0.07922031195295039, 0.3935324672312186, -0.0013568017717666906, 0.1504055847048453, -0.48873910030644296, -0.2353355984486237, -0.1473417167926436, 0.03833099956684554, -0.018693167638419342], [0.26473007184201863, 0.2622724970258432, -0.08280136235968658, 0.17024988679594666, -0.48131818150907235, -0.06317075873900026, -0.23088699193909215, 0.2422332225924969, 0.43997791643518286, -0.05237902279107454, 0.3053555880114998, -0.13037345756500898, -0.17440701736260275, -0.18117426807452808, 0.2035011794159297, 0.044569066912953516], [-0.26070438739148555, -0.2675598010444233, -0.1900251498339234, 0.13754892893234053, -0.3990229031971805, 0.4206289202470547, 0.5678638854876613, -0.0008996148829634959, -0.4773078098236623, 0.16187622071774577, -0.05347216191087133, 0.27584394392610534, 0.4379069051470787, -0.19273416822669112, -0.19199951941384358, -0.12572230742170473], [0.17382543957144841, 0.1587056653913357, 0.32666748523340194, -0.11782706984885426, -0.27157769375212215, -0.33326048028873173, 0.02390711499657393, -0.364966555794157, -0.2121123985940573, 0.008480114429863765, -0.2398520035554818, 0.13225588296721125, 0.1685096585325029, -0.13906846265050218, 0.0979567983995996, -0.059293757306212454], [-0.41838247209883506, 0.2937363123591925, -0.42679966314781653, -0.41837374842200503, -0.4248400031535665, -0.20086851725876148, 0.3244793611579531, 0.6642366538516505, 0.19967368730761134, 0.05047032175048076, -0.04959959093380981, 0.5117255704549257, -0.0683508531384986, -0.13986617142815455, -0.07076757135949975, 0.03488222864970169], [0.25767729152015156, -0.052852790358899636, 0.02818717870430547, -0.17231520529389718, -0.0009312921533425752, 0.20744490605128982, 0.13687290113300643, 0.15842529071371367, 0.1378106953079907, 0.20549949720153607, -0.39737678792069264, -0.22569115270339937, -0.12131857267063728, -0.003910403192847576, -0.5936383855137106, -0.028108662772503647], [0.18595635337665414, -0.22909661574117107, 0.17329975927379773, 0.09890875554455845, -0.08664051823998271, 0.19765505608286182, 0.0920190730832022, -0.005550653886329344, -0.33397393916336154, -0.22598817781850325, -0.020694130403550774, 0.3486345646543862, -0.04499434508749066, 0.6279035239124494, -0.0286158676496333, -0.18682859333162133], [-0.17145688059690262, 0.5273399232902509, 0.29545889094514965, 0.25799473813652, -0.10698988184836973, -0.5788963511606076, 0.2510508441600913, -0.29792982302382853, -0.03636618138953439, -0.011629930258301509, -0.024070533722380754, 0.03345257261838779, 0.6178505142587416, -0.40123963470159907, -0.2871075361437852, 0.3848912587233439], [0.12534329706349992, -0.12322134178935465, 0.4046986466033636, -0.1978464962192453, 0.23580273072941757, 0.14376730537966223, 0.16688725896753337, -0.24310683002650843, 0.007314210788037338, -0.0024656686763114798, 0.21783303288395928, 0.2318213621819511, -0.44055104060194655, 0.2727812762925802, -0.6232915400517173, 0.3222031848623644], [0.05962532402789623, -0.38128988513840106, -0.08092858788347275, -0.24809564962913178, 0.0995462243244608, -0.23567506220065723, -0.3601607301019496, 0.05217105444942016, 0.3994827160799476, 0.11082512777897953, -0.06160665678661195, -0.809066139203215, 0.0034619700784464195, -0.027152249765540752, 0.276452044162625, 0.37898877432895034], [0.12804254770885803, 0.16852227558413232, 0.1343044861636399, 0.08958299820638932, 0.052377874458262384, 0.2508474591526873, -0.07759855241451992, 0.3065993368049713, 0.2630506699293426, 0.04074117720453565, 0.12873567900208022, -0.4666329739435977, 0.0637315844788684, -0.11622921737099924, -0.42849163910750554, -0.03728342849918758], [-0.027288847293795725, -0.062726725899862, -0.1915062504588916, 0.17612411056080535, -0.19328789776794872, 0.23445186398535717, 0.15760180248522432, 0.2206675260533834, 0.1742068686682793, -0.15637404314162717, 0.13963317004357914, -0.13912593235562248, -0.11096615276781241, 0.3071068792379322, -0.16923033085787906, 0.09992974279132098], [-0.025961363652671522, 0.17626154478133438, -0.4681766936786874, 0.07732638423515407, 0.05520396771916463, 0.012484018892388607, 0.20094041278432223, -0.2766760049676446, -0.10248981710990936, -0.4813779320170822, 0.10183876048448565, 0.1711962664520099, 0.14122474358744652, -0.226940613275145, 0.3108241535406937, 0.31002836075559276], [-0.06783622865164785, 0.0196193116902177, -0.09687587503853731, -0.36024080933579467, -0.0943047464841075, -0.02709575105883633, 0.14582553582679836, -0.12229972261476159, 0.13736298009279815, 0.007582164192176784, -0.058749141556951844, 0.1451078038905461, -0.3882239018289368, 0.07544469801272911, -0.36507376200409064, -0.1510895510859818]], "biases": [[0.0022707687839005, -0.007515210641885414, -0.005314982808248923, 0.005860683483556304, 0.003942084059927739, 0.004769237926149828, -0.007796865091107422, 0.0018799298358609172, 0.007593500506294411, 1.037958736303129e-05, 0.0008981098388463351, 0.010318173721692704, -0.002733908268623459, -0.00333134772122424, 0.0023584205410908158, -0.0032528648047260933]]}, {"units": 16, "activation": "selu", "weights": [[-0.160480275311466, -0.028247021765762388, 0.1666388223104174, 0.42435144370354055, -0.503826476478049, -0.22322710587776393, 0.2896062780445423, 0.1061388730044715, 0.18801663740589142, 0.25141874696786565, 0.04425324908055975, -0.04456318956854829, 0.15873483480305206, 0.7287045613035275, -0.41911733905279663, -0.0865280404347462], [-0.582338117612376, -0.12992901648335878, 0.1615924838837071, 0.08020894140145521, 0.03731731138276362, -0.06516443471882813, -0.036344388945100656, -0.06508071548659243, -0.21341842588719104, -0.019235198110510714, 0.2961570285912864, 0.011859583205487748, 0.17019871832251235, -0.17828651195536777, 0.20252825211268957, -0.010058551900326732], [-0.018466077143323788, 0.36600881887535175, -0.09408096206304056, -0.301736470555455, 0.13633379127048523, 0.2921776517825367, -0.26084833700439447, -0.2681116592765342, -0.20735675706150733, 0.24891534045656033, 0.17020646155248342, 0.39970598251749473, -0.14455048221508507, 0.024843441538624826, 0.08223628226314303, -0.0366972900851736], [-0.15302916167067795, -0.20568247394509365, 0.33015887705716246, 0.31273416555418504, -0.41733215066783685, -0.059624913915957256, 0.022611958435830005, -0.17158070363384087, 0.10821132580504866, -0.13245154397683628, -0.37224094691712695, 0.04841592644586229, -0.22416823723932447, -0.11984424853640445, 0.0646073741452723, 0.17441630535315628], [0.4468104839469542, -0.07337732758302393, 0.271025095937107, 0.1679053999546862, 0.002515453030617978, -0.3158222005417028, 0.4459016332554201, -0.07423791299885049, 0.17648688519431535, 0.038529021065588545, 0.27462350362606275, -0.47768352033446626, 0.07216806531557082, -0.05779006596318073, 0.1529427110095421, -0.23792759059680874], [0.26571588274767227, 0.14750309321175564, -0.1604893597022841, -0.0988288999650256, 0.2736692073906703, -0.056608791052229046, 0.16692004142061753, -0.13156588248452808, 0.00839937869466754, -0.02769611415575389, -0.12336868265362275, 0.1417413289919922, 0.07840245738620567, 0.5520293760052342, 0.08530797982369293, 0.46535671312736576], [-0.188977758814799, -0.23718107469353986, -0.18802755490362277, -0.27294159717774574, 0.020266832342007157, 0.21323693918366113, 0.0785198006146458, -0.1011972059882187, 0.003334722036263756, 0.16529344242648894, 0.1352234331531116, -0.10482555924053064, 0.2298029435238209, 0.07584697431923175, -0.24139441718398638, -0.19312884990911752], [0.18543757055676446, 0.2832940386054783, 0.43166576605770784, -0.22255651440004603, 0.1488542442621551, -0.18430572695158023, 0.10764212041879033, 0.3271179150250577, 0.09520790652162475, 0.25990834148572217, -0.25774868867646594, 0.00731668140004999, 0.254830377888668, -0.060533159022362365, -0.007112971158983279, -0.08244472122810405], [0.30409626954514457, -0.17528287561021783, -0.3342818378581209, 0.44565496310753694, 0.1479858523112618, -0.5537759293157314, 0.054915253153416735, 0.7046184183220621, 0.050493895769962216, 0.1363571463507343, 0.4513051605578353, 0.15947872472026187, 0.1105073029205405, 0.23369627712214636, 0.024370960563241867, -0.24585558011170613], [0.5626009270132799, 0.17872167307368375, -0.33768332346008634, -0.6536625191232835, 0.5505462460899782, -0.2740698552651124, 0.3590576832452987, -0.03433062344454416, -0.3755659831389932, 0.21290965920617172, 0.4793879770791195, -0.20570088267778586, -0.27780021564306434, -0.7956599870861765, -0.07715484676702841, 0.04051089779151835], [0.4349749557993015, 0.5247094854150988, 0.36765317798175645, 0.0015891843897235724, -0.4813218947038102, 0.17780353122863604, 0.13293183572956077, 0.04097423205778304, 0.022903882045054183, 0.3304470686910951, 0.23288569020825356, -0.1342043899902784, 0.17604952930355366, -0.17683563520079681, -0.38655960776202675, 0.14621263578018678], [0.04908783900158284, -0.3630521535347062, -0.1073463229417918, -0.12668363283304201, -0.36348914908677965, -0.025922891333433146, -0.3933461491355597, 0.003230977910011793, -0.10675421907008258, -0.3806306295976831, -0.030506283694745576, 0.09471954262666778, 0.13167518925505156, -0.44366392840920893, 0.00614796653973093, -0.29517746123109456], [-0.22124890080079054, -0.16598199929452534, -0.2731110775804492, -0.37271657645982, 0.0871641588877708, 0.0011890373538629082, 0.13617055725848642, -0.30365584997919753, -0.37620404154582343, -0.15978316937864173, 0.43048750694805804, -0.20531249973373408, -0.05772428081593475, -0.38106755137254356, -0.020765808023674257, -0.0849335525940073], [0.1815375330534321, 0.15606555893486224, 0.3126715278698614, 0.3153028940179925, -0.15912673393976573, 0.2693007831828741, 0.0011343438320559063, -0.2330136555542479, -0.07536180807887713, 0.09916895662033746, -0.16063522459497814, -0.3284516400872494, -0.06474347061570045, 0.3693736566798005, -0.2537536935452214, 0.2241112657875809], [-0.03981726759580923, -0.45407561518017037, 0.24376544559017166, 0.2097368315693359, 0.16628719895313185, -0.20700690152035175, 0.2812727889136478, -0.042890664217256826, -0.00484202237481948, 0.05441304397784218, -0.46883878222585124, -0.057119388218582014, 0.1962413889151998, -0.133779444279839, 0.1291329672316235, -0.2966059113608614], [0.3859856652322419, 0.03213124590075604, 0.059433081853703974, -0.17776129960030712, -0.36610068915104554, 0.5158879561668238, 0.04559016177219121, 0.053967282350407944, 0.21839844219973775, 0.05037798611192883, -0.04647185888368457, 0.5221113788314535, 0.03509954517616502, 0.03296495447290175, 0.10994881610503593, -0.03458523125934284]], "biases": [[0.006689766026530486, -0.009001162759995416, -0.003888048464222303, 0.00611634423632073, -0.0027568702207113782, -0.007396929205041398, 0.005979301444752111, 0.009560775715457622, -0.007895034328801183, 0.0029196950689354727, -0.0031535834619236627, 0.00493255312551176, 0.010193873734921385, -0.00308564825088551, 0.0061715400103116574, -0.012779874660654729]]}, {"units": 16, "activation": "selu", "weights": [[0.11055221762293281, 0.34332954780608116, 0.014585051505351315, 0.17256035296060226, -0.1779488256587067, 0.029663983786454358, -0.1913604278055771, -0.2163934933120916, -0.6129685174946797, -0.17278340231106354, -0.020605442844026337, -0.5472495508474784, 0.0010392443187317514, -0.07176255348813093, 0.7059442071839255, -0.1329410389996244], [0.4898428613266462, 0.21441934013388933, -0.31294589957699037, 0.13617544561227507, -0.10818461266981326, -0.1772883026995976, 0.21181190432988867, 0.039691689394371524, -0.11503208936228215, -0.08336118214349211, -0.2788433454048822, 0.08655182298161793, -0.32246923637680197, -0.29992551630772557, 0.1557189895574017, -0.14348444805775512], [0.2452626341105167, -0.3679395440664802, -0.02947336723628844, 0.16570439857868455, 0.06880914519421545, 0.09673439450565571, -0.28161800296573825, -0.18094304229571723, 0.16704264735096566, -0.27793080428946026, 0.3070577667128829, 0.2045741534304805, -0.08432490609545583, 0.21312363478468316, -0.013659610067638626, 0.05921647747291171], [0.1505476074663274, 0.1255163004743524, -0.4106096151397548, -0.16875512540446758, 0.2723707373171053, 0.15813320372908504, -0.027134076507304088, -0.10678827969756619, 0.22725556479886744, -0.35020711948501637, -0.13823926560232266, -0.006601573152343827, -0.26441657514714567, -0.12939974577201768, 0.3174539354816888, -0.2984571302838281], [0.0625418214770616, -0.20296335611254437, -0.20828967436133666, -0.48993223467854397, 0.4226897392673415, -0.07396885147310889, -0.15320089031626957, 0.15193426939297092, 0.2674376048893211, 0.1692747369933196, 0.6296154329802611, 0.1258991504946265, -0.1734396181024822, 0.38001474451257217, -0.25360774554842136, 0.14223180175869277], [0.3435429551384653, 0.03490838429638927, 0.038162008709020735, 0.1534096567353751, -0.35461150674715997, -0.10734572272954189, -0.1289295549012283, 0.0608546375140838, -0.3027758364472276, 0.259199731071901, -0.3650452042842464, -0.2887145750394039, -0.1567837957691005, -0.11141560246494536, -0.011559622853628175, 0.2782343741354956], [0.06927697184081155, -0.21590748471996374, -0.1088661413015331, -0.36112473374321913, -0.20621930892365606, -0.3667943272660572, 0.19782105179194315, 0.14169460861380154, 0.128546880876086, -0.19366435665231466, 0.038860499214037884, 0.1914245997002588, -0.01890267529725587, -0.33232311706943474, 0.4767665618957759, -0.10894103643322421], [-0.48980405855268183, 0.3559387386828458, -0.2983567633673382, 0.06183194439646635, -0.33233949725435663, -0.2232196479669293, 0.07935958264513975, 0.17782928894462757, -0.10915100492106304, -0.19435214916275045, -0.18286073556840515, -0.17848982591371823, -0.3597031269850081, -0.11953001290624585, -0.042777099821843745, -0.21291482037148765], [-0.2626640810895038, -0.17902996996818749, 0.3877857704723174, 0.3135410768467756, -0.26264002587035606, -0.1017610833594432, 0.008602676739780227, 0.004204047979863953, -0.21463708426424555, -0.10279452532640398, -0.36338669589175265, 0.20854233307555278, 0.23965332987425358, -0.2434628077681193, -0.102420644908388, -0.030056828853165303], [-0.5551919305312114, -0.2646476636019743, -0.32609696300234214, -0.10139099571995991, -0.40845542593938516, 0.07650220079428904, 0.08186079884476849, 0.017455963601775197, 0.08955903636373522, 0.309170543858147, 0.1313218886710102, -0.4017492157666297, 0.05521108341696875, -0.17723434289256348, -0.3691176471658034, -0.20366582795035756], [0.22799091099285757, 0.06709566015930767, 0.547319341044801, 0.7194366546906003, 0.15821555911708637, -0.30212397049886985, 0.348839593034098, 0.43848030794531134, -0.04147960532069915, 0.29996906112617117, -0.08813284786737668, 0.16284895071550612, 0.17772824083244698, 0.20994719279084234, 0.5449073612635755, -0.27998497439107417], [-0.05744174912573567, 0.3023013837212439, -0.4060056221170831, -0.13827674200425114, 0.3114748766575545, 0.24107382025334506, -0.007777288957998413, -0.12101666409787558, 0.07644630607160091, 0.3397693340271322, -0.09153626163431253, -0.12837648702378807, 0.14655341602036281, -0.04212640605628946, -0.44147717761876093, -0.15937801588551692], [-0.3118867880841127, -0.014534494296246906, -0.2041759405227008, 0.059468211295158585, -0.17982060264159413, -0.02031855339401256, 0.1602484829700919, -0.12171226848569855, 0.21750095512947837, 0.09168404069375576, -0.29735348833524433, 0.5782481611290194, 0.03890382124045655, 0.3081540980949863, 0.12883187426780388, -0.13647735202006905], [-0.03781952965775737, -0.3933716448865043, 0.18961346572887222, -0.01373630415296663, -0.07088292732769702, -0.23331137696410634, -0.44333782010569384, -0.21957791262594503, 0.3043901331748023, 0.4584514165923883, 0.12459212425744175, -0.0332473291386389, 0.14703669740249764, 0.15876470299718898, 0.14628848858328447, -0.19047426874925955], [-0.24437379505411844, -0.40996046197166003, -0.05661518892289768, -0.15671271035967851, -0.09518106927404092, -0.13949027835321223, -0.2564232533819955, 0.20676788829573123, -0.37139041657573485, 0.24572422325875087, 0.4141574377581059, 0.061708808026076305, 0.47499643850592765, 0.2986995816378892, 0.15124637405309538, -0.24819164892307574], [-0.13162243882060545, -0.27131714037904886, 0.04800284633240698, -0.0526958280118376, -0.07059228891119185, -0.05173367607663359, 0.06532195288503474, 0.38913233070101083, 0.15965472805690348, -0.028271989707014472, 0.4405409365263631, -0.42688181702290484, -0.07677933816417454, -0.22432123874549556, 0.047855375915382026, 0.11120015114681966]], "biases": [[-0.009824531087141992, 7.889297610504625e-05, -0.004747220938575342, -0.008572620871334093, 0.004435427385433878, 0.013803289153138222, -0.0009139590792278727, -0.005320730995408285, -0.0006990001308818969, -0.006367100255738805, 0.006726344668654511, 0.00484074514450401, -0.003417079575913439, -0.0054920886777996445, 0.005762812737962996, -0.007024181541337044]]}, {"units": 16, "activation": "selu", "weights": [[-0.2542245008834953, 0.3419421091928748, 0.04197806655234235, -0.38355129084379325, -0.35980375704187884, -0.08260471095162882, -0.2226484236210128, 0.05166203865471464, 0.15314118479136982, -0.053451626748685005, 0.10863722620300063, 0.31778206907457796, 0.22249895382766874, 0.15833557657916147, -0.012033740541065478, -0.17348981436725291], [-0.06640383088201768, 0.2264347865538458, -0.35704847062230316, -0.1535185019855092, -0.018114109131370407, 0.039019385099607846, 0.13044552329650913, 0.10500438609759652, -0.12806350478963283, 0.02098341198895643, 0.362795885850837, 0.09320256553512944, -0.1221408786427644, -0.27408075358976175, -0.12212279437760552, -0.39601137378497087], [-0.28693215482802736, 0.2219823598191229, -0.2500663138576088, 0.25745284855272454, -0.23583337637423732, 0.2600319203116915, -0.3372038174154406, 0.12933083201031811, 0.05301313593300481, -0.04089279900705984, 0.18011609870203704, 0.03328884933675793, 0.1717813284520798, -0.5287990370262725, -0.5018934042030679, 0.17168596163060976], [0.07897589317804322, 0.2663303503664478, -0.3661723640887608, -0.15947405954416963, -0.5466585131884324, -0.049499617411552774, -0.2253001985715441, 0.2350289356641035, 0.1247887709875573, 0.0683184359413659, 0.2421255283786929, -0.15411302575796332, 0.05966541339606218, 0.30601083241988203, -0.22065617705105403, 0.02812331585936057], [0.09274538594833781, 0.49173112279271874, -0.3784635200683607, -0.100879635687796, 0.09021047856465476, -0.3378298829828773, 0.3665559942579775, 0.52656088989195, 0.30906938789497873, -0.2232899669276863, 0.34854982568408216, 0.011789929828860958, 0.2300724493348307, 0.3589713091955573, 0.04364620019206472, -0.031872314285284455], [0.19556526505607844, 0.28121997893217326, -0.36611654385559916, 0.2954724125702891, 0.4164064111083696, 0.0901256258654271, -0.08932783167513149, 0.11114168499879123, -0.08573572574072992, -0.04947058643731096, -0.30695727333489614, 0.12530244702099783, -0.07757859731285144, 0.14197383725944107, -0.14509357238875378, -0.35311428793694105], [0.0437851762011225, -0.13803581771492232, -0.08294565253980384, 0.22592111099129847, -0.426496866974162, -0.33280803932193326, 0.45621495135240087, -0.23539543296136944, -0.02064818656590149, -0.24531295534391778, -0.22017267439543028, 0.5781475539984807, -0.2728417592925728, -0.04761346962410665, 0.009671557761584668, 0.3821356977187232], [0.0932463088223965, 0.14753345678249147, 0.07505070118066529, -0.06375250592401942, 0.11367261879464398, -0.0019583637649123577, 0.203037030733981, -0.21794415235988654, -0.6398067191461378, -0.1237567465758729, -0.04222596420826117, 0.10054066920556284, 0.6081189068883577, -0.39398665152217116, -0.25392748405605564, -0.08948167550221263], [-0.26003681415669283, -0.42430666276461815, 0.2661908483079929, -0.480534851737372, 0.4238152630888365, 0.09264037322370029, -0.181178392710675, 0.18924008037657497, 0.3556537606593621, -0.1902736506697735, -0.3484810340009781, 0.19683127997028954, -0.1889414786955024, -0.06950702678013629, 0.21149932669113936, 0.03441478258207218], [-0.3626169701825796, 0.054815071531839156, 0.3959405462154118, -0.08360403823933746, 0.15555352498803468, -0.35546599070045254, -0.2504854568377232, -0.0007262622426528281, -0.21501697282876628, -0.5200160479653609, 0.16559779614566258, 0.2891443721871675, 0.4869811073166962, -0.3490747870310005, -0.2574315745777262, -0.19845682857833313], [-0.3607051319833091, 0.09741240898569865, 0.07466399676174083, 0.164755914126625, -0.14353285459764661, 0.10965217028553982, -0.09257477798167676, -0.10396921944244598, 0.4923587573324763, 0.29832440977973856, -0.007279039221587718, -0.182317446041877, 0.5103495120014251, 0.09953733489128522, 0.056242011536039575, -0.03039812373461558], [0.4980385879383513, 0.0060170428960309875, -0.37816908181662756, 0.17114135995896343, -0.07156405859591848, -0.19480112778476324, -0.2786227517400589, 0.20119752651405562, -0.24711583936510123, -0.2308768466799278, -0.2865381233613612, 0.016560894059287293, -0.25287884951052364, -0.18418321397646156, 0.4644796628077123, -0.34097835076504257], [0.3022487731326358, 0.058181035743965624, 0.3044090692533909, 0.10557626993977935, 0.1557137653738684, 0.4303562375066614, 0.39871563988954706, -0.030384479075276066, -0.12418538309946305, 0.16920090632473292, 0.4845116251028031, -0.1311850277154647, -0.046153639748077874, 0.10682037453729885, -0.2510789704941729, 0.0704582141823275], [0.0793589451029765, -0.23736432560711315, 0.0801666735155645, 0.4000484843936772, -0.5411863239403741, 0.07350428176892505, 0.03594438210214696, -0.5713576883100902, 0.05594049709797491, 0.5790235946277523, 0.006143469254378387, -0.03079092335980664, 0.17565734016992812, 0.22968535170961066, -0.35212879792329915, 0.014146207534915281], [-0.39848387363742294, 0.0290312301960417, -0.021324148857239718, 0.12530402853606198, 0.1954269073167988, -0.12802891834579194, -0.03994770167353823, 0.4418553905163441, 0.2559677622692183, 0.40489214915336813, 0.039701399455838955, 0.07772934433879995, -0.20948257385375127, 0.288294999240535, 0.20658322602747828, -0.3102586489418005], [0.5391985592459884, 0.23556318897031395, -0.09475626813123088, 0.01919379768656613, 0.22888586393394098, 0.3214752867073124, -0.056833450691856656, 0.32649198989923556, -0.02439426276121153, -0.2603436642293984, -0.20556378360478061, 0.04947456416096377, -0.08519699868469084, -0.2328752770069634, -0.18401901019986375, 0.14698543859891391]], "biases": [[-0.00787048552671709, 0.008860323616437227, -0.007034480221036845, 0.010614152201890256, 0.008566866921490474, -0.012532306611251931, -0.002527238463441046, -0.007944960710812259, -0.0006626505978739729, 0.004479970045553474, 0.005036593375475728, -0.004851826326694157, -0.009683979988954452, 0.0003710135466862411, 0.006061383442583325, 0.008318058382092776]]}, {"units": 16, "activation": "selu", "weights": [[0.321055549349767, 0.01653779001806154, 0.5098514543705436, -0.34324377576614673, 0.27559051837762877, 0.1284411701157515, 0.3241346472069011, 0.031966854525968674, -0.21320822697406272, -0.13685788151415942, -0.24411799159513423, 0.4646724095086475, -0.2779668787709136, 0.2614122225216476, -0.21880266976356272, 0.06849992239820839], [-0.0461184247425298, -0.2335803611779068, 0.00790774555932976, -0.13531974012249, -0.11166990926258846, 0.22481548784403926, -0.09475783465315203, -0.06243313761325354, -0.1725157868580641, 0.04513320447727878, 0.41386862724358153, -0.026931916991141253, -0.34802769978484227, -0.4838781054606984, -0.32897370974204854, 0.17955421314779207], [0.2318143956550347, -0.05365112014637215, 0.49400784658256314, 0.2475594386059169, -0.17816997769676052, 0.34641791140568373, -0.17319180755955077, -0.0883207345737912, 0.37000596888577447, 0.33646665832406814, -0.417655062153765, -0.13535870815999307, 0.2955212584312832, 0.26426759326552984, -0.030787041442757082, 0.1105252577562419], [-0.5176180973644263, -0.005347953247883091, -0.08587993905743416, -0.10727624460894018, 0.03861306053393262, -0.1422862700461948, -0.330654505623062, -0.22234534277730983, -0.18974594322811153, -0.3054451426447562, 0.11548672787146907, -0.45217905593450725, 0.006155871950978574, -0.23285151979945176, -0.1524756827473741, -0.3412178151969443], [-0.08173756979722932, -0.040997975017760035, 0.27278088775615617, -0.08778811423965813, -0.3200182389508902, -0.41843435039962856, -0.4821987081166997, -0.16070006392819786, 0.1231427182770387, -0.3101341143463384, 0.019124893513987336, -0.42005927398900234, 0.08760142420391588, -0.1618082410096609, -0.3255366547530778, 0.06443681954304946], [0.4866071694653833, -0.2067045074789006, -0.17493852563676235, -0.35452655714177883, -0.27494487036199555, 0.25426831452943305, 0.4516551038841254, 0.18073006232817918, -0.2689862005457438, 0.37424441458131913, 0.03178351906158518, -0.03620677965579877, 0.18884665652074578, -0.16398323328566297, 0.35379325400258443, 0.05132315896862873], [-0.099238764407932, -0.10131883404646462, 0.22617998722427662, 0.2956162749835661, 0.28842806328107695, 0.0749827631019398, -0.03349312628753995, 0.21755492321262473, -0.2010958426247134, -0.16572641523120665, -0.15112624790806986, -0.08858992669827821, 0.17581337401860664, -0.1298544828249797, -0.14852448557544304, -0.061278319278673714], [0.31866710156271155, 0.289130356717431, 0.0619943852522433, 0.11215511720698108, 0.24064988011044747, 0.11867312621813901, -0.19538835876726326, 0.23911957547954954, -0.3166754611482298, -0.2450352153870781, -0.11843129452082647, -0.07139575695340108, -0.27994497565429627, -0.20201867584059274, -0.004888916175933632, -0.2875926071809894], [0.14354716940811796, 0.4110553019871228, -0.23613413377778705, 0.09352514756769781, 0.22039128954051826, -0.07260487709505971, 0.17843187526711557, -0.1278534839085164, 0.027137835833708074, -0.14127492271955278, -0.2773942667198717, -0.09473528433719117, -0.30530259777649527, 0.1441765914488639, 0.5074799084462057, 0.06157703984488019], [0.027426139060375082, -0.18429865203180154, 0.479296578810994, -0.361967905021697, -0.17695736857232736, 0.3870229976055148, -0.14351862325595494, -0.1612508136746115, 0.021794586642567886, 0.5931523573673735, -0.02242768633562036, -0.19005354293712856, 0.2392381835283021, 0.04706489246957479, 0.20531417892350928, 0.3167906882499291], [-0.6310457940681288, -0.177496022566019, -0.019929356323322222, 0.11309752150270798, -0.09178181632229074, -0.12001360967482692, -0.15063898240768914, -0.3582641147667908, 0.1307957956414547, -0.4883962466715231, 0.14215697428389393, -0.11099178349338704, 0.25286722734262396, -0.11911966480991117, 0.7838724052447822, -0.0610918568069524], [-0.1879725444264306, -0.06822085333650106, -0.220995283150513, -0.1732250499672169, 0.06663841498582161, 0.2912089889382478, -0.10109822456900153, -0.14463545068284836, -0.09799135418168582, -0.15462466541178768, -0.2745806457108129, 0.025261230037955187, 0.42759173277676205, -0.3216802135378639, 0.14247952434377323, 0.0633485374453471], [0.12296262004453858, -0.13676230706271347, -0.32331745276672025, 0.17940474730533587, -0.08766701525007314, 0.05973892480882555, 0.056634995519234385, 0.2662230183092774, 0.14138860908492767, 0.3977564977535532, -0.41005950691276766, 0.19369925651165465, -0.17599555078563053, -0.003023145918489341, -0.09616588732770982, -0.23523628936574123], [0.25716283626287745, 0.015154761197371266, 0.13947631290896867, -0.38960942392100795, -0.1000891730754795, -0.29431272412611614, 0.17270021992912588, -0.49299083447105707, 0.1453529700372885, -0.021465226119730105, 0.04872975039222097, 0.06958302940611295, -0.1432740218775669, 0.19504360274047103, 0.030102095067690467, -0.3486377375942881], [0.0935681622616931, 0.2566638146259364, 0.2881116775572018, -0.40051705900441265, -0.15671621394166188, -0.06980605045272673, -0.09297117332140029, 0.08455973697039972, 0.04788237620546947, -0.13410216190239974, 0.3984607253424479, -0.33657159133668374, -0.30813709718608373, -0.13998326847278653, 0.09454884136467101, 0.1974627526916802], [-0.037607802607244334, 0.14752911387515755, -0.013790583386757165, 0.10979346515422761, 0.2923883064153164, 0.2737445837669312, -0.05596696061182211, -0.2687400220320183, 0.15980286223242565, 0.2660470012873844, 0.005307612298509323, 0.0686466736002903, 0.009034849875226441, -0.16406492880754672, 0.42537070162529, -0.0753120487942788]], "biases": [[0.005403688339440214, 0.009182485356992879, 0.009669826166074987, -0.009584889983567232, 0.00941629744109806, -0.008637235847355693, -0.009603991801967197, -0.006911187510950707, 0.00820356001958727, 0.004402062412992633, 0.009707068908520198, -0.002688550095153086, 0.006668146550595745, 0.009806722024675724, 0.008921063009418344, 0.009443784529508262]]}, {"units": 16, "activation": "selu", "weights": [[-0.35274259029848154, -0.09198679730805939, -0.1616617415755667, -0.3679697737523401, -0.04758081594307173, -0.018656072475379357, 0.2893530952600732, -0.44735245502212223, -0.4376550557144614, -0.40721283498376565, -0.10424271038471843, -0.0962469399816216, -0.16924082134570786, 0.034765755238725174, -0.10686428724578957, -0.09590006451490822], [-0.2405786902957072, 0.20010102883864508, 0.04650515630791288, -0.19814983261999644, 0.005195847118208163, -0.24752198233419584, -0.02845483392206909, -0.3094581285708335, -0.15081776183558396, 0.034718791616014606, 0.043717861939581326, 0.08516118335157133, -0.3029458176859947, -0.38088103492017594, -0.1900876661484759, -0.008103618027897868], [0.2623261385999025, -0.18515039200132694, 0.1654763820333876, -0.11926216044905888, 0.006555559703559876, -0.19273089185553752, 0.1301987078830382, 0.1748824432820579, -0.2239363539674546, -0.39412293341727433, -0.08491994509631275, -0.20172422158009343, 0.355649834018213, 0.4367733539381843, -0.18619954440630804, 0.23776844098170946], [-0.2654531160050644, -0.22671572334738255, 0.0957846431852819, -0.04716492002823924, -0.37081755791780685, 0.22449973432033676, 0.32386127720494146, 0.39278773478118717, -0.3452176851225244, -0.05852556926360078, -0.2524256238397702, 0.12534311468246112, -0.08219291683716311, 0.027687949346058, -0.13525718621894478, -0.1311565637692444], [0.13340693595896852, 0.23661837327292243, 0.006075919551827337, 0.28317565771174424, 0.01691592333153435, -0.2973817265631662, 0.3482314042043947, -0.189828580024918, -0.09927433886203826, -1.673645948259099e-05, -0.07195197173622898, 0.10483114182714591, 0.19165390696431261, -0.31803641508241826, 0.05540134980592114, 0.09976705461473577], [-0.2646724940653335, -0.27432143388468244, -0.11427723497143816, 0.1569331545624169, -0.17668684922971697, 0.15810974861267815, -0.4542474196094464, 0.297759682049214, 0.679634824081147, -0.2586853801117994, 0.2469897427027793, 0.17301039107456676, 0.5091672048175646, 0.2668675949346898, 0.11655127453865415, 0.18167114972353057], [0.27062846572623067, -0.6178529483389694, 0.15310570513473526, -0.16678991697090267, -0.27635833163556406, 0.08374974863688885, -0.2922269765872489, 0.12121870324319851, -0.04004310132117268, -0.19988134242405772, 0.005038650182933236, -0.3508303507942481, -0.3776465288504917, 0.19906647213970327, -0.004429799498214721, -0.3117961992715921], [-0.06579366695518957, -0.09010050536126878, 0.036180816331634544, 0.05878933137603209, 0.26846957655713516, -0.13523116861593829, 0.1522580838766686, -0.06418730387065583, -0.0779962097580633, -0.06145746925744988, 0.15609376573642714, 0.29087554328660037, -0.05155315224011872, -0.05153664988326913, 0.01726648833052219, -0.3872375017693052], [-0.0038976645857604943, 0.13920470765771317, 0.3188373956310568, 0.015446131715642119, 0.04025157613945534, 0.23769826888302367, -0.05612359432548697, -0.29404724136738214, -0.21867742538770138, -0.4251821752593378, -0.10150949620674823, 0.11807272276336388, -0.29895186117399597, 0.2429835554999365, -0.23030018726362222, -0.21014973690286845], [0.43718132075960897, 0.2040250869927567, 0.1699702522539078, 0.1401711824369029, -0.7299248811496319, -0.35365708506757265, -0.10929361312907507, -0.06743716274078591, -0.36374732881968624, -0.2167459813323439, -0.27575215819659094, -0.6173599794300312, -0.43070286872974134, 0.02810346598563218, 0.007903605683053927, -0.1707791874633007], [0.013031424907012474, 0.23496701147780158, -0.14624933479903152, 0.13123080547056773, -0.03622159007874987, -0.2871054029807235, 0.18866800827402105, -0.10968043609550641, -0.20304756438890786, 0.41465977219428135, -0.2947552922564532, 0.06886937261658639, -0.1865177266529127, 0.1236755697012142, 0.10077621247944453, -0.037194048955715646], [-0.47946809427918796, -0.08189094075657168, -0.35170964865129223, 0.04262428411253488, 0.019380785579290474, 0.3087794742557454, 0.2351139329531206, 0.05005501049311927, 0.660636650698897, 0.3608448521201062, -0.13927260336788752, 0.011374967630465992, -0.24401929880351822, 0.024790484705895937, -0.05977530326104356, -0.058247384810326625], [-0.15770975700901133, -0.09690910882043012, 0.008497986802340088, -0.3037367621915763, 0.20021968492543046, -0.20165860588882567, 0.18603093466874004, -0.02550407734049335, 0.20767894957302555, -0.18859566184622575, -0.2121299553506624, -0.03233504398335177, 0.21555215531011568, 0.3867247899385994, 0.18075411714180073, 0.3031011257517075], [-0.3279579935458146, -0.32153871573463744, 0.07440190258272278, -0.15400754196167418, -0.19269513527957594, -0.3594204485871422, 0.17074274984480928, -0.24788240361482425, -0.3180359981234523, -0.18860935264369724, 0.13751895015154117, 0.13689193050118417, 0.25136536377094654, 0.05226140380707598, -0.18387858474147234, 0.15657266712047105], [0.0801140224486786, 0.06083259661933537, 0.157482025559018, -0.45965778659155376, -0.1183783941867054, 0.16002313994976383, -0.2408890855544194, -0.2074046148711396, 0.035149489846785426, -0.17032988061449106, 0.44250368066856294, 0.02393979959464786, -0.008757063720362813, 0.41180915918652944, -0.40026742726270437, -0.09328212946899773], [-0.14622045016899793, 0.09234083123290356, 0.3731545815368661, -0.17241340219570656, -0.1892262870856897, 0.28865174479556266, -0.04319983292242159, -0.08876757745203455, 0.2396427939428557, 0.21579272228333132, 0.23289742928228216, -0.06068517584080649, 0.5199726214763087, -0.3990875425560189, 0.17084458402475103, -0.4480490321986668]], "biases": [[0.010009167469729992, 0.004752927188837392, 0.008371997131473885, -0.009567976830246738, -0.007602828363497223, -0.008848236936211906, -0.00827614698458824, -0.008826460529459132, -0.006865492252102446, 0.008323075712009362, 0.009293652211172348, 0.011295404292810835, 0.009265605141696857, 0.010152486422607496, 0.008911814472595004, 0.010321984544203262]]}, {"units": 16, "activation": "selu", "weights": [[-0.2626609166586104, 0.19562976918306849, -0.24663744006419308, -0.12802496392598275, -0.19644427101749792, -0.225909676898099, 0.12993528195266257, 0.2154950941706507, 0.29364348312750643, -0.100602395167332, 0.2553895191886018, -0.48815424210206804, 0.3208890668017783, -0.005342870739127285, 0.17133261274318454, 0.1458906936119984], [-0.285997694586298, -0.5101429086303111, -0.26524454271567416, 0.37438456645936374, -0.0793829366014839, 0.25486589359760525, 0.24384285289974775, -0.005790662479634151, -0.1321843602217566, 0.27600647884873675, 0.032931689234117226, -0.22543923152156695, -0.8239321996628093, 0.22805452305288912, 0.3771583554804133, -0.08756390396872947], [-0.2808353931671506, -0.20379862241574723, -0.024053612179747903, 0.27767468928366174, -0.06962427219206027, 0.32137046080375786, 0.25960607912504396, 0.1095314241408752, 0.25730895831895106, 0.252310941771047, 0.06088422267579617, 0.25453389108790453, 0.03777678747046165, 0.34663647212716137, 0.7189656327876889, -0.3024028996402433], [-0.22173015845127997, -0.07073856066679564, -0.2665033093639768, 0.460339743593769, -0.008705882772696481, 0.43341661869820486, -0.2377101126436763, -0.3515642537142198, 0.5793290942773341, 0.21298174785156532, -0.2376399565869679, 0.25109543857381944, -0.24397306200880606, -0.24087588856468992, 0.00797698453207495, -0.05207876981496487], [0.005195139086135739, -0.17141898543999334, -0.39807273023171785, 0.23055347956839092, 0.004032655113386268, -0.23249464998388117, -0.13163168189510258, 0.17881124357973555, -0.000344710646644874, -0.20329118359260204, 0.01724371416507688, -0.25588842772200565, 0.17336154557164718, -0.1896595543329168, -0.46125121188748125, -0.21389527980196377], [0.3772508661910428, -0.170919719742696, -0.2249995774223728, -0.672941192778299, 0.36472349892526373, 0.14390922782337492, -0.08830449501663948, -0.20212592187595158, 0.015495837447874444, -0.2186094702887542, 0.0984267101948761, -0.2782771192063918, 0.5159545178475443, -0.16105929797674542, -0.039173450406476525, -0.24281539680438632], [0.07973571060149018, 0.2458911180097268, -0.4052365194655229, -0.12137697089316486, 0.4738778256790995, -0.19044785831012445, -0.36501001149799256, -0.03959805073740557, -0.06931382551785797, -0.06350628497683523, 0.3990906568368853, -0.21506303270273092, 0.029558684021579754, -0.0038196910027087925, -0.4242889786698745, -0.04689226306253479], [-0.21855713842060231, 0.3462811920573848, 0.10825601729029173, 0.39482312882785464, -0.06689621513034696, 0.008664807466871998, 0.002427601248068812, 0.09832456141459449, -0.3349236434118635, 0.5226558851475629, -0.5554325818686333, 0.0518466500261238, 0.5314508972623845, 0.33429717203288006, -0.09825538011851123, -0.07183787543202935], [0.13292880505132193, -0.4930230745192668, -0.11087484436602286, -0.15691166311388816, 0.08376251766327002, -0.27001119260915846, 0.04953252836887273, -0.3247955346652355, -0.04037546451521323, 0.40467899874666086, 0.006036475078391439, 0.4235455704133058, 0.4901564705608184, -0.19783408514842674, -0.3157399843402277, -0.5097086667353207], [0.15584969726394304, -0.26633430096359445, -0.07057800025279995, -0.13148571756353333, -0.15019972895313186, 0.13963201130675013, -0.4297138273852802, 0.38392230378610137, -0.18526281533336292, -0.04340319420398509, -0.05260313287930616, 0.00948490823579974, -0.14068186561114016, 0.07807992609961498, -0.04575634805326361, 0.009286682811191344], [0.11028896188362927, 0.17893636091396317, -0.6364131585776036, 0.22546718713740177, -0.32514135791137166, -0.28962601908658825, -0.29421129922101147, -0.0447995471138274, -0.026579044937038155, 0.03488368505305387, -0.15370874818576585, 0.171926125808388, 0.44047274057338115, 0.11291679270577695, 0.05252420316746616, 0.17355301997120293], [-0.2698942157239984, -0.13385837295534134, 0.052656986030708994, -0.23767471702415496, 0.39421749756742014, -0.378637143148119, -0.12347571346021391, -0.10816728286056342, 0.25023064860389416, -0.15071768884277634, 0.24792696037027587, 0.014461405471833375, 0.1541076945457226, 0.09954481498724155, 0.14809775461939303, 0.6652084138104439], [-0.4465465303186126, -0.2681004825104943, -0.19748122521459877, -0.19020651203256633, 0.09712281270833399, 0.2231958264103222, 0.14233618108027613, -0.0972154258169016, -0.03879359414187693, -0.05066354189336471, -0.06403818664512219, 0.05956438177188533, -0.4148140886777311, 0.07570937436258474, 0.12133414120277372, 0.3526041482129372], [0.14224039555669266, 0.06928311260181078, 0.2695404461682782, -0.5797055039600278, 0.2301563015406805, -0.05578786462188091, 0.2583622626506768, -0.0066573667067557785, -0.07986361690369931, 0.25446908222511566, 0.17269636945601136, -0.3248074737383275, 0.05361551621056948, -0.294696678720192, -0.0068242229610074884, 0.00817576003011185], [-0.19037132409026564, -0.43891477462493567, -0.015307123191410692, -0.016416644530754303, -0.1584272027089212, 0.03154543984440917, -0.176496843428628, -0.05289810433831651, 0.20707989222657913, 0.06865645488100952, 0.19726365317037675, -0.26213779869960097, -0.026106587185223285, -0.3414375448521677, 0.5887393292759696, -0.18619747292374075], [-0.10912118138860114, -0.20361853843235295, 0.045817627006524884, 0.4562352015411826, -0.23834399357536065, 0.042309398035027, 0.09493711219329515, -0.4080238886109175, -0.0952613452380235, -0.33063111819660007, 0.22712397376492813, -0.031719911552257375, 0.09427705297071243, -0.07295811562174535, 0.14788991900016896, -0.41807039356678694]], "biases": [[0.00969653948843369, -0.0029298598630685406, -0.010597456478763987, -0.00859597953713461, -0.00808449425097481, -0.010417261795140579, 0.00848391882574042, -0.010101057585166972, -0.009478540305747133, 0.009907002326434104, 0.009046700183127974, -0.01016285370128168, -0.008342404810033972, 0.010181396992940057, 0.005457017420858751, 0.008607108900589962]]}, {"units": 16, "activation": "selu", "weights": [[-0.20445762530696998, 0.14038357699563458, 0.43900238166078753, -0.39292414543173504, 0.033161792849867706, 0.3475853916889351, -0.10568807509943154, -0.2840100772240443, -0.2817164144403816, 0.09348155196670355, -0.1013808698298566, 0.17514400141115735, -0.4397045197321665, -0.28182651489190474, -0.04862240750721583, 0.08775524036193334], [0.1931964522215078, -0.12496272602916728, 0.10219320772338734, 0.17279062330677872, 0.033224395065991494, 0.0538402455105826, -0.19940537644704495, 0.3902854340347565, -0.006510474926550488, 0.35124771165172564, 0.15013152530904342, -0.5887443422177714, 0.20774423174898218, -0.18364689218951694, 0.13760690229123193, -0.25988027241495487], [0.2806186869015803, 0.3036988184998073, -0.13026299099985303, -0.2396837307106155, -0.260276356229699, -0.16318526879136205, -0.041665749087214744, -0.38638513928077406, 0.17583480475493754, -0.12125050805955981, 0.3229933082489492, -0.0009577479374759803, 0.3446588836324027, 0.016148021664366338, 0.2718550969629, 0.3477565554363787], [0.08287436729901491, 0.04635679953249858, 0.06479974478356432, 0.7009833240941399, 0.009513398976288738, -0.3468747574946592, -0.011682577583809793, 0.2814040744837772, 0.07974738216297311, 0.6581012835506131, 0.06855870295261643, 0.08350392799288317, -0.2888843282944297, 0.35082753561672725, 0.2044883650831015, 0.11350022605516216], [-0.0444095766515765, 0.09850775252824182, -0.485936681280285, 0.0877447063837242, -0.1736687053588355, -0.03216692557938096, -0.17825643168593724, 0.4450669713283065, -0.029736690390087826, -0.04700885159023875, -0.7021613824519214, 0.17325175336545812, -0.0859609779047913, -0.40525349170801106, 0.1686987443068068, 0.13250558500330842], [0.1644892779551611, 0.12195073805937544, -0.1804850015235638, 0.2072380397698669, -0.14793001614515944, 0.06973094957904524, 0.035720420970379196, -0.04671246206886067, 0.23363941095720625, -0.0483210766462837, 0.025739071021376736, -0.39340449787978493, 0.021934130195513296, 0.5226824688415, -0.05310529833293411, -0.1513887461780011], [-0.00589456365585924, 0.1056222113828844, 0.34019406100501653, -0.06754372668723585, 0.04568999404338512, -0.04383496622926488, 0.060516623424957276, 0.4491134918550878, -0.02259657362140275, -0.0798881569821722, 0.4581534771333152, 0.05709750708036709, 0.04822099742427848, 0.3101581403163144, -0.017256780031155668, 0.1674361406893489], [-0.34978549478431764, 0.3978952730642439, -0.31177498378473634, 0.039196310138464856, 0.01010597544059877, 0.07600404677523975, 0.312225331320436, 0.19022199850775634, 0.050247515209148004, 0.43427472489387686, -0.35659425603701894, -0.41014245502300795, 0.4322509085213446, 0.17815779933349513, 0.028902722836652316, -0.04867760342469455], [0.3092736255115102, -0.1537339169786486, -0.493874707483831, 0.11513048723146962, 0.015420034649720546, -0.09581178788789597, 0.18411945467542495, -0.0660865417947336, -0.03506959178982248, -0.17027303027425375, -0.009085709436510757, 0.33177139365333375, -0.13117884020105258, 0.09428985361846318, -0.36089187206910606, -0.061203245676052946], [-0.1455140945786162, 0.273183031358187, -0.3244074342123668, -0.025478439831933278, 0.40640755728608224, 0.5037457718747097, -0.3550254674439869, -0.23098964294086408, -0.04041687670916586, -0.1655820623862508, -0.18635181214011215, -0.36127225826314124, -0.09486917801269117, 0.5346884034828422, -0.09626205971338178, 0.3294636410545151], [-0.44687137218333295, 0.2964975040132654, 0.16141677585468267, -0.11014055321626665, -0.0646258632279967, -0.2348466488315601, -0.0901125611692388, 0.5215196889742865, 0.25688637930343916, -0.30767085841068237, -0.3208388017580638, 0.03387889255542478, 0.31081779469961274, 0.039606959917490796, 0.07084397342856669, -0.12630116183216222], [-0.03062273392939784, 0.01461060649664752, -0.07739877163992362, 0.48037163740046573, 0.34967242767728846, 0.2099653635837798, -0.28093959459946427, -0.12550308136958202, -0.14753260379085, 0.29329793695567746, -0.5234575107277017, 0.13333012473861067, 0.11183225342595317, -0.2595506103011108, 0.06600405373904596, -0.07651068481680359], [-0.015402812180743963, 0.1139743141853537, -0.05324534638776448, -0.30915395415764085, 0.07709791189697268, 0.07195780249585992, 0.23636280010742253, -0.0675480890645431, 0.032915963422273146, 0.2410849077566837, -0.549222377138139, 0.2995969623176758, -0.7135540303441523, 0.02596983244329421, -0.10516738514208256, 0.061712476293430435], [0.06292360210350552, 0.06380236330021744, -0.04577807014138915, -0.15366796703365093, -0.10960541298179133, 0.19212762908443137, -0.3495429272959787, 0.15896157913637507, -0.02457105023675599, -0.1789454339393627, -0.05099270688283558, 0.08818417843284027, 0.13552998522441834, -0.024184585934549602, 0.1586345161928064, -0.22565116611633226], [-0.22753674851950495, 0.08501140306275734, -0.18036206208397554, -0.17102734346969775, 0.1351985191601198, -0.1440146192213243, -0.28356216911990517, -0.0987114593768321, -0.6287182077265132, -0.09508300793857936, 0.00367524309143702, -0.3691721250170295, -0.2456967582497779, 0.11802234293922528, -0.08456562989294233, 0.5174338646234565], [0.021527739491049983, -0.19184929376922855, 0.581779012610256, 0.5088555842213041, 0.14737974048807825, -0.26174473772685874, -0.4091372278724215, 0.12994230393600364, 0.024670557111374284, 0.5427385955375379, -0.31827006942840147, -0.395800700566755, -0.42175560700477954, -0.10083539264795283, -0.14502619706921177, 0.049466397780884394]], "biases": [[-0.008204414509914774, 0.009997121239492921, 0.007988593400515106, -0.008539768547116529, -0.010603112409341142, -0.008129895767997067, -0.00665816989114422, 0.004224485255771456, -0.005636959586939455, -0.010130072179124866, 0.009716501272155151, -0.01042894272264754, 0.01057469951085155, 0.008632451919427896, -0.008848040203478487, -0.010455738108285515]]}, {"units": 2, "activation": "softmax", "weights": [[-0.46410302188223107, 0.13391352657223846], [0.39628338555084636, 0.10555966074359843], [0.3416270322582947, -0.28462146294113166], [-0.028658947668433004, 0.04240084632090857], [-0.02648768625523177, 0.11311756832769744], [-0.10209183278254588, 0.5074552014860428], [-0.5480138413953447, 0.2905784556296003], [-0.28687877860950367, -0.286021678964886], [-0.4918042723621746, 0.5126126243764926], [-0.09078922751325985, 0.18118076320356719], [-0.17591163470742702, -0.5187947062874275], [-0.3318094745975392, -0.16783673179028397], [-0.4239536297499114, -0.5154026259460263], [0.4353790074894636, -0.10840738730798326], [0.015554480698822815, 0.5188644974568684], [-0.46214877318866454, -0.2706684441221498]], "biases": [[0.005621306809555693, -0.005621306809555705]]}]}