{"layers": [{"units": 32, "activation": "selu", "weights": [[-0.00015805520520093233, -0.009265019747493958, 0.016439300242548333, -0.006622453862915345, -0.004895191804668514, 0.0021589947586780987, -0.0038178197148926387, 0.000569116096534927, -0.010992009158168878, -0.007685816991244912, 0.012350536948238839, 0.0018325541225460943, -0.01931767259380861, -0.003302948811176921, 0.020453597297399827, -0.011086107597793502, 0.009831699568536946, -0.0053730633437528595, -0.013649011638803955, 0.016585665431123522, -0.006269947204276277, 0.0011425729555350455, 0.018192125430344964, 0.0032257128167985545, 0.014293010434042904, 0.0007286538277082441, 0.004468348969199325, 0.00048069931843605044, -0.0022278574704124744, -0.005215121791079545, -0.003603661824526802, 0.00714444424423506], [0.010188243171155397, -0.019659701754219206, 0.0011427464300012983, 0.006518885655180952, 0.002893026766227896, 0.01613209197827782, 0.006209799144423145, -0.01528731663201575, -0.005691113286159158, 0.010147769927100486, 0.01593036364793934, -0.010778408474775299, 0.012872098434423834, -0.007069707473383787, -0.01161003805197911, 0.016514983245610383, 0.014652527727000668, 0.017597768296869577, 0.006044824858696835, -0.0051166855881783985, -0.0012192513190516523, -0.016221007644950082, 0.010987565508434894, -0.0026312106867792348, -0.0036833756078487488, 0.012338587434957655, 0.015820952733926922, 0.023132260478238534, 0.004435402158455256, -0.00525894041899284, -5.555051975026558e-05, 0.004080769044659277], [-0.005498386104819411, -0.0011937717272624048, -0.014461052183802038, 0.010986490147424857, -0.014274053232426262, 0.010897670296952908, 0.005528384152365643, 0.009919427565504207, -0.003166594168753352, 0.007508685961438725, -0.004287710724480101, -0.018325238677517543, 0.009362964111883506, -0.007975366437102904, 0.005636699318797254, -0.0077043840867320286, 0.018145480184847504, 0.005900780303350772, -0.005416216162812688, -0.0015948868179615102, 0.015272940379934813, -0.00016060555849438932, 0.0020522660148323425, -0.0021866382916087106, 0.020953426906301306, -0.011106839524889578, 0.0031232588809245914, -0.003391847859381614, 0.003166691524303462, -7.726935929256603e-05, 0.006743994716492259, 0.009391839264111999], [0.004792006307640167, 0.0005154406956875029, -0.008893027171365364, -0.01056891861788649, -0.004660535754800911, 0.013638380606106117, 0.006453406197236116, -0.012985597560829738, 0.007912612706862679, 0.006685819104599671, 0.00797501724230434, 0.0028948326046309334, -0.009429420982397062, 0.0065489494096770415, 0.007562920794037577, -0.00011520456728732114, 0.0164806809017475, 0.01788084206196729, 0.013078221189617802, 0.007642037509428714, 0.006343962853732403, -0.016516396622019883, -0.018555714732041352, -0.018180960921013296, -0.0011355340748476165, -0.01609355366627207, -0.011335313692094492, 0.010142199598594696, 0.0016916921678016008, 0.01374215063221655, 0.006616322085390564, 0.004060672432904985], [-0.009549116414113979, -0.019983584965457775, -0.01926046379669715, -0.009969678021302376, -0.006610978875899963, 0.01182197822521338, 0.024870113506695043, -0.009991699796263201, -0.005343147848395279, 0.009593123818275965, 0.005754763360528718, -0.011522043492270267, 0.014142265335247093, -0.007579170632783767, 0.0022862578535998357, -0.008571991561424165, 0.0182344953649496, -0.008378923223208351, -0.005839542790052206, 0.014173428633910377, 0.014414609631416308, -0.004013097032376445, 0.01699030463857377, -0.007220565239826917, 0.00558403637367753, -0.0023605085703352086, -0.005751625124339493, -0.0024171204644985573, 0.017496272790952696, 0.011019862635461728, 0.015037781137767672, 0.00824161940453806], [0.001026058506408018, 0.0054301865531613145, -0.00393161330292499, -0.00519296003479328, -0.008221799331481273, 0.003550529121080438, 0.003761347594653034, 0.0009849503245431025, -0.008136582546570747, 0.0016967849581881658, 0.008666672554692358, -0.0201669873206962, 0.004265745546512716, -0.0049370656093981275, -0.0046956832167683255, -0.005264508764681486, 0.0006415212633314527, 0.004973460863376685, -0.011400888623889247, 0.006038594935551187, -0.005000096954580462, -0.009734303385092968, 0.012348570330314454, -0.005241216153162376, 0.0032713506326429225, -0.01299837084808683, -0.008119937821361632, -0.0035919270205424674, -0.0025341289800389593, -0.002881860596001871, -0.0015903356164400939, 0.007593836047003672], [-0.013946319303525644, -0.006383138852977335, -5.2727898688702325e-05, -0.007123722604626695, 0.02424398238291431, -0.004652541774339168, 0.0050936395427724586, 0.006915653586291261, -0.000504446012798189, -0.00847544375163708, -0.004909236435003839, 0.0062301431230466706, 0.0026341191468337495, -0.00329649431723102, 0.008767806313123641, 0.009726356854311701, -0.016525166358606624, -0.007060215208342033, 0.007164612065498954, 0.0005806276785822695, -0.015870515603514285, 8.395602071751155e-05, 0.003692193137578749, -0.01062673857220377, 0.012127418617186636, 0.004149986562040557, 0.011770083291740547, 0.0045690884126923705, 0.010104340193379233, 0.0022415685509555297, 0.025377984525445037, 0.0042972456083932385], [-0.01005621986354574, 0.00731225598964129, -0.009616875826008998, -0.01096281833746617, 0.0023583631705624266, 0.017750962849594112, 0.013878623054650197, -0.019233950914883866, 0.0044579634709781685, 0.020876609976795177, 0.004428577825442511, -0.010818098565640552, -0.0027379682367288313, -0.012337028918398659, 0.010530421348771978, 0.01799933130575429, 0.0022940443537799774, -0.0017031976670259174, 0.004211361546830151, 0.00211244632533648, -0.0036743655705985343, -0.0194003102539931, 0.008319580754449909, -0.006901829726026551, 0.0010668019142734298, -0.0021778156555097316, -0.008714481514073398, 0.0026151099995152228, 0.015053419392829524, 0.02315101982176604, 0.030653525850486477, 0.001329049237205077], [-0.0020895438437766698, -0.01374451184420785, -0.013613656634845166, 0.0010663089700649693, -0.006714281980981336, 0.0005687659697853969, 0.007700782526218438, -0.004287116918759171, -0.010584338547900429, -0.007712386619901367, 0.001831869513417414, -0.02370379595440243, 0.006623244772423688, -0.012997195095485756, 0.015458896064745794, 0.007279525461892503, 0.012100784606621841, 0.006455096535371546, 0.013448688074984876, 0.004376541760883387, 0.021946797086573374, 0.009743496045596732, -0.0036146112154054728, -0.01388240719912208, -0.0073813962481406115, 0.0007503186536045148, -0.007189669908917835, 0.008669299898262236, 0.0025911026197659817, 0.009163826744692695, 0.003953723155564705, -0.0015566196917018514], [0.021790358273938347, -0.005241920301320123, -0.01123813400135058, 0.016742847027969108, 0.005391608655597572, 0.01643719670488102, 0.00876401652999992, -0.006893740752561284, 0.0037867796621967667, -0.004108770543086268, 0.01017954822545715, 0.004092037540501541, 0.0058870681138953815, -0.002907432935945464, -0.010808738851483866, 0.020568380052452675, 0.011516118564012872, -0.000933646570573622, -0.011367650173570757, -0.002441148994582918, 0.015146967369755711, 0.01879517767040435, 0.002694044228731668, 0.0016791977932715343, -0.02166606164209366, 0.00529424530443567, 0.002204094814382568, 0.0015691871775889129, 0.0017173629952589786, 0.004830302556170542, -0.002665292564478199, 0.0063210441726888646], [0.013979383878986295, 0.0122196408506838, 0.009462150100568422, 0.013562951773861104, 0.017643740681429213, 0.005033478205902514, -0.018675481329179486, 0.006527380613805783, 0.003360243018371194, 0.004596264786943021, -0.035300663621565774, 0.01741473375180222, -0.0020185968594556166, -0.00412821765585647, 0.0004916731367626619, 0.01855832191268573, 0.022911486558829925, -0.023957343959630735, -0.023933226475266554, -0.0064010734437147535, 0.002655924750586988, -0.024604018634709863, -0.003091222755641743, 0.021794940272835673, -0.0038013645302452845, 0.023697870112969963, 0.0070375016435801725, -0.006908903412420562, -0.009808152817772841, 0.0008740999037939296, -0.012855048177255458, 0.004817017321796641], [-0.012093067296305457, -0.014327183389656125, -0.01546080719463459, -0.025608296546582945, -0.01942520309076605, 0.014318267631799799, 0.013835925013950928, -0.002979434894980048, 0.0013391680293491142, 0.015220620257240658, 0.0026930849059534447, 0.003952474473370007, 0.009439831020382983, -0.02622382602382504, 0.0004787514438951939, -0.010630949874755328, 0.0023746161674866543, 0.006299095949538837, 0.018563712872489063, 0.009905039890636803, -0.0018284743890793296, 0.010129695043853065, 0.010098530110619291, -0.016833235169810126, 0.014962374622437855, -0.0087608965302185, 0.00261694604871234, 0.002097828396068367, 0.001241082177698776, 0.005016634510343448, -0.006811101200646846, 0.015715234690032276], [-0.013821632601161786, -0.013444454439806323, 0.02364032541194336, -0.010283961287607899, -0.019955089541862547, 0.00980842424759763, 0.006337546118844202, -0.009877105165729535, -0.00018972897604410354, 0.010439233038116703, -0.004198642258529194, 0.001182231497914981, -0.0007962957876459812, 0.007439257229387008, -0.007905648445898411, -0.0009715578570172963, -0.004067716728852345, -0.012180897172675105, 0.007230127821285647, 0.008631512088414063, 0.008756766120591128, 0.005391621297514802, -0.005021373181140574, 0.0004653743540678011, 0.010620047480492487, -0.0021210112351075575, 0.007650003236896893, 0.01766030884142525, -0.0086506488875219, 0.013104868880017176, 0.01966900022125675, -0.0017492144411190135], [0.0017136088272311242, 0.0013856856751655944, -0.005685872135077366, -0.006780963838595115, -0.005797912736497943, 0.004543044336288801, 0.0055853852977904225, -0.00906726891589642, 0.0050955933152517455, 0.008412380024730277, 0.0014710134828571312, -0.014254981025637447, -0.00506565672069801, -0.020323756258023136, 0.02852613493168002, 0.0007215704664182966, -0.0019484535590636532, 0.003425092240190113, 0.00019990294672566708, 0.008084293712480699, -0.00496171644754793, -0.014749669608588884, 0.02515774186568158, 0.019701295729344814, -0.004089109505414791, -0.007070337861119921, 0.014044538987148107, 0.007310069120929816, -0.0027898033218401955, 0.013320842613125694, 0.016485779857508095, 0.005340427810528417], [-0.0021946695792950904, -0.006802351692143598, -0.008819449494027706, 0.002251985784006316, -0.016514145166871677, 0.002197129232793463, -0.0014224857857875037, -0.01101513615038928, 0.00258236358829787, 0.015578902100678018, 0.009568236512269013, 0.0032046514953572806, 0.0031133379160808894, -0.019036025705182424, -0.013131060093583091, 0.012093594287594463, -0.005155510564461512, 0.008901464562528782, -2.31473348759588e-05, 0.021251266200867005, 0.022812050524568216, 0.005344054572888905, 0.003748674745378393, 0.0070376995653016645, 0.013456304004084188, -0.016022425806344075, -0.009666010409313775, -0.002721551469476847, -0.007235359227991282, 0.006529307364466407, -0.00015406369188808233, 0.0028133282073718917], [0.011793069240843163, 0.0005237459296034539, -0.0006576718296194314, -0.0041171635078568495, 0.0033388927384753937, 0.012615805858312047, 0.009621562028498239, 0.011312122504285904, -0.001942137117377126, -0.012827942583273596, -0.003103186736280266, -0.010416562764446762, -0.00780231919119377, 0.00335295846671599, -0.006125248542015066, -0.007578651199324411, -0.007532231780286156, 0.004532372040338408, 0.0033313972820094707, 0.005313582622146696, 0.008153306276022365, 0.004781001473101579, -0.001679758016538577, 0.0009006274514234022, 0.01065474836392463, -0.013253398268791903, 0.001717698080866317, -0.0038480554842931364, -0.002057612478899072, -0.0010996605078088695, 0.0022781009788515783, -0.006061061085265114], [0.018359731470773764, -0.002942329497608796, -0.0066699959698356326, 0.013672558473393884, 0.004219475630096064, 0.012850113025886411, -0.009450548345903611, 0.007226699833929613, 0.013585200580848788, -0.005794141085551943, -0.009728886776198067, 0.01922245763445224, -0.017174594206158245, -0.004629782081315262, -0.008769664302758379, 0.0013501082338221097, 0.0096630583507816, 0.011846612127557167, -0.000737672507301506, -0.012062776619420287, 0.0035279804374799962, 0.007704636672203566, -0.0022782040098236643, 0.009510802193474343, -0.01670589582965235, 0.011443284175828673, 0.025078599903253982, -0.009660372938321136, 0.005438598417768793, -0.005169506752563584, -0.0003034999337357102, -0.028190695501927678], [-0.007987639472792084, 0.0051047384667745445, -8.492845676810747e-05, -0.002754754960817066, 0.0015378604826038701, -0.017347489391005666, -0.0016133813087701578, -0.016282206742829743, -0.005212542185743744, -0.012512832163359463, -0.0024010423946292693, -0.012405995388948059, 0.00321993602832139, 0.01746383967374115, 0.004016289757617493, -0.00725170947146081, -0.02381820866591692, -0.006982667022334546, -0.0013318415037149136, -0.0024989907817480777, -0.009836742504349653, 0.015838164266291956, -0.0034433201421481836, 0.01097829752354174, -0.008529275101302651, 0.004590029675264041, 0.006178658596554842, -0.004516336883606272, -0.0055168661252806275, -0.005336204349581182, 0.005083222741022053, 0.0032800319436234477], [-0.002519285821300948, 0.0023665852508053826, 0.003422398833063627, -0.008841654624762628, -0.003685449115844017, -0.00913509543730228, 0.0027299588468802836, -0.007673811744736783, 0.0059792338421239734, 0.006000464776264676, 0.016840355445457884, -0.015613575415042292, 0.0029979034198964758, -0.008507377423318625, -0.012738741351785682, 0.0014748332182104088, 0.03236399288596818, 0.01513676589006612, 0.009224273853336806, -0.0037634542846979265, -0.000702991442800621, -0.012917128648796416, 0.015771089191332913, -0.011462211978200076, 0.0038350006168512657, -0.020281933382309394, -0.01205693045169093, 0.0032477406640770787, 0.001192530417301915, 0.011080435908436237, 0.007189606290035346, 0.00034576538488775605], [-0.0015411709800748873, 0.006081055972428347, 0.01331860920308409, 0.007807892582240981, 0.0199833850849299, -0.00811645756338654, 0.0008538641520727163, -0.01525745813146881, 0.020536701065887394, 0.002590081071132708, -0.00669707647056233, 0.0077565031495918915, -0.0034875705589714596, 0.00011396562435137805, 0.0004866873443984698, 0.005134773844093177, -0.01028600926545283, -0.011321543334852857, 0.0023635743474772447, 0.007246840596614807, -0.0038517402296422746, -0.0010815563532329327, -0.013055945246698255, 0.006222526490685421, 0.003977858696990681, -0.015818566537472257, -0.017173797885816144, -0.020758471200833267, -0.0031528765904628867, 0.0039538471480596886, -0.005326595134616298, -0.0003634720442338077], [0.01000185826936867, 0.003253989627766168, 0.025108661572752922, -0.0003452640063473611, -0.005868694409075391, -0.0016464546262951409, -0.00412239391593065, -0.005120095234721997, 0.02496855480358211, -0.008297610225711448, -0.002543753646271651, -0.0003819592887841797, -0.00025519885206202976, 0.009754463792356144, -0.009380604122125958, 0.0008447262832946675, -0.0022880889005717957, -0.03799537987431301, -0.010675628822763576, 0.007338977352719368, 0.002020359470128622, -0.00026782649756054797, -0.013653577565480274, -0.0025402823256899447, -0.01583723374507403, 0.03385791515398122, 0.0013425589478206906, -0.01121488045180657, -0.005590288819271815, -0.011529762750278925, 0.0009147716120647625, -0.010795894640534761], [-0.012217361504725048, -0.016622373190244406, 0.0072345142737183015, -0.012146758334291765, -0.026597216147646544, 0.013904571472155519, 0.02206920424621594, -0.004904460270615839, -0.007007209087273892, 0.007116271728265701, 0.007500585987660834, -0.009668353606905261, -0.002438527263671828, -0.007117755169803214, 0.00970122546387449, -0.008452178326331354, 0.009049654630588128, 0.022935886662925013, 0.0073084052557996935, 7.944827927714351e-05, 0.0035875551939669814, -0.004425480681897571, 0.007498042994850726, -0.006143016769515994, 0.013151224910665853, -0.002878206072009555, 0.005651833520901104, 0.008093656477770324, 0.002218099484959429, 0.006902388247373472, 0.01384030898740131, 0.024380308300550355], [-0.020753445996935217, -0.004254551685028338, -0.006602820322819152, 0.0038279661539795075, -0.01270473111796955, 0.007869216763903, 0.014172745857037707, -0.00498876342974261, 0.007106821606012215, 0.017178222704856444, -0.01006902589624703, -0.00138335599281108, 0.013615761864307864, 0.005674334198150816, 0.012246027062040444, -0.0016913785034131305, 0.004477795251364036, 0.00479099546795415, 0.004399395391363638, -0.0037946468158016103, 0.012504373005869273, -0.001018056754084464, 0.014298161193435108, -0.01315847253689187, -0.0004238144442040699, -0.027446380598513544, -0.014409722820400405, 0.0030466240141681293, 0.01807093487840529, 0.014053984024527635, 0.010858669290687246, 0.006492512759366017], [-0.007316795972756759, -0.015816495284004323, -0.020045484945571703, -0.015091234482887534, -0.01160286699900272, 0.013607640982199366, 0.008346251350904594, -0.004079299710296628, -0.009112176262652106, 0.008510921439965551, -0.0019873407087312982, -0.002389094921703809, 0.011193572066361021, 0.005215270054177563, 0.02926339446493588, 0.013242349522242033, 0.023449802879057687, 0.012135229365733446, -0.0028474284585907135, 0.01552385192472645, -0.006951691448274598, -0.0051205379856702656, 0.012812190125525529, 0.009863119978527388, 0.0032787978721186667, -0.029354177293497707, -0.00012752669724278644, -8.271441093531714e-05, 0.0057259218028233375, 0.011959741906298086, 0.020198251614625882, 0.01777267931097235], [0.004965939127511558, -0.0014492493739112395, -0.002509331961282796, -0.01245249326153613, -0.0005399257938273485, -0.0054112869591020265, 0.013633352327077512, -0.010707837003613656, -0.02073575164164914, 0.031325687411839324, -0.005039022355733749, 0.005020665519412314, 0.010300634625312511, -0.0036624411698711803, 0.0202723349011833, 0.01100231873890354, 0.004295032557630982, 0.0003775837568173837, -0.0006486223942966326, 0.013094022746414016, -0.008014499818706286, -0.009980208436540261, 0.020638914994683105, 0.013328363877684104, 0.011804846682631624, 0.004751050097043493, 0.006440586567269191, 0.004197203315433262, 0.012061452073701897, 0.009705713377275391, 0.004606804388402907, 0.010321973121777557], [-0.003901808517670746, -0.0053937013573085, 0.011320964543292874, -0.0003325974028562143, -0.01427321759783773, 0.018833833861555835, 0.0006883236089104764, -0.017513915441720023, -0.003043540093504423, 0.000528883968521518, 0.00778665069051934, -0.004907814900426918, -0.0039114686235440415, -0.005119569774413769, 0.004485619798892286, -0.008478059970755266, 0.021788731686471167, -0.010143962859694895, 0.015958087556950995, 0.011019802589347132, 0.010663755001158019, -0.018482840967403314, 0.03552183396291321, -0.008288895311894504, 0.019901460331840055, -0.016294577230844282, -0.0004477082702598724, 0.013175006665058688, 0.017983364166519192, 0.013014468460851462, 0.009286485790588356, 0.011432949552647067], [-0.0042479020316054834, -0.01287842672952898, 0.019023037540009644, 0.010758613994189552, -0.011561530052148163, -0.0038737863178655925, -0.010249533271450811, -0.007029616262070363, -0.008929374796697276, -0.018993031465403456, -0.007598889787947766, 0.01112282940813946, -0.0019715623702725137, 0.012871386485711242, -0.006399655943821019, -0.008660334242545512, 0.013714786380263388, 0.010839697303631218, 0.005888956469048289, 0.004605790590297838, 0.009299093882423242, -0.007465226205868821, 0.023502953342481484, 0.013447355800574939, 0.009349244696703835, -0.0022096144298934897, 0.004928146285973677, 0.01300258069646762, 0.022679493227764143, 0.0003457645900279846, -0.002871376816607491, -0.008272954691833747], [-0.005454327350706893, -0.01168186310837389, -0.017651423847715376, -0.0022123753381167953, -0.008295662645596917, -0.0022309300079796884, 0.010029568037205604, -0.015586025822561772, 0.009457929959826068, 0.018422701377559563, 0.025981193673226904, -0.010693786148904916, 0.010201534895878838, -0.0006930331117471935, 0.00960787070317482, -0.007899839275560093, 0.010042605869100496, 0.015407482573654076, 0.005553697313678292, -0.0046392612436414295, -0.0030986794800930673, -0.02074449413615728, 0.003283502656000562, -0.010203736021770797, 0.021371567094202928, -0.01031814092249112, -0.018945870404410436, 0.013964529262003514, -0.00926241825365791, 0.01720962498089368, 0.012285245502175088, 0.015037176911064716], [0.009929467018998222, -0.00473931878228704, -0.035117282890698716, -0.02603665718146815, -0.0008375559373597878, -0.00020083687254689872, -0.005256237893755994, -0.007987591451609176, -0.011100241622325297, 0.007903481778449918, 0.01679578829590806, -0.002680430016640905, 0.007300277402839771, -0.00946117250413396, 0.0007773697049218014, 0.006318023703677653, 0.028706326924078224, 0.008398027871867655, -0.01311384798969752, 0.010304507162518711, 0.013417058791674867, -0.006208110187931853, 0.022828147137762933, 0.007757994041516761, 0.022847162446862936, -0.011914475900402881, -0.0021506812816159066, 0.010226254002584352, -0.000688229707899421, -0.00021094040453252083, 0.022981519946094407, 0.002580285921174839], [0.018676348645430618, -0.012560903634244535, -0.006678256300263014, -0.0003083326309471923, -0.01638302192080946, 0.01503868000555845, -0.004506632983873511, -0.018646511391733723, 0.0015182884583951188, 0.022372403517139875, 0.0029286082141375485, -0.018914175952234956, 0.003910244257497241, -0.0048869997752601846, 0.013593576563047651, -0.014700124546395589, 0.0037972909597543646, 0.01635078357678263, -0.009724063950561208, 0.0013965685370046514, 0.0011391736048202948, -0.006875836986183623, 0.010125765305217731, -0.007253096650631501, 0.012410550129090639, -0.009074570935790722, -0.0194142764182632, 0.004556352499747934, -0.006270803659005034, 0.014598819579068131, 0.0027957305929841424, 0.00909190892305469], [-0.007342966837618543, -0.008699442218777859, -0.02523320783754628, -0.002244873758019779, 0.01050430256660649, -0.014389524337541693, 0.009951567821483319, 0.0009970221525998405, 0.003619518532302538, 0.005692557689543799, 0.009515215654316489, -0.0014342238187235368, -0.019182562952900255, 0.004987012330471878, 0.0003304692425344175, 0.008650868909293303, 0.0014780891188742396, 0.004039766139260523, 0.006526957621856281, 0.005490074807395009, 0.0025723830697752556, -0.0001647735093690619, 0.008276845147336724, -0.0034809909553207095, -0.016937639293040135, 0.008954247481743383, 0.013157721916749979, 0.005611557583106082, -0.0020353664606651742, 0.013908194660821858, 0.004579803462358466, 0.006274300330282033]], "biases": [[-0.00046906263534097917, -0.00019267506090793138, -0.00031107645404925444, -0.00017261860536235072, -7.146852716953897e-05, -0.00013250549175096522, 0.0003387608399295128, -0.000217404044235849, -0.00014874019158437685, -0.00019180145980788547, 0.00038334312667006963, -0.00012255625878430872, 0.00033409997588461116, -0.00011344661114998953, 4.457344431727047e-05, 0.0004709034989154134, 1.5469979158066097e-05, -0.0005890803362678308, -0.00018242505065053143, -0.00017133564131522708, 9.519015935103524e-05, -0.0003105642514986652, -0.0002498168696065642, 0.00013055012805378034, -4.234991918303316e-05, -0.00016551907206324774, -0.0004252237889856364, -0.00018329805861561551, -0.0001469772542749696, 0.0001704043443088322, -5.3090436306266434e-05, -4.642606833173648e-05]]}, {"units": 16, "activation": "selu", "weights": [[0.18986334775143224, -0.39262155561526146, 0.36877379190456755, -0.23735059545718631, 0.153511997986547, -0.35403006354552724, -0.1635262669036441, -0.3527441891566484, 0.44883269425778305, -0.020321769269519313, 0.019978141956343513, 0.37346567893508786, 0.22225289349123348, -0.049702028838927374, -0.21140430221396392, 0.021410522624573387], [0.042407934939303796, -0.221510926793118, -0.23011968825106097, -0.23669654498343415, 0.25754520297800826, 0.170737248381264, 0.04610314992714655, 0.12668395524931594, -0.1361182150192748, 0.0144701817186498, 0.4464464420876073, -0.1826044737357994, 0.022074498364344667, -0.19474071013276642, 0.10778228297754248, 0.0741359790318594], [0.11631187463686782, -0.276508981348349, -0.11879853731536477, -0.26115464287175, -0.04624093167833105, 0.11517644051069083, -0.20662378330545567, 0.16751943724196974, 0.19489936923545034, 0.09787108938387121, -0.1332109865237096, -0.055293350599305596, -0.08228456100651488, -0.06818172282279487, 0.20558399209754313, -0.056462478558614596], [0.06188850970145894, 0.21896648201171348, 0.08838943217276977, -0.2389606950984788, -0.03945387774451088, -0.14203135767242042, 0.36479435846829517, 0.01806944982457857, 0.030168504230359647, -0.052641861027049985, -0.1801739479314424, 0.007226087672203718, -0.1873574513967682, 0.08295370996598965, 0.11466588054350434, 0.15858645078908007], [0.29482956030769053, -0.16306874577991576, 0.08827291849868935, 0.0064935367151656995, -0.22685331298078965, 0.07096313720078226, 0.14648265316430145, -0.042517976919233, 0.1391008849978574, 0.17393026737018943, -0.08592444829223422, -0.06696160523202722, 0.040939975190698696, 0.058584101486318846, -0.08241374235424292, -0.09139337470602939], [-0.06552384047428444, -0.010879002443604721, -0.17526220261185838, -0.06805041230143874, -0.0732181563254303, -0.34455024980252463, -0.0026591527554326376, 0.05121481262162366, 0.14032056461635373, 0.02936675020143772, 0.1930028569451354, -0.07889029391475223, 0.0649165061619968, -0.24468774792060533, -0.03041236705873235, -0.11756440566442768], [0.017159421669966833, 0.18333600751202753, 0.2846373687739224, 0.20629520956964514, -0.09891616185223517, 0.017219087782550768, -0.16857224117073938, -0.029972227071569865, -0.14525695996474508, 0.25143218349220475, -0.08602114843542145, 0.17206477260343092, -0.016068278226181953, 0.24697107726943138, -0.13702278231920537, -0.012814696277434994], [0.18308778960078587, -0.2479517045329825, -0.06331041701617139, 0.4102103140756093, -0.12406998526801954, 0.22434024792184662, 0.10844532150662661, -0.18341491836274637, 0.18183095703095298, 0.1629353674968442, 0.06080392750811056, 0.1373702151180337, -0.08041152003776286, -0.06886774906230476, 0.23144006340218348, -0.12146120116250714], [0.2694759097150785, 0.247173889637921, -0.1377005059126341, 0.17004899751056896, -0.5502530959721981, -0.04190916589928363, 0.005425867825176061, 0.2124834015535534, -0.012547267942400658, 0.0021041249472774906, -0.2016544377222206, 0.07714091984601412, -0.0992845918642295, 0.3426862751973941, -0.0194410460171626, 0.278541837238625], [-0.035726154007377296, 0.3105006016187162, -0.012760896362525297, 0.16688241886245986, -0.19839017338893464, -0.308749747524801, -0.08852917031260438, -0.16023087895247726, 0.4671066113602403, 0.04232011634073468, 0.1000456357425512, 0.09877621576066456, -0.036172472946190935, -0.17470814031867046, -0.027775740552835212, 0.3190797453490718], [0.14122724045626542, -0.044708181607341024, 0.21891388194761863, 0.4355770325443341, 0.28148308367959674, 0.04746868848802824, 0.0521485747365518, -0.3556749588142216, 0.04295226963388165, 0.04644043570897209, 0.30109892901977087, -0.3047177934968047, 0.0310800491756923, -0.31796964145778966, 0.17268876916620285, 0.26528189221821963], [0.02913728635049816, 0.2531006531268128, -0.27582294374638244, -0.1967941991717137, 0.3100299203819489, -0.1647483094634318, 0.13673984310423015, 0.005707221042822992, -0.04363179894479036, 0.149886079137905, -0.08659695861955272, 0.27420644357134244, -0.12758772202676505, 0.22929200360487648, 0.06012547420115005, -0.14424248713669235], [0.024499549171780058, -0.05871667486564752, -0.315809600664757, 0.02536006862620127, -0.04811589964145106, 0.2674414115416813, -0.06420350007269301, 0.0027383855114886755, -0.14663183939429658, -0.13294542986417007, -0.01851192798448688, 0.2967469994368754, 0.1987668162750874, 0.006806634609117566, 0.10232961947153542, 0.14531135554295754], [-0.054994787585126784, -0.318486945166943, 0.06904918037082437, -0.07574588916543475, -0.08741940390601939, 0.1988662533213947, 0.013615737747077439, 0.24889795622716804, -0.148060608034966, 0.03166004373160928, 0.13304824544463514, 0.020363227104774888, 0.09231372485570176, 0.07617445958575286, -0.2925151036060583, 0.026495968784503793], [-0.05145789029035193, 0.2961491330369055, -0.21731405232998852, 0.059202119841674665, -0.07205664004626729, -0.09353239821968266, 0.2306699351407972, -0.08419597064447729, -0.031366771610483866, 0.0020288282434690846, -0.05392231802288884, 0.07450056557000356, 0.42180665505714565, -0.3115430396871931, 0.2072926965813212, 0.06124943036458124], [-0.270123561043868, -0.16787985588030482, -0.3294311005297967, 0.10047865398701605, 0.05864390852795184, 0.08021480673179784, 0.20789675772047686, -0.19040349082943286, 0.11609968362463899, 0.07705531973231632, -0.0851468363450705, -0.024780935724265003, 0.42505055782014545, 0.1770700969362643, -0.1539027900064657, -0.17180460968742256], [-0.003121399417822611, -0.0472067109922673, -0.12100643673156719, 0.05885925460383824, 0.12060499379237272, -0.11219522954850113, -0.1449246081857089, -0.13435632741500136, 0.33262423393741364, 0.08811603953422706, -0.017022900286768748, -0.0549569715050078, 0.053990382989396464, -0.09357735265457175, 0.06602949322342581, 0.07879776614555223], [-0.27848408075991, -0.08098580753287755, -0.1560965611832263, 0.43239605101284845, 0.09396862146564547, -0.09076476228022982, -0.2323120109434001, 0.06299495770770455, 0.043560650104948764, -0.11951903454710672, -0.1943285123564593, -0.11092154472736566, 0.2281756736027667, -0.2718492813871427, -0.13892988141530946, 0.039513138379991854], [-0.3038153452359543, 0.07032841329345252, -0.034171326068199906, 0.19318977498582232, -0.15226336539560548, -0.011845212520549308, 0.1664775209483386, 0.264610448055942, 0.023527413972936125, 0.16182212970665674, 0.044067942618857145, -0.003500007412450576, -0.1509994281961558, -0.0823878919625299, 0.041184081480964314, -0.20279250484916092], [-0.023063546657916503, 0.13217773735786278, 0.03588477075956603, -0.30871252704852065, -0.2879914979946214, -0.15267610702836865, 0.1549062594659971, 0.19512075188124883, -0.21204737370716484, -0.202742407732035, 0.028967079315863026, -0.17007414313307628, -0.014340332553528734, -0.10039396534312245, -0.0727869340468793, 0.19045024265758567], [0.02818171561688878, 0.05442091457267903, -0.22298210390572343, -0.25496460433293144, -0.18879833127334558, -0.2457659903017184, -0.03757023011261179, 0.04514583800963011, 0.08284379844615392, -0.166609747080216, -0.15646788180507148, 0.06695478825625951, 0.11857932165612695, -0.2051842521442526, 0.42582338435508704, 0.24168308300580874], [-0.23746439421698345, 0.1668559616397469, -0.1243763959971112, -0.2676735003860114, -0.08240512618667153, 0.31524386778278857, 0.43233796224274895, 0.14956374873542602, -0.1796630300708955, 0.32704419556719183, 0.040115320767795046, 0.6102488776659635, 0.1713515328329758, 0.09944875677834115, -0.14976386552430873, 0.11241469802549917], [0.03021231355401472, 0.13074587202382754, -0.03511326417620532, -0.04456874438449466, 0.0634297878102595, -0.13540680165672486, 0.13386548567597142, 0.09794726350783316, -0.11015361640036468, -0.11072544730459283, 0.2234918236653095, 0.06484593986037547, 0.10352980422796705, -0.2851662133731508, -0.09462305787774826, 0.13512286432457846], [-0.19765628036141805, -0.19602071898792653, -0.0908844541605558, -0.10763758844046786, -0.08014675539822051, -0.06606557078165105, -0.1494799079125404, 0.07388403709049199, 0.22398800888022274, 0.08075907904777042, 0.019959826728979238, -0.2748117909944051, 0.070027373959421, 0.035448477212541164, -0.26376356282307084, -0.21492759141918957], [0.15133930426103942, -0.2517153495822108, -0.4350712722966901, 0.13103434265857564, -0.1798474224449311, -0.11043378434024594, 0.132643142626491, 0.15337510791147424, -0.08164274203956053, -0.2516625129667439, -0.05181516469626588, 0.06363590940804853, -0.00822434592890087, -0.4082025403151666, 0.095075906385147, -0.07350287783027022], [-0.33682984412935446, -0.30635702817370325, 0.249044224799497, -0.06480831035665668, 0.037972675601755865, -0.06092980023401507, 0.09673018038485584, -0.019651798739105653, 0.47237337776764676, 0.07008950582320904, -0.04484268456755419, -0.08916068298422017, 0.00625708993969243, 0.28740352091868554, -0.05651806306946564, 0.2784651309225329], [-0.31590444134769835, 0.1074799313135408, 0.17805045491358126, 0.02414782800525491, 0.06656082633800368, 0.18390339429373487, -0.04387015205851307, 0.17448374183528154, 0.23358423219730357, 0.037568789058994786, 0.09226146621033862, 0.27124411643802454, 0.036374246837797726, 0.21203147375828338, 0.1740624523016218, -0.15884350187720828], [-0.07112146059938868, -0.12045069835013904, -0.09782526185556045, 0.0016241892756165344, 0.35854860578542147, -0.23081506331155266, -0.21022029107531418, 0.2542485078140407, -0.2777287907207436, -0.10202031627589349, 0.06280626412447723, 0.1886043362866297, 0.07842187429359482, -0.35293090067412913, -0.03910045518588024, 0.31242176805306204], [0.07374697348492347, 0.08457853518456651, 0.4050399910905562, 0.037429146136143066, -0.04036654817179632, -0.14196025125295253, -0.1085642523753172, 0.07973580518249555, -0.07148168383507447, -0.13507755259169046, 0.2031865692504705, 0.08820056752654713, 0.1918004195684624, 0.08790200874283416, -0.02995836574843485, 0.07594326053262877], [0.07384816485310325, -0.10437827539861264, 0.2633532392034042, 0.04238178943735393, -0.14421054123068922, 0.29361720320579904, -0.0939765438408245, -0.06720564472392702, -0.1293762304617749, -0.1484574099129953, -0.09454343443353498, -0.015832912095844913, 0.43652853107033013, -0.12175620712717966, 0.1014855560181198, -0.06067138810406059], [0.054870987121760494, -0.24693676478272616, 0.13776830234913487, -0.08061508139987854, -0.15146275223785394, 0.14664816000712647, -0.2791157153170055, 0.0942974661353571, -0.0036735225630319564, -0.17551092570252483, 0.16375392306418876, 0.19732659346196502, 0.14818230094497112, -0.0347315717690645, 0.03180519231374371, 0.3148511292105396], [-0.048166684845581266, 0.2005477026825336, 0.22882196268940516, 0.03267674078987904, 0.05588445422750672, -0.10526235895935337, -0.21516231863100624, -0.24743993165133224, 0.002488410809115586, 0.07296308912579348, 0.056125009405327345, -0.21697911466651718, 0.06173877126321324, -0.207182056556288, -0.03581308240058171, 0.2347370833507833]], "biases": [[0.00043257070146692807, -0.00016366152208638408, -0.0005422408209945581, 9.235993140136787e-05, -8.201259192767545e-05, -0.00019041927872088697, 0.00048511714774466174, -0.00019588175656495884, 0.00028427643109661644, 0.0001136270242956446, -0.00023960079837304207, -0.0005236304802531943, 0.00023282612809088577, 0.00038243612742571505, 2.4935698854043592e-05, 0.0003696233486118629]]}, {"units": 16, "activation": "selu", "weights": [[-0.05872325081399248, -0.07515070978907125, -0.17505598661080252, -0.6310059441020057, -0.30427778554613755, 0.07529950155228712, -0.3581335935614829, 0.13239149747026824, 0.007875883571448132, -0.11353367880634711, 0.2948517137194331, -0.06624125409682435, -0.08800129332397504, -0.11110185235444545, 0.3335778123153217, -0.04374466085750142], [-0.39566508296059355, 0.08358836184661776, 0.038361870089768275, 0.12279510261861186, -0.1611197485843717, 0.07854487860287794, 0.38736310729564893, 0.1467850090878232, 0.11571219092885503, -0.051260378840383196, 0.06374879466754343, 0.037231396829552336, -0.12126344371801318, -0.35332156777125745, 0.4156286117528676, -0.21177155813055168], [0.46153415920300905, -0.015387269848373693, 0.1694083763081209, -0.05283593157255782, -0.23174888801945345, 0.12661804540325203, 0.4061692225517174, -0.05567503374916074, -0.2766582854022665, 0.039872062680580675, 0.5476335260014662, -0.6644614542573054, -0.332147306935146, -0.12177713415551066, -0.22883533097315345, 0.3687167014232676], [-0.11653714156944188, -0.07149414243234557, -0.02172155620127007, -0.0056237834297264335, -0.17680649384595862, -0.06928893928178206, 0.31032571642251766, -0.270137369391728, -0.11273706549370108, -0.09367905506513576, -0.2675294240542631, 0.0637608441172285, -0.5865322420578812, 0.33312391342432723, -0.03732235085413365, -0.1987471258610172], [-0.32263332860810184, -0.0714986633504734, -0.33042511373869965, -0.06266108943038204, -0.044826989404714246, 0.030899021085823136, 0.18352198512092316, 0.363715517566132, 0.29443779373757956, -0.03924160242928105, 0.06056599477464122, -0.13621893288097955, 0.03721173459711359, 0.26642629843964194, 0.08166889020541906, -0.18818738375858535], [0.463211500755394, -0.15909837156165685, 0.09291194847779162, -0.15342145564080684, 0.10049197647155413, 0.25985645867104695, -0.05702495541780083, 0.2723855235785744, 0.3632159759426922, -0.3057144307659706, 0.21899631690761928, 0.43757136166497124, -0.2513825090874892, -0.2806578234305439, -0.26034581609733426, 0.29651826111675084], [-0.13353729481528973, 0.05279708696957476, -0.16198179212371275, 0.11106574604478042, 0.19817869021317597, 0.17169475334535042, -0.13665403490113048, 0.5461858230705928, 0.03323024338545367, -0.10497439206005296, 0.35172578430841867, -0.045231880078863376, 0.11503272018234038, 0.4423810049879096, 0.017600364193721116, 0.22575412785451981], [0.00477865594749652, -0.6006498222502561, 0.052689041135900574, 0.00672161383151735, 0.320607764912887, -0.05782402317232747, 0.01768732422289355, 0.1940627478486287, 0.0073182357216046556, -0.44895655160469616, -0.11007448118849247, 0.2921397802134095, -0.020984496258901215, -0.40001096834946687, -0.12050733418445814, 0.5291660396805112], [-0.08135528360663964, -0.20162732887933507, -0.1483940332263693, -0.02513823715714936, 0.0928262562720267, 0.14636603342913726, 0.13927231656162584, -0.2908517553851241, -0.11344160730750699, 0.4022775872282152, 0.18855619879527644, 0.4029671940655936, 0.046680986016160574, 0.024780866175449306, 0.45477740095359764, 0.13157418568114462], [-0.022870501046809957, 0.15347692064725862, -0.14892357098974723, 0.503792715095899, -0.1352131685273353, 0.2543820880205186, -0.1939850244577898, 0.22487640038329812, -0.04539126431880913, -0.02223363323431699, -0.2903446635204924, 0.23155200495677639, -0.16983944262612097, -0.012981109972681891, 0.3712363333256126, -0.09565453285920036], [0.004727379578564077, 0.06488840559177171, 0.15639302818092413, -0.16193472916336635, 0.3818232067003238, 0.03746529909411009, -0.2743446266082505, 0.3275495581328367, 0.020994010372457583, 0.06838725259779622, -0.3460832313868084, 0.10479558159260396, 0.3131505207779802, 0.03414628454784719, 0.09534144746020863, 0.3237932496387196], [0.09881619585768658, -0.034119331210513165, 0.28646830202296764, -0.22815726810143444, -0.4191926859861842, -0.0888290479550475, 0.08827826159900398, -0.13516819560125556, -0.12024804070092089, -0.11296889494829024, 0.34186873108505217, -0.15229003129740873, -0.33094021449014327, -0.2529979868816487, 0.4069071611144302, 0.1793539837939143], [0.039945465701718384, -0.303344287684058, 0.28963474904724945, 0.3877790705873937, 0.2893649640785211, -0.05081453550274105, -0.02461703234496506, 0.00342292707968423, 0.2425018967205641, 0.046804807036875284, 0.07669307603662631, 0.35569877439089487, -0.1617262682427738, 0.2126414897105978, -0.2278949704310073, -0.14072622596825063], [0.6503595685575334, -0.3546400304309714, 0.004197803337764261, -0.10534920423851181, -0.6514868876550167, 0.26744710283753825, -0.392883157591439, 0.1163403504591695, -0.3331834127343573, 0.3788206653894459, 0.16452227626849253, -0.0838150893720238, -0.07701947181039309, 0.11905925686726239, 0.18955044788109474, -0.17262607527671361], [0.08062611323495848, -0.3228900243242302, 0.07308460930616235, 0.04120882113843291, -0.1573922630835092, 0.03388464243070399, 0.50106567202203, 0.051517469008507455, -0.24858235502503714, 0.06419521374716822, -0.1913267804995978, -0.2862126740857973, -0.07206894649642587, -0.15855783314675997, 0.2257090640093099, 0.09975309834134281], [0.2635126214356168, -0.20085971075458445, 0.12234395425035526, -0.2848934302154709, 0.1385806615936023, 0.15159511595156888, 0.014289179728588692, -0.20833315730433555, 0.09334072596908662, -0.0007918338640167756, -0.21817811664383993, -0.1930562088879621, -0.05888318893966831, -0.04816132553239578, -0.39038784776393787, 0.14503989074149964]], "biases": [[0.00023622456862157321, 9.948262243247464e-05, -0.0008073458845364273, 0.00015196765806277273, -0.00043248635433299474, -0.0001319700938933713, 0.00022169644753781495, 0.00019721352816195372, 0.00011145865504860183, -0.00015431121343422756, -3.181827426262046e-05, -0.00024170241036764565, 0.0003141480144156302, 0.00043359059093467817, -0.00019814813254940097, -0.00011059429525410688]]}, {"units": 16, "activation": "selu", "weights": [[0.030826406796353397, -0.08806297133920546, -0.26084349003669033, -0.1574323620173423, -0.18292303609564417, -0.42175527448789224, -0.25909814773702133, -0.04993433636931598, 0.5300866645640951, 0.061379795728130584, 0.11594970309027484, -0.16350189180518207, 0.09057352242311627, 0.3221847497780362, -0.03492537211591007, 0.0495006702402758], [-0.12393316822722499, 0.0985309738590976, -0.06625816131865458, -0.38799037122551056, -0.49303481803997334, -0.07143303047976814, 0.032881753637104286, 0.3031327596005438, -0.057904260504689054, 0.17654599119886535, -0.15801740838173436, -0.4186419130766813, -0.1496354143425121, 0.3619809114774039, -0.05669238722006171, -0.2235636270250487], [-0.11880604859180166, -0.07907636473694558, 0.41135533914124656, -0.037853218911601136, 0.4241853946560651, 0.12307871046061918, 0.4631658243051121, 0.42787806754994145, 0.15545346219798886, 0.20316884868381985, -0.04683199798523042, -0.18210445375374304, -0.5602220074636447, -0.18430703742681373, -0.047714392127421915, -0.030229751980100583], [-0.05923826675470524, 0.18097146814112544, 0.04683118263126209, 0.2780637202327562, 0.0683497021715995, -0.15961033919948758, -0.13765370020983203, 0.19163739141465622, 0.39093424118786213, 0.1608009724014039, -0.0785844079617778, -0.2468755313251447, -0.14762035304359727, 0.2059813124932996, 0.19524133228345275, -0.44032775619561465], [-0.3352882267579057, -0.016962326071105132, 0.1251202972513291, -0.047737804488536, 0.4264144007655548, 0.0433250881810527, 0.2591238869719687, 0.30551882936384805, 0.04365265141646491, -0.33333529146522717, 0.23547589453208403, -0.21890800387425183, -0.0982940139779948, -0.11827439020443754, 0.20933808489381442, -0.27557102279804163], [0.13474018267822008, -0.17703544175199007, 0.10899050604523083, 0.13847649567418485, -0.1476838521227165, -0.5056578322928688, -0.4593193274859367, -0.128228174283072, -0.5369639459727829, 0.34802836892561895, 0.3772816007805754, -0.346648358699253, 0.005778842762142994, 0.17811322006796837, 0.4027606674814026, -0.08619435497387144], [0.360884286934335, 0.18392380958899426, 0.13032480194160018, -0.30967943118159563, -0.591877896025466, 0.23914381644895913, 0.23683717006960028, -0.07963308790686896, 0.10401599823340381, 0.13540370083971565, -0.21933124975925736, 0.04340468107766638, -0.1577823550550574, 0.09437777465489866, 0.23041110483609148, -0.2224920179290312], [0.36165696496215793, 0.16820866364078846, -0.09490092035575397, -0.11730001032596368, 0.1424938551387886, -0.43633361301446744, 0.06396125905589982, -0.37478438956555216, 0.25522584845123647, -0.08721545361747803, 0.13831880198593505, 0.1942175617831064, -0.060217779356887595, -0.3214884391304163, -0.4917261433443077, -0.1395022641589868], [-0.041138774760907035, -0.13303440096869087, -0.04551351227357977, 0.3841755156709878, -0.1651413084170065, 0.269022406397416, 0.43516825716491386, -0.14916845294820438, 0.19904259616217587, -0.14090504476579577, -0.29715061130963544, -0.17005395459468667, -0.08774296955459034, -0.1496753445480753, -0.25024262409597076, 0.16448408435837883], [-0.23044874899729664, 0.14067438574236796, -0.28097285689368634, -0.1537993594893079, 0.25355707101220154, 0.012099698392284633, -0.35280587326174345, -0.48605451202883054, 0.008703477011889348, 0.03328023625316134, 0.28907473996589345, 0.08457230936251836, -0.00012633437131090368, -0.44094614310769276, 0.024975817503059522, -0.5436016612297881], [0.15731764303075074, 0.061601046201467134, 0.7412074832183573, 0.2770096453182775, -0.30787085925831664, -0.008540551860671295, -0.10844309464073633, 0.08698096268494727, -0.2051261896396562, 0.17980157851869677, -0.11143206611770168, 0.4154828328224774, 0.07397595506264856, 0.0952922510439553, 0.22300391345999243, -0.1522337774231041], [0.34225004591114566, -0.275415293951198, 0.1404567495409584, 0.1606452680680986, 0.04893704211825242, -0.1279213759815381, 0.19726597544033198, 0.12318549286805786, 0.29811350451489355, -0.08075837417999948, -0.016778337886643464, 0.07094260615453105, 0.41740903201062607, -0.1385510127683876, -0.18630761667802684, 0.02436229973383111], [0.16491358377926785, -0.2987539911635962, -0.13699891960700214, 0.34018020276689537, -0.1233363979843782, -0.26730310565930987, 0.481235066244928, 0.13977833238126153, 0.06570061286091908, -0.0016126312974370678, 0.17956766883049755, 0.16063922336527464, -0.4325850507434468, -0.36843692203464407, 0.06738755971496167, -0.006792209355700902], [0.21915970187791223, 0.156493767420107, -0.15608282800104165, 0.23115105643087672, 0.309165825260824, 0.0293600896608437, 0.1574379176565143, -0.7502537502443549, -0.23470972432362527, -0.18179244552142337, 0.017589106002009264, -0.0017246529001551355, -0.14093359957401183, 0.20800671833574538, 0.4468215365929463, -0.05658527789142471], [-0.05663874540210251, -0.12064609563991016, -0.08613186866611286, -0.11168565257450681, -0.40490749010709626, 0.1175517199112117, 0.1307457799452959, -0.2536647800472798, 0.19880824649922693, -0.3066426792029517, 0.09953394857149833, -0.32795204101308745, -0.09092038345539996, 0.04454996154722227, 0.32406467191461236, -0.22322008932131826], [0.3329270597804415, -0.6739166685184439, 0.44489583135801664, -0.17014008702845673, -0.2388270585988668, -0.01797540368122927, -0.19487149599336867, 0.12998116072846927, 0.15819727478344395, 0.14024033457292298, 0.2910265435994207, -0.24907413886544313, 0.15831834926674762, -0.39761162515039117, 0.08729564641243766, -0.020338435624590607]], "biases": [[0.0003648106097835609, 2.1772048696857552e-05, 0.00013767387624223697, 0.00053619689597461, 9.011309530383569e-05, -0.0006397338742043168, -0.0002131974011208326, -0.00036516421441087205, 0.00030045159349261814, -0.0019581781398928318, -0.00014423402462665564, -4.636387943150957e-05, -0.00025863998539135485, 0.00043186126771394554, -0.0006385878866484245, 0.00031698795039457344]]}, {"units": 16, "activation": "selu", "weights": [[-0.21453541481772495, 0.25102757243017204, 0.4648818347775861, 0.1493502856610783, -0.23019928153632424, -0.006055337335066206, -0.41263842120322164, 0.29814677802533784, -0.3158366297107262, 0.146850687439269, 0.06610812567839087, 0.440261012230286, -0.05816841944679142, -0.009839283822787794, -0.1410351544221157, 0.088351183031166], [0.11302240926130777, 0.08364415990060688, -0.4052134326229559, -0.03979225485015278, -0.2227894198224228, 0.16259172971079527, -0.2368303462680473, -0.4495596781715586, 0.19238779268341089, -0.17163509962165113, 0.05132150698998498, -0.16559675913175828, 0.03258155870794372, -0.08926412572254937, 0.10525865386503291, -0.14391967806109468], [-0.18676384775601806, -0.19118030548285733, -0.16671908636115004, 0.032365705341760136, 0.11596128029198774, 0.03250501287772047, 0.09960489552264148, -0.36123534406171576, 0.10539992980178235, 0.037809846325417625, -0.3175251311572392, -0.4463411159279246, 0.06925270292261787, 0.027153267131398828, -0.21656086486089235, 0.1592165521595006], [0.100824803592159, 0.3100327283098764, -0.02010214366676489, -0.3653134557679014, 0.2634628622622027, -0.06008628958958779, 0.19805984961556686, 0.21381625790952521, -0.035546166583273954, 0.20286589637868038, 0.015548917821308716, 0.01874368527943918, 0.2751612380378157, 0.01671407267886694, -0.11717149693497093, -0.044937657956055914], [0.060488986580344545, -0.22616190716655146, 0.14433351308214729, -0.20604127236596828, -0.14947082902910244, 0.1969501727514246, 0.19899502098307997, -0.06383527120783769, 0.11379673256780619, -0.2714773986635855, 0.12862049596251776, 0.031509231044514384, 0.4785094333876887, 0.5689654349683498, 0.20899622430102235, -0.031778365028726066], [-0.07095549491317751, -0.1905363181505366, 0.5513530830042395, 0.1620812356078353, -0.07801865178344591, 0.06655882489374017, -0.12673980726852505, 0.0180359191116472, 0.23178606434185461, -0.01290221287803423, -0.1167169090609024, 0.5677874749432776, 0.3174395751509467, 0.05433417765988437, 0.20807591135782805, -0.3144621755303681], [-0.2927498293960886, 0.1661735449382492, -0.46119113636613407, 0.08397825995160402, 0.11133579907129831, -0.14989103557917027, -0.06494036257101336, -0.029846164517293113, 0.5247060423207962, -0.18834154263440814, -0.3325389995945739, 0.008820953402636942, 0.15440643386758754, -0.08047580207740986, 0.0933842644730715, 0.3261572320422512], [-0.2735102649395505, 0.08339867598294541, -0.09163594933218557, -0.03681680790746973, -0.21631199207354448, 0.39667657094885406, -0.0805238659050619, 0.02813392210634813, 0.12566933957459633, 0.19505553721422184, -0.2920058624481521, -0.011058164923040542, 0.3237327515581643, -0.18491229567829454, -0.1760248963457223, -0.5491673894262014], [0.09103303916096092, 0.1611901608047624, -0.29281315836805677, 0.0408488323543844, 0.2878010671403323, 0.1908854298430058, 0.3171727890297017, -0.2304508013467268, -0.09919792418590322, 0.1334952880935149, 0.231720797211497, -0.024397864895625447, 0.0207110332612452, -0.569353025280831, 0.21769287190283293, -0.23201653458898092], [0.1781944916317805, -0.1771983411427039, 0.002277485758471845, -0.14541688750120307, -0.09729575713573319, -0.19676529154559333, -0.10272759776110778, -0.16379766522606098, -0.2691312758504819, 0.1830771363015531, 0.011869174592973585, 0.6930519828183386, 0.047060105818880885, 0.07559980330287001, 0.7355993372377017, 0.24829859304059096], [-0.6010596714754369, 0.0616887436331427, 0.2230092100484712, -0.0774074053911951, -0.10147739664342406, -0.21060453397181714, 0.16640186500652107, 0.3776141564950765, 0.23758527142939367, 0.10047468819239143, 0.3465844500050274, 0.26411054029454306, -0.24449959708555385, 0.3016850965148597, 0.09790329927777351, 0.07889820761298609], [-0.0880922155775239, -0.1875723708324358, 0.03954972313602672, -0.5236227056060463, 0.22426650518937136, 0.30112782126108273, -0.2913857773718311, -0.13425581534941497, -0.16683832933887613, -0.029253065927472403, 0.23433895537087795, 0.16793341894631258, 0.126832235295311, 0.13094518900743066, -0.1975799179606493, 0.39248565079938225], [0.31529896767261445, 0.29685762471123167, 0.09125241822463806, 0.03994542487245518, 0.09510055051108535, -0.26855344331973713, 0.6651682909600882, -0.05076751961209077, 0.09431773870221934, -0.25669493808150956, -0.22603053175321705, 0.04752911174114066, 0.14765129740604568, 0.2387774938640639, -0.2070421976964006, 0.36968475979458587], [0.005202776609226974, 0.026482291143616055, -0.0664054141349694, 0.06103670232896742, 0.2587774418612023, -0.026611800914876905, -0.03441728313793911, 0.6268949191337261, 0.06944635459032018, 0.2250913485595991, -0.10682715708306412, -0.2553942483114274, 0.05438656752138196, 0.294853827154617, 0.002764645082870546, 0.16029373272396003], [-0.16213802358575763, -0.4180542069831674, -0.1808468564507578, -0.11589268268744657, -0.1465692640587664, 0.25535059894755263, 0.1534182899396727, 0.16882548533710542, 0.15532008615383916, 0.457497810378377, -0.07737449336478888, -0.17573841211183305, 0.45664027296538345, -0.11812589632347885, -0.39892686247464837, -0.006736045296165488], [-0.3082100558500357, 0.18861536942166338, -0.40938150106754256, -0.3261377216862245, -0.16804461638158116, 0.000922474878415156, -0.023853584915118367, -0.04922990984524672, 0.16433254130042063, 0.20839269163436913, 0.15500095591654522, 0.2718505878064613, 0.3326328252111147, -0.044931030943795594, -0.32072807913945733, -0.24556996441511378]], "biases": [[4.2599367871405094e-05, -0.00019809837149206412, 0.0005143197695559869, 0.00010505749381915273, 0.00010179889220068199, -0.0004298704300063316, -0.00024576804081280224, 9.426814052826825e-05, 0.00012740570741492493, 0.0002225445175060758, -5.7413872392787093e-05, -0.0006643087860412839, -0.000997874938056197, 2.5268089852577753e-05, -0.001398101039358412, 0.00015225696705111432]]}, {"units": 16, "activation": "selu", "weights": [[0.413421615830339, 0.20467449231574267, 0.4969772929829861, -0.7574370585477472, 0.3304722184220692, -0.09019883462884117, 0.40259292749196973, 0.05901897829517836, 0.33246575441836385, -0.19445994484049334, 0.19751300275635997, -0.12903257020434022, -0.2194881239009107, 0.07849037196233052, -0.45352525818052475, 0.1843365195625095], [-0.3318584729302779, 0.1446746056944731, -0.07453137232859779, 0.04181680886433854, 0.2701141802489199, 0.27545105438263134, -0.34051169813586324, 0.5025217653630076, 0.10975553066416731, -0.03587216936044185, -0.1060779386314509, -0.27432105502051474, 0.15035927513635292, 0.1282609937681401, -0.23093134526666956, -0.044216395077987865], [0.08822844235435197, 0.0948719162593448, 0.2891500754031705, -0.3344592090918605, -0.05968048824568788, 0.16218144516863806, -0.002354266457657059, 0.2008493676176583, -0.2706105328810502, 0.18238430276668238, -0.06729999099509505, 0.10487384846052926, -0.30624524792908425, -0.01872186533351412, 0.1362179453746555, -0.31730480553666257], [0.44403951858907253, 0.4112005548985958, 0.34122371963001324, 0.05900255355033725, 0.299989283490674, 0.32062896366389293, -0.23345170563428097, 0.12106465700474531, -0.09271656318085408, -0.21666648173600325, -0.5308506052810579, 0.5413099509779221, -0.16834871075044505, -0.20441745665658007, -0.23383331747334873, 0.4160363248294461], [0.04057970496966025, 0.07877431340141516, -0.027752898542405507, -0.228356597960591, -0.06747727678073243, -0.33066142773139373, -0.11928215706566075, -0.3201351440382134, -0.18732705845808723, 0.2712461120488875, -0.26370361292678596, -0.07896191775744836, 0.15432742595611243, -0.22567920761122276, 0.5833744054876883, -0.1353508676845827], [0.3111872140364955, -0.1455370451312124, -0.05305243953085433, 0.33018667876349034, -0.48853877717167815, -0.1812285715259462, 0.24611066105613824, -0.04649340043164736, 0.05555940938090732, 0.03723227128002888, 0.05291521452939676, 0.2801949523934569, -0.2213522864393299, 0.42585866662551497, -0.045263496340523776, -0.21070913793783103], [-0.23995938762477523, 0.11448197657301709, -0.12335512994258903, 0.49584532756103344, -0.17446414784265155, 0.032530620755115376, 0.16561021398233094, 0.3672029015795075, -0.38764586908449716, 0.06883510469993208, -0.09755780476336517, -0.01567278293216889, -0.2649344829805287, 0.03489754183341948, 0.23562964454234517, 0.312831708436592], [-0.0785462734710215, -0.1287256949283741, -0.4073430258481422, 0.22816003799658133, 0.33676676529622, -0.260627078197308, -0.14753508035947419, 0.10589819304765283, -0.06517117414189576, 0.03180124525213598, -0.4671313178376114, 0.010635609077595195, 0.9351376474007039, 0.43642303802352417, -0.10872966721276726, -0.419697173452405], [0.004562319230157738, -0.02795049389430973, -0.13734617727007212, -0.1524228164435699, 0.13790735057774095, 0.33371892158608124, 0.04466952677632676, 0.1359149356751331, 0.04628146394786335, 0.2969884624679055, -0.6628111471195397, 0.3518758107142207, 0.31409123633220953, -0.3653167850629969, -0.08101490295420198, -0.10758288576538486], [-0.4938883690058169, 0.02809320082042183, -0.18213971546714056, 0.45729207679920414, 0.07363939219982013, 0.1813109627977212, 0.20101028798997078, 0.144923605925676, 0.2311122849762912, 0.2506920685148018, -0.19838735444937527, 0.24051409472807048, 0.2494856306638453, -0.10044267318423243, 0.16704125402675954, -0.07470046252759434], [-0.16235826667838604, 0.15035556235294312, -0.4330523464458098, -0.40223597308019143, -0.21123604196372095, -0.05884567627009864, -0.3209734350960326, -0.3017188579052121, -0.11272150035387275, -0.30508000956770503, -0.033525804993748146, -0.33154820134854274, 0.11226813551608035, 0.03473692148064634, -0.012220217913854959, -0.23039518123149], [0.36819613394071155, 0.21489248210185782, -0.011858650565795954, -0.12826842657349213, 0.06700419309209031, -0.019665805711279714, -0.03268247835749209, -0.03170021202501969, 0.5775323614033686, 0.10288935156626171, 0.1380545649394643, -0.35871492927942705, -0.34036584727160235, 0.49150042749683354, 0.3286565857530024, 0.448108338150943], [0.049380798069373115, -0.2628836658731803, 0.03736194075229059, 0.1529978237064695, 0.11234597633337344, -0.2722810890504908, 0.16255713503273211, -0.37122051964985775, 0.5570884834726969, -0.30020212833633503, 0.09926664979237268, -0.07416033798073893, 0.17178057402853622, -0.3785186662312555, 0.04441597717865768, 0.19808196891273286], [0.22139098121107273, 0.49629061599089014, -0.06051680884792607, 0.004962803559081448, -0.28128826144136115, 0.17086899124041702, 0.1723303101965445, -0.00017488510956928778, -0.27101500452909094, -0.02507188392382645, -0.25991819531028637, 0.011735330972822932, -0.018872815019507817, 0.03394817685325563, 0.24277158932400764, 0.018686239455097058], [0.2673691595539457, 0.3286558242181533, -0.22765918220358944, -0.2206637634980339, 0.32251487300068876, -0.0242655148124258, -0.03990356917348425, -0.12963691084762208, 0.496424639596593, -0.4144626477658171, 0.28909398618212384, -0.2308218991207638, -0.04891879466485946, -0.4279292119951628, 0.595688328768633, -0.05749823152912909], [0.06529610441830867, 0.12059044136431689, 0.06254014856936825, -0.2445214781147236, 0.5632547301992491, -0.38319951384870254, -0.2129927926821525, 0.06423095292045493, 0.30432831180654935, 0.1651349181193786, -0.4839669206465001, 0.0048157998337978345, -0.2313023457825029, 0.42203680158146645, -0.3998732349219729, -0.22154406664959753]], "biases": [[-0.0007474507829508361, 0.00036093364974157307, -7.74600833463061e-05, 0.00020531445123518383, -0.000536011615311621, -0.0001865606071005142, 0.0001387708055468012, -0.00017472555718411404, -0.00043357400919770623, -0.00028785221141727215, 0.00028987448815430585, -2.3083959376193054e-05, -0.00028386860119646246, -0.00028551075770506665, 0.00014446766147295588, -0.00024293777280267708]]}, {"units": 16, "activation": "selu", "weights": [[-0.00911535627909143, -0.2939498084484316, -0.5000046660742004, 0.3270129440083073, -0.22809760976097376, -0.4208344538682078, 0.38432977386335565, -0.16529418835308765, -0.07456373251301014, -0.17969528542228155, 0.09096579422587833, -0.1130673931689755, -0.2822541707551576, 0.13784814091656084, 0.1965263378730641, 0.08166705495706858], [-0.13879160163667023, 0.07644167872109085, -0.2505659411656611, -0.2727314997839445, -0.006762368022594313, 0.13037798405395684, -0.4394048415969353, 0.02067212935001332, 0.07805054888508993, -0.1754206712958389, 0.06192468628326438, -0.0578280209286751, -0.2951334490145726, 0.48906266136370175, 0.42869552204473094, 0.24472926090204367], [0.10413723718866892, 0.2087990735140778, 0.2429840676667837, 0.02470644780894686, -0.11449743814810706, -0.017177038331644533, 0.22832335452729513, -0.04716394025783642, -0.25980450433956476, 0.21604582863579885, 0.1400726744230304, -0.4298545031671581, -0.04980151855039691, -0.028416101200446874, -0.06559451850196726, 0.03530189015585982], [-0.044213800205469965, -0.09080801748823979, -0.3718640534304317, 0.3047243778724097, -0.18291159769518125, 0.21098404799995457, -0.148857155922741, -0.3545896874716754, -0.032365445300062905, 0.13287273545874934, -0.23717522482302464, -0.05081407466542718, 0.7112628798086977, -0.03296708258507944, 0.125298688987582, -0.028197729486892007], [0.13011615979682334, -0.27084526756595734, 0.06765247454458925, 0.13598538503965846, -0.4387066783758607, -0.23610029237837388, -0.07951660230670271, 0.05697473165511808, 0.0007021485686075556, -0.1164078653769805, 0.2708544389444524, 0.36129615709558044, 0.5384301735761587, 0.3269208620364387, 0.01338729444687293, 0.14797346252949928], [-0.5850910426501152, 0.10068687865495887, 0.32111151516012315, 0.1466381346269919, -0.035829168336661076, 0.02329316866785628, -0.23100601492576225, 0.07036603570167622, 0.21988367027844893, 0.5193934444543115, -0.05298177547564805, 0.4865964911494743, 0.3000112339489855, -0.017642118992375718, -0.3397497317380071, -0.2732085082785361], [0.13568217484075298, 0.3698977091581443, 0.07191897025856166, 0.3985080134576149, -0.07018811862839397, 0.136328727621407, -0.1526010747528194, -0.34821530719436256, -0.11880181049945523, -0.3825185102377946, -0.1815160153706567, 0.31848649182926614, -0.26102235063763907, 0.17070705370223904, 0.1898410209064119, -0.003851689098390825], [0.3557808246636572, -0.1765063924068239, 0.11722697598464249, -0.07535220980506799, 0.17161049203703244, -0.1999189168658075, -0.1592566677591083, 0.30285740386382337, -0.195158713022241, -0.4459251920467202, -1.0795172986793975, -0.06577124930092929, 0.477401401414676, -0.31667606023174716, 0.22489870529962608, 0.022917792034350522], [0.4863559599901971, 0.13042669352165506, 0.15762964057518924, 0.3363769356670598, -0.2097080314573783, -0.4062761418714499, 0.015429339293253398, 0.017243048844153234, 0.10011437053492517, -0.058609806404170045, 0.05904479015540368, 0.29751193982067126, 0.36078393105803414, 0.15741115653857116, 0.09823212698607693, 0.09895758791846475], [-0.43525438748480877, 0.09777716201648444, -0.30484160779461295, -0.025613799339123004, -0.06583278719321856, 0.6972551160079484, -0.567669320813769, -0.056869665389202184, -0.1421854919308575, -0.4432232515573616, -0.22152744158240065, 0.10266765051483864, -0.1404299952775266, -0.18250898280444644, -0.23998632663273564, 0.038247704254563135], [-0.19550383237695734, 0.10677826307939996, -0.213942091231267, 0.32794669076505295, 0.11234022872681104, -0.2303461017852977, -0.35446390591356153, 0.008341079883274424, -0.12084688096665278, -0.026856427813987543, 0.08988084721615507, -0.3406287242806272, 0.19031689329100496, -0.42620759640442124, -0.14953094422015933, -0.08809462404393974], [-0.049228501370520726, 0.18992132822107044, -0.06180656345237512, -0.21242220364786527, -0.4770819274177848, 0.2589804778889463, -0.38245493634005645, 0.11045160909715245, -0.24683168765101807, -0.11473240675090111, -0.20695716926475327, 0.6553827205159857, -0.2009510388518695, 0.2224977938182581, -0.10144235673295175, 0.026618139088470272], [-0.21467779485729607, 0.13833581200735554, 0.047924224769239854, 0.21766180255162834, -0.35521312559106333, -0.2727714844794159, -0.3908076407970553, 0.036528155096069326, 0.5155658852466741, -0.019906738953707762, -0.006433422974939086, 0.06797380587255736, -0.10297226008082833, 0.025021040301322944, -0.29247777845300726, -0.23041481957834306], [0.013270965149791404, -0.2090153644225743, 0.4654932313044432, -0.07156196422310641, 0.12007037757627403, 0.10578439979777077, 0.30130914439131623, -0.038494996763442785, -0.06390814762357594, 0.0924197226720448, 0.06306441851707029, 0.09206842864607494, -0.3153738215479051, 0.30329692746133247, -0.016549968624482485, 0.08791102083119406], [0.14803792908846528, -0.3481540459249145, -0.2570167169102053, 0.1509508745640237, 0.0031117939992074445, -0.11847369964922565, 0.17809154642136468, -0.18586752765408115, -0.24636485575168934, -0.10725757658707447, 0.11758163119442107, -0.03097071675987996, -0.3527598721002199, -0.6029040257784287, -0.22418740325820938, 0.1177137599059004], [0.2689129331124684, -0.09875083634573871, 0.22847122749344315, -0.20113376750794784, 0.05483072891356466, -0.45802744082735586, -0.20155345712687173, -0.3595037308492401, -0.19069753657438698, 0.10843546495903429, 0.24765650977715276, 0.38054148334055143, 0.1565690376533007, 0.4109122105278317, -0.24398670857591404, -0.17670900255121094]], "biases": [[0.00028486921667074356, 0.000218860715645405, -5.2200832964720014e-05, -0.0009340493136849029, -0.00032927659028983495, 0.0003780070290379641, -3.5903676791671396e-05, 0.00010263877022451221, 0.00046733352571922743, -0.00024574811859979877, 0.00036148171902998446, 8.54465791117024e-05, -0.0004464852356019614, 0.0001750218386902207, -0.00021429843920275175, -0.0003927225010707718]]}, {"units": 16, "activation": "selu", "weights": [[-0.20238290884930862, 0.04324223391727092, 0.3013491267689807, 0.005621883366986933, 0.48576213232086696, -0.18662817013806265, -0.5389148036046149, -0.10772073226618385, -0.3953705663171696, -0.049825521658027436, 0.027325328382127985, -0.032625542649067085, -0.3120039842799518, 0.003717027486323287, 0.16246059868550589, 0.37243828567939585], [-0.3802556245371792, -0.2205957238932908, 0.3887026057063942, 0.12945742226574208, -0.17761203660885322, -0.24200138635459367, -0.016719106646257677, -0.0029848796347665177, 0.14158967790045296, -0.14532962742403946, -0.17204635546615304, 0.012630026720108732, 0.41694888230958205, -0.3189083573477199, 0.3607242815206316, -0.19587556409956475], [0.05196885939238694, -0.06725506353136336, 0.08430009757492048, -0.0927127188442177, -0.32537776654961775, -0.4659765523566603, 0.04361329878326984, -0.13906714936793757, 0.06617841352386576, 0.19545695092946966, -0.08775708767243694, 0.38982647860449654, -0.3371861709855121, -0.10141743375291783, -0.14846992830180702, -0.06210478483096084], [0.3165301928390955, 0.03201490779907458, 0.17933298645516638, 0.1407366820495863, 0.36177139594841273, -0.03219079022635642, 0.04385956766183968, 0.5626175046380146, -0.0550839817357466, -0.36264368622963605, 0.3335489415887468, -0.10293778241739027, 0.38244890812714166, 0.032795261052061674, -0.6734831923896689, -0.3107453918988682], [0.05614638627486295, -0.11650492097335048, -0.1717943956035003, 0.024838922587830166, -0.2939597812943371, -0.015014089168324361, 0.21274001763434403, 0.1354912552127212, -0.06559777023922736, -0.06955848746068471, -0.083584477070407, -0.41742460593350933, 0.15516809779295498, -0.3583843532213842, 0.2652614943663368, 0.2838180349260457], [-0.02217791201950677, -0.4788716264547408, -0.08691550867027825, -0.06766319457022682, -0.49919806229928476, 0.09823919092246026, 0.44686685381252933, -0.060446243412102106, -0.2873135347426559, 0.11264335863095289, -0.10319391024339701, 0.26577340660586407, -0.2291021412326812, 0.1641024305581083, 0.45558097584805246, -0.3874975879891121], [-0.2388118948007474, -0.14926950779277903, 0.4107171535735362, 0.4807862778615725, -0.5058021829220919, 0.37266108177781676, -0.5509044512891315, 0.022930287834694058, 0.08397307978596417, -0.3841777303908099, 0.5100819303857922, 0.41229099012604065, 0.33909983188806664, -0.14461440125310518, -0.44405838769450634, 0.36893134003940864], [-0.22135799039076492, -0.33884612969047684, -0.49362622273567164, -0.12623980806251375, 0.026560419752568117, -0.19031156300849433, -0.30002279551812167, 0.32452551713286654, -0.519359295023482, -0.049034531166168335, -0.25268222328913204, -0.21833726219244842, 0.0824016568939012, -0.3996299030658241, -0.13962901892213136, 0.011818332986143692], [-0.1638244841139426, 0.20377950796801103, -0.076962380520582, -0.12812871237767187, 0.022597866394396503, -0.21719718447441608, -0.2915737987793913, -0.07081960654260709, -0.21231725435590096, -0.22392537443476382, -0.00827877168539941, -0.29854533148391527, -0.17608599022183186, -0.45144272462789925, -0.28959796960923523, -0.06773003497454229], [0.5653736204338433, 0.1338803277738103, 0.4527978928081779, -0.21322483146538068, 0.06337894030150391, 0.3214573740545986, -0.3563525287931015, -0.12163571723033029, 0.21882095513030508, 0.005609038703499091, 0.5469922484466194, 0.22929167820415283, -0.029152224937137806, 0.23616335014116446, 0.18027718906852747, -0.002447036832794877], [0.07768571270773533, -0.08775700930157805, -0.11332976532903262, -0.5205125745033649, 0.3060301355260232, -0.1298871678836761, 0.05269567719881428, 0.008802535579378679, -0.03355335605248985, 0.07763634793975155, 0.09299568313400834, -0.23528611392573856, -0.2828195135703683, -0.05736779342285645, -0.11734215970260402, -0.021471345908152886], [0.25274139331808215, 0.09915384460211461, 0.4281986113325512, 0.22621864071297773, 0.013823714014813407, -0.2780780620977165, -0.05382908580325871, 0.26166541243960983, 0.13925374092810588, 0.43804092223334484, 0.33845844932266467, -0.07708855225370857, -0.17022224137931483, -0.2296075803572449, 0.15743810121041252, 0.2914545855445353], [-0.3635236738141049, -0.10142013885443402, 0.23719029099946712, 0.19237017699177864, 0.2541876001517018, -0.8266824239738393, 0.2426175277315104, -0.16941666474929223, 0.32822380612339536, 0.11778743245939827, -0.03827733611392552, 0.39300734661662023, 0.25221384028681776, -0.16300774457558123, -0.09336964701683557, 0.11624608679663193], [0.20100080082692506, -0.10749568838650649, -0.3317610476301076, 0.46950935571815594, 0.44077753812607157, 0.6320090254626076, -0.2033559000834894, -0.24787832123492323, 0.30393430199739546, -0.38472334764505467, 0.10008921977224514, -0.08332568752012674, 0.15381892130800187, -0.15774552426696023, -0.22140885995979542, 0.185456405747759], [-0.0017213649699130162, -0.030930707300227497, 0.14793271242390912, 0.1205064408381325, -0.1128347907292665, -0.15795027364356334, -0.3206646135955227, -0.11867766807978061, -0.25475417964797914, -0.45276537699714237, 0.20872870363894805, 0.32235868079230734, 0.011089412359843436, 0.07134140382006264, 0.004805847225175276, 0.18192582297532697], [0.2669448746171735, 0.3887656025758455, 0.14935039547504722, -0.20945160652734773, -0.066549345280338, 0.3958952839240958, 0.26749088201433296, 0.05796344017496819, 0.22806330204639874, 0.008963679845038685, -0.20330555572222636, 0.20949480527246753, 0.3769409693865694, -0.41958476077049905, 0.025415197976835575, -0.15909162374281616]], "biases": [[0.00035867231251616717, -0.0001933493250405288, -0.0005003369720791167, -0.00014070767607076627, -0.0005925469624774415, -0.00011719091082913145, 0.0003764099043560788, -0.0007019933750236037, -8.58145394145199e-05, -0.0004434946127898243, 0.00036207603083243016, -0.00037175402390723255, -0.00013074123065950533, 0.000262525130201808, -0.00026835871580552174, -5.692355372900609e-05]]}, {"units": 16, "activation": "selu", "weights": [[-0.05322840996539614, 0.10476060467250903, -0.18242635944398805, -0.22054952737313632, 0.1314182466819386, -0.14392777565891973, 0.3635490773528197, -0.3543969068465361, 0.1571197660695646, 0.07752749350358779, 0.5440981321801764, 0.28525539106018616, 0.18095843806367307, -0.006588042710790044, 0.16684034217377647, -0.03737230910304182], [-0.02119571693915234, 0.171239610978906, -0.4914109235103602, 0.21884442063951007, 0.4212146053339398, -0.083643890182346, -0.3415773427415151, -0.1955070753306068, -0.20989374108371664, -0.052533328481770926, 0.3395053176749361, 0.019286430671479938, -0.4396206307289111, 0.1547940833220821, -0.5764027218507178, -0.3380700468800966], [-0.15147271688564545, -0.24344714644211043, 0.2230541350856722, 0.14418414807086596, -0.06162217777474986, -0.3045906238577559, 0.05429717318564155, -0.03216720149357086, -0.14788342991242412, -0.16218257860026197, 0.1278113665930296, 0.3886431615329322, -0.15325802409551112, 0.45310706975218784, 0.2888511378182568, -0.25943050479428753], [-0.3819725911316545, 0.0441492030594296, 0.25948905035805914, 0.10098290324829672, 0.09745162637102409, 0.04067019438207878, -0.011647290553239634, -0.30533463561350577, -0.2521907856353409, -0.3459364614302388, 0.030946573036190295, -0.04921415772502649, 0.23570202419319486, 0.3309184774513929, -0.02687773592053863, 0.0116600654421259], [0.06273580642142254, 0.041168297113490473, -0.01974959887662779, -0.35928264351207956, 0.34221275944720053, 0.2489429526857456, 0.19999686777488332, 0.13814825070803186, -0.09918633248475761, -0.4332626968610329, 0.6578724938324387, -0.00496726107634116, -0.005470780980066508, -0.12740815937679417, -0.2212046339732899, 0.1368164066730937], [0.07103903989925733, -0.3200706224616652, -0.027132780234585853, 0.44364480396468103, -0.19690885866140315, 0.10883523145077892, 0.1904316134779067, -0.08084731091997217, -0.21187536494446507, -0.10433827244379572, 0.20599898025856261, -0.4911312957674834, -0.3652599327104352, -0.289820403477485, -0.26115045994786007, -0.2674106106831554], [0.1289277620210372, -0.4203239071251987, -0.2331771765368267, -0.09570939282157949, -0.31336871159408863, -0.2949790607608748, 0.2804543682277224, -0.17086596403378798, -0.2684643807666056, 0.08864162307622878, -0.251044626040469, 0.017346989522777672, 0.06556139152429476, -0.15362373910131988, -0.0807909840408145, 0.29175032214769814], [-0.10424952967130544, 0.017829143755851894, -0.4091054192718765, -0.6395849931059964, -0.16398981710626262, -0.4063788059870416, -0.05203347595421365, -0.16941359637557538, -0.56836645913733, -0.31801781340684143, -0.16846978304398966, 0.011489001021737092, 0.13237964386306883, -0.03152137717599247, -0.16510897797251817, 0.2197730899214103], [-0.4895836252549991, 0.0009962790011721206, 0.38882396346459497, -0.0399410523553249, 0.19302836981987467, -0.03985225559217262, -0.35777471715710957, -0.04348962530755541, -0.09225971260114155, -0.14403655204475405, -0.5236052430898065, 0.0740810840895916, 0.004229881972625453, 0.03515388596208054, -0.3605802621413059, -0.39530139682635634], [-0.20498134316940902, 0.24614498919566402, -0.30712302635826544, 0.025920024138198435, -0.2926036136666648, -0.3673712412884535, -0.294919894080219, -0.11193162934079319, -0.029776331506578234, -0.03135765257202108, -0.15998438996300898, -0.10151598369113977, -0.39283215903302765, 0.24033310692681725, -0.48654309135363993, -0.5158806680487795], [0.05014777365577722, -0.23687494748205665, -0.4588760242554148, -0.08374833502999504, -0.04858160279809676, -0.3195952080922442, 0.13273506318291073, -0.23348358607580372, -0.10746364341307438, -0.20991382023600424, -0.06630749367851448, -0.12541607381443634, -0.2590751696918872, 0.1912708138690888, 0.1331925297467165, -0.09099576875524892], [-0.06977032206951916, 0.17204783336004664, -0.22384999416512355, -0.004872742464890705, 0.40282666455202903, 0.4621836428886447, -0.2067924310071377, 0.5090276083600243, 0.23049907812846507, -0.24020050872395174, -0.28872490720902927, 0.10120464125867183, -0.2600933987618274, -0.543457507289649, 0.552221983717717, -0.057471486710337034], [-0.1577116812503086, -0.18707009262029006, 0.11351512976946047, 0.18245569426050268, -0.23611613926478803, -0.06297084824048065, 0.16930760786303375, 0.31236794733676454, 0.003589315376641952, -0.2212915801253113, -0.22272852763505538, 0.1532362411539638, 0.12456213007880709, -0.6799047539038422, -0.03985341652003497, 0.05911696829638567], [-0.24250689664091757, 0.14662926598905113, -0.07407609891902048, -0.261806647066809, 0.07416394570760199, -0.5863794505975212, -0.09892705494096506, -0.13101811722524698, 0.07688902614480515, -0.5168176015558036, -0.005503093255169022, -0.005776679917286962, 0.576455412323496, 0.26949775192358166, -0.3853622158491834, -0.2204998595147777], [-0.3051797045028113, -0.34047008068211526, -0.4415760404539984, -0.041978871460568626, -0.30224505361459214, 0.1271941221658216, 0.18760604136349954, 0.4491508292603557, 0.29381464893829146, -0.6484407466961005, 0.1700276569484231, 0.13244512574017375, -0.4814652132992239, 0.41095275533901215, -0.037233431861814006, 0.14772434618218283], [-0.04635943792438828, -0.040439427810690126, -0.3516756171499232, -0.2040937433272628, -0.2753256391743345, -0.32545150364139647, -0.13068903341408347, 0.15696203801353192, -0.03339301630725731, 0.2671366568996106, 0.006926066450518875, -0.032841397371469065, -0.21539356994654685, 0.031487645193043985, 0.24913255476964408, 0.2547022110789569]], "biases": [[-0.0003821505607317862, 0.000224319754928248, 0.000281309033715045, -0.00023219939934533026, -0.0006571665032428346, -0.0003160427502083323, 0.00039332062328146627, -0.00015507643043753393, 0.0004445598630920801, -8.337871786985656e-05, 0.0004104860356666662, -0.0004178935126301534, -0.00014968414541097975, 0.00020295532204623584, -0.0003645600966254322, -0.0005108131359266605]]}, {"units": 16, "activation": "selu", "weights": [[0.22601232223000303, -0.15345017952340004, 0.29543507028165317, 0.18291985259979024, -0.12340012799861914, -0.06749681596508518, 0.5671919427845984, -0.20086496843145016, 0.10065415866263781, 0.38355110312582325, 0.05386560938256887, 0.34541371129740345, 0.04572724880770435, -0.10656193707134472, -0.4955221327418192, 0.00945446981070785], [0.4843083130247913, 3.6534514543909744e-05, -0.1418748401710822, 0.10089951984877289, -0.22317568328553358, 0.3731273073247179, 0.22000311144760007, -0.08969269312672487, -0.09948468849943086, -0.05085540533264968, 0.003067274536286882, -0.09876495418035974, -0.37852897518774686, -0.20856736697383346, -0.3341695499066584, 0.2446405017970832], [-0.07439704262591919, -0.011701604464412024, -0.22780959677652052, 0.21511311872024458, 0.3231753612364942, 0.26067964328764415, -0.15582405098141403, 0.17730816332031055, -0.07712551512811802, -0.2575021977877736, -0.06191589115250527, -0.25165100170031496, 0.15478550333226293, -0.08436497818658525, 0.023399577958734253, -0.0639241692432548], [0.08287226712443019, 0.0876510128213049, 0.2809597696769603, -0.1791041891957023, -0.3668671516532226, -0.3146288318138774, -0.1382699767411325, -0.0496887115078208, 0.26503823096393336, -0.21993238986134242, 0.29992653709182127, 0.008582064984202158, 0.31623130417448964, -0.08747801454316381, -0.10553265082278496, 0.021121770842280962], [0.591818708447884, 0.11063482567869753, -0.20843463747705002, -0.013208365793673692, -0.1302878146349521, 0.4426797450588179, 0.08521034129063816, -0.308239062616336, 0.08495320168071413, -0.3278899774777936, 0.12730246989080915, -0.22094781786941808, -0.27595795620451713, 0.16982101754810142, -0.1027574520305834, 0.05436342983010245], [0.06658015880870467, 0.0929820763111733, 0.15552447771957645, 0.2853791396304433, 0.15309884766281834, -0.16575325433463156, -0.14980351192495592, 0.14560482794708654, -0.3042711836662604, 0.08754297520625023, 0.18168508922165583, -0.3381027555977166, 0.08909601023710786, -0.11005842542275558, -0.04180252558416206, -0.07844698502158547], [0.2922185421523535, -0.2733843992545084, 0.38664707289402855, 0.0574242787341253, 0.09080228151601022, 0.037122663548225146, -0.07095165638171588, -0.23202564571684345, -0.24565154125926475, 0.6370128282757368, -0.1253905030904891, 0.23887224715705482, -0.37293351323370666, 0.06788423284409818, 0.37451296743694984, -0.13808792375423853], [0.006459445943834669, 0.3418965926128812, 0.518986546784332, -0.42166350418193727, 0.1501321425256983, 0.40147291347758085, -0.11368058989599951, -0.26176327497052126, -0.05581780937770848, 0.17200102054710206, -0.16862914184555064, -0.014237955854459331, 0.13639089499550014, -0.29940171302288493, -0.5858965726107275, -0.41797783386529713], [-0.3057848749805379, -0.5039242795618474, 0.357655030660136, 0.3291564724957388, 0.16823728083577097, 0.10281224400210152, -0.166745815713111, -0.17002171977771519, 0.07671842146803894, 0.1559938216074056, 0.09833925057369776, -0.24249246815505177, 0.3736890836861185, -0.29152250841943755, 0.017832378012645932, -0.005830668262373853], [-0.15840459585820915, 0.541986021088319, 0.16232181770601778, -0.07267583258489267, -0.5902159746957203, -0.19825169984941468, -0.053969605508638156, 0.5000188074421836, 0.15055377122866812, 0.1043169473540477, -0.4274956846311485, -0.15969449513854314, 0.13446831364344247, 0.13393309905466405, -0.21981404724579462, -0.6197620029747953], [0.18656036637193602, -0.3693348714696772, 0.28456121142297286, 0.042962880123563495, 0.1891553757120199, 0.03616948978165376, -0.03437091748527154, -0.18158753843168338, 0.051965061708049924, -0.14715686722721125, -0.6257984492189229, 0.37575415490643826, -0.11723208844349756, -0.40668083251610354, -0.1053460694779763, 0.17349574234159915], [-0.010896507108656887, -0.03406974842281911, -0.19627441024684422, 0.2182642651261627, -0.1505555538647699, -0.015223109071863042, -0.36252274483261687, 0.048811905159958716, -0.45086909004909065, -0.24573864924146552, 0.36839035688373295, -0.01762993438183773, 0.24881055404715507, 0.007602985146989481, 0.07196769262424096, 0.022488337039054878], [-0.2337094667284127, 0.07628877719362316, 0.38525125544162336, 0.2207106034008144, 0.21153033418750272, -0.09394199750602336, 0.11488460607409172, 0.4288953309738065, -0.17914484443954537, -0.17031697689240807, 0.2868005606352693, -0.5343626303210027, 0.6050442381127148, 0.44866345304858274, 0.45312401966962723, -0.16674930774097502], [0.13606893899087988, -0.11403455258129311, -0.14876289054178804, 0.09378586144237183, -0.49664880909570736, 0.19120245331401262, -0.1440180742837228, -0.23389321956162482, -0.08903438322092003, -0.3089698612749859, -0.03481371999018276, -0.42799436966926563, -0.1751744773294009, -0.18095209312707544, 0.3981022723319278, 0.02188702058683895], [-0.4815822013932931, -0.2339016237930483, -0.24219346111680706, -0.07954134649051423, -0.11490257170058729, 0.3173370675638671, 0.2893552057431033, 0.08700199424146007, 0.21105936863300287, -0.12209177726990506, 0.052149601536533245, -0.025227725677564754, -0.1546165719841969, -0.1939610505791394, -0.04381601705874638, -0.06302246553859596], [0.09015688929842983, 0.3602468527425141, -0.3067180581994016, -0.11256138016070569, 0.2357123427459194, 0.33792044634157326, -0.15091047265053342, 0.2131043908251213, 0.011929381810583357, -0.38213363584953336, 0.3147677696672391, -0.3182266977121434, -0.30084390559419255, 0.2767207874348792, 0.17543629423311752, 0.14889837175341383]], "biases": [[-0.0003434569899835395, 0.0002403903240299218, -0.00031931349703085966, 0.00037616406779257164, 9.752052213100454e-05, 0.00038148454367604, 6.383196061643531e-05, -0.00041545309264235427, 0.0002654522314175309, -1.7927939269469412e-05, -0.00039413721143851147, 0.00020950032087823194, 0.00014465217234041686, 4.3058147582017564e-05, 0.00023113221223208322, -0.00014589106152767024]]}, {"units": 2, "activation": "softmax", "weights": [[-0.49995427389660035, 0.3691887954954976], [-0.30668299188273246, 0.09980392718575704], [0.5322025742179333, 0.17820029189969847], [-0.4982506876823836, -0.1965776765058906], [-0.05499143539473826, 0.4788800458033321], [-0.019344477201039652, 0.27564285816213263], [-0.12527312002168414, -0.11868994890042792], [0.44133198879222935, 0.19991356648031164], [-0.49798494921558606, -0.11549085817849405], [0.2527274158617424, -0.34893631376016176], [-0.15650277040940078, -0.30877786452305633], [0.13777243414198445, 0.5706895792068184], [0.5014742364711082, -0.22166768714122131], [-0.09422427997539386, 0.4789041438486267], [0.06854914100859107, 0.5017779535508929], [0.46869150675337046, 0.42890315221800035]], "biases": [[0.0005368112252941742, -0.0005368112252941723]]}]}