{"layers": [{"units": 50, "activation": "leaky_relu", "weights": [[0.025766851755373944, 0.017791789541572792, 0.007191597128469741, -0.002747742175722166, -0.01576545066390075, 0.021431206141905253, 0.017178713803539393, 0.013958954818214844, -0.0006948872567914056, -0.0018676357048703401, -0.011137613734101772, -0.004684773117760372, -0.029805528466174493, -0.015130327849505402, 0.000962249752628444, 0.015493611717891528, -0.011384360635877574, 0.0024193178841469, 0.002215366805320602, -0.007006232187710893, 0.000178077592032601, 0.014143072962131329, 0.007326622020451366, 0.012145436943570323, -0.007902841011030937, -0.0015053694831825538, -0.006137716491460646, 0.0010754254899716306, 0.014142344353422355, 0.009291611709296977, 0.01437872761848425, -0.009957232716292395, 0.013696355072085947, -0.017514131995656403, 0.006098673609014166, 0.011120507856657828, 0.0032008460907159897, 0.0007556420469254721, 0.0024327709894739493, -0.017119106340376312, 0.012036249237746249, -0.016259057699955896, 0.020690568644513078, 0.00022664304633245497, 0.002319420608022717, 0.01041571721278073, 0.019153253630869952, -0.0070323462952493416, -0.003623526528907579, -0.00852371774317557], [0.00944273853912471, 0.0031710225055485734, 0.01241245350662492, -0.006300059064985942, -0.015381468747613813, 0.006638539865993318, 0.006383700457052394, 0.01843029888414079, 0.027428399038459002, -0.030155689884898803, -0.02586084916803088, -0.021907418936032295, -0.025732181126105425, -0.002420464748185224, 0.006187015986434352, 0.01154216590008027, -0.0017272718352180456, 0.0017784814128171012, 0.01437648171471859, -0.01417197976347145, 0.022815150793813962, 0.0204441578138466, 0.0009130709792929935, -0.02039591362940147, -0.0010457984791822413, -0.013094498897261605, 0.006688479423471897, 0.005791855232878117, 0.005125838833873819, -0.041361192340712394, 0.004810636787472538, 0.025333789905490435, 0.019433038641470026, -0.010328708193662602, 0.017881528633900537, 0.024281095614505907, 0.008448820379339288, -0.01524392009145185, 0.013208821411243615, -0.0008642676503715092, 0.015421089717690458, -0.023717253872444465, 0.008698320661406522, 0.01943155212701241, 0.010243433810809485, 0.02742826220449236, 0.0022043542830432507, -0.013926677397689925, -0.007416124627268119, -0.029899207438938848], [0.01708536966710624, 0.02043046019777215, 0.010537822018780636, -0.013727584666372483, 0.0011459946513886665, 0.017691639506132534, 0.011775776525599635, 0.024967447144938124, 0.010088339018487935, -0.01146497639722668, -0.013830466233680384, -0.012948689626089843, -0.0042394939736693765, -0.00047069337754195446, 0.027447438333165212, 0.017644750050578983, -0.006592829536822278, -0.030068834771597983, 0.01883505879240858, -0.0025394000152484907, 0.02405309140446776, 0.003224118300506324, 0.012794933587964404, -0.020123914701509683, -0.0283738684913037, -0.00022748921767667024, -0.020842086986207972, 0.011786924230593111, 0.0057121294181791005, -0.013798820494068501, 0.012033237592511556, 0.0299809945390036, 0.01995152970836898, -0.01861358467221996, 0.01710814707747156, 0.012614282069563082, 0.024983303791933694, -0.018405956555360647, 0.016521904827547857, 0.0009375452890964211, 0.01659661423367588, -0.01080297768314999, 0.009772741121631828, 0.006537289639380244, 0.02352623569364064, 0.0019194178979432773, 0.02975373197896065, 0.005517494902182754, -0.02695749311231387, -0.01586932699890199], [0.02917394488761046, 0.0027432327354037908, 0.010978153961996834, 0.0028777374793491116, -0.017217018671694687, 0.02819893035481492, 0.010908893024888563, 0.02909517928685701, 0.010491954561608827, -0.011147535923784431, -0.005101877911566334, 0.0008760326390234073, -0.026982415944493455, -0.00546091703400255, -0.004757608838691926, 0.011197918765226928, -1.8572124577266293e-05, 0.00910483251286854, 0.02354966500376368, -0.0033608860442392724, 0.017733851964026087, -0.0007432252319355426, 0.021281133931044423, -0.003191990559023518, -0.006284104280491342, -0.005660771257749969, -0.02550647127417823, 0.013483626155387163, 7.180953613712426e-05, -0.018098271650320696, 0.0067229935803224125, -0.015654088539130116, 0.020601351854332654, -0.0036098826428460286, 0.012617096569627909, 0.018895090545321205, 0.0060622712574518785, -0.01372738878782417, 0.017382474826304242, -0.014962138971486912, -0.0008476040763453239, -0.0030549877819794004, 0.003496654187202752, -0.004488147063228986, 0.003397759595936325, 0.00357024933922256, 0.011656062645273028, -0.010913428821416576, -0.00829451364876177, 0.0008192674154399582], [0.012193510471956402, 0.013474963790684906, 0.020535078957856164, -0.0035927945891002762, -0.026741906388384286, 0.0011955140308161924, 0.020066246752300478, 0.01646826278787635, 0.037437117720281333, -0.0053339960548134625, 0.0025846738881941454, -0.001317698675531852, -0.005053185010514674, 0.0006926643737216181, 0.011479789738777977, 0.015145134292670882, 0.005555854110944741, -0.012231458402717773, 0.02106935257395188, 0.009997686230654817, 0.0053644303968214775, 0.008449148709546401, 0.023137116607359197, -0.003342534083672577, -0.017911670565898524, -0.0011693065310622126, -0.01869380244102207, 0.018646327179391776, 0.008859717196797602, 0.0016688364917440625, 0.01581987388702574, 0.007913168741878723, 0.028603089540666902, -0.024907879523603023, 0.02204977417823345, 0.01821565737444885, 0.01098480857684184, -0.025939053313960105, 0.017686499777665586, -0.008168135006449893, 0.00036720320109850165, -0.015599699227671522, 0.0022392690063649735, -0.012599573778409392, 0.0008923033689480608, 0.016452588487918134, -0.009074246523278713, -0.014064750659818007, -0.010629019835148936, -0.017743679185162807], [-0.008369161396342363, 0.014356012083943485, 0.009399383599413058, 0.008047200771052287, 0.008857357668777172, -0.0020867922049296155, 0.013889253368282978, 0.009009820672845049, 0.006324155357996326, -0.022780698558924815, -0.013450407513388916, -0.0034912245027192202, -0.008276314791180274, 0.007617292790874397, 0.00018515498759973255, -0.012678772038453474, -0.008283062962925228, 0.0015958884401930007, -0.011264959647322161, 0.024667565787024923, 0.0006573265063115682, 0.01548138640855122, 0.010196371674863376, 0.005312259914160979, -0.01400215610874593, 0.016007997832588494, -0.011131751906002678, -0.0038466693074720366, -0.00022419460961824444, -0.018735308981881856, -0.005163616479052052, -0.006282709318200346, 0.00959108748177136, -0.004906283113744697, 0.0018829405404752356, -0.012080591133954443, -0.011201022431990136, 0.008950041895535946, 0.005273097509611817, 0.005866551863086712, -0.006123638781746537, 0.0005702997304509551, 0.012185284099690344, -0.005121707134079891, 0.010328548703441517, -0.0023647165342487535, -0.011410172889280246, -0.002928835404368422, -0.013642578438681982, 0.00034548928570620244], [-0.028656436318307558, -0.016375171156028424, -0.004986691347019167, -0.005608583822499795, 0.010611823033098815, 0.010273195082944834, 0.005712330339986452, -0.0013207788553660981, -0.0038221659858735735, -0.002498422883093728, 0.009420318771852045, -0.004970710818612697, 0.003264769966952871, 0.008412769422067087, -0.018434902973946933, 0.00041685641421125363, -0.009765380651446508, -0.019586442961808965, -0.00498409017387297, -0.006501678993948627, -0.01249027188396731, 0.0006175773969603381, 0.009202547422067383, -0.015742691530682144, -0.009067783320122022, 0.0010108513010323806, -0.01208459234156646, -0.008905869153031092, -0.0009233691651756791, 0.0014361269265554461, 0.012426877588884958, -0.009508369164731802, -0.003987257919250583, 0.0010292660396796986, -0.00909701187079669, 0.0067047936424229106, 0.010534778365094588, -0.006183657471994896, -0.01280572801608874, -0.007961107722912576, 0.00038616857642999943, 0.003482719378587085, -0.0063579340962872325, -0.010462465620896085, -0.007641049145560672, -0.006272868956014209, 0.0076193099786915335, -0.018875593010116265, -0.00937878069419306, 0.014972177487778593], [0.03078305383142061, 0.014248649908388958, 0.01710665838567914, -0.025309711347370208, 0.0030787082812735356, 0.007742789167536759, 0.020290668720102264, 0.007349087386511292, 0.02081071585872837, -0.024557853008178483, -0.023767209930579226, -0.022044704506977448, -0.014959723531532658, -0.02679933436823677, 0.008022881837938058, 0.02041549629929074, 0.0046020681827116236, -0.007366016048412314, 0.019744196224009837, -0.0024770896028960265, 0.016671413529936, -0.008955829545690519, 0.027755401224099217, -0.021576242922231818, -0.018283433500401975, -0.038237113328463385, 0.004056125955783049, -0.004710981151546195, 0.020647810511774986, -0.0191868099468479, 0.008898137311577391, 0.027359484099754635, 0.030364171010976937, -0.026754810463166696, 0.02713449476879584, 0.030156257014942026, 0.042197282215221885, -0.017799644252885483, 0.018264147840011975, -0.030333707345385513, 0.013040603016336902, -0.02987544587354781, 0.028101437400108977, -0.00848507104405826, 0.014245469320407227, 0.03441935049955827, 0.0025569574385997233, -0.015070085462370621, -0.014420749833851124, -0.007989528562191145], [0.03707672802786856, 0.0299726241974996, 0.03280128909273506, -0.015257878993526024, -0.014068632788626722, 0.029808220878366577, 0.006390152032852132, 0.01397518703992666, 0.007536521620048575, -0.03331668826325386, -0.010680357276632576, -0.031239687728419913, -0.01268569369515968, -0.035536577445047485, 0.015863026919272064, 0.030816749466718054, 0.02541257393840886, -0.02662379552749958, 0.02720198254787118, -0.012463496694305238, 0.031499712354469814, 0.016338637407414737, 0.02196023428473629, -0.026241320242917743, -0.029603390226955507, -0.018744645374438932, -0.029258390229930337, 0.02063548978919016, 0.006334502974550756, -0.02112123308628155, 0.011746412206195427, 0.032916762960073113, 0.02175965072724537, -0.028520437492369273, 0.03960935856407074, 0.028214081880849878, 0.0105199743573981, -0.011320929437993095, 0.03952574883318192, -0.02934836199532915, 0.013990922021195734, -0.016514170153983446, 0.030638288231370287, 0.007958581760011848, 0.02035028696324923, 0.01752768966623739, 0.013036640423761276, -0.0314124101627342, -0.017624022122515612, -0.0159601192523323], [0.021487617162030688, 0.0061432730661294425, 0.015112927177397713, -0.016220776570008328, 0.014598295536350139, 0.01617017110571221, -0.005035302137937284, -0.02105839951152877, -0.01575486491212499, -0.008138519449109646, 0.007890322116650883, 0.0020174246019683123, 0.011960172590574154, 0.00771735123811826, 0.005704351768964314, 0.018533963814021517, -0.0036443052819297647, 0.0035240873494299173, -0.0027120365400388684, 0.017756630174786635, 0.0024308225524084146, -0.007278625712301426, -0.0006889960441153746, 0.017233050132745873, -0.013992068961742661, 0.002152004132099718, 0.00781298075998908, 0.00448403604897356, 0.01659250981502091, -0.006401893336667697, 0.00498921280973654, -0.01530941298022515, 0.004782563226533973, -0.0059707190893268655, -0.018127113413089466, -0.0009314138483201528, 0.01252265813286638, -0.00198271955896978, -0.0007597809309798043, -0.00950536547829337, 0.00838897966123009, 0.018456709047106987, 0.009162378533183278, -0.0184823367078702, -0.0008681067458909793, -0.012506336908675201, -0.0018986415078199642, 0.009231164310508017, -0.008475462806290558, -0.013471734744071817], [-0.017898175857837473, -0.005272424356623129, -0.0039975228914784925, 0.02632000062227037, 0.03264713751219564, -0.006230988419603871, -0.008166243147789467, -0.025991221929307855, -0.02354749360135148, 0.014103149382940853, 0.011714471438410083, 0.007217058508492137, 0.02133871541018431, 0.02021799692228223, -0.013778086436772936, -0.013129266329963462, -0.01332324109231033, 0.0003943183660835973, -0.030634081353787763, 0.011637371805444519, -0.04374445861948747, -0.02769956078038735, -0.022350326182297032, 0.01703810243532304, 0.02101233616985952, -0.0057450537188720825, 0.007367238879693356, -0.010291940947996738, 0.004037717941951466, 0.028687089308592408, -0.017839552069611724, -0.01217550414701579, -0.015029587843489933, 0.021076479320375843, -0.023867437111057193, -0.024484976731395686, -0.013001401198997871, 0.022333924486141094, -0.012581218523094313, 0.03438802696919658, -0.020581581951644466, 0.004339451518335168, -0.011965260351759663, -0.048468014350925584, -0.00354409977030508, -0.011941686020843391, -0.03543768230423516, 0.020807761652414162, 0.017511407413478352, 0.02951340516463418], [0.023900326665258858, 0.047454286596921566, 0.03421069485647498, -0.031502375286422454, -0.01885298000353661, 0.03538150904870939, 0.01518046557235576, 0.04753668717582277, 0.04956321423804353, -0.026977357704523097, -0.029086506371342375, -0.04083867491118152, -0.03276467881190177, -0.009784432961044488, 0.028292180286078213, 0.02452337737262927, 0.03313652865346627, -0.028305319909230867, 0.03098407869274893, -0.022411788866192335, 0.022720526395403142, 0.024092447245981505, 0.028846378227026768, -0.02925112395199639, -0.03462810910634534, -0.026878049011929514, -0.027104473875203663, 0.031139618420599795, 0.030403552683744128, -0.01646233809375502, 0.017018086256077702, 0.03703657632259022, 0.018640636950511113, -0.031847194471205424, 0.04615408386116312, 0.031114089974140207, 0.04315329238730525, -0.042436590758032036, 0.0484611974336116, -0.023239838166236475, 0.019179990966720177, -0.044056909702888274, 0.03473826759240089, 0.03487920967274099, 0.024405959514606154, 0.0358426451396158, 0.037046677361951226, -0.02688417043848803, -0.03244555786168374, -0.03122855030983825], [0.0071221815028768105, -0.01608650669606372, -0.01588413779215058, 0.019941605575604687, -0.007943072783448397, -0.0019047695531768042, -0.012061235481827495, 0.002628155279477902, -0.006612452706006847, 0.0023087757583015226, 0.01202494812058531, 0.014021751264870394, -9.448820115484482e-05, -0.00441396410013461, 0.00178811118928457, -0.013911493937267701, 0.009709736661994775, 0.01835106304658716, -0.00017400282986166293, 0.006230224821077516, -0.006072461468383113, 0.00155246173268772, -0.0050880511366125465, -0.013798700222036806, -0.01146455873862548, 0.0075493878473273605, 0.013144167014608077, -0.005853034817951276, 0.014234605856778035, 0.011379517645717633, 0.0016454774470500502, -0.005314324769511529, -0.011179028341023915, 0.011246834391851649, -0.020266702604863834, -0.023410716715632322, -0.0025882586174343757, -0.014899439418437604, -0.015114450947627377, 0.014624169127665069, -0.006128664621742878, 0.01693722357316544, -0.015190055228140226, 0.008961460201786158, -0.024755611348355768, -0.010082121166694151, -0.006062879182355816, -0.02104317920142236, 0.0015400158883021838, 0.027877329289704253], [0.03810625176091942, 0.03172473185302268, 0.020803750734899054, -0.017432435172992776, -0.026579236650509055, 0.020853321306893956, 0.03689847502508673, 0.03504655018695099, 0.004203477770029027, -0.021495863562164545, -0.007544046509398264, -0.023907050757771275, -0.02763372703205866, -0.006874835223238864, 0.018576300364355064, 0.020327445393216594, 0.014065658454468445, -0.023801236423336983, 0.008461572164616717, -0.018845818186654262, 0.006211066908104875, 0.03788414303417929, 0.010870783931427359, -0.019921572202041726, -0.016968788730938558, -0.03838851518325076, -0.032979800767477516, 0.018858062550897003, 0.007157135318104142, -0.03558365321494629, 0.044978649597293356, 0.016004169818792158, 0.017180577557039972, -0.04451498986842292, 0.017661448723514158, 0.0495896746324856, 0.02173338435061525, -0.026059363517165094, 0.005007032015632966, -0.025049236587368715, 0.02748132812233817, -0.036893825204307534, 0.03156385636117753, 0.016060578760362165, 0.026453358002011155, 0.03321402853542498, 0.019963698504886204, -0.025795651528022344, -0.026376689650996075, -0.01589243542437376], [0.023629818538316222, 0.016735114502030406, 0.03206790200020386, -0.026116681448853943, -0.03653525151268264, 0.02857927877781326, 0.008263774440548507, 0.014802986376412176, 0.01871823842278821, -0.020467521743570465, -0.02358615429375936, -0.028375771484117126, -0.04179100854266117, -0.03586885899975821, 0.020627441945443133, 0.021688314888024068, 0.02690971399913583, -0.03763836721981225, 0.010328198746800151, -0.028167044261357976, 0.011605417520920716, 0.0005169596958031999, 0.0297248096711525, -0.03370473823112236, -0.029623522163184625, -0.028242950997946294, -0.034697405278406215, 0.01911956812279905, 0.02897027838267734, -0.04751686264256509, 0.030685091127234852, 0.022473385950859463, 0.026063879247315902, -0.031663570613070464, 0.035008805550833355, 0.02466908948352857, 0.03658426223027519, -0.04350883152028896, 0.019184226321470984, -0.024378481707268168, 0.014595509931025907, -0.039900053906294246, 0.02087503863150441, 0.025138332957736535, 0.03143657396863467, 0.023115599461866594, 0.028970758972881108, -0.024467953329029058, -0.025104460310187933, -0.017021006476959474], [-0.007410337765173822, -0.005763340474700853, -0.005311893223420697, 0.013842385901674352, 0.011012146848609634, -0.005276945213043069, -0.01841417064529865, -0.002751279740678872, 0.0036341037130747387, 0.011252120521008862, 0.031128128776385176, 0.014194094930181037, 0.007406047370531798, 0.01639515665086055, -0.016585148973125904, -0.01896608043721302, -0.007658130383102818, 0.013209362278237578, 0.006668105230111285, -0.01425281650550643, 0.0020815287910407295, -0.011029759410814848, -0.010141611489402288, 0.024699304867645537, 0.00299966646510021, -0.004391902872352866, 0.02618491380766377, -0.011094073838126068, -0.016264247947370886, 0.004534241301798271, 0.007505199395814777, -0.0153505790610893, 0.004147047855436423, 0.0070041203547608335, -0.020733376417253098, -0.007291986843342134, 0.0021461004372953607, 0.01568647591025309, 0.0001340070547175314, 0.009975933798778522, -0.01843367917186525, -0.007995864851473852, -0.011891928430370343, -0.0006303120315790467, -0.01696905774382681, 0.0058844148957942, -0.011132661120564144, 0.01418275370643294, 0.010237689111434321, 0.013317136118252262], [-0.009113347508182199, 0.005327415903689069, 0.0045033186443017344, -0.017377365159228286, -0.0059886772544711754, 0.009854208602707162, -0.007814432083665404, -0.019055744599961687, 0.004813116515309907, 0.006931998435840522, -0.002822503717899209, -0.014433940405369921, 0.004901010553964217, 0.038974908761039005, 0.010513899247491396, -0.020501468158930412, -0.014007084976784417, -0.00693156562312553, 0.011839346574595972, 0.022169674632039803, 0.004488629448940717, -0.0226938621417449, -0.004680617502875464, -0.010663112382977884, 0.007118555476358713, 0.018087275874256254, 0.003816561145321332, -0.005602760445963203, 0.017780715517361132, 0.018809967901647896, -0.015521289918811859, -0.014988169227684263, 0.0004549232684073685, 0.007761206878238858, -0.011299208557757703, -0.024423325515303705, -0.001327488386413043, 0.0030085641372043707, 0.010439744958166172, -0.0019951952737585236, -0.018005370943479537, -0.0032361842473930965, 0.0029955966696712175, -0.022073097420772902, 0.007828670574567601, -0.006275737300679706, -0.018419076942773633, 0.01157305357321275, 0.008792703921655452, -0.017977325350833514], [-0.002684624876236737, -0.00894769538981691, -0.011013980381632633, 0.02172545534381909, 0.015313974190046636, 0.010066365559106224, 0.005298811116678499, 0.008738325967661768, -0.01670061131408459, 0.010347385045564919, 0.01865952219032674, 0.013138973276743725, 0.008378374670417889, 0.013774608271070672, -0.009522124366434136, -0.0008000413337289846, -0.02361682813853952, 0.00028305850766326596, -0.0034744132528071155, 0.007571096522991774, -0.007606408373302437, -0.007931372475495663, -0.0027153894917547375, 0.026818704092640235, -0.003005014001172472, 0.005241274696984024, 0.015745950367709555, -0.009263067849685879, -0.00487891233595743, 0.002584355056387756, 0.010467371390103487, -0.0006618112546242055, -0.00028235673089050994, 0.02440329908414402, -0.010930075673213701, 0.008130056634677616, 0.003700340059861244, -0.002063570984373198, -0.0028968368700261647, 0.014522630178300886, 0.003914616857585367, 0.011615950521260621, -0.014394988606919991, -0.018075191081127238, -0.01920066552288434, -0.006727710352861878, -0.006625638761005086, 0.01745211131504307, 0.019385672206025488, 0.024531047430154527], [-0.003784416741121152, 0.00017267324289084094, 0.0008765369040475483, -0.019747800197538183, -0.002753399525004218, 0.0018713667789359413, 0.00017832562745980624, -0.002693575068418811, -0.014193129092268043, -0.002198445477106705, 0.0003734167509592681, -0.006834957545938417, 0.0014962719285638536, 0.0024209468261345295, -0.009677834294715835, 0.004182687360658989, 0.009021945206851456, -0.006101245991590917, 0.007264147938326743, 0.018137103687478003, -0.0009081840221016257, 0.000423843361601398, 0.017824955098614603, 0.007655093894549521, -0.005107762894229952, -0.0013840716663907023, 0.002814850961243532, -0.01172984628501317, -0.0002944555003211636, -0.0027853371584508737, 0.013889520630646338, -0.004776038034848429, 0.006713095200973408, -0.018703065619723385, 0.0077709903339144735, -0.005244072867441857, 0.007077081119979494, -0.01206063377631751, -0.009123519475681822, -0.0034290991517243593, 0.007148674518998303, 0.011342828930191963, -0.003953599326292991, 0.005518783509138173, 0.0016230824307640133, -0.018856270071460034, 0.005277968745348744, 0.005591458110293752, -0.00478771053332721, 0.005940240532254116], [-0.022794729340399784, 0.0004874902357545929, -0.01791973595270822, 0.014088821923145308, 0.01626069523391076, -0.028522264479296126, -0.015188016196597539, -0.02988916444095409, -0.006635293525540902, 0.01091592822728821, 0.010309130571372891, 0.005162385085335619, 0.017059466074354386, 0.02207513581586888, 0.0062530873064565624, 0.0006719296193817431, -0.02046470802137208, 0.022240306278176906, -0.013971881307295294, 0.015555585654584482, -0.05432372980900488, -0.012058911988484902, -0.01875353940768064, 0.0073201344278775275, 0.025163157084062884, -0.00476330366545412, 0.00819210833400361, -0.010106697538251441, -0.00811263463633276, 0.018356386966867526, -0.008659368112841336, -0.020754445642559217, -0.03659681428566863, 0.007765575121367507, -0.01692037665942129, -0.012827532649683969, -0.0013559981295146021, 0.004241365751512567, -0.00555824085340674, 0.00797632854781187, -0.0028713183804061782, -0.0023540587809549396, -0.006671429416596867, -0.030599904137701084, 0.005687376127347538, -0.016789050287665183, -0.016842169803065167, 0.01879845628771032, -0.0017656779920340745, 0.014247007181269285], [-0.026403853788957578, -0.009603024797847403, -0.01921651181753655, 0.0251524383760449, 0.020240068731908967, -0.01776367731058638, -0.006587605029928271, -0.026760824501695958, -0.016528170231328264, 0.0023759332615969904, 0.019993865296537697, 0.024737045132601436, 0.0010003095542934102, 0.007856400014790257, -0.01826407294102838, 0.0064514977309325944, -0.01976317337898558, -0.0037310444407766263, -0.008950447857168432, 0.015189594500792464, -0.03094474576006692, -0.02374455148947902, -0.01835908086251356, 0.001444203504463821, 0.024309252125869044, 0.015686413459356393, 0.014435760761674132, 0.004693983239680562, -0.016804720853556162, 0.015132684934277722, -0.020202414034590856, -0.015679548405221833, -0.002566925841536252, 0.033542825270013156, -0.021306610341918625, -0.008656324684920478, -0.013606147988048963, 0.01475982878564588, -0.011563276255470926, 0.0030896181477870527, -0.014348182861265218, 0.0167941659118079, -0.013542599258345226, -0.021247078141965407, -0.020722159396869114, -0.026308984940086388, 0.007581220376825752, 0.004332302740394558, 0.029717362936982076, -0.0022394545398877097], [0.01878625341053258, 0.022591280101982657, 0.02373600461306743, -0.011936183816488906, -0.021339074399309613, 0.016938673229056476, 0.025033227801956763, 0.01959729275350576, 0.04241902713656599, -0.03647417373793272, -0.02036636209406145, -0.02477065431726117, -0.021199373753438496, -0.02538755882192101, 0.003950872656715438, 0.034104021609601506, 0.02136098938185025, -0.025774854991197114, 0.026827019314660694, 0.0033990843326602554, 0.04149043246186428, 0.033433403594362476, 0.019116894800987872, -0.006460837701510024, -0.01946119572521201, -0.011801382883952312, -0.026688957298309723, 0.02986807095032729, 0.018270370574194235, -0.024668618662084123, 0.015084218412057211, 0.015827418194061884, 0.02117594824571179, -0.014465857230702392, 0.00631781720027802, 0.01239626235415553, 0.020678610995647693, -0.011881860597256823, 0.0492397318349769, -0.03413252845249806, 0.03410305583442625, -0.012610586434714232, 0.005991214654867427, 0.0030176440704296984, 0.012863168214856878, 0.005693606247851457, 0.018336620423453937, -0.018714216088543536, -0.02396629486749195, -0.024924421530704514], [0.025886064179847693, 0.026761014617274714, 0.0066302370227933225, -0.030704241856254956, -0.039710371721937476, 0.03328630184401745, 0.035269531071071406, 0.03660198720956237, 0.02977579678142354, -0.02451703923478147, -0.041345809110762015, -0.024346797558308257, -0.051289604064232455, -0.03501857714901954, 0.025379646019348223, 0.020588287446114763, 0.029233355670583553, -0.03707528577878181, 0.012152549901224984, -0.03695450393225373, 0.03218608468551232, 0.03653461866958749, 0.009031578692878866, -0.04424445167818426, -0.02598028457880968, -0.03447582577132635, -0.042175920246105794, 0.033956224056503795, 0.030241628935983506, -0.031324352140130726, 0.016684048098231263, 0.020910766691175704, 0.043225420283677075, -0.023081186424199294, 0.025673764600755086, 0.03301179770911285, 0.013273160589877533, -0.028583999250194583, 0.027517503900163682, -0.03049178637433584, 0.015591969928638491, -0.024681086887314484, 0.029151908596259744, 0.013592003955936153, 0.023717647254147687, 0.0394881670926898, 0.05256606810476476, -0.038074614917703344, -0.03589126473390601, -0.024773662593152203], [0.01580935466181877, 0.01255900479274288, 0.01592381389549922, -0.010521820686486515, -0.002561194031713924, 0.006410889975272356, 0.012018184271308949, 0.003425431707182651, 0.008379236865919168, -0.015023132733082686, 0.00802783875671172, -0.027753955827050505, -0.012294505630573549, -0.019550555288192818, 0.019461921042717777, 0.004682051990079979, 0.013819393818582989, -0.018608801409233995, 0.012892866648716032, 0.00037597743300314245, 0.014674409281622686, 0.008251714469787019, 0.009350764696758818, -0.007669430281507567, -0.0037251545781152445, -0.015679668828580608, -0.023346942257980598, 0.01595252163178652, 0.020642240589093634, -0.007856793623402938, 0.014897325169170497, 0.012451709518229714, 0.008892014014035696, -0.0193769637418421, 0.028627641844850272, 0.0051344207042431965, 0.012916684446755252, -0.029645425099860737, -0.0012396661564270082, -0.012751534531421655, 0.008017224074103935, -0.0044758375150212495, 0.012421183072482876, -0.0021685503507240882, 0.0011495461291564392, 0.016802015328476937, 0.01785631020319738, -0.02425513012466316, -0.02468504107297044, -0.018586640752411544], [0.040942660595758365, 0.031174521678191056, 0.022960076704017823, -0.04322674966875391, -0.03257557165568427, 0.03516780285887031, 0.02670950810298265, 0.009959295372634508, 0.027792400903839488, -0.04215040777502153, -0.03754018783770684, -0.02892911524383406, -0.023134816505901275, -0.018298410115401786, 0.02757432418699358, 0.031402489590662, 0.026305362183559184, -0.043534845408445925, 0.039115949352362046, -0.023850431001996724, 0.034004652453488333, 0.02934384609956654, 0.03850632672084215, -0.02145706132455712, -0.04735894877841217, -0.026930942221389996, -0.016964765536235858, 0.015037416825765862, 0.038018089988938034, -0.04028895971681621, 0.041279376755541906, 0.03609945483589265, 0.028132042799195067, -0.018341159775178847, 0.029570515843476586, 0.021571327929446663, 0.0207695712777392, -0.018926725380403495, 0.03614041673200234, -0.0323576521996847, 0.021642427962457488, -0.013365899711292194, 0.022694638047376956, 0.019740562586450176, 0.02433386067381446, 0.021673336080841307, 0.02228944547929817, -0.025327605583503294, -0.03704869958597268, -0.029207470678168368], [0.03978689173176232, 0.01470314236099645, 0.02231661152493526, -0.03176258051281282, -0.02961405482602555, 0.0175923680491132, 0.03238917183958755, 0.0324137355872047, 0.03138993432227888, -0.01729504673773683, -0.035578390515016003, -0.026876094980415172, -0.026537053321196585, -0.02428277521677449, 0.02515897676890336, 0.02773178145115283, 0.015897699443848914, -0.02817161952263005, 0.02648884159159429, -0.02201093976407229, 0.04380590335701586, 0.01751113800564443, 0.04126569422082091, -0.04659489559542635, -0.0506668473002406, -0.011814688509648083, -0.025774997708026583, 0.03321849580090343, 0.022261606071139438, -0.04038816567630323, 0.03432910743950442, 0.04242100614476213, 0.03855095597251506, -0.022289084763717132, 0.028064348076003342, 0.0346556615469767, 0.038602773542430045, -0.02730436003553402, 0.023020544225641034, -0.038095391556982175, 0.021994244807076003, -0.030647662494190472, 0.031807233548644995, 0.019929799537600264, 0.014095219484359354, 0.025482563413075306, 0.017143891859874163, -0.047271949445604186, -0.037694058864531296, -0.029782996908429636], [0.003398622334419314, 0.010406592141346389, 0.012812984787511143, -0.0023433330925625275, 0.006912806648453121, -0.0015065256584315355, 0.003011023198393657, -0.001041771299885215, 0.0019980685189479727, -0.01214432717193567, -0.006886132410122968, -0.012750255797416721, 0.0031972898512562576, -0.006219965262453348, 0.002980295607896321, -0.012770355993688786, -0.013480446081213486, 0.012314743130209346, -0.002424703819493206, 0.0259685166955117, 0.010130918374527693, 0.001487459773864465, 0.004084868812419375, -0.00459280374844366, -0.019385050743559677, 0.0038071323678314224, 0.00017454604870996134, 0.005316521511637757, -0.007160816085522948, -0.009629008326075824, -0.02882116334956586, 0.0036234010562125394, 0.008088525123072746, 0.0213416065409528, -0.012226106169074111, 0.0026409028130527355, 0.020547469417794402, -0.0056965214632253, 0.0004556193512102508, 0.017883492719739796, 0.005114615987463601, 0.005707208809660318, 0.0028643754828238314, 0.0004413798807289516, 0.0037080394147271127, 0.003343461203823934, -0.010611337573730685, 0.021015392694785962, 0.0013316750004360974, -0.009142141702806455], [0.008840859495368914, 0.03292679173885692, 0.006676290352610941, -0.02611501919874299, -0.024473113463428956, 0.01608683839366157, 0.02448258932824539, 0.017864292172040677, 0.004037222454138344, -0.018440781028437214, -0.0343943134113641, -0.015834223084641323, -0.030077589767660326, -0.0005467461004372869, 0.030192211517614934, 0.006340236551842739, 0.00502972618752763, -0.019313374379564076, 0.01812788703245275, -0.002628034448579646, 0.010200416104488587, 0.02477619879268109, 0.015352553096181415, -0.031336573566225184, -0.03149729819533848, -0.025435269880169573, -0.022774966201521456, 0.02106647353157497, -0.003174660354176074, -0.021435373044531518, 0.02289419976468183, 0.01825929614737753, 0.015866589312746947, -0.008879585077339845, 0.017261989027799414, 0.020602518354132165, 0.009254334384989989, 0.0055011404067635584, 0.03981381733942292, -0.013575488198574187, 0.016364292370842914, -0.023462248375958297, 0.01376384967491495, 0.00836338833718005, 0.025041948228932503, 0.011041386061090355, 0.020108692030149585, -0.017938983492080153, -0.01920470017409856, -0.009677603635801071], [0.03190624813327956, 0.04555745278761205, 0.008395679119559026, -0.01784320464563337, -0.021060571980498183, 0.026784730326250023, 0.005805681800848258, 0.03276960244194231, 0.0343289190780462, -0.030631395644388586, -0.017404128840503914, -0.03304606971863469, -0.03420649074500015, -0.011632285612250924, 0.045845614129762784, 0.03640602391425452, 0.009525440095007661, -0.02958855389419804, 0.009848216704366771, 0.006141210094129104, 0.027013850406190767, 0.025098919626453203, 0.03538193018728238, -0.027997869165434158, -0.03287543651845334, -0.022364576717281984, -0.03135593570636147, 0.019447792318518082, 0.022348351520788158, -0.027024753629080314, 0.02527807874138523, 0.03281080436804094, 0.017530188021421516, -0.038029129696835105, 0.031106072369862712, 0.014502355157271763, 0.02887679935906323, -0.024821030316303772, 0.03482109093908626, -0.039945147964004654, 0.03054483279445748, -0.02141912437263049, 0.019441173670808467, 0.02588267252157874, 0.028485585708268344, 0.01887446336485573, 0.03324584946192413, -0.03370596106325302, -0.014203254443515292, -0.021449269180472744], [-0.005530177045775631, 0.03802542846318213, 0.03017288498346843, -0.022261167425812994, -0.020444385756780398, 0.014981547493977752, 0.028093477308858427, 0.012884140167653544, 0.014884536285853386, -0.02658692213912629, -0.019096112739986803, -0.022570553974840153, -0.023128665368828637, -0.015184023258481182, 0.03465308901564566, 0.012470580757562357, 0.015069879357034726, -0.024217469905152753, 0.0015411318318322383, -0.015844600630584543, 0.02327483219766689, 0.024518721342555103, 0.014996097938505804, -0.022094209973248197, -0.0055588826149093225, -0.017238015681167694, -0.02651488744298738, 0.04333216863624783, 0.015655066127306765, -0.023179218807134944, 0.012565931481467814, 0.01610006478339175, 0.02563513588232566, -0.02133272352415068, 0.02221603526643481, 0.028487330380140376, 0.004159221332559358, -0.013012128193821068, 0.02643849783218581, -0.0270452218373812, 0.020982734901027502, -0.022537594945236626, 0.004286056863245641, 0.01964012328293928, 0.03486115371024168, 0.009960902529758155, 0.019213427893065727, -0.018231382787814786, 0.004909748603019867, -0.025087044326994355], [0.017662935835645998, -0.010041505267944227, -0.012387454079108693, -0.013881708392531826, -0.01691590864320258, 0.009813917484398582, 0.015416110207457338, -0.011133080678777335, 2.4287118511463494e-05, -0.004060788969054033, -0.013129705723100541, -0.012139371672258693, -0.00529937467620897, 0.00969631025822017, 0.011304429591325323, 0.009850655995683888, 0.004360951731095119, 0.001537016874409254, -0.003517524573839844, 0.009614232942847566, 0.01626497455449317, 0.012589460303132193, -0.001929004263929649, 0.007167303958503985, -0.0006053467542514288, -0.0176380434126566, 0.012689084680556217, 0.0016995868538343469, 0.00853568554811024, -0.02299964437222418, 0.0034136289910140587, -0.00573718489771638, 0.003223865932198096, 0.0027140598816935303, -0.00175309451270891, 0.010521170437620523, 0.015255237944598201, -0.02001925926295991, 0.0036362049638339793, -0.00993058502275877, 0.009437138036452093, -0.006353118672905561, 0.01398769147820667, -0.004008005105356612, -0.01183297215734813, 0.01582537778494958, 0.00945937515160296, -0.005605662911181689, 0.007317423908558245, -0.002704293555521227]], "biases": [[-0.012899999999999977, -0.012899999999999977, -0.012899999999999977, 0.01277195886296063, 0.012899999999999977, -0.012899999999999977, -0.012899999999999977, -0.012899999999999977, -0.012899999999999977, 0.012899999999999977, 0.012899999999999977, 0.012899999999999977, 0.012899999999999977, 0.010108373587228941, -0.012899999999999977, -0.012899999999999977, -0.008580890486252284, 0.012899999999999977, -0.012896228009579023, 0.003449019751964264, -0.012899999999999977, -0.012899999999999977, -0.012871128837819821, 0.012899999999999977, 0.012899999999999977, 0.012899999999999977, 0.012899999999999977, -0.012867175283693437, -0.012899999999999977, 0.012465995429211785, -0.012747445660493205, -0.012899999999999977, -0.012899999999999977, 0.012899999999999977, -0.012888043492595185, -0.011693222047849082, -0.012899999999999977, 0.012899999999999977, -0.012899999999999977, 0.012701049287079113, -0.012834238295985817, 0.012899999999999977, -0.012899999999999977, -0.0035864697635267025, -0.012880660917238067, -0.012882319049216995, -0.012884673854539444, 0.012882862425799337, 0.012899999999999977, 0.012899999999999977]]}, {"units": 50, "activation": "leaky_relu", "weights": [[-0.007610707222598511, 0.05507116216961324, -0.1300128221392477, -0.22394418655852122, 0.22892595563191306, 0.1690214140174294, -0.19768725075787696, 0.25560453255559884, 0.3348979060795513, 0.16381450734488767, 0.07485773798594177, -0.01079581963839019, -0.109201795068407, 0.3159143630936635, -0.019746507419038994, 0.04909791823625213, 0.24052965690016337, -0.26768262383461977, -0.033153530519702955, 0.35982121346389684, -0.23678929999335888, 0.36492732435903896, -0.2118736156415733, -0.15049714942632603, -0.1457734564027909, 0.17490505598281147, -0.24630012048538566, -0.24732523607697035, -0.06880438437227301, -0.28859940448023497, 0.37256816111902047, 0.2985179217993601, 0.30835561637608344, 0.13690387692953096, 0.2250796840820627, -0.0865703577455072, -0.1886217456634889, 0.19104730329608047, 0.19620453865742726, 0.1612085763997667, 0.016691841267224197, 0.1558041792201627, -0.1357669814140818, 0.247458170603845, -0.3047204064043525, 0.0015622612109317039, 0.06016293083180353, 0.16354494934726072, -0.3201901567455954, -0.28181829147214105], [-0.09351272687440405, -0.08248535433491451, 0.25464409752091555, -0.10466265642666396, 0.0992448933861754, 0.15618562142612574, -0.018276446120484516, 0.13488973419765, -0.2839593346333228, 0.29246239891318615, -0.2403971391641192, 0.17091037865429093, -0.25684795457727566, -0.3017743892490442, 0.35596049125662976, 0.07855878965009314, -0.07467540519682302, -0.05535863378147923, 0.01799463982790789, 0.36911345527316364, 0.07106605150871335, 0.03157411117361105, 0.07599398246195242, -0.18609677672340813, -0.2328822326666177, 0.21522677834257753, -0.2675446233519041, -0.17427298525447982, -0.21094806298420601, 0.1124933735357598, -0.05098021612513258, -0.10934678235485522, 0.20266774292193057, -0.2632524041593782, -0.11344901212587961, 0.027847721102148823, 0.00014058898857369695, -0.029455755234737986, 0.07022461675525131, -0.14191063961278308, 0.05043717773501057, 0.2699408976257736, 0.11427977344723823, -0.11779055149892527, 0.3385320666881052, -0.22971034201207774, -0.22956037598037504, 0.31108212002282376, 0.30980928523129037, -0.11926989896652265], [-0.16926358722676768, 0.1374995562478481, 0.023075614442276016, -0.08166971226380638, -0.18222207124983159, 0.3164806871562042, 0.3161961607355985, 0.11408395001605082, -0.014788678306636775, -0.16996419398944537, -0.25162439432789413, 0.046532154517514315, 0.10958204759683017, 0.29368311330663394, -0.16260739615011696, -0.17699893177898413, -0.08410205566061568, 0.0225893695930233, -0.24566762528526012, 0.36854031720861674, 0.006693789901600539, -0.2698703826934782, -0.17271839894383656, 0.2855473460308716, -0.3395398591197283, 0.3131010159942538, -0.1302922784172153, 0.2750841446334927, 0.2972841328332313, -0.16652355666838975, -0.07838260484861201, -0.054331165238407184, -0.036152791040818935, -0.157016599015954, -0.18039234935760162, -0.02827712406194121, -0.13168237156211243, 0.19329697516217254, 0.18532971895673983, 0.2704444814176408, 0.11809052528916904, 0.25917907848451033, 0.11837131628717543, 0.15835096261630044, -0.21567116088688867, -0.03312518365636618, -0.30908250625152345, 0.3401150708325693, 0.29145847996029217, 0.07548562125620992], [-0.08365047484065821, -0.027750229037056935, 0.2601160588903053, 0.12054274682426769, -0.15961701235685058, -0.03250823424793717, -0.025932607140092753, 0.359165566239632, 0.14205036274982524, 0.21750890930688682, 0.26470370633548496, 0.27188628817416677, -0.09324574750393243, -0.11362001310183507, 0.21009021746296833, 0.2108271537958787, -0.29595537332770083, 0.3458046876114041, 0.3144482826472635, -0.04879048058814885, -0.2226525936207548, 0.10924260783096398, 0.08967162277460607, 0.10447422596352855, -0.0568749904647701, -0.15821834291069342, 0.28674558966817115, -0.3262851576364989, -0.14461423741103008, -0.1537539712269705, -0.06589787176250435, 0.2785843958228117, 0.15327608722961839, -0.05665738276990663, 0.21812977432407385, 0.11568359641923512, 0.011870308013307327, -0.32087055010736676, -0.05239146379460474, -0.3168693387381513, 0.23642243085967735, -0.1338271910103835, 0.06144238036032041, 0.3011332140257545, 0.1289519047256932, 0.2616243051901479, -0.12502355412490665, 0.025491832513896577, -0.16326438872356178, -0.21474445512312337], [0.053373026086328816, -0.017722878046115522, 0.16595825460526722, 0.12715717817598174, -0.3647423003007021, -0.29944947417991147, -0.2866349434644716, -0.07846958189858577, -0.08131254403002487, -0.17364334551679306, -0.26133531711362307, -0.20348612837919547, -0.27472249441264424, 0.19281699591172, 0.041467052738718146, -0.36362899281777833, 0.005238857442284224, 0.13011717184255633, 0.3099270004310965, 0.12164705433627146, -0.29593485528531843, -0.27845083222509087, -0.12565232165229154, -0.23798723423654777, 0.12372136686973413, 0.03834823455903655, 0.21629768386815384, 0.05770677492276325, -0.1429772048500674, 0.05712559729478604, 0.2711920806404633, -0.2965881448231106, -0.22258187533718354, 0.0290226810748548, 0.17336055223095112, 0.2761015287462867, -0.14876387462777002, 0.21949254848423055, 0.06929667470154346, 0.2627590843365786, 0.01999923823433253, 0.2557277234790272, -0.3560611100095696, 0.13257575839015906, -0.3642365717243261, -0.11379162302743231, -0.08118840687179339, -0.11332929083404052, -0.3555297686607847, 0.15075337434261324], [0.03535973892452231, 0.3084182707251409, 0.012875781300434735, 0.07170431509498525, -0.17022931282612538, 0.0581737533424056, 0.031242793356048106, 0.30874464528413026, -0.07899054103940951, -0.3055272808365986, 0.309985024250388, 0.12797167900753958, 0.06128042725139207, -0.15629110372220717, -0.029149844300129, -0.07430627025941745, -0.11924206250954128, -0.3626789501563574, -0.08789928071762687, -0.2407241753474293, -0.22523515106502232, 0.3155163941556059, 0.26023014003823647, -0.29931163847459596, -0.18759547710997881, 0.09228111215695628, 0.19167746779503453, 0.3529341140659292, 0.025712232941541204, -0.25802342190625693, 0.11452603738705608, -0.29612698677846894, 0.10750149695700653, -0.009216370345006691, 0.2959128387229123, -0.3347085173210339, 0.1179679601730798, -0.08224137740381851, 0.22942506056071438, -0.1626348248752094, -0.034571431939840684, 0.20361019007599762, 0.14028843027033486, -0.21396399710315336, 0.12754589276510192, 0.010160170505363558, 0.25580019367136025, 0.3594668187311268, 0.30973504208874103, 0.07468878034308497], [-0.3622244494340675, 0.34774565523046785, -0.34067894324351966, -0.0885606652301175, 0.10366871889873024, -0.3103461778364292, -0.2792276424161521, -0.14274316726289207, 0.24392401822785367, -0.24870183325125125, -0.03825111171808975, -0.09208946565519968, -0.19057007656345465, 0.12641791464163554, -0.22787984113651816, 0.1258951981123385, -0.17093981396854427, 0.009553103198740157, 0.01227598729782256, 0.3063180163215312, -0.0217836409750656, -0.24126012039375963, -0.013507771161357892, -0.1786236038554651, -0.17418997481315912, -0.12356354471813061, -0.24943806156463202, 0.23823236336117296, 0.12320188309670639, 0.0881110391836128, 0.11252234222027083, 0.3181365358787738, 0.2640349036155976, -0.032892124334475824, 0.07915093913741367, 0.2648823100799748, 0.010617429390065889, 0.16096169435092458, 0.2364448079559656, 0.08262970079292907, -0.2863045019650867, 0.15777683628482891, 0.06546140904637672, -0.019257431212626068, 0.3473090905707982, -0.00773025156714091, -0.1436991685705485, -0.3155736116511034, -0.0028061937671735996, -0.12303445969348648], [-0.37217791092641533, 0.18981391322246002, 0.18299868069731762, -0.32967004479635664, -0.3131935877902914, 0.25268115184617396, -0.14797447140435738, -0.05529066232176838, -0.20539106750342584, -0.36530262801352853, -0.3065372808816274, 0.08292432309716222, -0.0028180043630176305, -0.26398547273948075, -0.21307674445757235, -0.25340941417363905, 0.15668292861984756, -0.04152800500508057, -0.005594836679730771, -0.313545180490366, -0.29823475190783216, 0.23163562227602721, -0.2551609510821631, -0.2753670285129789, -0.19704569496532515, -0.11526076364896329, -0.09530301285626792, -0.03296273231503425, 0.025402615303412788, 0.07832704386759318, -0.1076742081632992, 0.20040945415339115, 0.3345989881005218, 0.17620552679053722, 0.015839040005277836, -0.1842948702848383, -0.08136240481370006, -0.2538965954992256, -0.35986268545024414, -0.2753469326726157, 0.09504524470373527, 0.27269585880372815, 0.219262695378399, -0.0984031647481766, -0.0028362045176571686, 0.08512972910312422, 0.17260201554906576, 0.17996050874459307, 0.058863869615934, 0.06487855572831946], [-0.23602303122167118, -0.1996792335665027, 0.18714090987863718, -0.2094384891376978, -0.2037741487131128, -0.02893992099910608, -0.11758175739456908, 0.13317839477787308, 0.297316769024192, 0.05760417273509037, -0.2460049937470994, 0.12306352402033488, 0.2944886993941762, -0.3540913839670072, -0.18372544835910581, 0.30889717361229013, 0.3580994209353788, -0.11958461856612736, -0.23214480044515923, 0.036671409056913074, -0.2554324900564288, 0.36615181233694394, 0.057597904336116876, -0.11897156765960053, -0.18520634283676085, 0.2395275490938118, 0.23346431026488634, -0.23261800916188186, -0.22013904330556425, -0.017399996569253767, 0.043284515244883005, -0.0902623482753833, 0.11999982754660668, -0.2893767327817852, -0.10305888593841135, -0.21751568511292374, -0.34350499718023386, -0.25447998272024036, -0.2592944940186841, 0.11955535538440056, 0.14989272750469274, 0.04738251883778486, 0.3400662873259436, 0.01839436560972617, 0.16419722510174561, 0.22034727462532588, -0.33684115630096856, -0.13139158619896246, 0.19283357029093012, -0.3692111951659827], [0.09195119896389765, -0.3520968386250405, -0.1959428781656633, -0.2035150840876382, -0.3146458520894369, 0.20810166924387166, 0.059228237032432025, 0.1828822512082543, -0.15167979943021156, -0.26496036263125444, -0.322284518144543, 0.2211156722754167, -0.10433818172096426, -0.01324683832728079, 0.14725738839422745, 0.16745254261421097, 0.05026765963622121, 0.053843257342517964, 0.010937195620948234, -0.18061712330869895, 0.2787744763555139, 0.29937057347303236, 0.1279138538303109, -0.0033618636138598485, -0.20949809560627655, 0.07494876923410926, 0.16080486759332235, -0.034852095498709594, -0.02663642835607029, 0.29426294076832077, -0.25419556372313334, 0.05674271028457958, -0.33212174152935764, 0.013358115341394238, 0.07786418285062006, 0.21460869162808147, 0.28435605394433977, 0.015987694729118155, -0.18031325882039198, 0.3047802177187253, 0.12086303830148688, -0.0010154064647407493, 0.0759089884484349, 0.060759934445377445, 0.03660787535862065, 0.07369108213692308, 0.005006671965433441, -0.15922351660903547, 0.1914746428765119, 0.09860247868181979], [-0.15951432466384222, -0.036191558727502376, -0.18738166239693455, 0.2667872570831704, 0.019412669241848316, 0.34562621033018714, 0.04449564649948121, 0.29465417768350066, 0.20744444051110678, -0.059894426360677794, -0.10684192156190153, 0.2529471143716892, 0.007342717599019898, 0.3065393909312092, -0.06400582748973845, -0.07124795022509571, -0.3283397487228478, 0.2342280165074594, 0.28982992209477665, 0.17392555924166284, -0.30881845579597245, 0.010824514345726725, -0.16142823856738608, 0.19231601384691022, -0.0793030529938667, -0.07401642349002621, 0.07555915534233491, -0.17841057773918115, 0.05798697905638309, 0.2296722572769542, 0.14671668590194395, 0.0644391054131213, 0.30113162273110916, -0.2981060341817735, 0.30345432859657034, -0.3243409863888072, 0.3423161206137451, -0.17915055720820158, 0.013802713892724175, 0.08019536799557794, -0.2891455084758438, 0.15008813345245564, 0.12244056257782757, 0.1628615545185402, -0.20141050856675694, -0.09306824202967695, 0.17435962358277537, -0.16304063675596203, 0.07168357832066602, 0.33511379232178595], [0.08818366710382876, 0.3213978030210931, 0.15462086743500147, 0.3416465133988229, -0.2920290110587552, -0.25591967224557477, 0.2849350693486453, -0.16107533889714018, 0.17858403643370802, -0.023820154230562333, -0.019377124103636564, 0.2532030221043228, 0.028522191383329232, 0.2917067573611758, 0.18461540793010045, -0.18656948326187367, -0.30929045319627874, -0.31841351536332624, 0.15016499469513606, 0.22862978663710598, 0.2061400820137741, -0.2572145201846788, -0.008744605844037193, 0.2363857676372253, -0.15531710104970955, -0.3191415081348569, 0.2604122561019795, 0.11655219517548152, 0.3187153788197005, 0.008881926307956072, 0.003392978336768016, -0.11132318831688696, 0.21438929279626348, -0.19845170987138436, 0.14531141558617475, 0.09959481347125876, -0.03511421824324944, 0.3113215604189183, 0.23641526809828517, -0.025204134525119718, -0.06346472693282408, -0.014877002943057036, 0.2262194660645569, 0.20610329237011293, -0.26221002853151726, -0.3191043065405527, -0.3374564566211269, -0.08874948443945531, -0.31176459755107905, 0.15418375466028567], [0.054832593468572374, 0.18371252242007236, 0.13237089156076717, 0.3491600894131089, -0.18481076340714686, 0.33787255416537054, 0.21775196853632608, -0.32626083385154037, 0.015421675547613468, 0.24250037667508728, -0.2579314615762307, 0.04033712081525242, 0.1934827264944446, 0.3255973935653246, 0.035445800568505124, -0.13618422434943697, 0.040702204196241765, 0.26007195492799823, 0.06874135902379015, 0.1832969998267291, 0.33769815007378984, -0.010986819003199335, -0.2991700255982147, 0.3289502167110087, -0.20680272877898376, -0.07497800877668837, 0.20108418054407756, 0.15456013688470951, -0.04257281121456954, -0.06405273654978003, 0.25657093019829946, -0.36009549583277867, 0.20009618028256107, -0.233236595741995, 0.12713872619518127, -0.2684114804772169, 0.12532892046078475, -0.04768430404572894, 0.06032254446976858, -0.10912102619808553, -0.14060570566058614, 0.10808229764890713, -0.21661713085803497, 0.10888786824812276, -0.07556336585771005, 0.18123468424242314, -0.0073680283535379944, 0.17321999206597, 0.1444549957727397, -0.1652713255052157], [0.09589643926821478, -0.20039818648920443, -0.254922856522424, 0.21050781397880292, -0.34632695383145207, -0.1718431185743731, -0.18244729664191014, -0.01029082407520152, -0.3124150243743173, 0.22748711520608672, -0.23205045556152937, -0.246577819940903, -0.27720211371675735, 0.246793573670007, -0.0892126316542541, -0.19397334823563486, -0.1849561334518763, -0.2262352992407095, 0.0471263573480598, -0.037534770338678046, 0.2603679738086455, -0.0313319426900275, 0.0799043729464065, 0.3265562177778242, 0.08053591594656866, -0.23456019539715836, -0.0911352718597186, -0.04050201357407762, -0.3350753580341382, 0.07965307622741191, -0.2761044369638291, 0.23180210726199718, 0.1448650625285247, -0.3042494371877481, 0.14457624671367553, -0.22627519330833243, 0.02492623538563612, -0.16764100177570487, -0.23160186949857725, 0.2549494321346957, 0.2139357610309379, -0.05616371133419935, 0.022758682847190053, -0.07905053999752888, 0.16488678500356327, 0.2073141916879646, -0.2581260459892251, -0.16978822297517263, -0.057100319694903846, -0.10718696744718652], [-0.1196236957386253, 0.1992504272637007, -0.052607271988766524, -0.14281200361051632, 0.3130935059951611, -0.23349905383549147, -0.12322247498879699, 0.3101708348755654, 0.06141259613572009, 0.015273524769926404, 0.2656533478754379, 0.15649788681492252, -0.3077925670504255, -0.020133028538084678, 0.3216496033554727, -0.31562792873198414, 0.02219069738526164, 0.17990596463712857, 0.18897348177067158, 0.01184229410760228, 0.15536814313178915, -0.3098660915237622, 0.03347287511793101, -0.04043773953450059, 0.15310475504207574, 0.05995598038885475, -0.26368502689460993, 0.1669659771117264, -0.21523944040430962, -0.12917532446555852, 0.08426317705529017, 0.032439628763066455, -0.014745821548180257, 0.1300009274532928, 0.2570542161418631, -0.047083042788614804, 0.07726481563247084, -0.07661319386628003, -0.17552652159191806, -0.1279068816561184, 0.24842314720091102, -0.30592728748635994, 0.13869540959177268, -0.34741370218734063, 0.09419661309066558, 0.14426149645166514, -0.2027237831879121, 0.15652360580961291, -0.07893811351649495, 0.18385096711088192], [-0.10302436446408013, -0.09378191047418745, 0.25632185578872096, -0.2928122264592003, 0.21535003789330356, 0.13564206320335, 0.000917106008861763, 0.20598580143171533, 0.21426764899042516, -0.04749293274634621, -0.18379120352683762, -0.038088178813592666, -0.14131597651596625, -0.2677753775270413, -0.14748128735466476, 0.051914591170771206, 0.21475445222455627, 0.2459763649763695, -0.36086388313273166, -0.3073668902826201, -0.19709345630220418, -0.0777958396701711, -0.3045227535329259, 0.12003025118797567, 0.20444416606966534, 0.1749280856586552, -0.2904010391900409, -0.16944258497097855, -0.1022877586473811, 0.19789559515746957, 0.2413515426836176, -0.23978376252374772, 0.008489253256197378, 0.2330919911863701, 0.009251765459494757, -0.03265988887654749, 0.2150542686441456, 0.1594034446108582, -0.031942010506032015, -0.11610345944104933, 0.1444374971130463, -0.28342130193890636, 0.27854274081756714, -0.2795997563899817, -0.06072344302714455, 0.2690942962363204, 0.3053935950525406, 0.3639601771813384, 0.366526798414891, -0.3321438961281007], [-0.2603831765439702, 0.03430898896115813, 0.3126465536099512, 0.1511792437778078, 0.13706986199565177, -0.22588639416800713, -0.20547149404094478, 0.21611207716144806, 0.16779257836471104, -0.28437189721706246, 0.08570726536690934, -0.2936814458291113, 0.027749669617853162, 0.1656815433187709, -0.24255320692259247, 0.18197303951024926, -0.1531226006023605, -0.27020018639961424, 0.2149128856401879, 0.21045918700589736, 0.054334835292187356, -0.25984220245689044, -0.20037207563920842, 0.3236454795443157, -0.2542350527772857, -0.23277463044633173, 0.09174016393848487, 0.20616649040689092, 0.27322986297560153, -0.2984118953183281, -0.1471013030531737, 0.22014224963049792, 0.04786350622011689, 0.25279078335082783, 0.07331582610802467, 0.26158099712857336, -0.19902579991128722, -0.2049513797330979, -0.2575566059077165, -0.32139319625515717, 0.35864353093334217, -0.07092314340791406, -0.14400653302394512, -0.20629537068821438, -0.011507015894811186, -0.06539571429598774, 0.07960045711049268, 0.08526458880608162, -0.1270804208644032, 0.27889581689848747], [0.04756178683475325, 0.09789158132571087, 0.3075903783436857, 0.1138657130062587, 0.004226624708591361, 0.2653180085578572, -0.280748986178938, 0.017102443537931736, 0.24631618470574576, 0.32299955548391335, 0.19518265324982131, -0.28337279945189536, 0.18752123250568498, -0.03491283460917305, -0.02330012226136203, -0.030224110224324082, 0.3101540416976311, 0.26153378044872605, -0.19049144833085863, 0.1915791059464774, -0.17814179435385874, 0.11485776782980892, -0.18895709774621006, -0.11658021976701412, -0.0001601255968418975, -0.22807943443684608, 0.25379926499919553, 0.23885923590954403, -0.14113129666516305, -0.044447486457282845, 0.1618231637380813, 0.13708357229040352, -0.31324353379770586, -0.13921998725500995, -0.2852161788164619, 0.22427880291442318, 0.3262621189712416, 0.2028396270864369, -0.13608030484906694, 0.27642112050648443, 0.15003533910080216, -0.04802288423814394, -0.19566761860970777, 0.1244632900088888, 0.2046632308872375, -0.16676930052736674, -0.33435153036408743, -0.22081306660343636, -0.10788220922485521, 0.029515505685975288], [-0.1668227649432253, -0.007599881695656585, -0.3280224085508092, -0.32091076681175157, -0.11969646304339548, -0.17246536918396238, 0.31500273143323676, -0.17179110274143775, 0.30154983811220665, -0.1635502846627932, 0.06762976658086907, -0.29066377291863643, -0.10797691512755798, 0.2437916512565596, 0.22606887623371094, 0.179250678797008, 0.27249304500169125, 0.1028350390791899, -0.1947741676691593, 0.33930045822960875, -0.14215179325386149, -0.004203710228710709, 0.13837562451967858, 0.09317805692412368, 0.3093037080075489, -0.0357210103121387, -0.24253037981609465, -0.2916582009254135, -0.09874197276666749, -0.24298071727226783, -0.07932921091751406, 0.08986430196037963, 0.03255365862253415, 0.36746110073280236, -0.2542021187368429, -0.36781742403216594, 0.16160469706215042, -0.2627502116604863, 0.0027215950418157274, 0.17294924594729805, -0.05604223080366742, 0.11133748074672929, -0.2304329192539094, -0.18397698027924583, 0.24793026204235843, -0.3102278871004878, 0.15090494427677306, 0.13420608926419178, -0.28871042177131234, 0.10897808007972719], [0.07518325308192565, 0.06477489676870352, -0.22529563501478814, 0.25513467645336485, -0.1612269778998071, -0.23021930918086028, -0.19565499136805772, -0.21377895109950093, 0.23791842603606927, -0.026899316617346673, 0.3200387915819212, 0.02719009901100421, -0.14272496854945568, -0.3402509889516229, 0.010299172917938842, 0.0840460679744008, -0.26272967902716177, 0.2395456032629891, 0.1630505792133308, 0.033279849582727075, 0.2901588708001016, -0.08444389675292088, -0.11125165777129792, -0.17651359562023192, -0.30110921475554075, -0.1524448130755007, 0.17488860333474776, -0.08469376260931633, 0.1580661785258971, -0.31062484598462214, -0.12981218791937907, 0.021591521858095753, -0.035272178996010276, -0.01490128807604023, -0.22153612185777893, -0.05375502574121202, 0.01981688873717311, -0.3541826175771817, 0.03629506909074237, 0.2766799921151447, 0.0686587203405494, -0.13508705010416525, 0.04151752663034476, 0.24539428784894296, 0.07459884176919415, 0.2051521206267089, 0.059755181077338605, -0.11446850378258686, -0.07439651522374972, 0.14426412259514584], [0.051948841413575794, -0.05444475867381114, -0.045418061714856, -0.0005029436942464987, 0.321039663689043, 0.08831163577598576, 0.21121099248106226, -0.35303493851599593, 0.14294502464073297, 0.02386336696504645, -0.01778013290134035, 0.1861225765928216, -0.30220192788449746, -0.060675615025552763, 0.2607921543015479, 0.30809088761544967, -0.30088099108604754, -0.2666776451771077, -0.37550706236632664, 0.3612243317827609, 0.17597199963505172, -0.21203141567967115, 0.12318701980502085, 0.01678515259216622, -0.2685481110011842, -0.13880380581101542, -0.22350129184598222, 0.06281998391423317, 0.16935237585603893, 0.19795887367141848, 0.015034636314395744, 0.1526179241648803, 0.23572741491614155, 0.32270662389057037, -0.2629486929078448, 0.28905059815242157, 0.08760136804465, 0.08094216607278934, -0.32048312457717065, -0.12671944402985522, -0.08458399027925236, -0.1437552087612555, 0.02501620914826319, 0.2656247867218199, -0.0874470552228327, -0.2770348622519991, -0.2334794468778451, -0.03708844019782613, 0.3306418329188414, 0.21260210505301189], [0.1340403740642036, -0.06988161798268734, 0.23819828021446343, 0.3078517013788532, -0.0890101530990447, 0.13815652187260033, 0.13340629343032057, 0.04656871152724893, -0.13867382152652485, -0.3637284935799086, 0.2545461463873146, 0.025074584691865368, -0.16967044864703965, 0.22906420549825302, -0.1659969243048182, 0.3320906810244689, 0.11942678842821085, -0.11372035711564286, -0.22730984749477112, 0.06216905260332984, -0.15722323436514554, -0.27809124843305527, -0.2986168234340252, 0.16534818832618192, -0.302756072197016, -0.2865129763606128, -0.32672895038263433, -0.0523674971281023, 0.10542408041209321, 0.34612759367434587, 0.12234794527871645, -0.13786677666467168, 0.3587078361553837, 0.32618660195691285, -0.11212690311186929, -0.1970527136958851, -0.13678636614907486, 0.1477050302678241, 0.14254775758829202, -0.10508952690367239, 0.12997393072827337, -0.05674986089711602, 0.06056203826344371, 0.30476065701103355, 0.28430347166026637, -0.09264540663678195, -0.13367638637544008, 0.11512996837796909, 0.2915913475121341, 0.15571508652203853], [-0.1314560755668684, -0.06568872411514175, -0.27243128895790447, 0.18071563915776956, 0.1341415421961024, -0.008473719648098307, 0.06957698301285131, -0.20276947599174122, 0.08775135337154828, -0.3126148866167644, 0.15058049791647407, 0.2220468156847062, -0.07522994420548186, -0.352756905501704, -0.15242434679864725, 5.511320153732741e-05, 0.21969732122319396, -0.10628175604712144, 0.31455768983250787, 0.3711432958203337, 0.3158699575060694, -0.06728918622466823, -0.19915401275205147, -0.06429776626494572, 0.25631575984673116, 0.34841080643887024, 0.06762270072709363, 0.033762206084542994, -0.10021010933734924, -0.06916610670715066, -0.005490001101233738, -0.19599386190401674, 0.06652734802973477, 0.19589830359245897, -0.23126503661625378, 0.28992848538288435, -0.3401193548578636, -0.020731818405617265, 0.1596413698068555, -0.32004558332171607, -0.31099457389589996, -0.07933352452098559, 0.28547194452487334, -0.14382640710042957, 0.1902976794251896, 0.02211398596326705, -0.09491829181504817, 0.17316868093480653, 0.29792254398967166, -0.12811081935025279], [0.23888655191330302, 0.10438737374170046, 0.04413614114510665, 0.2027852336035954, 0.2052694475559053, 0.01731106739977378, -0.1590801817578085, -0.16394446134038548, -0.06201457709047305, -0.3016115676426182, 0.10618665686471515, 0.1899011120532688, 0.06105656125250456, 0.18430632840045194, -0.3469179611539472, -0.0541893255184895, 0.20316011211997032, -0.31604945252696576, 0.2753179777648306, -0.209507006342129, -0.1256473835844571, -0.23982898318740167, 0.26437840688991904, 0.34691626488751204, -0.16720228548875454, -0.008888771145404638, -0.19522611192019912, -0.0011345766309147846, -0.04141632811603251, 0.10908561285778423, 0.15311296696044407, -0.22168747747350975, -0.10567959165576861, -0.2356987876954369, -0.13306599611877504, -0.1920030958176632, 0.2279333964805767, 0.09010822536445613, 0.03862410849025383, 0.2528696466218147, -0.35609621032515365, 0.057672138199027674, 0.11682056263300412, 0.09060104494493096, -0.18780499157189626, -0.24524427963953646, 0.0030074641781309345, -0.34676672863810537, 0.2717724938745971, -0.07310879548227683], [-0.2705190050317987, -0.11673518184659866, -0.23978378266887618, -0.11300444006315206, -0.22333109560304146, 0.022749440410739667, -0.16328671779946746, -0.09299530909164301, 0.13472752928049875, -0.29731111656553416, 0.00011693313365520836, -0.07323715185641048, 0.12550502992104517, -0.10272767835687169, 0.2999191673305425, -0.28798342661134596, -0.25624976158028623, 0.15567020061752646, -0.011669935460335516, 0.05355869655726586, 0.08742473727614371, 0.13005798555183995, -0.11511727044653221, -0.2349624678868506, 0.11920551134463031, 0.19230557727079214, 0.288655252062868, -0.1377950955305164, -0.28155446476754004, -0.14838612674781926, 0.16027981764955357, 0.10561430639408213, 0.31840567763073047, 0.25088507034280316, -0.31814460109424014, -0.10334135482854818, 0.2152009228869589, -0.3148169494560104, 0.12228015992137228, -0.03825412584105659, -0.3026811684506281, -0.33328552667477657, -0.26642415548318577, 0.13719075171308281, 0.24576251691979253, -0.02070635181836756, 0.27757570457402103, -0.336681989334363, -0.1991588424460875, 0.1052463998432077], [-0.02712439461507838, 0.2584218357147679, -0.2667526778444988, 0.3416369183348323, 0.22195735784213388, 0.12561006451448878, 0.1149045830873258, 0.02861893942226406, 0.27949989880487275, -0.07745238294070046, 0.011233716614036934, -0.3096853449536273, 0.04555169859362177, -0.13300835673620193, 0.10704131776764315, 0.014283931635300763, -0.15763214191911376, -0.16784240055192182, 0.2076361551483767, 0.07185131444837718, 0.08061425569514459, -0.35052232926958543, -0.02318245124265628, 0.17986402810646107, -0.20163599060792184, -0.1616178163590073, 0.3370093370191756, 0.21231027697552832, 0.057415519522650074, -0.21748722406314228, -0.18949975154028606, -0.0290464242705314, 0.005719368847655392, -0.15967510249545536, -0.06294423274142828, 0.25883097735994814, 0.3124956998054614, -0.11288366003273359, -0.009764033705563193, -0.16548406054825957, 0.04334712601690001, 0.006798490094224245, -0.2626354009062505, 0.1870573354743391, -0.06390058714766404, -0.16626791230077398, 0.09217881926214072, -0.00037438494437682, 0.02625934032481616, 0.16491310741994156], [0.09341360217729025, -0.2231312634951745, 0.19913992373953313, 0.35169805109440455, -0.20224655036409928, 0.27824502819654745, -0.2181910473011892, -0.16258382642410094, 0.0095416785645557, 0.22989323717462104, -0.08281243185076818, -0.039048468665546676, 0.01854008528001927, 0.26573217355878226, 0.029967934085329072, 0.06699385399122457, -0.007520504483951091, 0.1870719958956139, 0.21312597092839633, 0.3117931296790459, -0.032852175494535375, -0.1827213992510176, 0.17293043405531017, -0.09653250601152337, -0.07690992862626389, 0.20448624435724738, 0.03495359511956265, 0.01645638106148645, 0.10003564868133111, -0.3407854872874582, -0.20184469408717307, -0.2609305603429496, 0.16256034107843761, -0.2402406237197732, 0.18857077865619756, 0.06916316423131572, 0.1607383080813417, 0.13139641725442516, 0.19502464094580635, -0.3258111916366602, -0.13445745672095355, -0.08707094358026221, -0.13985521127417544, -0.2459764109961286, 0.11583684511065476, -0.13671754810686634, -0.09417753683462483, 0.2462318820489138, -0.2631342465798905, 0.09835952177386043], [0.23508342240617852, -0.08752490383286839, 0.2630146629550056, -0.011125973340292568, -0.2800836229384616, -0.3401858428641198, 0.06230510636539975, -0.11279160974366713, 0.17850994189695774, -0.16075508411110326, -0.30740602794345034, -0.2699446430968367, 0.08722872523468107, -0.11934221616205481, -0.015119126668240626, -0.009972558295962965, 0.12162315148673959, -0.32360266859622583, -0.31047183221841534, 0.015410700744714421, -0.3392405891987444, 0.07503462707224712, 0.2910912485517206, -0.13236646550147652, 0.026510714771343875, -0.2670930410521692, -0.07148636266128634, 0.2999361730660629, -0.23396464601298383, 0.020705696016652828, 0.31899693882004587, -0.027005611135632112, -0.2643002575375782, 0.3066811989346066, -0.05300492152581916, -0.21653670293938418, 0.25716406057197416, -0.30062033062806554, -0.022944685195984915, 0.23704671457337456, -0.20315845903853094, -0.28715066450416693, 0.30962876302382086, -0.14453028839922138, 0.0038113547252379694, 0.18859712456793476, 0.12240802531902378, 0.22204225409056788, 0.16739620544258635, -0.07272338592091504], [-0.0555159617512119, 0.28373295306002116, 0.21553533761072063, -0.30917968602175433, 0.22542216832284315, 0.2586778884067716, -0.07203527608795192, -0.2680675612848234, 0.3527660318678821, -0.006816353284371734, -0.2837819618229017, -0.27888604852609833, 0.012750034546008156, 0.2212286030470465, 0.07931951808811341, 0.26027763794270586, 0.19721877410031025, -0.3173764784543295, -0.28419419930517353, -0.2882416909876458, 0.10417314199112401, 0.30432346793766707, 0.26522708394437006, -0.2877347356570537, 0.004847020988382999, 0.09044606327181674, -0.17758425003937192, 0.0828624589565281, -0.26341276824185533, -0.15808961993291565, -0.11808094387120346, 0.3439390402665009, 0.14409048761765028, -0.2241631734179294, -0.19834359221985942, 0.3234231613769678, 0.0333994176030874, -0.21996065317320376, 0.2468734797652447, -0.13474988165621654, -0.18026227039811576, 0.15905565065112687, -0.2910749227725936, -0.06146587972998942, 0.31415509850184276, -0.31951238367158125, 0.14564681002814892, 0.1669643512526261, 0.32842304456422733, -0.24561728444419412], [0.0020113727733510074, -0.17783514601901967, 0.21459279162417444, 0.09924364287481223, 0.17298008575705048, 0.17419525622939014, -0.13662489583765675, -0.2711198165098718, 0.07442451747267181, 0.10593782575198686, -0.24685303624235916, -0.02904935287663281, -0.014850914889918295, 0.1982924802947729, -0.14816817021756762, -0.0012186765208907489, -0.07996190739995726, -0.23249674816819735, 0.14667053653328493, -0.23159247227426566, 0.0051358834720859, -0.35818970954057855, -0.18773618860906444, 0.01360171010842797, -0.304295295304317, -0.21008984067030914, -0.060007430161995834, 0.3019271058086209, -0.08488321162791303, 0.0395827163344697, -0.289004089232047, -0.13354659850536518, -0.31037902589426364, -0.18058761292360584, 0.055502773162899886, 0.07455998378526398, -0.004677565055034261, -0.11276038244178332, 0.2929282154430417, 0.31359256730699053, -0.04665223400959908, 0.1670892757109403, 0.03352174543246262, -0.24561628532205382, -0.02375048644333843, 0.3059667678917154, -0.20458838014956846, -0.30614289616323653, 0.23121690217491286, 0.13060095982730693], [-0.14302678737358343, 0.02876814799286114, 0.14047631093298604, 0.29172306824410943, -0.2100553766975402, 0.0011910817772316064, -0.04594179986253481, 0.17785646691125842, -0.288208695849875, -0.23248898521078643, 0.1900621449483853, 0.3025185100139734, -0.24146527345474608, -0.036630489044092975, 0.20957307883567583, 0.24704270551299679, -0.11705791102967089, -0.019211778621468514, -0.2072866503041193, 0.19332816981839618, 0.015126637642882558, -0.1622231867976077, -0.17090889988215532, -0.14019778950416037, -0.20524308469701633, 0.05727314220237999, -0.030104648134137563, -0.15172609196674766, 0.16619739774880796, 0.2817607060416, -0.1981174311757979, 0.16818731871421505, -0.2408623703500251, 0.087418733397075, -0.009497975922027502, 0.0472955118287435, -0.16226590934460297, -0.07226499742495146, -0.12329535581392488, 0.2525137809728421, -0.019630387433195156, -0.15735573537564718, -0.18246891508707758, -0.11481070736539233, -0.21316239998631584, 0.06446934470865173, -0.11399767222238572, -0.08892390503042032, -0.071539527683956, 0.09682239829653527], [-0.14301035580596236, 0.2910901674826075, 0.21317373443498125, -0.168967451703788, 0.10872440689336567, 0.058685105631256715, -0.2616163590406724, 0.16208885927391445, -0.07299307800902802, -0.06814969730362444, 0.2025497985613498, 0.34692469050277425, -0.14808208613437937, 0.31720902323166306, -0.25506582602008576, 0.2538093037734664, -0.2360351655415055, -0.0605740780609574, 0.27101155930165116, -0.05696919571046921, 0.22569217240521183, -0.301437016664039, -0.18272412992307238, -0.15696216974836516, -0.23097082506545344, -0.08068018920658673, -0.07168104468406052, -0.21561310636677153, -0.2229461137243157, 0.285507030519769, -0.17034815716179239, 0.11881987182848512, 0.11447974808063731, 0.21176021178351073, -0.2554179686898044, -0.047315153526081094, -0.1881947200174676, 0.2902703911471014, 0.05696182848236614, -0.3161275087965937, 0.018083953654562546, 0.31273951548684303, 0.19639793930680824, 0.2736317526729657, 0.01676549057159771, -0.1901314274070079, -0.23497696768448714, 0.23468472718843558, 0.009011775372632681, 0.21290872999903582], [0.1550724421288313, 0.272111035189077, -0.010041894199969249, 0.059180943905657465, 0.30183170413179605, 0.10507915618971822, 0.1748724927231918, -0.2114344911032054, 0.21303047040548884, -0.15742690292790645, 0.2994728977611184, 0.21636282768201032, 0.12368287951669457, -0.31923570474550395, -0.2627949238670507, -0.2961748140100082, 0.3673537615265029, 0.25162848597879006, -0.29111058944922574, -0.11441428928949154, -0.3649621117186186, 0.06528176531794107, -0.364463502258893, 0.004486065846963981, 0.2696693502476094, 0.30798696682089555, 0.06442747957881893, 0.3580841986479032, 0.3500381744649754, 0.35115784265630595, 0.23652100479628102, -0.06607753179566238, 0.01864713575244561, -0.11869130501152417, -0.03562922821020312, -0.07428001336259944, 0.04046080810463824, -0.009698123869204872, -0.20495139671164903, -0.2368100922795145, -0.01836451139595534, 0.35674979894965964, -0.2884042119542947, -0.16513873792975411, 0.25456458679986294, 0.06828757966402739, -0.09018111161321733, 0.29336466266960126, 0.10004988751211091, -0.2690600751929756], [0.05645817763016804, -0.21302611701513965, -0.06813595451578135, 0.22928816034636612, 0.03206299865312039, 0.06818785916015792, 0.3333897193492353, -0.200024542955459, 0.3070199526786205, 0.34743775647638114, 0.267057949835084, 0.03626078749016924, 0.34295935275727785, 0.2690410028813779, -0.04614249617045578, 0.05791470705644683, 0.14438922053003778, -0.06986758090861304, -0.07640927597006779, -0.26053362474090863, -0.016246850535320167, -0.0012641237827139555, -0.06434271808339513, -0.17443139527879833, -0.10968562770832882, 0.01899756915175013, 0.1494028428948626, -0.13355235501984006, 0.07984761489884537, -0.05706158156985275, -0.25337650622628693, -0.2595986523084447, -0.10299571247161628, 0.07421592955048133, 0.12081481788460137, 0.3483118793098184, -0.06488652479690098, -0.22386070032631197, 0.3095383050601349, 0.23729846728875015, 0.11968802149601995, -0.2338974500059091, 0.15385329626761712, -0.05971638520514137, 0.1147706688573454, -0.3467879646324087, 0.2416429839367482, -0.1490207705121549, 0.0340164814889509, 0.1745088613008119], [-0.15411890741414525, 0.3090381865531846, -0.06668844283974755, 0.0013899846448574339, -0.24161627482134213, -0.054922934098417545, 0.2066888292278309, -0.2894182954605694, -0.05079573393503438, -0.2899562825723237, -0.10994636296846931, -0.23774248459295044, -0.11381553500773141, -0.04484312359999925, 0.04522973049057084, 0.015194324613251736, -0.2446367033562385, 0.043371889662683114, 0.21270502366687716, -0.01666192686743028, 0.1714867282532122, 0.18972862754633293, -0.08343546261275948, 0.10652986200808255, -0.18970020498032358, -0.24149725710600817, -0.2770343111555199, -0.19708259824212446, -0.3218682035737817, 0.2041348392585875, -0.2748258504710883, 0.28888651559826184, -0.19562452227119215, 0.3106764027743466, -0.310589689653188, 0.21065654045721455, -0.3187109130464364, -0.11697832570642216, 0.007204675808406097, 0.18322573913799423, 0.37519533984459497, 0.2255924194485821, -0.24321323620704477, 0.19507662936641257, -0.3020308734062263, 0.16399291300197144, 0.10582366020562006, 0.28804071568415945, 0.2735536171246089, 0.1633679771683827], [-0.10322486363860646, -0.07527662640878967, -0.0747717243142162, 0.15067935767185736, 0.2197979544530567, -0.09139340717482228, -0.34332030786911955, 0.1059683153048984, 0.017789985329206916, 0.18437201003217585, -0.09512487508565216, -0.18777137604727032, 0.10971803408004348, 0.09428263666904683, 0.08685974926210772, 0.195677505043178, 0.1669643508525004, 0.17403200094003624, -0.27635806777183275, -0.24210533320179278, -0.3556471503989175, 0.12303816170625277, 0.052151298109540375, 0.1943976569159569, -0.31646517406943114, 0.054424886550483324, 0.033092279734417515, -0.06276023630095535, 0.29974955637234224, 0.34196649354527087, -0.07124282232766367, 0.09926439243465181, -0.30420984219194597, -0.06905959058326432, -0.15162242958001568, -0.1270006720594985, -0.2353533740193653, -0.20326153256063512, -0.3226032284863929, -0.1763857219996017, -0.17759934739861422, -0.1980857295510332, 0.08695092213837576, -0.2869646255518803, -0.18330988223016623, -0.285446809458992, -0.009893247927366403, 0.15283263519695764, -0.15729955580608143, -0.13895554483131978], [0.08348970977102253, 0.09399036422409458, 0.05519404816806195, -0.11243228693621, 0.003055285984122678, -0.22721300758960186, -0.1385136000792069, -0.35240049066056767, 0.346425722499636, -0.07966071454506941, 0.01646656929501696, 0.10868376681733975, -0.2967759070242727, -0.2997034961857412, -0.14157119748358407, -0.17317526050943438, -0.17456253164087351, -0.30885788852423474, 0.13897826437661676, 0.23406656948862403, 0.2755055749922457, -0.26636998932517963, -0.28275828804402797, 0.27406458333047173, -0.16266508717172082, 0.31535944552174805, -0.31729696516195616, 0.0282573934968009, -0.13798781894484882, 0.18102833690318734, 0.1770871390089267, 0.10452217041399899, 0.3006725321794612, 0.09983944453202274, -0.14378869393193724, 0.26675811942388755, 0.25947912717437294, -0.31392875446284624, 0.1349025742970946, -0.2930539346588611, -0.22223059373165116, 0.23224574308477244, -0.22584113842540465, -0.1267884623446591, -0.1970668210304799, 0.06817186839781274, -0.10495840516350352, -0.026920172916384127, -0.06993996332461043, -0.27944265091195425], [0.3379977285361388, 0.20696572658437062, -0.10229489981254743, 0.12549156168000197, -0.14963136579417696, 0.19713204216425811, 0.09105538510166487, 0.1984289383572261, -0.17984327670720876, -0.25066719905676493, -0.17652161468565877, -0.12097521748408423, 0.1417480100757569, -0.2859201478899789, 0.13737668198644132, -0.3398428022952689, 0.21866056732193134, -0.05120319934615816, -0.012318803587148175, -0.27391837992656565, 0.22513103565049938, 0.09179718522731288, 0.09170313509571558, 0.08003964409544582, -0.03623973514926015, 0.13586098309927228, 0.1065366014708493, 0.31772531043220115, -0.22114572405370322, -0.1225735228237937, 0.33250499344186274, 0.29838891256619116, -0.1644464715455615, 0.08968504713195784, 0.06467394523377862, 0.16702574060367942, 0.03567882978252878, -0.06247088842293819, 0.317795719454728, -0.06624439083537843, -0.06849865716366216, 0.1778779959218247, -0.2118295521568964, 0.3075102281243097, 0.018465586539265853, 0.22036408013998235, -0.3059967182834621, 0.04593107545012819, 0.0996525415956076, 0.24166175609727067], [0.18236465691459292, 0.17797342992322912, -0.09907082446544448, -0.37578346590517897, 0.36216987514682414, -0.0011936977298366612, 0.14995550875957656, 0.28182564066388177, -0.3038937846391641, 0.2604565054650899, 0.06714788523752259, 0.25336256981192873, -0.015528366560620477, -0.12102404215075187, 0.10512469335879733, -0.20252835617713566, 0.15323708558451785, -0.007107565977293857, -0.25519748278343923, -0.005190740458373735, -0.16638662175109994, 0.03169678329139139, 0.09956413389773473, -0.3649335119673308, -0.3647414439823224, 0.16545755237268572, -0.07440592200295061, -0.14682339300792932, 0.3451276467579744, 0.31268069572631235, 0.3508792024382106, 0.35489732921492756, -0.13589861450645827, -0.16901829830211945, 0.01324090164791503, -0.26930721274208813, 0.10495728111492907, -0.1795467271110359, -0.20196775875730197, -0.1237306818587214, 0.09418108626208434, 0.35184632649585096, -0.022161397235796656, -0.07935036878146208, 0.252145787286988, -0.26437103347517166, -0.04468834722610264, 0.34780004177433876, 0.11496221979203329, -0.11512841776476458], [0.041151091701603956, -0.3212739752580912, -0.21766522725926096, -0.07639523593879968, 0.09257401537454664, 0.31330951718606875, 0.08678249769914646, -0.2634785957629085, -0.10956053291026367, 0.06302350352286826, -0.20638609272178524, -0.06151261304234022, -0.15849372589900443, -0.07728682675198312, -0.2635078551252583, 0.19393517494421966, -0.16827175505599626, 0.0014981093673733443, 0.11718451246479229, -0.044675229742985975, -0.2258750634297176, -0.26909249621630893, 0.239654198145442, 0.04775977238335021, 0.008739018782406228, -0.3369397993451645, 0.13412382485894725, -0.247906565694637, -0.22672898430450256, 0.29758120303665014, 0.17744151244548398, -0.17731501974098754, 0.1673427312376215, 0.02499198652613956, 0.0798308191111659, -0.021131929344307958, 0.25099440968450476, -0.15315754583186902, 0.1920175364422681, -0.016200915609159525, 0.26794034694286445, 0.28471447859082716, 0.07812742782968436, 0.03617779436503657, -0.07449351800597898, 0.005665947352738297, -0.2749603924915669, 0.2715510637417143, 0.2659218270323303, -0.20815422058449212], [-0.35333813603153064, 0.19872790622990735, -0.08766528136646969, 0.06687804506112599, 0.2718380504330085, 0.17651466468841304, 0.1430283737414178, -0.29012181690779787, 0.3154368394957535, -0.25188102052560357, -0.14549392473636386, 0.044674316952306496, 0.09751788028460895, -0.19343785544166978, 0.30637024180441, -0.04725341649676325, 0.1210864474013225, 0.08019287575698855, -0.20407375060508404, -0.2876388868341743, 0.3208904204415422, -0.21932948794980014, -0.18110414512799403, -0.027087615834676178, -0.3282228352088216, -0.16213677893103792, 0.06133337034545015, -0.2720702302956656, -0.22084297572814485, 0.2332176682752424, -0.20670046045404175, -0.20595715010083537, -0.20201420101593814, -0.2709307986824548, -0.29549930736954977, -0.3641756700493743, -0.19691807007258558, -0.04229262704374157, 0.12928123615946302, 0.06836617831361914, 0.23904593634247376, 0.23979989344137181, -0.21310995883166006, -0.29775061083946475, 0.27562957915082886, -0.10573339920114748, 0.012081934808724035, -0.2592761753199792, -0.30448137096286815, -0.2729599266619127], [0.12231048890023975, 0.01792725163074873, 0.03748339626681994, -0.1536393549009568, 0.3137851839388881, -0.1727858388866635, -0.05145579902851998, 0.17102741175518238, 0.04334829081702433, 0.07165520167095174, 0.05683233964660867, 0.2724762352369175, 0.08938995299029405, -0.23736485828449785, -0.2420215959282179, 0.16251956438376666, 0.13019042268365252, 0.24964828440125353, 0.3578193417459105, -0.1756606989088446, 0.13493468271635978, 0.07717376724953937, -0.034829130188136444, -0.1469753325847517, 0.17173384272294823, 0.09555751056040399, 0.2287711348602049, 0.31205126158879876, -0.25882405675749004, 0.22315154560989914, -0.36023242730544436, 0.09386025979795422, -0.16128730329305485, -0.05486960083242632, -0.21347234799027126, 0.30031043887904707, 0.08011470686843083, 0.012817901809893827, -0.13966968859979645, 0.21971549047068242, -0.3358768537778695, -0.25090015196523846, 0.2507472268260709, -0.2948155650346763, -0.10824510447303903, -0.3093646137924368, -0.32093967022117664, -0.17044904891547974, 0.03423247776848428, -0.20618540565730778], [0.16374635811293042, 0.2600578292935218, 0.1994610931714812, 0.2089489413327829, 0.2884306827517202, 0.21608220501376887, -0.16398779249132062, 0.13593982424246495, 0.2677305467346606, 0.22562451579848436, 0.3567907045097229, 0.050361006661039605, 0.02957834808917067, -0.17230991032412163, -0.30726585287859864, -0.1613987004980602, -0.20847892281388714, -0.22894995007897884, 0.11993443263166233, 0.3719589190520557, -0.3096869698660229, 0.1167849248881784, -0.2305555287611863, -0.2446312515411448, 0.13143989563963418, 0.27522428102523955, -0.22917525524015092, -0.23035007129492166, -0.03581558213036189, 0.015248414561358808, -0.23052637407484527, 0.18465563172590982, 0.01600380600420782, 0.34690016424569814, -0.336726947611799, 0.06375091275501867, 0.10247993886044446, 0.2503734095034779, 0.26341291908422404, 0.2783189436415813, 0.09004760859342163, 0.36334317630813345, 0.2140137659181867, -0.285518026736248, 0.16142910860092463, 0.3223917689372468, 0.15692412671856593, 0.21542873821312158, 0.30799644151174693, 0.24120201689546167], [-0.2990079932434287, 0.02563069361191579, -0.15423793462364765, -0.18601313575375336, 0.11305937056026022, -0.25447552780460664, 0.2520192357398783, 0.32213898553952885, -0.1903655197648479, -0.1197966520983771, 0.24823224207200492, 0.08265544573087753, 0.29594376209403317, -0.025426323441656493, -0.1506587579265631, 0.03953893099304218, -0.19345817843355834, -0.1018486709795995, 0.0061317543652226495, 0.06669442583892311, -0.0925412193219008, 0.05635452514874991, 0.17960274628113637, -0.12386268014079524, -0.07455021723104184, -0.29257986548921533, -0.3368251159192558, -0.1997055494465974, 0.24689722851927579, -0.2534764156452262, 0.35064614037303576, 0.057771719416071336, -0.3008522080982905, -0.2408526882515366, 0.027841304880258464, 0.1370430241604063, -0.0293948720469563, -0.1979822443328183, 0.21098981859288177, -0.2835452844060663, 0.3168257015575724, 0.27195884536563664, 0.179038558259279, 0.32684436790640825, -0.039569701743507164, -0.17154363830314376, -0.2907600869096608, -0.043497944384626494, -0.13271440716225524, -0.31834977195505154], [-0.22402242904937203, 0.18179347899503737, 0.030067480562284574, 0.05764342917136138, -0.07182559941336435, -0.35515978311632324, 0.09787743548667194, -0.26973505500808737, -0.017946018689307515, -0.2288683475451509, 0.21775582986129646, 0.3292959436898666, -0.15534225893632142, -0.034601734084737004, -0.3000395138331029, -0.1953407430495717, 0.3237750047290761, -0.29440779704788467, 0.21303714750024624, -0.09376009695151775, -0.04061787781025702, 0.30000352002896213, 0.10530211375947525, 0.08521400231551761, 0.3068408843556753, 0.18282847342500166, 0.21953034315190412, -0.10351768348835708, 0.18803423494987254, 0.2489636035490828, -0.008351057072651488, 0.09356965899754414, -0.026669227284740478, -0.20836822281274894, -0.1802688478063509, -0.10341134150999931, -0.25801941972726605, -0.185278758700425, 0.27569443453400155, 0.13720764374406544, 0.3255640409951835, 0.15033608562963163, -0.025104550730442078, -0.36405092055518745, -0.05571276459153367, 0.2429600781226931, 0.25713677666009027, 0.0978672988125327, -0.08792705495125855, -0.016191012352068275], [-0.13830991777517757, 0.11476621063855133, -0.21194094671087887, 0.274290587499315, 0.12011784141555149, -0.07213294269787875, -0.34007419195996286, -0.35602502797559915, 0.2270811451720046, -0.15110346701327265, 0.03463770919855877, -0.17666603535364078, -0.3555556479320119, 0.03750847112901809, -0.16809231788104076, -0.20730263759346268, 0.3016938505113203, 0.010940574916413363, -0.13684893497802875, -0.15688044653088087, 0.1328085788964014, 0.019782013260884506, -0.11628262002774106, -0.33454306153476254, 0.0021030531660256205, -0.3158751938283461, -0.07810669076651812, 0.09542301316257788, 0.2915662022853422, -0.13712595597259628, 0.21110498329154065, 0.26799187300451943, 0.2732000242936241, -0.24741724003764531, 0.1321693002117905, 0.06541245235167872, -0.16849976801119582, 0.3132424473731816, 0.17527627616954722, -0.23030084851180468, 0.044802048599255816, 0.13545275442570112, -0.2855344301309435, -0.05090247457006765, 0.032187304116042044, 0.2909266308336134, -0.07597151048689998, 0.02559115723662525, -0.17432810625929257, -0.013019523344330325], [-0.2289726029131414, 0.2367584122230709, 0.10357013679584848, -0.2926417534356486, -0.24471445720676074, -0.2970191800632502, 0.1733765488381355, 0.19661641255058418, 0.25218863602762237, 0.17214067966458715, -0.1917261879051455, -0.05016277040885125, -0.08474591760349956, -0.3429240651462927, -0.0028294124889811437, -0.23068951939511423, 0.07531405678457911, -0.3681462625679712, 0.11745833209825722, 0.2975473438295995, 0.005194031737833294, -0.05376540460554782, 0.10395929936211368, 0.08752440240805512, 0.23369268936115023, -0.07594810365668195, 0.05776072938569735, 0.27465726961434733, 0.2134591666664066, -0.162791459115903, 0.32181948956821804, -0.27002107555098187, 0.35148711040525366, 0.1173111995399751, -0.2314644411395253, -0.21763190597146084, -0.06540847585432494, -0.19373393736772104, 0.1404259248116438, -0.04257133134766229, 0.2587928041406483, 0.06936608784734138, 0.06555592623924929, 0.15791964989366022, -0.28966558820750793, 0.02388216957245585, -0.03445954268093297, 0.14644116148142833, 0.08712252132920087, 0.2556135985852032], [0.07556785569539627, -0.2013375920491129, -0.05371841962087626, -0.08085253966504342, 0.010523839348920934, 0.030637337220447536, -0.3008172888863468, -0.014561676756538999, -0.1472239815282757, 0.33203857378730695, 0.2607717827432817, 0.276350804744786, 0.3110284715351054, -0.1578413496859254, 0.24734692798399116, -0.2133805196745465, 0.0035964021192706154, 0.2266765196030408, -0.20303937179229967, 0.18944982845893332, -0.17962846354122985, -0.3345618645946947, 0.3223059119722219, -0.09361086357120355, -0.16809481884445587, 0.16370382529947214, 0.17766177470597438, -0.3230474732778132, 0.2490280130364929, -0.30797375591509046, 0.06630846636312542, 0.23672862742955164, -0.22088761630882464, -0.25047317487345966, -0.043407991794828224, 0.29838134571523955, -0.23940565845862388, 0.0769126811571015, 0.24329972019399704, 0.22873453263108656, -0.30090240569040616, 0.1030063640450844, -0.28467687256472096, 0.14386667784074325, -0.3118245270053073, 0.24545655228885088, 0.20620255827788125, -0.0333575659697751, -0.14862183499380768, -0.28832342196200095], [-0.03295542920917814, -0.2293450485454465, 0.25133126246555576, 0.20257712778444653, -0.23729819836132957, 0.14847540604346557, -0.061736379445924194, -0.272379621080823, 0.017114586654312005, 0.24962949670834972, -0.20612576339732416, 0.30706623752476553, 0.26865168799357675, -0.24994130510339832, -0.17290485491499918, 0.2801164268504842, -0.01746759201577039, 0.045484348437465155, 0.285890041072253, -0.26761207561305483, 0.20876768968181306, 0.330494637347516, 0.2603655273684957, -0.04190632546784762, 0.23367022916759692, 0.19549020426599228, 0.19565589229631114, -0.36094320398710694, 0.2012777508279466, -0.0975842552158153, 0.0076574566403981885, -0.19308906815277377, -0.3148062456447214, -0.034624510155029424, -0.2968374247513355, -0.25590755613584615, 0.1734739901874003, -0.20289780302076224, -0.17566403897754793, -0.04024395723611995, 0.1659024427845269, -0.12476466231717566, -0.20417190778818187, -0.14401176931066037, 0.2764296322185684, -0.009409607728444376, -0.04084203214417413, 0.20784059791486356, -0.11508329025138887, -0.04785642895916994], [0.11946953330357332, -0.33244834894784375, -0.16239669720293318, 0.31154875064644544, -0.10598033379126985, -0.10337762239588451, -0.04082695711492212, -0.05145562090652382, -0.13256974890246626, 0.2622882646554434, -0.019332971731535104, 0.01669294286931599, 0.13258412676122655, -0.10445062879470643, 0.28044064856167833, -0.15871713929756978, -0.3359997410928877, -0.22457969175818215, 0.32437160093692885, 0.2008616318919068, 0.12921462406118817, -0.1875032325847437, 0.01691289012227722, -0.16318288549588236, 0.16259947310901648, -0.3203345779075395, -0.28611728268120895, -0.25404676002434257, -0.2960581449705259, 0.1502363352720279, 0.2874459697437077, -0.22749935023690895, -0.18599299143459636, -0.23116851799711977, -0.29971065327727314, -0.18369549761723783, -0.15271754971988136, 0.1458880621808753, -0.1245075906184221, 0.11999018879581948, -0.28194383542590923, -0.1795639009543076, 0.056459738160458565, 0.13547244045126963, -0.21231428303128017, -0.11487479676446181, -0.0991467899259058, 0.021038458178406612, -0.05111359353889854, -0.11873609196885652]], "biases": [[0.012862524544453916, -0.012899999999999977, -0.010362684536777099, 0.012899999999999977, -0.005542566400985813, 0.006982313972621639, -0.004203023997073481, 0.011399410414699208, -0.012889526493061831, 0.012775909568780502, -0.012653829176903908, -0.012825770401454231, 0.01275141676023901, 0.012798856504299789, -0.012565478632470848, -0.011464681139436174, -0.012693034483652929, 0.012877421519633551, 0.012899999999999977, -0.012866070637147724, 0.012851669828115524, -0.0053088120803843454, 0.012887805689645381, 0.012556414517943775, 0.012899999999999977, -0.012778789775585364, 0.012899999999999977, -0.008328811728390444, -0.0018693046241664826, -0.0017891979123978415, -0.012880406545462304, -0.012893971153899984, -0.012486288002184607, -0.012801430384398856, 0.012597349202308894, 0.01090631610477653, 0.012882834498269267, -0.002526794710514381, 0.012771017131669737, 0.012859900612227951, -0.012877747044908648, -0.006274012075694277, -0.01285841192344575, 0.012899999999999977, -0.012854916319415518, -0.012597495887862603, 0.008427709437600352, -0.012899999999999977, -0.00666911766344086, 0.012695133169001718]]}, {"units": 50, "activation": "leaky_relu", "weights": [[0.17925817300222271, -0.28316628781288455, -0.21549721561032031, 0.2469826945811391, 0.27705787623884115, -0.05046728737735863, -0.17562880811513362, -0.016395902257763672, -0.243096469763598, 0.259658910834668, -0.28592850431312344, 0.30090233065374894, -0.034592750251375794, -0.3685340077568969, 0.21104482215037615, 0.21967928621359956, -0.047558477725921214, 0.10472923977418667, -0.24712623360890174, -0.1352660019630577, 0.16686893638785544, 0.22317799702179364, -0.20647623016359531, -0.07402250084350327, 0.28573216571922677, 0.26940560376111516, 0.2899488383761801, 0.12665811716789593, -0.1341805541761367, -0.12868334920294816, -0.12268930303015319, 0.2377258167167811, -0.16439834796999298, 0.13900496832662385, 0.16366804159057555, -0.058701930733039115, -0.09651362463873593, -0.12700247981038004, 0.072334881287816, 0.2137042165375799, 0.020535954010851606, -0.07313701259288112, -0.3001117800190387, 0.186724678737066, 0.23710557253634224, -0.1277282991935924, 0.2017796305296534, 0.28763733832257565, -0.06872578501968891, -0.16043668461688348], [-0.016199057919286834, -0.04465418455439074, 0.03759519555923986, -0.06347367933059471, 0.03755993808210857, -0.34426806275748906, -0.003869943665827075, 0.18991039060996454, -0.24205118660764444, 0.3197378379200629, 0.3055820201692964, -0.2210302576491839, -0.05896039073867371, 0.3378670414240665, 0.1415945429896069, 0.28954550861592565, -0.33880671403004214, -0.24340165688127624, 0.03449030212454356, -0.013093351918701097, -0.3326467193610621, 0.09657374768500958, -0.024688234433036915, 0.1595924115364247, 0.3167268112252466, 0.2697773770833657, -0.04595568221969927, -0.10494430532632103, -0.25311648778534784, -0.35108765781575213, 0.0809179959649787, 0.15077056298331062, -0.16952440757668094, -0.31179905796112484, -0.2703411771927658, 0.3248038899678942, -0.2769207254748952, 0.24234353172098913, 0.07935636418561809, -0.2663682987351547, 0.10403343786842909, 0.22735682431781762, -0.36519777531478625, -0.1487037115056966, -0.16391304358116363, 0.09906329178025346, -0.34009641644601163, -0.03669546085832551, -0.15331835967234583, 0.21351215634404716], [-0.009049482338128233, -0.04703525341649678, -0.07614008579069508, 0.18640505926621742, 0.23769590760602616, 0.3126326707784929, -0.02978938709859801, 0.18893624894686067, -0.24128376011802216, 0.35002763524278563, -0.01596320647091975, 0.22752784277508098, -0.18920004250819955, -0.005892274585588372, -0.1837787305364897, 0.1139935553065749, 0.19749099684084032, 0.05809628099157656, 0.01350845466500938, 0.36048552109083565, -0.18519890093982666, -0.1564640331210511, -0.2912095770528806, 0.3013175497967418, -0.20986683583533444, 0.31245815225270496, -0.3558516881768429, -0.3094934598549545, 0.09668029380061176, 0.1625136322157103, 0.05875017326954243, -0.05732869587783773, -0.11959617507529229, -0.3158397754624952, 0.3136992624148204, -0.23246509940873883, 0.20581828509127562, 0.2510544428795583, -0.11839460318068493, -0.27255781068746027, 0.32885059047797255, -0.08399794775085977, -0.16355982930228538, -0.12250596151002707, -0.0578962044968621, -0.19526678754846002, -0.12733612040612402, -0.19982956021233025, 0.1296893415040016, 0.3409762802849054], [0.3335295416025496, 0.1297960933025447, 0.18768340403644976, 0.21946278637178326, -0.09153844259680129, -0.023777190620321877, -0.011236260263878098, -0.2941866458375685, -0.1688899896185719, -0.09754463750523508, -0.2422739062186556, -0.1363361338277474, -0.2926899266785755, -0.18742264948717718, -0.30527064629966794, -0.019381805973706565, 0.3092919064308696, -0.3704884184781175, 0.08181967662490142, -0.2710345621322316, 0.23375559736495566, 0.04097007590370548, -0.3698239512241728, -0.0753058685045662, -0.05552079708428752, 0.07471983237952227, -0.13884633750987024, 0.34053796343333786, 0.061889381595110454, 0.26838069782650553, -0.20165125210312787, 0.055571118568192066, -0.17823019237582327, 0.12233294012898392, -0.10870611600228526, -0.026602335190132376, -0.17736797420231307, -0.18438995632744368, 0.36612303380109806, 0.24700448787540513, 0.050319971706526655, 0.36987416679533425, 0.12394026491745026, -0.09076110518337423, -0.09495234761446424, 0.0411944818646756, 0.1105619172292394, -0.24169332954057815, 0.16273741317941076, -0.04265915049113719], [0.020853119402447603, 0.20526202166843754, -0.17658095549639838, -0.06750232379265766, 0.12138033126255297, 0.13343990617132034, 0.14031521075529743, -0.25007978542821246, 0.11292716562913567, 0.11211445884881428, -0.11296057707412761, -0.16777825616866296, 0.24381271157441586, 0.21774861340367435, 0.24443536350506123, -0.1466381191077635, 0.2988472673649059, 0.12994830703955956, -0.27592311981085793, 0.11719121744948433, 0.034946551899522324, 0.2145415380307596, 0.06635951553829222, 0.35673879212440035, 0.0682569979806447, 0.36590466744913763, -0.13917997596581774, -0.21789898141726707, -0.03485742841669341, -0.02083235122306891, 0.30711482671260637, 0.3713747986111636, 0.12151096579171013, -0.08472346843283864, -0.12201341846201243, -0.24777537514643483, -0.01197071090159112, 0.08910415866382862, -0.35215653650713535, 0.16022709888375666, 0.10809885629908875, 0.23907871188623875, 0.1590201379389108, -0.20476370657385703, 0.017209190301618434, -0.3041825636100072, 0.01141020438731547, 0.30852933297732443, -0.01953309137598004, 0.15735835750750787], [-0.24440579144265373, 0.28571344385482345, 0.19482824156906164, 0.05402786250294862, 0.20204194052599275, 0.18132743139566912, 0.23354363757751376, -0.037327425461435006, -0.02134121238106251, -0.0005811890909472321, -0.07147220726307153, -0.2772763635542738, 0.325326568928278, 0.19122636558438796, 0.09391627594625256, 0.31300673890052305, 0.19390876130733695, 0.1584046138439107, -0.18130808297951895, -0.01918076380690756, 0.05561375154150333, -0.1808463855873371, 0.08031687299165374, -0.29276097909934923, 0.2239377318097495, -0.12666933728674493, -0.07058509096794896, 0.1283722526215448, 0.29703129918694904, -0.17634642072705223, -0.30833403763119277, 0.2895109019451291, 0.046177702048817396, 0.22909698917949, 0.3208158377575512, 0.015085859486619061, 0.30602510307521164, -0.2091640620158092, -0.009706338636204294, 0.27108935413862695, 0.23041887524516733, 0.06593290075206847, -0.1412175190140975, 0.2349717727691925, -0.3181144731170176, -0.14328076652536362, 0.3235027246735603, -0.017002575796487566, 0.09952081934207907, -0.24751238443482398], [0.11910708413484097, -0.1920235893507261, -0.05431210795435327, -0.25324128898994946, 0.20890098261301565, 0.013812239168140634, -0.21102729038058285, 0.3503516952707787, -0.016830422131075617, -0.25338157369219927, 0.15184554552909924, -0.15771210108118988, -0.28596445236625334, 0.3265796550125746, 0.35553846787374793, 0.2261691171002016, 0.15681620230421753, -0.31763302251577974, 0.011421115369139806, 0.08588090569214749, -0.21084362350820943, 0.3496699254790135, -0.30847428736418314, -0.16247572332414653, -0.059026807263866395, -0.17589501480544703, -0.1932540931960731, -0.2123392741813259, 0.24898847404977142, 0.1420141587738332, -0.028927694682720544, -0.2283296220060913, 0.2737694691516849, -0.11507130025761673, 0.08500530159348446, -0.10336023628035423, 0.3029498870380142, -0.041020360964076186, 0.09327932630332296, 0.26993064587769133, 0.2210137721895025, 0.18292916638744008, -0.26548307067543786, -0.027759959691560525, -0.11000827849151025, 0.33238639395378106, 0.1488262592178127, -0.31766452665671235, -0.11202035485628603, 0.03846182622589254], [-0.11608781298831433, 0.33366339513764054, -0.05897185959527667, -0.14199650137004555, 0.3133451378800407, -0.053380849319847275, -0.2771239089704388, 0.003026948192588781, -0.23080462580610484, 0.2974842738706535, -0.0008109499742430398, 0.07585356204886085, -0.21513138941072313, 0.3692732809756541, 0.08557608951917282, -0.28578449111996573, -0.008376271565995106, 0.05074970880978614, -0.31896240280761085, 0.1206699152633276, -0.01584546761694905, -0.30372816985980233, -0.19960864814211585, -0.27352300664359985, -0.24083141184613208, -0.17843333282133106, 0.051226234151602094, -0.15932652652102472, 0.041225463661737266, -0.272144030505188, -0.12372449210023126, -0.1667053826842858, -0.05608963149453257, 0.23516224965507393, -0.3173791472481406, -0.19708629359757754, -0.095508388473407, -0.21054155581943737, -0.2625808999301424, 0.050623091768200144, 0.13776678695276043, 0.10759221829492469, 0.061777603382261244, 0.3563814251078151, 0.09121621289893647, -0.2268720248808961, 0.3103656984317523, 0.24235051897752816, -0.07041553727108933, 0.14138310007836943], [0.2146989744587972, 0.2661678551411086, -0.24008699283099308, -0.1272955893969234, -0.13766087074443575, -0.12669167493381947, 0.10050902790354609, -0.03641658975377385, 0.1228986650670208, -0.08736643516658543, 0.29814452054107254, -0.18354480452416705, 0.22632653302774994, 0.20505136016336628, -0.2804822932187468, 0.24414996497492128, -0.28829160538685483, -0.2851221411897201, -0.29878857686321536, 0.01739323925672653, -0.12172680617962574, 0.32806790773567146, 0.3175570133797509, -0.30549458367104204, 0.2883605256046041, 0.23689970244326075, 0.009355282660875295, -0.27661637189025323, 0.27587186209234626, 0.13797885549012812, -0.024773010379831744, 0.07577088698296228, 0.33089301037112834, -0.3468898193737667, -0.3186001369586502, 0.0011253567287258267, -0.13098620448754325, 0.309259092904082, -0.0010499765544375794, -0.18574965692827186, 0.17073983601136955, -0.14768294471150173, -0.18442150616669317, -0.2987908466638944, 0.1004722257789166, 0.3218972875640757, 0.18275205420199317, 0.12257368797503844, 