{"layers": [{"units": 50, "activation": "selu", "weights": [[0.007938582372151743, 0.0033285812835471412, -0.00939570722110195, -0.015377101293087612, 0.0014607594319420605, 0.001058080016642803, 0.007361423839828579, 0.006119981140964458, -0.0005983720639152227, -0.0015371113085855298, -0.002412004060976258, -0.01652403512730463, -0.0041605326100443455, -0.011523898995245967, -0.008671485427452654, 0.0038458410538353464, -0.012911447248977437, -0.009124249129104988, 0.017154812889254124, -0.009016909982535662, -0.0017314368283663296, 0.002238027877178283, 0.0010813548078106984, -0.0013106526905949398, -0.00980585324173474, 0.011591680891461616, 0.00936317186861365, -0.005415101659234191, 0.01332110466880244, 0.001955655783367786, 0.006236107798395399, -0.0033413438129216468, -0.00036874667572327945, 0.004652770909195669, -0.013435494552654862, 0.013526055645288578, 0.009754894617304935, 0.006090992357461442, 0.011292782579357891, -0.0002276116217357529, 0.014013302486611125, 0.004709422379905129, -0.001164143354473013, 0.004749944582358584, 0.005175476553328779, 0.004818523438234219, 0.0052251374135615335, 0.010966657565641988, 0.009098782954321196, -0.006226346628948601], [-0.004504297144613149, 0.0013654753838945896, -0.0006323595647469642, -0.004838301166837829, -0.0013500350388909116, 0.013885594812028572, -0.002240181333324082, -0.00036564724566462794, 0.0061062758525222485, -0.014204410112872566, -0.004091612894027287, -0.004528963267132848, -0.004451150925907678, 0.014696498192197482, 0.004291112984055351, 0.0023652534460646027, 0.0028805349160050888, 0.003843080818553274, -0.02210646977114963, 0.0051697453427404895, -0.01617636041548825, -0.009613732644809166, 0.000977355021112744, 0.011223102620772519, -0.00233001487561658, -0.0019881051181811615, 0.007761617576313787, 0.019455968859406415, -0.004420945891641107, 0.0023050862597949638, 0.007064060747596551, -0.010047657132198132, 0.0015433876689141556, -0.00637577370501248, -0.006251085338120717, 0.014757304953546076, 0.01547638477199749, 0.008022544881647053, 0.015810444350394047, -0.006744637612087309, -0.006277166123535045, -0.005976628318457266, -0.025475058131570184, 0.002546922521295291, 0.007949736888378252, -0.009209127877253715, -0.00678190198820484, -0.007246671438754694, -0.013637028647616133, 0.0004240948569239207], [-0.01973581650330386, 0.019382565217500033, -0.002655941287901145, -0.0030400741244088416, -0.00508648479294919, -0.010745415060953833, 0.010218730190669772, -0.011239990986502631, -0.003937042480379439, 0.0007178965746704852, 0.02165179612571124, -0.0032467824572605213, 0.017870105961561796, -0.0002494066149371548, 0.01179976582587717, 0.0051296182961951264, 0.006087385186066143, -0.01434603992194364, 0.0021432597396649077, 0.0009256185891062607, 0.01071580841223609, -0.009230459789194163, -0.007059293105952241, 0.0022973735562887795, 0.015391407339162397, 0.006437355452790387, 0.008744106968172568, -0.002668047661493524, 0.010975993341422909, -0.01697132522681992, 0.00799291383016607, -0.005160834603238197, 0.016680955247013123, -0.002259723592266664, 0.0011388918831271076, -0.002400998866835046, -0.00928045788484064, -0.006561089226842122, 0.01077234234706832, 0.0039685878122378134, -0.0052692780324419585, -0.0006248064625879845, -0.011380695750475647, 0.000834440580734107, 0.0012501512843366403, -0.002507323693491051, -0.0049143341833268045, -0.0003124616056707708, 0.00142830548436843, 0.014467988963964683], [-0.011218022871423157, 0.00879763585399292, -0.0062035706065488, -0.0029572024846807325, 0.00033910869706401005, -0.004613328733477734, -0.005759875549817356, 0.003723342459222133, 0.0037481507278212334, -0.012483928757975202, 0.003221956038574439, 0.004398081038584344, 0.0025181285666320227, -0.010420166303403392, 0.002238366411085758, -0.0019618365258830075, -0.0029432711608155067, 0.009713327962126334, -0.016409144346185605, 0.009772404406922558, -0.013609441068840258, 0.02159947222618764, -0.0015725769297357671, 0.010794890214327791, -0.01171990414263404, -0.0015904017362943067, 0.0146027585360082, -0.003847711663020753, 0.0023594782164180835, -0.009432671363308576, 0.007099849569202691, -0.009098370824652985, -0.0028132670002335514, -0.007255974338973243, -0.01856023680597508, 0.01257614878356654, -0.012478514811035494, -0.014899816442806864, 0.0020395711070382546, -0.030204185906099006, 0.008044198122957258, 0.010234432062072448, -0.005187706581036296, 0.005769550892971221, 0.012734893555458584, -0.017978949677939848, -0.0054482759568546925, 0.01224452277524812, 0.0174887411824125, -0.02046156389458888], [0.005416349252557791, 0.009779715968256303, -0.010660247700570204, 0.01966652831346947, 0.007590288608332524, -0.010947799797356588, -0.008964869148379137, -0.005237529827403258, 0.010754634247238203, 0.0011434343274037135, -0.007292633042140701, -0.015673153410900562, -0.0005380704299682061, 0.007715996115922638, 0.002898229438480198, -0.013902504413690652, 0.002509201284770945, -0.003466923101111476, -0.01407240038553627, -0.0037709882218531477, 0.007417737648379909, 0.005421146866152295, -0.011943989217200041, -0.016951694790969432, -0.0054076784262678075, -0.008633430146672606, -0.0052324830285659365, 0.006758989362520543, 0.00652164943736838, -0.014416641101596768, -0.0253717620649071, -0.011130306567554631, -0.006691293973027939, -0.0004186912941244536, -0.01299542537896153, -0.001158131250376005, -0.01521234109980261, 0.01692174482506405, -0.004995201954991561, -0.0003277198297080362, -0.0018714529133589163, 0.006930340494606904, -0.010508079128824397, 0.01885808125357831, -0.018521852936269435, -0.010159267086896708, 0.00043604401734264307, -0.01128501997194569, -0.0012736029878947141, 0.016884630350817734], [0.007753534248665495, 0.005576794458494341, -0.013358449106629687, -0.015251002903291622, -0.011924970241894439, 0.0001465657153765946, 0.016804912338253014, -0.0045858207464861845, 0.0065577711701389745, -0.007848064578801554, -0.008501970110666342, -0.001528373451762522, 0.009633203946357357, 0.006075836429694048, 0.005335293873327412, -0.0107311914320308, -0.01072633058849184, 0.0016955358694906019, -0.004004566838325948, -0.027161720601758154, 0.006525124693990736, 0.00120321274742865, -0.007549709201613068, -0.0038380414735636544, -0.005905463125500906, -0.00043366602888344775, -0.0037924729082266084, 0.0051990549041480765, 0.01633282264970879, 0.008097501653622892, 0.0011388083694989773, 0.01672735401081122, -0.013352968251859526, 0.012362242950048482, -0.016619471415891256, 0.004564006050108399, 0.009427982066814413, 0.004484045560983198, 0.006375655932740709, 0.003618126392190772, -0.0014373047816586492, -0.004940292108764711, 0.014167385014961485, -0.006583860352051548, 0.007730193227152338, -0.014991841918908682, 0.0034367326187613643, 0.01561635099182169, 0.008606405996016331, -0.005786268289280997], [-0.0029770183954216764, -0.0009007366150695342, 0.0027286595096981674, -0.0012263894042949103, -0.014400042337233484, 0.008885879711807716, 0.001609484275175588, -0.0060909830513725975, 0.015814455860751024, 0.006848893602145298, 0.006003475237308132, -0.006495053251767697, -0.0008691526671760772, 0.0024779643408806614, -0.020805380901343144, 0.008200507057346809, 0.003209698940313604, 0.004188984616904754, -0.0008813943615279024, -0.012085600236488674, 0.004876484120928596, -0.010773922664092656, -0.0033001777547649394, -0.004005806351755696, -0.001927945638928683, -0.006485840571592941, 0.007192178185464432, 0.012302889418458456, 0.0010597901699433972, -0.009475903044417826, 0.0007649284468752488, 0.015827000623923827, 0.008859803510375344, -0.013718813865477554, -0.0018529563655222993, -0.008463772786965439, -0.020192758112079195, 0.002427066813879133, 0.005789733067980505, -0.0023012560763317, -0.0169759930836959, 0.005475080947876307, -0.0018132653904135664, 0.00724952678385868, -0.0028994368925487797, -0.005693322518386028, 0.0023875726506673548, -0.006721376359577423, -0.0004984890596136539, 0.009365092390219808], [-0.0024772226578417588, 0.009512841610808172, -0.011576068728601428, -0.002617892181012063, -0.015470713323570627, -0.00487621335308299, 0.006592128444149411, 0.00906202442039057, 0.004536890365359664, 0.00098490520501399, -0.008572194771289923, -0.016330037988284272, 0.00912915889850448, 0.009728841413263772, 0.01562785745151452, 0.006320603607559773, 0.017215446192107613, -0.010322605181884844, 0.005565835148560847, -0.019108019174717418, 0.0031087123746667577, -0.0014445744868573146, -0.0010544520800849454, -0.00841323256978863, 0.0034930700036614904, 0.002284902558589683, -0.021264383766001024, -0.006173949342221782, 0.004741929057838052, -0.00411701100756979, 0.01727066501941537, -0.008118743205036668, -0.010194351162328764, 0.023849039235206503, -0.0064304777641660885, 0.0022974078082668124, -0.00287839280926169, 0.015545006424219033, 0.008306947717521333, 0.02455850186818681, -0.005658492716528078, 0.0035094710317051755, 0.0030636423576061523, 0.009899647810756093, 0.009217646658092661, -0.0020688024453950227, -0.0007334304492391082, -0.0007874528362761591, 0.007373329348713598, 0.01531880999721098], [-0.0023716735834727574, 0.0040243100320499605, -0.010573390424396858, -0.0013644506047210145, 0.0028888246207833066, -0.0024988163150120642, -0.0019002757814735242, 0.009691578290015332, 0.01856949763930632, 0.00460317022683512, 0.017237101095856223, -0.012553289889205326, 0.0167303710911119, 0.007749947178205818, -0.007660130159150538, 0.003027682028507991, 0.0010092670290340088, 8.653769601859141e-05, -0.019916370473835897, -0.0015924687895998596, -0.0029213548107936485, -0.015610866660379103, -0.00760383433684304, 0.004896107460520187, 0.00845782490341418, -0.007366270788507117, -0.013203952766766404, -0.0028685837569809333, -0.00564911488923797, -0.00549871365113562, 0.013281503294115794, -0.0037565027374821505, -0.011845237196049373, -0.02416740961759679, -0.009426592733362322, 0.005196939862131898, 0.00931060113131801, -0.009195611405590453, 0.012212833410192745, 0.018323612567380944, 0.012972932638273238, -0.005796384079793442, 0.0038998328022822773, 0.009137247560030239, 0.009453612487053193, -0.002432138335528262, -0.0037124301934252433, 0.015342837161549706, 0.0035378035140592777, 0.0120420120021828], [-0.005333593851851344, 0.002116355850529554, 0.0043407527250158865, 0.016229800195861514, 0.011748199620423838, -0.0148673574704378, -0.0013755829041378319, -0.002225038344642032, 0.005842268303798346, -0.000822485689058207, -0.010231194136947603, 0.017725366121315148, 0.019417975109672265, -0.011650115214335854, -0.0019803193619217347, 0.009547174007705907, 3.079964863736375e-05, -0.014518294916546918, 0.0003569122936096695, 0.012399379603464997, 0.005211752324156317, 0.005613360708194215, 0.02020785920107507, 0.0031288209822349813, -0.0057507657663507196, 0.0017020764040320499, -0.016278845800224827, -0.010161405429691371, -0.00034495527501002867, -0.006299057545992025, 0.02391855515007669, -0.0019491289765047875, 0.003114920103340827, -0.005291486538673171, -0.003821546047787586, 0.005141946008243211, 0.00034077109392113874, 0.002113564237451114, -0.014493067803753442, -0.01758605998500459, -0.003511441680714785, 0.0063029824107458995, 0.007032893653196204, -0.00611716180098993, 0.00048326452784002474, -0.011037752681572458, 0.00570266804878361, 0.008416709392088516, 0.0056202967246932216, 0.007866774480711004], [0.005901772242849, -0.013851964423500326, 0.010494250188105776, 0.014675774479790425, -0.004378012131953132, 0.004487843241725638, -0.00885316981256732, 0.010086188193782451, 0.004349022387866387, 0.014559338750241261, -0.012238315332629746, 0.005939059826417076, -0.0038785867310760737, -0.015943925907750768, -0.0012241386829968917, 0.010297302323480036, -0.0030114136231469504, -0.0036447642451175924, -0.0026715257597749106, -0.004892747528882838, -0.0037840889113459463, -0.00316176219118513, 0.018357097611458175, -0.007130790302754634, -0.01981098568318428, -0.014819651638803864, 0.004063994188128123, 0.008632616324717715, 0.00010383494730395187, 0.0028831480183661683, 0.005799981853923976, -0.0021326687114343965, -0.00045108604665993976, 0.011689837440555035, 0.006689029913287664, -0.0013755866423378236, -0.01741350920617057, -0.01459236458088568, -0.0024414274023295225, -0.010320460304072276, -0.023272119972135408, -0.001909042566175727, 0.010868297276117041, -0.011481008121909775, -0.003970648544724952, -0.01311447087616687, -0.024220210914376216, 0.0006248762450181428, 0.012286043994575892, -0.010563973178687184], [-0.0041430293957552145, 0.011548225891075835, 0.0009004454006739456, -0.010645465774217024, 0.0068120768777430035, 0.007322821839414634, -0.003064950509843948, -0.007632901036875874, 0.011107841014004718, 0.0031008644927659123, 0.027898180755720377, 0.0026480599513972925, -0.004950908752675777, 0.003300232289451828, 0.008983210591191945, 0.012371885210111662, -0.004741071657394781, 0.001732333423802136, -0.022661426944848483, -0.021146541790086973, 0.004632076916911577, 0.0047955293520319684, 0.005242657803908659, -0.003040996204982779, -0.011088841523015744, 0.012689572515136483, 0.01139917070861173, -0.00020214842999870478, 0.005572068756663819, -0.02345308125741907, 0.010508836102524895, -0.015780557626633298, 0.013788068561515583, 0.023820562897496962, -0.016284265811258056, 0.007272922117476635, 0.012660753994327263, -0.00035047638303978816, 0.008851416070601819, -0.01011806078729104, -0.00563305645721295, -0.004786895061247021, -0.004056625836500487, -0.008423621960421257, -0.005231879552003789, 0.004809574771081092, 0.0075740782914305894, 0.004640617688292316, 0.0027474569920772343, -0.0018819370333910885], [0.008798815073741617, -0.0006136703257562542, -0.01589645964405448, -0.005967645003331228, -0.005624705971743054, -0.016064825917896267, -0.003972661136350802, 0.023832273719857383, -0.013015324583960158, -0.003869339804774325, -0.008437240702934447, 0.00225721386122464, -0.007293831789777874, 0.014108319506185112, 0.016202957403204907, -0.011715965024106071, 0.0033883055768620866, 0.0092488118652008, -0.005187844476150639, -0.010053578059601198, -0.011363758726406496, -0.0005390990030337642, 0.020519723654115245, 0.008697119264440587, -0.0019997540281862284, 0.01099483924487232, -0.004519361969787535, -0.011226181399775282, -0.0035897533542173926, 0.0010154416383089408, -0.011758629094567137, 0.006804178315646066, 0.005707630381352044, 0.0005205786791610235, 0.0070667502787515315, -0.001255592311166272, -0.005638977529286188, -0.005547777335560092, 0.010193647074978279, -0.005575897999730366, -0.0026855101687436296, -0.021000308863603264, 0.009233951298348128, -0.016360659084659543, -0.004031770913631245, -0.005954138455801346, 0.006046914120143052, 0.01980344533258544, 0.009055835861379766, -0.0037250035810526276], [0.015511135656463103, -0.009349315921039129, -0.0034731180269972186, 0.0035381514937297956, 0.002988497910053326, 0.01659680112068541, 0.0004953111347787644, 0.0021845867675988374, -0.003126850995861292, -0.012008761005391999, 0.0068910238447659694, 0.0063039378139367296, 0.0035077591264708638, -0.008566661083879523, -0.001349815625770991, -0.009089344452663363, 0.003959659390154251, -0.016247027308718593, -0.01907264816355304, 0.016869597040923993, -0.00449090528090116, -0.014002023440452828, -0.008444089513327577, 0.007214949711770653, -0.0028118145605884382, -0.0071676708418752354, -0.01853154972850721, -0.014062600716012142, 0.005281301635114285, -0.01308325254435963, 0.01179945373552367, -0.013838782085896013, -0.010251148478822901, -0.002142097969037137, -0.011426561984942258, 0.005548525888730159, 0.011772303255650735, -6.547690719284607e-05, 0.007044076484299023, -0.016951395659918392, 0.007012031279344946, -0.012128015487981942, -0.00915662618657736, -0.007512280414791158, 0.008150263403003394, -0.008970158276669315, 0.0016832175505850585, 0.009645417492154465, 0.008701271622140856, 0.003643127755178023], [0.009524000377948086, -0.009669173820068596, -0.0054018753640678605, 0.0001510610487099685, 0.0023607918336470872, 0.012410375653076672, 0.02095221317554021, 0.009424934048816126, 0.005309871904552571, -0.014153685951837277, -0.004771577607530667, -0.0013513644980293108, -0.00036337181360715916, 0.00955699735657102, 0.006885743182379319, 0.02431266925175282, -0.0008034460934201709, -0.0019206219400502284, -0.016342932369603935, 0.004769888615284057, -0.004987121050097366, 0.007879037678953395, 0.010993130514569443, -0.008281857844669732, 0.0002459093124974921, 0.0061477956230186395, 0.01738276735629707, -0.004936152209776891, 0.0026549881744449165, -0.00907290083479556, -0.006800039423960233, -0.01353376219442685, 0.008209921385431316, 0.03149210992253432, -0.0037038216283005786, -0.006223362357783039, -0.0034704103382996055, -0.004804374253367568, 0.007933362312151252, -0.005965958693277669, -0.011642473629439785, -0.02076642901815859, 0.003679325017329506, -0.003401457128907947, 0.0222602828125474, 0.0022690202938153064, -0.004820013233862859, 0.0023850828081185423, -0.02947363488873644, 0.011669788716306546], [-0.019548983630746863, 0.010010516638130063, 0.009160056245350738, 0.029723888263929903, 0.002487969611463479, -0.018512820097627145, -0.01642023635552687, -0.0004411144602956312, -0.0024902138258310756, -0.009092187056650812, -0.013127790091174374, -0.006077776167987343, 0.008385392013230901, 0.007488554407468276, -0.002360580495306172, 0.003939627181297624, -0.006426581494298908, -0.0033887658454771217, 0.004108403842700158, -0.010586119440625312, 0.006501059840101275, -0.003588635026108629, -0.006324457365493627, 0.009526084396585147, -0.011466122797963723, -0.012197105998241522, -0.010069901526947693, -0.004090491381304688, 0.01666159819596226, 0.015172044986503774, -0.012273278539032035, -0.007501804304075167, -0.012799029982914973, -0.01837911658582231, -0.007073624362279941, 0.005493206742362638, 0.005665262218464046, -0.00648694266705424, 0.010389471885305864, 0.007444143824939717, -0.023442183125874157, -0.007219576230008471, -0.011724283355097209, -0.0013102370539511909, 0.00987217527908321, 0.0034788244356396955, 0.003959796953659863, -0.01293710817824071, -0.0009499562795683248, 0.014097540482883641], [-0.008935725956896975, -0.012299247821663173, -0.0016459617327207851, -0.0065012831823872685, -0.009210466806284503, -0.02010564997323502, -0.014059099307566408, 0.005933041925023849, -0.011960275444708315, 0.0017135388480131282, -0.015091358482492448, -0.01075218151038368, -0.01633237501163672, -0.015308313617409254, 0.00891766778871058, 0.00411993505897731, -0.0015249793279299704, 0.0016807989032843343, -0.0014294497771782722, -0.009808697414199336, -0.006109909534315318, 0.00489531682089197, 0.006977678774864711, -0.003576009760495275, 0.02051841660130605, -0.016361476132156428, 0.02084455504826263, 0.0034004969898049765, 0.0014983588890121764, 0.011979430973283108, 0.010521336987301833, -0.004666864035744108, -0.008862548971889206, -0.0015714536783075698, 0.010792220133841781, 0.0027557030601553767, 0.01267349849513123, -0.0024599040631369043, 0.0008966738285642098, 0.006799099139683807, -0.008415999272664077, -0.013003235458300564, -0.0031893382898116962, 0.018218060865527592, -0.006822117405525555, -0.01063168767931359, 0.010028214485002507, 0.005749237519281498, -9.79514596199545e-06, 0.0017742807224220562], [-0.01884397257573745, 0.0067177394245367195, 0.01714725477695592, 0.004591239828006819, -0.0002580282710389284, 0.011953436252745265, -0.006421401819201154, -0.0019883728068125594, -0.017973123300928234, -0.0034238462735210846, 0.009761593105431694, -0.008806039902938448, -0.0017836068892242718, -0.01987796927145221, -0.0006097471254935829, -0.00307581057441724, -0.01817713768594658, -0.007969482224000232, -0.00768451958477613, -0.015200801918529969, -0.010890858697030877, 0.007637358913407955, -0.011687675597991958, 0.0039263510837181295, -0.009424142565782981, -0.014427268334339289, 0.003274008579519464, 0.012177005569507094, 0.0030402436245472, -0.01726103908817431, 0.009046329996334496, 0.002100583389013094, 0.006919191953269406, -0.0062048707565726105, -0.003945806782948904, -0.003039033761313045, -0.00559959179523685, -0.007472301901477579, 0.010364121201315987, -0.002997155366112849, 0.006294240136985033, 0.01295557791548706, 0.019176177503448927, 0.011493481711356035, -0.009227715827403343, 0.005863467813413121, 0.014773360794400262, -0.00827577770494909, 0.0005238678771469442, 0.0008595503673944756], [-0.015827068398692905, -0.0026918723597683784, 0.004694849170724057, 0.011098138020596428, -0.0018409819051252439, -0.0020556238550414082, 0.007240598875679007, 0.007088233855653444, -0.005106995156374631, -0.012240721149675893, 0.014383895171038715, -0.006592127562609765, 0.009785473483955268, -0.000620858576436916, -0.00046464477731717884, -0.007363841707809724, -0.000596808143130235, 0.010788492857000854, -0.0007144805899919637, -0.0013329414153205486, -0.006652355517715807, 0.002001864090013983, 0.015497312628985661, -0.007056628270372192, -0.0033947962047077354, -0.004649229588200537, -0.024030781916110897, 0.0017647758548112345, -0.0042354883574270315, 0.0023775825956693837, -0.005892862458422921, 0.004680553605902137, 0.010005349920299096, 0.006945518719293408, 0.011062733788008363, -0.0013955057059814502, -0.0035339816412224122, -0.004056894854767124, 0.006811459171777644, -0.010835404971130455, -0.0010112987052303805, 0.004983809227569824, 0.012614859585992119, 0.0107217258836573, 0.01139192947376702, -0.007108909259674781, -0.01027308175191293, -0.0030609334656288793, 0.018234491240427746, 0.004633393958504817], [0.0007341548719316291, 0.0021157109253651845, 0.00230825659318485, -0.011508114291141316, 0.01135767190203587, 0.009217889276797722, -0.0024256874971708897, 0.0038479311777840776, -0.0033049860658975125, 0.013991538819051425, 0.002246779472347468, 0.004305309651690831, 0.005946271719777138, -0.015556802731793235, -0.01561221922344842, 0.00441154404736961, -0.002849125177386004, 0.003910006926169454, 0.005648995544596738, 0.003983741246477571, 0.0003303891382090086, 0.005133608130616704, -0.01530802862040817, 0.0031445153064772573, -0.0028164337162267417, 0.010632271654693139, 0.00289297504101534, -0.004738203122875849, 0.005212877380573414, -0.01345936418569208, -0.0010818271954913922, 0.012130007639496931, -0.007988385500331385, -0.00032706585096665074, -0.0006591377293339084, 0.016214807921249304, -0.001631332050416228, 0.02188596828953769, 0.005047540341304157, 0.004890551283959831, -0.010912320468160229, -0.00011420369043400805, 0.0007103242676905775, 0.0035181533302576255, 0.0005049887586098809, -0.008709388590114537, 0.005253661954576093, 0.008706136572049128, 0.002527269669643637, 0.010931758905527804], [-0.0033923000797880273, -0.00791181339164584, -0.005115166679206974, -0.020342806354976085, 0.013487648689152976, 0.009712413277021853, 0.002084495993711106, 0.009386989560321073, -0.0116538096393674, -0.012136886972402311, 0.000530348794979296, 0.007956267815087107, -0.007373927888501471, -0.010304378825778771, -0.00874706285224678, 0.013745712366812756, 0.016114713687579853, 0.008115162613611154, -0.007452247241970244, 0.007940141766856704, 0.010684150075014928, 0.0009675348297213013, 0.0019519660960847435, -0.002973966173120239, -0.0013522074891391515, -0.010321621883248647, 0.0067507324019357206, -0.0055082274930257245, 0.01943834954458011, -0.003976377236626617, 0.007323430101079066, -0.0028852977172925997, -0.0025481849140138206, 0.002841376668374771, -0.008143219605405453, 0.0062370170887518245, -0.015670170448574754, 0.024905234916000333, -0.027619147012359336, -0.014618689980870295, 0.003942362876523359, 0.009569782857494267, 0.00774048159697455, -0.015304502017935645, 0.014359152171608637, -0.006977051624207847, -0.00378515996780247, -0.004454484780157424, 0.01930713961472865, -0.000892771975153005], [-0.00878929819719114, 0.007673460119416298, -0.007719616467817172, -0.010326452636186078, 0.001715310278948633, 0.004312818229069275, -0.002277325667378739, -0.0055369273745479, -0.0017586361138996218, -0.005159625739378828, 0.02069903917041365, -0.009855814428813645, -0.005245314945373631, -0.00023137873200963527, -0.007435923035863243, 0.010718900632070915, 0.00762739206137464, -0.0013456092530084124, -0.0014857239239947214, -0.017936978257525243, -0.000637533060874805, 0.00804208203012227, 0.007390650772844891, 0.003543345740858449, 0.0022824355866593103, -0.007929730352473357, -0.029459843619619758, 0.0177859854016088, -0.005162091069540616, 0.0019797366935978265, -0.013431289164004125, -0.02171036642919173, -0.002790044893764446, 0.004427827917491649, -0.0066923631413648025, -0.006447678553551573, 0.010420212678796085, 0.015859831569675454, -0.0028660659657511606, 0.002964286295200635, -0.0040657955087041895, 0.0019417777967000104, -0.001197316171978845, 0.012704310657219258, 0.0019186733446585977, -0.000786837581628053, 0.015086810901456846, 0.002590581204373023, -0.0018335953188154703, 0.010499885407260831], [0.010713064684232674, 0.003069133238988615, -0.01441622467128257, 0.0038294479697132716, 0.006641395921420101, -0.003780791359569941, 0.013704428080472755, 0.003606353882302617, 0.01724240696514636, 0.0010389719016647824, 0.00935764760407725, -0.005469365120586616, 0.011473771661610762, -0.0010876294872890896, 0.013081048126779382, 0.02781552803318147, -0.0021849413280900995, 0.0057498545972805735, -0.0004996730587405731, -0.005757682661498149, 0.013957875050302881, 0.014259287068696554, 0.005404809730994329, -0.00990159288839506, 0.00382572947558678, -0.006725239917286894, 0.001335011999484945, 0.010932158806014062, -0.009814757226081118, -0.01489821033653412, 0.0036137607722703277, 0.015360715682254111, 0.0007162177060372549, 0.017451501005349562, -0.0027709559073923547, -0.009556605576266997, -0.0015105453692306635, 0.005698716568218325, 0.0029337384418972974, 0.015325180623517868, 0.002964886182407383, -0.005780810345828929, 0.0042415953383349, -0.0063853061076915504, 0.013559338829075335, 0.000633843955760193, 0.00411247160827539, 0.013433160819636041, 0.0021937070881214013, 0.0020484092731091275], [0.005106929599773521, 0.007827137102583608, 0.013346877774204903, 0.007064518459341734, 0.010465760960500226, 0.002540193916833608, -0.008272146820012457, 0.00634317885038295, -0.014956917051870333, -0.00956347556593406, 0.010698338711947005, 0.002514484339205483, -0.004230684498518164, 0.010834172612278257, 0.0010459565119700837, 0.0012000974025475454, 0.005166853686743315, 0.0021869969004230955, -0.008014958804795443, -0.0165521370493837, 0.004778798953364387, 0.0028109468047932567, -0.017297530406642156, -0.0012031283270761252, 0.006583141325486406, 0.0009464318663626968, 0.005185226237944373, -0.01118360540238082, 0.0033162365128912765, -0.01241619310283436, 0.001029811722211348, 0.024129304181163172, -0.007821407894752868, -0.003002240394508112, -0.025459898914975274, -0.017154516971189613, 0.01193207847920997, -0.0010178585648042853, -0.009292064285419727, 0.017581423399389586, 0.012969454287885603, 0.011681873877934373, -0.011783529531188773, 0.01572097585626119, -0.0006273605599119936, -0.0020142203518757015, 0.015379596776305708, 0.008407424375575701, 0.005562158827252722, 0.006566203911011225], [-0.008012297799925124, -0.002504233879697383, -0.02059905303845307, 0.014463969400690188, -0.00447139531308309, 0.0022990762206755414, 0.013198828285582324, 0.001963619603702923, -0.004578387830624602, -0.01710961800973781, 0.0059847752350421085, -0.012394239375425626, 0.013933422895337003, 0.010485125721076906, 0.003788687213062612, 0.011137166130444047, 0.009292925612906731, -0.015497578596083146, -0.009317816887588487, 0.0033569734962391167, -0.005517407711633179, -0.0025295840933010276, 0.007000194624512287, -0.016279891380393485, -0.0008734764836684335, 0.011746869109410198, -0.0061062849174411404, 0.0011541879638184496, 0.007343944073927535, -0.020992007895747438, -0.013742539886731315, -0.004271236760594259, -0.0020170305744116566, -0.005583297355156859, -0.0007394502395476093, -0.009932353219546487, 0.011150685687757705, 0.011299664598897401, -0.01067634283964836, 0.011914290145175538, 0.011875419038063346, 0.004340608746839355, -0.005218534739944202, 0.013752263966862221, 0.0009824999370281911, -0.012050436105226794, -0.005428577250309278, 0.0012289050624802564, 0.011262340837136987, 0.018318941889684737], [-0.004146184456003785, -0.00843205698727403, -0.025351618884256407, 0.003168130315754145, -0.0006369671747309263, 0.011288341215928317, 0.009530623840504786, 0.0062207038349242, 0.019053337640812216, 0.00031128192779751276, 0.0023826347778604013, 0.019134639218702152, 0.0007554435568869462, -0.006380924013816166, -0.01441841261817974, -0.0013412379592577367, -0.00494000958799608, -0.01225234647143054, 0.0035349898860268345, -0.0052161576436985805, 0.013798784603793537, -0.0014467253107050468, 0.003635418930888129, 0.004005827463489509, 0.004084538280850103, 0.0020112974887182993, -0.00021645155771464616, -0.002025366501447012, 0.013218935424659808, -0.00955930374450568, 0.011275436370086996, -0.01958127946616262, -0.0016024731901593439, 0.00038952758848253573, -0.0001270986223821393, -0.0016562024979386938, -0.017273333211221556, 0.001756019361837108, 0.0011047677634493922, -0.011883432850655547, -0.003172769580086976, -0.006294755425208942, -0.01614948895498928, 0.005009157192141008, 0.0024829457479940533, -0.007472104370140557, 0.017948659108626974, 0.014609385180731073, -0.009884853737568066, -0.009078107160073368], [0.00441477409036196, 0.005633685629117435, -0.011042142408405883, 0.017403722911632346, 0.009485079941790816, 0.000721347630074835, -0.01824097008393144, -0.012567454231864023, -0.03191063892560084, 0.005312672264479957, -0.011177407945085045, -0.003982908110151191, -0.0011847277188374757, -0.0057645373635875595, 0.011835059500736456, 0.001219830458846458, -0.006837141608814784, -0.008787169909943267, 0.0030824083412390457, -0.011700692168726495, -0.008346473402986524, 0.03596102765466477, 0.0023853305970533535, 0.0048389935456898715, 0.01584264522238136, 0.012277681383318029, 0.004664698657680962, 0.0035741037208984294, 0.028629744398420216, 0.0022825220588813706, 0.014128342922555475, -0.001985320809645582, 0.004245438711209382, 0.004604059490910382, 0.009109661037806591, 0.007247799719657618, -0.0026805621815395187, -0.00539833967558235, 0.0025375500143012637, 0.015561031695146702, 0.007061597464040563, 0.004606241675552406, 0.001155171887044434, 0.0007735079922607369, 0.009209716440374886, 0.00897205943892173, 0.004078250174713905, 0.01176846387659455, 0.014349128826432644, -0.0023006487581308677], [-0.002465371957324176, 0.0016127323703431255, -0.019556517502564347, -0.006774846792039793, -0.007805513818822545, 0.0015980672133897908, 0.006912244835452872, 0.0008438347280752494, 0.01777476481342436, -0.005621757158735477, 9.08999617138541e-05, -0.00960960841193057, 0.0003130025901573651, 0.002653902972194688, 0.0035051447597135347, 0.0035145721043611114, 0.0009506605285222566, 0.002488895713733407, -0.00011479482670749761, 0.01884646715159691, -0.006624386819339357, 0.011346691046808318, -0.011889241262923468, 0.013233890336599125, 0.005737552612677677, 0.014330039712180134, 0.007978234052612925, -0.0007198863663858372, -0.007087620069088254, 0.010878156401085665, 0.01450057157008046, -0.034884687483934744, 0.0010044438872238823, 0.005025532332273965, -0.003074537678040144, -0.003782018991917, 0.01328336188888422, -0.014981692535768186, -0.0006927162780475619, 0.008305432264251133, -0.0019993288552331645, -0.019006121839852536, -0.0017347199175996144, -0.007080932709360354, -0.0008810607928256625, -0.0040310814964376355, -0.0050767915734931425, -0.002280709684677586, 0.01238894912949338, 0.0059735807011824255], [-0.003600831480191259, -0.008512171995371643, 0.0037975867759023813, 0.005485037705636383, -0.01059516777873582, -0.006253995470331006, -0.0026532836714530223, -0.0019147910555171938, -0.0007557410917452489, -0.013504220767216525, 0.00981306750492235, -0.006713002831690957, 0.005417521075400127, 0.006368886540056137, 0.01146743769333355, 0.00461459066835338, -0.004223786730208159, -0.0014308240208311567, -0.001280772154721731, -0.0032630352905288714, -0.01814315801593448, 0.0003208292097674694, 0.0031160063101468927, 0.022168124076136345, -0.002399451769544888, 0.0024887825715339445, 0.0016337500677084092, -0.007279350053863718, -0.01423730595206385, 0.0019056531867621554, -0.0195266101469631, -0.012646009479979441, -0.006508093956776214, 0.008065960753199803, -0.025077652091714305, -0.009178069896355187, -0.00012972754625304868, 0.014481672403821807, 0.0006512393940592191, 0.006427544399058596, 0.011471127265343706, -0.012796290664610011, -0.012855499078531238, 0.002209044796686899, 0.007232177049051929, -0.004791603053343923, 0.0002529016397655459, 0.013800128805371058, 0.0036382322044373134, -0.005123319403118287], [0.00178994824941153, 0.0044540368712402585, -0.002858780850260385, 0.015727627112085234, 0.009592547107760918, 0.016530443380973845, -0.00841907134060381, 0.00851482538206258, 0.018270129805420192, -0.0049769350573694365, -0.0008628613748315016, -0.003059196568455689, 0.004966046178131076, 0.007627975169703661, -9.178945997261989e-05, -0.0036673035840616517, 0.004925392033359363, -0.005462932084748968, -0.0011118390788976463, -0.002183919726732995, -0.004231088219974934, -0.00421594921073949, -0.010705734466579752, -0.0025938041067454743, 0.01141983247753449, -0.006265399717260119, -0.0030549637618819104, -0.007759454434405822, -0.008993117430338956, -0.019496743988380506, -0.010466411289880944, -0.0015134738041748955, -0.008603683736478468, 0.00041742121575406757, 0.006626583202972377, -0.005426554953529911, 0.014226356523020185, -0.0014424733405116771, -0.013229093941244567, 0.0062310094161939335, 0.006088851249185779, -0.012923241043858644, 6.677505643581976e-05, 0.0035326313555236813, 0.014649307573742382, -0.011620316626243535, 0.00766213269924244, 0.005561144763083732, -0.008466577986074404, 0.01683912067674939], [0.008981184475786701, -0.0028725957300384532, 0.007322222740353989, 0.007085888430501524, 0.0032975391113475765, 0.013084015859958803, 0.01646572998857547, -0.0003297657189232046, 0.005237777701473746, -0.0004758823617362889, 0.005500404524257664, 0.011402783388502383, 0.0018270392729342656, -0.008565312755527892, -0.012270674144590443, -0.004261494041319554, -0.0037810683629764495, -0.00035131715528154107, 0.0060270143132844425, -0.007309166045707001, 0.007990373441457478, -0.0076469484326275525, -0.0009519131093826312, 0.00508822087852421, -0.022823268267174623, 0.00023325883492586068, 0.012136553610870916, -0.004027794764474699, 0.007264749991170005, -0.015553236353273455, -0.014544394361596678, 0.0003532695955505305, 0.0023639639742658895, -0.007330439927394415, -0.008963925006848821, 0.006330545385305966, 0.021188976187609, -0.005400276448481911, -0.004261163921683229, 0.004533294012946461, 0.018252635979723947, -0.006237469871451286, 0.009509835539198546, 0.027283245514988688, -0.002389759429992681, 0.0023779809703848207, 0.008063452491274386, 1.413638743845717e-05, -0.0057209356025642154, 0.004277766588841431]], "biases": [[0.0006287785886829954, 0.0007408218259342116, -0.00018085300583737122, -0.00023509880624839074, -0.0005839589844331283, 0.00016816065573857421, -2.3732082205838086e-05, -0.0003675589350340091, 9.591884196346727e-05, 0.0001240805054896167, 8.72258320116277e-05, 0.00032618845575878584, -0.00041122797934276765, 0.0004502037844333595, -0.00011819142111193705, -0.0003062321709590327, -0.0002198455304576127, -0.0007858406341562623, -0.00015132202849096177, 0.00035397473991975585, 0.00048326066338875675, -0.00010704166999869702, 0.00021386909080148636, 0.0005646428749039976, 0.0003043685650459002, -0.00011252303447957397, 0.0002414603023593076, -0.0005568172666266844, -0.00012385848614778408, -0.0001181525982023424, -0.00040987070761520694, -0.0008477803514358366, 1.1425786572201922e-05, -0.00017274661412110782, 3.0907656372301137e-05, 0.00034578642030138495, -5.4803874714546926e-05, 0.00023526637626266312, 4.347487413884149e-06, 0.000495430913187351, 0.0002254657680608848, 0.00026983720398440645, 9.119798877704959e-05, 0.00010616041735971329, 9.216792077714504e-05, 0.000375451172680758, -0.0003450639767744682, 2.5660620169716533e-05, -0.00017248811375470292, -1.5093921739879854e-05]]}, {"units": 50, "activation": "selu", "weights": [[0.03823969049467108, 0.22149070947134528, -0.027369897635889394, -0.013702183120445119, 0.17277567885062903, 0.2965409197084715, -0.06030889686776342, -0.21723816520880218, 0.24149160470505707, 0.19866383761085654, -0.047123411608375, -0.3234500880772391, -0.1782502263911367, -0.11139715403226183, -0.0028132058839732263, 0.21875699616380467, -0.03388516758426089, 0.012801568403277496, 0.005089096278537027, 0.002409180581375926, 0.01416538197745695, -0.36820788589983333, 0.16599825594939835, -0.13141679419300867, -0.25177603273572785, -0.03479360069461548, 0.27242397661331635, 0.14947352496893324, 0.12684211706621548, 0.057533070789000426, 0.1634184802816313, -0.0445357719164868, 0.0072253713823860555, -0.29723690752936693, 0.2109810015181306, 0.0808238629919221, -0.05883017197850758, -0.25330124770244195, 0.04633820301113375, 0.06296787178602989, -0.015612261527161995, -0.08329527496230793, -0.013932009655860928, -0.14945717130438488, -0.11155183559847134, -0.1643854860237103, 0.1578647632359012, -0.055543767293022364, -0.28315252685815084, -0.1530247955481249], [-0.18822854957072827, 0.15812622169309357, -0.06150219677595336, 0.11088803293299632, 0.07493357848487038, -0.015264917705743218, 0.054856838443989225, -0.0789172813255191, -0.029242263688220558, -0.16927191781142856, -0.19714382195055813, 0.1484823518189356, -0.002617425699733727, -0.07106718206788612, -0.04496087066568097, 0.22040200695328754, -0.1267479054420559, -0.10895361982616814, -0.14513721220169123, 0.08396448757096202, -0.08679282745702066, -0.06600021367769433, -0.40009207728602914, 0.08081717091076313, -0.003503528781282654, 0.08121846408216261, -0.18393739848175367, 0.25724678057510403, -0.09369821393809138, -0.09055512344497318, 0.21055399104892927, -0.07453635908329134, 0.000810035841308775, -0.1396220037176931, -0.00031913569199928276, 0.0764607596845163, 0.0161125827785343, 0.07665881158527055, -0.12229351480682109, -0.06049396920490241, 0.16835996290417252, 0.17039449565071862, 0.0733623435844296, -0.21173095295125136, -0.138427280833829, 0.12321504289441347, 0.06794847989860191, 0.003611007300772522, -0.12562678851952433, 0.16271669935730773], [0.10444070874566451, 0.08108451795850448, 0.03295256962721985, -0.0811715587297061, 0.012653542045521847, -0.026774325061754665, 0.013991197503959024, 0.06771058671866573, 0.2553610909426228, 0.08009332663075552, -0.11370030939874183, 0.1262885502393379, -0.1125847502368462, 0.10758599854702801, 0.008633185217905964, -0.0703013219339653, 0.26232590440721243, 0.07295137024144353, -0.07863761997897968, -0.02198799748163369, 0.09646308015835625, 0.1816195789643904, -0.16259309227928445, 0.12137542034201827, 0.12659317985888424, 0.0513961259672301, 0.2079143257022233, 0.013014395660225367, 0.0695537148172585, -0.11186337390704966, -0.15913465012415093, 0.14329036229855957, 0.14157373548612892, 0.15990645353442423, -0.09524919415030415, 0.01661435828911412, 0.2783206769918386, 0.042923928899759815, 0.004145159339426629, 0.011510258085212392, 0.037504937253121914, 0.025916647798946375, 0.10687224455646607, -0.07423768296179051, 0.03940095529445523, 0.1607266566280086, -0.16130836597433618, -0.07046978820957055, -0.15224426216664994, 0.3609079494099767], [-0.2564466855943637, 0.2083977840272129, 0.3039174214152795, 0.23037819268770665, 0.11454440161517634, -0.09364476901317345, 0.3165561798419181, -0.07897780536949503, 0.038106749188136654, -0.10373706332099546, -0.19193969086200025, 0.05730294730822339, 0.11415259275843112, -0.41616110175598087, -0.1586844490208502, -0.21808287165231038, 0.010786762363749458, -0.18438309988826299, -0.06286354420010165, 0.09680473337989741, -0.23456980677258737, -0.17882306194320038, -0.15727579001534112, 0.02364387898186006, 0.01795753243645721, -0.08767119941514591, -0.1972818330517615, 0.09922702833980403, 0.2303362560756323, 0.047299966456057746, 0.13376304847189516, 0.05318997210669376, 0.3695435249393488, -0.2384271575789081, -0.03143377798138339, -0.08555964961650557, -0.08827393284047388, -0.14148883837183754, 0.02682271350177838, -0.005777425711702643, 0.018269430235023157, -0.2814360066445501, 0.14136890787429862, 0.13352424393425247, -0.15755256790237376, -0.0690907161295226, 0.13572495379425487, 0.04134441926338493, 0.26856981648295175, 0.14103743020392573], [-0.13278607846825435, 0.09461765885409486, -0.017899316594349318, 0.17244149129310143, 0.2681607274589836, -0.2325764030293665, -0.01089183572715239, 0.10235551310853486, -0.038032241980831834, 0.23423337596441748, -0.10692864109996786, -0.2721199035996757, 0.0865017228762889, -0.025186859435529736, -0.4134504378824005, -0.004316977330469849, 0.2144973173419567, 0.11905451168033519, -0.1327077650011932, -0.23180113023537804, 0.01205961858395646, -0.054990326748065116, 0.19835348693821972, 0.21770577375060876, -0.04394648550752241, 0.21642347797081007, 0.06499966749079704, -0.07229417949720635, 0.06194228957325504, 0.10329390502696903, -0.013870799310932191, -0.05527167077993297, 0.004485886026367752, 0.08498006850564145, -0.08814563780780399, 0.26402417259261285, 0.11583641433145951, 0.20179205153786003, 0.07968642855722258, -0.017916759786752924, -0.3146641236962564, -0.12793049844844676, -0.20449421590625574, -0.21754524408374173, 0.17117900320071705, -0.021204926994466373, 0.13632525443051668, -0.05746363496788025, -0.09151474057063534, 0.21138616113702385], [0.08119247880603092, -0.1508863053527703, 0.10464099101796301, -0.03013819321474509, 0.06635256548827227, 0.02376519481105398, 0.28710709845660226, 0.1860501072887544, 0.029102717542331735, -0.2625862388876773, -0.15315378932795434, -0.027197809734358116, -0.12749169850327613, 0.09141226123873067, 0.05201150742084228, -0.1642968394604074, -0.09742854897446225, -0.09099794703862549, -0.15143438474159884, -0.03763349914310933, -0.16143199720552867, -0.1470082948401129, -0.024809566397782985, -0.16423288511982354, 0.0019814516659136245, -0.009309119009183414, 0.07118464682266802, 0.058139193317041885, -0.11790978617074184, -0.007867539124970145, -0.2184582395222287, 0.043388105365235526, 0.13446808106236535, -0.0062297973051776475, -0.05175003621496392, 0.0029024913118481594, 0.3498978832161267, 0.14865415827138728, -0.16709086033875048, 0.19148728138449617, 0.14433754659095768, 0.01682963882048786, -0.40015879333239385, 0.021188372594377603, 0.22970477257988137, 0.14720449811383762, -0.114482674696019, -0.045829053617610284, -0.11193816472255932, -0.12188499614415417], [0.2851497424544568, -0.24251909165387125, -0.04073638653015926, 0.06428186858742697, -0.09405029036123319, 0.019728231316635324, -0.06523219633639438, 0.004576759065925146, -0.2047450033404606, 0.20318372316842748, -0.049851988808229185, -0.00010173194943593558, 0.12481341457287423, 0.069804328376787, -0.059226278666893575, -0.07937294438337644, 0.08827775271294948, -0.07125491759276509, 0.14329319810361424, 0.15728535039384994, -0.06187439624249042, -0.013878607375893198, -0.03440488315699159, -0.26552233931740965, -0.03312733556970633, 0.19422630706231392, -0.04679154633843101, -0.08783231963706827, -0.13107937605309133, -0.039682693703412514, 0.2634067085293104, -0.10742528269842189, 0.1281788415827999, 0.059001169851035214, 0.17605370372110737, 0.21656403304249178, 0.12048140400171144, -0.022768355176386437, -0.246963171128995, 0.032935397896706735, 0.17063172751529818, 0.08841382146120416, -0.11790908986440637, 0.09217497585242314, -0.3602934666046647, -0.040512760028559136, 0.10267356818984706, -0.16699235961855186, -0.18619595013659035, 0.006007704608345223], [-0.2551305218275447, -0.05173750212436067, 0.026885740457448227, 0.15619040565450237, -0.05728017313330763, 0.04547243696758672, 0.2173031561491053, -0.06953738079089442, -0.0664729147037566, 0.012626708373571969, -0.1924269696403094, -0.2812135559859977, 0.008260394477691096, -0.11229775025624253, -0.13777543453300364, 0.026376436618102704, -0.02486560590379157, 0.03204896436474847, 0.16866128086497184, -0.09674681695320546, 0.08425441200711258, -0.22195707745852228, -0.14492109535201259, 0.1575103299096856, -0.07586724673109224, 0.0024656113257869507, 0.0033660229686138018, -0.09748699951377011, -0.10825396750470424, -0.21459154120825766, 0.07675854981613937, -0.0906012992188874, 0.12722468987894012, 0.1594610927990419, -0.003584214312293728, 0.13135112688334455, 0.11360010627407373, 0.14980205263563864, 0.18012857901300078, 0.13614018836756195, -0.018348109384972326, 0.04113214912262155, -0.1077750458926139, 0.01905636968161115, -0.12875413250874657, -0.013167672391345156, -0.3126481195255085, -0.16997163205569446, 0.002109677111793699, -0.24736782270488347], [0.17180819175308581, 0.003484266215910484, -0.02169104049080541, -0.03485038132595522, -0.324373513715405, 0.037339455032745265, -0.013877362879900636, 0.017743298968123558, 0.0257810936333173, 0.012138964647145372, -0.07739263119279413, -0.09651138401323475, 0.01861577314963787, -0.010826520584821874, -0.09164467186354314, 0.1242596733001773, -0.03840787647811564, 0.08348083421724883, 0.04678311165422678, -0.04019866169211635, -0.07170706419250687, 0.07032802148252495, 0.026835035116339237, 0.005579394754525014, -0.1675170894244671, 0.1882581612189927, 0.0914666861922247, 0.2267211273107879, 0.10787071981942971, -0.0023794315215267775, 0.03484344178989663, -0.1321290510895382, 0.11015456014564204, -0.06493382904133609, -0.018012464804989636, 0.08965600792902527, -0.07067602547041871, -0.12728935481194018, -0.06650176045380421, -0.10232721774972736, -0.13630237443897525, -0.18637858236776347, -0.1672910470402939, -0.07723738585437019, 0.15831215719208822, -0.12994846393315526, 0.036388609910676994, 0.06995893592928115, -0.36794594555177496, 0.07235696672318369], [-0.08131075331486046, -0.14936141464375566, 0.023046753082473552, -0.3699841756162699, 0.0626843480098993, -0.1849630625670446, 0.07243001671701316, -0.10495012920639367, 0.12549377397560188, 0.2189550863488955, -0.24342636314155547, 0.25708765299036385, -0.21304674517092118, 0.2113386912166583, 0.15475604865321324, 0.10523036989750897, 0.11355690982780389, -0.1799225761788778, -0.21369559767505733, -0.003705274939191776, -0.010374150615035525, -0.08741760528071432, -0.025823169893854764, -0.016201722390528712, 0.18027052266239546, 0.26871337034672, -0.05300914816163961, -0.000658672689183611, 0.10505930069357569, 0.04765014685075622, 0.048921137273188246, 0.18275760840837918, -0.08978009978873847, 0.1337595522315818, -0.09926757970000351, 0.07995027302776243, -0.025423277858711707, -0.4126376596018443, -0.12258695825231654, 0.0078551629934292, -0.16950760419997846, 0.15682990962140667, 0.2560441161432631, 0.008685475597327644, 0.045952548816919174, -0.0034766349832296398, -0.2959606192678708, 0.21005123937886075, -0.06047390236868525, 0.012536660697460893], [-0.07854912486967873, -0.030815970509083336, -0.08018473076539194, -0.11461827570121268, 0.1467642325602862, 0.03746943266252526, 0.06488554175099977, -0.03544723450299113, 0.059457516612238054, 0.08977661215198571, 0.09128499222171738, -0.05633199789610247, 0.024258282328754915, 0.06850409138763258, -0.05148612380683826, -0.23382992625714644, -0.36159623663019613, 0.0264039287290256, 0.22845838406887747, 0.29887187381724817, -0.16231259742870055, 0.07972478805276008, -0.0004628259812480459, 0.07406414737338374, 0.055228204951254405, -0.07963872096350828, 0.15602209107614834, -0.00842447153843635, -0.051798057936174445, 0.05556452664539794, 0.16798040768098707, -0.09362261261770971, -0.12070497180166236, -0.07607060194839697, 0.03144226919182666, 0.07049433931683238, -0.16528411743098437, 0.28954527737884506, 0.03897080746555499, -0.05473792672956153, -0.02260780369852996, -0.08785482221024536, 0.14941414693058747, 0.07607614026878624, -0.19091234849631877, 0.0072138766100046554, 0.08810222431434751, 0.022632033549994837, 0.04666963591685594, 0.09213122084260474], [-0.02046354642434514, -0.15042894189920497, -0.2798467297812817, 0.0056986419824601306, 0.27739831212928057, 0.26876630129395773, -0.11498047295846076, -0.0018034822971180957, -0.04623838024250649, 0.05061502229205404, 0.0251814704280552, 0.03885056858737053, 0.0828975856579657, -0.2949448365858135, -0.05600436300315208, -0.007515024875230936, -0.12772484551414523, 0.13094265730538776, -0.1758879099496831, 0.034206136100871413, -0.2044941490195877, 0.1779305661131037, -0.10250657765141825, -0.048242890143439535, 0.0010504125092707672, -0.2789632262989105, 0.05160039391749064, 0.010449615952858612, 0.10389858260403734, -0.293245124572141, -0.15359268185390665, 0.00540113543572752, 0.13054379915373623, -0.06320053120367748, 0.11554897539146139, -0.11075124500677662, -0.014626426536743278, -0.18085186626096197, 0.14677541618902995, -0.22344465989620854, 0.03305850538448598, -0.015443505938669583, 0.07649262134783782, 0.083589487546198, -0.11482451672355873, -0.08260356033363107, -0.04887179170679052, 0.023074412880495197, 0.0191244614076324, 0.43403278576783905], [-0.16799370770855604, -0.23842819303775267, -0.21151646839965466, 0.13570137420493977, 0.11237599592431254, 0.02471270090451906, 0.07206210340379796, -0.031488564899400384, -0.05207518092564471, 0.012619754512862243, 0.07719182969556646, 0.13196386958981685, 0.04530777366860148, 0.0760825102497115, -0.09523775110493003, -0.25087996305082944, -0.06771331239166362, 0.08230875829426344, 0.12800883826868809, 0.01712795361367835, 0.01741225153444948, -0.09087164815458605, 0.11909393033778908, -0.03448951984510967, 0.015823664652519182, -0.10110323784412992, 0.03664864008696228, -0.1814035435049089, -0.0031196713502903706, -0.14722714988567528, -0.17047885338569524, -0.06217455392174058, -0.14631180215536174, 0.026459036779376926, -0.17633234005230886, 0.27545662228752116, -0.23151244957503134, 0.09374943777988909, -0.09078756666754599, 0.13086484539682441, 0.17125413167727468, 0.1327924657386395, 0.04297985289613192, -0.09980359754156833, -0.08367239772232447, -0.05240080936497741, 0.08330649642908564, -0.08486485949935496, -0.1172061741828763, -0.14994597661758863], [-0.09196328670500457, -0.20157294032864295, 0.01588311968939659, -0.02193550198536619, -0.019975262486677012, -0.00901299833239694, -0.058134288961742886, -0.0668453586374457, 0.06661577989738156, -0.06360606760599771, -0.10588635302789115, 0.2388255888243603, -0.004571706242660041, -0.04558124945085487, -0.1423391139815539, -0.011082843938718959, 0.068211808856716, 0.09603863318211206, -0.18265282495289112, 0.0987227839692173, -0.039118591426652236, 0.2387231739227042, 0.018670926729889438, -0.17056174207767122, -0.2894155602264162, -0.04482702671131739, -0.013009933245383876, 0.01664351668445104, 0.04258210307985145, 0.11013917578985895, 0.04033617096470797, 0.0822030307673767, 0.25475499876787555, 0.2472977893700058, -0.15837736483236217, -0.07774336924889143, 0.0012086600100256598, 0.03462400196737934, 0.02126420808866236, -0.03060700455117111, -0.16896577897786408, -0.09933034846106688, 0.03686231613063586, 0.287927810422095, -0.1472358512917963, 0.10619692393669797, -0.1079509298933152, 0.11613567049772268, 0.014303180921512532, -0.2786077698719642], [0.5031827684836893, -0.1598418959662463, -0.05820613321163058, -0.15843455323432815, -0.08409982315883491, 0.048571830367849, 0.34246026293691145, 0.04892583026494894, -0.23806510188291827, 0.09781773070947812, 0.12102648969838893, -0.11792291330940714, -0.04557807370319156, 0.023851693617431117, -0.12227197575080828, -0.053038427716061765, -0.005101407781635378, -0.29981289309671616, 0.020205504065294935, -0.09435636720965607, 0.05582186045741709, 0.11537811138830484, -0.04518493873604762, -0.029276531541789105, 0.026669932392833048, -0.04795461011425191, 0.12229419534784519, 0.1262375874915667, -0.053063424436418906, -0.1597434731868614, -0.10689177477315048, 0.21991885026146774, 0.34146095737747406, 0.05507022116586127, -0.021649011658038165, 0.16580440691554474, 0.1732877031390631, -0.0038924803269833204, 0.1812871678843472, 0.003839770038940411, -0.23103548071202923, -0.003306490141074439, 0.10209598165818479, -0.11735996577538779, 0.014309558019740442, 0.19885047038494336, 0.004894063771218675, 0.03201135813229818, -0.20923347591610397, 0.014355026508758473], [-0.1934516561827823, 0.05558999256615328, 0.14378153152271603, 0.14921694306103475, 0.14530202367674316, 0.02925052198930944, 0.19119772321008735, -0.25444680166094685, -0.08521306085389478, -0.2122291586761213, 0.033291999380631127, -0.05509097499330703, 0.13392464371473858, -0.13931828284430073, -0.06716579780728797, 0.07961416029770217, 0.04129773317846646, -0.17000190219251932, 0.039722851821381036, 0.02900976143060546, 0.16863902942137268, -0.18480339818585703, 0.02640810100194648, -0.010699508789097064, 0.008634186982837671, 0.1318882283315163, 0.08879163234945944, 0.002841740877821836, 0.13875826928284946, -0.1967296829984295, -0.09715746639864789, -0.08031495271924355, 0.1826980055200458, -0.14613726939573787, -0.1261256955419717, -0.07017441120004833, -0.07613060793325295, -0.21102810968214095, -0.38502296962335064, -0.24294104790524365, -0.05769870533656802, -0.03395679816809986, -0.1401076272412039, -0.016454277987578387, 0.05356223624021687, 0.0690516435722795, 0.03860956584226904, 0.22349203155770261, -0.02801791192547081, -0.07163753740899073], [-0.03380337956280552, 0.11382142203032539, -0.11144355218209227, 0.10006564229725505, 0.1776747784513929, 0.19870886235122687, 0.021102292966392572, 0.30440234930588944, -0.30104109255116424, -0.05942855316043163, 0.05390815568717205, -0.024840173214316055, 0.011838631146747247, -0.003976249578841439, -0.1839341409895519, 0.2049846613587288, 0.009445254025189979, 0.1267450084201434, 0.03456704642446423, 0.3009858749045081, -0.20423420989998142, -0.09410543512188428, -0.0629525848353924, 0.0015742721124881204, 0.07347107877780501, 0.07539430009983694, 0.12691187187548614, -0.04157962626647239, -0.028129363989628908, -0.013394787052525127, 0.004360286379824506, 0.11997271806399451, 0.17558713452115135, 0.1860728906215959, 0.05570710202163189, 0.09457628334963825, 0.12234775469113744, -0.08085018409211363, -0.20012289922558338, 0.15701500820147424, -0.010123554533599973, -0.024331192318201775, 0.1903562121309704, 0.15342012642370678, -0.0004328488786094359, 0.016656707247473534, -0.09741290903358607, 0.07709444792902613, -0.06250516127558128, 0.008780698298934533], [-0.03126830265177261, -0.22307237709806266, -0.20188195461352332, -0.15723294493589682, 0.27444929790783795, 0.19431247334642446, -0.0852944366551462, -0.4590248197313558, -0.17756572328458112, -0.09816631298842292, 0.10657370367839222, 0.009760917697931647, 0.25378498665578153, -0.09056405811372222, -0.28279746679256423, -0.38926941859255926, 0.01774676753714184, -0.1951801806561784, 0.05602196900126998, 0.059207906151530196, 0.06240779577806509, 0.039822962816807014, 0.09699569008854027, 0.03175865332870568, 0.17619404537499597, -0.21612739392314637, 0.031693985903669834, -0.21804538623302216, 0.046858144559085095, 0.07720340630439455, -0.1145847359768195, 0.08255548333347867, 0.11047923990626625, 0.06350870371580165, -0.025755076498433914, -0.014775617533605526, 0.25900854038696197, -0.09474788982202069, 0.1420958866429196, 0.23416588781908343, 0.1043591979721922, 0.08546493379691929, -0.13946374346421114, 0.2530273994104224, -0.0004269160269636649, -0.05184840330825332, -0.4494975669806436, -0.1810301826954981, -0.2874318198036134, -0.23170613687741948], [-0.06400061307924991, 0.009736551846582642, 0.01156156179654209, 0.4380899760561427, 0.1705021236749903, 0.10200881518399961, 0.06648698612993069, -0.24329703738288833, -0.1345142237050082, -0.09741436721853167, 0.0887181239281609, 0.08867514213382728, 0.1505988749592829, -0.021644200643730266, 0.2832807279006857, 0.06694535984614397, -0.06991732257202789, 0.02541916301405902, 0.13370467906400169, -0.08423289726972584, 0.028260372007670755, -0.018642007363608933, 0.1443870788504397, 0.19353381185893292, 0.19430897914612336, -0.17644404522007812, -0.05202940760645694, 0.004445128583541081, 0.1360821895803397, 0.1199687059901477, 0.08522331652857895, -0.05650354746107988, 0.03554639160511548, -0.21447905251816982, 0.02773401939091085, -0.005692205869930958, 0.03690806140960837, 0.13327099870930728, -0.21763128647940735, 0.02944917178529557, -0.17515932102182105, -0.07298142160229769, 0.13381266178240375, -0.12388610139527485, 0.0312867590264325, -0.008755068862617432, 0.2522648824445237, 0.09762803819701256, 0.03292797547858076, 0.134280370715228], [-0.01661075518204349, -0.05579646617427298, -0.054674347184711806, -0.19959705653489873, -0.2367459993512389, 0.26541903187913757, 0.07626897291854937, -0.14586347370979733, -0.10164805439788015, -0.02242779146823368, 0.009668540972513186, 0.07873580580400545, -0.38887783637026624, 0.015715146535125093, 0.05018369226046286, 0.059636600454076566, 0.02084178136154698, -0.022275414471727067, -0.042157719439638294, -0.04944122091991474, -0.1279352126699461, -0.012898725903272458, 0.1845909155628122, -0.00877415962537581, 0.016824075482679154, 0.1391554075695345, 0.20199865714493456, 0.1053749387852789, -0.2976261362752678, -0.2378645766287571, 0.10130779155945314, -0.30163846849002335, 0.028527233568008646, -0.03861273812302028, 0.014017138554752508, -0.0786025964900961, 0.04517385169693551, -0.34237765564658623, -0.002703143536150704, 0.18738810325501665, 0.17978623266715435, 0.1075321398118273, 0.1529483456777724, 0.08252964446247077, 0.21967333063211422, -0.08656560843149529, 0.11136143233282506, 0.0468037659149801, 0.018754741091925087, 0.12539504766715132], [0.08929455928044171, -0.1270358696313866, -0.08704384223174025, 0.026726717997130316, 0.047691950409132954, -0.10738209696131065, -0.037220005915876375, -0.08182797619381106, -0.048943039641197644, -0.06965772509742668, -0.21275017198282703, 0.15568648070958785, -0.13590964796605579, -0.15375594899293568, 0.15274350911360365, -0.13238739182981066, -0.17905245964419983, 0.01559412416431093, 0.1836900931041541, 0.011620888651251254, -0.15636912996065336, -0.185103412490595, 0.12657537271072536, 0.0051794784273292704, -0.027331768751140594, 0.08988406899914815, -0.2502050509780202, 0.1169300364679944, 0.06893070024388119, 0.0494512372558211, 0.014976257489900772, -0.3802976043061295, 0.013017196133813108, 0.0834607666096277, -0.00889967650148304, 0.13085408196997805, -0.2988469233814366, 0.03676126229648341, 0.0444949396023877, 0.18525372856683725, 0.02779017748337508, 0.21347851881940125, 0.13561954635915216, 0.0036800715144662825, 0.02030322935662248, 0.03629954905507389, 0.06827492936484648, 0.02752697302227877, 0.11992062712969705, -0.07374784659579874], [0.045825089410365276, -0.08813922363490738, -0.05475938608917631, -0.0609533599842173, -0.0047720389846566715, 0.14734618348331288, 0.10635537802555399, 0.0022575720331902745, -0.1418281499144188, -0.2335392563829815, 0.07577439828576339, -0.08695624194168845, -0.24279458641546897, -0.14210580869842426, 0.11348628031362566, 0.19659106227468626, 0.0711553977371154, 0.34476345450804596, 0.18991915237893875, -0.22895799343939163, -0.16493307021248943, -0.3870766226154888, -0.014987769471413575, -0.06883036384331921, 0.06786512437108037, 0.15648879147668, -0.23550353891404874, 0.13275406283447458, -0.18558813210028385, 0.03738366118710065, -0.011438472499561692, 0.08437304455047027, 0.1389480782110965, -0.043401894328821834, 0.048587698050168604, -0.07185252420653705, 0.0432663413145377, 0.25462356332311475, -0.01595874548503583, 0.08581073465389297, 0.019761177351102156, -0.039465056950395885, 0.0017599660832215468, -0.027591940607724616, -0.1342399711801565, 0.09285129265859321, 0.14795019574989005, 0.018249300479490974, -0.03187736991939895, -0.06964835873025273], [0.01779503234366113, -0.004800466268340711, -0.15542064755473575, -0.0584538514080283, -0.01525188649947083, -0.03492442857343964, 0.04563750772067024, 0.045907137019838805, 0.03808028370595346, -0.05813313504334358, -0.03472760081958426, -0.13421939568464297, 0.06132403460040826, 0.12860434534778145, 0.1458626801596964, 0.012239570929884097, -0.07013667156106963, 0.039736000447226145, -0.18568469550863273, -0.021416600588800686, -0.042085310967279556, -0.00894744033505194, -0.2317835839170075, -0.004396393783125753, -0.13420402678790563, 0.001527710685005895, 0.3765411095351571, 0.023846175927792687, 0.11129012323636688, -0.034820620767606475, -0.04636305480522244, 0.09886878698584702, -0.2692568439674046, -0.004701503235748303, -0.2315393632752553, 0.06366268415266808, 0.008057889605334075, 0.19487364878605906, 0.21863760148429837, 0.14045852483932492, -0.08212206128086755, -0.16754999277564608, 0.024433397871412472, 0.24139088467280478, -0.16940503094342826, -0.008900234829209335, -0.12740971999605008, 0.01929929208873602, 0.023677374003768167, 0.08909626834263114], [0.2185339673388234, -0.27192989835842557, -0.06285970481815562, 0.02195148236761204, -0.02011269395683979, 0.13395235281713191, 0.004229053918068864, 0.1563972633999637, -0.0800039613848228, -0.15950430220383077, -0.051140510222336635, -0.010296728161097087, -0.02532827030854091, 0.21868056763194582, 0.04997981388487499, 0.13031968264897872, -0.12543516148557005, 0.1141062035214504, 0.027307038028910227, 0.08841195669307689, -0.208500471323107, -0.03156122713162992, 0.08653079918981398, 0.1562623425712004, -0.1352416832951026, -0.05839479504239632, 0.05764654876854313, 0.1196807698220835, -0.02034609582946852, -0.13000700607383986, -0.07196532770773462, -0.11915329913229837, 0.04360629812303117, 0.03154630089850108, -0.1195128650513595, -0.02154833170010363, -0.2917435928900623, 0.12188700634168391, 0.013271363029166428, 0.29913718393874794, 0.018133776874700094, -0.24020219742827761, 0.14327525581866632, -0.2600937495570305, 0.02520644643802742, -0.4316471749788622, 0.06372791305823257, 0.04250744402122843, 0.1752822088703359, -0.18971530255010105], [0.22477496406597716, 0.07643687687967785, 0.012035022601167438, 0.07217414366543114, -0.10434758490534163, 0.06053021255860025, -0.09386269005723692, -0.06421933311339384, 0.10244114311229831, -0.12247199141160268, 0.13163791935616503, 0.17460459199019146, -0.4515341280012986, 0.09952904630448427, 0.023230318134656574, 0.1026566018568091, -0.08429968492155167, -0.05634771832738541, -0.22810553452796906, 0.12114767373408632, 0.08124437220221846, -0.12977565593555265, -0.009334120191111413, 0.05060283329472801, 0.03539154532508681, -0.07555372212101791, 0.12637879312775208, 0.08504352985276914, 0.00823643150408069, 0.2905500669977686, 0.06527501256801489, 0.05989546503133828, 0.17955839491101847, 0.0876331686895301, -0.026983520110171456, -0.05473545318420241, -0.14853573079681143, -0.235028397771082, -0.17880994037192013, 0.017898534935849864, -0.003921011855068031, 0.02228882459570973, 0.11668094207450314, 0.16098640630440111, 0.07247322317472871, 0.21603173152136315, 0.024635890530252932, -0.00643235355088932, 0.10095947492211498, 0.014217841546895359], [0.10193097224019337, 0.11144069925710007, 0.05482542371861352, -0.08861026480370714, -0.14231437670003177, -0.003409225919068735, 0.2018070046737882, -0.19183196039964662, 0.02280511111388797, -0.1413039700110811, 0.11896165869586232, 0.2853863399350463, -0.007364004298622189, 0.027731270397536145, -0.23322822554319722, 0.03123986413324289, 0.0278282215196397, 0.17970899594670742, -0.15954899840353615, 0.09633806118761767, -0.006131560497972553, -0.1948970407024946, -0.032720773084024206, -0.015676871255063663, 0.0639947122890504, -0.13181942939662364, -0.0875127175451057, -0.3293740904227547, -0.008290648500277067, 0.0788541124084705, -0.18416857770954473, 0.13722818029310643, -0.10192108263993879, -0.1292793387155602, 0.1003174918264372, 0.09183639296775785, 0.10767552116272754, -0.049134293719398286, -0.13932785796321656, -0.15697102962620732, -0.05049932551294052, 0.17485547629006942, 0.008148786389016121, 0.1686036667391409, -0.10556632307854144, 0.1338094381742539, -0.0009322653340633129, -0.10949683037267778, -0.1138363945428247, -0.10911982155996164], [0.03418135235382574, -0.09721663076958617, -0.10570104330669997, -0.2557377101909614, 0.16332026157249516, 0.11634730892793603, -0.15789519373128114, -0.04580793189979101, -0.13690759972040986, 0.143701239026058, 0.07952890916589325, 0.01847227520362142, -0.11819626028674775, 0.07476884424642302, -0.06974925566147742, 0.2598149342231344, -0.04320300008980628, 0.09219986426851236, -0.05367077997380962, -0.1943858748491187, -0.20237533149541928, 0.0931915060736303, -0.014710003794916243, -0.11971111827869253, -0.0279056104712958, -0.04272030132559226, -0.15813829792388648, -0.03847000928884276, 0.09628719772304774, 0.029421800447197433, -0.0640822213736923, -0.20172304412318376, -0.05346035063798656, -0.06575116512565474, -0.18681016309509085, 0.0011026059480301021, 0.13571248773260308, 0.004322283043529383, -3.9263833724702815e-05, -0.18478154068154098, 0.14256714164504283, 0.04586532334673074, -0.07246665553570347, 0.2315391356940452, 0.07414569423141215, -0.12478469657847609, 0.017046676791746814, -0.12765735546233165, 0.15294281151495628, -0.12860296660664275], [-0.18246478969628166, -0.030939779197999208, -0.045429442690735816, 0.07032307353138784, 0.03335352105041419, -0.08252322522484258, 0.04023049954794055, 0.07106185388019905, -0.028754427612682796, 0.014522605056356183, 0.1490477903734163, -0.1740582992699641, 0.08579411392160652, 0.14561811511045653, -0.0009429363734620231, -0.10452100059182967, -0.13909686756486073, 0.1573810759163293, 0.07522055554361308, -0.1628944175414484, 0.194423632491027, 0.1383114291206997, 0.14264083265896574, 0.012564070461440589, -0.09424010724121043, 0.036902056427628255, -0.0013083966256247016, -0.06297741739391886, -0.07057792792795924, -0.05789871270092558, -0.17279402723631984, -0.04973426941860034, -0.02455916083960936, 0.15904766705826193, 0.03094643065600311, -0.11806181948923543, 0.011874211108450437, -0.05313764252388976, -0.05743541257919594, -0.058594688610759484, 0.09064564900266876, -0.002514150410195571, -0.05386748817108928, 0.06357995631730969, -0.09851546232194908, 0.04378544146822404, -0.07963624747684238, -0.11630134397579867, 0.19146602408638533, 0.15164281670696175], [0.03745298694583079, -0.08136263419216956, 0.356750346697358, 0.11320947242856787, -0.11729080650523761, -0.18150052233806752, 0.03636735706828692, -0.04041085834671572, 0.014281149485952467, 0.009171142287860956, 0.12366007668988649, -0.24136399463896946, 0.18360792135773382, 0.098537074408313, 0.10585703392461286, 0.08779385014431942, -0.2556172250293453, -0.02272919159980667, -0.08927979092804214, -0.06035656914002011, 0.11683053879705088, -0.1136596523896658, 0.06385042272441914, 0.06021504167844253, -0.028936249222620707, 0.037747914195916735, 0.12406788446140782, 0.18214438992796697, 0.11582960801061855, -0.09602067866698367, -0.23694731750346124, -0.024043331245357086, 0.21625518550361092, 0.08328710977656281, 0.10744312724220473, 0.16060215033876546, -0.30874987183608094, -0.27147709291968264, -0.21934474441141483, -0.1716330826842425, -0.0574834650565059, -0.07446395331890288, -0.200105476313067, -0.2791602815261649, -0.035771093447542646, -0.13700660766781775, 0.011425401246030625, 0.08376804474972765, 0.2237131434859194, -0.2200307176750543], [0.04470048597596335, -0.10999051209027799, -0.3553962415051674, 0.10913113442726415, -0.15044508089273922, -0.09162281292187895, 0.03926182728432147, 0.031156082790547913, -0.23344834820291205, -0.014383587653382462, 0.05971397803114363, 0.020888177974879234, -0.1896082003686664, -0.007787901915082299, 0.16202158967326025, -0.18786712956050974, 0.2962520843733165, -0.22923878753384683, 0.3190019097442754, -0.06481794336488057, 0.10955262964225215, -0.1853586178904303, 0.012430963491939222, 0.013385634552393283, -0.04347025908743027, 0.1365000867316794, 0.022675499495481914, 0.032756754271763805, 0.2293621334732752, -0.15891914866627183, 0.04807804358706448, -0.1673806592310549, -0.20583060326354208, -0.2775413218490894, 0.02357356012208353, 0.08011783244526749, -0.03118958233638683, -0.1578026185171902, 0.09642070718333134, 0.03783457176098416, -0.006306404876902107, 0.13555099320510927, -0.09383055765684584, 0.282576420533123, -0.008302850526000084, 0.13496953677022772, -0.1010409277014874, 0.16713595836013828, -0.24813277129337036, -0.016259417799884834], [0.011881772763923269, 0.17187465197189317, 0.16549178508011703, -0.3161364822151889, 0.3258136320314389, 0.23089698495137287, -0.010563142989559212, -0.07118769458574632, 0.15610446792193416, -0.02750562426178839, 0.017203665270295366, -0.05909075841127702, -0.07949418703603986, -0.08219241082455647, 0.1463948723410657, -0.11089625367544967, 0.03867072747929172, 0.05396703331593692, 0.14962039985558798, 0.003335897440243328, 0.11073211586601545, 0.0465277718639712, 0.23042701924695588, -0.03580613468556376, -0.043795811050429644, 0.017403161719426134, -0.10858038757885874, -0.031152628913221875, 0.042148780602032566, 0.08100728935129937, -0.04522347503592163, -0.13671392220162334, 0.03925288014282212, 0.0652461478738023, -0.037021199302761036, 0.006745518936591694, 0.0772734568461631, 0.1898753712966401, -0.22505233693346305, 0.07518540067312024, -0.11105563652060993, 0.08952297426738144, -0.2929768749462907, 0.16294457586979452, -0.08601867604728011, 0.043045411969948794, 0.05842535841528943, 0.004232173179759896, -0.1066979762334913, 0.10456131329702072], [-0.0955065362981559, 0.09036392179376572, -0.0992108502672057, 0.23909083915452264, 0.14696689168200494, 0.004343627293653801, 0.0553327061868656, -0.05437690786385811, -0.3750920795881461, 0.1949483445671477, 0.010560289926886846, -0.021606913913774388, 0.021063448846993103, 0.014577084928470145, 0.13462319990051155, 0.051996600871256925, 0.2385832465546446, -0.15131793741443703, 0.01351157893545844, -0.1991022018477122, -0.12461281959987422, -0.1847753259770333, -0.3632068175183494, -0.0029973873530075258, 0.07043082244517827, -0.010765250221378616, 0.12664625511895344, -0.20014975536685492, 0.21279763197632576, 0.07398115902412757, -0.19433507389632518, 0.061052167408737125, 0.0009384600685664593, 0.17515581438409045, 0.09214458406603498, 0.023696307807760063, -0.18687393008838077, 0.23035304979397406, -0.238196405622313, 0.19270642272880206, -0.16968895583299987, -0.05450490642658333, 0.10769484928360128, 0.08662654780255855, -0.1909712902552066, -0.023242199589707444, -0.25352200071037706, 0.20330986145816224, -0.0876904205848261, -0.3841177417904823], [-0.1118397963918235, -0.0706699162722231, 0.2290104659487672, -0.01554632541966666, -0.0004702085434338474, -0.02378126161436899, -0.12071077741700822, 0.2578813232627856, -0.08060916148722538, 0.08402897967364029, 0.04406804111360904, -0.11155128741548272, 0.024290205168376804, 0.053645307723157606, -0.15523530630499344, -0.09622257925851087, 0.07765661650359004, -0.06608993102629417, 0.14434195080855663, -0.016372471132894924, 0.09005663327494164, -0.16710375766358504, 0.0017336431043176797, -0.23671942379269256, -0.08080587135836008, 0.13158644978161124, 0.052754629328275564, -0.022123783584568086, 0.18781550280893583, 0.2665001422520324, -0.13899127155933355, 0.07662830891386209, 0.2141819667808116, -0.05590336740227443, 0.14773953799884, 0.06557382635055452, -0.12659649792949595, 0.060508331442720484, 0.018676571325159683, 0.18333076440431753, -0.05403508645692092, 0.10334049001975988, 0.021067752366796307, 0.2512689077295586, -0.0024509055742464557, 0.09747042536208311, 0.18864478816626587, -0.03453724520063072, 0.010480665849925649, 0.12279812807512012], [0.01958209000968915, -0.21303441199780432, -0.3036329623378106, -0.0848193659245967, 0.08940936962907468, -0.21662552498334559, -0.03762949257478523, -0.054119800299720716, -0.1424555715898277, 0.3118141722374376, 0.006925838164862123, -0.014956061594563985, 0.2840296607619375, -0.15654975176878824, -0.37192252290710176, 0.10442090749320818, -0.09521089978300325, 0.3909458337554685, -0.12878213509253988, -0.3133773301446814, 0.052299711164414106, 0.21561877330813908, -0.007640130366119342, 0.020319659366619343, -0.07362302497493955, 0.13108809415936573, -0.12569489393573205, 0.013505874309040843, -0.06980539065112035, 0.08196269928842054, -0.24395727323103006, 0.003598954502592529, 0.01814623453556858, 0.06998132719865519, -0.1423980250692993, -0.3402547996933824, 0.05337948794103154, -0.06699645193625846, -0.10531449997778554, 0.1438117403734333, 0.17183649236316165, 0.10317239885778066, -0.08369570625342396, -0.0545062930106319, -0.11537286199612501, 0.07432597278795591, -0.2707835893804295, 0.03562152709910567, 0.12761628822070448, -0.06443318449181953], [0.05072097251385896, 0.16344145097128202, 0.29196717314009385, 0.16056208650196918, -0.2049069131189241, 0.05948782630797285, -0.12380281704574742, -0.049474857769395836, -0.07552270870419046, 0.10601361104269098, -0.05623109515199043, 0.1474208709707707, -0.19084493926343815, 0.1349776455088926, -0.12086350819950832, 0.11109226544239488, -0.02332998915716846, 0.18748504483357134, 0.27209915300452864, 0.004767269515243052, -0.011930910680319772, 0.03605750254627642, 0.16583758586889813, -0.046197133503589186, 0.09672114475447183, 0.1358460268102522, 0.0239946201586758, 0.07361945410889051, 0.14428516069870423, -0.1598886911163354, 0.07840722552208051, -0.16382869897496935, 0.11289915899563967, -0.020044841855750162, 0.1505333058011816, 0.04918319518734628, -0.0416941418082088, -0.12503867947346456, 0.00588772986442456, -0.28571017762105155, -0.005010035808776286, -0.14948838946164947, -0.13224308393259648, -0.025844519219104002, -0.05045929052981161, -0.27582056690231893, 0.1545742436381965, -0.3720780771434429, -0.010661128310821196, -0.1403054097405834], [0.27738350002527545, -0.04434410473054784, 0.31034212497585856, 0.09325909554810027, 0.1317332274312769, -0.08155272752515837, -0.2884402256393853, 0.019124479239447895, -0.027874783961130484, -0.2602823243427504, -0.19038440877094182, 0.04194542977783434, -0.15860999723933972, -0.0987041219543261, -0.013833085595401208, -0.09277332858612164, -0.03786010624050981, -0.0008315399144558731, 0.07371376882830304, 0.08472897645796201, -0.297450412215632, -0.03302442856411562, -0.08122687156018123, -0.32498130985373297, -0.04181539605279471, -0.04021218446343136, 0.16345018199008543, 0.119978134760035, 0.15928204031764975, 0.42818029104591493, -0.08043156764152323, 0.03804738654444478, -0.04506840668641968, -0.17357717160349714, -0.2196401187619376, -0.01758150750926305, 0.06457392353761664, 0.06051090287621441, 0.06803452045725614, -0.026620642958003773, -0.16833270852587498, -0.01763647172152367, -0.0013576575326969753, -0.09954844426135348, -0.13034587555627253, -0.004659121653066151, 0.10522948796364487, 0.06397153046780174, 0.2738122430891917, -0.23748731779441473], [-0.051869627921970814, 0.09117065392865538, 0.0677494935661122, 0.11241930227084293, -0.1556219450885863, 0.00798146783066283, -0.03379932469042788, 0.04105205586652786, -0.2755819686253745, 0.020957556275679783, 0.19796289147360405, 0.09207350674293723, 0.017565035991121254, 0.20631000586127884, -0.24280120854083834, -0.1460016313309586, 0.20689143904276727, -0.1985789629041349, 0.14371736642765906, 0.32801176725676573, 0.08342244065632466, -0.15150656974395196, 0.12998425055862295, -0.2282732338380927, -0.0945243856890366, 0.0960412058826798, -0.3054472214052064, 0.04856348179203914, 0.05855224808615563, -0.17117776418023414, 0.006738959699802329, 0.41215391240039057, 0.10471252179850642, 0.14128023600796996, 0.15822911108948068, 0.016036873176388845, 0.14132560996044347, -0.12953814566806168, -0.03871160487243134, 0.036052539392119415, -0.009956646880655477, 0.07760578693104689, -0.2600351635243206, 0.04778202492784247, 0.053296419213980505, 0.004950327786892247, 0.05803460135697601, 0.09534339734144957, -0.12726929682161184, 0.2516384873869776], [-0.14266565237316947, 0.06562653045748332, 0.06801080254040207, -0.016054546825995733, 0.07134036783457183, 0.14895574711417228, -0.0638552727160372, -0.07442276658686868, -0.1337264345371512, -0.04725117304992012, -0.12422752819429929, -0.13387315168336245, -0.3210502285857141, -0.053114305563125, -0.1978345799194676, 0.1866115247229676, 0.04975820405692635, 0.2293726627227253, -0.0645782703393843, 0.048444843362985344, 0.11068183917535102, 0.071357205653884, -0.29758272492096977, 0.1401630682413066, 0.10855699045416488, 0.04177504468520581, -0.023615221133458517, 0.23622077225174815, 0.27461462630607536, 0.1698352060859938, -0.12613307431653842, 0.013436576369935784, 0.10429798627068232, 0.004914068946889909, -0.0036674331215377867, -0.004033512288729953, 0.18067066155936606, -0.09463178975136914, -0.019616837335769202, 0.16398024057230967, 0.09688496326374622, -0.08203035000085238, -0.01561679567415243, 0.016307478229359112, 0.09727236354018845, 0.05042730336118792, -0.08242217969749971, -0.06242235118940887, -0.23835568041746205, -0.08348323452518165], [-0.3390233033177549, -0.15530997137839309, -0.08244027401579372, 0.057319690455390905, -0.159656077573853, 0.042235732110577455, 0.012151012238867567, -0.09706699566728239, 0.11374645566223929, -0.057532347592712155, 0.18573354467414271, -0.08278112971605193, -0.030183607339057096, -0.1697746078868665, 0.15463429124491126, 0.2345881719192502, 0.12430460672839329, 0.025717346238922547, -0.2482850823315198, 0.080617108949734, 0.021659659252326758, -0.10075544969063029, 0.037210746039694126, -0.022539682934704895, -0.072452375009509, 0.09868944189601049, -0.05143295958170139, 0.20416094985318317, -0.02205602049098871, 0.013512956920820081, -0.26416965084471533, 0.02182317411708411, 0.07314671698919219, 0.16273157961260426, 0.19484709587399088, 0.2912128065912089, -0.007363910609304582, -0.12570546896682408, 0.005133195485041292, -0.12244680985455773, 0.011157387426385243, -0.05180229292564295, -0.013239276622282088, 0.08690231892679966, 0.006308747919634638, 0.042033513117982625, -0.24573046295636766, -0.04280713004074833, 0.1255827136159427, -0.2359631709552905], [-0.009700659603051151, -0.030798429261879857, 0.18967616135475812, 0.1566375667109475, -0.004338150938340665, 0.2171899176545858, 0.12018883536665566, 0.20828254610257624, 0.09247109643542692, 0.15497873602431766, 0.006395903962269837, -0.19601826390015098, -0.16754217186008696, 0.0825172927878814, 0.15159156592814846, 0.012262218253413936, -0.023276020689289596, -0.12701276505682055, -0.014707011313578414, 0.043926943693690004, -0.09890753729198952, 0.21496855300569193, -0.00037368961185617496, 0.2936088345752733, -0.1748951426819707, 0.24691018384376878, -0.12175851658103432, 0.07055554982591791, 0.04230855348630922, -0.056444008849245386, 0.009650951884748672, -0.10166665795020495, -0.08865134614372269, 0.1968307258261278, 0.01912710788658304, -0.10301635468323067, 0.06050864265323461, 0.027171519634368438, -0.08151587557043964, 0.06844953485692278, 0.11694213889259056, -0.014180921332133731, -0.0842066513302395, -0.07868260944331812, -0.03281582783037089, 0.06157156504165332, -0.059144481865489054, -0.20080934800441566, -0.14231064469221708, -0.11392033992720957], [-0.26819024805438185, 0.03828928166028889, -0.03862470170610663, -0.1327853092530393, -0.038237858343535575, -0.16976521049294863, -0.20757882288429394, -0.003656479839299847, 0.26566772812576833, 0.2298918302233925, 0.03776080283155749, -0.2819317923745608, -0.20391292265945554, -0.2649745879368886, 0.04967511487011562, -0.0811073503656769, -0.16433264099189668, 0.16735625331196868, -0.137459683650546, 0.13324158401005212, -0.0003692731166934481, -0.09802800737225785, 0.06820462947112954, -0.29969090365962264, 0.11368492515520821, 0.0740350749120091, -0.010886717618487921, 0.07643567029941625, -0.08706439198539595, 0.25591766488538903, -0.058910097964970584, -0.09976503104999442, -0.05075604313078617, -0.020874797707347206, 0.15537940568133807, 0.13232575406511962, 0.08318070467384488, -0.12794992314629947, -0.2217660800210959, 0.21421475570824272, 0.12448343804453695, 0.10476833343120229, -0.1394507408501383, -0.09414474895339109, 0.18689711998456424, 0.07282907915647119, 0.07345066915693962, -0.10738407011767245, -0.07469225217236639, -0.3187272542334312], [0.05120040817912533, -0.07163557003490903, -0.23910269438801893, 0.014757646348250013, 0.057191559940488745, 0.20607392718648776, -0.00444750166797729, -0.13793684374245643, 0.033008747943710316, 0.04445021408211978, 0.09710081852647891, 0.06962550762849637, -0.04888952247509768, 0.03228184537350759, 0.06730577512345466, -0.02735727241627304, -0.10618796634814125, 0.12460489961993612, -0.05076806407791206, 0.10872339762027208, 0.006297876276989445, -0.11061373138275689, 0.03190689020644042, 0.011636635329166888, -0.07900192795076055, 0.0709400814823106, -0.15325855157519058, -0.01508705231707165, 0.044825743603936756, 0.23378464144761663, -0.2800448457070303, -0.019268908370783072, -0.09814648732277237, 0.02078477755266791, -0.08837681979713395, -0.03507970116683147, 0.08245077404951011, 0.03492569885886958, -0.08841409730106284, -0.20393098543095317, 0.0790825611812964, 0.12363902009018074, 0.0450510524745813, -0.06812791779870431, -0.047775523543535585, -0.2627435758862941, 0.08387059035537757, -0.45491791322118574, 0.11639873786086302, 0.13114529930106697], [0.003730102381271852, -0.09044208779780978, -0.15206967843011593, 0.17586728538823082, -0.023467323452947338, 0.0031230952321829393, 0.07994839119090123, -0.21059416903099107, 0.05416649244740808, -0.3286131899064267, 0.27610396727507114, -0.13841098044665837, -0.012519577224128673, -0.06414733860237698, -0.006474611923425988, 0.18696973974527406, 0.16936934993267175, -0.23186483780311598, -0.2518672747752549, 0.06720850637733898, -0.24630845967934456, -0.08673687684551833, 0.03573265307395618, -0.24232710876422497, 0.2709225318497362, -0.46670505142361485, -0.1892317836727754, 0.0018893110119950123, -0.05399534916807673, 0.2135813015828099, -0.04079331200096512, -0.25043647319396384, -0.11533543820869649, 0.14465427514680593, 0.09410720354506995, -0.012271172450129715, -0.18169892508398539, -0.08760905035814433, -0.018454833219983712, -0.10664092819109229, 0.20557752345691896, 0.17578925329980835, 0.19182903210982072, -0.1237535604348158, 0.17079801521800997, -0.028331597760210072, 0.040072937236714644, 0.003207645071791216, -0.03698229993915716, -0.1968636161705718], [0.0501107320612784, -0.06321341823591811, 0.05935486453903352, 0.09517416003137229, -0.062053184081570324, 0.013876409115178779, 0.22187428853111246, -0.2935321384318015, -0.16015378214410317, -0.09925180803888257, -0.007691657886122253, 0.0031662660215365157, 0.24512888115452164, -0.16622107840001862, -0.11654411364055858, -0.2195863079520501, 0.45187820104026766, -0.27251460075985356, -0.20042274732502705, -0.16785475428715702, -0.2834231690501129, -0.10492380356511674, -0.07321922006901112, 0.0416554484534541, -0.1940713430057603, -0.06645095530571261, -0.10680928390535889, -0.15001781015534785, -0.19951175639732746, -0.2960550205435451, 0.15051692969885166, 0.21360203672993158, 0.08054663670573839, 0.12450436315076589, 0.07877856806001407, 0.06893190331723507, 0.12394951325551488, -0.10583709363674657, 0.06653146541873346, 0.002295922773778556, 0.06036677254575387, 0.024668074250176433, 0.04658224142616819, -0.08234287662623792, -0.0020083911241902314, -0.015892158948005556, 0.17733530657279098, 0.39323706172053974, -0.023784502879994347, -0.03887406639421196], [0.028702982907630757, -0.0530425687992828, -0.14855481263985523, 0.013738033420010268, 0.10869147258021779, 0.0068987936387297725, 0.27925731737951454, -0.04675186661605173, 0.16841205310886817, 0.20141460413937223, -0.02694753883943809, -0.07043504746217137, 0.11894465291431462, 0.2041281082829167, -0.11759206735629033, 0.030593562249119577, 0.019863818215682956, 0.009328387982690567, -0.07250322399635369, -0.08803275578358971, 0.014671477386850085, -0.06694983947888773, 0.012637016941060137, -0.05028906263267981, 0.01475006566298076, 0.22995428416528288, 0.13721963172892396, 0.20349952932988036, -0.02573883386084706, -0.3218418993060892, -0.08876824658448476, -0.17387344797400028, 0.21917305271830997, -0.12941248473352376, 0.13037078602518526, 0.1163354256617341, -0.20527500967779821, 0.17230748632085494, 0.055800455345660485, 0.17119719969805414, -0.038076564162427155, -0.11234675550496923, -0.08850035635893835, 0.17729700011707358, 0.08120188766679544, -0.012469554713841133, 0.03279361167870576, 0.11422574542716372, 0.02523605875401507, -0.17911683649576904], [0.0624221510205213, 0.057171057783000696, 0.2039663392080368, -0.006219693286133309, 0.11128315962776449, -0.17387810520926542, 0.1094616953218927, 0.15809007920546328, 0.02064027608107249, 0.000734165016892562, 0.17424126595293155, -0.051500854853842835, -0.10668244865183932, -0.00647342529450934, -0.0783937573826528, 0.06775448368108263, -0.01385744367272284, 0.06619338781403204, -0.015755577546700143, -0.11328473955134334, -0.04116682249869061, 0.05418148819979947, 0.2073963270024018, 0.07536125573152312, 0.037203876913534925, 0.0052616003092371515, -0.08349852050415138, -0.09493692612380226, 0.07679034468960222, 0.448138106688899, 0.13412948126781787, -0.17618859210011417, -0.20030166342445305, 0.11850096108262367, -0.01554994528280173, 0.03781605369606007, -0.4628796173440484, 0.14256626083767585, 0.19077718028833252, -0.1124003609976745, 0.14617744172186703, -0.11257642303483742, -0.07978391561381597, 0.1688788421218102, -0.10540083626586316, -0.02405613062656192, -0.14383539110223, 0.05460433212021939, -0.02579399361721794, -0.15177062439485461], [0.032863120310900974, -0.11779795443803083, 0.40426125272600344, -0.12487587060722145, 0.09050224096993754, -0.12651076170267853, 0.17032388262003173, 0.08398779391344076, 0.23410303438722563, -0.052409730407152445, -0.07168720645012987, 0.017269542136313806, 0.05583541629876687, -0.2259594629941253, -0.012351410381079658, 8.282431173107561e-05, -0.19184545281491258, -0.016358688603639985, -0.058610432479275, -0.20177439090843277, 0.287463495766407, -0.042521865571079794, -0.05966779906073788, 0.027075323839351066, 0.15195189943049878, -0.1391913048478901, -0.34216246081668245, 0.0985228580997519, -0.1440820391281048, -0.07631470281645501, -0.22692069095611353, -0.06858639979840242, -0.21474769363187773, 0.01563808410407391, 0.1538362224943608, -0.20739984486507027, 0.07805085434196725, -0.12821960883533434, 0.07629116798110917, -0.023393987578492727, 0.08938890876742979, -0.08661726635053923, -0.12678290079597335, 0.15543747652404552, 0.1947625749009173, -0.16347602200341824, -0.2490617862953332, 0.0516302059950808, 0.1296173355634264, -0.0835757496088738], [0.10133476225993082, -0.0973904909838212, 0.08996660773832722, 0.06690570616765301, -0.16135400565969224, 0.12239219013589517, 0.04903400243063415, -0.01577133306544733, -0.23779079189510655, -0.11118639637473836, 0.12292656084044173, 0.03757977955223726, -0.1729489751973405, -0.12292919389324504, -0.1139714821063774, -0.10974542129992511, -0.050265618213336825, -0.011933215694942679, 0.10616184898321138, 0.1349611105348802, -0.13392319972585523, 0.0235461648806789, 0.05458613177192878, -0.1410047070674532, -0.14363246942558613, 0.02970949315817325, -0.13004748069480176, -0.2523249879210855, 0.20194792850677623, 0.09157575762557141, 0.03787193036188347, 0.08446115175748205, -0.14620803701217475, -0.12677499220906416, -0.031779703442177294, 0.10242982446485985, 0.25756148095592446, 0.057902852639741514, -0.2682122743220439, 0.07850687275778934, 0.0890055168978913, 0.2503064722070501, -0.12607076493565053, -0.06814825800594539, 0.012401322231897188, 0.17028407161138684, -0.05735316233869761, 0.11131483992066574, -0.27917832789209024, -0.12382633854083272], [0.06267137237393257, 0.10211443017546452, 0.10484616527300966, -0.044075465233145164, -0.07431312508577392, -0.026170332559177188, 0.11681614565520987, 0.1624622695119775, 0.02665611971840969, 0.11381679138333932, 0.03899500343743625, 0.10246533648475786, 0.05942066466202882, -0.05147387091149716, -0.02661287716882636, -0.23309107046546043, -0.12072942862487251, -0.046286707527979636, 0.005593800423550329, 0.1218919656191421, -0.01412664150474337, 0.030909698001567315, -0.047836251692238575, -0.00969925102888417, -0.04398603989042587, 0.1250207797023688, 0.10253746725835378, -0.06839092618768929, 0.0612850793985257, 0.028987802356875352, -0.16201728236303567, 0.08289041499189506, 0.04774762490642346, -0.0657210102423345, -0.08043672270457732, 0.028447051903059108, 0.21892134873415567, -0.03923689238520337, -0.27486597389453815, 0.028936709829543203, 0.12234575822176469, -0.030502703751830593, 0.5009771818754254, -0.24607148714129234, -0.027729579339428215, 0.02730501163046912, -0.10131115887462706, -0.045630107471898926, 0.0646901759825255, -0.18511996260988003], [-0.06682365907049824, 0.04269484545388681, -0.10359629064820368, -0.04704769782243903, -0.2812184228308517, 0.2591173147198502, -0.052952318218240355, 0.15698215730214635, 0.08051723206890536, 0.15695685462589606, -0.023868299650282233, 0.038866574544850464, -0.18499259881729593, -0.13271025768436456, -0.0903313895890856, -0.08914714935780833, -0.04766745559340518, 0.09529169989138651, 0.2705348259804605, -0.038248723616204496, 0.07295405411616704, -0.027410468590090994, -0.045255695460709344, -0.017658772739293012, -0.02299950477883374, -0.06874148591620506, -0.15418134914755874, -0.12000488550955048, -0.08720264204995319, 0.18283247832726565, -0.07582765552830116, 0.10674786476991137, -0.015260436362210628, -0.008854766378199425, 0.005855913416665074, 0.22700558772521315, -0.2437173121945112, -0.1581118523136639, 0.07609662232537706, -0.13005784509513188, 0.16372175658718383, 0.3038190346713897, -0.047124283056675646, 0.2745569344978878, -0.12393774834214695, -0.258718392096171, 0.003017197540884967, -0.021394873076370797, 0.016631726377739377, -0.267925408314291]], "biases": [[5.161060810255469e-06, 5.870321846659828e-05, 0.0005211544465899747, -0.00011882975613262926, 0.00011588000320062001, 0.0007116817698795899, 0.00013855951244100812, -0.0002468621597879721, -0.0001750079372012961, 0.00033970511449231156, -0.00044326318517245647, 0.00034910340521109885, -3.2400840464114125e-05, 0.00022714769653099504, -0.0003365642489295066, 0.00036260219514017535, -0.00030284987723218294, -0.0004322342100350177, -0.0004036597419864662, -0.0002568086052390563, 0.00020456230204272924, 0.0002598445489043075, 0.0002623033809902796, 0.0002409275673776427, -0.0008303615266261713, -0.0003208704374220136, 0.0002648494948102039, -0.00024431916984856805, -0.00033010624454815114, -0.00027253820589979294, 0.00048736524666668195, -0.00019682953480054893, -0.00014624361872180334, -0.0004322011111824268, 0.00013604499941937884, -0.0001550324980211591, -0.0005892929631342816, -0.00022585498619455015, -0.00016743937173901595, 0.0003070100708924697, 0.00032705850910003125, 0.00032660252298357106, 0.0003236191754788349, -0.00044727119088524224, 0.0005898038752990392, -0.00011244751225230721, 2.6870691823149348e-05, 8.867840086470168e-05, 0.00025939319842682224, 5.3095035895043305e-05]]}, {"units": 50, "activation": "selu", "weights": [[-0.053297519532441495, -0.14304137783892826, -0.13422049735098224, -0.1359841902863642, 0.13239262772715335, 0.0503968376611147, -0.014497404328789093, 0.023781409679453868, -0.0008790444354842388, -0.06460891833302908, 0.010197043226421945, -0.05001532142107564, 0.12283328993732907, 0.22038196964543916, -0.1396410150638972, -0.15742028029403685, -0.15784391161013805, -0.010817314736902122, 0.01943846729691651, 0.07390047074808238, 0.005745286986637464, -0.19928072543168054, 0.04151879342274801, 0.1352485814860856, -0.07133452524100323, 0.25221583419021626, -0.009057782572497326, -0.05198486043681437, 0.16547150637670344, 0.12311516601223191, -0.25334405779940317, -0.11413841041644525, -0.09997774168193482, 0.09120785585414927, -0.17041278227208426, 0.017661708819616793, 0.07976246539529139, 0.08955752544424445, 0.20625384781048908, -0.0543872526037819, 0.13128713764180552, 0.25365412172708535, -0.02057561706869269, -0.11419550198748887, 0.12185757809056184, 0.15577786667964386, 0.0710181069975221, -0.09139967147594145, -0.08383770844526264, 0.004120844580392435], [-0.10113949004788689, 0.13020993065953507, 0.05835756336459314, 0.11824980993122977, 0.022611726975042247, -0.15964779507115495, 0.014606602534119436, 0.05616599947752374, 0.09835205166366943, -0.06076389071248405, 0.142014156654193, -0.07664070527738522, -0.022802566254939552, 0.22697310048384997, -0.006207658429339194, -0.09048060696427374, -0.07450038545600635, 0.11271331746118216, 0.015513060403621931, -0.1192997607915275, -0.2992783138211863, -0.24403704701370332, -0.16355794120521733, -0.05042377940076791, 0.15791445703801552, 0.20725954288972986, -0.2043348300322297, 0.201385194332968, -0.0035397958551252945, 0.03086934261250624, 0.1466919084802567, 0.041190487095809185, -0.08992599527914706, -0.03912363262662212, -0.07182770826028974, 0.145523471758722, 0.08747628204584418, 0.020810708534500046, 0.02046622358643169, -0.17558537019612916, 0.05377265448914532, 0.04366149558591567, -0.03195600003266174, 0.04761258834670837, 0.13514411273354984, -0.05305324186751625, 0.07363350105472238, -0.07023280781466334, 0.16258605115647992, 0.1403148126029813], [0.028093121236857973, -0.20872804436606252, -0.04916440573924489, 0.09349281578465869, 0.1131538574485353, -0.09787671458000409, -0.2892770292637356, -0.08627688629100676, -0.0704766085460762, -0.11209914352816812, -0.17779111128861086, -0.15025030721524482, 0.1844024281741727, 0.0060769768292386105, -0.16377830950098518, 0.2050883808892901, 0.17525913590940856, -0.01784603127367783, -0.11439657762146134, 0.08525920193039031, -0.09933156863157809, 0.07517618618188712, -0.17931185940707192, 0.08342034108398472, -0.027554801453466973, 0.07639514632317257, -0.055696162879140074, -0.09470257976169008, -0.030617855142795972, -0.09610145833276844, 0.10487561708411508, 0.05613703515999841, 0.030625000330901653, -0.05710974292099677, 0.11027242732771154, 0.26406397391076636, 0.057664605907545706, -0.16931440894326294, -0.01822184680299029, 0.07843300227046861, 0.08972311226749112, 0.094064493823465, 0.09443256137385968, -0.005346862893944546, -0.02177511177563406, -0.09761796119873516, 0.13343102497691225, -0.00035665648255504075, -0.05112033290649, 0.08526694841228184], [0.12439553566746488, 0.1552414405460303, 0.1398102196430641, -0.09859311921430175, 0.016623737101633847, 0.08386894767140832, 0.07355243002993801, 0.26259324640079457, -0.15842834959231045, -0.035026544078338655, 0.010391902594822746, 0.0023474646060535325, 0.3657722308984924, -0.10600372286870276, 0.0844348190607586, -0.1686052654353742, 0.03935644200334879, 0.3418514913046085, -0.07618897139963177, -0.0396010106572054, 0.2603807731892588, -0.30168977680479697, -0.20335698152328954, 0.15551003168348404, 0.11927747835437293, -0.02962868199217583, -0.002106986881896566, 0.023597161818180595, -0.07638348081925367, 0.033854848730064585, -0.15089127563090543, 0.03914769928244298, 0.3892426098722502, 0.011766652497183132, 0.2176008917336694, -0.07821845253205725, 0.2351750473638983, 0.17826998975717095, 0.21663678185519053, -0.0014544365870087148, -0.1565598698782161, -0.1501577310885292, -0.1493923128280995, -0.04145017611240056, -0.1965611807360701, 0.0009918219479796383, -0.18818978991172433, -0.020016754521349205, 0.1420234880781158, -0.35726505249669993], [-0.03490410402643781, 0.000710665385551607, -0.003014202565080128, 0.10360696562831385, -0.16896088649602187, 0.13291620762737338, -0.08526412977771011, -0.01838154286956437, -0.11719672825241183, -0.19745002883649676, 0.0692712080837771, -0.03758549301136599, -0.043588391116063066, 0.2536118560805628, 0.2755092466600735, -0.08389300421992764, 0.09501437256775289, 0.17498528111027573, 0.04007594908894409, -0.003821056991011114, -0.23127603479586703, 0.11320192975267916, 0.16079395916468184, 0.02272697215679826, -0.08844020744978714, 0.2404796661677099, -0.21209393374090377, -0.01562908352449407, 0.07287653588583504, 0.26149875063385314, 0.09170285203932471, 0.07036252397776595, 0.17891930914579846, 0.2546171347963114, -0.045220312304692006, -0.08992279774466383, -0.008146049311214524, -0.0005340948505028172, 0.042826030783197404, -0.13056253235286264, -0.20315275749880543, -0.24780113746137342, 0.20464743020050677, 0.11689676734751324, -0.2571060480926888, 0.0571869381005412, -0.07789250009339385, 0.113109803744737, -0.000874734802269739, 0.10358893466975697], [0.06714760070786231, 0.056446360918849976, -0.09745934642516055, -0.09705858248668886, 0.16629524427910564, 0.13057580496564675, 0.19754757108394055, 0.28890456341741194, -0.13016567964519715, 0.1233383912265167, 0.1766091248820492, 0.11584155174122955, -0.002727999808595724, -0.09769288199650818, -0.13049279970386304, -0.12827125895592675, -0.22858747604341162, -0.23570617937919475, -0.16086723166739503, 0.07045755111225419, -0.06404126443780028, 0.139932150590986, 0.13177763931137695, 0.028206324248670693, -0.17629913134719036, -0.07660648803765108, -0.002117379693331909, -0.17297996470801477, -0.361089589113428, -0.016153536861236578, 0.03867730011539934, -0.037471313514635354, 0.11907090539951946, -0.02677950483192266, -0.37778249891978655, 0.28218152606114083, 0.28858451782996536, 0.07641878764689349, 0.01286056270802186, -0.20171161652937308, -0.17256985253770424, -0.05461516390731233, 0.2808632599742769, 0.1277544386592819, -0.15989873066501512, 0.12083677797683796, 0.29958673241333805, 0.12007594394750272, 0.4399767578601527, -0.015993589971697066], [0.0732330413486493, -0.18084140840174162, 0.04366325991038526, 0.20124479993122588, 0.14737247762425174, 0.2146762184473566, -0.10083258560000813, -0.036557179414197824, 0.0352575875228303, 0.1708227959437346, -0.08915921455165017, 0.01988794949111621, -0.11946219664628978, -0.14507197862715562, 0.21119757606643752, 0.12902590284606724, -0.10056813069502112, -0.08610081086734524, 0.03869046777208261, -0.03860205160705874, 0.1933492901890242, 0.06692494149009501, -0.003813632049935743, 0.005774474240035148, -0.06390812452297653, -0.06701822642894115, -0.08384510828316534, 0.1863029351637856, 0.04550744191622864, 0.008425773765414713, -0.038240647890911625, 0.0020773601059907026, 0.14670750167899763, 0.13153887696887856, 0.11120241642824923, 0.0273714709243146, -0.06250963665020076, -0.06580197571581675, 0.03107542999877786, 0.09656721990817926, -0.14052073538846532, 0.024216881962553467, -0.22368763642999467, -0.047142920207346485, -0.060769957661921906, -0.17405798957463603, -0.12364102758085728, 0.028259851238345506, 0.06250370592155892, 0.05150493793785591], [-0.0852985620883527, -0.1860455155988863, -0.24401316017922423, 0.08937976750987144, -0.02392854774666512, 0.04134234710215357, 0.06662224014536709, -0.08829117295918013, 0.11378513783400478, 0.13802233517273488, 0.17865733897414698, 0.30987580745856014, -0.04332369690418918, 0.051097661765679585, 0.1921845344067784, 0.0571969732135503, -0.3551592277364965, 0.03718032350342837, 0.11233479373443536, -0.06301214951254869, -0.19012365617517712, -0.05744019606434284, 0.0061304414545332595, -0.13403515841452784, -0.13011971671224634, -0.008050972186542738, 0.007627753424660032, -0.23873009106179519, 0.03538711022641883, 0.2024021766847311, -0.19719378558917441, 0.0047323106680593075, -0.04430072785438215, -0.07440511963337516, 0.07374683063050998, -0.10271157814717946, -0.004988050175089547, -0.20766338091187755, 0.06375182114446071, -0.11001966826171518, -0.006565366033428182, 