{"layers": [{"units": 50, "activation": "leaky_relu", "weights": [[0.006961723247150463, 0.010374034276633696, -0.004140646557131905, 0.009489214024729686, -0.015689717525666284, 0.012306657332120108, 0.005283243983447079, 0.008962799434961647, -0.008856769434692595, 0.01548247865562608, 0.0007240243884559599, -0.014260518684481971, 0.013095719193273903, 0.011615042780946994, 0.007866029432583634, -0.015769509639874283, 0.007778116243013184, 0.02109262476627308, -0.00898020469485649, -0.0010941825717824495, -0.007076132560645794, -0.011878709330389387, -0.016832923053489747, 0.0010057646963374017, -0.004503551142454959, -0.000936638707005843, 0.01643261635600169, -0.005892566424808398, -0.007100057980682944, -0.010093867589010753, 0.010145022792782317, -0.022726673377475224, -0.008159513996373536, -0.018438418549714734, 0.010166674712795429, 0.002901848621306993, 0.007750290458736466, 0.016144440244123207, -0.002453845508046918, -0.00912023905743064, 0.008715445905804246, -0.0076938838119189855, 0.006268129259532901, -0.004317139995789625, -0.011218835599026034, -0.0027411214585905614, 0.0015525387432846706, 0.006675168205366809, -0.009976889249325651, -0.01365764989631058], [0.04251266402318951, -0.03452192401641747, -0.08867609539715382, -0.05360028523821729, 0.021061119862414067, -0.10281506206983576, 0.07330802149693093, -0.005563688398924721, -0.05573436820015988, -0.007254838457183404, -0.014066027879543246, -0.06503966950420603, 0.0977061705784798, -0.10161061576102971, -0.03763820009998224, 0.14456574051565263, 0.036505068317079295, -0.16192887024531172, -0.007418360265273181, 0.13459379806004845, 0.13916096044298704, 0.029424999580521367, 0.053251950132959726, 0.0017296436922223575, 0.026144485142732855, -0.006545835586941609, -0.11904696899193423, 0.05923809343588733, -0.0743678544715284, -0.04924427189400606, -0.06757219774894756, 0.28070240051130485, 0.18774605534581995, 0.1272125766195137, -0.04485487937681743, 0.10640502203423592, -0.10052214229642663, -0.032951888651178186, 0.08651583296845727, 0.019825750110103815, 0.13083525238943047, 0.007816877287193177, -0.20679869913428522, -0.04014855834149827, -0.021374452744695807, -0.009627460302536042, 0.06980114744326549, -0.06689486012588063, 0.07961256340365935, -0.012862183017083943], [0.05222154573266709, -0.05004579586052026, -0.133722610948624, -0.0813881895109124, 0.023210043094268308, -0.12809861879439682, 0.06623410623519624, -0.003624351774377282, -0.06499017663612591, -0.005179418027108198, -0.03697407117118358, -0.09446524675687355, 0.08534391471646668, -0.1455549359019438, -0.03975562884519202, 0.1677073529028468, 0.01402425609558252, -0.20387519929420506, -0.026127656185881153, 0.13596479233050898, 0.1703407749018273, 0.039907284240799396, 0.0631713918118584, -0.003629840359238686, 0.044675761408374225, -0.02762031347422617, -0.11475022451148821, 0.05352789938714351, -0.06815191647872688, -0.056851251341443955, -0.09236155762209916, 0.30516386641292775, 0.20815353231174077, 0.13781070751224658, -0.04290300118205559, 0.11523578017229531, -0.09886348098850864, -0.03179755049808065, 0.10368335766737811, 0.03149693148341084, 0.1432187694793834, 0.007391780310017452, -0.2262591501848394, -0.022871611204064432, 0.000311553640745659, 0.02147949919738072, 0.10031868960523294, -0.057291868874691294, 0.06477430387102373, -0.03144861137808046], [0.03530060055451107, -0.029807201666545057, -0.08522041412562602, -0.030040083132931755, 0.03499644774408463, -0.10160522607851225, 0.055361818907957557, 0.0069393468788596585, -0.03199638604937157, 0.010604157507788906, -0.04758439099398444, -0.053424388051481975, 0.09356143776777757, -0.11232791968212043, -0.0475766277749164, 0.15061498472966572, 0.0034449175940813133, -0.17277092176615622, -0.007409596139041949, 0.10885530069017556, 0.12848381781969898, 0.01949572639595178, 0.056291394491731976, 0.015121671079169046, 0.03696179479895974, -0.031140785558445624, -0.09731456555363786, 0.04584038816668836, -0.0769161860605751, -0.04038727920420442, -0.05754817908081832, 0.2669981568014873, 0.17137099099316136, 0.13262373498017507, -0.055062224788740385, 0.08915414273423396, -0.10337477259638587, -0.008897975412445974, 0.09683484084439163, 0.025937707245768972, 0.10822843338000869, 0.004890912323427107, -0.18298729022740617, -0.029961344783403808, -0.009846185530846601, 0.009671099091288859, 0.07091155382783638, -0.03391334353251585, 0.07498075786057214, -0.01864570959321375], [0.045037870115034837, -0.04465862906331532, -0.10747689997875952, -0.050214862652910856, 0.02144061727947458, -0.10655929217401029, 0.05701906886633828, 0.01238083747744421, -0.05066835552678757, -0.004157373176598806, -0.043093368252081266, -0.06556915292418328, 0.09500900516696908, -0.11807278481237339, -0.044541228155037645, 0.15163866064257692, 0.03963731797131333, -0.18127684026710847, -0.028919917957059366, 0.1255405522298921, 0.12809421885993647, 0.035374208885887784, 0.04992708680571594, -0.004874048359572065, 0.03308108289659135, -0.01908707519174145, -0.1133693428265441, 0.047968271929102836, -0.05392293679014216, -0.048936389944753064, -0.07475671974858307, 0.29439137866598597, 0.16861754212498592, 0.14134294693527952, -0.06258982048835607, 0.08017732241839759, -0.1026501784522901, -0.02184401513124953, 0.09195449137366662, 0.03216991364403313, 0.12340446545724984, 0.018840743913792257, -0.1892989432057307, -0.051897938270533996, -0.0012190423141206054, 0.0017626923315801327, 0.09116911657699948, -0.08145780925385247, 0.10502906353057274, -0.017546890846225672], [0.043883158652439774, -0.04229697532974947, -0.07192810686471911, -0.04544990399702047, 0.01767461085530677, -0.07584403452665163, 0.05888354339672888, 0.0030037059159538485, -0.02185105726903061, 0.0007730760698957016, -0.03796424488469592, -0.037948039646125135, 0.04002647466363532, -0.109699511515254, -0.021809468671631402, 0.09984054665435807, 0.02441941826617486, -0.10896062036156712, 0.006115934998340299, 0.0739892960218159, 0.1059443137916803, 0.023732497031447097, 0.03827791517702241, 0.004972240782310325, 0.03867096185498771, -0.0290271149065071, -0.08077785007433684, 0.017934831497279497, -0.038281876767043574, -0.028858835850107664, -0.039204754450380276, 0.1880180157206143, 0.14144886772523915, 0.07402497318536644, -0.045574771796929446, 0.07393871242529908, -0.06543424685367585, -0.02209015257188109, 0.06389886423345296, 0.019524368643464983, 0.09767329860908468, -0.0052654105519212855, -0.1268134149990509, -0.013878969463529383, -0.006974436662101819, 0.027515425866369493, 0.06303125693530988, -0.033908491734512214, 0.041389513163241735, -0.011203025734726162], [-0.00364853449649053, -0.004139786325398646, 0.004309759467334391, -0.005604803488608125, 0.0027036905441254204, 0.004244954618783692, -0.010691414942521058, 0.019786389002716714, 0.01737896618098757, 0.013624030058889616, -0.010997016257663875, 0.017909071409585375, 0.01169451970656269, 0.019117090272518525, -0.015334737534943478, -0.0066113918503784615, -0.005343993213878861, 0.013203764506392874, -0.015121389082974406, 0.006561754812713872, -0.012558613618128324, -0.012578574370035631, -0.005826027475580539, 0.007446802394520484, -0.006958677120992562, 0.003711852156206489, 0.013184233262534014, 0.0304914901787536, 0.00023077492055385612, 0.013282649246097945, 0.013995246673754175, 0.01901424171353957, 0.02618990337458009, 0.01062714641019081, -0.008451433440165468, -0.01294307839798765, 0.003564362464727587, 0.011082285438815254, 0.003572007495093255, -0.02677927213847848, 0.015117503254131925, -0.006854773181581329, 0.030414734070370337, -0.012664289892711721, -0.00507111742421004, -0.031246020257098786, -0.017654260812989438, 0.015248833183587449, 0.026106806828309244, 0.011211083606001173], [0.05605292517977662, -0.03257207671962824, -0.1145920489984583, -0.08584928702346459, 0.03528707950990761, -0.1137128759490156, 0.06827420374210949, -0.022145568137691512, -0.0631875936026316, 0.002575289092974597, -0.031416772340399454, -0.06548085280403991, 0.0951440589666341, -0.16284216519178188, -0.03530643730365018, 0.16193354484852746, 0.03252034339065509, -0.21836787441438701, -0.03397379998572196, 0.14615462842450325, 0.14462412204953032, 0.013873999134741926, 0.05769156972438207, -0.003995862217678026, 0.042873419733602494, -0.03282346934871196, -0.12864084866559725, 0.06148295879808422, -0.053744472235324574, -0.04551238177780437, -0.06940401876622666, 0.32897185808306056, 0.21592128355312884, 0.1581956591326569, -0.06337335577870086, 0.11961710196565707, -0.1382242763224261, -0.05108130392919501, 0.08861350640497932, 0.043497145506565714, 0.1614041245604405, 0.012428534465361006, -0.23500109430617427, -0.03806839296787229, -0.0006493401742746801, 0.017694071190754557, 0.1144427080951193, -0.06865877666030608, 0.09188884798803564, -0.025641336245898705], [0.06778411083865354, -0.07052156462711796, -0.13905714513182402, -0.08818111610999962, 0.05664458499512362, -0.15982419631533384, 0.09029642446691384, 0.01129733534417651, -0.07335161399041726, 0.005897803987380086, -0.062388157157606955, -0.07460443263370767, 0.13265775341985697, -0.16338505314819646, -0.04412405461237945, 0.20517377520685476, 0.014703544316013518, -0.24692912415557308, -0.025058700991637147, 0.16427436816511845, 0.1767727790458913, 0.028069728170760935, 0.07617696722493296, -0.001897130996674669, 0.05871112428801416, -0.025067760793304687, -0.15190811384697187, 0.06406449243614604, -0.08476435696612862, -0.059816976571561375, -0.08436560616458204, 0.38089800503153576, 0.2464643400906317, 0.17139857787157808, -0.06514813121401335, 0.1311569665018742, -0.14360008664321455, -0.04776917590043402, 0.09548280661574593, 0.04299858802161086, 0.1696223538697628, 0.01496276031632953, -0.2433947120790927, -0.03527536856515071, -0.018051384738349167, 0.022813529602139553, 0.11549521157969352, -0.08556079686244553, 0.10500938017523472, -0.014652746555720306], [0.027402915855408636, -0.0028074798025665647, -0.0364325547163303, 0.009931098089966795, 0.017969000602231167, -0.035381064041830515, 0.00447447331516195, 0.01540976303388317, -0.015264432438253542, -0.0028712011778719705, -0.01124980395866381, 0.01417983813159093, 0.030692952834123995, -0.017752788347647423, -0.025914956354400408, 0.033576101387361564, 0.024174003023751077, -0.0253959688856982, 0.0054598797820544645, 0.032365959747187804, 0.019959087917276408, 0.0023266385195664444, -0.0017184026181419018, 0.0008561081728618085, -0.014346575339414094, -0.005087408238496553, -0.01659309257877878, 0.004090957066339378, -0.0033539888005062342, -0.0019103844727484493, -0.006411186801218725, 0.06683922566062345, 0.053243859676879744, 0.04116741388436197, -0.010292997642924778, 0.006595137252403086, -0.048190565371547985, -0.011741171539889461, 0.0060905150130931415, 0.006884725589409257, 0.04395010225651666, -0.006666512107887779, -0.034874247565365925, 0.0007944705356835207, 0.006460445719119147, 0.005141971104049234, 0.02555616043901523, -0.022037471502894587, 0.012311238511651737, -0.0023824769546692427], [-0.010987370488271137, 0.016966779865885188, 0.05254906950519658, 0.022477993105389994, -0.010100833345819241, 0.04029041717436177, -0.02865432866513212, 0.019002371551913706, 0.01886613758370596, -0.004271606288802965, 0.04520502210966029, 0.029130953323360482, -0.004533013760004963, 0.038824270146385585, 0.0068501854728494, -0.04823184070609075, -0.006964721394915898, 0.0864256761790441, -0.009746908412531625, -0.05630646548102353, -0.061174256481389834, -0.0025827008419003093, -0.03326960626565272, 0.012787665520314713, -0.01438493032885386, 0.011610533568589087, 0.04283320924406045, -0.016796810223064743, 0.01882037669844043, 0.0003083561656406064, 0.03788440398951822, -0.07413381767170069, -0.06654479744687954, -0.06198846740049877, 0.007127643597275585, -0.03177523063755425, 0.030672604794493675, 0.0007773001266497075, -0.020162264747621235, -0.01890523658148576, -0.0353479529836018, -0.0022335427147729776, 0.0927357042830492, 0.01258704699107436, -0.010623909018731757, -0.01545943024398579, -0.042408192302786286, 0.04012848265051945, -0.01163491256008856, 0.02486540795052524], [0.09314795904209605, -0.06706086645249816, -0.15040722338442433, -0.09715636494161492, 0.03192018596234174, -0.16246816269907685, 0.12761714946032773, -0.012939768665702107, -0.070186330753873, -0.008702924610639751, -0.04074930438532979, -0.11810766939006316, 0.12387518714623096, -0.20577102179218726, -0.036437235874952956, 0.21683282633471018, 0.020832441858651, -0.2746949607382736, -0.00917138660239273, 0.16647671096597677, 0.21909570500391826, 0.050510397239787806, 0.0688648013249927, 0.00038294591785838786, 0.05919613777233923, -0.04822360271519756, -0.18067190725533067, 0.05806713100834373, -0.10469912030578078, -0.0718547867096865, -0.09075498574214662, 0.4200855069387736, 0.27764221982100906, 0.20552716520880895, -0.06214019248388726, 0.15350588666086523, -0.1540362463446225, -0.054606802355905315, 0.11736191232363238, 0.06798449540569017, 0.17525734282191885, 0.021919094210268237, -0.3116062424690454, -0.026215979605052127, 0.008753576056252942, 0.030225835168135637, 0.1419951193529199, -0.11220723143571594, 0.10137268762801895, -0.01588279420790567], [0.003278202613115696, -0.002951783269779346, -0.016671619371467637, -0.009372550725375777, 0.01865978408572882, -0.03296745448474555, 0.01755014120578848, -0.011824077878450153, -0.006229970971411551, 0.011474500374730592, -0.014737886411785295, 0.0010999962009487925, 0.011174100201057044, -0.028057706556777546, -0.018912422069227035, 0.016577860749169702, 0.001284855803768158, -0.03390805304893516, -0.0051926420150474484, 0.03481931556574303, 0.0052490013392738856, 0.006883807557462477, 0.0026619928289190117, 0.0027974071782459094, 0.00625171344177973, -0.0045404844932008, -0.01987210273079514, 0.02014114498905185, -0.007391592057468906, -0.007544483519544316, -0.009454536241309252, 0.024154415737496288, 0.004156853267837144, 0.008957541858328156, -0.002235861880973668, 0.01624233493231432, -0.0004569396565826451, -0.003260110236879518, 0.015961340069785196, 0.011456531015926747, 0.020030292614204304, -0.013204879723687895, -0.017172943339897148, -0.007400028349430419, 0.021561020260062506, 0.00660263388508264, 0.002695701754176657, 0.0019900686392037717, -0.002402142452214542, -0.01691349056219134], [0.05148988552767701, -0.06836349485804019, -0.12896409152270397, -0.06847388730495771, 0.029413163153621334, -0.13424109923673488, 0.08429428861122724, -0.02070445928988348, -0.07306166359323724, 0.003562955927540507, -0.03683082724321994, -0.07679188397412524, 0.07839885562287381, -0.15409039970833777, -0.04239677507566262, 0.16817849072531021, 0.02851345220090218, -0.2073518202002297, -0.006240594219958746, 0.14511328308644078, 0.12568042207577632, 0.0488157124079746, 0.05061379215290672, 0.0005682646253474623, 0.04827301947828341, -0.01875108381507734, -0.09644960637753121, 0.043678886744165084, -0.08929670001178794, -0.04796891481554068, -0.07261112739117101, 0.32647825519193213, 0.2072584284609639, 0.15108957059274097, -0.04236021477436893, 0.10262784446642582, -0.09605404429458941, -0.043324049418952286, 0.09426168940280998, 0.03228943160072635, 0.13592083798046906, 0.0004463458558265377, -0.22295909231931502, -0.037118707832625074, -0.019864023976834858, 0.0062817376378798235, 0.09617194827271464, -0.07927277671895523, 0.08354894880967174, -0.028926510953116248], [0.05622415241461387, -0.054705990639999966, -0.13425130985566577, -0.07454842060673454, 0.04206182092038162, -0.11623581979290999, 0.08144732296234007, -0.004494955305268053, -0.06699207665982915, 0.002337508396235351, -0.08107816847115695, -0.09092896468307111, 0.09713906491095571, -0.1501897178412585, -0.040213695055733564, 0.19855821084357983, 0.03225308532148544, -0.24413285656787465, -0.0013041753987224456, 0.13982305589647415, 0.169509790544825, 0.03824388264429879, 0.08520183591908029, -0.0013333953684238596, 0.061764684796489125, -0.033809571521144735, -0.13783010520972824, 0.06751812382623622, -0.06729131800644342, -0.07345303344108038, -0.09296001849934198, 0.34701288829237953, 0.21491847481121723, 0.16059390727023587, -0.07924375636623796, 0.1298675715096734, -0.11702018969860736, -0.037899815482299266, 0.1038129457190642, 0.05040683719541393, 0.14203685745051195, 0.010334198288705429, -0.25287767884551393, -0.032853789239891344, -0.0055958492843067725, 0.022886244920248645, 0.12151344122580574, -0.08569230013169987, 0.08073394625264566, -0.0228353784729517], [-0.022372207518332767, 0.02853702854768905, 0.021845901463338282, 0.014869917123674, -0.017227016344231513, 0.026672349142161822, -0.02165274004398119, 0.018159581456748574, 0.0010746054315816439, 0.004179859205233947, 0.012050641761189165, 0.01541010855178681, -0.016169406987642153, 0.04263650865821849, 0.00529354085492861, -0.055088323948066883, -0.011888883172839475, 0.042368381498300973, 0.0050476914798927, -0.03773139204025383, -0.036136563451816775, -0.013535838921993051, -0.012001208242075212, 0.017808497806936375, -0.012121244913377783, 0.017065039562461908, 0.029997671458450854, -0.008652161813861766, 0.021648613299798117, 0.02042427182957031, 0.024561207785267564, -0.0629582694757739, -0.0542620817756729, -0.033017714417364785, 0.01602371479012159, -0.027718178816168285, 0.020387129438690685, 0.0184288353333692, -0.023329210846434408, -0.01745309766571034, -0.03308616628956152, -0.004667555155520582, 0.056603197529341474, 0.009307517646826842, 0.0024673871868955413, -0.0047961233068842144, -0.029303722928841577, 0.023889745034648528, -0.005116590648937611, 0.00437928400748667], [-0.03041784391026154, 0.05268819125996053, 0.1111298324596448, 0.06388855858296505, -0.012511850647883656, 0.11800194121732101, -0.1013666407537875, 0.03857146081711164, 0.07220955165269581, 0.007943246556808779, 0.038146830064269034, 0.08170204844617077, -0.039414435965803414, 0.15896225973347478, 0.0004924045100708062, -0.1433087784199978, -0.01947706287789885, 0.1933787735147346, -0.012008474140302323, -0.10479488946087658, -0.1462507583181822, -0.0452782142454949, -0.04388710418028874, 0.017897363047458398, -0.046052576480231436, 0.010021588314246882, 0.11660415174956286, -0.053843805926578274, 0.0534898569606176, 0.06574729718667224, 0.08982427961408583, -0.2528382583172188, -0.1620258752420613, -0.14046706913871243, 0.020843380596865874, -0.12306111993908563, 0.0940069602425324, 0.03549216283432686, -0.06279556537003593, -0.052598330103858275, -0.08608352451283847, -0.004399397039017178, 0.23440746844891203, 0.023404395399668012, -0.0075556088087560865, -0.032839349891816874, -0.10758086527794801, 0.0806696319050653, -0.03388050884829921, 0.007735354449166867], [0.012631651326582572, -0.0028193090020454006, 0.002107347129795385, 9.924304209915172e-05, -0.009448624726281656, -0.010664196677834014, -0.00894650118858521, 0.01901001296995276, 0.015657391877363744, -0.011039673454809981, 0.018486833693671947, 0.011809565820291348, -0.01055050395085302, 0.019246254439798136, -0.009570144567771227, 0.01062232346055794, 0.0059556168250274166, 0.008146380425758958, 0.003113648138511224, -0.00772539730437273, -0.01647417993021089, -0.003062779103284781, -0.0005471126653301121, 0.015033224901479262, -0.02715674558771432, -0.0015901355386476012, 0.0055268736217645486, 0.014932757483155578, 0.006032844090244387, 0.004351406158000123, -0.0037742568302347635, 0.01793156540875798, -0.014847862222269614, -0.0021089589566715364, 0.004810762573535037, -0.013605852059461928, 0.017826458960958337, 0.0014735126085667963, 0.01041746740408629, -0.01804932796665714, 0.006523820977175157, -0.0010580126520885543, 0.027117281802631652, 0.002789950123043917, -0.01603589873194021, -0.013055877426663224, -0.007781179829667666, 0.024638428670406703, 0.004934180895001237, 0.0026907171162164857], [-0.015634739582151645, -0.013526170392534467, -0.014574404970797945, 0.01484006523832679, -0.012157748700232293, -0.012663088973005736, -0.00510324463164356, 0.0002842957819425248, 0.017451715505459642, 0.005995391240431082, -0.0013699277416763626, -0.000745021474702381, 0.012176997272203902, -0.000386877290413266, -0.020821513205633406, 0.005665151825459457, 0.007179722156437847, 0.009578294737814495, -0.0012195049475445705, 0.011614136141776536, -0.02189292933246845, -0.007226044928371286, -0.00022626248280389655, 0.012726904228851735, -0.0027472989781494764, 0.012623903355005427, -0.001299508168895193, -0.012282014340358185, 0.0016303408129235688, 0.002095390546619823, 0.017897623114654294, 0.011531045549773565, 0.006741471075121905, 0.02008441091980859, -0.00992503833941743, 0.006673004887393362, -0.00825170762304208, 0.008084995892076246, 0.014147432769202377, -0.00678473160887941, 0.013904018898149026, 0.010235000069670189, 0.015688628378482984, -0.004812982783610255, -0.03869548502092255, -0.0017689186262590298, -0.007738348745878535, 0.003713163191278222, 0.007886886125666133, -0.0027276081730102228], [0.006014497889219081, -0.006893174345628125, 0.03445299514363231, 0.024204415840091007, -0.003122551386923143, 0.019824958603485116, -0.019911119199278692, -0.005515360263022828, 0.014266487339422337, 0.0050749516144707255, 0.021166699932500768, 0.04071187591592621, -0.01637728600685024, 0.049461202920981724, 0.011985961621472202, -0.06201105809126587, 0.01373789445987559, 0.04662509386919997, -0.008385994824364367, -0.0414744484948092, -0.0357277872475309, -0.00849617690827624, -0.008466239295057685, 0.003138739437134188, -0.009960777727295471, 0.001819430018367345, 0.03868839769680618, 0.000797200378069475, 0.019410207599344857, 0.010490887566023222, 0.032950800334104, -0.07917157802345491, -0.054964828880282535, -0.024668911005988718, 0.027962034729005786, -0.035111869145974924, 0.040789273377702884, 0.0162597681441857, -0.029703619352384716, -0.021694054407480717, -0.04210464316199399, -0.008360520413889393, 0.06677091063282155, 0.005712208969072451, -0.0026599147113120984, -0.01741453018545647, -0.026824101241332762, 0.01631851554398306, -0.022434863006550336, 0.001662932024664718], [-0.034476469662555215, 0.04191282012299953, 0.11786506657069372, 0.07999880991883898, -0.02990857702066817, 0.10716187293425909, -0.10064542825812016, 0.019239508674098054, 0.05993797771383047, -0.0024400275485227016, 0.045532732731386506, 0.09689470145304789, -0.07836209051708597, 0.18614795476305196, 0.018886087584630923, -0.16620640587116736, 0.001963805297414848, 0.2445975542042773, -0.004873760430671503, -0.10495333557146853, -0.13919301051488392, -0.02847820016531547, -0.06154888600105523, 0.016157371513937344, -0.056214001369011155, 0.020788456465697394, 0.1366002073987958, -0.037060672350219794, 0.07108876939823938, 0.0564333986368177, 0.0911160976723936, -0.31715023360732125, -0.17198762255548344, -0.13288683966072043, 0.04722346099018266, -0.09326550455480374, 0.11851422557856589, 0.05300058953300549, -0.07469025281096357, -0.04070629459598726, -0.11330131460639267, -0.012847058308157338, 0.25507472892129096, 0.036005718550102754, -0.0024840288442620016, -0.019915242129835753, -0.11152857040579227, 0.08495479470410854, -0.08634428126604624, -0.0024403211778330942], [0.08126675564407908, -0.07189050897513839, -0.18676786696910333, -0.09716068752381017, 0.02871701345044708, -0.1624821353324111, 0.09766033902919542, -0.01955998531402717, -0.0855457962034526, -0.027444381174563624, -0.04137626039706944, -0.10009459672241455, 0.1506618110208847, -0.2158012321774643, -0.041485680082560386, 0.22402534695486484, 0.04316011175236673, -0.28049783277211005, -0.026492175447275307, 0.1783626765332763, 0.2103898910075393, 0.0435975927659411, 0.0682179209655589, 0.014427426811088738, 0.055382222730812856, -0.04893401043914264, -0.17600375145431468, 0.08481981344923889, -0.0976428106908177, -0.07974772374361702, -0.10394248940501853, 0.45921217707000567, 0.2895461792728152, 0.19497314798254728, -0.06676562242246177, 0.14326911351449098, -0.1725321391680135, -0.04255818061026177, 0.11166067027074295, 0.04828496225948719, 0.19174713678859695, 0.017310303767227458, -0.3117710577171814, -0.04899248415833675, -0.03374828387207798, 0.027820860619955583, 0.13892529886105798, -0.09897512365249031, 0.12585332708203512, -0.012348528319362064], [0.07130670452875469, -0.09201707564968296, -0.174688383422321, -0.11932879591303117, 0.0282167313403197, -0.19005307058523976, 0.14819649829130438, -0.0065942522800913304, -0.10193499627772903, 0.00024438181205239777, -0.08024244170042909, -0.12192048388722787, 0.11436786889007305, -0.25914583567728555, -0.03574326944405709, 0.25942080310423954, 0.028945711452967565, -0.3487558948253523, -0.01834818901032734, 0.20770534092146573, 0.215846557446108, 0.0645863471371269, 0.0883784141525706, 0.0023689867005831974, 0.04605989018875433, -0.0430392499887637, -0.19967310817642403, 0.07650108874102289, -0.11503586478994868, -0.09124666608484394, -0.13203859142621457, 0.47474119463425124, 0.2984721247885578, 0.21775901056830224, -0.07825656862141359, 0.17899934366199968, -0.17303369195872728, -0.05585091031491472, 0.15094863571692482, 0.06580909395634328, 0.20845892369666663, 0.009046671447716944, -0.37316303095788905, -0.057589890285054096, -0.00708123841739689, 0.03144093596448268, 0.1647281449021898, -0.14914064494366674, 0.13475906605155893, -0.021227665292185352], [0.07885358692821953, -0.06864982401665402, -0.15395395447228463, -0.09740204304934362, 0.03113943585338724, -0.16800474643222177, 0.11187973815504117, -0.01403653835363629, -0.07839871395784706, -0.012878934017104991, -0.06779535262492087, -0.0792720422039739, 0.10457046677558528, -0.1797722341708791, -0.03608557751428297, 0.2173062388296478, 0.020178753161658992, -0.27309132990283974, -0.012450792385931421, 0.169128073773327, 0.18217870967349564, 0.042238415887714736, 0.07074845277876352, 0.006647620664356195, 0.022371307005580612, -0.04043735570461895, -0.15634943630064138, 0.07854689755166913, -0.08397273339264714, -0.0954282318113658, -0.08927805124993837, 0.4060560911825133, 0.26472243523520095, 0.1934870255943574, -0.07314072503850755, 0.13895145218039592, -0.12792439349162968, -0.07169194081803397, 0.11325440938188132, 0.04954338904351701, 0.1788778781680575, -0.002695360582178851, -0.2891826308359261, -0.04873483525925766, -0.01788868250555336, 0.025900136958527734, 0.11287654492408992, -0.07871856997323211, 0.08331961632240487, 0.0005206941569320271], [0.08060449214019433, -0.06735779078860125, -0.16853539655718205, -0.09319033230418382, 0.040023104023680235, -0.16707170967780863, 0.10925261826954424, -0.002885403801420385, -0.08194041640842176, 0.011942130805739836, -0.05992639401534691, -0.09459589146507213, 0.12597661242074643, -0.21135901898407305, -0.05692740363030737, 0.22385473943208928, 0.03810082106855347, -0.28893192682680713, -0.007457511868415419, 0.18387510845301674, 0.20003984373123343, 0.05206955131822495, 0.1013590020292024, 0.008889454988776021, 0.045420776266089244, -0.03136497219805144, -0.17139393273280268, 0.08474355642625488, -0.09397915240648455, -0.07177946117808635, -0.11975212001081098, 0.4200949170345395, 0.2877468931957931, 0.19872445159683938, -0.0804075554502486, 0.1335821037725722, -0.1599731363974352, -0.06853547528151475, 0.13496219717569613, 0.057752563049734786, 0.19769559123098326, 0.015404311298030776, -0.3104536925745487, -0.03706229128065707, -0.029094500282346086, 0.027704898163598824, 0.14573801184581692, -0.09613988340406529, 0.12901558252178372, -0.026675145742663133], [0.05765146227704366, -0.07714743045533995, -0.15583273252479815, -0.07768887885374685, 0.017037375077017455, -0.14028867482026564, 0.10700673618249115, -0.012465392833207672, -0.08802441683065404, 0.007139899440270531, -0.06233829638678792, -0.08746759450782593, 0.0872526794395828, -0.19192221907777787, -0.05028171418724343, 0.19722657737195876, 0.022118274796688844, -0.26070233537742, 0.006392004942019769, 0.15270326666536577, 0.193717394666817, 0.045254759246660184, 0.07636918928420948, -0.01620850565956423, 0.05040099411752441, -0.02943131863552866, -0.15208986440674363, 0.07471023487087251, -0.0939046018733098, -0.06355235973749802, -0.08800110250986941, 0.37225903590471265, 0.22756145314864135, 0.16690119661814973, -0.058812795441695355, 0.13444172501286983, -0.11913393207008999, -0.052162358134027774, 0.10928076017249855, 0.05164660082709048, 0.16894316422016498, 0.0063860964729666415, -0.2798040515101876, -0.054994725566864675, 0.004387793170279733, 0.024042820015043726, 0.11653470061415293, -0.10214431223401366, 0.122105022135954, -0.016404487171383413], [0.02800979822769145, 0.007568710894619464, -0.00031224550168828017, -0.02028777003446865, 0.009046230893825682, -0.02210105869151957, 0.01012800722986125, 0.019785879026121625, 0.010428555408737213, -0.0054661154627589385, -0.007507608325272804, -0.008920016202635427, 0.0397578572453282, -0.022759157667117398, -0.037017086445440196, 0.041141142984327854, 0.03314518669608382, -0.04243154153627004, 0.0007175795062382431, 0.03592054350023166, 0.027229062078266822, -0.012508580772419937, 0.011998608364689979, 0.01721101132609354, -0.0032011522277839086, -0.012471791340003873, -0.03577013994159769, 0.001168642171419709, -0.013315925988405471, 0.0048196656714594105, -0.007236154297908455, 0.07464962538565241, 0.04640019379457182, 0.029452215400385555, -0.011867620122774642, 0.02231538157537899, -0.024226178731193294, 0.0005371456908117275, -0.007841371045073101, 0.02386148835437724, 0.052511111073869146, 0.024388383114855104, -0.023425051268176813, -0.017329978870514493, 0.0024228371127149586, -0.01873358186381412, 0.014731661394495341, 0.0008674747953910714, 0.010822541843622592, -0.005104267526602219], [0.062457152312721934, -0.0727159882803318, -0.12837946435290765, -0.08572533737218871, 0.033111799897461255, -0.12445515102037687, 0.08085311153454305, -0.026163467290290524, -0.07708262183876406, -0.016513943714040212, -0.045365301488386356, -0.09120249811582806, 0.09144409765524499, -0.17011297169480988, -0.05885865408076392, 0.19358694367366086, 0.02470529539239595, -0.23942451862179223, -0.013490216321145703, 0.15925469152930963, 0.17765677682047396, 0.026464066763939226, 0.08857645856231254, 0.008990696356833533, 0.025621836255567694, -0.03362670194374977, -0.155236661437165, 0.05776914869674321, -0.08666328849880861, -0.057633825281407085, -0.09349395497682152, 0.3518861027854658, 0.24312138753196333, 0.18224503656851906, -0.034984208024068965, 0.12216705962973921, -0.12252711045382679, -0.03098738016090579, 0.10368037652725337, 0.03802605302375162, 0.15125704763182, 0.007322926227528091, -0.2593465650891136, -0.042534841587272124, -0.006379255805642267, 0.01634192216300167, 0.11004884303746858, -0.08712653320056492, 0.11629657705340994, 0.0018746987685651683], [0.06633193635122957, -0.08225092290794378, -0.16111577138603117, -0.08960510364990816, 0.05701941373916287, -0.15540855590857658, 0.10816284241682599, -0.013156749995934766, -0.06843016189933074, 0.0057627763980085235, -0.054931133490067494, -0.08632372277644101, 0.12649026746331724, -0.1918639428400457, -0.046207292523355654, 0.21170431337341972, 0.01830107031487513, -0.2894214111075332, -0.012953667278019311, 0.18085731780701728, 0.197364170473711, 0.03848803970284174, 0.09796928537367997, 0.009773353720186605, 0.05062667445105581, -0.050320242001421135, -0.17821610621160744, 0.06531348643476974, -0.10058101644173245, -0.07769464845964807, -0.09537958076796542, 0.4245801111723819, 0.27237074539594547, 0.22144337244795065, -0.05169467100751046, 0.12705804281866065, -0.13226281014072416, -0.06306585615683587, 0.10675877088114313, 0.051994576010961115, 0.19197240432068152, 0.016309462672573164, -0.3056666313879803, -0.05118286513858163, -0.019753462476030798, 0.021108510201159718, 0.1516964509906691, -0.09497085964344014, 0.1202606264761248, -0.009996022112423947], [0.04936605737208023, -0.03626214937862201, -0.09695622661466843, -0.053422557908416324, 0.026008703179705137, -0.09688189276886099, 0.03812386036356399, 0.0032726835858693194, -0.07230401228632824, 0.004283019579890889, -0.03277125531900312, -0.060797822334147926, 0.06197119124306377, -0.12944532246950216, -0.045755152494808694, 0.14266909635554761, 0.02461484626290906, -0.15688535823166205, -0.008095728813768379, 0.10237890893917202, 0.11697913190827319, 0.018648881622421287, 0.0535705213988656, -0.010847042753258433, 0.022360209698932057, -0.019294348608649595, -0.09585797149800225, 0.05603850366636988, -0.06167791808344451, -0.045979506009405036, -0.06762833778994456, 0.2593048292358515, 0.16172196177261147, 0.10497050463594419, -0.03465657763351198, 0.09746877670220967, -0.08251833755652055, -0.01951651727634755, 0.08424116509400813, 0.0390458908647657, 0.10952357503433224, 0.017327771841587774, -0.17401189893364447, -0.04321056634636098, -0.018831836083024998, 0.030618887295905305, 0.07755967345295364, -0.05870982853274938, 0.06673359814454193, -0.006335403764763711], [0.020389479927229306, -0.019125124043584893, -0.024503965325547866, -0.01281994093757039, -0.0032472140588915, -0.037141794307248184, 0.012608127374098787, 0.005935029266258787, -0.012377724712322687, -0.0018204494982495348, -0.015235514914261358, -0.01555370409143292, 0.04338276472638136, -0.05437567570242082, -0.022801483303833556, 0.05921403989459729, 0.017205639720229732, -0.05206584503757801, 0.002022072306734934, 0.03221537329921752, 0.050445217979163966, 0.010997242879732808, 0.013133061444956122, -0.010300298668470927, 0.0195044143469457, -0.0088539253228148, -0.04159093660340775, 0.02824678311602244, -0.00603784337542458, -0.005065427590080814, -0.007347600524973222, 0.12080430735139908, 0.05793421597193648, 0.053560022088212256, -0.022598088814425453, 0.025516908064794095, -0.02169011457711976, -0.0018006564022603436, 0.0366229355486322, 0.021140221268866017, 0.061807496185629716, 0.013592168331152456, -0.051370679056971125, -0.02324151889146084, 0.0032380955928766153, -0.02559167649898611, 0.026180130010375075, -0.014664881914021474, 0.03825764537435424, -0.009100770733615043]], "biases": [[-0.021752472572225155, 0.022466048742847227, 0.048516441410889635, 0.029063002923238535, -0.0113674981350733, 0.05063428337527492, -0.035088207866092055, 0.005053665019120092, 0.024123311951849625, 0.000677408351684503, 0.017278737222448177, 0.030602459936902086, -0.0354082742958999, 0.061810020745760134, 0.01294190930389138, -0.06804081639405246, -0.009569043182667408, 0.08477994554458697, 0.0037118940191895222, -0.05424973595164175, -0.05995382113894237, -0.0148958133665663, -0.02550866910511519, -0.00044105072342082255, -0.015427948658850707, 0.011295233071789252, 0.051339207517476636, -0.022722211433500065, 0.029761331170594808, 0.022885360922276644, 0.03152773500182849, -0.12922165322187334, -0.0813145740538979, -0.06113740373869632, 0.019368765568411, -0.04640151782721965, 0.04606686089717066, 0.015533347924105089, -0.036189867543835304, -0.017586947381407494, -0.05367924479144577, -0.0030670438145457327, 0.08988736720962896, 0.015375992690258581, 0.004006867513798058, -0.006408975722955909, -0.04133757411924129, 0.03163722012541097, -0.03541472794364303, 0.0048363133912515165]]}, {"units": 50, "activation": "leaky_relu", "weights": [[-0.08891507616868388, -0.3267232090703226, -0.24727130262935432, 0.2729619283399388, 0.26384857408841517, -0.2940526729348917, 0.045581236895958506, -0.24774252420358409, 0.08688843338728731, -0.18289975660489038, 0.33207567432189955, -0.18875127750863305, 0.22692342897974843, 0.1144989843538898, -0.17067046788379003, -0.20463833390961433, -0.20683965052045586, -0.2339958688532462, -0.005292636112128154, -0.11747829453078228, 0.004890098369150309, 0.2960147275043915, 0.012135780477324288, 0.3145108510055225, 0.23380923334822845, 0.23555437956463146, -0.10545877406777283, -0.005729588791195313, -0.12661586161533234, 0.16372788990436335, -0.13635330309640897, -0.2620419991426248, -0.30964441251365915, -0.22770542236661717, 0.15372821565635808, -0.2091420948898829, 0.09311267370271278, 0.27011031529284724, 0.24347191109174846, -0.042839097823118795, -0.26686574174411615, 0.2574653938777407, -0.10679878137147905, 0.07056686663816457, 0.24324477509367357, -0.25768769892664967, 0.023036208403468535, -0.30511076190130204, -0.1316537708938181, -0.1962265632758471], [-0.047748546244283846, -0.1037827482902952, -0.1287949657658694, -0.05197108746326979, 0.16985720078637917, -0.06220009751171806, 0.35303025784297004, -0.04932332590119123, -0.08311297735604324, 0.09589349909983644, 0.10760722471973266, 0.08906821930129206, -0.07837322447659077, -0.22938797362212557, -0.09743162796150272, 0.0036603027668891236, 0.33068111268552297, 0.20016773265733115, 0.07362303894718958, 0.09312400561918309, -0.19820582767955477, -0.1294631290378331, -0.23882193027951362, 0.24012665375226044, -0.060443150097638884, -0.026330544960628012, -0.017653916675851106, -0.17101571830143497, 0.19680100849916746, 0.30574122784503704, 0.1799871617137363, 0.06788568192614049, -0.04980579643164151, -0.28253422281022955, -0.17016558625618142, 0.08966078358425388, -0.11328557490625697, 0.26758163548938263, 0.11087654528529597, -0.2410403307233492, -0.11052499925597824, 0.1726310567066584, -0.018257907880457634, -0.1373228515727624, 0.16327307270031843, 0.040986595105039936, -0.20498475817653536, 0.33765116840905307, -0.19239122796070074, -0.22019279335541792], [0.261302747976738, -0.08547050496274154, 0.214218464373192, -0.03298226068553715, -0.09563441963241445, -0.16830922791396663, -0.1681058186473245, 0.07480038633162119, -0.17422993505167103, -0.3031177132747206, 0.008707554358109658, 0.0011468134821235368, -0.042576959342285246, -0.2900528241749629, 0.34407508962765143, -0.033868842072985524, 0.09726181893376455, -0.18126539434621752, -0.08746944915472603, 0.151039027566771, 0.36764109305448045, -0.15284179909126216, 0.01638816459857403, 0.2806581396811191, -0.2614437374533222, -0.009585392392567112, -0.0788987175033459, 0.3362529495357953, 0.24467894237805685, -0.12648635021785107, -0.35437619280525, 0.21652144111347582, 0.09315312742020568, 0.05127800832523551, -0.2170098214579232, -0.37165379093864065, 0.3130373827909015, 0.30195859302536165, 0.19328481560279923, -0.37693199892019225, -0.16543593550455055, 0.21026607436663053, 0.22398884166562674, -0.15721138769003754, 0.22211300755020688, -0.3172547655945742, 0.17710577008219916, 0.22223187466356875, 0.3073638502671515, -0.1896283321661717], [0.11445010645653694, -0.2196952978132195, -0.028108161575020992, 0.22638953908070988, -0.21226086118062762, -0.1574970941800124, 0.3217074951979035, 0.3069246588078556, -0.28103699031403173, -0.18005625757485505, 0.14236729854920113, 0.31626232246128216, 0.3542115051175696, 0.11673973540247351, -0.1348309038457057, -0.2351790995383128, 0.3131809105282192, 0.1974783901225964, 0.26329411701744376, -0.17436412218537684, 0.10045353775557994, -0.17071850876731612, 0.26945860669421473, 0.20053150369011027, -0.21361924201739774, -0.061515979043920165, 0.09763589001233723, -0.30357184129154113, -0.16632847597745365, -0.3107404705307475, -0.04892482730700305, 0.23254516944155162, -0.1913956102663457, -0.11962839781877455, -0.13783083715482475, -0.13663966907385233, 0.27998325857023004, 0.32279914022494643, -0.30051699849581626, -0.002134518091157273, 0.3554041076396279, -0.32782631694158165, -0.12081072958559451, 0.21576153733735895, -0.2193200471204565, -0.05765321486285681, -0.1611439921871159, 0.35492678235819336, -0.3084435253023197, 0.3130285109779371], [-0.011708331262576106, 0.31130816080923357, -0.07344999434171694, -0.0940137683268902, -0.20262768075522444, -0.2750288461532757, -0.13922905364759577, -0.16735136910722312, -0.1284506997107059, 0.32366672419535836, -0.31372512712439987, -0.044557047246161746, -0.25490975335278804, 0.0316057631537721, -0.08321438706210496, -0.20768778641140098, 0.13517828851838226, -0.05274612752612375, -0.285893882631426, -0.10327528120235523, -0.34154166354362914, -0.05863001201190656, 0.22760559004611733, 0.26219814343780395, 0.04174448489197303, -0.01841656151052566, 0.02128553585158171, 0.34158814526474945, 0.1290735894593493, 0.15354669753668818, 0.24806964140770546, 0.03359681559268804, 0.1693443497132059, -0.12127595454786898, -0.29113100733601244, 0.03222194811526155, -0.1185274321571503, -0.1114681390971936, -0.10764178341473872, 0.2213400257049855, 0.03093195140989157, 0.12821028576954563, -0.04511942055886762, -0.1342719628588855, -0.12161044298771785, -0.3020697336983376, 0.06333806509535184, -0.0885465252986522, -0.24045733501575958, 0.1669856727565173], [0.32250877673407796, -0.36483351336906467, 0.159294035305923, 0.18746568752076054, -0.38456856229846104, -0.2757418377172851, 0.08595895338600427, -0.05247375591982523, 0.28350640157012247, 0.1381683900527117, -0.24917528411578085, -0.03048165728424234, -0.29519748494863446, 0.027388260190302428, 0.019241805480841815, 0.12705192207019517, 0.03895523251017678, -0.33760690595974774, 0.15721244619036925, 0.3631439079390522, 0.06937326948859886, -0.011572301366300502, -0.1035381032993007, 0.16739015631066953, 0.10154809396455956, -0.258242535366687, -0.35382872106519947, -0.27223670240913356, 0.11425405743747682, 0.19661688671021996, 0.2564204747910025, -0.19297959378431198, 0.027069290266154972, -0.1256512224285996, -0.052195922207689614, 0.18260743924400405, -0.27443219603615293, 0.377223711720057, -0.06305807706750811, -0.04101129727334198, 0.3337581729361462, -0.10499671614919463, 0.12697343163244065, 0.0459899473350938, -0.16446942484093544, -0.23416227003920856, 0.05786558342818973, -0.2538975010907865, -0.27635022591541586, -0.2547058827668327], [-0.0442680374725766, -0.008941899226521772, 0.021074357795165907, -0.32010455773307656, 0.3366581141890453, 0.10138417527399614, -0.05180411823595767, 0.30096211187940686, -0.32854918399909316, -0.13257632593129925, -0.031166946260907054, 0.24174851413065437, -0.3018538714256577, 0.10582798385436547, -0.060068800835209456, -0.1700969346313352, -0.14340604259453238, 0.23155476360142974, -0.32267074369772974, -0.0038493005010274218, 0.1755530818002992, -0.15377909176857518, 0.02761001419005801, -0.14305091361279593, -0.07693645957026285, 0.30135243797047756, -0.003629480206044387, 0.06877524806416471, -0.07529869304223574, 0.22093539568261633, -0.06844391314545611, 0.35145357985885367, 0.3435461548825984, 0.3630532786881326, -0.21890392848832943, 0.02567293982063415, 0.1518729525323188, 0.07737042986337936, -0.05920417844605117, 0.2984374375179387, -0.04828320935720505, -0.07462725543410945, 0.29352411884176993, 0.20428235947054246, 0.10334905065792446, -0.0787258958117504, 0.2173109815398725, -0.14276900719030536, -0.3166285888750239, 0.17682978177692765], [-0.14768877188616064, -0.1725352844757798, 0.03952257915710247, -0.1186583518412249, 0.2884977189088222, 0.004146561784338574, 0.13061160733293473, 0.28890926568730374, -0.2007415532771399, -0.13562378157047433, 0.00226501536047373, 0.27225877354321787, 0.28089846839811106, 0.10459690441064906, 0.34321642297986393, 0.3224382874460327, -0.06462553540028373, 0.31958520511953037, -0.12464443091122923, -0.2961103722423115, 0.09778269949161357, 0.29167920713374296, -0.10738269638304977, -0.319494152884433, -0.31183576418647324, -0.11703350819028487, 0.1197609928174359, -0.06318341692791714, -0.15000612676474775, -0.34059701644173834, 0.1236194669325778, -0.24340992934663086, -0.3305591924322745, -0.26962514192749387, -0.14951250105530925, 0.2130153909212735, 0.11688423874399885, -0.03895620777808382, 0.2595817760416528, -0.26639892591915937, 0.26153064911993745, 0.22935260489356288, -0.1282969927602691, 0.002066615011512562, -0.24192602775692149, 0.18803949441249052, -0.2122250741430482, -0.19021619530015968, 0.15383998575508595, -0.12764398373947636], [0.1521502677110085, 0.09755135897701254, -0.06726035643804389, 0.22744247561808495, -0.29744777843750464, 0.33873072492748013, 0.3189425445773338, 0.3551720201867163, 0.02277948016740563, -0.2760703637402486, 0.2789433487204551, -0.08225086484150383, -0.30774865527715084, -0.2224631379470938, 0.12298617410721505, -0.08516178978852225, -0.07877760461244435, -0.1455701271720673, 0.1665529408004205, 0.04992957544238837, -0.3100216477410987, -0.16332667898866543, -0.07317118769163578, 0.311336276478247, -0.26182586899062466, -0.3187297391670171, 0.10825611198375902, -0.14933704090800629, 0.17885995567736754, -0.3031583871295794, 0.06950871417121592, 0.0662724214302096, 0.2032185505755457, 0.17937827562438005, 0.09881094724652838, -0.2803368577271906, -0.21189957077279192, -0.14288161233640015, -0.04479581796957871, -0.21004753659165926, 0.04433766356238429, 0.29675844191094597, 0.3264260254203384, 0.04931720675207908, -0.11197678501764201, -0.32543804624614536, 0.006541275096163749, -0.22240137722448, -0.31242493613957956, 0.3477537687527054], [0.14814948978086123, 0.3427249913781884, 0.17580104122462012, -0.23860059574614295, 0.05556822454806955, 0.3272253095004267, -0.03247537401108077, -0.11572773883636572, -0.12593275427470596, -0.3233860381351668, -0.28890924726573447, 0.2685561718543089, -0.2799273370876113, 0.007926586730749646, 0.12531257420077027, -0.19745475497964135, -0.29712302934967855, 0.06769242093026537, -0.15102731937599337, -0.27789738232913813, 0.231312915160796, 0.3198620917429967, 0.0798374314674837, -0.0018012235262856839, -0.16285954148185106, -0.27001656626206366, -0.19294231542232765, -0.21662558279455307, 0.22759739289091716, 0.1506256097081695, -0.1473704652533133, 0.26803057549300374, -0.2656361924271395, -0.011305371322095992, 0.18336046025933112, 0.32343991970985864, 0.21221359185583666, -0.24363853115907244, -0.04196577098972317, -0.13570231521751944, -0.15032825480689357, 0.30169476912080484, -0.15848622976862523, 0.19474821251064262, 0.11307174781889624, 0.30886784420256885, 0.2565705239945456, -0.22164208522101989, 0.2932072746262581, -0.2990832116131272], [-0.2569512118618893, 0.02512825782526109, 0.28773644987935937, -0.31601544601634046, -0.1146535435479487, -0.26597130685882964, 0.19483113096707705, 0.1826320220721021, 0.12815504566106659, -0.2081400284923776, -0.044517919610111735, -0.24305965719332726, 0.20998917977493356, 0.04282374496345394, 0.20953413635959892, 0.1310149537937191, -0.2620780358847242, -0.022190946506420943, -0.24599167477246328, 0.2350481181384682, -0.2744290520789482, -0.09090689794166887, -0.24709506890567118, 0.2822321465251829, 0.21456372507443475, -0.27366228404075754, 0.04825404546269292, 0.32676282384989436, 0.2393936925377168, -0.27839577267675214, 0.19244001359955074, -0.2450116424688967, 0.25369548103425377, -0.2280734785264752, 0.045818323922096615, 0.04125171878830062, -0.28254909233539316, -0.10536185185909483, 0.2976678732255706, -0.3171363031725335, 0.14675461870339684, 0.1702556635515819, 0.0660543728146892, -0.06653411739972802, -0.3178157752863161, 0.2289414244104511, -0.07101080772224769, -0.011176533310468632, 0.2046330335748225, -0.05811461710091622], [0.35359843170579264, 0.30340662231369653, -0.26988726828559056, -0.0808932076262779, -0.17097187081079798, 0.16575767255497026, -0.004905607155654523, 0.2688062089965189, -0.13757927767167327, -0.05865654526741559, -0.20366337260454426, 0.0015573900826600004, -0.3153222087432274, -0.20366108459212046, -0.09196213123094203, -0.012061851249664256, -0.14211100535248514, -0.039898273559376495, 0.3177578838602897, 0.1835058061267501, 0.30290125039320653, -0.32158084791890273, 0.1758005460696541, 0.13418098531578768, -0.17278166523808597, -0.13529099754913057, -0.008917459489085011, -0.3102900184651079, 0.1467315239150852, -0.29377451046035175, -0.1370336633243356, 0.20922815364559375, -0.07808510815835007, 0.06797867615861225, 0.08981536697817781, 0.32426982659508696, 0.15206855587809948, 0.07978671181900368, -0.018658931732145105, 0.13822741898272067, -0.0906294625534854, 0.04676158252136912, -0.132037442318596, -0.06275469558094701, -0.20446442512483587, 0.29472016582557103, -0.34857408988887584, 0.14342763990508747, 0.1901063500721358, -0.3036863979520835], [0.15721800536966998, -0.24145133904243424, -0.14933391223614462, -0.23892493730132056, 0.2019606341396761, 0.32099607575675043, -0.16648613710451682, -0.28075427508252826, -0.020417546855364573, -0.005636800709054124, 0.35932644864247454, 0.06536360639879883, -0.1995887018184746, 0.06352590225076565, 0.31747132960131713, 0.1869583714462261, -0.3344839223664469, -0.17110123451424722, 0.033802180261699906, 0.1588000827028726, -0.14011861418268062, -0.09514018972578445, 0.008771688194968924, 0.14006369176979316, 0.03339879081040156, 0.370330671026838, 0.19505317549868353, -0.05903727569923799, 0.07016707039043435, -0.15251147703896467, 0.36796208483316145, 0.000957640386355876, 0.1311140660159299, 0.22492699821464743, -0.12861263503141832, -0.14229188496224573, -0.22256563285782394, -0.2093285819120625, -0.16263600239347725, -0.04468267328035734, -0.15387050046761297, -0.027673390912819926, 0.13719835891402077, -0.23356060706621068, 0.26841827056257983, 0.1713740765604309, -0.08136472879448499, 0.3122998665685981, 0.24014071710257218, -0.26717696783826417], [0.0671339663256621, -0.39075758797988325, 0.19268279414165626, 0.3159965734673632, -0.3244445449132358, -0.08320904629188286, 0.3052461703997064, -0.21895555788592969, 0.23574659279028692, -0.008886129959588466, -0.3765321400973224, 0.22608654985161752, 0.022307657541174582, 0.21281087075330551, 0.13232250938461562, 0.25084454656754146, 0.12887339560753372, 0.2421662538091573, 0.18687707347143592, -0.23480537161073323, 0.30065745887541184, 0.2596383763759927, 0.310656369186612, 0.3527421748963679, -0.36157838968490724, -0.21634225513880465, -0.2996006483844927, 0.13823885787007348, 0.27329112601861566, 0.002981582048828046, -0.089246569675434, -0.039101955256951565, 0.06004151748627518, 0.025970746179016308, -0.2409831376272803, 0.07369453663858477, -0.032702880118714035, 0.3296825295805059, -0.25335568250392915, -0.03462058556617953, -0.06661505624862306, -0.023911522473168655, -0.258591633083879, 0.0660457509696315, -0.09181690151718726, 0.31151138082668667, -0.24588855432125464, 0.3224569480415432, 0.27928008161322054, 0.2806296057220675], [-0.27645529311056966, 0.013583336244551056, -0.29770375407780025, 0.2184158094407688, 0.09054665436325472, 0.02836063192481988, 0.19221476442738675, -0.23040997572532068, 0.08077831500538586, 0.2713589288208529, 0.01367639165549827, 0.28804399616545645, -0.3318660547725408, 0.06252724407204271, -0.03953898087917328, -0.08446387751315301, 0.3190887679607769, -0.043096528681785796, -0.2771325656774124, 0.027172178493854646, 0.1880863581722269, -0.11129568508701419, 0.2710095763716693, -0.2005119644539671, -0.29272547780451735, 0.04413293625077951, 0.12569408548407576, 0.2704304534375901, -0.1677985366038238, 0.2585949209162383, -0.15595833176644233, -0.345658030554464, 0.2624736913089927, -0.1717713472575125, -0.18151107395632649, -0.015239201326478113, 0.2524378020350288, -0.020586305847745887, 0.3327449408422764, 0.31784523434307216, 0.20473737673690293, -0.010790163529055544, -0.1571475323348657, -0.2696623557892912, 0.14344376989230523, 0.27860864437952004, -0.03469664855517604, 0.273702144738138, -0.07622621537155093, 0.33333658381275033], [-0.33612282298963375, -0.09589959689379449, -0.07795875806373592, 0.12891702046928974, 0.40987474281859254, 0.30749217845703386, -0.20521490379090332, -0.29549163207264184, -0.1366491411691764, -0.13989661171559215, 0.27816619815617116, 0.036205927467861825, 0.24559101378043977, -0.17007857286825967, -0.12317870313514745, -0.35850285123921244, 0.06185798339114082, 0.02273530807548301, -0.1545450263336902, -0.3063410885737204, 0.020955148248389354, 0.3512349141236885, -0.07965338540136291, 0.23879831532200166, 0.2742400802462408, 0.38503411367852025, 0.27436453285243007, 0.09305856402018102, 0.1606228072377817, -0.37649873616292245, 0.2917350365454424, -0.2736555635095078, 0.3525418411282641, -0.13414637726059994, 0.05526157914083953, 0.32170091038324594, -0.20102435785114875, -0.07836021248125573, 0.28507457917636236, -0.042014841552321956, -0.33261864418773035, -0.10753076675316633, -0.14429038517760798, 0.3229495806420236, -0.06891816177382147, -0.1191472080275783, 0.1934811221370934, 0.254334993053515, 0.02367765453817071, -0.23029876326555104], [0.31874933030001623, -0.020192051917873235, 0.2778212324904074, -0.2504960882049023, 0.002685456397221306, -0.07768812818114085, 0.06855690008245013, 0.027740358650626688, -0.03660498119869831, -0.1812229289203123, 0.13725232265209888, -0.21237752917440253, -0.1086242725163337, -0.13340246954873447, -0.2642382507979718, 0.23310638815785512, -0.2373341302316839, 0.2683195422321846, 0.22885993415799727, -0.07599068582214692, -0.300704679564241, -0.21436886184213563, -0.12031524840004142, -0.10217412822202329, 0.11668701763452766, -0.1807632000835863, 0.21105146679248626, 0.054253575340028476, 0.09571524182682888, -0.06633702460705398, -0.31872807630270106, 0.2993119079453589, 0.3067016085859123, 0.14818123459865706, 0.31113331866740984, 0.07357063491246177, 0.06276649670559287, 0.05211397777858638, 0.2701940500885656, -0.3185429189671523, -0.19132810801633646, 0.21483344544092567, -0.12054096802816922, -0.09253698948164665, -0.018928926989159735, -0.2621467895803024, -0.3352441370442739, -0.07460903892177351, 0.3436503407326229, 0.1790868177372385], [0.2374177761488712, 0.05960626329256831, -0.19208229653351092, -0.008626822446886076, 0.1874128814471345, -0.10705754748530816, 0.3543454425269594, 0.25238495236253883, 0.06549226866435459, 0.08076062867764544, -0.16017092637708516, -0.3161616968367043, 0.07061383404642055, -0.3154704477294539, 0.00950541667629805, 0.3454669480865812, 0.3009247768010584, -0.3161872835719749, -0.3390714723123864, -0.14957211509229382, 0.41455941456326034, -0.40889957493520057, 0.31634746483679427, -0.1978153512200844, -0.3592149598891902, 0.08270101859190096, -0.19027726226697853, -0.14891158597827095, 0.33752384036077576, 0.3757924805086783, -0.41947460006010573, 0.12082124951268054, -0.2900782997341855, -0.27257659803897616, 0.06654177092202368, -0.350593312560034, -0.359331101003863, 0.2916225681477185, -0.2993324541013102, 0.12295725048935242, -0.035445425264043734, -0.028407331200531558, 0.36068749446539516, -0.09748356439401253, 0.3237974040955024, -0.1417423454944089, 0.2314237376899879, 0.35560819719902825, 0.10293656864609409, 0.02527652402444836], [-0.07605602981880527, -0.14209325831163547, 0.3185109332731752, 0.2944485876793617, 0.2683960331708329, 0.05790830565181966, -0.17277461046259374, 0.13048037279784755, 0.28797564366076706, 0.01845952921961427, 0.08043431029670967, -0.08103758575355662, -0.25279164330719694, 0.19258124327333495, -0.09798971033162454, -0.32352267546210534, -0.07270891386474547, 0.1110971009682267, 0.0268202047850555, -0.32370383366036487, 0.029824846885417342, 0.2639169638755993, 0.2351524524214037, 0.12307350256360636, 0.12360085022684007, -0.33478230495525485, -0.14095983514238905, 0.15505361878233836, -0.09621161137919758, -0.07277702726473312, -0.3298475669399711, 0.04281058488612313, -0.3202980537812652, -0.27461705738966935, -0.0017117653494874673, -0.19115511652939637, -0.18303052915067133, -0.1371672427032979, -0.08071424385550822, -0.20426238696250573, 0.18009427790951235, -0.04420324103385141, -0.26695875882280123, 0.05987949261104446, 0.25710851515746147, 0.01283430625238012, 0.224706661454641, 0.19534655916191906, -0.33603502975115407, -0.06970815242385146], [0.22043824162531706, 0.006828656808087057, 0.2996644158990111, 0.303059818889945, 0.27592828909987377, 0.2105552497195054, -0.25150371681152894, -0.20340881770057534, 0.14695249404731994, 0.13767110223582893, 0.18659913216681503, -0.22539357849169517, -0.312426541756468, -0.2904852599657202, -0.2397897901558273, -0.3081264235410964, -0.3860717748883077, -0.017714210141408507, -0.021733173039803884, -0.07665800953665876, 0.04708693462803352, -0.04359356030443596, 0.21274251254306875, -0.09787597062953476, 0.08319890292609589, 0.3481826648109801, 0.3584951558981589, 0.05393777474640551, 0.125050711879888, -0.1651200241328008, -0.06271999821541996, -0.11624423951236541, -4.3250707067111506e-05, 0.06149131954177893, -0.0993872646014813, -0.055419063354870686, -0.0949784857457929, -0.24600257057195848, 0.12168581687773633, 0.26594952474091327, 0.14679553737876475, -0.22343417285332434, -0.08068284487464124, -0.21424629338812076, -0.15661423667291016, -0.28794578405693955, 0.33085351982599487, 0.056237080866383626, 0.08126205739572749, 0.07295923681881257], [-0.3372664471524586, 0.20840735942165356, -0.006428749779051164, -0.32784065503045634, 0.13795416244059855, 0.2432757633950478, -0.03317248088627092, 0.20600799747439968, -0.03806138021525864, 0.016472968783294555, 0.41333721495448106, -0.22613208298597454, -0.10242626737818043, 0.1890162799251415, 0.23967731945720333, -0.06136790129300429, -0.09315400880621566, -0.2925812018375836, 0.1699834555427752, -0.23312256171832632, -0.10188174614252625, 0.11740921769398519, -0.06060017812265689, 0.1834990151651357, 0.2317682884035385, 0.40324486421985767, -0.025108909513582762, 0.2185144885465359, -0.33113472357247975, 0.16577163052740712, 0.2796896835681325, 0.34829265238529694, 0.1959043127675048, -0.2591879735653195, 0.14270600292248542, -0.017439554761368145, -0.16469685063420642, -0.3805326631747524, 0.2415870334373046, -0.23046970984256931, -0.002053116600085778, -0.13986201599488662, -0.12606635755807444, -0.271657467649841, 0.13311268684642702, 0.19587471459404948, -0.05580443449478029, -0.07953304036651514, -0.1282810296031427, -0.1611553651807459], [0.24926308348904122, 0.26407604662976275, 0.14526646015793587, -0.3010467829586633, 0.07838407631181221, 0.30086416440456076, -0.17905210919962994, -0.19312979323636378, -0.25130256296980963, -0.02884984389858017, 0.29401980473744693, -0.027846568867624114, 0.1831622383712475, 0.09030214750294477, -0.3000949832258213, -0.21105775934720428, 0.3363255439747403, -0.14424859564741446, 0.30620653860038827, 0.0015203521845483232, 0.29561048686774255, 0.1804081918211933, 0.31519668191399625, -0.246433958693278, 0.3105474988328368, 0.09903035455761167, 0.1786110287048256, 0.2167917109309632, -0.2702005261086786, 0.000722653241505648, -0.2964026780900795, -0.04916052480408254, -0.09978633809310213, 0.0028019852852738925, -0.31262724907304085, 0.3152764795476989, -0.25996541747750623, 0.30896077824824997, -0.2776882994791943, 0.2842356003250141, 0.29499443531534286, -0.27579014316983114, 0.33547046259214747, 0.32737942181253166, 0.07239902591324707, -0.014443902515908413, 0.16101373251918347, 0.05658433003273563, 0.22810530830845996, -0.2800507382893421], [0.06206821604129781, -0.23517347147099774, -0.18659110058791506, 0.13971679727396594, -0.10256864877475952, -0.17221083500759782, 0.030080047153800794, -0.13283008470501453, 0.25040224967947605, 0.02751430602001031, 0.18477938906420902, 0.11297318438259588, 0.0697575807652816, 0.31030669976167263, -0.043872893622674214, 0.20990889788583342, -0.15862754489128275, -0.1826713362320659, 0.2613794189414404, -0.1803564110869939, 0.14386803835252954, -0.3019083004507543, -0.205600616612656, -0.042454197779159805, -0.012979487706783322, 0.04296815380402822, -0.08729350572412078, 0.0669025439731424, -0.13776468920620943, -0.07674051571377902, 0.2587459685549465, -0.2620778425341002, 0.3555161225988474, -0.161413768465395, -0.2077963530127929, 0.17883604611988496, 0.11058436385788878, -0.36135279194999664, -0.07966496243302947, 0.2018327507815727, -0.12973959644088964, 0.08966909883315796, -0.02371230094456751, 0.1658998732099552, 0.23746024489293766, -0.05535024283787557, 0.17829988838138722, -0.13195017458483765, -0.11607575968931202, -0.30200999261653727], [0.04799094124265523, -0.2426998889635906, 0.018645041591128623, 0.09039231542138351, -0.29950869062627516, -0.17146589016296687, 0.028488925491471702, 0.24913060276053925, -0.2448765114209, 0.21539401318065943, -0.31125979555420685, -0.024006922713558802, -0.2784690303592306, 0.02201197334316546, -0.23402573594098233, 0.18768719938704456, -0.24488595229037713, -0.30787326663712217, 0.3402191074069312, -0.182686647084239, -0.19924640103783325, -0.16440107275718213, -0.08969443199163367, -0.050125596390223355, 0.2910333829764496, 0.3254729332485651, -0.0030709352611868537, 0.34218123964058883, 0.008782738565363324, -0.3083999316119258, -0.20948062148358473, -0.31807445222505976, -0.3431768291045173, 0.16822813736969283, -0.008797252691032275, 0.13527932349884494, -0.22193309300177663, -0.07961123035580123, 0.11032780340610543, 0.30863128043278315, 0.22754255572955473, -0.3189993807743031, 0.19530514773357824, 0.08104156866411436, 0.0020423730065991393, -0.26436306053103004, 0.30065284736740777, -0.23154817181001608, -0.09435410733727687, -0.0717178500669033], [-0.2091956193302796, -0.021842130490683873, 0.258300590421621, -0.1819290805321023, 0.3015150736867652, -0.10548453900149964, 0.05512631767179502, -0.019143555210123068, -0.28437375700682266, -0.18137048170485917, 0.2775045526908095, 0.2609116819498612, -0.26790173650488897, -0.14396403936767885, 0.2624078409460802, 0.13753398254125912, 0.009537243910386213, 0.1396863545683024, -0.17070700323253027, 0.09741757004286351, -0.29837540561430154, -0.1715617103234628, -0.08305159956959474, 0.01857909745139184, 0.08157979075226718, 0.10612486970763833, 0.16697304783336564, 0.22133050686768005, -0.009916252188385957, 0.16937678869259626, -0.0633389130209014, 0.14857105260773498, 0.20746795094892712, -0.23402062468431475, -0.1610985595250141, -0.062774129659038, -0.22068287514806317, 0.132275458444892, -0.18876641225743898, -0.022851808920991912, 0.020362827507685685, 0.27772449839174373, 0.12709346148538667, -0.30424007293591876, -0.16037435094424238, 0.10822997238406168, 0.1208237446837111, 0.04040889393886045, 0.14005314020559206, 0.3052658559972634], [0.08192446489966358, 0.13529400362558427, -0.03503373363439437, 0.23838740877760212, 0.05692598488121654, 0.17465656586238087, -0.1390241807098625, -0.002704557456731466, 0.06098239887273874, 0.3045369187498684, 0.24987293962609053, 0.17901029269329025, -0.31387218635747927, 0.1911083825200996, 0.2817548333979742, -0.23200567447634235, 0.023333790816713672, 0.09981345132831626, -0.09988520035998334, 0.2871013556849428, 0.24855174550751377, -0.08416388288880372, 0.20508380602250934, -0.16753364411633187, -0.2965017893540211, -0.24454954872362683, 0.32976417922221024, -0.028723428692168748, -0.0017926520808487555, -0.007922610698665905, 0.09709117364161612, 0.28799098160881, -0.28201308998125846, -0.33919692916723876, 0.07987343360190809, -0.14976106931087246, -0.19930262544522487, -0.23773487379336844, -0.008155425823215955, -0.030988304693494423, 0.23198118164559142, -0.2593572557993685, 0.05940396900801434, 0.17718840577972297, -0.2942429985576736, 0.16500890858693262, 0.23417025062498067, 0.13827076552764964, -0.006551343695930512, -0.023521631568074665], [0.3511175385097175, -0.3673557218251374, -0.19013589081931226, -0.002979023749659898, -0.32667617842615165, 0.03218591992537008, -0.04362009155829522, 0.07375983322231838, 0.11810067292704281, -0.18614056083714617, 0.06090818417639292, 0.1560443672599279, 0.23028660034383674, 0.0633887782507789, -0.0440264987584776, 0.3538011635756643, 0.27000639988336667, 0.09275759000211067, 0.01742066011930684, 0.1690950638357585, -0.24358492936325307, -0.15108867859792757, 0.016908005146566707, -0.2876607944690583, -0.2141049192209381, 0.0988574151805656, 0.3055658824946321, -0.10226048574236757, 0.36678350138064353, -0.2822166039228916, 0.27677910882257406, -0.35491763899320966, 0.2134797504838571, -0.28973681435774834, -0.27633210059352004, 0.1846849565195468, -0.34574089544779685, 0.26734512470322885, -0.04529502458278734, -0.33346980159670514, 0.3240627094223209, -0.17189909307658538, -0.12154902945477397, 0.1576678363079233, 0.09325580189690318, 0.06846624638276988, -0.12730019075651225, 0.32305274645936166, -0.29522505637714686, 0.30846067171733665], [-0.2541369734540957, 0.024591029863527146, 0.2594476137102475, 0.25469476290602533, 0.31462532731553633, -0.27964435503407975, -0.34512189374683916, 0.16945338230084414, 0.3157781199410373, 0.10004662348676645, 0.11285425134827586, 0.13439284082500316, 0.045871009247588225, -0.1655014365982427, 0.1668868061972782, 0.08945386959512157, -0.30743600050914544, 0.3207718296686314, -0.06400677201968664, 0.01967347965888972, 0.2741489118665677, -0.12030451809774435, 0.06814217752771812, 0.2548989160245077, 0.1968846619594929, 0.08095148745144096, 0.10249737905660512, 0.1571165138769344, 0.2651508047516937, 0.3000705897082123, 0.18216627534506954, -0.22749292413412187, -0.07498436602843903, -0.3248868857833767, -0.3147533452904278, 0.2693901656318256, 0.08937098176265607, -0.32908143991652583, 0.25450092719845147, 0.04301431787496058, -0.09713803230045578, -0.05118324403324733, -0.140158314393024, -0.09244705016790679, 0.13036955693884839, -0.1712731683947925, -0.11036782158178832, -0.03649769897232676, -0.320033588008102, -0.3301135929965093], [-0.1918782349759485, 0.08430303607848946, 0.2867148969555726, -0.22605930072596975, -0.29759938738796504, -0.17339268532900518, 0.22508269863347358, -0.07980230353541672, -0.06851325920044908, 0.1531718297383497, 0.09255472111313696, 0.2979331664267775, 0.2663930982143149, 0.10296192380807628, -0.1623657365754065, 0.19058109373147136, -0.05707208294732652, -0.011792184580696542, -0.017486520981140608, -0.23839531239949968, -0.2503087179972786, -0.22506184739761081, 0.3183803582984603, 0.1014712907365181, 0.09539355742842966, 0.1557241788106312, 0.07053425641591118, 0.04817513516859249, 0.2611361349311241, 0.19866538749552792, -0.35457898744306404, -0.04171111471491843, 0.21042684038300163, -0.1905318199863141, -0.02759534264128323, -0.35798358185964213, 0.01980498506347475, 0.3437488807726082, 0.08823687826010262, -0.28359657018968415, 0.338085219034248, -0.21184831745898305, -0.23351510464719988, 0.102630154351561, -0.09412088185783189, 0.055119257364047276, -0.31835458513510284, 0.06271937878767932, -0.28394304203255283, 0.34414178110576893], [-0.18585733571255103, -0.20761068470326086, 0.05758418339636238, 0.2695542892249696, -0.30244038205317775, 0.2592846276702826, 0.07446499517781228, 0.06608720486426428, -0.29761591188966635, 0.11903598956231248, -0.23620453730589266, 0.3090994001677812, 0.2869451657372472, -0.20030251557130824, -0.07616645990443818, -0.14976183876594976, -0.2820674541700647, -0.02278975548035023, -0.22708424530291904, 0.06329012811119708, 0.13591930999866442, -0.06283338737344454, 0.12729603266096343, 0.054717224753787534, -0.0014316329389705946, 0.30961398514691807, -0.29657598293148457, 0.21107857877785274, 0.061042083735359964, -0.12308677509514478, -0.20193211014565382, 0.2638711350463938, -0.29634363081269155, -0.1920336770461343, -0.034912917096544475, -0.233887787378984, 0.008985941667558636, -0.1974805446724599, -0.2123366429850748, 0.25802394580318766, 0.3403416648994527, 0.1617979543898957, -0.10221800665258167, 0.1630587726237928, 0.07704517520802971, -0.14280359668343665, -0.21461197785212582, 0.2332498358538521, -0.239427110166512, -0.3129986640618187], [0.316393618120909, 0.05021639692685524, -0.34181191154288054, 0.24513724734808867, -0.1791240235440498, 0.017150896420765564, -0.17357216366031042, -0.18834978847715333, 0.017724845762863876, -0.02580895062522921, 0.07844575984747212, 0.31689801122383715, 0.302233375611743, 0.11330814661868359, 0.2865781176348014, -0.025571402411556275, -0.1745546241653172, -0.1737343985176356, -0.04264422460450365, -0.31983288518487946, 0.18679129470516304, -0.27284064138245306, 0.2799844690789169, 0.2614739997735844, -0.051966018081408404, -0.36440938216399993, 0.28178138171976613, 0.33334893406837746, -0.24708394782423312, -0.1961990427976649, 0.17246400280810206, 0.2451400169053965, 0.05138054184880885, -0.293918788582311, 0.07849805667573855, -0.24357825538888, -0.17983558367723013, -0.11217451455562334, 0.31589679564950063, -0.3462027478940958, -0.13525650819887358, 0.2577102850916865, 0.35504821823058735, 0.14040013344611155, -0.01580365987291487, 0.15578390109135057, 0.04759757573035496, -0.04309707263538333, 0.2551034661851512, -0.27463277945469994], [-0.2483426159861821, 0.061406177236990024, 0.26014352104528216, 0.11572420797502421, 0.42907339673303624, -0.4117657766179905, -0.20110353277087595, 0.1211734049738825, -0.21526434291152408, 0.03186888845633704, 0.23424231254427283, 0.07343994037225815, -0.1230771759799077, -0.2845410274077251, -0.1956326065985778, -0.28993719801015116, -0.24823880315369568, 0.0791307745512299, 0.2785326338605447, 0.07496003127046262, 0.03580949582848927, 0.4121659099017047, -0.09942615843875503, -0.15198640497764762, 0.16502998292110527, 0.4768048923388654, 0.01177996874272959, -0.26349679462329184, -0.41487760614243285, -0.10378723340833855, 0.22080888414010175, 0.43411131045762813, 0.4136841102575946, 0.18410869052470746, 0.06341501278507079, 0.35308989547536973, 0.398458914991673, -0.39183280231073764, -0.014134144030165337, -0.22549617633218833, -0.3275891845149108, -0.31577342601781705, 0.20821167581334374, 0.3337765743684117, -0.08234078737080709, -0.042547385132870895, 0.17819523486659322, -0.07799553350102989, 0.23700994725208205, 0.09148762482551671], [0.13613152215199953, 0.3980012240265121, 0.25588242184315907, 0.25950686165002884, 0.4461295484911261, -0.29901790196745764, -0.35817796182506956, -0.24068756441107145, 0.19441889725355996, 0.070704752268775, 0.2669987146104047, 0.04611696525288762, 0.016378482096581333, -0.14839087497517997, 0.007243469509277192, -0.1556123571430373, -0.04257259730755166, 0.170204050802183, -0.2687222149133602, -0.3274239853384452, 0.15319306022690446, 0.39242892035657706, -0.13746673975573745, -0.2757513143206318, 0.14012512267471344, 0.3257783543031052, -0.26850434709003096, 0.09914719316573033, -0.1581685353914333, -0.18204839663848943, 0.3512056368939991, 0.12760717317522163, 0.3661652862297178, 0.20525117666466677, -0.038618220297038264, -0.1638151370583117, -0.2840073563930306, 0.19723191658588482, -0.042812919774027514, 0.21337976105024495, -0.05809347883342679, -0.2624451003283764, -0.20646180802664274, -0.07333212345896288, 0.3101848072450903, 0.31822186417269166, 0.056553347081871104, 0.13013334690410008, 0.2589180561823877, 0.22578938395147377], [0.23255276074752085, 0.21951647650682996, -0.2918867412911535, -0.20096928706663233, 0.27800838498109004, -0.31216785986453494, -0.25699531030700945, -0.09650785462704753, -0.13732827734451086, -0.049923475210976044, 0.005568399304643836, 0.05139717552379483, 0.053454235223660905, -0.04886711364534335, 0.18114929535208776, 0.18632410194666638, 0.16606766332884895, 0.08062397048624845, -0.14441243372888854, 0.16544618080596432, -0.04973431691332805, 0.33385082605977406, 0.05989658573737504, -0.2728446421020215, -0.041485057501252684, 0.3669356839179156, -0.15364239940098195, -0.09318345435725085, 0.11649718089842115, 0.17980787842779838, 0.13935984698884543, 0.38976662302641313, 0.256390003391078, 0.3220326181886018, -0.2819786211216289, 0.3373891308395945, 0.13584644322982084, -0.3658652693085989, -0.33834119311502897, 0.02481230661866979, -0.23257423394959598, -0.11762985000452443, 0.130252570482757, 0.06354387144606996, -0.31501172492676577, -0.002982406707562233, 0.2820713897722921, 0.13225771718860155, -0.030136238290117308, 0.07787482385156978], [-0.2048866785390428, -0.33868972290335664, -0.3239409542754401, -0.26890165056948423, -0.1371292026942333, -0.05509031315219663, -0.19391918913279818, -0.26055197661306495, -0.17571493781227696, -0.06907980066054366, -0.26807199077246213, -0.1052665718496395, 0.3071241535993788, -0.12793408720162608, -0.15043886669589066, -0.22113428782123426, 0.1196467559789084, -0.04507400298452233, -0.32604334305420635, -0.09206762257398166, 0.26941899291660026, -0.16571819075898092, -0.25127641387792804, 0.1434357181396047, -0.07348289716512307, -0.05547433298865138, -0.2596951729861655, 0.22456804579479733, 0.1428728738643459, 0.055506123924315816, 0.17684208916388283, 0.15806020939294846, 0.04813362581400407, -0.12950091332393027, 0.1324832256366603, -0.12127682512582172, 0.04951642526606121, 0.09089988833178446, -0.21754944723382652, 0.2138873025880165, 0.1533684404826589, -0.11287798700863608, -0.0937916615263315, 0.2796655964372548, 0.08331412219445186, 0.16039864640714263, 0.03194855580472252, -0.2189324330503666, 0.053072210520354525, -0.284380772681551], [-0.04026654222574378, 0.35136596319535784, 0.29515427921468484, -0.026505329369970458, 0.2992032752362206, 0.32103617822438546, 0.2831793752763708, -0.195414535845093, 0.00804960205017738, -0.1515971046888075, 0.3882546693109912, -0.30589475813560263, 0.021631275274457372, -0.07383348740768718, -0.25830494641171653, -0.3022740671921133, 0.2723879471433015, -0.27626269707331275, 0.07108874644142242, 0.08216909548454729, 0.3137286648555715, 0.03483298332325514, -0.34591942676400733, 0.16879388513783586, -0.14104502793323706, 0.14593608100386715, -0.18709998266194794, -0.30143648174318755, 0.1037529394306865, -0.14713265819034244, 0.0744378445691296, 0.00982894798724534, 0.36983091922927575, 0.3103373276864039, 0.20629849798218455, 0.16230126542231724, 0.11935905623174202, 0.004361078621510802, 0.014951163054517973, 0.17596923236765957, -0.000762667365286053, -0.31728159069260187, -0.254025812524164, 0.2002100044288648, -0.2957866599995324, 0.2945814680279149, 0.23612798954897907, 0.2788099438369288, -0.16003629160616242, -0.23776093219919864], [-0.11827749925935978, -0.22818291887410513, 0.28843219644146034, -0.3103077735505542, -0.23549174399855882, 0.299952445634217, 0.28637134978766143, 0.16398123106847867, 0.15329396205114226, -0.056909144512521145, -0.031154055858424838, 0.16617064010893046, 0.11353033550912775, -0.15331849479760912, 0.08581312445463905, 0.008211524575668606, -0.23137574613685122, 0.13140019398647418, -0.23989332714991796, 0.24305889796464974, 0.11533198468998833, -0.2681387908898446, 0.023763342173809866, 0.14723052247640367, -0.1250972345672749, -0.24994965362537558, 0.11224564987286692, -0.07006513406913023, 0.1347322088596895, -0.27017445675434, -0.32736646068033487, 0.04426362380762516, -0.20133742425244847, 0.18278311392636362, 0.2374667189782271, 0.003085234825304064, -0.2754529136780061, 0.2962931376595849, 0.20290126716652546, 0.2978312611627487, 0.17881595740695994, 0.26053563246939715, 0.08560214841159268, 0.04662539442965412, 0.26293720684531474, 0.0010507768983881848, 0.060025243938844584, -0.30162184253442503, -0.16890442318577206, 0.14172216465059626], [0.14769762570788278, -0.14520136032155762, 0.17323994966683595, 0.004684212503505375, -0.08468095272548382, 0.12787665736006337, 0.04650570949685347, 0.04191593293136202, 0.2525987169889041, 0.1752532987990157, -0.2996367152478965, -0.31976842582728054, -0.14005344568718947, -0.019157502068681095, -0.24692560699057764, -0.003361734740061413, -0.19490812734823654, 0.25865314382891674, 0.031448425515231075, 0.08829329352586093, -0.034760003367008296, 0.20343610391045022, -0.18740202803308945, -0.1449727568327595, -0.3531723668675421, -0.025924285354826847, -0.22581044637244943, -0.1434153105552908, 0.06084809248885731, -0.24056538904080896, -0.10071944670802191, -0.33667767106705654, 0.10410179555468321, -0.27262417550592954, -0.18471444284610783, -0.11056930083371691, -0.35120805835449054, -0.24730079393334703, 0.043185262180357224, -0.13032108590083727, -0.24816068915809514, 0.054972073492768274, 0.01419826832220947, -0.15196966755495842, -0.16530062590077588, -0.3305445999255668, -0.025222535720715377, 0.2380178969602343, 0.25737617735645046, -0.04740032921425322], [0.2144993420068292, 0.16446056588756, -0.2465287075746662, 0.20038347536584955, -0.21260615180990675, -0.25649882263590645, -0.3269819240613945, -0.05698012849850639, 0.26196500682131013, 0.15532199172520517, -0.14217798914023586, 0.16720809876588713, -0.3082583936476867, 0.05335157923614632, 0.004970377495806643, 0.02185916785557616, 0.1530296664908878, -0.05626370927357176, 0.16488910115985164, -0.3066440583112628, -0.20427152184433775, 0.3740749461967692, 0.2645838623781161, -0.16658367993050371, 0.33681931305400564, -0.11594386913409438, -0.2399653299761047, -0.29711470180441774, 0.07392734333649725, 0.15496835702983797, 0.3658338140318872, 0.32616860352780247, 0.23104055398526546, 0.003528471684259441, -0.1993409587026462, 0.29538606829710906, -0.1397988362378744, -0.044850630652247085, 0.0650685259951297, 0.1361633618801303, 0.03840473697636435, -0.307691811456664, -0.1750901159837132, 0.03607279424965344, 0.256082489862191, 0.28062750980671003, 0.26899539758196916, -0.269814766920517, 0.15653539897828483, 0.17310892769387032], [-0.10785362127892201, 0.30536584592007787, 0.3448564477288243, 0.10405236110399595, -0.07263815273935964, 0.06256140354001655, -0.14364046993630397, -0.26443920320172254, 0.10719669927847142, 0.1461095939881023, 0.20557102877071182, 0.08041084840965707, -0.11228461466674637, -0.1798636879352983, -0.04924352145032128, -0.2100032568499287, -0.10565183549030724, -0.05641461121436958, -0.15597795650778096, -0.20757686038963036, -0.1604918084647253, 0.0028804636815428102, 0.14676578778596702, 0.2093519715385408, -0.27966069708117847, 0.08944556299529044, -0.192376651330574, -0.2340392164148527, 0.2682294358992761, 0.18757642954723042, -4.5751874809502375e-05, 0.02141304797909469, 0.3189640573285927, -0.05587382154273662, 0.1884233945955419, -0.03911611447294954, 0.2787458592995802, -0.28092937248071526, 0.0963765408462787, 0.10678414666044797, 0.1454262333377196, -0.14956453887450433, 0.24623175393908275, -0.28048302647356643, 0.270449895437433, 0.19623347851116354, 0.30730716293275495, 0.23107014954802324, 0.12208149729386243, 0.32498996519933665], [-0.18891172921518842, 0.08391717426793725, -0.18845665163858155, -0.09732648044950663, -0.23722957739689984, -0.2981329869533561, 0.09389066564474323, -0.11263642684002458, 0.03986369481074205, 0.027603409072696174, 0.31006975652418894, 0.34007094465042736, 0.11892603377172896, -0.28977051769391027, -0.03755617191913369, 0.22391935167238666, -0.21940036680355496, 0.12720279362440434, 0.17307562610348112, -0.3007965880863104, -0.23237513162117776, -0.11922125442473151, -0.08537447575681481, 0.30015701038595016, -0.24248097674145258, 0.3288876416704477, 0.007693800644786059, -0.22054108618206558, -0.05305723870650517, -0.10282576645666676, 0.07409953534640316, 0.26051381415655084, 0.36107806721278607, -0.012746040820110447, -0.3697683719333395, -0.25299338036167435, -0.06621269091997183, -0.16123993023653013, 0.15328655253704304, 0.09756587233692571, -0.03029251030893421, -0.28748275998036094, -0.19934881508108007, -0.12780611383384666, -0.06158849473333342, -0.08488321386850639, 0.21273394961374945, -0.0840153046372609, -0.03209093542813949, 0.03325060793228513], [-0.08866553133741811, 0.196672416542265, -0.021231735089673225, -0.10761621382775947, -0.1948197468560703, 0.15760103729060196, 0.20551016005885986, 0.07853443826016078, -0.07795390896641545, 0.24034046864200304, -0.07633867408631924, 0.06634731713806656, 0.2346592642041476, 0.012896435151429547, -0.2797999750033894, 0.1582313128742092, 0.09517086562914182, 0.2824932113411511, 0.04358984683180033, -0.21266180520915376, 0.2417467445104223, -0.09659781120816072, -0.2750964023921687, 0.1370327892314597, 0.11074063240635504, 0.10104826618904415, 0.06963747707433236, -0.13864412149716113, -0.2335201948403931, 0.007578978024325232, 0.2865174283102013, 0.08082288903606172, -0.06182474005415064, -0.17655432197696927, -0.1793585302611897, 0.28069645800089205, -0.06234255399537047, 0.29422841840686825, -0.21555888434693837, -0.27159632029035485, 0.07887951467637158, 0.04698974857291707, -0.33035892621576096, 0.2469148963820247, 0.12266726952063364, 0.19841122029306607, 0.03833292966664657, -0.12694497993411086, -0.1988711932597759, -0.33444609048120283], [0.35523761359138106, -0.28940700655045826, -0.27694600769296646, 0.22407510042981013, -0.1257419113776348, -0.25461249174275863, 0.020481016518097882, 0.05192575145514911, -0.19606459177971156, 0.200771695695429, -0.3882162473559721, -0.0861732168310681, 0.2888169692883895, -0.3290856506901677, 0.30581985470209694, 0.3523988878156755, 0.4239424144031486, 0.34196261480301593, 0.2912445485929017, -0.0060722131436954825, 0.38232987332876744, 0.15077251023736002, 0.24189566056973127, -0.09482134862209207, -0.2562689051063699, -0.14348758793722186, -0.03644924254674254, 0.324787417872708, 0.32353308199188924, -0.018850494883761882, -0.21884110488005237, -0.34317195331357053, -0.4080650534751226, -0.18286096797815238, 0.38678999989868684, 0.1329189495672745, -0.17884227787023366, 0.13001469991739914, 0.2288445176949441, 0.2238142480951001, -0.2551467669351714, 0.2617977880875418, 0.3210466308188409, 0.09957996601492698, 0.30041920195134175, 0.03525580197156871, 0.06077958951633903, 0.08632662908525114, -0.34102096650974545, -0.053442891372705206], [0.12359296270493941, 0.22190457713896422, -0.15932320419289278, 0.24254127533447012, 0.11958599393593183, -0.052410798974072186, -0.30317069770244076, 0.3337608490465047, 0.17917946973084783, -0.23429119374569723, -0.0011482640043043793, -0.33630150048571494, 0.20993905185198877, -0.07973752161261953, 0.01713297369056768, 0.1553305407397707, -0.26004196813842, 0.012965300292202461, 0.2243712034173466, 0.26958514153188845, -0.24949428026737117, -0.07795862078310971, -0.15425333754007464, 0.13597199276130492, 0.04647286494649167, 0.004139764875898393, 0.12877617374486286, 0.27196207296290453, 0.2621638978883779, 0.23971137298792072, -0.21631164584142054, -0.2618793488613532, -0.06418112074205154, 0.20962586837545308, 0.3215950267564874, 0.1220445600454326, 0.2535035317241265, 0.36140137947585543, -0.30628491082384, 0.3331650494432805, 0.13390517145392436, -0.12651961334025597, -0.27252559168273127, -0.10490530807308687, -0.22862449414905842, 0.34165535748543924, -0.135803303458569, 0.12631795166867943, -0.21400999844966664, 0.16673611994189597], [0.039138029718678836, 0.04940749034477028, -0.04037909479995149, -0.08578574480598097, -0.24847994633025122, -0.17638180265496206, 0.031415478682805385, 0.16133615308758278, -0.290546958106287, -0.1815988464353823, 0.035069522370290054, 0.322984111475387, -0.05484624360488808, -0.20803784857293223, 0.31111428805279995, -0.3360123251112854, 0.2990940761424924, -0.19731252222184478, 0.19462666152171854, -0.2497811621292178, -0.06527854692619388, 0.002804713364847892, -0.06934050294906632, -0.1459594645025535, -0.05625834342414658, 0.28397661076964287, 0.03653231825305214, -0.21094918615352326, 0.16316616758687713, -0.025393294086102653, -0.16257765969563587, -0.344106841219718, -0.0022842867342414714, -0.14200697132731332, -0.3367933437792056, -0.0377161395143766, -0.09341110647315758, 0.1080518661878474, 0.10569109290248312, 0.3371096698397232, 0.27983017726596854, -0.05068413529715552, -0.24693134711705847, -0.18659872507031372, -0.1303145731304548, 0.025225301871764843, 0.34105957780585267, -0.20658275784943544, -0.14743217013045953, 0.09664798971028203], [0.14528945181951264, -0.3188042473435677, 0.29328116301090196, 0.07426280244897657, 0.30191513942525994, 0.1810925147525446, 0.0374913912351093, -0.022823292537604355, -0.08190644452976702, -0.2467032511896423, -0.32598144565504417, -0.03281183616801786, 0.10645749188535512, 0.14933005188671883, -0.16017734441261988, -0.209246261713505, -0.13234178387959816, 0.27005058277600985, 0.22076431355082624, 0.2835304956245612, 0.21413162853637976, 0.20946947187226433, 0.3276297837243332, -0.1807231950153743, -0.12818862933663644, -0.09744497395104801, -0.2922247946777603, -0.3042266146428796, -0.32996174898160724, 0.07341965996563463, -0.04322115965405433, 0.18617589574314636, 0.19403966808060158, 0.0324336972559707, -0.1785227414511854, -0.23229136612574974, -0.15969969569814058, 0.07022816756620784, -0.2761002095008667, 0.2629837860888723, 0.23513222861676158, -0.028405317058152923, -0.2820538470332174, 0.21242646209925828, -0.22623073715263786, -0.21506519922030737, -0.21490576565332692, -0.11457739206678515, 0.165384156710716, 0.15599523949356947], [0.09609383211269788, -0.23377125119712008, 0.26651057741601336, -0.3162218905676118, 0.3658127159994199, 0.1444194289184143, 0.23915112500453575, 0.3182792618953983, 0.32865423864717314, 0.17891627233757815, 0.38241261299283225, 0.18638942765451566, -0.31391677721337147, 0.29612225595396646, -0.16887594120383825, -0.10220408392043473, -0.10558818416912219, 0.06657510953564892, -0.3364582239315197, 0.24113939025127698, -0.20756664613082682, 0.3728341440188841, -0.07012498333346505, -0.32023297219684194, 0.059492635048459475, 0.07598283326621683, -0.034068021174717154, -0.32558560796014996, 0.05955496886821558, 0.32040057418440254, -0.13101090396198517, 0.10491113373024556, 0.28426068795857323, -0.15000063521951093, -0.08862024214138056, -0.23331644434148188, 0.2842306227915362, -0.20343616220463578, -0.2504289663920495, 0.040028423480087796, 0.16213761853312075, -0.24600952266386464, -0.22679317809636337, 0.10665566417644842, -0.08654934076794774, -0.11202468859533184, 0.31265268913465477, 0.274542230307927, -0.3339354434510725, 0.2772929370148931], [0.31502633623434506, 0.000514024034655576, 0.31421399995837174, 0.2806566736107401, -0.2775236121836287, 0.24625675441182215, -0.26006327918400085, 0.19503620286947193, 0.0076264275779078326, 0.3285536444431383, -0.3218883930320998, 0.3133896614525525, 0.10447078257947681, 0.16685173656436536, -0.06617952934506566, 0.2321795751660684, 0.12403989989519908, 0.2958898509577835, 0.05464579831157755, 0.22367524982134634, -0.26272478334639005, -0.189285353956211, 0.3417221420619858, 0.22652330293402337, 0.02206237891482844, 0.17920135626172679, 0.12827165188461556, -0.32372133884679305, -0.23620527815898598, -0.15477075247859493, -0.11629107688675987, -0.2889998003325859, -0.3294195249665828, -0.3210772331624444, 0.06375070416532927, 0.06434365288590611, 0.012781193274040557, -0.27880938332870847, -0.05696504876399745, -0.03762354230224369, -0.29520697788898004, 0.14352848525718764, -0.1131231405914606, -0.24484211731081534, 0.24776467342011815, 0.3056129007869271, -0.1077965533400718, 0.015713224822817277, 0.15844779220014077, 0.153529608303948], [0.16224542921429913, 0.23575013095477085, 0.22123187373877756, 0.07065006268832495, 0.17622821736255354, -0.022114351534368734, 0.2955941863760977, 0.24181718510241176, -0.09763831820613629, -0.16749379480749846, 0.185786527939693, -0.018693647326697774, -0.11848060155826624, 0.16956579594694746, -0.19722522191717437, 0.13428040142998512, -0.019222040931475056, 0.2145385915294916, -0.22194106071967581, -0.2393056245734507, 0.00473503265372186, -0.15705655744810437, -0.022422260815127368, -0.007322702520832849, 0.17188175902656394, -0.04768122276587987, 0.14278709973603212, -0.2698071808618493, -0.30404775696442565, 0.14171886008625595, 0.27760363571599733, 0.26592571251044883, -0.05858932132741354, -0.06535777351399778, -0.16614183179883865, 0.25385364764798457, 0.2568825149923897, 0.06753352062839292, 0.12732476704053605, -0.18277250895752137, 0.2733786364749064, 0.2562507712395487, -0.3705421540768842, -0.30121398325943144, -0.23406709651142493, -0.10023878651861404, 0.28367439685363766, -0.028579386036682784, -0.02451160097798383, -0.0852576044101232], [-0.05589894388505705, -0.3105255351205961, 0.11853492265078645, 0.21742121188324298, 0.008445602987756082, 0.07154521649557544, 0.21647508770499801, 0.3121630744180342, -0.08737616805703934, 0.21430359016866032, 0.03236330084322229, -0.24596126569845805, -0.10505057909331814, 0.22848603848017798, -0.02338489559549864, 0.08083597174413884, -0.18732824473098264, -0.09602119482037932, -0.03420075214154421, 0.18278566873146848, 0.22924630576519994, -0.2941861268677604, 0.1423375527693664, -0.24527860285584552, 0.25273486944485135, 0.30014802626511317, -0.12173832820799853, 0.307889438402267, -0.09280707097329924, 0.3422656052165577, 0.00024170700220793581, -0.27753261054727174, -0.0505073029272532, -0.0021465008630468553, -0.10918556883166478, -0.19690412451741057, 0.07491450092469006, 0.03197392858080549, -0.1136278210689398, 0.12566584103695597, -0.1950183752782491, -0.24550817741427092, -0.3070799148879467, 0.16668419371017237, -0.284973966440708, -0.19624983552858094, -0.10442859708171094, 0.07159054828121915, -0.277112859790348, 0.14523773598023437]], "biases": [[0.023054504191348715, -0.022135623410704627, -0.011753574494221248, 0.005785364266404969, -0.041636535791328234, 0.019908393711554194, 0.00930826281896446, 0.020335451394145977, -0.0018583939143637358, -0.007356186280611164, -0.04290572421935592, 0.0019740981147584793, 0.007246791020443317, 0.0033134573207694662, 0.013382338685522938, 0.012731437106430966, 0.027860213083936394, 0.0005527438527998005, -0.006622203867511121, 0.01199294576846796, 0.02731825446432718, -0.032074914363628415, 0.013241098878035058, 0.009345741804190066, -0.01908882473019378, -0.04072157495891232, -0.015008107519971295, 0.007896500189917104, 0.036770766186449505, 0.01724738086125749, -0.03121571722311531, -0.029167259282823908, -0.018461213827253978, -0.027013266491277804, 0.01658978426974068, -0.017682616554778957, -0.014385052339232268, 0.03188572388412062, 0.0014361132026139008, -0.024247025971567873, 0.015502584972126152, 0.008239772766389727, 0.026791955413245336, -0.007350973499859347, 0.0035389593666419095, 0.012522598989341908, -0.013627501465507638, 0.014578264054884731, -0.005350694914741562, 0.0021339778972828097]]}, {"units": 50, "activation": "leaky_relu", "weights": [[-0.2948271178396274, -0.13600037451629848, -0.3798909068992903, 0.04591396400886273, -0.11533944746770435, 0.3016859572625448, 0.2536132960876972, -0.17445133492179324, -0.3510558322085082, 0.11350882116584703, -0.23386076634531833, 0.3171837655314619, 0.16680153452537044, 0.03561174329474569, -0.005460473708166487, 0.1428300119604029, 0.08607252278801447, 0.07972894670769311, -0.379133553375451, -0.07653294702394774, 0.1250756813369631, -0.3513965504787582, -0.12068426269029536, 0.1803427060635363, -0.3322675458476385, -0.16347245514888786, -0.034762571270299227, -0.16565621326990923, -0.17646286292869354, -0.22538806903391168, 0.1914199168801918, -0.08668215830227362, 0.2918223094578667, -0.058692616419512726, 0.05642737088931501, -0.04376348227684259, 0.21820933582804194, 0.29707171285977074, -0.12211668758047278, -0.21100540943568002, -0.07473323811720098, -0.13974125246900262, 0.16828963431622465, 0.017874538247079394, 0.34843567771208506, -0.01913421139751549, -0.11006293925315569, -0.30181309183226934, -0.19038931410936177, 0.17923877376955466], [0.34843301125690185, -0.13552684251718136, 0.021243282028985337, 0.2911273922507771, 0.19006191889592933, -0.21384345800364646, -0.12425064486268853, -0.26278193327463734, 0.13240213941933152, -0.009701749809948196, 0.043637730096390284, -0.25028401904771386, -0.16165489770512018, 0.11521292163519044, -0.14404339215601614, -0.19244027733200827, -0.2886337632553788, 0.2184464736594228, -0.16896354072904474, -0.06454341700658632, 0.09557466618848681, 0.3533773318908795, 0.2974348568813455, -0.1749375138812046, -0.010155601118544695, -0.27323846740176533, -0.1827137307461179, -0.030372137317505016, 0.23268363787867977, -0.31639906048085803, -0.03134156668296887, 0.28184639973981873, 0.24335330236300665, 0.11281778373746032, 0.14296147317104227, -0.08068739357928638, -0.1628259498938303, -0.034854103788736907, -0.17954711733780998, -0.27134950280660963, -0.111964763285211, 0.14586449388981204, -0.09515176872403758, 0.21761284075152737, -0.34120480423559785, 0.09045893499731943, 0.08008066740696992, 0.10967095030584331, -0.2781439894216907, 0.23374048320603918], [-0.058301031737526016, -0.1927999090743576, 0.27660324061857117, 0.0949434571454039, -0.03783298156473395, -0.26944234930349753, -0.006386877282479851, 0.3114836887278496, 0.18312070204380182, 0.3058462990867808, -0.08233274512025489, -0.2014250868881433, -0.05747562939119923, 0.2187072059972677, -0.2823492203348339, -0.09578789521414126, 0.31139809153378073, -0.23649595629254885, 0.2974107108214757, -0.08040752042110014, 0.0006137138222047771, -0.09412923278463502, 0.06817565234013873, 0.3313600820134585, 0.07618975223504261, 0.1929528800908406, -0.014247682391178018, 0.16579800936680164, 0.2646344898474662, -0.021151981162673313, 0.12514297481449152, 0.01747062686058127, 0.09479099525427542, -0.14674124361200447, -0.07438765317667298, 0.3158390318639479, 0.0020780895723190858, -0.26217805826293344, -0.2750743018591478, 0.23740820068609994, -0.28262433170100143, 0.19153185620159674, 0.16530088351716066, -0.10925801571681519, 0.14621864913757662, 0.20537123766658036, 0.2834746891436662, -0.21814814377996028, 0.3604329891126217, 0.264125297928652], [0.13594624708991287, 0.1787964041092235, -0.03664786394104529, -0.0554815975316445, 0.2516005296682626, -0.0063722462482437665, 0.2015132303617008, 0.29473453220210244, 0.03872617135560034, -0.2796310243778592, 0.07518596603443607, 0.24728453131065684, -0.21429414487073642, -0.0014449488237407487, -0.1346441933454974, -0.32675111383064753, -0.02657437496711742, -0.17670987281166176, -0.1596267088490107, -0.16604039705144288, -0.132584084705884, 0.25466723462810686, -0.26107040719025626, -0.11108223626587649, -0.23261513404665654, -0.2025006434761198, 0.17635195305967233, 0.1655700633079408, 0.023592701428685282, -0.3020045480205507, -0.14374440546473843, 0.03038433505461285, 0.10428851351441476, 0.003916117522357576, -0.11176707305433914, -0.2964591585962231, -0.17042574851872935, 0.1552465420952041, -0.3305514833670943, -0.10270737313069338, -0.15879841890502777, -0.09816544814436647, 0.10123649142286235, 0.17924109263538554, -0.06546082211038506, -0.24632783646266077, -0.27064855182547887, -0.331208011163576, -0.07291301361240574, 0.07403380622760916], [-0.16809571922743075, -0.22529007126394457, 0.12053821131388044, -0.10500903608232652, -0.1861801612598629, 0.278270106750686, -0.23551973764368908, 0.02513717853701807, 0.14002889705827581, 0.08972571193470004, -0.319474165586714, -0.250664984692427, 0.3565138372799575, 0.23192604091301172, -0.13726182374817086, 0.3549379077913759, -0.06586892769532089, -0.027089878902990732, 0.2736182583311272, 0.03649021550632311, -0.07788359284153826, 0.18448807437542963, -0.263605930219056, -0.28319228724636986, -0.002840085574411081, -0.043419848122400725, 0.23620933417032455, -0.0606000091393805, -0.15582985224620027, 0.05589021593544472, 0.29379147235829045, 0.18743555615938642, 0.16013714212662003, 0.21784582077886128, -0.31364164111878307, -0.3926506699162461, 0.14331986065610622, -0.26798044819025946, -0.06192169102839532, -0.3341231129417623, 0.34106918756518634, 0.39453319176116325, -0.1605745862151178, -0.037420121990233764, -0.06548515910493322, 0.3010073878418519, -0.1272995030247263, 0.147326037145764, -0.0586174318006804, 0.2597066291708652], [0.14375889704667755, 0.048293117855976606, -0.13031098571940564, 0.024580282531974945, -0.30442774852954063, 0.17923935629950918, 0.2716689889814517, -0.014541911745375719, -0.15257694651714807, -0.3126300405616932, 0.2815444666322097, 0.33459489866446973, -0.25173406783974805, -0.1673698323301604, -0.30448562289194486, 0.19338948427070562, 0.015274132741507537, -0.3294978135134455, -0.04740906131721834, 0.3202689304517647, -0.30911959135149236, 0.24708602187354967, 0.2844278580385989, 0.24450396073967215, 0.20809671300659047, 0.28377999010166094, -0.3194089139203541, -0.24346449230921255, 0.2616285740681172, -0.0869142290430087, 0.02875478853377403, 0.12389876564654076, 0.2523420828016645, -0.277783537652919, 0.23871705395183646, 0.2316645625892828, -0.03620258507303508, 0.2735873930846321, -0.2566857363151097, 0.13789746862263452, -0.13514579306292007, -0.32746007313893555, -0.13805751864242127, -0.10250530956235929, 0.1298451163255524, 0.21860838527518361, 0.20920891939909012, -0.1889653054992544, 0.33947149763906703, -0.009250065435317771], [-0.27204062994218114, 0.07547745057241012, 0.1212022091898292, 0.0019811499509013227, 0.05294816588019183, -0.10156003890901096, 0.29895918230419466, 0.03701720611214978, 0.2600536501755527, 0.1945129073621306, 0.22823883129424585, -0.2392119892289673, 0.22601865102803653, -0.13408999402234492, 0.2156823799894263, 0.19319715616771704, -0.20737514657833878, 0.3200346392478255, -0.32575675934539977, -0.09628948403018793, 0.22487631470715327, -0.28804836532204964, 0.34472495276051174, 0.08074414559477862, 0.09175847237998648, 0.17118516526803404, 0.10210023235694822, 0.16086610121191172, 0.13052444236101612, -0.017917986410035898, 0.02559501593716904, -0.12289178401136869, 0.022273615959592853, -0.0033007122874212902, -0.1116417465770415, 0.14909253007189163, -0.04731533906898053, 0.09846875314301544, 0.18354566858710897, 0.2626287508968838, -0.27586870333063074, -0.08257572337915578, -0.12531960798562136, -0.23313001387597637, -0.1413823479706009, 0.07133584507726058, 0.2799334009430374, 0.10523989492827455, -0.340562124549629, 0.14719160757607722], [-0.2868216149978209, -0.12227869055719172, -0.17456510249218962, 0.022703397782022558, -0.30474199113095485, 0.2854473419974021, 0.054928078716000854, 0.14966659751532174, -0.2928842053373303, -0.1486747122970637, -0.24470729882887474, -0.16261156400864427, -0.18082227046880614, -0.3421356501329146, 0.12593317146929817, 0.26249299271631665, 0.04896730246076394, 0.31557341714265974, -0.28591766043434946, 0.307443722442041, -0.31135303278125326, 0.06113765356441957, 0.20507439170697625, -0.2686665629504826, 0.09417297999946199, 0.02317044088905345, 0.3434436643032484, -0.2456016269229204, -0.024453311628094998, -0.11223798919200548, 0.3262657946040236, -0.17709226470262593, -0.3014752263418373, 0.04312118116748664, 0.02673968510502974, -0.099434384220939, 0.1859299953525287, 0.2834332193555053, 0.2951863734890438, -0.24076619919697181, -0.09414787806672552, 0.02982896516648562, 0.32829017332177035, 0.028453703207741373, -0.1405941786784112, 0.2478217515053957, -0.28501456866502767, -0.15496692939340564, -0.1793699372076936, -0.29048566490233446], [-0.04432589883323284, -0.33544913928901743, 0.07730259054309635, 0.28795257136580876, -0.27356414817936675, -0.00270569668054515, 0.14384375759721332, 0.10669408182021306, -0.1215626065757944, -0.19707648454836532, 0.13945063190484774, 0.3362792104690585, -0.13050108289345969, 0.20072407807997036, 0.29672452446450703, -0.03858168123514479, 0.12480870892213039, -0.0772577852964054, 0.12828231850966912, -0.08634205259215669, 0.2949659406431951, 0.25039420088298875, -0.2154937989947224, -0.04801077191417697, 0.09980969077315807, -0.04323097724046831, 0.28448329296657143, -0.032886643680288784, -0.27264834841845015, -0.048906056692498895, 0.19500059499329384, -0.27716733920306114, -0.248694235994906, -0.07224486090958, 0.18682828327847456, -0.12879637184877216, 0.34089604793660166, -0.03476519583926366, 0.25682725434737735, 0.19915032143799916, 0.23506722138289704, 0.20273171084204486, 0.20869005611668895, -0.17121739002874542, -0.15866281118392236, 0.040454106155190565, 0.09818357025419297, -0.3283157826503615, -0.034063605425428384, -0.017935939114525852], [0.08305587585658247, 0.21357091431499628, 0.13953330181806897, -0.05952576612269239, -0.2534873943077407, 0.10798719708144085, 0.1872553254450898, -0.29264656090117414, -0.034877897610299136, 0.3084321529426905, -0.06062505538029872, 0.03999585421456714, -0.2638523733159362, 0.13546777578115043, -0.12397201194154651, -0.14660159293654082, 0.17069009090482673, -0.18909921654435302, 0.20035805690788291, -0.28856594795802337, -0.30166903866174677, 0.29459114126916286, 0.10468721709018906, -0.2374830942886064, -0.30263484767307663, -0.25686823061563896, 0.24428910632064257, 0.15794158435958575, 0.25816718935890914, -0.02686991775551165, -0.3124902107414782, 0.07898880447542868, 