{"layers": [{"units": 100, "activation": "sigmoid", "weights": [[-0.16270999182305526, -0.1299991146297144, -0.1975696032387393, 0.1410852828275615, -0.19518973555575533, 0.05298317873437155, 0.1510591142544876, -0.09836992022194702, -0.1841270762833533, -0.07881349807988543, 0.20697413170634257, -0.20233120194205473, 0.051743203849836446, -0.1518809431268942, 0.04479528206903926, 0.054658718947841516, -0.17667592027554785, -0.055134204429087424, -0.019568392378342542, -0.05362240430357522, 0.17076985251890917, -0.1514312366688928, 0.028799886805618978, -0.07785813273742465, -0.026379807664270997, 0.18552830798407774, 0.21785817980407418, 0.17497924396239722, 0.14972890635810698, 0.13955893072627218, 0.14277739560429556, 0.15404976518353086, 0.1413328868953333, -0.05101351170635157, 0.1898233959481739, 0.04412422490914327, 0.03995318686241906, 0.03847639596490353, -0.1157645080146946, 0.17763514113488396, 0.18319093199751554, -0.2188699484035484, 0.20180514264865412, 0.11031990552592899, 0.15372277308020404, -0.05743291060610689, -0.0741549026827436, -0.039175752574765466, -0.0511043247512925, -0.19940089774060454, 0.17869484744969696, -0.11326441867979899, 0.07759477674990733, 0.06728841305125474, 0.15643570704016518, -0.03225708900852159, 0.06727314982065144, -0.12247172914566574, 0.19687858448097062, -0.09295084480014178, -0.10916371215007031, 0.1611570050596373, 0.01412866874954088, -0.010141427221443473, -0.1723683937831335, 0.1927699442790709, 0.10402810442858895, 0.10373585074412232, 0.049985885967176506, -0.10393741934045567, -0.002895280378165539, -0.20955581860032138, 0.09315325661615481, 0.07386121273517915, -0.007710628163845809, -0.08865852829310177, -0.005870488017561618, -0.07291880629092876, 0.029338974893067825, -0.17331405743405046, -0.04008756775707533, -0.03596832858614658, 0.09416312081463872, 0.14940937124467377, -0.013123533242346674, 0.15277465369628657, -0.05156057031302532, 0.09081886859676727, -0.06294708656931829, 0.14792280305620292, -0.11714334624847546, 0.017817276144432397, 0.041756032982760094, 0.09897914115035553, -0.1531097311978855, -0.03735133920813297, 0.06565376783783364, 0.14377105957156341, 0.08871855046908693, -0.0003497444348508767], [0.23609670884952516, 0.13097166656095335, -0.1267137043678283, 0.038200105047873814, 0.09513977340889608, 0.11852616841941485, 0.14684082666073392, 0.041297356739919175, 0.011590545624392847, 0.1703925475730015, 0.08181196523512539, -0.14375333937920284, 0.0007262089839313848, 0.007311143011234285, 0.26610485609273954, 0.12717686720263716, 0.1688740001143178, -0.15031497540276448, -0.039463309715542454, -0.1872101503621601, 0.11037260691877897, -0.08687128001656788, 0.27386551861769903, 0.033821292195731115, 0.06675608203129531, -0.2577222935272255, 0.051069710340568994, 0.07362645591640495, 0.04024007471376083, 0.13898066477604865, 0.09702531082621585, -0.12463464844805093, 0.012052677184078408, -0.11220546848767611, 0.2267990440745032, -0.017974758152448898, 0.0007560396646226156, 0.07682664335208186, -0.08325040712005474, 0.14559306106117254, 0.06273768573777595, 0.22468933324946078, 0.11254745687654535, -0.09984878165439864, -0.14900714218711172, 0.24201809007565545, 0.21611900211930568, 0.12476655291148721, -0.20233075320856192, -0.10688638837702574, -0.19327568485553584, -0.2515650379498047, -0.24263955935248388, -0.0675903394143474, -0.007258385474370155, 0.010657676105903678, 0.10337101248018155, 0.14274456881630193, 0.11802617383867711, -0.2571068819615067, -0.06767325619864857, -0.013664821915474731, 0.08538368633472236, 0.07643956641424804, -0.0693361984114043, 0.08028268286688665, -0.10573641436624538, -0.016599095391016134, 0.08375057485312049, 0.027653426614664967, -0.14523987699669114, -0.10000286963305341, 0.06439905812613872, -0.0716620809048735, -0.22116167075552817, 0.11425393678423208, 0.1052144139294326, -0.07110715967721208, 0.2366694372381305, -0.02207485274509563, 0.2002625916629014, -0.07476924638639518, -0.1175723837455765, 0.08240823835351646, 0.007788441365054267, -0.20792661684559466, 0.06800243032639483, 0.19122234761163542, 0.07170125355672875, -0.005775159267313776, 0.009383629416036692, 0.20386766717047075, -0.0011419754817432882, 0.038215045489592564, -0.13006913262006037, 0.24587176733916066, -0.27015462039128796, -0.06256604563394512, -0.14003279038904345, -0.2286841966230562], [0.1275490969027166, -0.05866217131710903, 0.16162183070339628, 0.08655910132532467, 0.038808366710459286, -0.015327374105278763, 0.18456206601501043, 0.20734371691734774, 0.01130761479445034, 0.18647145366060874, 0.022856041448831396, -0.14474591042297313, -0.18399729577367666, 0.0218959705986497, 0.22868821798082667, -0.07556104198133066, 0.1348017426812384, -0.17437319378782193, -0.15175199190829186, 0.06450785573241198, 0.0007815914199811321, 0.1942134613576041, 0.06824477991759509, 0.04741988262759779, 0.1887953665259556, -0.1784628219828097, 0.027362898115005096, -0.11747398711895532, -0.08774783303211685, -0.1426211968780268, -0.04176848968745642, -0.08027554211092092, 0.03977324393952419, 0.005751171892691995, 0.16986966027755984, 0.05454076334294511, 0.019267876930088315, -0.17359212704194396, 0.1738156729304629, 0.21337773318521935, -0.07436857083806488, 0.020861627227576056, 0.0061993102754701, 0.09127031774129282, -0.10425726195510193, 0.23117680395995677, 0.08980287921813554, -0.19389894181613418, -0.11154899010079704, -0.026899696337441575, -0.045499659154323545, 0.09354479277148296, -0.21229900393858392, -0.044672559890566316, -0.0403399764892509, 0.1160087397446234, 0.0915978974727581, 0.1765125267139531, 0.1387291639295798, 0.11773554785327077, -0.21898894225356175, 0.23250924796900302, 0.03871669795623155, 0.24558829087863215, -0.02835843998288064, 0.01964549530981324, -0.04493057358198044, 0.1194350504364512, -0.09797985886865439, -0.22283195847647005, -0.22323740691713642, -0.13040373273803357, -0.03220809318767795, -0.057578220905624866, 0.05433364250948035, 0.24778051199336404, -0.15118862226539234, 0.15892165892464144, 0.2227695369897123, -0.05384212371411681, 0.10907923585643887, 0.10637141903614668, 0.11246453354509658, -0.08106883405898203, -0.14834667016656536, 0.07147421961639583, -0.19855588763620527, -0.058692052570476314, -0.18822078178770943, -0.013994543964631154, 0.10138202652085256, 0.07503390355854235, 0.23650940566675177, -0.163582302077623, 0.20176104769372893, 0.11541354674615746, -0.06027487565787614, -0.0632535290006444, 0.03156623516067648, -0.25848898080242977], [0.12955332591672553, 0.09189587001477803, 0.24978205938961534, -0.1552775143341519, -0.11286711134426453, 0.04365559865627919, -0.14428776677671667, 0.26573657748879115, -0.012606505178886753, 0.1810510853332066, 0.004606793164821518, -0.09522728371012147, 0.07615546613794759, 0.06781785001568942, 0.030765111925260904, 0.23609859133922761, 0.11146818580223188, -0.23241695096169607, -0.20669788301176928, -0.11217040096666894, 0.25889356835884747, -0.012540039813521864, 0.2421121056231484, -0.12401463841470153, -0.06001691852677503, -0.0641335038971435, -0.2370654514838632, 0.15659972082616072, 0.007170770647063268, -0.021601035908677468, -0.016318770755015602, 0.06855088116230514, 0.15221145923401652, -0.02080300785112658, 0.17268521552390886, -0.018993010195878093, -0.1468817981348851, -0.04486862971458336, 0.2203496458983481, 0.13437100463668733, -0.0649484530062087, 0.04691443645149689, 0.14799847218127782, -0.13097190859643978, 0.05597299003750097, 0.17184410904118158, 0.13715727069903472, 0.11839171460684585, -0.0796523092572419, 0.03362864043509913, -0.009155354566532258, -0.1153925807711586, -0.2610423826381872, 0.03219779468433963, -0.026074253900565503, -0.004439567178697619, 0.08989785905753972, 0.22556485002891524, -0.17388570856687244, 0.13984695940237168, 0.12251908362569609, 0.2588018730881468, -0.08373805052483259, 0.19567463295052245, 0.17861756924277744, 0.042436498934250326, 0.2309217036168582, -0.18316700129300886, 0.20324276933530439, -0.09059525606943075, -0.14238719686862075, 0.18099579295789775, 0.14037173935020136, 0.043642461313622295, -0.19318439567766263, 0.12243910714110719, 0.05312975572931046, 0.1957808221959687, 0.19809201044424657, 0.013844972534816648, -0.09503117527012461, -0.22528259583437896, 0.07564712456245429, -0.15408810416489965, -0.09401709420939133, -0.10662431130408147, -0.10280749870976645, -0.0036211301018927128, -0.2537513664204599, 0.10566323843035326, -0.15419213180297686, -0.07682395510440146, -0.10388191394438345, -0.06811640968889587, 0.20765088690921912, 0.19682344358729092, -0.013397945592747613, 0.22006347535812582, 0.09549794034649199, -0.05823555316874129], [0.18936459285320273, 0.2176665739980587, 0.2745878702046385, -0.17584578678336224, -0.2173825013312016, 0.19728130322683401, 0.24074303326692748, 0.1506317647740664, 0.241281589514937, 0.035767252258289056, 0.07821845024119742, -0.04864771208247913, -0.2643209563855502, 0.06002725737410962, 0.1569009746550504, -0.01583214833226935, 0.23603497666437412, -0.23974045666540175, 0.1345231306670148, -0.2378902943476283, -0.03827669237849092, -0.10594652938587638, -0.0403171151988153, -0.21317907899679553, -0.0713869507021863, -0.12532960147955907, -0.17622302990503194, 0.12100766328218045, -0.09543727129549469, 0.015003520340135908, -0.11597331159549738, -0.0383674211916245, -0.15608314195103737, 0.07566838110222543, -0.10644647161192214, 0.202701224483255, -0.082925984618361, -0.09374752458242501, 0.06024357217705447, 0.12425103607397332, 0.01693128891649174, -0.11700946563798653, 0.1577296748626016, 0.2207364005212422, -0.00471551089578181, -0.018702582635089345, 0.17398689114728544, -0.27460696722483724, -0.10433121597845067, 0.15745876686632876, -0.10412534399432873, 0.048144826402138005, -0.2552120106331507, -0.23641125313424513, 0.1940578378699683, -0.0807853261177958, 0.09404040048030703, 0.12923554724675765, 0.017107678540673944, 0.028924832480376653, -0.24701626176653324, 0.06732116886028616, -0.1409730944025295, -0.026082293347269303, 0.17836124456778613, 0.24887206535494313, 0.18713372775345427, -0.172209561126479, 0.052274835085843636, 0.10313772400069289, -0.17087444072696173, 0.25269702480117756, -0.034165499154528364, 0.08137897681679628, -0.07392744293694911, 0.14414145339354298, -0.24103582199518458, 0.2119911207136598, 0.20851849290432523, 0.13632788911203003, 0.1453480982552647, 0.12349953444985107, -0.12345760936323831, -0.2581831791114966, -0.12911221182660967, 0.02472174126415077, -0.022758767432563966, -0.04141647368936116, 0.09710100967707523, -0.004245520094832485, -0.26674563523068134, 0.11163354429704296, -0.1345907812594171, -0.20877369153421754, -0.023666400076745975, 0.1959078166349908, -0.270978193087109, 0.021169973656659704, 0.2116000996971297, -0.1552991286201573], [0.2660476569858508, 0.12101814531086036, -0.0873823145161667, -0.17894178657073917, 0.055478221701125416, 0.004797094707378634, 0.22744487736798852, 0.044535975794354116, 0.05658587630974902, 0.16621746136466567, 0.02189919354643182, 0.0064514207691317455, -0.03133061375838137, 0.0933199259881332, -0.14140610425903327, -0.04964773959732975, 0.19278154863457844, -0.0017146674004588046, -0.05891727982926946, -0.1257022965764844, 0.09817179549671314, 0.026104914780153664, 0.17707989722096235, 0.01017998862619315, 0.028736954586133862, -0.15213223573574466, -0.21767829040980963, 0.12110201040240128, 0.029655980381724553, -0.04958924844590414, -0.12027466999925687, -0.177073130112347, 0.16251272769135092, 0.017142143087220098, 0.2540099864840655, -0.06246933956755962, -0.14408608542428386, -0.16929774911324486, -0.11788259584060601, -0.153803476003747, -0.05819615606645338, 0.23993631623101266, 0.07376805212662108, 0.23960360102648073, -0.0011001452574474076, 0.06631115589180683, -0.12218129351616296, -0.03752108144362997, -0.24877793583609273, -0.08657931625034153, 0.07835051120104987, -0.17204230687548952, -0.15458111445857112, 0.10867611612864761, -0.07504725629551012, 0.0023281896272935583, -0.15770442175232138, -0.030929958459582838, 0.047541104433166934, 0.08905994209002216, -0.1564374611513441, -0.14491209084148893, -0.03907812066671875, -0.11420277089088654, 0.11653223331282754, -0.12273238340714408, -0.08888585004575306, -0.25370951795746577, -0.09674826804058885, -0.15665961565650552, -0.1126411688840132, 0.21482830182447918, 0.26070286270007587, 0.11967222911144355, 0.026721268020655588, -0.029387045233702013, -0.24567504508784418, 0.003762890735297087, -0.015169144851423417, 0.2217378531482277, -0.05717969889225398, 0.07365807547816172, 0.12576532901824844, -0.1143002481389116, 0.12813826056003527, 0.06179794664632225, 0.08735267465956663, -0.007230432037949331, 0.04570748739009661, 0.06330789124390274, 0.022651934381933976, -0.08664147434498556, -0.052416943128472906, -0.06625658082886414, 0.09377772919575597, 0.13114771418740434, 0.02353335219226369, 0.23908840903262335, 0.047538864705515244, -0.24772773927082925], [-0.025639289060495774, 0.15822990225347067, -0.09745916710713476, 0.007265341794983621, -0.025385665277904725, 0.23387003468153741, 0.016875924142879917, 0.2272034143341165, -0.05456418394833122, 0.0346360605926528, 0.016934204312800218, -0.22341141326814426, -0.09560643320469227, 0.15005650427177328, 0.09999098388341539, 0.19378144222802118, 0.18580190800738675, -0.1389318575233585, 0.03131376246563348, -0.14370317652545767, -0.06769698859166422, -0.1425639571834893, 0.13846578627852507, -0.026255885517785044, 0.2078857371311226, -0.19901034331955764, -0.02887501359287816, 0.13324238840867478, 0.01466116490358988, 0.12947905598044512, -0.04881305947911639, 0.1083659521597903, -0.03173818071100538, -0.03795579378597641, -0.14393175256828555, 0.055232773223948886, -0.09469218619977891, 0.02831718032107492, 0.03315524687674005, 0.22066110914822099, -0.055685869646517686, -0.01570510300344529, 0.12070873869832656, -0.15448998841511336, 0.16346990128113986, 0.22422397326286192, 0.1688476310771836, 0.07997394388516176, -0.1364946913527198, 0.2318468751992705, 0.18260886248150526, -0.10422020811150076, 0.14755892396560777, 0.024092034446536355, 0.22723790860407034, -0.10937370920703808, 0.21588021188229098, -0.0953760982272828, -0.1915058217885671, 0.11015733361138107, 0.11687139151052028, 0.0923113807283792, 0.01627942575004438, -0.11780784796253047, -0.010826078985602287, 0.18273165991100035, 0.22793353371477637, 0.1503793958198429, -0.03483155039565282, -0.17577312209079263, 0.1295574406929999, -0.0925120641453287, -0.10777696332588081, 0.15929821337704597, -0.19973735510355078, 0.1824868502140255, -0.18424535946936432, 0.1902893907285515, 0.09471499405754515, -0.14164683958648053, -0.14228126384694148, 0.11058282710284255, 0.1515904417620858, 0.17723959692191193, -0.0355167449956553, -0.11177611220257551, -0.057024846362992265, 0.10077023009659643, -0.0796840196969256, -0.11072259424714133, 0.08451020517789484, 0.1608567280399063, 0.08269275844089365, -0.20967164105491573, 0.13211961445951623, 0.1963288883740671, 0.17804536070639793, -0.17998060095943563, 0.1704123224586997, 0.055312901178692336], [-0.1260901476527439, 0.2703641577350367, 0.19707228981751618, -0.19432313906846838, 0.045321915750090605, 0.11890687603691859, -0.00026901810508790164, 0.04175551636499759, 0.19416101954100906, 0.035838232751621346, 0.09482967738514825, 0.02903442938176205, -0.0018149657217730742, -0.1266799813071235, 0.1332851082761851, -0.02411864628103466, -0.11930700819035513, -0.2172775700191896, -0.243053432584824, -0.0617950740921336, -0.036269801641418964, 0.03558700347004443, -0.1107296309121598, -0.07303298051578602, 0.2601001243184868, 0.00291580947493714, -0.0059259351369082384, 0.17730550868612868, -0.05824816951887365, -0.12010886098331548, -0.10687544548213498, -0.13905235842570077, 0.22070163479577917, -0.247866336752325, -0.054677286721379434, 0.15270066095738416, -0.03216111774204992, 0.1060619631826197, 0.14934576571938582, 0.09011584063780156, 0.1283779818506186, -0.09537914958262071, 0.13013449977738079, -0.10651892104967646, -0.0036190702069669694, -0.018094243144102434, 0.042455862853578386, 0.0809683967238971, -0.2652631579574467, -0.04522174221319497, -0.04390927480751252, -0.017128388574669057, -0.17688525426805632, -0.06726946329101216, -0.1274777333792894, 0.21095266749539643, -0.11613157280955151, 0.1574367863274948, -0.06407461913251102, -0.2289380509384572, 0.12209320099527479, 0.15692780411786236, -0.13246652203769305, 0.14590720426634646, 0.23288078407787194, -0.14722468064528232, 0.1934870558312719, -0.21092668782432, 0.1262814349333974, -0.03480788276715014, -0.08646442298844743, -0.10097852373337636, -0.01481591537591551, 0.08892485030591535, 0.09541253791139825, 0.18699429683173716, -0.037138582978396874, -0.05196363222985015, 0.006997875039128863, 0.2679846198772051, 0.013774210308281078, -0.03819043288871538, -0.2036566502154627, -0.025226773837558846, 0.0792970244827258, -0.11936244480082146, -0.19573776915998192, 0.16841985222860043, -0.05720366674620555, 0.06254472888420601, -0.25771367094652026, -0.09887408237480877, 0.2521314083917956, -0.12986643707408044, 0.241167030480048, -0.14096563457884423, -0.1794916261531718, 0.17734530152645336, 0.06560851630643717, 0.11280835245463461], [0.12189555966903377, 0.2550798374222132, -0.014170631455691331, 0.13893192872726548, -0.01888325174112121, 0.017243005021868412, -0.11404658133557946, 0.21262331050237085, 0.2138574744146135, 0.16171900046659016, -0.15620058238458373, 0.005160222048528098, -0.06003672481668458, 0.24932750471206194, -0.0031038588925716257, 0.2516963511807615, 0.03532080911792052, 0.1502351237878818, -0.034133012546630905, -0.06517884816318095, -0.06393503627922421, -0.025531398536188625, 0.19294645209699038, -0.10598586742835527, 0.0825526479610497, -0.250968509877016, -0.12086494713398306, 0.055606047284504835, -0.0006683420957619043, -0.018802409259366378, -0.19389628468086126, -0.23110768378025193, 0.03342208125167131, -0.01776503243291958, 0.26439384318277975, 0.22675524635779287, -0.23368941883539018, -0.007405435973971078, 0.011241366643622722, 0.1192144026307975, 0.18302197825497507, 0.15711241910145002, -0.1525762048416386, 0.1714339536872979, 0.16445447659356358, 0.14446314904256732, 0.018238488218258176, -0.09393411564703447, -0.08710755754092543, 0.17255443390423048, -0.19664947557257217, -0.27139427634424435, -0.0001315137055463506, -0.017446035273112486, -0.08246946072985353, 0.2488755308283076, 0.05389246751031632, 0.0634260261609902, -0.27516484436725963, -0.2314672546513396, -0.13169456139172497, 0.032802151654593346, -0.2301020697797088, 0.13930883097304134, -0.1074532340322954, 0.08576144963328818, 0.14264112097008214, 0.007239295143384601, -0.05053044061552131, -0.06145177335240418, 0.03405009466945402, -0.03326059773421805, 0.20019363263808143, -0.04360931340323872, -0.18736225328044823, 0.22523513529999545, -0.057590327922418166, 0.024027397013607652, -0.0017081129965567622, 0.20508376596333033, 0.2770079338153272, -0.015339888944980081, -0.08708210250376076, -0.206996054565298, -0.2059862634489853, 0.11236790962676692, -0.1675166069461218, 0.1288665465703455, -0.21269666179271696, 0.07615933989720841, -0.14741352252691076, 0.14193693074413183, 0.011575576428719698, -0.21176364490137084, -0.030388750033810186, 0.06739534986388857, 0.062017471427565835, 0.16686984670502894, -0.03287910097529961, -0.09580041703830827], [0.08866577532862939, -0.03988074168249163, 0.10907021860146242, -0.19325604057912057, 0.025416949353560547, -0.1053758477651726, 0.2225976842973551, 0.024329913047842967, -0.036089908775144244, 0.10710599158637785, 0.06912357645875379, -0.043001230127973473, 0.1746127546641812, 0.227595676558975, -0.05129207339413212, 0.1166267340369253, 0.20084106095929327, -0.02950531892903041, 0.08897866224031478, -0.1554185459932905, 0.20485992778713905, 0.04991202162845643, -0.07176673753486833, 0.1298585036764714, -0.04357608120746692, -0.1152267840681997, 0.07608648966889787, 0.009855982513366463, 0.18204183067054636, -0.08593065881037505, -0.2010486205949148, -0.18637976222408226, 0.17234388705033962, 0.14882012897631425, 0.09944732378542763, 0.23228919329444664, -0.12507259345189364, 0.20938834839229079, 0.22907427447785583, 0.081126771359425, -0.1304364017843789, -0.048660417309397436, -0.0011349500082530445, 0.03167238182944829, 0.19129700846242698, 0.162859882224488, -0.005558924629120552, -0.12323583785074696, 0.014496301418397896, 0.09921367490577233, -0.1112298772626708, -0.030750124101240523, 0.1102236264675936, -0.21369405532026542, 0.07703784316309088, 0.21053744012042802, 0.04420422653600931, -0.012931020701919586, 0.1693613501278441, -0.23545604857567576, 0.03393781411957887, 0.10140559615480137, -0.1280288668047247, 0.16224189573245973, 0.1552407064921813, 0.08334190980239847, 0.1536973415382376, -0.011158443048889206, -0.18166475283786748, -0.146493453173972, -0.07519362837276335, 0.10425108356136609, 0.07684578127512685, 0.1502750985327029, -0.23136271683297632, 0.07294898679151028, -0.10713913053297656, 0.16809235105635836, 0.06994420681179396, 0.19104937230573416, -0.140695401057883, 0.14501398176936067, -0.21483618658852757, 0.1617256553205154, -0.13012478370255284, -0.19481249388069757, -0.06837514209262195, 0.07634557191386325, -0.040186029304458394, 0.07506937878388124, 0.17683083296841196, 0.21956730210377964, 0.2037195769896974, 0.08132321317759804, -0.10451428113082604, 0.23104741826117703, -0.014668641858999538, -0.030777663937618247, 0.22130869259076505, -0.0010674528731378678], [-0.08137436121794676, -0.047583957229777395, 0.12089646569530418, 0.06876121883398216, -0.026165852060105143, 0.12891144906086893, -0.23059337666195093, 0.1537247979952944, -0.02139478334383595, -0.021553060943954473, 0.13241635996248802, 0.23497997310802543, -0.04380500969722799, -0.09383497645250287, -0.1579180230858494, -0.23647550165053777, -0.19170873971819885, 0.24979644337168622, -0.09942270766948438, 0.20409128146290292, -0.050072055772272014, 0.09117050139158299, 0.05364999893255551, 0.06521413682862064, -0.16627743388061433, -0.1231634831230216, 0.07914068438733408, -0.12359497880166968, 0.04600468554240739, 0.16569506430734618, 0.22823481287171993, 0.25024337226593835, -0.12679683474119297, 0.17617452596720887, 0.10404666060352577, -0.02591572541830886, 0.26745809030829026, -0.05535396338818317, -0.18976019682352724, 0.024970266717117922, -0.18615286698836694, 0.1483882335504871, -0.16731275532732168, 0.1470118749086969, 0.09796897854761034, -0.06593349341386061, -0.1906649575048352, 0.17423903692974302, 0.012794016130027504, 0.10259761252221113, 0.19436026392668665, -0.10897559739759087, -0.13067175252492927, -0.13986805194648425, -0.2063215980911971, -0.1182203096173465, -0.23350107370394743, -0.18992612224257532, -0.14677063822544123, 0.07219449891407809, 0.1380022674745355, -0.08853839633554557, -0.14371567045314104, -0.12295327914168692, 0.11697234595176013, 0.006680046658202498, -0.08930024675056286, 0.13059761336970147, -0.11669636490207096, 0.010493261420065875, 0.009936973070208388, 0.03298386125454125, 0.04554363410219035, -0.040080403588501595, 0.1098131562698408, -0.19495497066369755, -0.10063778136742807, -0.05595305687899263, -0.17788426646140537, 0.08013127035385674, 0.08664911641023648, 0.19484114566820687, 0.20865088630359, -0.06087791462281687, 0.11119995534781738, 0.14673487993615342, -0.09930879608102651, 0.006196490030494171, 0.2687485815057147, 0.045270335667201775, -0.0059219797208593565, 0.10115202340624856, -0.27034043176212674, -0.11628372527347072, 0.03782155720918466, 0.13771610072471505, 0.02507138807303247, -0.1128259035621871, 0.051919002072988676, 0.11776802722002465], [0.2562540478475892, 0.0372433628972862, -0.11823703846522735, -0.19693576130671744, -0.025407691665540254, 0.11379924031482286, -0.11887135146952071, 0.12397007631657903, -0.0917802497610705, -0.1395539818153952, -0.22187240697929206, -0.17749327660256115, 0.13104774480490938, 0.24356498242695257, -0.07270729721690079, -0.03900332448813332, 0.26451322643071795, -0.04868540915133926, 0.10464561496121669, -0.22428637290258274, 0.14466953443036276, 0.08620403074058243, 0.2561810986238112, -0.2102364620657128, -0.07556662428424436, 0.10856059249067766, -0.10122843031418781, -0.0014769073068831324, -0.11441008569362594, 0.10502063596690381, -0.22452454741939135, 0.018699564154706548, -0.04356047640188622, 0.07656523881949355, -0.101997981456189, -0.015610013431621054, 0.04660595847770564, -0.2232061972501023, 0.06542141456267433, 0.23148371323260108, 0.11007331426500379, 0.04398681996522152, 0.22523128285809896, 0.07046172235093416, 0.053264871083989765, -0.08420362316373434, 0.13490058798131568, -0.141245468188476, 0.12316320093293996, 0.07676540992951413, 0.02026923173561524, -0.06336755767246875, 0.030130238262174563, -0.2019630892948251, 0.2693679790868681, -0.047120129051909765, -0.1386026845753015, -0.12387813930704439, 0.06423216467590803, 0.040124994239225095, 0.05325525591679586, 0.0560011803067287, -0.001928972285382064, 0.170282384218717, 0.26653465714733693, 0.10833956366816586, 0.04701641446769013, 0.003268039429137203, 0.10417213440822076, -0.01798765195831228, -0.2530195543776789, -0.004601645474741785, 0.275626091982056, 0.07310726703285234, -0.13225691314815197, -0.07911197944980237, 0.11012903398009687, -0.10054969659405112, 0.017298017592055757, -0.03987188294460926, 0.06754309777703464, -0.2567444630023931, -0.14268145925674122, 0.13111958037612526, -0.023696670778811272, 0.06686913502287431, -0.025776205279282958, -0.04460179862295098, -0.2009381236311464, 0.1080752076336506, -0.07872252955155513, 0.0469749462991515, 0.09654354210589912, -0.010123240180799907, -0.04676736506431178, -0.09962902938906007, -0.2515375164173221, -0.1327045042829129, -0.14318804830253895, 0.047821285743038025], [0.04995276102917951, -0.18450802331045751, -0.09538383625171491, 0.14991611039901814, 0.17094613826777366, 0.11816909611060492, -0.14110733840228382, 0.08050756569155261, -0.21843177841608516, 0.05147102047891884, -0.16747643585383498, -0.07687574389093853, -0.14581725790809397, -0.08034846249913873, -0.09621886264750813, -0.18633573028773784, 0.06867356407982261, 0.07465857371322532, -0.18286393500448825, 0.033701588239886, -0.09365540672821639, 0.18199948834906177, -0.1163175468611634, -0.08139050839774989, -0.13799889355291622, -0.18495445751483477, -0.03271398977658634, -0.21178752458813693, 0.14730522376575592, -0.19496797031489635, 0.1318089719327294, -0.015454799318888131, -0.1788844006593789, -0.05682850057662072, -0.17011440839598146, 0.04894703991931918, 0.19110848203778502, -0.09230996433151466, -0.053439516052237276, -0.15304772767825223, -0.06905749553178915, 0.10070411861161319, -0.1962152994483026, -0.11178036459718914, 0.15661319726608744, -0.04924061625127345, -0.15613798066708467, 0.039799923618049016, 0.09349975552822662, 0.12817500033541787, 0.12281123277775527, -0.10742481114386357, -0.08272694664166617, -0.1529443726635863, -0.03716177630682144, -0.026752316685643946, -0.004518640415873624, 0.07743097382389671, -0.07876107472232118, 0.1362184755492746, 0.14727344993053115, 0.18711367881297095, -0.05744711932466496, -0.2179944408806636, 0.03548262954416389, -0.11234510274446406, -0.06209518142637532, -0.09611301458810886, 0.09201328697293207, -0.12369429153798986, 0.18790531314823372, -0.20250564451028158, 0.10735508339663748, -0.1100351313773997, -0.19087896164944765, 0.11249258628391268, -0.04100276819623336, -0.12243030498608462, 0.08589864328431902, -0.18192522800732536, 0.16697415236449067, -0.021288766025358362, 0.07041789595236711, -0.06636584735547513, 0.1727404311344494, 0.0725675463665192, 0.06494850497963708, 0.14617955114365946, 0.08879567730116233, -0.11706782189412729, 0.09934312306146904, -0.09860962396344919, -0.1581387057140987, -0.11322742988041151, 0.19823857314527477, -0.1802345833616762, 0.17276028964594256, 0.17882567812767255, 0.13741952199011429, 0.17396460339270892], [0.0673582537861585, 0.1078970326944172, 0.21781427481739773, -0.22617703969732558, 0.1251241937889201, -0.106999502292123, -0.017800612084022376, -0.027993925847763185, -0.010540199583789281, -0.025654091411225016, -0.08798706468076771, -0.1617085213253378, -0.19645393383490495, -0.07873290568229942, 0.050057846970653394, 0.04774172768322748, 0.22945663065893943, 0.013579960253711113, 0.048693773413227934, -0.05172204446758428, 0.13264201317480848, 0.1287341463637835, -0.14797912033448807, 0.01829530802482022, 0.2538035932192356, -0.135949085953546, 0.010938039554230589, 0.26678575764532925, -0.21360867474404233, -0.23796216032242878, -0.02807457723278385, 0.09219592986623922, 0.21052048438441442, -0.26271558864660377, -0.07588416834387846, 0.034699209305162494, -0.21518800511540992, -0.23548453753473841, 0.04051311600383346, 0.10757195430636866, 0.08328997436835342, 0.23277911951011462, 0.1616028245498739, -0.08554534825787484, -0.02397609088061169, -0.1334453496751622, 0.17948922022845826, 0.03752668210346581, 0.04440633455341847, 0.26408697137374976, -0.2601262985882718, -0.07065353849900191, -0.20330966831211467, -0.041439518373953974, 0.20165700607884288, 0.07918306811431726, 0.13293781035541066, 0.0420543609503477, -0.09914188773306414, 0.10906638112178813, 0.040089860070291666, 0.2550312381514248, -0.05976765793750686, 0.202948076292004, -0.08047488408401796, 0.0838316245562154, -0.0452571192467308, -0.15358585187276294, 0.09208648041959193, -0.1712441837383088, -0.2665523283708236, 0.2389962858127114, 0.011949722721193169, 0.15231744712542594, 0.12931243998195274, 0.06299482937348731, 0.03739534221427242, 0.06742418299446758, -0.13580687651477075, 0.0588762136225557, -0.11930547206829571, -0.20569586083658647, -0.06373247762571367, -0.2581228463508842, -0.0321981434142699, 0.005351717838003786, -0.01663270137137259, 0.15212419397560903, -0.035131199929788214, 0.22561697742816061, 0.046262327802222225, -0.013295201623576086, 0.03927562469248319, -0.22059976439858545, 0.15153947390216965, 0.2455911786643183, 0.0873299556057318, 0.1124887182233857, 0.12581931648802105, -0.2161690312561966], [0.14410611748703314, 0.1239243993049858, 0.2529631096206005, -0.20925567070212298, -0.21272474531000166, -0.0034292696506652725, 0.24648171694543197, 0.058034390835612834, -0.006986037025796771, 0.06752818198071504, 0.01731473882677128, 0.08773054178716048, -0.09830631477649092, -0.053415883089536584, 0.16797985865748777, 0.15470092373887182, 0.11450158307306597, 0.14186411166988216, -0.2699553895532018, 0.13112387512696566, 0.24188220380326206, 0.1971009847582592, -0.09447302702032992, -0.11707302426604357, 0.21257300480108932, -0.062335754003823754, -0.1822535035279715, 0.12605802139952152, 0.06113712649757756, 0.09288147826404666, -0.128476847230864, -0.03444396128272566, 0.10480575317888477, -0.024830230841367328, 0.17232447513714644, 0.06752977466794206, -0.23487146612806653, -0.18968395137444646, 0.07962478497914649, 0.0926412451869718, -0.08994304257452994, -0.0241346485270999, 0.1736903991231152, -0.07629243432368571, -0.08196159082940731, 0.2515768939066288, 0.13230185044630505, -0.18148475880970058, -0.08021295139272204, 0.026905352137513557, -0.1689081240374345, -0.17296204875510496, -0.13443971860827872, 0.033393118507550265, 0.12210067380822578, 0.22480520720984148, 0.03333856852873224, 0.20310870295867597, 0.0687643061721362, -0.20519252567791713, -0.24529988501278466, 0.18408532311785178, -0.14057628108087286, 0.22166509208336388, 0.18383757573957615, -0.10014567780678708, 0.17140149488008982, -0.09490192038052324, 0.14848289143971716, -0.22880522052341817, 0.13164588177182965, 0.13166635657153503, -0.004093715753782876, 0.2406077066815281, -0.2738220207842401, 0.18366507960736425, -0.02181781729211905, 0.19303850561244515, -0.09673182327679124, 0.2484150391299797, -0.07836053706711761, 0.04506540556039758, 0.11587227208627415, -0.17483595082714887, -0.03255526328678132, 0.04312677140037867, -0.2371312190298524, 0.127499201623467, -0.23190381466849533, 0.10601828751106453, -0.14840757062148865, -0.007255377868589133, 0.23225721893666917, -0.2546799799131573, 0.22408256238121882, 0.17569080262175604, -0.003229407473844148, 0.10614745422611101, 0.2022636740978861, 0.1148541558582554], [-0.250590459938857, -0.2190019803783713, -0.2304564417414457, -0.053681255216070395, -0.06332964408577263, -0.12445987960581967, 0.04249230350048193, -0.09566115174572659, -0.09967973087041525, 0.14771489492066978, -0.028647403210090638, -0.1333351445477002, 0.17141129731536725, -0.17724280920344904, -0.02320375815000952, 0.13978423471261253, -0.05058576029266202, -0.17251699920232463, -0.03777610377838121, 0.05385937455474574, -0.1186650870449375, 0.06378009515149767, -0.0859223128662703, 0.1616428827753566, -0.1261165871109964, 0.2527226657329616, -0.06372307281616565, 0.03577917762496956, 0.07452998345724013, 0.250313462023656, 0.09959894264473299, 0.12720908870745123, -0.11890220836013486, 0.011648813221990042, 0.15365469622572736, -0.20747459037950805, -0.10759729935856467, -0.07415709543268567, -0.14411979801626262, -0.18658290709924508, 0.07647719466602573, -0.1015084124098672, -0.1869033951911637, -0.009197580552274116, 0.11774951775460633, -0.04706182801584919, 0.08897321660859168, -0.0212519921239315, 0.23143392703267124, 0.05621188007606048, 0.14157866342569544, -0.01945213979866111, -0.12983277880555466, -0.007046288571026325, -0.2565070237037073, 0.03406557430707867, -0.21889350414114145, 0.06126169510776816, 0.22796777382643474, 0.0002267719305830463, 0.09348059308334881, 0.01853394371497695, 0.20114772389948976, 0.0746084025366051, 0.06078248705569232, -0.041612660963847914, -0.05875341431394873, 0.170445356660495, -0.07056383635770372, 0.14581390173937014, 0.25707571894626585, -0.11342134494205845, -0.0374234142083754, -0.06927601176747321, -0.0005614401501566061, 0.16227016726700222, -0.13849825087799283, -0.20586198391177143, -0.1400876996004691, 0.10082219441549425, 0.1586211085579527, 0.1675275601330604, 0.11993234961596262, 0.07163960062500155, 0.19468258750944742, 0.14061779571033234, 0.15451695207537233, -0.11716915207001023, 0.13398420863082844, -0.15469546428788836, -0.020778085604811748, 0.07098539764624619, -0.2531959889963472, 0.11215380941614357, -0.031645151677832335, -0.22335993568242687, 0.2157839023624507, -0.25457639367861173, 0.1281801575435685, 0.24538609332251865], [-0.12816679799557373, 0.06274937765953338, -0.0982323885865966, -0.05707969273851396, -0.02214099967073975, -0.11358548935122577, 0.203765623183292, 0.005669210041550814, -0.15560580906115334, 0.18167615452402422, -0.012104670305951928, -0.21805382732050105, -0.09672560806238893, -0.14791619033678607, 0.003370211547466412, 0.010571775593492535, 0.06429501112827823, 0.092134117232969, 0.027898856691514054, -0.05293957763502895, -0.17466753787769002, 0.07690427093633244, 0.18755733311739628, -0.19782367108644347, 0.021563268981603972, -0.013799169451056515, 0.10733832079714496, -0.03386935729930339, -0.1959514059131908, -0.02697318625231449, -0.1709652856226972, -0.18781150006928243, -0.10955572601587805, 0.0047887437716634925, -0.11816266953525754, 0.21642190609284495, 0.09256225121685392, 0.03329614357857748, -0.1384853292521872, -0.0630824167674766, -0.06696430496218748, 0.2173112815184243, 0.0994749063636941, 0.19723885001640812, -0.06295315302616065, -0.026958055822185797, -0.08062512490691241, 0.06280473304973623, 0.20296825232073304, 0.1059278013318244, 0.18920647993290443, -0.11613916633954159, 0.1779814542237197, 0.11813404015686942, 0.20964370315774708, -0.13010432596920318, 0.07661463281405873, 0.026772480207413702, -0.18390675223982472, -0.14263719254249926, -0.15471115411148414, -0.02196658741909666, -0.2151523624487457, -0.06948658124479369, 0.09836768418481316, 0.11283847651120851, 0.1972279874186067, 0.1885712914802175, 0.16355306746172016, -0.04432202025415885, -0.020296882527205642, 0.04666444929073901, 0.024482872319646277, 0.12534417388525382, -0.18630876829351697, 0.13124884547042281, -0.1065956878569702, 0.018549438112254256, -0.1803824335571127, 0.12973646910765668, 0.15184949897660371, 0.02253457857793901, 0.18447265866707224, 0.054355736069231636, -0.0030707516441955862, -0.1310493320502772, 0.10496586270049292, 0.15134475535886177, 0.027571795406560354, 0.013313263339071395, 0.1544551887534884, 0.19931145826596888, -0.11439271293810217, 0.1574261337617041, 0.15854280075365745, -0.028814038291553757, -0.05110814402201093, -0.15163932174303796, -0.2116690813754805, -0.09020054818564166], [-0.08111927238217838, -0.135404981423817, -0.10949730829756303, -0.13346986010205358, 0.19051805999851215, 0.0491663250471107, -0.10494413709908372, 0.14701717313969456, -0.16687774568909136, 0.20904874483425667, 0.15800902898261052, -0.04357803175110818, 0.15653960130666023, -0.19523694552802065, -0.18482464827402684, 0.08188474588569922, -0.1905192604349143, -0.15375954355341484, -0.1327649757079605, -0.1044490237219729, 0.08128106105131831, 0.06259349787520808, 0.16932693812042515, 0.0007222615453644712, 0.003458821737622879, 0.12091855073684242, 0.054503531744100206, 0.037017399485149344, 0.003133646245016656, 0.17599058654008254, 0.019445197502611544, -0.0799742438183722, -0.17491121429931614, 0.09035353790135413, 0.2163096966292949, -0.03407356961570886, -0.1561008179244554, 0.019752218125187227, -0.07335875418986185, -0.06488955410601273, 0.07280773751883159, -0.019800150786822564, -0.03820715341233528, -0.001171669434366737, 0.1980628912258579, 0.12410358452065191, -0.11480468257237168, 0.12429459108486945, 0.16146374453609535, 0.09313186179165762, 0.17577889534895694, -0.14937372671121954, 0.16027040206017112, -0.12655609695609654, -0.13284375570431625, 0.03839212773384691, -0.0620908651848347, 0.16149904787905195, -0.1677308083240801, -0.0027805090195498787, 0.18233481966593887, -0.008147617189919106, 0.11656552826780496, -0.08246903406274812, -0.0864528914120795, -0.10825521308303335, -0.1690454249459534, -0.007928410983443192, -0.051095135557805635, 0.12885144169712445, -0.03464633396964566, -0.00646479645538773, 0.20947150156675604, -0.16872929893912245, 0.17174848789702446, 0.013670942149275278, -0.08411177518288926, -0.010845755033695252, -0.13415117898240567, -0.04791070324249881, 0.13179102166395226, -0.1788023696513554, -0.054975109179613055, -0.14145912353012818, -0.11994724481348516, 0.06369908534391315, -0.22236384841299645, 0.1643515589958207, 0.1023143374453041, -0.0628990036898626, -0.16109016790577058, -0.07725082241774199, -0.13062768782661893, 0.08379736655331253, 0.21389119755645464, -0.042878232053326845, 0.04439640953884953, -0.08786046090991516, 0.16930516935255085, 0.21715692453472202], [0.09247184537683299, 0.09618553079316516, 0.21622794411779678, -0.02689959168138551, -0.09924544826827388, 0.09879424769000156, 0.21459309101582663, 0.1646158760123989, -0.05890755046009001, -0.03647464887399194, -0.1902521677685078, -0.15874320239457726, -0.22356758591089193, -0.10935356094346958, -0.15351190909030774, 0.10732391470665996, -0.13021624200548168, -0.13694233897441402, -0.0649499821492328, 0.19174518342013283, 0.001142805477712884, 0.018346810748354092, 0.08799671554295702, 0.0581150204710794, 0.10121104986873437, 0.048643125457225767, 0.15645980938828102, -0.002805505415895261, -0.019170396148460802, -0.1744834483909457, 0.12576121271894983, -0.18841227728976792, -0.09980867520618142, -0.12361113620558586, -0.17391647261957638, -0.0462099693939952, -0.12202700037290093, 0.11664874970392358, -0.07331202273070513, -0.09275746173906521, -0.008563878545766786, 0.23376025140484724, 0.10122260701801236, -0.08568775912356923, 0.06933305409338424, 0.21767435217160014, -0.1240194661402699, 0.026084913587602704, 0.08252137152900497, 0.09383400765721296, -0.18651877710126116, 0.14248284753082158, -0.16353324169362643, -0.11156064554686697, -0.03810670025604926, 0.13628160511604312, 0.11106941802939413, -0.016840734291849912, -0.18907644859804676, -0.00044520640938137225, -0.034339551128903696, -0.057062283658844457, 0.05277174426046506, 0.032776742703350153, 0.0030239481119725066, -0.12892642310600844, 0.06656881252095395, 0.10889443280962771, 0.12360787460922912, 0.04501415308467639, 0.07414890330912574, 0.040118225658579816, 0.21820727644745525, 0.20040245309394372, -0.2049737077162428, -0.047789478073600025, -0.08789273366535966, 0.010854385303859251, -0.17780256312793877, -0.061353561119910346, 0.21457470677787926, 0.18294129393734557, -0.04051209156727508, -0.10924864335124332, -0.16145610143788672, -0.1050254511212487, -0.15315214379749942, 0.02638022241934219, -0.16711077463089813, 0.028689911836831637, 0.11486805086163676, 0.1416294990965356, 0.053954895584608156, -0.029652400569992944, 0.09053507591047243, 0.13478400973682067, 0.11234225142640648, -0.14033694411001313, 0.015137714600758634, 0.059880516692656524], [0.14814693534259177, 0.14849658034813787, -0.22712846032238757, 0.2464806943557358, 0.2558067879494312, -0.10510838425776708, -0.16808740753327775, -0.12837432907806634, -0.2615271988752181, -0.20660998332565733, -0.06460921829528118, 0.07099445582335272, 0.18412736043439407, -0.2599327251217048, 0.138726293504282, 0.07162219239262468, -0.05523495803405575, 0.021994178433972403, 0.11847719404597613, 0.11151544557986044, -0.22715825432723216, -0.06098932484304703, 0.07079072363062729, 0.05711505698182387, 0.09935986296879347, 0.10242689895647956, 0.18209452844505689, 0.11644497683629015, 0.17596510820988465, 0.2361933225650063, 0.08890189027613761, 0.24961534969543178, 0.014139422161360951, 0.07282324814461859, 0.027510426725785193, -0.15395607762334193, 0.18862967058956187, 0.054871037157356195, -0.03492715802378853, 0.0923728628630074, -0.13246648607486797, -0.21573994066349794, -0.22143305985696252, 0.10220156677417372, 0.09203353010419044, -0.12411716582924263, -0.14427351777034622, 0.24286084908466699, -0.0691196143295138, -0.07223443554493464, 0.022836001123028162, 0.09528661850073217, 0.036347340219957676, 0.24448126914386978, -0.04026443499436425, -0.08302106128326768, -0.08393640552023617, -0.020950223747117334, 0.040462361735923005, 0.10136982021847153, 0.1649767804971611, 0.056269232712206504, -0.132295658519734, -0.07338765393986417, 0.09126192924813989, 0.1547235612980582, -0.16049541512925727, 0.08839554310049544, 0.14511764928542872, -0.12776347462079493, -0.07342199457118848, -0.08670664302486288, 0.13078218723155866, -0.10016506564248605, 0.190141984952934, 0.015016862804128613, 0.0846405975689989, -0.1412927597601341, -0.03430260360228931, -0.20873362820871033, -0.20213451125892962, 0.27201160313606915, -0.138978846034929, 0.041946286921626, 0.14720910811231988, 0.2538521766206461, -0.1452959756034274, -0.0886663880925697, 0.03487033493121608, -0.008819889356336827, 0.0811044900991863, 0.07124773284300007, -0.10407644219197194, -0.11235891363975177, -0.26538026755610666, -0.16379554324711362, -0.05372603200332422, -0.05128719942432289, -0.24621643514885289, -0.04748886567580002], [0.09158611040970001, 0.1031940387989803, -0.2372620535861157, -0.0449172014941986, -0.15269636955087576, 0.1799523360483716, -0.01840734692350666, -0.11344693724763497, 0.05326052859505688, -0.15983573154943423, -0.11570228866516453, 0.2055703136234501, 0.23043466639446258, -0.041377248882610795, -0.1639187773777808, -0.015132238783763947, 0.010727150931343965, -0.04585637383418195, -0.1335209531562897, 0.11150711626869013, 0.005811843959491489, -0.12461093791556195, 0.03597264707234561, 0.15513438416868164, -0.2088491204871135, -0.03296505705751129, -0.11600717026678778, -0.08408896471818574, 0.09704399586076742, 0.1756990723828955, -0.03514126137448953, 0.19451233592213538, -0.0030967861778907514, 0.21106929522090317, 0.057913095710541096, -0.13208855340470987, 0.1814546825964296, 0.2287955945896807, -0.08521209936192806, -0.19288100139582792, -0.09535480822952962, -0.012413396513379438, 0.14317600238201883, 0.141682787959076, -0.1649698407384722, 0.0957278160136628, -0.05215548238608967, 0.1749681120611588, 0.11623979230783199, -0.1939971568765781, -0.037208356398494555, -0.07085051928607161, 0.05294957947981383, 0.15943280687130018, -0.17076131361424293, 0.17706580116776097, -0.13475557060176258, 0.009358577526392537, 0.012828937987043923, 0.12061574963578818, 0.19256323329778224, -0.1418546374927879, -0.16752875032909176, -0.13329387444570792, 0.17131068933307336, -0.09444162231746014, -0.03403453303209744, 0.12268297662208028, 0.08302402817629712, 0.06879583556589941, 0.12775731568847634, 0.14499730272206918, 0.167256322315894, -0.10542959826424757, -0.034469857486155664, -0.044692905988919576, -0.14901791638732742, 0.16180116785645748, -0.19447987258407343, 0.07690122214846692, 0.1577114610858199, 0.17773415239157195, -0.006613967204897424, 0.05841915580579207, 0.05180013263446447, -0.11114763338803589, 0.11661690718324828, 0.06823996999951357, 0.0787339649706485, 0.15425638210557974, -0.08246663244739613, -0.19977688414520836, 0.15092221887539245, 0.0777279893345165, -0.2326082023052998, 0.10271179738630705, -0.16539246895598797, -0.017136194585303348, -0.0430034226987235, 0.08938365517830593], [-0.060476885980493805, 0.14216861981674164, -0.06310452288680786, -0.19946322207253897, -0.13139893151161294, 0.09248686372890728, -0.08866635557486582, 0.0511909089005024, 0.17022356769279984, 0.1569907944709744, 0.10812962582436438, -0.24991558218033236, 0.1368578087581429, 0.055440357336528856, 0.11969127316360091, 0.26001984300363307, 0.15416349675457747, 0.1186179138612968, -0.17621763300881882, -0.1677390782035883, 0.2208741645388142, 0.17640549328542118, 0.26827782061077543, -0.25620089615753666, 0.2111920351454663, -0.04169858546297777, -0.26157268247167015, 0.11659778191850013, -0.27594601682754083, -0.09824861442627762, 0.1462662236048538, 0.005479890853619648, 0.18526184252350647, -0.15699374378646772, 0.1220936994191792, -0.11420169089152571, 0.12745982130791939, -0.16895117892214218, 0.006617080215244812, 0.17270015296069746, 0.06473866621722431, -0.08179152591235221, 0.0983696064513146, 0.25168678187823595, 0.16690825958213082, 0.23413155082136622, 0.16522690858256553, 0.11893570996801532, 0.12062598593391227, 0.2410079005015533, -0.09812953854679791, -0.20547004624110699, -0.19616675597415398, 0.05311896728664761, 0.20766256768221408, -0.08203393472907566, -0.0856211524908933, 0.06896317408741237, -0.11052128879607732, -0.1727937851242632, -0.1879287413493058, 0.13214888558124918, -0.14651482124193196, 0.035825988039320786, 0.25003607826449675, 0.15122834172422311, 0.2656841816718402, -0.05530984333226735, 0.23903170446041427, -0.15270581665077101, -0.1894737744762838, 0.06315818233471936, -0.024642783279383903, 0.204391916968927, -0.20599915184029155, -0.0017735733796861385, -0.1184472082294253, 0.22888391776356334, -0.023685858250437702, 0.09686302069171145, 0.2763271152925407, -0.2690416308966452, -0.20398099957177523, -0.15679632148007486, 0.0759506630210154, -0.18433124969300677, 0.06294274194070547, -0.05084972661698248, -0.03772696100261015, 0.10758692554188994, 0.09861486475720982, -0.11337063971325011, -0.0023188705421261857, -0.1175092440278192, 0.24721432300885388, -0.12701668303133395, -0.2272085948620152, 0.14517138718638523, -0.08076012395081304, 0.03478928560108299], [-0.10993690877742869, -0.06619551024099614, 0.14206401002583893, 0.16974839954380072, -0.19883109032582924, -0.0641661427781433, 0.033652571816842, 0.030313899820151327, 0.13400468004639773, -0.03974576919809554, -0.22541894021537792, -0.10982302429685338, 0.11336526915730892, -0.05155080284315684, -0.04425725537722412, 0.0113901030382229, 0.16134855349429633, -0.23222490381275449, 0.012049075135037102, -0.17892447973976555, -0.11910174152668719, 0.2725682522022112, -0.03521613024612612, -0.11397035017591037, 0.14391664676051477, -0.10770096946994302, 0.09851054554346482, 0.08629137281452505, -0.23999253945392685, -0.12406905965157576, -0.0718178351705682, 0.1255333110864168, 0.2446506011923433, -0.031451879223668884, -0.06571729328152941, -0.14529665762112695, -0.22808645766515528, -0.016081994266922837, 0.011026035343541673, 0.20786627939038743, 0.16724391120716878, -0.055730491098962526, -0.09433382328727803, -0.15237157655791345, 0.13649040801745058, -0.10028491553727403, -0.03836563755714889, -0.2626298245801846, -0.17261311372689284, 0.09758288233599736, -0.2619223065648335, -0.17601910992711997, -0.051754392932528495, -0.23025783697963265, 0.24856987361839405, 0.12071653020163887, 0.24190909443850445, 0.172809667905031, -0.16270116335784185, 0.013493324452800097, -0.19270158888937514, 0.030520154353802433, 0.1344275596560482, 0.019684527745241258, 0.2574611558965844, 0.05371857438811189, -0.15469024097086673, -0.06385831952380759, 0.2287911059049278, -0.24718095930924633, 0.10618423138379325, -0.14251703388734802, 0.09916962986488516, -0.12495351747260915, 0.07867247018499174, -0.038753907248007397, -0.23337130415197613, 0.16930354096391448, 0.10443973839025934, 0.08542605668736837, 0.14749411468964024, -0.2052134912426766, -0.18253829833438734, -0.03154501191367516, 0.04854738974453976, -0.08536118168574917, -0.11007751622935326, -0.08277486022594306, -0.10563397310046702, 0.10340236532767384, -0.07976540184117813, 0.043037742565075386, 0.09403050707963057, -0.047880503685363354, -0.10629683454720451, -0.013208727093708603, -0.01994305231034195, 0.2664996750917691, 0.17389250183563434, -0.11201858151476189], [-0.0615234730577119, -0.147010265618537, 0.24136134740270127, -0.24948216195766915, -0.14045438680867606, 0.02671482515141508, -0.10405261420480902, 0.20173054767455276, 0.052920360010148076, -0.14818397524141977, -0.05797905687066594, 0.00852939217994908, -0.1148534583681529, -0.012927898691755632, 0.18218784188294065, -0.03229562554689988, -0.03619419525769703, -0.21468326925927378, -0.13919979751777556, -0.237161340561077, 0.2460650987288645, 0.040057572301511746, 0.18854374310894417, -0.0907808966317457, 0.25636826719131944, -0.18883699073526036, 0.031667413540501496, 0.1635245321727486, -0.27181970517953197, -0.12535238410434407, -0.09715238155342779, -0.0914583633966476, -0.018855665062939855, 0.033547874938086295, 0.009020230736906889, 0.21110718087359076, -0.24306154514564143, -0.11154110419797103, -0.09804292174568482, 0.071803602183811, 0.21881676455883442, 0.24014234108662794, 0.2428723722166292, 0.2654458029578006, 0.2731360700081085, 0.1318674049403561, 0.2668829011816599, -0.16379728780145483, -0.02745002837261939, 0.02320165108133317, -0.06364938444072896, 0.14550147203457273, -0.26643939645737974, -0.08387128072329732, -0.12664273443833313, 0.24542703357056866, -0.010370680615364756, 0.2556101285934559, 0.02931801170024967, -0.23353543038759794, -0.22120781223381822, 0.23048999786850594, -0.27423664823256677, 0.008885035362671939, 0.05378222772704405, 0.14032232632854041, 0.21129756681202083, -0.0938966864741457, -0.0779827713679825, 0.01588316479245063, -0.0857976127543274, 0.19992520196371136, -0.08639537264894999, -0.09250021835167511, -0.0931123459845015, 0.035108730697875366, -0.20176637388955918, 0.1368962273694088, 0.2619703210199668, -0.1423090018274121, 0.27617809169716, -0.24148234983832706, -0.2481900023825996, 0.10860863522056316, 0.07812878663046875, 0.09841969478549203, 0.105791677706349, -0.042150773889725435, 0.07085871603144417, 0.25051673077634556, -0.09729884613781602, 0.06689208436385363, 0.06148488139386094, -0.06580191860589753, 0.17771052268150714, 0.2010265209075679, -0.270192445840721, 0.22461655136166364, -0.08882750726055877, -0.258020536554763], [0.07663540390994746, -0.04253463468042393, 0.030645713192420824, -0.09057352292249386, -0.08602789461133589, 0.07728220744200695, -0.06452790237592206, 0.2645759355631342, -0.13182845349072214, 0.17773715548100866, -0.06950271045060005, -0.14801457905641446, -0.22156193320062909, -0.016926594900971578, -0.03821889581099547, -0.04070444688567684, 0.24146155469379355, 0.12091023707872912, -0.21926677582971385, -0.06765936175182323, 0.2546436033751147, 0.015256597565923158, -0.13429484948925705, -0.21715578554405918, -0.14600085500921106, -0.226977297013527, -0.0805925142585837, 0.07078271370434909, -0.11639165866831643, -0.19270321742416066, -0.21143675147909896, -0.14181774120810167, 0.14811898505139445, -0.06250787508135078, 0.050187331036407504, 0.27710995720883197, -0.08218197933791423, 0.1730192987277285, 0.22643116925843804, -0.13334259060192252, 0.15207536068891034, 0.0833795611324871, 0.21365836559075446, 0.2576310734422261, 0.22666642591664865, 0.22104937344947562, 0.09980938068748675, -0.16135229495271886, -0.17119596167887202, 0.016330719889640195, 0.11661288816210133, -0.14612041695855757, -0.1108666345308119, -0.1441186673770928, 0.011791550272791631, 0.22844304463810333, 0.25866118341408645, -0.14915400686910854, -0.11132679657071355, -0.23795334744205204, -0.029748890674185336, -0.06782123292643699, -0.07692775896832671, 0.10590446124516407, 0.1711264923414269, -0.015950773143914954, 0.11042790805119299, -0.042739246543446636, 0.06585251063185348, -0.056406076179191834, 0.016155621304077532, -0.010115946376498389, 0.12432904404062463, 0.25650729809997075, -0.008979223229430568, -0.10703375767553233, -0.1278537628673211, 0.18854898320268684, 0.025711656785815863, -0.018972722535065097, -0.13431507754504773, -0.21687221593954667, -0.20782623483635637, -0.14315234021285364, -0.1721575306847175, 0.0771328580229836, 0.07674512348667624, 0.04290815026875007, -0.09976920165902126, 0.12951491047192626, -0.09826968634583728, 0.1912585584390261, 0.1523874637598457, -0.1738411527724191, 0.13861712329606152, 0.03138006037173916, -0.09642266942016127, 0.14472823089127163, 0.17708647033168143, 0.07136864878832712], [0.15958866821230344, -0.09771384845202481, 0.2755099598944412, 0.030882921939564364, -0.15834340108427242, -0.12736525492292045, 0.1477298839558571, 0.1373517794137168, 0.11101470366469819, 0.1904726704306759, 0.1216027881136944, 0.14276319755129752, -0.16418222773415428, 0.015673102677640348, 0.05856975504280693, 0.01972720195065826, -0.048744402977937445, -0.00864259676726343, -0.03108454766139291, -0.13296729676145855, -0.028942448464640294, 0.07065917924275657, 0.07853848321734355, -0.03531382309548437, 0.024372233898840214, -0.22411882773541203, 0.020528787158258094, 0.2570549415638693, -0.019164312334911598, 0.02921154739208082, -0.08428503223213066, -0.0817735027540549, 0.10270857864127964, -0.10972524153021017, 0.22271586253998954, 0.18213761467705983, -0.24365284697882603, 0.11957571125186996, 0.05212650820769485, 0.15802098541024706, 0.021056576205278815, -0.05048458686599991, 0.18431019262939893, 0.20598920965857667, 0.1924734029049443, -0.036860181769258996, -0.005497584228483926, -0.20894708073229767, 0.04554101381857231, 0.014520664750039413, -0.09935054890149053, 0.09079470574833202, -0.12119495371052331, -0.07521918100086697, 0.1788530178602607, -0.13715654881439668, 0.06953550325298156, 0.18368171034358247, -0.27534525357621936, 0.07304458405808167, -0.1850176811745864, -0.025452390778832525, -0.20788973668670913, 0.14049302501625419, 0.05079830402961578, 0.11979051508454736, 0.14623757735785642, -0.14214712633307816, 0.0273422851295056, 0.12016536838213497, -0.20368036222519137, 0.08875082203725307, -0.0929477099712878, 0.06153077593436205, -0.07167811060972969, 0.23126321961094404, -0.15424921726816854, 0.07308145692613109, 0.16949205547686802, 0.25982296905566143, -0.10745724715796168, -0.10825508943252356, 0.025004942934467016, -0.1540636171516697, -0.1610606250449521, -0.10075964026683286, -0.2187546628801895, 0.0008639612761538858, 0.05087559860139719, 0.2050894474527834, 0.12004916921260142, 0.21829719745941875, 0.22536236157897527, -0.17540606948481668, -0.04044233358526386, 0.040632611006494054, -0.24767455002505315, 0.006199266000925937, 0.12027719965527162, -0.0983202038701622], [-0.05243065450168187, -0.06625066930163112, 0.11389727160324878, 0.2006484515731001, -0.0889616923332554, 0.10204258501903438, 0.1999410212350417, 0.015716254708277557, 0.09656193938099826, 0.031138870919981014, -0.13723636768868563, -0.0461612332681307, 0.03987038825427709, 0.15785529200700868, -0.01934375557002667, -0.1038980258492507, -0.15532853143681283, -0.0940866046579178, -0.031043489624288264, -0.00848481693263832, -0.014439435377385953, 0.16709170167325843, -0.15062652494492482, 0.13017145308971168, 0.1453101822026705, 0.1613119860410835, -0.1126585229581761, 0.059032630132107036, -0.18277012115851943, -0.24701306591086597, 0.16745416613063902, -0.0671891854936437, -0.08824079706304205, -0.07300437757043098, 0.1531293734311557, 0.10694214458867861, -0.15553185301470637, -0.15299355638425602, 0.14452435096905786, -0.08169292064432168, 0.052128498084401814, 0.18647113117664965, -0.06387450174536595, -0.14055051528007997, 0.1557262588189567, 0.05243131027260091, 0.14180461964734978, -0.22934108072560613, 0.11365013598596058, -0.04192045779723151, -0.14505845767139616, 0.11034847963451162, -0.15767898703618696, -0.13500609226461055, -0.1276918085719431, -0.12130540250135631, 0.23451187957810776, -0.0018729124197290675, -0.08889439859876493, 0.0232177499886372, -0.19048667615827442, -0.014598024003998549, -0.241395795834704, 0.04368463323819196, -0.11195312534746892, -0.013999593607322721, 0.23599680638881076, -0.025707085277812132, 0.13451255885430574, -0.18254322056265004, 0.1697211236510047, 0.12769420340618945, 0.16732560247010336, -0.027950219235774638, 0.13456565887723115, 0.06445193201969691, -0.08404717135156577, -0.1062422602639039, 0.22679639260918144, 0.14572743079485106, 0.18041837991855497, -0.011308269001983548, 0.016990779198390937, -0.1638891443913378, -0.09947684276063604, -0.24635886713557525, -0.1908067005909714, 0.2312128057872772, -0.22074023628488795, -0.06267740559893614, -0.17177198877983293, 0.04965342017182933, 0.1416035101993125, -0.22353304781036004, 0.1282223365851989, 0.015298255283712956, 0.0186443653253754, 0.1609628850757206, 0.20055426059507916, 0.11415369396058846], [-0.0020641956440820702, -0.16304725732811418, -0.013298730635999234, 0.1844123175167038, -0.03587968842104075, 0.1461360122466811, 0.013591341421055492, 0.1410303444961605, -0.09294844027862047, -0.06047165509516099, -0.18317697927314874, -0.22605587177329772, -0.21440129107846245, -0.04085983912579162, -0.13837908313526928, 0.01462520737277636, 0.006155105938565687, -0.16208618476172926, 0.10789300519077413, 0.09722988491735751, -0.016055666892649166, 0.062470433257715355, -0.15529779354413265, 0.08981264376640645, -0.08931395192293137, -0.03488647567446157, -0.02896750720031473, 0.19498959023547136, 0.12139423959417776, -0.2175083392439286, 0.181613393170188, 0.17053159722985217, 0.17556753378626017, 0.09848233709347406, 0.05917458321961007, 0.22887417637540491, -0.023766270402325918, -0.12777606534414718, 0.10051051855347669, 0.09530597878247189, 0.16756128854537555, 0.14680551434076858, 0.1277956366476425, -0.1145916099536992, 0.025385625939414947, 0.1705081585691518, -0.018589617081118597, -0.13517957772922537, -0.133381099875003, 0.2462380407776188, -0.22799255020494524, 0.10355149241503918, -0.16270557146647988, -0.14157325331187134, 0.18512531072620061, -0.008594827673971874, -0.1125467942166425, 0.22745232129502913, -0.12273362417872562, -0.09902294280901756, -0.049656633664746264, 0.1748253571291245, -0.02832619096048721, 0.043250269507619, 0.23240084524885873, 0.18855381247612882, 0.13952046441515437, 0.12419355518223933, -0.022187886634452873, -0.19018062840784639, -0.17878716498371938, 0.08854133704849793, 0.18783363715470547, -0.06349070143716819, -0.14355027636888984, 0.22789665873647785, -0.12348623630430305, 0.1754257277246076, -0.06128442388192533, 0.07968259244341346, 0.016241938013572033, 0.1473301318366046, -0.22726482065582898, 0.14378430480531226, -0.13155786842064313, -0.22509671197934655, -0.14284932614876775, 0.1482911894412101, -0.2406636018915545, 0.21265487183883186, -0.09907801174364121, 0.16439872475736997, -0.018944699303865803, 0.1619809053606004, 0.11148641427754728, -0.048965610554496566, 0.020308667978376, -0.015502338690234409, 0.13462448201107804, 0.16429639548591501], [0.14004088526888772, 0.1785394472756915, 0.06718991657235163, 0.017052619705875495, -0.13287730653414392, 0.1538879205018639, 0.26992601028607865, 0.13236017143329645, 0.037898148963678026, 0.13168908385153616, -0.13663134242234737, 0.057744668202102875, -0.19881115592958448, 0.21435069340015384, -0.11565189333493822, 0.02866098428678552, 0.011062031408915414, 0.15134704686173403, -0.06340386435631845, -0.07227135165843841, 0.18159050182900494, 0.2533630644970549, 0.23240143085588758, -0.17130153290240585, 0.17370568369615397, -0.16679972540972074, -0.1669293615959236, -0.08139342219029709, -0.13758769602787577, -0.22221944911424185, 0.08749986732594314, -0.09639619300875554, -0.0539440338277552, -0.06385909170086225, -0.02217454078659142, -0.04199515409708644, -0.05101895286284834, -0.011867152909778035, 0.15296795136662486, 0.1444266533576888, 0.10760719244318191, 0.06444783607126386, 0.012185309523175149, 0.267942446085004, -0.09925725025278123, 0.08302921687614544, -0.09007348584075223, -0.12435130427750464, -0.0661930638261573, -0.13303513995959598, 0.0456110591181709, -0.12374344411225953, 0.043363966349076064, -0.1631874239281843, 0.1530407234769893, -0.013592919958264633, 0.11463784051459368, 0.09410206441069253, -0.13751234576401078, -0.0782421673713755, 0.15107338547461616, -0.14043826084843108, -0.13493672834958612, -0.002577641223657943, 0.23237338098301946, 0.18810679206057074, 0.035864577570843784, -0.19817367293468685, 0.16602714715428935, -0.2593872767261404, 0.10366051303366783, 0.14132978658592585, 0.05339188458295095, 0.1301934235887455, -0.2227920443270437, -0.08964126929622976, -0.24804557924981577, -0.10975380624676716, -0.09252864570734083, 0.0922086190135096, 0.2156006968654141, -0.23202258567904974, -0.1432661406116945, -0.12350479012523265, 0.09760976857739476, -0.10597106137695676, -0.22214143729460484, 0.06745251050402427, -0.2676805432765385, 0.03477169037423162, -0.23949124459654425, 0.1833187802764976, 0.2760198116788914, -0.07489133183601432, -0.109436881152159, -0.08964784193748623, 0.11422132211761404, -0.02232475154490548, 0.15440023970917371, -0.11294544797964437], [0.1654601459909556, 0.13915854432127392, 0.11530174985517001, -0.08043678674942145, -0.25549825717778485, -0.11142534599773982, -0.05396799507244453, 0.024357192798059615, -0.044332215433466854, -0.07557347086333742, -0.09032797693994361, -0.040064665844732505, -0.043892690923311294, 0.20350431500288352, -0.14301185449906195, 0.16469110875418308, 0.024383060427467965, 0.16673615458592478, 0.05260260854317522, 0.14577203024141977, 0.07792787374269905, 0.0024034109406336737, 0.22606773728003388, 0.1475790104544468, -0.09218308559581652, -0.17648294395560293, 0.08740301599730299, -0.08016830009916422, 0.10922115236217936, 0.05929617897188537, -0.21557109299076868, -0.1474658041479039, 0.08905199444676068, -0.11938411187086782, 0.08134379228083778, 0.2254382209274139, -0.1745357355831733, 0.03218463617292475, 0.04226129554412127, -0.10870233987546342, 0.11917413910160236, 0.26197811969594437, 0.1692938250665311, 0.2450978925977377, 0.10410517924106284, 0.18395152197527126, -0.10592357093846964, -0.11935423566343102, -0.00016355084000883576, 0.26129477027093273, -0.09155992142302453, -0.03970443613101762, 0.14579939006145742, -0.006694740088151099, 0.2563905678949544, -0.01995722522772191, 0.12148105668337478, 0.06775363671678726, -0.19153297427969013, -0.16562965331080673, -0.02936303407103615, 0.18981622004554743, 0.08920095027327465, 0.11374089041638337, 0.1716446433358015, 0.016931608986160245, -0.07485634198810862, -0.26727881908270723, -0.08016634785127856, -0.07820807028457587, 0.002604938163935989, 0.16379572131344455, -0.007391591699673328, -0.13974422441361897, -0.01808804866364657, -0.034843076803437095, -0.06345004298542574, 0.11630203502531529, 0.2022197724447286, -0.06577105936013546, 0.11918125661820785, 0.07699671939388571, -0.25784821966692745, -0.020264223022000448, -0.12337820564963542, -0.015940907726644513, -0.14574730813598682, 0.07470045109302698, -0.12633974640595672, -0.09099203215200953, 0.035056560290192926, 0.07082093787519439, 0.27432160055611393, 0.09591002017540069, -0.12206027292833627, 0.19380224973535753, -0.2468330602109263, 0.18659705903048548, -0.07241936035290336, -0.14328566756735234], [-0.1220434792578464, 0.07841266081622981, 0.03540683166681965, -0.1633380603508278, -0.20641747489908377, 0.14189506817307837, -0.015927869461565262, -0.05333637833610132, 0.15468906996545673, -0.08386839988881606, -0.016699665122865436, -0.09670219049499747, -0.11031935235527605, 0.14261452405279748, 0.08234073302551913, 0.1474057515047416, -0.10725953544784517, 0.09178740794314799, -0.21343269825276287, -0.01758608593031963, -0.10709737282879739, 0.014520611152286603, 0.20412452522606478, 0.04826639063678162, 0.1575425963554912, -0.18769525687630081, 0.13658284473138088, 0.16175479037813723, 0.07628372825347292, 0.12277408373592831, -0.21729383029898489, -0.009669448376886831, -0.07140529114789054, -0.05006049145750274, -0.18612823663641942, 0.0763080794338714, 0.10221108647506046, -0.06809442411866042, -0.08647509016824788, -0.07287683590823331, -0.1861465835840109, -0.03710691752935172, 0.17591953834513838, -0.03500891271100394, -0.09138898731013606, 0.19922320230302454, -0.060353699354383575, -0.08190002135125783, -0.03324295575674551, 0.21015218750703216, 0.02187973032627999, -0.055730752480168955, 0.046481064687223364, 0.1997795910607444, 0.17901735792857507, 0.11941473743364403, 0.2092374487836191, 0.009266532168475911, 0.1642533567119328, 0.023131753290306444, -0.10118978120648658, -0.11686397594274453, -0.008937408153021482, 0.14153949966212917, 0.19331474277578292, -0.17088069633382028, -0.10271867509743879, 0.15484267319093203, 0.1367611381999622, -0.1337149066754647, 0.14838628378137714, -0.18591192005333868, 0.1206865651208823, -0.05948645448717403, -0.03903371760041214, 0.12418462068694185, -0.16841489399414855, -0.053279717802099044, 0.12070943440581176, 0.10054144247377837, -0.0023085023044298013, -0.09049655616988468, -0.10174392691330507, -0.02486113776031216, -0.042750597786639824, -0.20789023466229198, -0.06387807239869762, -0.13607893368311313, 0.07752189922419453, -0.1472734173918958, -0.15416519014606897, -0.0108050045562385, -0.023072744315360987, 0.06524403968697318, -0.11339934665305955, -0.043198870866329384, 0.14792482535553048, 0.02466336875418626, -0.04440933583985852, -0.11886415034601458]], "biases": [[-0.04969570976539906, -0.05343249205361698, -0.05309986143029069, 0.05228254811489247, 0.0494196165189827, -0.05471407361396416, -0.048924307943495816, -0.05397008983517882, -0.05053799390841233, -0.050581079709974344, 0.04436477914873281, 0.05216050535144525, 0.05109302387298907, -0.04862789070679765, -0.04788127699551677, -0.052279761727833975, -0.051832499324840915, 0.050486243073018265, 0.05221127586342798, 0.05421868695201021, -0.05215859838358763, -0.04962596743625792, -0.05187509243519684, 0.052817736386800936, -0.05264704829639747, 0.054745272854965554, 0.05121628741848609, -0.05199451936705252, 0.053039256596579654, 0.05228985320813586, 0.05116213943919999, 0.05228673830800168, -0.05113258760472003, 0.05018679742523277, -0.05108524622004015, -0.05211633550740174, 0.05230014148345137, 0.04755828055443008, -0.05064196168660287, -0.05361641526548749, -0.05194375379281855, -0.05105130373617272, -0.0512492185001478, -0.054413249985705264, -0.051418373772069946, -0.052667655015954204, -0.05255947508451226, 0.04999030838108716, 0.051964168495026004, -0.05460163650569981, 0.05536556889445098, 0.05451563644438295, 0.05269304937575073, 0.0542008781090343, -0.051852769513323724, -0.049540223051388436, -0.05469734143698075, -0.05403840520174699, 0.0512995285348011, 0.048799041810125426, 0.054761034747385175, -0.05035530326404664, 0.0501270311185198, -0.05059629249875019, -0.05215895858268888, -0.05337510052791984, -0.05316093761261297, 0.05029739167311169, -0.051994466136824034, 0.05182699799340637, 0.05038340550205347, -0.054147121289808545, -0.05024679179131151, -0.050981008411392255, 0.05311765221844462, -0.05057902866031794, 0.05216106329192088, -0.0509204173832228, -0.050486017431221115, -0.05159205320682701, -0.0526778685700093, 0.054569917432405725, 0.05098309720000369, 0.05061725206205913, 0.04956427201885624, 0.050972426533598014, 0.04973917370488416, -0.051893196192107124, 0.054730729417921876, -0.05197128629643675, 0.05345033486231554, -0.05093887082143072, -0.05245432458817367, 0.05283814560752408, -0.050775150630478966, -0.051052640684415326, 0.0522324375585819, -0.05284449027108048, -0.05105879646845143, 0.05246596464748199]]}, {"units": 100, "activation": "sigmoid", "weights": [[-0.12384572596196172, -0.20655321703364463, 0.18847025236762585, -0.04214825300345203, 0.11085901290149604, 0.061127217928319, 0.12899519664880424, 0.22046810983650628, 0.0975861505178214, 0.04598377932811275, -0.0926121268060668, -0.07472579351831571, 0.05940709482548738, -0.013000785014009943, 0.07712384478716425, -0.06871145540122751, -0.0456508842873849, 0.15970580171161197, -0.21722795746054158, 0.118920665588109, 0.006391205464744647, 0.03699933934722403, 0.08876689800346012, -0.005187394001530698, 0.019111114650386195, 0.039690119812373165, 0.1695563295546116, -0.05834305549480305, -0.08386327310479522, -0.0189242927358884, 0.06401162671922936, 0.053136606941641906, 0.11954548186514001, 0.17420712734842225, -0.09531146965500016, 0.13541716778470198, -0.08601654950728996, -0.08578778804883885, 0.06351827337815813, 0.13067597173514334, 0.09326612118668223, 0.2078258713452536, -0.2243315257366845, -0.17774352051500808, -0.17047703890655794, -0.10774065844518531, 0.19106580127486666, 0.1894265430412019, -0.1553801195142825, -0.045683810240073314, -0.22468056694501004, -0.010131220666320209, 0.1669351245042315, -0.04271477084036629, 0.1883632163563066, -0.01549221769920827, -0.07839832972242665, -0.15326549067196835, 0.07473780314370522, -0.0028990902988247458, -0.07835582193443154, -0.04502973357164189, 0.10629991563256531, 0.08705844934019441, -0.05298531926346352, 0.02488530562437554, -0.10523703135219838, 0.09636870001728726, -0.14743920974559188, 0.07895787621785953, 0.21464856741778454, 0.10369518921105911, 0.12693203038029, -0.12589309703862228, -0.01038717356391088, 0.03603828193061639, -0.07539312458798722, 0.07427723086798334, -0.10894360765170667, 0.08062788834791737, 0.05896744679126088, 0.07441491862725336, -0.013867570240149237, -0.15006831537747356, -0.05082213368582251, -0.0326634748253497, 0.08698698857662986, -0.04660235358449574, 0.09330721723632089, 0.09474232746065556, 0.13940921005976561, 0.01843297470761183, -0.10714388355366437, 0.2083384794512516, -0.17766603566387548, 0.09179878031774741, -0.014745907284353259, -0.2022532960220858, -0.22632954290812238, 0.07378140211175868], [-0.04253203343530387, 0.045626924130112365, -0.05577531173777195, -0.09233951693138209, 0.017191655336417307, 0.10614028835008116, -0.09558321401661408, 0.11317763500206339, -0.12962648600285928, 0.004514063471812656, -0.03187339581024804, -0.024021057544645532, 0.06861814838179031, -0.11014055733030685, 0.12585671735525758, 0.15170433197203445, 0.05931080622191559, 0.15136156678427842, 0.05157456295709743, 0.23449434018422816, -0.07003079268091908, 0.16923445171934434, -0.002018788925835974, 0.0987659851817101, -0.1156067190333604, -0.1760696086114233, 0.21830185383401035, 0.12242272067347369, 0.21263396366173726, 0.006125652888596669, -0.11651432622095124, -0.189918359775918, 0.18264296060562224, 0.07458920476643482, 0.11847705964208162, 0.07818082930156219, 0.00045881843284309773, -0.22736973761997847, -0.08581331448849372, 0.1214105261570788, 0.08157042011880118, 0.14827328062518053, -0.08406692135431157, 0.04182953642807745, -0.11121619340763304, 0.0673064666064909, -0.04464184937545458, 0.009918585735923744, -0.15955446396124756, 0.05904943387668231, -0.09678633186203284, 0.006479583553664377, 0.07191671140186874, -0.0771819147104318, 0.13812205092178217, -0.14228562754628243, -0.06372334175544662, -0.13845609587222846, -0.10345360022890836, -0.043163883911167183, 0.15442572125699197, -0.14313284680873234, 0.08847935025931143, -0.11292411373266446, -0.08761970686856194, -0.003776006265973273, -0.06842710734951574, 0.015280243742289082, -0.16194367689742137, -0.022909235160885666, -0.0010273519101000085, 0.03568880640897608, -0.1179915662902719, -0.16015173410719044, -0.08047655557395073, -0.012927096461781584, -0.008443341766298929, -0.04165301062921478, 0.054789852699613915, -0.10300282978496149, 0.05230886670860855, -0.0494026469235347, -0.006808593269075091, 0.0881190516906457, 0.041312128732298156, 0.025689521050895676, 0.20864111755838316, 0.19238076320129927, -0.1833528458384527, 0.08253222323718168, 0.05466042957836662, 0.0017698335479525917, 0.21921746208577314, 0.08265541691234327, -0.07607478246806053, 0.12934352648723565, 0.22151137686764444, -0.09188212661857166, -0.22375376765817964, -0.03278766483293655], [-0.09751356650433111, -0.19586963983337072, 0.20566846319365945, -0.146631139540529, -0.01341392341884971, 0.23013247910295268, 0.00656479680882705, 0.15780839978023325, -0.0426453628263295, -0.17679764358605776, 0.09992560415920045, -0.05001208246729536, -0.22657993265316215, -0.06453449419186127, 0.013525745250751444, 0.1576048141738855, -0.1517193244265806, -0.08792898976709916, -0.1517971250598945, -0.026893358698355713, 0.09463346375564807, 0.021675520995804227, -0.09872247458231194, 0.2164521551070574, -0.11094229473975435, -0.09322106672052279, -0.036486241742041584, 0.2164512815613353, 0.20554596886761795, 0.03468453091231117, 0.055029550544763314, -0.05330965225124333, 0.20185501197011457, 0.22260162572539754, 0.1857207630164703, -0.020563681334486352, -0.21700371265183202, 0.007905315588667215, -0.11046476786959562, 0.2023460665788826, 0.18277722706003277, 0.12041071172656596, -0.10138753990900713, 0.07494967140246932, 0.08896256539269358, 0.06758831364459729, 0.17119027191041436, -0.0697713595560611, 0.10619120111781409, -0.07049897942842889, -0.2240634977324392, -0.21280194333764527, 0.027331326269020025, 0.07223259064185705, -0.06923348039956798, 0.03613916149391504, -0.04287299458791009, -0.1585107587792181, -0.15456761444368877, 0.06324834249331025, -0.018242236672769887, 0.1380830612086402, 0.2324356424292972, 0.052963396107365876, 0.14407095318959187, 0.1109780717439056, -0.06629592059382614, 0.13550712358147826, -0.18826815401710645, 0.09238930076645613, -0.03807011246910848, 0.01362614454022808, -0.09859519375763912, 0.042679727236739004, 0.16839251610986222, 0.05360408922218384, 0.02214968658924263, 0.0847173719416691, 0.15466167295796632, 0.0250796918216789, 0.212475630111565, -0.018023688142841682, 0.1574284685241423, -0.19892044550326793, 0.033386624264983, 0.18730560661464926, 0.017520922343968473, 0.17565465359545293, -0.03878570809657143, -0.0044902376252621955, 0.21781347943987805, -0.07516585964914864, -0.0129621551588136, 0.21475533464806984, -2.1369358800570396e-06, 0.08367602956644495, 0.007992374761861706, -0.11805203225354172, -0.17445474761297686, 0.23641723162142192], [0.18661750589743922, -0.11792515082414844, 0.03136710764098774, -0.02672016130425068, -0.028730246882454076, -0.22011970253075797, -0.061073512025594176, -0.07712088627092518, 0.002479949295997874, 0.16240501187061313, 0.12927206826327858, 0.12992583074260677, 0.07983899019944822, 0.17645304669342282, -0.2117044646700602, -0.17186798071296164, 0.00209669181631291, -0.12094761230217099, -0.07365948075038078, -0.006191172403676097, 0.2331656379932565, -0.12661712382557586, -0.13718994733848322, -0.067520539388315, 0.22571304627255653, 0.22129282851271864, -0.03389194287998887, -0.22723526087019902, -0.09153094706818408, -0.1375362636757757, -0.029344697165907443, 0.21187465894481278, -0.18680488174105417, 0.0668809112818386, 0.10414611085284671, 0.10474621815556785, 0.17517462423514682, 0.10728411183644461, -0.023255775485913358, -0.021505523508430956, -0.201336964803638, -0.014759381435003752, 0.0570947310618431, 0.1082244563307072, -0.07537788422802848, -0.08261491954261621, -0.22448132278583421, 0.05863246229102452, 0.1463263595072459, -0.009904914249921758, 0.1068327609997506, 0.028095308852627864, -0.1907419902828292, 0.06504509983404172, 0.013036342118611998, 0.03974407975644324, -0.012554949924014585, 0.2323546305104996, 0.09269798366039914, 0.010055093514131516, 0.04322592899376472, -0.024264822962244192, 0.023460439212123714, -0.09770142075362238, 0.09877711554453676, -0.054077764362429274, -0.002917704162374083, -0.17543278923232414, 0.16181168553360448, -0.22445629222698302, 0.059012429379032644, 0.05402468001331401, -0.11658715883007871, 0.07397540719344672, -0.09477078757865383, -0.22947451213097442, 0.00729451789397704, 0.02369239642676904, -0.03399882845938119, 0.1726011691652389, 0.09452069632731665, -0.1263818150730842, -0.09219860218058448, 0.08564265425993861, 0.11982689058885103, 0.09293037468921699, -0.06700028957543532, 0.014782874000409136, 0.11017357513041978, 0.08650942460307635, -0.15945547159396797, -0.008048941826290063, 0.061768814112942313, -0.039417064996322755, 0.1639638792143794, -0.1859796797703706, 0.0378327944100096, 0.21071966278191653, 0.1732418380144332, 0.10113702556346578], [0.19592988715144571, 0.12822168469706421, -0.03840291533515172, -0.07581141412686077, -0.17072889196425223, -0.11856362144254504, 0.04810125630291018, -0.026822993977247366, 0.1469148346097037, 0.23343933841324307, 0.000827911085098784, 0.07168092976601445, 0.002499612183779907, -0.07329166747045995, -0.08111435765829153, 0.0993811496660285, 0.2336987793818882, -0.024735081497286725, 0.061142183332504575, -0.07796077745804321, 0.0005940597167402931, 0.053632820167798786, 0.06860127460380344, -0.07088251718573826, 0.15956473628428602, -0.037567446036067445, -0.15608616321906865, 0.05465070977699678, -0.05790990278226999, 0.0276033210312483, 0.2187122590529404, 0.16692070383494143, -0.10545084809507807, -0.015000544407200816, -0.13497268123048695, -0.15966808793188914, 0.07048767726051422, -0.05001449301974974, 0.023899291912329017, 0.0025921713091678327, -0.03622659085412309, 0.09044266740585388, 0.08947233666213314, 0.10615673843900623, -0.06319122402133433, 0.05333466562688541, -0.1846836320562252, 0.03361927315300464, 0.11917611675069002, -0.20282618916337425, 0.005185144424849832, -0.10648760804604107, -0.213268696648989, -0.0007668585253803325, -0.08919323137027688, -0.08630918875969291, -0.07344837155658672, 0.19907645075676397, 0.018850157461527885, -0.031036568602895432, 0.06803764273982005, -0.07995934813545519, 0.03693554624389464, -0.10193057507724494, 0.07325430506739602, -0.12097439075099552, 0.22256855418823746, -0.020950861500545235, -0.10930904223992526, -0.06684897112650119, -0.1351175285051619, 0.18252319057700755, 0.13410999927371609, 0.10899682362051485, 0.09849576625124398, -0.10023723690663283, 0.07553726530378926, 0.044208788985702435, 0.09266596631734222, 0.22567294194446483, -0.03239848579813766, -0.04955007287250213, 0.0475856270000304, 0.09574478960435183, 0.015479108166290707, -0.17309300190078825, -0.11377239221287923, 0.04733828799893246, 0.1428646250930086, -0.026342264249565296, -0.22918715661729397, -0.21644981844410666, -0.000860887632575779, -0.18827086179941524, -0.07497560425206456, -0.17163204047165173, 0.10269759005049045, 0.05230102455718582, 0.1930534977255965, -0.049607441368741484], [-0.18776261361981567, -0.01698933353647779, -0.051657864106556706, -0.07824371014615071, -0.09554491501949053, 0.007399790584929559, 0.04972139923215556, -0.06855250211674241, 0.10017487455417033, 0.045251306686861885, 0.034817405818289696, 0.1394452274614312, 0.13064650880714707, -0.05802171128428048, 0.1525187533244381, 0.159126714379448, 0.1390379165646711, 0.1779296666720353, -0.16323913139876342, 0.14462452724118263, -0.006345751735062068, 0.15688769154597204, 0.16905220469475296, -0.10387041861737767, 0.07201948132104172, -0.03411525723794063, 0.1554148259083512, 0.008134040776704852, -0.03593962034184436, 0.13830168751014393, -0.03751322010296747, -0.15605402390753262, 0.022838699143268127, 0.1168872000537445, -0.030219105011229243, -0.06836712243071741, -0.09987480782164866, -0.12582145706009737, -0.11476088678850975, 0.1858965370871033, -0.07264753094279035, -0.09945524794305574, 0.1420370732676543, 0.0018184796674854404, 0.03369221738320912, 0.06436478632363082, 0.07655813317708797, 0.13943790446527893, 0.08701218537212742, -0.027919632184695828, -0.006452309483973977, 0.03301710075511829, 0.08432913683125355, -0.06475527938103277, -0.12849237041249695, 0.005330702042357936, 0.030044320352823038, 0.01611996495821072, -0.1421343664396907, -0.1243735740446456, 0.0012765897315255897, -0.03869707831515906, 0.15271913334806678, -0.02091360292240116, 0.047413495809148415, -0.10961405034452694, -0.15529467834630745, 0.0025222444957112514, -0.010256055552156997, -0.03896741781457507, -0.020877371253970576, 0.014659782716251561, 0.14288558445603444, -0.196783534149958, 0.14610952531353502, -0.1303597883928336, -0.13410744375091158, 0.09137465600661188, -0.14306544746358552, -0.022493710261162515, -0.0540983113516388, 0.06482548734842845, 0.01409930606883766, 0.06244302380686048, -0.13755386238817535, 0.17869397254558683, 0.15083103755104896, 0.098383641235123, -0.11299687887594755, 0.05029483158459569, -0.016536278083691097, 0.163623701337584, -0.026660822235514442, 0.14595255294042633, 0.13060089422192883, -0.08663422914367243, 0.14939309275007434, -0.1267677675405432, -0.14132250544701583, 0.038795564586424795], [-0.04253265099036896, -0.18867648294544415, -0.10891565901408226, -0.12263016129980539, 0.10121602795639292, 0.19230395014769824, -0.0709602973021723, 0.02639755374746357, -0.1253090370778567, 0.12136903251981597, -0.20211641972879907, -0.12344895202742087, -0.1681775588432589, 0.04223465879452402, 0.20843634325265095, 0.19970675126084142, -0.21284445418388556, 0.012823332936702285, -0.05385441118100798, 0.08487365292618661, -0.11123534406958868, 0.21129568669256263, 0.12943588820981972, 0.19098132052263644, -0.15330468897141625, 0.1127194875660514, -0.07361405078711614, 0.04682926864596295, 0.14469269200925372, -0.12190761977208471, -0.2032665621719805, 0.10740493767393484, 0.0991446993611429, 0.18365892520921562, -0.10715513640287987, 0.0555131186291401, -0.035140129072601736, 0.036846371012225786, 0.029582694840278267, -0.07702328890379483, -0.11009076527523444, 0.025746491961282633, 0.1162969301834142, -0.003899677709933237, -0.05725675844517793, 0.07722560682749696, -0.1054938343200154, -0.012879427359988364, -0.11346820224623902, 0.02203214250924983, 0.1173076069931225, -0.19711464720503505, -0.04005128593400725, 0.018674781118983057, 0.18717091861937485, -0.07196071382560373, -0.09783179852422659, -0.01623874695436477, 0.10674781685353438, 0.1278978495754674, 0.02173626778142777, 0.005375773183395834, 0.015058282336614132, -0.1447141374605611, 0.21734427910272072, -0.08626163055001408, 0.021286609208321424, -0.04561006606589856, -0.1961454996290326, 0.019083491182317582, 0.11977053780687874, 0.08896681917494013, -0.06260047665034371, 0.014322680658183658, 0.16717488261139835, -0.01024211156337447, -0.15797130273544177, -0.025420589948069106, -0.058708516803602784, -0.14166916290137982, 0.16308902341167827, -0.12991366284703765, 0.002267262957113164, -0.11687561791237552, 0.12385617934455972, -0.05583700478353745, -0.055338945141408746, -0.06591979969412035, -0.0919959251212361, 0.21151953329318482, 0.2026555799238953, 0.022764527470481816, 0.05093609954463597, 0.16907149293729423, 0.1411354685167914, 0.012825286405963957, -0.1129531726027568, -0.09891765192764147, -0.12364314914321854, 0.02413394598751553], [-0.05073672003652053, -0.2272510466412353, 0.048953007954536276, -0.08249272769003244, 0.10199283264905513, 0.1578381312893775, 0.21699282406032416, 0.0008469934266451415, -0.06824574916738657, 0.09696119518334521, -0.23243945000467264, -0.08495812288723809, -0.09184085822018019, -0.08928021826570041, 0.10030257150693797, 0.050350524849223095, -0.06756239103620557, 0.0017124341937588307, 0.09333552402215488, -0.07978757347402825, -0.08916298827572286, 0.03500250988870594, 0.07757578236832154, 0.07140910821583554, 0.039454970047503576, -0.025644150378221067, 0.1973097324359817, 0.015235292870796927, -0.0332175500377699, -0.05735365556209675, -0.04856029174005076, -0.10913994444566259, 0.19999744133359926, 0.07370349246814831, 0.08110599760756121, 0.22140710424813026, -0.14776769954270977, -0.1023186307221972, 0.06321827360571322, 0.038178053168950246, 0.0489112394736408, 0.006313636093552746, -0.017452383858876527, -0.133542875009499, -0.010035165287912784, 0.15517793382885825, -0.06120527054441946, 0.19409397776409518, -0.0063164170398253006, -0.06565377803393438, 0.055730242512832304, 0.010177296077696903, -0.010681518991107829, 0.15582516650554262, -0.05645537810188429, -0.14095432227310242, -0.08307365525945104, -0.08417530778513779, 0.05122139294261817, 0.10291968738427604, 0.003097966538102879, 0.06442528081519802, 0.09900554103588859, -0.11583246062988706, 0.01683037501483285, 0.1691966959450346, -0.19076412859801753, 0.10324624696004976, -0.22418054794901746, 0.10825380136069603, 0.09496579266393333, 0.08410558389269283, -0.055449649464722355, -0.05296205367474463, -0.06363572923674674, -0.07277724746447257, -0.04107218539128458, 0.054491750499512215, 0.14804336813177577, 0.0075649568943109155, 0.17693143585030904, 0.13485812496599411, -0.04889604999100322, 0.056090611921162145, -0.14054523363731738, 0.21257182588462636, 0.21449305829305298, 0.15947666500005825, -0.20191811039417834, -0.08027670171094861, 0.17543457867676243, 0.21373943081382993, 0.18510055103455747, 0.15932047774982258, 0.05444243686909128, -0.06717632231624167, 0.03459682919865503, -0.17808587040662632, 0.03996488727081414, 0.06297527074944369], [-0.14201886641504077, -0.11039138401975997, 0.040827426077977555, -0.07809202533668579, 0.09729240052896981, -0.028727679077435057, -0.06780840180499223, 0.11581158353284485, -0.19188302447063074, 0.018863030914221923, -0.20258569326275974, 0.032414882069076986, -0.05871946320913635, -0.11415023531405258, -0.011476851407338645, -0.10323190082661396, 0.06676087587030143, 0.03618101910453252, 0.06168956419917186, 0.07486645178936592, 0.05785975106476106, 0.09683583966192766, -0.03661544127247067, 0.13598037049206874, 0.03440065586872336, -0.09596365509492218, 0.16858393420393214, 0.13308342247200322, 0.17782959269706916, 0.12644857923639055, -0.003997975170869289, -0.14029283481247437, 0.128215132455551, -0.04953839856359457, -0.0747828903892898, 0.1046762186220858, -0.15405749441309816, -0.12082367701970494, 0.12774597883096614, 0.2075295303010267, 0.03283020471716864, -0.12423215559062722, -0.013203287656194444, 0.12159397478244617, 0.11021961830534588, 0.2122841408639645, -0.03557188459858339, -0.10720529523660777, -0.19741155972840213, -0.07864072160473978, -0.08224481305528293, -0.017222314287810875, 0.1872272033400172, -0.12352697369494554, 0.2106465927194925, 0.002751294652099576, -0.11435491463269402, -0.1951741225880702, -0.1249055079179666, 0.07329144772450152, 0.19754748219317775, 0.21834384415208524, 0.21078139709499957, 0.09749695743529027, 0.10139203131570222, -0.05500918379096638, -0.17618803128621877, 0.1200934715430661, -0.08669005277717229, -0.10438793708190487, -0.09095023353508201, -0.0755223001790299, -0.10016780063750609, -0.20356916978965114, 0.02567394715796181, 0.173977368419372, -0.0182042535936071, 0.19941252519978223, 0.10004526607038332, -0.08670474693565408, 0.17504536095459908, -0.04634814230602077, 0.07734301774812055, -0.10273257157482392, -0.11709602928740982, -0.11536109503946466, 0.11565610033295992, 0.00994832917019412, -0.018817266197580187, 0.20184218457262812, 0.17020505553843915, 0.029102943714521993, -0.05858829417115308, 0.00994857221706094, -0.1709898971706778, -0.05201198816266285, -0.05288273276227323, -0.14972329034157392, -0.2102576518768089, 0.07933005017083546], [-0.1581405139837355, 0.10751219924136797, 0.09896777730543231, -0.1334075203737865, 0.15017667042934216, 0.059162059802879974, 0.21587010581289123, 0.19789429928094324, -0.03356795195133231, 0.10722567065705188, 0.09985601168856917, -0.1419326386503797, -0.012511595494452181, -0.11824226340204559, 0.016509747376586156, -0.04618133210271082, -0.042857721115197596, 0.023424033562530287, 0.08313140784275504, -0.06312814646448338, -0.10573184413003434, -0.09653019169930831, -0.0562210296810797, 0.16477526276113075, -0.10793941120205545, -0.044517401975788, 0.18113896916770492, 0.16516808566572982, -0.06696411418223595, -0.05596308940987335, -0.05298030474436968, 0.01323682780152147, 0.1905242117518819, 0.16610351596221642, -0.09341892984453673, -0.057310913234808344, -0.22747101059074887, 0.07572459747828718, -0.15528638345603363, 0.06505377782467728, 0.20684383982529364, 0.19937787062368306, -0.22199410385651236, -0.05524624164778812, -0.12843305391618315, 0.030882376066314485, 0.12686079641956638, -0.09177535056809967, -0.06981915226014564, 0.09375338624868892, -0.0056896847297349205, 0.026591721343926327, -0.008708807816450927, 0.04201820635338103, 0.07321093499520678, -0.20985595554478462, 0.042435519955592076, 0.0022808074325691365, 0.0025151732698352903, -0.04016816620837964, 0.09587081285752684, 0.08783345293163594, 0.025364640312888893, -0.07912899564386888, 0.13561076427140772, 0.057787764874520725, -0.208093404277442, 0.14072967870698816, -0.1254402374652035, 0.04730738593969944, 0.20599233812554352, -0.21094515062898261, -0.197308910189286, 0.08996230744172619, 0.049050148557652336, 0.08622684191011824, 0.051520634667237705, -0.020637500640929365, -0.09631805023091865, -0.10067021720696885, 0.012911579566298369, -0.01563571523978741, 0.16514321268773172, 0.018850173452713948, 0.08654643322235596, 0.13689505607191185, -0.016365151229898626, -0.03923001718095026, -0.012190200946656075, 0.1931358650864491, -0.07071592082296722, -0.04810547915260341, 0.024093012877759598, 0.2352900861642247, -0.016638898484465987, -0.013056415450439875, -0.0878146352838555, 0.03388684161996007, -0.12963031899768349, 0.13215862719515048], [0.03591366149121214, 0.13719292810068442, 0.029438450369418164, -0.07977007486026987, -0.1343990296850683, -0.05755410266294285, -0.10437308813356135, 0.015902869677962415, 0.12424904732574103, 0.13411914636841682, 0.11838421950138518, -0.05066535213459729, 0.03679368293091298, 0.21827941079435006, -0.20205324358398016, 0.10521472116018016, -0.037435645433864184, -0.11954138020872186, -0.016279206104174666, -0.05257506201655898, 0.15235518268166925, 0.039479587679258535, 0.04090542152990774, -0.22904866794270143, 0.024345275438189352, 0.03738407738955143, 0.08569827269185526, -0.1170662264443471, 0.09868540415136812, -0.13284575532017076, -0.08576091876664675, 0.0360388698391202, -0.2205213944957344, -0.046324253400975915, -0.06393771043269358, -0.12431573854141922, -0.051418342355003505, 0.22809231132597746, -0.017044001443487212, -0.18130530408477402, -0.19335263177870057, -0.07705363722965936, 0.08722121596926315, -0.07229317107525814, 0.0031053862712265116, 0.05674429812300141, -0.08492732286611077, -0.07382532354392571, 0.07294873215009212, 0.08808803856791048, 0.16521101991557308, 0.14334941707249865, -0.16552184342040108, -0.08540910020221484, -0.029400728746773064, 0.01993444369415945, 0.009830900464392087, 0.09830735411748236, -0.06001220293219814, 0.0016134196851892162, -0.10057906361808415, -0.06381996539203731, 0.10924961187469096, -0.07658283871550921, -0.057408301901581096, 0.0703623096603936, 0.0433917656150756, 0.10780489297651766, 0.061462776864766484, -0.009779260080702021, -0.13077017855907694, 0.1754861438183932, -0.059985279176079806, -0.06790665423906579, 0.07664726196988228, 0.10709524116868477, 0.16149827276916406, 0.04369532196371981, -0.15840131229420207, 0.16752704752208483, -0.09736523671881055, 0.12054951275999208, -0.15313779933154004, 0.12728718571082193, -0.051832854509041765, 0.08326546765084974, -0.018570724924150097, 0.10197245205934825, -0.09290519145998548, -0.13652309011248046, 0.050080468527899116, -0.1625108948026297, 0.08906853262386163, -0.12272569841267787, 0.14844028148299043, 0.09807061311447976, -0.1023838562276641, -0.013439949751664567, 0.169556205246212, -0.20253115441045058], [0.1974895434780905, 0.020415499833311798, -0.031264181750657365, 0.08892952523150005, 0.021646528311975628, 0.01814028747291095, -0.10650805168214052, -0.1836116729989512, 0.18854145306071304, 0.021280885366361087, 0.04978400547360579, 0.19697171536436814, 0.025239308623557163, 0.04576344192538056, -0.2062706445420523, -0.12979032588739509, 0.21970044956526963, -0.0806581748535652, 0.1637874624232401, -0.03313458568777107, -0.08895290120130932, -0.015805736150341584, -0.18948122965304087, 0.08135361952364505, 0.009628298654290811, -0.029328403415798662, -0.008988568139135036, -0.06413887073359963, -0.01692875295849787, -0.1365010448772102, 0.22433101435156375, 0.05696061856065408, -0.11072636617234627, -0.060807050256080214, 0.06084163322029039, -0.05790940233886038, 0.2201611138415848, 0.1219759243152894, 0.1789132287843651, -0.1477116391722264, -0.01831835622115261, -0.12555356440540935, -0.050631539213724125, 0.06581764861357313, 0.024236446222707136, -0.05095067869079038, -0.18260030294497168, -0.046064554703367865, -0.012942122093508812, -0.0035823282611690973, 0.16078708714202594, -0.11056151818928887, -0.17050248154961747, -0.1277902117139863, -0.042002090784971365, -0.05181503069191175, 0.06183175042009077, 0.23106266564274697, 0.07701682657762618, -0.11970827502021716, 0.028301650727926043, 0.13785428387510892, -0.20727291391827152, -0.014938839029160711, -0.05395226234142741, -0.11244319442471552, 0.19399597892502504, 0.05467524909558341, 0.04578238132052047, -0.03926890329119743, -0.09407529273771237, 0.10035188953832096, 0.13748237358470017, 0.16094974742629375, -0.2104071650820514, -0.008283690460362354, 0.2254927396032887, 0.038865908859722575, -0.11476748811774642, 0.10129011627983835, 0.07429817988151818, 0.042457280927068686, -0.008428527473870526, -0.08145550182542313, 0.14597260360208245, -0.1336099351695722, 0.07935578290914817, -0.051165081408689694, 0.06304838284097361, -0.22493423775823218, -0.10154199145047674, 0.06654434050681392, -0.2299639092853468, -0.1263195627945244, -0.11789667085539604, -0.06826329934950391, -0.07116324381758997, 0.10561076600572705, 0.17781793862191306, -0.1168761760852479], [0.07341324518416899, 0.08999402061842164, -0.06957752118435595, 0.1393591417079582, -0.06541770776772596, -0.0030725453019597683, -0.19894561030431607, -0.16816566209969655, -0.0756221835913263, -0.03706171089056526, 0.18803255789494136, 0.19130400577402296, 0.20348185274113983, 0.19075571081407358, -0.018959861211705505, 0.11533463531776121, -0.08254246822465337, -0.00487682187811276, -0.08699093309708107, -0.06270535151515993, 0.21146201424111127, -0.05573197577705489, -0.0823730935395161, -0.07072375908655142, 0.06991324244860112, 0.21469244237469057, 0.08264806569070227, 0.06488452354231528, -0.13822448557238318, 0.04272734516466167, -0.04199297145730185, 0.15953810788847536, 0.011175011600513225, 0.006338308174839429, -0.2057072181609043, -0.22713965782675777, -0.008838534228132983, 0.14881145170423327, -0.04962145003028484, 0.07177745474213502, -0.05282896381968555, -0.051226155357741415, 0.0015759038046342922, 0.10220066245359188, -0.013150992126936937, -0.07123704115996088, -0.14235589000872165, -0.13563525985244182, 0.2292572979734982, 0.022682088789960635, -0.08177876055529477, 0.06948384688908776, -0.04549619551013624, -0.08244448057410934, -0.12653456557205134, -0.03199293473924378, -0.12300681738506755, 0.17510047199515302, 0.08138213046832386, -0.06334998829288371, 0.075261429430344, -0.06018644820656982, -0.11294393198520042, 0.21406903597911692, -0.20969830680197857, -0.15358269620245346, -0.10649546277889327, -0.07659698764955213, 0.10257419456598454, -0.2137860262590128, -0.10184046674806005, -0.1102592904349701, 0.14785555706717532, -0.002660819467904233, -0.21655345731538478, -0.2222069411240238, -0.09755186871573908, -0.08663207366726203, -0.20926609513825045, 0.20986578655700047, 0.04050866990651003, -0.017605055282692312, -0.22434164741454296, 0.07534976947245627, 0.14181359298688467, 0.03812325777918406, 0.10235038365460382, -0.17781623497092253, -0.08243824406980696, 0.05976866871598932, -0.2325300701324436, -0.08725251236849887, -0.22273285999338063, -0.1655737895966207, -0.06852053382577229, -0.0038437819297105795, -0.1291939444198369, 0.020968005310937347, -0.10037358444269696, -0.09767835783741988], [-0.15540654595476244, 0.04388269527757112, 0.21735718530651524, -0.20470725076698404, -0.01599857389669389, 0.18221366612964748, -0.034249274926700865, -0.04306228252290609, 0.013897479976234396, -0.19868290413467768, 0.016089108953563275, 0.08668941483679671, -0.06318101985128172, -0.2179125704707984, -0.01058081180734775, -0.05384587946128572, -0.027008983993888437, 0.09100411307609702, -0.1908889911902767, -0.04009576647755193, 0.0071006226314743875, -0.026587904810953977, 0.1316427723812925, -0.07529093690662156, -0.061751425681970756, 0.004341391551745751, 0.14509125820408125, 0.03822560280618291, -0.05849926358431409, 0.19088165437393162, -0.18628015296809886, 0.03188141867165356, 0.008547853116451466, 0.04308241289358138, 0.20748490645053, -0.08052421091555402, -0.053556576219611664, -0.14891387817444834, -0.09647870819434208, 0.010255678348627886, 0.013432956481133471, -0.08895060002148435, -0.04967203431870901, 0.11428688081546864, -0.021807385541549207, 0.13858406679970506, 0.018719206834982918, -0.03660790354485874, 0.016387508297797063, 0.1912192951812889, -0.11721804221549374, 0.021134451346686657, -0.0695152950546878, 0.19314224410121605, 0.10456525063409779, -0.21814869244043536, -0.04767961005547472, 0.08823663690354364, -0.18453311806912415, 0.16373659756531866, 0.16526527452661935, 0.16159546032954397, 0.06978166674668865, -0.09079377945207406, 0.15889821582264582, -0.09159599658327298, -0.053994358213713047, 0.19431716143645883, 0.0929029004179807, 0.17241599464676666, -0.01891115083558377, -0.07686587998399244, 0.01740060986895679, -0.08958986276355976, 0.09496810651535248, 0.11243230490943766, 0.01979763888637925, -0.0972525311954408, 0.21759661108687536, -0.2062810765948006, 0.2263574181807117, -0.07725676675450587, -0.0004594969263634582, -0.19803140595110305, -0.008182028710248252, 0.01766930554587598, 0.20164754460882994, 0.1713106033170454, -0.13174251422551725, -0.08244919226856567, 0.004218311719272747, 0.2134244373627241, -0.031217450528248706, -0.07280261570756474, 0.1181575399841835, 0.12606167691733444, 0.03271189404367279, 0.07477731374839335, -0.21277025739784916, -0.06468364309232928], [-0.18528056586837813, -0.0034319881206716233, 0.14015120304934914, -0.09182835958368847, -0.028438634216533077, -0.1001695261432289, 0.19170202347232163, -0.10961550259590877, -0.11481638068976256, 0.0016300833737905797, 0.08018483652325935, -0.18521803170563217, 1.4907990386056597e-05, 0.06085331644615384, -0.04799170844178524, -0.06416132127619781, -0.16793000487642618, -0.100195593516183, -0.17598297278448194, -0.044026460229490444, 0.1447415287468484, 0.015346182077142613, 0.07984198023061548, 0.03018950286403263, 0.07561381144364367, 0.06074582288051078, 0.0009384848699402882, -0.007917782787832409, 0.18992573899222276, -0.13570314994715305, -0.11000699196785757, -0.19024997463575583, 0.08366963895039667, 0.06280221658956035, -0.1436608306912889, -0.01012066939470991, 0.03385069613405217, -0.06476367693130534, -0.06317728206755667, -0.010410877745087827, -0.0675335391854009, 0.04555643738786492, -0.10164077109125699, -0.08561216493560951, 